{"name": "test_momentum", "layers": [{"neuron_units": 20, "activation": "tanh", "W": [[-0.07057165860252101, -0.15493714311329912, -0.5874858499067274, 0.17899880226490641, 0.17120737876332814, -0.04339045390671638, 0.16702757669366627, -0.2210422529326696, 0.17827453778514665, -0.024227306786725623, 0.39534926382575286, 0.02413852296393795, -0.152935939127872, -0.029892354527228143, -0.3773002909460573, -0.05945544885897618, -0.11695079087443197, 0.10725534253152548, 0.15706073721906288, -0.067267496356661], [0.05686652517033783, -0.2330197557950575, 0.006157262727897581, 0.13966734078950585, -0.05973331021809004, 0.13188423640053606, 0.5011053279736163, 0.14604755192127203, 0.27298324287886794, 0.16879459186226584, -0.04596755014677521, -0.12559117050163662, -0.25264518788119683, -0.2317697488040241, -0.2029595985940747, -0.0906505931478312, -0.15588007854310892, -0.013144977153999779, 0.23316723226374084, -0.09804076394542738], [-0.03699095957064508, -0.12297731229926118, -0.11122528222466488, 0.21403264567186653, -0.11260145011472303, -0.053176612395088564, 0.07220902677720387, 0.2866938151451717, -0.056003298754694654, 0.015871702442569694, -0.13534910651710477, -0.13034234530114516, 0.13570803642840623, -0.06018928195649651, 0.16824206980810974, 0.1656568098677613, 0.04515998772312368, 0.09358909951308216, -0.04939852592249801, -0.016590705036721727], [-0.0307411848070392, -0.19403983943806272, -0.07499577591135184, -0.12624053917462733, 0.3093571589349663, -0.2686910573311838, 0.13698491456436268, 0.331386082528154, 0.008088438377307576, 0.15401648722135228, 0.331261899963267, -0.13392485073234572, -0.15366506903698265, -0.01821685564087796, -0.1262762641259716, 0.1714822475949283, 0.04404149577227724, 0.3468938801197418, -0.11116177749129517, -0.1416713304591488], [0.3468656209542005, 0.001293586069385057, 0.27261748921370665, 0.3170926456822435, -0.138657824924465, 0.153443349830316, 0.3652288032893469, 0.15606792980374973, 0.41592887033168646, -0.06130266040486068, -0.10700044971723027, 0.10890118276313555, 0.004314033047342656, -0.2149716668200438, 0.02296049151677812, 0.019774991770064268, 0.03159349251026383, 0.19844483248864977, -0.22348418128078998, 0.14620473051309993], [0.2203984043616464, -0.18437324772711153, -0.014481843348567131, 0.2398092458938923, -0.14446055378712278, -0.0656246427236632, -0.03675673286863858, 0.23647561643610088, 0.23829794045911368, -0.20636117560222839, 0.007354850209212552, -0.19208680922751276, 0.21762464947074717, 0.010490942091645647, -0.04254710955917631, -0.06724541921724178, 0.05404395630066538, 0.036533577519119634, -0.024586551683025915, 0.2536735121877775], [-0.008280997102249827, -0.15166032053189968, -0.22664198193097682, 0.06273053754058941, 0.005342202518311697, 0.2815416021479338, 0.06910451854842832, 0.45462105978743783, 0.005704943383038732, -0.019041465732194066, 0.05676167602268539, -0.2939448903446154, -0.42024777918928613, -0.28699174537279326, -0.1540434208151011, 0.1552945702838537, 0.38185186556417733, 0.5739253470494655, -0.18770687244296588, -0.01379747282144788], [0.12682405735542104, 0.0404978479182219, 0.056700919766846894, 0.35477292906407404, -0.1053058706375559, 0.1655921360071209, -0.07325165876195955, 0.14830971740154747, 0.14152207381568743, -0.11050745560563321, 0.20259435531898226, -0.0913582172562275, 0.011181130355139866, 0.2066153903994863, -0.08110462579963928, 0.14070720334682513, 0.13867132380409436, 0.26746434784285394, 0.07018645979318726, 0.020527875594502396], [0.017049843930615524, 0.08045008373005219, -0.08948622809293448, -0.012897983222529729, 0.47890070756859865, 0.0014558925060967724, -0.12204875680907436, 0.007669625500433627, 0.14783659922032527, -0.08017367473767623, -0.21858871662623763, -0.1913402603733583, -0.41099516440866124, 0.2164778723135713, 0.10675385543811011, 0.1011575273561727, 0.0600742652590695, -0.1351362958570402, -0.2020395843975463, 0.08215364976894829], [-0.14363597228591876, 0.06355308375298262, 0.22744373273467, -0.04224631724398044, 0.3741763492355314, -0.2943875988768202, 0.15010012235301964, 0.1913070806044003, 0.21692303800211493, 0.23492126044497486, -0.0024763935851903436, 0.25199380403696425, -0.0694994541914419, 0.010909662884240886, 0.07949781565124278, -0.3821092968330244, -0.2260135591358084, 0.14921678723865645, -0.08730980554241373, -0.08460709364227413], [0.0738197029810084, -0.13629325212645982, -0.009047636871662355, -0.1606575052295846, -0.05673699198042445, -0.23642064879982067, 0.17801208785119702, 0.2222912450162899, 0.10938907365434794, 0.06951878239713911, 0.029838194300068076, -0.18994642662160066, -0.09254715674151287, 0.10017049849541056, 0.36017940984555596, -0.21981571355557308, -0.1591550617851161, 0.17663461312843728, 0.027942637005765575, 0.029973069238797362], [-0.02466297379856105, -0.23303833279660918, -0.3050755713817626, 0.10559761750812677, -0.1411301270588411, 0.20576665437780875, -0.4668718907090518, -0.01388088072093149, -0.2585811082867385, 0.14458630687788773, 0.03966463889878931, -0.004570315809898362, -0.04051796647294385, 0.13234948344132969, 0.14472060693717412, 0.1338768869945087, 0.32832468502574336, -0.1334881252437562, 0.1911869810191324, 0.3034185798675449], [0.21568096733942463, -0.07843577508956014, -0.15661405679136794, -0.12971787503359156, -0.5421374397442107, -0.02213800713095892, -0.09846665686109092, -0.04424169207087617, 0.13673127475937435, -0.15762442521758258, 0.098025907943339, -0.19427798581765712, 0.337098170987458, 0.013990794394619002, -0.619615414414044, -0.14306915321120203, 0.2581281099195043, -0.0029700432794616174, 0.46267060804845267, 0.086857895972029], [-0.07652263100704887, -0.11415046510592444, 0.23765277973056156, 0.18083869371828865, 0.12160902465895564, 0.1861913652783487, 0.14465215067257345, 0.21387861999203472, 0.069908549450824, -0.003212127627899868, -0.039749971487671086, 0.25488801258663946, -0.02149051648312634, -0.21168799679869335, 0.0631451219017329, 0.06054264271693064, 0.2350217875517016, 0.4128133868313614, 0.45165426448831925, -0.28101620697478596], [-0.29287100747489264, -0.3846273646631397, -0.16431784927197884, 0.25093240685275237, 0.12700767189384876, 0.07338336891077872, 0.04332498542742764, -0.4860248345258693, 0.11523233652190412, -0.26895301424598833, 0.018736448321771147, -0.07383971648802633, 0.3961243092473721, 0.17605032494548142, 0.3450529682886653, -0.01783850616625381, 0.34498698613104084, -0.2738781481475116, 0.389217813804261, -0.27788247000631106], [-0.04343543517626629, 0.15906958681164457, 0.16069309637566273, -0.29049358709476225, 0.05899281838202134, 0.13528948818061795, -0.2783242975842815, 0.05961656548789191, -0.047992427257554315, 0.14474518136388195, 0.02146476287399617, 0.11572610406505258, -0.00040536267697002283, 0.1291340819350175, -0.020553831004259518, -0.049083007577967845, -0.05033118447012711, 0.26446120509154464, 0.2197005511980244, -0.13304644491360315], [-0.04934983913685185, -0.12213072300501104, 0.2680617882341081, -0.1794887384302663, -0.22652623276143571, -0.04388062033330261, -0.12215071166909794, 0.04430678525805858, 0.1511915365230904, 0.13253912623137015, -0.35599103973400165, -0.02319847980560633, 0.278332825840965, -0.10124784263233189, 0.44891595174783, -0.1214973426142842, -0.02281094220591662, -0.0929227998664871, 0.017428880908161214, 0.13511224314271697], [0.2641758977005876, -0.08513360126022475, 0.1222759757703125, -0.06684986411686566, -0.2114762375790787, -0.2298337979093841, -0.035150427957631965, 0.3497343607473652, 0.46768936437233494, -0.003447812814479765, -0.41160151797618355, -0.016432261699912413, -0.1091889382701952, -0.30945524287040765, 0.21677981324642795, -0.2412081180458733, -0.10220886346656115, -0.18625080926273505, 0.007430955773378959, -0.1356002419367517], [-0.0007437426449012028, -0.11701002927697945, 0.041201120772812454, 0.11850448491023573, 0.015571048998015142, -0.12575000483911902, 0.2269868274274862, 0.01323516973430459, 0.07833419292135407, -0.22091119398468548, -0.24041246762570834, 0.09931112202450286, 0.009497802403461245, 0.23034542928487442, 0.3193535623997883, 0.1766756508934173, -0.06916117537296822, 0.027387584183278354, 0.22839206039788354, 0.18016169574432883], [0.5125945552817032, -0.03958990321514929, 0.11898887771231755, 0.31651083620794424, -0.6018623301608702, -0.585618166780529, -0.00541725530839391, -0.11589460380752722, 0.29421969520238445, -0.073290955608156, -0.1522605268247451, -0.009571401617796996, 0.2157330806639964, -0.020715960397520588, 0.20186809326742175, -0.2605958034206893, -0.08858135649337494, 0.47752486618052453, -0.14137810082907723, 0.5021223555377559], [-0.12778028112720743, -0.1711574545442535, 0.216305560496087, 0.2865997939221026, -0.40131566037138133, 0.027702557815233685, 0.022914213223334732, 0.27657421805742155, 0.03618523411305371, -0.2695486668570216, -0.10941208549366895, -0.2672309105407227, -0.37412125275974456, 0.3367798705161738, -0.10611526872030362, 0.3240119609068986, 0.20497317702799314, 0.024210673216365813, -0.14524305025448445, -0.04721141803715817], [-0.21927437956731557, -0.06977990107856312, 0.04177314798882919, -0.11991502186002571, -0.2162279242548681, 0.5524346385809509, 0.04270456843008987, 0.05699204935131925, 0.32422458819556566, -0.22022864300893985, -0.1626859444766877, -0.17397231380637937, -0.126177787322989, -0.33857477657545676, -0.028542769971719215, -0.2867856998989501, -0.1472244796402926, -0.10664389904028088, 0.09142041692644201, 0.08840118627711957], [0.14409776002686334, -0.12048172631342034, -0.226161286119753, 0.3819789326807968, -0.21053289626576582, -0.3183023765050376, 0.17459112210681405, -0.11190489854371771, -0.08917597260270625, -0.2761878974567154, -0.10768404773519918, -0.040389841654827105, -0.22199639212085676, -0.21662390928190636, -0.036825948848921965, 0.42579613279805434, 0.337122544869602, 0.03823191777094066, 0.16052897094540786, 0.046060469278791406], [0.1470285462472581, 0.2576682383980038, 0.07415953891615185, -0.10014636357442573, 0.27511480036719693, 0.04016400049043039, 0.08620621157554723, -0.12919380120659305, 0.12275166545641734, 0.11666027522275295, 0.08242138542509149, -0.04280190061473343, 0.10933411114256197, -0.02688734363974785, -0.3017958871557438, -0.1164606872220775, 0.18377325764625096, 0.286336114779739, 0.047222918774747304, 0.12332435473640116], [-0.021804009635889764, -0.2724316712676201, -0.09897765347703791, 0.16603537490564513, -0.13845729955803965, -0.45140063482400183, 0.1427420493895328, 0.14449487656282814, -0.2565414596734942, 0.3294838282645504, -0.15954155857940622, 0.09738311883872011, 0.28087084222839126, 0.0799148630848262, -0.11002590914421641, 0.03368690808062885, 0.08530242021094718, -0.09501209606401757, 0.2116044656875842, 0.015039418327334148], [-0.29929088031967943, -0.3341929982881997, -0.06313740216373241, -0.04635822220841355, -0.120877570075249, 0.0979626984543785, 0.08871038694180454, 0.1512003006925281, -0.24521937130587487, 0.45652708021416516, -0.15518206928401235, -0.021315878846695016, 0.2347252282617217, -0.2011422228314257, 0.19965937097319542, 0.08617573337042934, -0.16802271611094757, 0.37087074908886175, 0.19655276618696224, -0.03061053728531685], [-0.11705906962789285, 0.3214334062217466, -0.44973960988728906, -0.5479693182947404, -0.0719911575332931, -0.014811946406243243, -0.25256220128589874, -0.0837084828513855, -0.04476147237070954, -0.11195469378404567, 0.09875366153752058, -0.5359993239888954, 0.20819670064204412, -0.07533717494363229, 0.3436881562227664, -0.09350284033105044, -0.08914609397757343, 0.0730443156216771, -0.3413746804756675, -0.10582787686040072], [0.23422302481424678, 0.11998956250750549, 0.3176434687786301, -0.25116166826884434, 0.15220662910224633, 0.19087360154027688, -0.10387361963504803, -0.23020126913475, -0.10234370230751806, -0.08565020926256657, -0.1677133777213136, -0.1901187246206011, -0.0510011327822501, -0.19721449016210416, 0.06083457224399295, 0.11078781473316787, 0.029940714328881044, 0.051087221048747, -0.12111474889048218, -0.012085614856093538], [-0.0387313417354151, -0.08709340722936813, 0.25464831465058657, 0.21566560657020392, 0.5298341021501409, 0.20759053050230222, -0.0469421304188573, 0.11307890742436327, 0.14842070940166363, 0.01766980221390915, 0.1287801464678899, -0.3986341631905033, -0.08679973528864081, -0.3323927657671936, -0.18460725729703295, 0.16773900109400514, 0.18777233706747656, -0.004548402452417198, 0.13893128715939743, -0.3119284469896915], [0.20930952786510404, -0.202016096799245, 0.1912264287021123, 0.24965092547636472, -0.13684933371626895, -0.0008690482942570274, 0.14349230536319177, 0.1362408537292989, 0.03845433756634373, -0.28270571090872254, -0.15896019900345554, -0.1974365078785374, -0.15271526477383565, -0.17054057197498543, 0.15775710727792255, -0.10236696466153916, 0.08624327223061046, 0.3829291631557974, 0.2894598052453557, 0.22390515761412164], [-0.08025752960095234, -0.05641454094520113, -0.0004271265393550522, -0.05161840443225677, -0.061877101458156246, -0.37660544196300283, 0.07723821766235398, -0.20212533976322744, 0.09459095903950603, -0.17862450415524778, 0.04150167310101984, 0.16066071018746014, 0.04176973822447544, -0.28763706150148294, 0.42894612766241447, -0.0663282819583504, 0.1843827892744662, 0.06118338145652783, 0.2928359140347713, 0.04161697213711258], [-0.07159119796182885, 0.20246831105490176, 0.12131843515112933, -0.18295381219776582, -0.022287914945143976, 0.20337698833446008, 0.16573252165604266, -0.08410320948636875, 0.25134902576240703, 0.10520859484283722, 0.04715686535427757, 0.12480096344559911, -0.4012588125264636, 0.3928340602237939, 0.06562648409513157, -0.09299663463089483, 0.03936093959887957, 0.20562156749710747, -0.19413001671727723, -0.01641004317283128], [0.13757382201180768, 0.02509252734462421, -0.01231257916816318, 0.1780107253595758, -0.028670724202333908, -0.09166034189047005, -0.22773714367666645, -0.10728409862944391, 0.007445817428483979, -0.17321933018738378, -0.05415443102754879, 0.05451603436473631, 0.09300103970100969, 0.04655817356137267, 0.18177140594499366, -0.18719085318033044, -0.21030822904630966, 0.18125030679600446, -0.0972127484254976, -0.3996486566531979], [0.23931058417212903, 0.1635263817702824, 0.2532314402593355, 0.051617796342151384, -0.09899157066583576, -0.0754599792122441, 0.03622345685780744, 0.0009017230260140657, -0.3569481297388733, 0.006513610531669976, 0.023652254402617652, -0.06844542294722257, 0.25323960315471955, 0.41237624437758597, -0.016985144907571973, 0.13537917339447347, 0.10213187031339813, 0.20130816034510773, 0.44202113448009367, -0.1406554894625671], [0.11482650007592735, 0.09106048412478357, 0.05637855080004181, -0.30481155603040677, 0.0004949088501265128, 0.15132555162148995, -0.0664158632267948, -0.12928835421926765, 0.25595375828479533, -0.05451023508386469, 0.2303238126160484, -0.06285113124739547, -0.2305777442011984, -0.07583669005896586, -0.14649429899967673, 0.1450000818219698, 0.13393541484476523, 0.1979945555290884, 0.18840041512320124, -0.1962976381899994]], "B": [-0.37977628351145815, -0.15996893542925736, 0.02788204313540921, 0.12072365130525739, 0.17797792775868695, -0.012010203225653366, 0.3092647208245697, 0.26466082453697015, -0.30564266923185535, -0.3607775835328258, 0.05717763190721013, 0.11656311068780037, 0.16419425664675585, 0.2975423323591499, 0.09300159186573936, 0.16448776672202226, -0.20745024765599904, 0.08777933144543623, -0.2225931709027462, -0.17073606139192604]}, {"neuron_units": 10, "activation": "tanh", "W": [[-0.1651783833835347, 0.2233259232748506, 0.20950645308558707, 0.26409915212591456, 0.08393254907829127, -0.5866004727765569, 0.21015907840263875, 0.00941959845616152, -0.1818185247417672, 0.07632029923241306], [-0.41249745785825626, -0.007525798253814528, 0.18075384449595389, -0.5867437283631954, -0.3537326305038042, -0.03627842204493106, 0.18961937787325192, -0.8319359469431586, 0.2756718566449734, -0.2594550109006489], [-0.1433241972048974, -0.14372919031921827, 0.04445418339293478, -0.21591210636161698, 0.21505953532294825, 0.32531346682614326, -0.40697963965852696, -0.4029871528239462, 0.22841829593354035, -0.07550347294479352], [-0.35163596080599135, -0.09869082023291757, 0.015638713957645652, 0.046784921696382584, -0.16927638607924766, -0.23387256609066692, -0.3424183814878816, 0.003035270759921119, 0.1615601454429077, 0.42686680743060607], [0.09143880534287797, -0.70196778714826, -0.1921155754171412, 0.509757145705212, 0.32404404797249114, -0.8073488321875937, -0.17080106435804998, 0.1955718515456531, 0.5934340057019891, 0.37299107557851663], [-0.34812690040370986, 0.11262881868468266, -0.8754042460358229, -0.07761675275077747, 0.3214689143597733, -0.21731143492431676, -0.3159571002091622, -0.6974660564297109, 0.0053450408505064315, -0.1355871840420614], [0.8232162665873178, -0.4446614245552959, 0.34703416258950065, 0.4464159676943856, 0.25520364575329674, -0.441119789254331, -0.16756074081930933, 0.2690505643541431, 0.2333587872796187, 0.1384751623806375], [0.6865143544089002, -0.2370919467669302, -0.3364243468037883, -0.35834282773695214, 0.09402244950686578, -0.36167144760874126, -0.21521314838409544, 0.02078559795540837, 0.18427340323790756, 0.6534395948154739], [-0.09818064917971757, 0.11942931801012335, -0.39876412606157785, 0.6453963700499419, -0.25529595053471016, 0.4451660737082171, 0.0036437301369247935, -0.1393375293629608, -0.1124042550073404, 0.35120669157928003], [0.08866442694770048, 0.004354024886815844, 0.02474681277836613, -0.1483787677587696, 0.14898542618134983, -0.27864496674519307, 0.18054365228843008, 0.253186560618335, 0.15941887511680503, 0.3877657879331178], [-0.23154368091472977, 0.008307172112094476, -0.2509981348924027, 0.22800745242819276, 0.11202514308865914, -0.1726426201764438, 0.3403987881901919, 0.04191648114597993, 0.15225113704894408, -0.3784309466789032], [-0.1825590142741175, -0.23892489096551364, -0.22938412428739705, -0.22584738426061846, -0.3438136817061728, -0.2156813897314233, -0.04205999355360036, -0.19447673773829963, -0.060774362278822734, 0.057650127721276534], [0.07357689124844312, 0.43899383867142894, 0.6574312071178351, -0.047515560764596156, -0.14923814478462222, -0.00668418210007023, 0.034606160931264, 0.1667053690595845, -0.11638999164489722, -0.16976237828038554], [-0.23705556298159322, 0.07481243700612876, -0.20534227807624927, 0.1861720264494149, 0.3823503041098963, 0.0385851137095397, -0.31568852705940786, 0.21400329497189022, -0.03292299306903524, -0.6768564845693035], [0.004429595181540648, -0.17988049761944536, 0.5754309700883102, -0.17174032089410593, 0.466891840284629, 0.3960828626973036, -0.24471539808085122, 0.16330819624326753, -0.09635967956720504, 0.008027711253868945], [0.03359505670107195, 0.2464159234899237, -0.13605931395640755, 0.01571953149104652, -0.27232983702581026, 0.23849455901654212, 0.3252277991379276, 0.13873877253229244, 0.21443588765629926, -0.3750543239874739], [-0.27525738841201414, -0.34239978022295076, -0.07603871975818476, -0.22282756281444344, -0.49436345105445667, 0.35442034864278515, -0.5393436041303955, 0.5215154296133998, -0.18837141202202684, -0.23895111286962148], [0.23308680295543796, 0.26364900411006525, 0.1592082615008437, 0.09169042071487131, 0.11000695100783385, 0.6527741928667149, 0.2665423075201522, 0.0420862800080475, -0.37838316001073174, 0.5464330702482166], [0.18509962263623447, 0.5648022272062179, 0.0943464001792825, 0.05243506064155856, -0.45671641489379855, 0.27144774616070744, -0.5321072703793706, -0.11239227427366534, -0.12211739384791084, -0.6860279974345908], [-0.13928336297920196, -0.052156045175097976, -0.12036830965677688, -0.08474338153892128, 0.14621493139177655, 0.5204687848013545, 0.04072441661761006, -0.3429969549925556, -0.9022331991219772, -0.13256528694973863]], "B": [-0.27189527666002394, -0.2165331465545714, 0.4464395265708976, 6.807667942164232e-05, 0.10867409753055034, 0.19901179233757293, 0.1678652441883386, -0.14915974463685286, 0.26641031996205716, 0.39316392896163793]}, {"neuron_units": 2, "activation": "tanh", "W": [[-1.417632535727684, -0.035632032177688726], [0.09730684481276797, 0.34162933376876853], [-0.15283561546021923, -1.1950680573207235], [-0.24274980918126166, 0.014174566563954176], [-0.16379372199866557, 0.05797545029052388], [0.5433039360673354, -0.5532923430792063], [-0.39321694314796934, 0.7140110510633819], [0.5553773603501672, -0.6890013835685732], [0.3879520829565442, -0.9971041779918548], [0.9650723764105764, -0.5209648874082659]], "B": [0.008582629119254278, 1.1232666884019222]}, {"neuron_units": 10, "activation": "tanh", "W": [[2.2835866920087016, 1.9474265997307663, -0.5366322393891811, -0.26345770891678094, -1.1519646580563059, 0.7578842164015444, 1.0815206811211164, -1.870245870162641, 0.6884358780595837, -0.5383675538878012], [2.3027556973755448, 0.14306038824090236, 1.5858875835030948, 0.17772000923207798, 0.12735834783976116, 1.1233338179684071, -2.0137097308833765, 1.820051011770868, -1.162855626345707, -1.8292264172245618]], "B": [-0.01339471646518556, -1.6567709067595886, -0.70036320683391, 1.113561667986885, 0.33704156637585064, -1.073805604552473, -0.8929958633932061, 0.011944651326870203, -0.7087451861635935, -1.0577757978823839]}, {"neuron_units": 20, "activation": "tanh", "W": [[0.5048768367987015, 0.4395347340519608, 0.03708641088454376, -0.7142563073165095, -0.8935169151746559, -1.7015444147918015, 0.6130995782392736, 0.7755947670350318, 1.9196281198950238, 0.5407004973418258, -1.882914911130894, 0.39635610457302756, -0.7348013724615139, -1.2164765281716956, 0.8078671139954535, -0.3302981361123066, 0.15393477277842008, -0.18027008922462182, 0.23033574499206508, -0.25396110145293055], [0.4583890780471149, -0.18172625920287425, 0.3742782284158821, -0.3952214860470651, 0.6408510864797805, -0.04721872346686673, -1.514316330049472, 0.3860820075452586, -0.5218899525995541, -0.6428480525238975, -0.3471249183651482, -0.04116092282242503, -0.31578339115325205, 0.4711211019583094, 0.21741671495015993, 0.014288782516367454, 0.0013237924545933697, 0.7368039790967921, 0.4471125550817115, -1.5935111798083712], [-0.14631703163152415, -0.11908412581702506, 0.12974462372286016, -1.2535834502988665, -0.8806271073969969, -0.6463209254108394, 0.15735682024843597, -0.06022109430052757, 0.058549926145830586, 0.8342994216171409, -0.5422928804660604, 0.10156461278348781, -0.5623090599434114, -0.5917405858860049, -0.6145466158634346, 0.46827653655808976, 1.1127151613682533, 0.28064706530954925, -0.4678255452800074, 0.20037007394658157], [-0.11272840393760263, -0.09469305087076771, -0.2203403705800107, -0.5938182091977566, 0.10661230358134492, -0.3392904618406428, 0.45350455031629466, 0.06525752284123018, 0.6742367724294583, 0.6236224780523535, 0.4472145114540879, -0.07037553560155771, 0.3659935781370736, 0.24797837236069048, 0.3243440497281641, -0.6224910809216093, -0.34894381533243146, 0.16193255264967402, -0.1677653223028146, 0.16584354471637128], [-1.3178075973160503, -1.338955144419685, 0.35362189871588046, 0.18021985592986506, -0.0010292142840185412, -0.6724717350589382, 0.399870025876571, -0.8328714664691921, 0.8418918238967288, -0.21968806256903353, 0.6315960459518529, 0.1459564418901949, 0.24048601648512968, -0.10899452579656933, 0.8132935753886116, -0.6436290265842098, 0.7709165610100837, -0.9007078056248462, 0.7982897400855412, 0.8815790974055588], [0.34141149804789145, 0.5791435759852983, 0.042909091275847175, -0.11602778022570204, 0.1511524685818569, -0.5185238538257665, -0.4708484885779551, -0.11386932086388143, -0.09234459469039444, 0.1046784802955733, -1.255258963037979, 0.2021385918700474, -0.5162014031439479, -0.07325165594274141, -0.2971072448767855, 1.2910789549780577, 0.4463951057478601, 0.7335361234953055, 0.030732831320688617, -0.9154333452863045], [-0.20701535166565865, -0.15565525551780346, 1.5030040283168937, 0.6925846228872954, 0.6206253485893762, 0.21887426089967857, 0.6300579226342832, 0.9952790591667519, 0.5294293385030052, -0.18221160124701818, -0.22718001997932483, -0.9873627626819002, -0.9572825487370936, -0.4341425884098602, -0.5901498609024517, 0.09738638613956171, -0.2314259051580834, 0.6608044990379652, -0.3723386869929781, -0.11904042629515589], [-0.6689852329389826, -0.2678441163065859, -1.3474934167376147, -0.7944575223703835, -0.23508493646104914, -0.2819611564559794, 0.9194808345241481, -1.7277581237034874, -1.1402650095306335, 0.5194666904926997, -0.022073671178387468, 1.0353935906245524, -0.1532388011203096, -0.1033645174423293, 0.46194786192261483, 0.18739823914314102, 0.4369288985008241, -0.31616633504979297, -0.8457202070179562, 0.13587611049586745], [0.54183305926455, 0.0001146773269524736, 0.3889319378851166, 0.6299652746355889, -0.0026423127421120185, 0.14268728696469188, -0.10897543181142061, 0.6029833713771174, -0.019110029900633322, 0.21092737469748638, 0.05186348313199253, -0.10401929360935028, -0.3873399521109578, 0.17210410017950442, -0.9285734848478935, 0.2099660871671147, 0.13603664828283024, 0.1436210885087988, -0.715507130234963, -0.405331070571807], [0.15842472883437458, -0.6109732338070696, 0.7503428033267335, -0.7604239908972575, 0.8293116922283502, 0.4488570628348004, -0.30428097386307884, -0.2572277054579916, 1.1725293089524589, 1.6695406147452285, 0.21783319170609983, -0.743625917373997, 0.4568589780086532, 0.832246087864135, -0.2398769747935299, -0.10054513589637912, -0.7719471433750917, 0.5096278242562267, 1.1540303353004415, 0.03594671885915107]], "B": [-0.15506437023790132, 0.13327858547655128, -0.5865009379524793, -0.25769360620670395, 0.26894398037007416, 0.1558362576009864, 0.48696643566151193, 0.20057039150057374, 0.5598986096596597, 0.6597816273492146, -0.19065663493926743, 0.33199386881075493, 0.3409039525476426, -0.43061920489955174, 0.6506105595834369, -0.1354847889597909, 0.10474604493830118, 0.287272855050179, 0.10627311199430457, 0.3170161663116551]}, {"neuron_units": 35, "activation": "tanh", "W": [[-0.2647836951252324, -0.4422585200042365, -0.46028416091931823, 0.6050994401599562, -0.06263657520428265, -0.6826713662064319, -0.7963394347925137, 0.18769848463933328, 0.11251869432047687, -0.10665749965807785, 0.6210901903958517, 0.14405788353814492, -0.5487512362478737, 0.07470686879100906, -0.43120956994446225, 0.7224353436186245, 0.8452054037948261, -0.41617129926978497, 0.2408012521582849, 0.515351094714104, 0.5540782556951477, 0.35876761773193416, -0.42194961238743606, 0.15606794737435767, 0.048081554183612984, -1.60382513059271e-05, -0.45488915275914715, 0.1829728223956918, -0.09514661352091805, 0.2708345487742033, -0.1369779068334412, -0.6724777456588455, -0.5535795310694718, 0.4399121237846706, -0.12043334040436633], [-0.30041440912132944, -0.9449755987674301, -0.3400972387128968, -0.5347851494412954, -0.257600137409525, -0.586010453541357, 0.6553062948019548, 0.7830817409440076, -0.06432201415565099, -0.5207968058263847, -0.2346252716877357, 0.7684244792973279, 0.47300425117181627, -0.13368729070678867, -0.5754098069182686, 0.5158405531134851, -0.21050758553099094, -0.22685067799407554, 0.11510074409513361, 0.2796778503914528, 0.051003436585903894, 0.5439551656142587, 0.5762746809750268, -0.01643125488004371, -0.1271007094698379, 0.023560011276033174, 0.12800656203920432, 1.0731678972346528, -0.3533845138518319, -0.37128577736595536, -0.033967342990529906, 0.9960492043041552, -0.23204275396812504, -0.026072351733424207, -0.07590249949638132], [-0.13078091200730307, -0.242015569421441, 0.21892650229251948, -0.05405689289767, 0.012381882138544936, -0.3844168913380324, 0.6653513996724016, 0.7527223319612465, 0.8260242657595261, 0.17613671553693602, 0.7731376288593784, 0.024409751617830926, 0.20385979865312592, 0.16798704870078005, -0.16803462939755962, -0.2685322652981542, 0.8714686777379521, 0.2854969147636309, 0.6208112460670623, 0.010085559241050557, 0.3938749822273478, -0.12759835139627865, 0.5071147288826615, 0.037703485289900265, 0.7206173986163696, 0.22805563050261124, 0.8551047951598368, 0.8070534388770604, 0.9565454485982372, -0.22587585004761962, -0.5532129334220385, 0.3298842081790292, 0.15305851078623178, -0.27631673285254077, 0.21388976846361477], [0.40749246799278915, -0.05974845845278177, -0.46775058391676355, -0.36530231586209627, 0.3637626935460191, 0.1936278609031512, 0.5188727297533162, -0.4406259139156286, -0.05112925644074605, -0.0779285217003279, -0.05988752976745685, 0.1361820883694592, -0.23438636710579677, -0.21540212444497972, -0.34856118399675373, 0.2228128698282456, -0.042364975552636824, 0.3734220487153855, -0.34811069488977664, 0.33590306484554633, 0.2909416349411557, 0.4506673862935333, -0.3639022646586705, -0.4026005870226435, 0.2182706685004927, 0.6326720016155427, -0.4896251963457016, -0.38716209938553436, 0.6495403157105137, 0.47298312992662084, 0.45255678756828216, -0.26034563073975814, 0.17658894336631634, 0.49838408834316683, 0.20860843874386806], [-0.0037865910879980418, -0.09622859631979415, 0.7142897570320944, 0.32924694156295975, -0.5640988521134449, 0.5719729278328158, 0.052493657277945194, -0.2917322580794594, 0.4592527763909934, -0.6069903316191645, 0.22973209393394536, 0.1642312919101074, 0.005523298030588551, -0.2978318370049972, 0.3315182050786774, 0.056688364555487786, -0.03163171733441882, -0.6341932490168926, 0.056170556065116145, 0.1182445221648769, -0.12821070732535633, -0.2887868119238819, 0.004720212078335286, -0.4458842001099201, 0.3265006787954937, -0.08897847962453796, 0.002843484887829779, -0.16711930764458502, 0.03821149357328022, -0.1263628570688578, -0.030469522964920077, 0.5731984210138346, 0.9725040611345558, 0.6292463508364767, 0.22746837940782308], [0.5477556356969395, 0.6424316574214162, 0.7103486191576863, -0.0190565217860072, 0.47928829540473955, 0.33016778592924273, -0.2144672511614764, -0.8731209549658373, -0.22400770284983115, 0.6108902205741372, -0.11975227508727081, -0.678784160794193, -0.1206178791925412, 0.11762768639097745, -0.1695068292664557, 0.07156971905091897, -0.4799124013094537, 0.7713169018195631, -0.3135274253033348, 0.05094683639681564, 0.02117526887716273, 0.011727041401816702, -0.2336310442706474, -0.9475077560974163, -0.2972327386102485, 0.3135944177847143, -0.09819553406986245, -1.197293978749954, -0.34146599865233546, 0.13649680367010797, 0.5918203965904026, -0.2576928932987295, -0.389984553791436, -0.5472323023470165, 0.2004859886277339], [-0.41619382586180564, -0.23351703666756726, -0.35550697575191126, 0.8407839950946376, -0.09910824834331515, -0.37734591713437654, 0.08150321494093239, 0.020433778027980843, 0.624938317608817, -0.19172407910137695, -0.8935787996687311, -0.3308278775558152, -0.5967931106152847, 0.024841211829027095, -0.22749801690410804, -0.2092021638198759, -0.015980320699859215, -0.42085057573702656, 0.9319884750313685, -0.8662630659829462, 0.30789350905478746, -0.4051223045745176, -0.06910103722055176, -0.5630587301560662, 0.20651620362146583, -0.5492991452967285, -0.26113155503158375, -0.6222607985514195, 0.7138983482596692, -0.7249008102943676, -0.3624785885815205, 0.036991858840150764, -0.2315952644817875, 0.24029324458104634, 0.5378920462640235], [-0.2756614605663917, 0.8570197902423574, -0.08147024743181999, 0.5073141695804785, -0.1986618734929561, 0.9762632559692633, -0.6767284980885968, -0.8176867294259131, -0.654745744864689, -0.0109204335267186, 0.27834086751927195, -0.3349496481227635, 0.5081199623849899, 0.21614883418565672, 0.8448363753874663, 0.434439333654494, 0.21196277964283547, 0.875407822525482, 0.0552341619242679, 0.28859768638253386, -0.003919666585957833, -0.3172480582249022, -0.6333920143882081, 0.24387614508927014, 0.12207891627999444, -1.0007543553618536, -0.6296842360864406, -0.6952421102983908, -0.027903825075987904, 0.3134652049260466, -0.11922259153619656, 0.6622655709513733, 0.03783069285008076, -0.229170526036882, -0.06253921374673295], [-0.49669883422595623, -0.708348244257631, -0.0777967503321961, -0.7194201695514476, -0.33501320708441495, -0.024807796056280924, -0.6324939944648204, 0.3029611726983117, -0.8459236965774481, 0.04511158413994, -0.40931140464548427, -0.20596547950616634, 0.4164179009277854, -0.7392950277684484, -0.7905213441416896, 0.1475195875192268, -0.5806124295483448, 0.191153462867437, -0.6003809677833293, -0.6353024511753687, -0.21942753056003497, -0.5669405350578709, 0.04538488745519439, -0.3398969538333774, -0.7613186056631512, -0.020694625505467152, -0.8795431218193216, 0.8916698821560396, -0.8143145849434986, -0.39669266060766745, -0.5714752887616297, -0.757206229430563, 0.30472669879394676, -0.8224225728573566, -0.685509417035451], [0.041918727231679165, -0.3841993366613775, 0.37721553877089203, 1.011568470538783, -0.5352414540099151, -0.5064644889336147, -0.3349159475052775, -0.06828520465482532, -0.12457936928227545, -0.4247330304678642, 0.7277471375468146, 0.22435839328849586, -0.04597074192596744, -0.9388118889314526, 0.977907059878007, -0.2600510269292643, -0.28239636374988414, -0.16232638459822685, 0.09764377766850922, -0.23607040325653833, 0.09407061032599749, 0.01996400772614405, 0.13120409093882768, -0.2073805907347198, 0.7731539181942158, -0.835226897725493, 0.426589217831701, -0.28624879382110535, -0.18778577487589357, -0.3399883705018419, -0.5274034260983825, 0.39210149414617856, 0.10753846086995444, 0.6386257913620569, -0.7496173922789005], [0.34049385144018407, 1.6211559722128017, -0.844670110460505, -0.179516331387662, 0.5982442537688034, 0.015872703631955188, 0.09847394830660171, -0.1227483563723294, 0.555304980736287, 0.70050170083367, 0.9957447717135217, -0.683815730780842, -1.2757045536005212, 1.4659981735978025, 0.7254769911939662, -0.24574556484614418, -0.5187824230749464, -1.3942655666268293, 0.6000252872887251, 0.10957299199330994, -0.06325042446295863, 0.21471629773781906, -0.9064961130765784, 1.0859217701003836, 0.15438827948369685, -0.06763778219213297, 0.18835722847875158, 0.44697550122831703, 0.32772788153617355, 0.1565296274276864, 0.09941525615112183, 0.7323032692397369, -1.19588523892177, -0.25576045386825746, -0.37216041297552654], [0.0348720086520434, 0.6315295309038863, 0.17438059050223664, 0.30752324052088403, 0.45493989951910185, 0.9033965216140561, -0.5512339777356803, -0.5560506061473218, -0.6460702889190176, 0.07622282702797338, -0.45199223413968176, -0.29957912357916106, 0.3636015931162587, 0.45131942328357894, 0.3356383151063625, 0.08130817448179195, -0.3845358694481321, -0.42306988163783005, 0.2791225509901038, 0.536806165676434, -0.3015933677252108, 0.36622436089895455, 0.26535091846984954, -0.19440594138371867, -0.49706560414793227, -0.35544264538080417, -0.34253057125514336, -0.4380009944829019, -0.42442440740315496, 0.21898344225448446, -0.10137649278664791, 0.17996782685595, 0.05274238774488048, 0.4024422947436762, 0.5978524292586567], [-0.3594828231794019, -0.10826666089626391, 0.12849691599583873, 0.1674969620948211, 0.18100917188911184, 0.2685205520178783, -0.6978903238971182, 0.36941657345690543, -0.173706684703152, 0.11573868727628221, 0.33310119064994487, -0.19531771411341517, 0.09963132571575736, -0.0046896703804012625, -0.4523189687909522, -0.02186457302286635, 0.03131371688478418, 1.016092285202063, 0.06813699228471515, 0.20775379309697006, -0.3370797164480961, 0.3427873652588768, -0.38869498153771, -0.29375186553821975, 0.23135791972286113, 0.4247967573201822, -0.5243164187775892, -0.027030437187993795, -0.09233163787219817, 0.6309039097439957, -0.46073959600846287, -0.06426249578742692, 0.13025175246031795, 0.31884251732542407, -0.9053216579987586], [-0.1801483286931854, 0.10625378416912419, 0.27521477429861885, 0.2903802663964874, 0.3588845813483358, 0.36205075870704184, -0.7954783183975924, 0.027539424839350676, -0.656094910934923, 0.04668056351557846, 0.02861736199621173, -0.18793048900630055, -0.18146349015050225, -0.018696481203209433, -0.18957238519678132, -0.11657048317684011, -0.3038150335664868, 0.39145332745258016, -0.4842761247819576, 0.28911535254858106, -0.11772280861266352, -0.15608559908454359, 0.19308711942078818, -0.2153456048635435, 0.08549963156540503, 0.45811123426615, -0.31787307497902434, 0.017667709667818155, -0.4903024225750677, 0.31733397419227377, 0.6651690158135002, -0.2181297022471378, 0.47056297337779035, 0.3619785107358291, 0.4484356949436164], [-0.13027574667528216, -0.3188521481583153, 0.27129798149922296, -0.7128084054484113, -0.1557731440189843, -0.6409720618816772, -0.08632925381654197, 0.21531144149390943, 0.458559733921495, 0.008624547194824457, 0.9619587612841046, -0.02215184409298967, -0.8387650576346867, 0.13277254321988233, -0.5320828318519167, -0.08129358228407804, 0.9059105433896988, -0.1799321313680286, -0.31485113213393395, -0.09009386045574436, -0.5910300157253883, -0.1800995957588007, 0.583671378763288, 0.055349370859314365, 0.3734352207662057, -0.2839578766312993, 0.1509483335052446, 0.2631760745602214, 0.8057839853593611, -0.8416871465927619, -0.1516345633083964, -0.6593729585117831, -0.07609227603459069, -0.9362420386134866, -0.2812762264409562], [0.2633437095215237, -0.08286221996453669, -0.5522776081524673, 0.06757663948023872, 0.27368111595723843, 0.17709503740201918, -0.08892347199528489, 0.13513713384029188, 0.4867198740550546, -0.5070825123436508, 0.1751142759334546, 0.6499876229150893, 0.17071426731011835, 0.04893736646722556, 0.30904203473775904, 0.39582630582412787, -0.6562893463091592, -0.5986844166451571, -0.03661036416284234, 0.14137598642699337, 0.6320044900048167, 0.36082856136417574, -0.015387810560498776, 0.24915774660506837, 0.07305636579572893, -0.38394675343978707, 0.551436537032625, 0.060545899940642155, 0.6602494877771293, -0.22309873608397868, 0.4307729770515981, -0.8561886548740255, -0.4120421232895225, -0.2953866403304718, 0.07742765601102627], [0.4928411750281512, 0.63063539044051, -0.4344488350415012, -0.16437314211700657, 0.4041101424293096, 0.0335298654454889, 0.30934761849823506, -0.19122950758028293, 0.14042245265486364, -0.023407251861685022, 0.2968025168440562, 0.0314973951492145, 0.14756113079728617, 0.3964746180832675, -0.14832980387687278, -0.16458143220216326, -0.5167975120674937, 0.6473362133262308, -0.8300446866528588, -0.7482580037775509, -0.086773773776421, 0.7809105145650836, -0.8178935156811592, 0.17460415305865895, 0.389089357825818, -0.010605281074304886, -0.044780283183601846, -0.2835126069563786, 0.32752541258490125, 0.037120375365387925, -0.12336719110631399, -0.01768873376509782, -0.380693353952274, 0.14144879058696, -0.2809891405989582], [-0.06257270064537716, 0.22202125070787743, 0.3671198940453214, 0.4435283369642443, -0.4299097144636897, 0.013048765920016341, -0.34424955269595364, -0.10600629388643101, -0.1340578281514449, -0.23181445591790892, 0.08496440037058713, 0.2607249395050122, -0.40871454384859324, 0.38185567354863165, 0.22436405664765408, 0.4998443802492416, 0.047980514287293226, -0.07680292750784908, 0.5125887744387085, -0.5289203992170391, 0.741585592870534, 0.3871316043836568, -0.31370107551110527, 0.11665832099040732, 0.5138062983051034, 0.8455592694496595, -0.5049402274480786, -0.5026116778067703, -0.07600141960803808, 0.2825746642927864, -0.14437021392600405, -0.17915912173294404, 0.19285712040496367, 0.48323984613302284, -0.20145001926807135], [-0.460020067631238, 0.068412134864664, 0.20007600594551758, -0.17695406705835295, -0.4597320227411902, 0.2748046986708876, 0.17767308610026386, 0.5712137302688582, 0.15713558007321468, 1.0909029402718005, -0.5105479807532721, -0.14606367227035022, 0.25092813428152205, -0.6875726909398155, 0.7848914039272029, -0.09544474625952487, -0.1110672333884989, 0.6594265502566014, 0.6742584893861717, -0.1798936900798056, -0.2483101578898022, 0.2162342431720198, 0.46922749198487784, 0.11569198473744004, -0.3640713159166637, -0.1681699704964176, 0.5412849505837982, 0.48061458346746355, 0.08637689112017281, -0.1657929016523748, 0.704038747280185, -0.6335882416154444, 0.38108361454657774, -0.42650134489559693, 0.520605801228477], [-0.03689801591811352, -0.7000393197872986, -0.25796423473621105, 0.3249059301390654, -0.32934111949114, -0.6324398225344551, 0.19624023648993935, 0.2625975800249604, -0.8310945089754778, -0.4447552892346412, -0.22578752412002376, -0.4493665177382691, 0.094434938323644, -1.3245700831305747, -0.6916577842429948, -0.5343475592335037, 1.0096882301624797, 0.49011817973854993, -0.45926801206212303, -0.28513823654734066, -0.5691702301685111, -0.3412397226178779, -0.8632546324537818, -1.0218821081978793, -0.8472739031103625, -0.5389314078863303, 0.12150346389152487, 0.7168826742335125, -0.6747949181397753, -0.3056096738900661, -0.070293680783302, -0.06731955778204037, -0.33607768433178214, 0.20314051389533916, -0.4183650099096547]], "B": [-0.22723795029395646, 0.14094019710485398, 0.34299174922264325, -0.2693822477717242, -0.7317157638808554, 0.007514237075930072, 0.16103107060123895, -0.47124772744471877, -0.21141035644199446, -0.05949492047002109, -0.399369005236442, -0.1952961678151618, -0.5441830689561117, 0.6751408159758799, 0.20065565229115473, 0.006615473138230918, -0.3969653933577062, -0.33538718525295386, 0.37631509329498697, -0.6536939026625985, -0.04985675762988058, 0.7689119009660322, 0.0583452690348417, -0.328701453935181, 0.4337581702016051, 0.7473955725057216, -0.30530143240391094, -0.6628034609566452, 0.11369268865727446, 0.1262919291954126, -0.5954412381445189, 0.17163157587258968, 0.3564522330068659, 0.08012360717617309, 0.007357315614333315]}], "mae": 6.739262675422272}