{"name": "test_momentum", "layers": [{"neuron_units": 20, "activation": "tanh", "W": [[0.04694948189930648, 0.16379762169571693, -0.09934928625163875, 0.06416784682968363, -0.23634512295614069, -0.431796460636673, -0.1788101370078915, 0.02922543732980113, -0.09217983248329564, 0.13426844856756487, -0.06239038877368108, -0.02306526114762721, 0.201031520366971, -0.10906306130236146, -0.3117762475777438, 0.12491373331227056, -0.0045092551841205124, -0.1070789731083932, 0.22991108969423132, 0.4023131954290081], [0.12946981780877814, 0.017965227454996263, 0.13927468107676066, -0.0028074550334765795, 0.15558119088048308, -0.011260283018969572, -0.2098580541924209, 0.16437021214668612, -0.17317984115393745, 0.14841835338097303, 0.21944827154448934, -0.2597739832436823, -0.11120359630669965, -0.3781562891242461, 0.2644481144109197, -0.28346554981376476, -0.2122979153532562, -0.11321625524010615, 0.01279831341619982, 0.2875710540722992], [-0.06621382530070559, 0.019255103140594053, -0.12553277291872916, -0.1392888193862174, 0.12119621244651785, -0.053469689604930926, -0.14062721311718746, -0.5153333957818265, 0.25962096346142965, 0.002207574015066202, -0.21224219103802147, 0.15368055682065074, 0.07694022681857138, -0.19999391234592237, -0.10137614622888291, 0.20210114162602938, -0.09325007142041243, 0.5064883562064846, -0.04227787803131388, 0.15540284587430403], [-0.2515944485915733, -0.24561806628634536, 0.2807813104239673, 0.2291300100381798, 0.23265108068087254, -0.14370302334396445, -0.5220141113732554, -0.5138819673860792, 0.09551156110852832, -0.054201205359670074, 0.29059069349783573, 0.0980792114541376, 0.12127000260961658, -0.4285845797625046, 0.2469283744254382, -0.0628397860192078, 0.1969851011632367, 0.018115466930181078, -0.20455034518974602, 0.29361704603133343], [0.08223504712114826, 0.0492217689454604, 0.05051193182105413, -0.39064459509380406, -0.3485589520399548, 0.005004439490650486, -0.18088692345518073, -0.15957475311745004, -0.08305829702303519, 0.09069610473881583, -0.1750595824438585, -0.10321924573545102, -0.08305660116863511, 0.32355155729305285, -0.14391452663235496, -0.12714494246603947, 0.12492200381823557, -0.14410174062088524, 0.17578862084146585, -0.0642827497722041], [0.1099822769865058, -0.2311537891461638, -0.29059958143877335, 0.11458068296911263, -0.1617893917536453, -0.1402752712707991, -0.4137505351388623, -0.009057672501192608, -0.00015567776411026506, -0.17041548282156235, -0.3418363073510275, 0.0903832548590848, 0.09166422615377784, -0.015508536615768603, 0.043928425754447664, -0.2912928864155024, 0.0027672371155785533, 0.2562729003945805, 0.06078206298122477, -0.13431829695347364], [0.24496607584766383, -0.07802996478045511, -0.408266731761435, -0.19641998057766372, -0.07550826151338375, 0.05667040976082861, -0.0076926172885191275, 0.17509975514000223, -0.32056438486990785, 0.39010646035680885, 0.38240546323924424, -0.41329913808175656, -0.45172854530365736, 0.1608537723853557, -0.4427213626433619, -0.1411228009600926, 0.4605381313197847, 0.17977631889205647, -0.19546403008611152, -0.12394188916728018], [0.010246167418555613, 0.3418271760750099, -0.09700435896403321, 0.167702454806832, 0.022883193562347297, 0.06913587117897972, 0.5043425152519122, -0.040357431668931, 0.26228472381298024, 0.3152721608951436, 0.2869122263861449, -0.06332781658428352, 0.0775170035444218, 0.27529798834341845, 0.06277366192785382, -0.07017378751111605, -0.032273645964963994, 0.2050506278343895, -0.1733871502940326, -0.153413322572153], [-0.18818648378200137, 0.2660813375887131, -0.22265020645237174, -0.12156664021738119, 0.026468555473309317, 0.04286515680771356, 0.007545717167076847, -0.1572425791168388, 0.01226561743311873, 0.14069806036426435, -0.0921826945765037, -0.15977025530474423, -0.5084525620596232, 0.25141690994008903, -0.10305179420791774, -0.11713027732996582, -0.38748539918727026, 0.17788199368218693, -0.412768011240345, 0.1403892221890863], [-0.0018604710761481566, -0.27060849647713353, -0.10755973126033885, -0.08164668681898649, -0.1128069943430316, 0.14862186004836456, -0.33803821910443277, 0.21830488042582985, -0.029498517361518695, 0.10863249786516688, 0.35016532410238066, 0.002793596784540244, -0.17858491067339738, 0.2937863254298337, -0.03092283929916458, -0.04437765459196897, 0.3005729374857314, -0.1744071755382315, 0.19034811698534995, 0.13207192171085155], [-0.18687070685773965, -0.11748487338939997, 0.18350571080514333, -0.04411130635393531, -0.09906069842616606, 0.1738681472256109, 0.2183521085334119, -0.06590314218471226, 0.23089908708396098, -0.2331586605982541, 0.045607669516477024, -0.20549869228657658, -0.0033050782098918347, -0.23183392539726896, 0.026003003910409182, -0.18347844452222734, 0.05852435335807234, -0.2932246809715689, 0.1377160599158925, 0.16163250605924157], [0.13982595265608738, 0.19360391463257315, 0.12409636947192862, -0.024984784898843128, -0.3688726493112907, -0.3351987337491337, 0.0065001046049687795, -0.19989561107720888, 0.3073149249024261, -0.2946397841557059, 0.09707613996297965, -0.22045987206269818, -0.24385176821708085, 0.13336705980306512, 0.3077911754110448, 0.05757592263827151, 0.3605817147992966, 0.014032010538980812, 0.11329196875080905, -0.09573625714714762], [0.741084866390552, -0.05884157545774833, -0.24031869732254227, 0.178789843266271, -0.10532278535783703, -0.16614723804885193, 0.06094349628135884, -0.21366892255281664, 0.09656731371205748, 0.1715408428073953, -0.1411102702568625, -0.46282341771527885, -0.0719388706294292, 0.29204505172753886, 0.24857766559412048, 0.3409843902113285, -0.25309339705430417, 0.19794655552096801, 0.051725644962044307, -0.04062122300025714], [-0.27203372397580167, 0.05493543661195437, -0.06446292327211692, 0.04986756823285574, -0.3735069010364381, -0.2528786884624213, 0.15932597065655418, -0.2801777924764954, -0.2007094309869545, 0.0014622595889652041, 0.4957286873192293, -0.438151201555531, -0.3707512689529556, -0.20691644361755387, 0.500869525957703, -0.07368450008497963, -0.3998518194564748, -0.4363268820301675, 0.34333817446074955, -0.07788939049821644], [0.4096100127419239, -0.2521335286628183, -0.4475227249924625, -0.10491926102119967, 0.14667326781241874, -0.10450830472974079, -0.2574455399820461, -0.27053973916623536, -0.023270514287806115, -0.46681394437738943, 0.3652611037754976, -0.12732274762745271, 0.37611480049088425, 0.030853768933483433, -0.07042098236144546, -0.3346778552856573, 0.06372923490631138, -0.15271805029785943, -0.25441955971691227, 0.18603282953352507], [0.065585047858409, -0.47745853642153424, 0.08804659211233516, -0.01880849596746411, -0.20420888294538417, -0.012089687160555597, 0.19435780233984723, 0.08161522199669528, 0.2919061177024126, 0.19495649702327178, -0.12209559326415187, -0.17088408632561963, -0.24766121390166018, -0.15764830033581553, 0.3136754484893293, 0.226575748263688, 0.1058367049169097, 0.17749557953548983, 0.15030969985574938, 0.267914304695674], [-0.020939872387178437, -0.06479981343670609, -0.09656903108903762, -0.2848883896156811, 0.14905118644282425, 0.07783614379059842, 0.16147556965964516, 0.13563377423970588, -0.005346936250941386, 0.3277303599465479, 0.2217094428967921, -0.26561862347648607, 0.2965875178565156, 0.2277303879020859, 0.05160170298544933, -0.336768469355855, 0.05972263337907469, 0.2273524723638329, 0.3481122593694965, 0.179868858824302], [0.21892036743990595, -0.3909464577005693, -0.008941520813526874, -0.2799486241650436, -0.42648006715512016, -0.05930680446516624, 0.1356429637238378, 0.01845573823197087, -0.0721687205692786, -0.11222726404066254, 0.10838423668340087, 0.04004635255475319, 0.1108963734673278, -0.023512794291007832, -0.3129316786199763, 0.03378814647826225, -0.03379015191847898, 0.19358215067026102, 0.39159823554392603, 0.12009357969970604], [0.05341434811256515, -0.3241223756497133, -0.015873018691725437, -0.16716078809982543, 0.07255812884668861, -0.06278815611052789, -0.2361780840163918, 0.10405968639601265, -0.2422299918818777, -0.1764970153595855, -0.23169065469108657, 0.15980107638404875, 0.28374721494904553, 0.2590212123881597, -0.019298768683704396, -0.14993920642162764, -0.2107622187948034, 0.0812138986010172, -0.13190787697061054, 0.042206725711017745], [0.03701214976799218, -0.42012703154883496, 0.17443082855930286, -0.015286799100159171, -0.06684226458140848, -0.02522730679771536, 0.198037135049668, -0.19208412386239254, 0.10590478150395519, -0.32920241932376687, -0.12765518100524756, 0.2201742493426367, 0.0503455829900952, -0.03648316105466496, 0.15011368716352522, 0.3238866983724471, 0.2597596252113117, -0.05138330487276304, -0.2268733001089816, 0.01368777746000563], [0.2921062629080319, 0.48024401197188166, 0.16971321352703975, 0.3199012436906408, 0.21768256191562363, -0.059024861201330846, -0.14293910158096548, -0.1680977403152489, 0.17429454522392163, 0.1424496299818022, 0.2993284329305659, 0.08642003177851068, -0.17543521164295714, 0.003659704782326041, 0.12581478106796112, -0.25889251899667254, -0.1972958493593275, -0.055803409552530506, 0.2650167511074897, -0.2610760995462115], [-0.04018498424568678, 0.16424178300161502, -0.07519318770467007, -0.1682217542472654, 0.05195429719482925, -0.14998382101450547, 0.266158723643497, -0.11645885165802657, -0.012782973017377375, -0.20559094063647307, -0.15015575025146477, -0.43067537705497, -0.03298177873179939, 0.014411060475369268, -0.001599789509812449, -0.02749002598268843, -0.370455949069988, 0.04819329054963123, 0.41043603269490636, -0.013889323659949509], [0.44891285682402204, -0.0133534884599473, -0.5720542909208013, -0.15743379674524433, -0.08871835005697959, -0.26917537643423417, -0.02880526563477071, 0.21594632513105413, 0.06853668698390349, 0.2262867603791439, -0.3857512444595675, -0.04988535614233175, -0.0626421302496134, 0.0095652052585016, 0.09200926209102796, -0.20993303354946322, -0.5875885100994753, -0.038367822990580246, 0.008668558455747452, 0.025098443388485703], [0.27100893926754444, 0.027296494850046142, 0.05491703520685904, -0.06346378415545195, 0.0935510265078611, -0.4373165517884697, 0.5529460548666951, 0.023217849233645962, -0.0022251755581219218, 0.23523119627746195, 0.1716950592623162, -0.25505074875975964, 0.14723819029104945, -0.22517798617861, 0.1915726643520383, -0.03671125771808847, 0.00926678222145639, 0.14051326209229148, 0.14394956798601038, 0.09391480546394047], [-0.04960798581484881, -0.25794634663744287, 0.06043892949181596, 0.0475628641554109, -0.3713238657622452, -0.04072715646138231, -0.10429408052687898, -0.03487625194351308, -0.015000829008866177, -0.010669208359548104, 0.16391072410842006, 0.05838346748463372, 0.37759047470407725, -0.05259865785415872, 0.1604690783421473, -0.18197500236311157, 0.01614432228611153, 0.3184320895501933, -0.1444984190309863, 0.06539861511777234], [-0.09810580701874667, 0.09009072271536651, 0.12471762505674172, -0.1481268199163644, -0.3504307170358709, 0.12576279738807142, -0.2051915285354199, 0.0659994141402114, 0.05243947159385544, -0.01865801395541961, 0.051871878214437714, -0.19883898217126889, -0.002743696237668439, 0.21991638192112012, -0.21642703483451556, -0.03597563558810077, 0.4771888734930299, 0.1104987061575928, 0.3583990720195184, 0.05749051165489146], [-0.22527690389895283, -0.11474220558050424, -0.2256632291414396, 0.29564166811969234, 0.041533022612425634, -0.4563398580501032, 0.4392075255790826, 0.07144800113532584, -0.27137209120413935, 0.023317714239400378, -0.14681597447764852, -0.3375592438080217, -0.04249079929640513, -0.07322410152159815, 0.0849207072968905, -0.20958645471834483, -0.04619420015506942, -0.13222704560074583, -0.11360933247635623, 0.12375597901670114], [0.06837643427890576, -0.06526001173226413, -0.18848434475010553, -0.33731232701021097, -0.10038682493849176, 0.18529072757671738, 0.21112255955388334, 0.16677303455041598, -0.008109671399341458, 0.528303261057256, 0.011604735491144009, -0.5608928668319862, 0.05135000428955117, 0.16757049651564002, -0.07372298297537737, 0.32953243672697796, -0.24045139508647864, -0.086241024324584, 0.1643099653765445, -0.11479026227837105], [-0.05076964238055556, -0.0014792593884320178, 0.16904631274720133, 0.13546692249511177, -0.25797989411506234, 0.13350247215100755, 0.21085370795710318, 0.16349919219903794, -0.12763918826223403, -0.06876990776715752, 0.18600836571503215, -0.03184241374399805, -0.2353655571893788, 0.013786357808645053, 0.24283632909408995, -0.16730347524562067, -0.03609432233036405, 0.08774628050293727, -0.5360439265641562, 0.18340196265422265], [0.06460576695069417, -0.1620188685199989, 0.11591651456554594, -0.15969575807008987, 0.18768334818945961, -0.07767506188740189, 0.013065350183546987, -0.19656940550284277, -0.13957240893270803, -0.2602548275320181, -0.2628667122530677, -0.013703005126862518, -0.044251609714923104, -0.3130049885844588, -0.29602058734755704, -0.11206262487614722, 0.2732730337779368, 0.03595810513179976, 0.3080408595232007, 0.08120560582743558], [-0.1168463502026192, 0.15628205398352923, 0.20653501422827258, -0.28403018903036337, -0.14863238378834243, 0.14664526687695886, -0.053012348071480975, 0.48371285047000695, -0.007233563598248058, -0.21146088841859476, -0.0021850226028044773, -0.06886702206586043, -0.4046103021265028, 0.37747283626137046, 0.20902407145113974, 0.06515549527059472, -0.21158658831860253, -0.08008529454802132, -0.1743897004369418, 0.13108842093431797], [-0.024575796006829343, 0.010167815916413846, 0.026594687865183108, 0.3826094740181617, -0.02326226244268509, -0.02345102466922936, 0.20884440535824245, 0.24860073974214206, -0.33182176863582236, 0.09354493048397015, 0.06185024661694615, -0.019948036352337883, 0.002056660888355428, 0.2086159369770012, 0.13213441474288462, 0.3577373929938713, -0.24130523514793717, -0.16487891938776084, 0.08480708142396523, 0.32124565510320585], [-0.2028113550550366, -0.4170637054372136, -0.16922677729389166, 0.15895628572827133, -0.3119835711579906, -0.03181977932280738, -0.1964523054044363, -0.23068830764553444, -0.3727504949620446, 0.13860603736696, -0.26903057477417175, 0.0203143257908677, 0.034784554795166796, 0.005491179514255169, 0.03931617270849058, -0.313426655190941, -0.1455532107630938, -0.07845609207797566, -0.29734141403105663, -0.07287917359487961], [0.25294060537473695, 0.10456586871163705, 0.09128830298557086, 0.15963599009689702, -0.014065284327525459, 0.0071235196349007926, 0.19166241365527195, -0.260003237540903, -0.06040673006912097, 0.38818363231391667, 0.027426492698709972, 0.18390035104228952, -0.0365966960398185, 0.11990493430424445, 0.3499062362582849, -0.03815523679907602, 0.17503884552753868, 0.02910787999409921, -0.5550253903267376, 0.32697665007865934], [0.3560697590694046, -0.19286187412362535, -0.07047500058866542, -0.030860119601709278, 0.026107107184353735, 0.05656734820241037, -0.1184714176508607, 0.2883957102996743, 0.03320566454923614, -0.3088764437290345, 0.04629377036800325, 0.08293291674778967, -0.3199030758780802, 0.04621219508245106, -0.0149321244245189, 0.04903873273844042, 0.1001094001312281, 0.1181456039799331, -0.573819917868968, -0.024982754887599375]], "B": [-0.3967011887595125, 0.30529861746026293, 0.034236451799328924, 0.12950750585178342, 0.0460420073481042, -0.02287436373241612, -0.06297469688582823, -0.2984129713695491, -0.2838577322868719, 0.28806446088381904, 0.16794979726358583, -0.0036307931126127084, 0.008280438833336047, -0.2878159680890302, 0.07807821697277982, -0.22954962843532023, 0.03628510218909195, -0.1079907332741321, 0.10392535910182236, 0.09928585317926453]}, {"neuron_units": 15, "activation": "tanh", "W": [[0.1298083805952834, 0.3960883973304089, -0.3264970520365633, -0.018492891621694714, 0.40425782518921377, 0.4248909541333409, -0.39893368676645613, -0.5217870866092464, 0.16407396939147365, 0.0883179227267206, 0.6435750639225053, -0.055836085307330405, -0.2388271427235572, 0.4686854434070383, -0.11354650023067649], [-0.5505995716155981, -0.02698951032741393, 0.0399258517233283, -0.2600816527381359, 0.6510110896999599, -0.1627963500117627, 0.2518567098547544, -0.04464681022075054, 0.03143357008478897, -0.37328946190237977, 0.2460242073467329, -0.02941548780440383, -0.40354979856459916, -0.02292709911616953, 0.43480244803146445], [-0.13766982198890526, -0.5907771287965642, -0.06411277972404703, 0.06929585225085354, -0.05694898024893364, -0.3874919135278317, 0.5728063328034323, -0.4183916179736822, -0.44162437568336094, -0.1049528027791079, -0.31132277328791097, -0.38411656870944777, 0.05877769474591852, -0.3188398660553234, 0.09252611577854458], [-0.41565073344005005, 0.22646920259243275, -0.1504619788416621, -0.3316508833564391, 0.0014309518884354968, 0.06682498442268736, -0.10377072268287878, -0.2350559691988421, 0.46276339154479684, -0.4833770323442666, 0.10869684097546974, -0.16555862232816232, 0.3336258465240979, 0.07655586817806248, -0.16530657963269277], [0.32485771109298855, -0.02647767493638626, -0.1286267343608186, 0.02348366375996579, 0.10107160585531075, 0.2402197362781869, -0.010091823830229914, 0.14876851897754462, 0.35605186724768506, -0.3228597075283876, 0.0613012223992109, -0.5828609278393343, -0.3187093883161392, 0.08232604771552873, 0.414285303878966], [-0.5923483571647256, -0.049098424346455796, 0.043132127781166534, 0.10366758388773256, -0.1605335678596767, -0.23807851693026333, -0.03952578554165601, -0.2503578249891493, 0.00163394970895735, -0.16901111817478232, -0.21370004145675417, -0.23624438473325374, 0.002561736349046347, -0.055020122226287514, 0.21794598590897488], [-0.5245290274249953, 0.3589676105641437, 0.45149557666240303, -0.33325485018886314, -0.32640066905510967, -0.6063498303194537, 0.5158175892259848, 0.3939234426848778, -0.4596395356889498, 0.18726659701007758, 0.1735987555077415, -0.3468356074970277, 0.19870581632356843, -0.1763855730968369, -0.08637228986458778], [-0.8682745506130388, 0.29006336556335705, -0.16776374854780993, 0.2620466822413443, 0.2153585303210481, -0.05848737404484521, 0.20773408096077742, 0.31848755955675434, -0.6476729588186211, 0.22793059157853576, 0.12732420790063967, 0.37905011422933815, -0.4040298929030794, -0.5331760624562811, 0.2582100803893963], [-0.4173870332941006, -0.5073150588125861, -0.021050802452820462, -0.10892646740302675, -0.39628213756406167, -0.2603612773012117, -0.2598159527047955, 0.17430542232640955, 0.24606459376234444, 0.2742737248377254, 0.06556909189725015, -0.35324551662763953, -0.2295959879177475, 0.3165722955910536, 0.1419389229906815], [-0.11544261073646297, 0.16585226781339454, -0.138285479745944, 0.05604117573325661, -0.1638156048316517, 0.06456408402286677, 0.24980758976735176, 0.3586653184623933, -0.07360433465941954, -0.8459630421948034, -0.5920045336118566, -0.16169398556735742, 0.09978360704227698, 0.10381160982158052, 0.23146933467378808], [-0.3164174648008104, -0.22498520939848268, -0.2152966876993268, -0.09358061089113343, 0.4997375872916965, 0.04937528809881003, 0.34018795019221243, -0.028014941592290017, 0.0643840073565103, -0.015452847063616784, -0.18914266142758995, 0.024951591948910307, -0.15626304544341382, -0.22586620057270365, 0.11107417620195491], [-0.40908212291447243, -0.35299139165091376, 0.15918999917748397, -0.09482084550764036, -0.12728837009455374, 0.08804647572359006, 0.6237334993007064, 0.09056540065638138, 0.4831363083810078, 0.2740200064205767, 0.2891673646971271, -0.5305957324241763, -0.1882193191686615, -0.3253246170588157, 0.20389452589213242], [0.4749843286632535, -0.07118144105727628, 0.18225805337531428, -0.5667928248782991, -0.30784211452822174, -0.2660477178495674, 0.04190510054364448, -0.07752226777887798, 0.38331248643627075, 0.49266795898650867, 0.010349251573172465, -0.41398315345311093, 0.3784569743973233, 0.030146414162336464, -0.32189287808897904], [0.0940640692843538, -0.0739553614695979, -0.4065549885994936, -0.3280232563644447, 0.4891129339652659, -0.17605274494565623, -0.4304410248735693, 0.13361463017401887, 0.13600539913188925, -0.009623508784443449, 0.041130721191479785, 0.22209065739673858, -0.5396816949926948, -0.25328479436650014, -0.07665296826473415], [0.11323222361938069, 0.24000426835511623, -0.051918733704826546, -0.46046918712726614, 0.012986991914007318, -0.27253045711923296, 0.10705096827361973, 0.20048692357645148, -0.06503008834616071, -0.03591504652020482, -0.5026894904035478, 0.3628665631554291, 0.008071449532029805, -0.08050101664181558, -0.08066512872042775], [-0.16995097544769014, -0.159523802265327, -0.049795756053948884, -0.1103936709687715, 0.29472981437539764, -0.1126734217365804, 0.19297960298226255, 0.5638596886624332, -0.21151654837598835, -0.22307587326713102, 0.746901925919737, -0.1394011625741042, 0.5195246340347375, -0.16927155193532736, 0.3794564267374263], [0.1456412348138593, -0.3894431032475245, -0.2466501426116989, 0.6961365845931314, -0.5596794762293155, -0.31507679505886693, 0.5991263904689715, -0.0839648666427217, -0.11503542657675746, 0.23439128947639395, -0.10923368056520338, 0.089109970169155, 0.03959821798177359, -0.22544247912617413, 0.09766615215682346], [-0.48778753837479305, -0.04098494800080799, -0.28431404357839735, 0.037344365232555146, -0.1983995239644006, 0.23328052724859294, -0.13991210712856483, 0.6105647433849971, -0.07942071994214045, 0.039535544199215795, 0.13238038835580052, -0.2997402954861139, -0.49088770518583186, -0.17121184527955333, 0.05797916042524191], [0.38274714329308157, 0.050281759184201164, 0.043719161005010464, 0.501121721112397, 0.3214601246634279, -0.5136800402989534, 0.3761964895787877, -0.2980939089149873, -0.5717643623437637, -0.1849577350718391, 0.23627953121276057, -0.3963262534727547, 0.04389706450288891, -0.10595584956917091, -0.17425728365528995], [-0.08042551349758316, -0.30081378098197986, -0.2983111612387446, -0.14613718709819098, 0.03138784707076282, 0.41308295566618336, -0.06772194533535296, -0.42149190874176334, 0.057317485641725195, -0.08288421785518363, -0.25192180508843376, 0.12376012138369702, 0.12083397673829492, -0.3422414247313939, -0.30454373262690637]], "B": [0.002941491215473546, 0.10143669224802004, 0.6906669140702439, -0.6643241814856309, -0.08055738085084865, -0.15454080971043885, -0.2372329351539512, -0.2991937636909375, 0.15067315001981704, 0.4104931750487392, -0.21131557631267497, 0.08998961991137863, -0.04342119050771432, -0.23038964661745287, -0.05319465090677233]}, {"neuron_units": 10, "activation": "tanh", "W": [[0.3018100707407955, -0.25140689713396513, -0.3882143561134651, -0.5139073189041937, -1.0075602584688277, 0.045136982486514036, 0.07084447458505039, 0.23096778780263447, -0.04042513546226315, 0.12059640658005179], [-0.7259845848360643, -0.018499654761966813, -0.11104342768010537, -0.8618001648196906, 0.006376045065069536, -0.07637229794736798, 0.0020776497062553654, -0.7040084946935203, -0.38912312760108375, -0.15188013849688814], [-0.06914742810139941, -0.04688354364295262, -0.030474705005765892, -0.44906936787922885, 0.31325972860237083, -0.1687598174903214, 0.003570169711872059, 0.1848655914835273, 0.12186004848163239, 0.44937527622342954], [0.786854854270425, -0.023885048702762045, 0.3309770828500916, 0.5225200094303109, -0.022944071442548602, 0.244750281747838, 0.4487725412210086, -0.050561458239047126, -0.1509066203349232, 0.1874083966624403], [-0.1914327020227935, -1.0311399614868377, -0.20855321611451516, 0.2820045398639418, -0.07091474118617892, -0.876911392424182, 0.2833422513405937, -0.2893785016203169, -0.087422944402805, -0.1671029088315381], [-0.24272231222867396, 0.07443354733309777, 0.29709196442862085, -0.07776458604686627, -0.16647229944957226, 0.3735399833038329, -0.2885638137228208, -0.009790880160798451, -0.4234990244600607, -0.6420342134059885], [0.5169369232771467, -0.3203950486565361, 0.698732747332612, 0.2829175420058519, 0.2933209289679506, -0.4292060098705682, 0.023225807379430186, 0.8795597247125725, -0.1539441371264782, -0.11831614183762251], [-0.04986153353991584, 0.5785942324415014, 0.13383488411457717, 0.22503212224327288, 0.3186451324415929, -0.5017411761316772, -0.592968836534254, -0.010046815727063462, 0.9915707847004185, 0.21223254044852313], [0.6162724858762013, 0.22186601218147578, 0.12652402164328927, -0.13332178916647183, 0.3005574450300422, 0.558955287367796, -0.1607527746923834, -0.02332825885870219, -0.14145897875346905, -0.08364014773854546], [-0.06763732851222419, 0.42314225376681774, -0.40870354616747856, 0.6509247954523363, -0.12471228107008882, 0.5783107429078578, 0.001876762101606017, -0.496138316749722, 0.20581887454437217, 0.17571637803891701], [-0.33556437084355967, -0.22361409731501064, 0.5863937219118509, 0.7807027026842737, -0.3087691621664171, -0.7426142608656339, -0.8317342425574568, -0.29328820359728874, -0.032371379694231615, -0.014562700303569933], [0.23681296526719278, 0.08101345699195507, -0.259679394606796, 0.25056459196043074, 0.14017561367907738, 0.825989366912756, 0.6835174752472752, -0.16675338212404978, 0.19405917539866147, -1.0175440268457598], [-0.08781101109013406, 0.3850314318041828, -0.12118739973651622, -0.3283596175531543, -0.5554965345612448, -0.2503190908733966, -0.305274305683785, 0.2384814783965907, 0.1768455708296877, -0.24790990544546312], [-0.17487094619961613, -0.5720143471503427, 0.01897318026532412, -0.027763520540191496, 0.2056813275609005, -0.08782577928119469, -0.391291606136568, -0.16381606041199445, -0.2513797517774915, -0.22117143008847387], [-0.0721191288988723, 0.1379022433342459, 0.8190050521772294, 0.20481512136719687, 0.4713541290717094, 0.08176852017101059, -0.09561715916820454, 0.6734706840250922, 0.006609015767149125, 0.09509945919771144]], "B": [0.22820095460167147, 0.17873443231482114, 0.061311740822000985, -0.11418973430021105, -0.10112289406312276, -0.01048664108028023, -0.05036185104320274, 0.10096911517098488, 0.19279406920523967, 0.6627332536530829]}, {"neuron_units": 2, "activation": "tanh", "W": [[-0.4719526100114059, -0.39960263936172646], [-0.3707311962201075, 0.16070104271752375], [0.21380340440588375, 0.14516498001036973], [0.4886301945230234, -0.7307231990869167], [-0.09534194556627335, 1.8130731329992709], [-0.021607639821395998, -0.28137260188700786], [-0.13011422879767515, -0.21526488945505975], [0.5867702823894146, 0.4452896941961853], [-0.15564987842694186, -0.05609993140044443], [0.9694880815735298, -0.05883278169383971]], "B": [0.1913456158509294, -0.32064239058417193]}, {"neuron_units": 10, "activation": "tanh", "W": [[1.1302132933626334, 0.45720172081425353, 1.0249676705178223, -0.3633918733205043, 1.8219230968518834, 0.13202574340435308, 1.5308133589900796, 2.1340338714849847, -1.891939158817845, -0.0195113118638327], [0.6321910070686158, -1.8892486851649195, 1.0107696231916492, 2.0926816379439805, 0.5746192255845767, 1.437815083564315, -0.7071681786292008, 1.92928942246483, 1.9638049824732995, 0.7882107611808314]], "B": [-0.8765488534047478, -1.6143542596908793, 0.6723076003759316, -1.1897330001737405, -1.099765108110508, 0.9330542500860769, 0.45442470945335733, -0.04672573575278261, -0.010734695818558408, -1.0933228777059458]}, {"neuron_units": 15, "activation": "tanh", "W": [[-0.11114885961078967, 0.5268071297776552, 0.5342032010845699, 0.23310488317095976, 0.6200102993234204, 0.2330028171601676, -0.17635812857426753, 0.9243542183958986, -0.6746396769982437, 0.06735101341062798, 0.17694549795920753, 0.11450261571900487, -0.37284530727470044, 0.6940561880333395, 0.09180323876017257], [-0.4377855058949564, -0.3869238304203332, 0.2681176423408268, -1.3363494743486861, 0.08703416220985324, 0.9703342012427616, 0.07556304739638564, 0.2922272810456191, 0.13983619527256233, 0.3397484179243631, -0.811172977818925, 0.6350633922336579, 0.13517192252820398, 0.07928185451613884, -0.34308807498293353], [0.049608456587125496, 0.3978556367196477, -0.4369380832703433, 0.8449527970175963, 0.6193244362731798, -0.0763618562262348, -0.5293007012822308, 0.10396913106370054, 0.3100177910064539, -0.1077660126159402, -0.2904123597608569, -0.28724479096887195, 0.9979341137156219, 1.172154332514876, 0.19628757867753155], [-0.0253703822314733, -0.09745706644851747, -0.7692953229627212, 0.04020461934397697, -0.9070337293516433, -0.3651019280336471, -0.625243874909642, 0.5096517409137549, -0.8380041330024613, 0.11515673031199637, -0.9572824898442929, -0.5646754733290184, 0.23367390801071788, 1.1885520980903366, 0.15207742778465688], [-0.2630692741979717, -0.7292873534754059, 0.49176146044087415, 0.44138172849129415, 0.2937729669269968, 0.6274199634736761, 0.47763581298347463, 0.5500916460245457, -1.229538821170464, 0.0815664826279659, 0.2333321616532339, 0.23929159006778597, -0.1649500110862892, 0.8596065602957355, 0.4078698988581779], [0.6290520991908813, 0.25726628744409014, -0.34587421537406576, 1.0360239646572627, 0.13408557811592522, -0.23885872835485697, -0.0579669748549893, 0.10382917305055205, -0.5971067262154004, 0.25684518952066776, -0.08910366667183924, -0.5186536602123695, 0.6212719390164854, -0.3233925693309599, 0.22340981583994896], [-0.0925698292849863, 0.2607148293400893, 0.5693459850966026, 0.6170273430435909, 0.9066757723805159, 0.6190813638042579, 1.1694674460016896, 0.523037329194421, -0.44444447728272946, -0.13481140000497163, 0.6430702479773345, 0.8515768055930804, 0.18836594478519955, -0.37829175545561433, 0.4801177638854685], [-0.023334854246077705, -0.39372369485189196, -0.5914607142575118, 0.772151036303441, 0.6829423531671639, -0.19335139218708597, 0.20474821721169667, 0.6411074467268439, -0.09829946706428416, 0.0958957583720098, -0.7020140098087417, 0.07227604894051629, 0.3989330779793484, 1.2387280665436615, 0.6167765724359047], [-0.32000018535109265, -0.31959816283365855, -1.1516423932032613, 0.17313369075841226, -0.3007076838573545, -0.5569715668724077, -1.3473158926674502, 0.006019648644978351, -0.1975708254981379, 1.081005919767359, 0.07759314002365679, -0.4030525967240169, 0.3585065826914341, -0.07853508531308212, 0.22446119988959656], [-0.5140790389200269, -0.5705810393534031, -0.2694718703956734, -0.8158955456366854, -0.0960088784985441, 0.11338606485491089, -0.12538733369419772, 0.23122321770107293, -0.39579014918466787, -0.3246299361844142, -0.336865979782199, 0.4063040125215205, -0.24695892846270526, 0.25095983128653065, -0.0006035114698910625]], "B": [0.27295506778295353, 0.6126575950079621, 0.22340620400494343, 0.4519753539893662, 0.7149265851718596, -0.5438243531588313, 0.12061602406928759, -0.30776728508363227, 0.30384307626706347, 0.6061341492229905, 0.014488815655469365, -0.2122753456743557, 0.967723403497634, -0.3324607586311062, 0.814850841427304]}, {"neuron_units": 20, "activation": "tanh", "W": [[-0.24963263736638328, -0.44721583158496203, -0.07163239245787609, -0.30297411617902864, 0.6011868751735212, -0.006991649375100338, -0.4235347551982009, 0.008718656233865169, 0.16564259303476, 0.05123153592118591, -0.3123850266101332, 0.20354160966035728, 0.6504356147741348, -0.23905074186298692, -0.03949125855697562, 0.10894594141629435, -0.6868164399669571, 0.41911624506957273, 0.6879675024109487, -0.14707264208754875], [0.145226067519799, 0.25099338204090865, 0.0010502653048884876, -0.5539449963820882, -0.014102339613153861, 0.11550677201813146, -0.0959266287704775, -0.430414810878265, 0.01654203735456755, 0.025017523403567513, 0.039334980275152455, 0.1655612578595905, 0.7769900799959277, -0.17422976902048024, 0.3219564523444997, 0.3066100984668859, -0.8510036742929781, -0.07536564884538662, 0.12224515443989964, 0.04804792346105564], [0.24952832898924154, 0.8247651636385964, 0.600626308047208, 0.7309663254384615, 0.5997483319266749, -0.0360367333888944, -1.358930973593303, 0.02604089878601062, -0.050999911774874444, -0.4814822144575804, -0.3973355473008164, 0.5292793826831161, -0.16058173449312535, 0.3636778172472934, -0.07941457147814407, -0.5293911285246393, -0.7386746645870861, 0.14771194573508895, -1.1546587131439154, -0.8605975384211864], [-0.30262151331593024, -0.08816375122813373, -0.8351101600957106, 0.37795569500982373, -0.7755261639498847, 1.0252626718842146, -0.08630840891616443, -0.7640742640833865, -0.6307787254537561, 0.23391915615550796, -0.20238160151574042, -0.8843004348702004, 0.7364035204719028, -0.672384118358605, -1.205676189198382, 0.3491408784673598, 0.23470049706425805, -0.1327150386615262, -0.3231382033676241, -0.4535163996623209], [-0.7705820844829117, -0.0781841535568768, -0.3700216243333659, 1.126922534834944, 1.3112543298291766, 0.3743481592796608, -0.879269673563446, -0.0782808097347796, -1.593503268761087, 0.8751051873580366, -0.111934445196127, -0.3424700555466807, -1.000367747775691, -0.02071948279064657, 0.8225276480623207, -0.1027893544023368, 0.5179166847801072, 0.18220696374445888, -0.6293000976566967, 1.509712589643716], [-0.5126157588222069, -1.0047105806452232, 0.7547160252163181, -0.1330197870951787, 0.17631563215438875, -0.3118037899606367, 0.38533156704262167, 0.2568031562319551, 0.30136278110073733, 0.09172976397762432, 0.24748097288344117, 0.624454471750592, -0.2744532854768128, 0.10049296391084844, 0.26399067259708536, -0.35632172844698656, 0.055640015078175335, -0.26722429849651547, -0.19155266826509035, 0.22833076945726594], [-0.7928700822619934, 0.5797521164562619, 0.7101697120726911, -0.19348318137774648, 0.3457043200824724, 0.33830443832911966, -0.15690299446825123, 0.4320504505036443, -0.2577133988138137, 0.14325720594379934, -0.2583477340959342, 0.4280742807786879, 0.3789296005400339, 0.19963331991956326, -0.4910449101614568, -0.4025468164071092, 0.22042844164833422, 0.860114104820599, -0.6739572388993346, -0.12941194638223644], [0.28189177299214907, 0.26142185679939073, 0.1271522672492411, -0.8793655947382115, 0.2953807245434978, 0.4016430730622762, -0.10428422071090239, -0.26069957678407735, 0.059274367413751076, 0.30492383254602334, -0.7527926897720267, 0.10444719334366798, 0.45369421208499766, -0.42611116072554744, 0.5910790009552305, -0.3234990797970175, 0.309747201024953, -0.0861000022572917, -0.5678642125049296, 0.678645474794889], [-0.551230585145998, -0.6476625122961068, -0.4161967395015325, 0.005853151243509937, 0.4146649502646485, -0.1248905745276854, 0.10772630924743772, -0.4646413149040023, 0.5324881621311067, -0.3789629487913505, 0.4304054606538552, 0.18588556217641553, 0.6726395486940728, 0.30001714422526427, -0.6890342904993174, 1.410803275756511, -0.38573519009311835, 0.4306841635453976, -0.0010422512105870063, -0.06729058479881296], [-0.20237219145814195, 0.6273383937275957, -0.09609290541461832, 0.13149650481771863, 0.12765480046190417, -0.2970816078338555, -0.1869709223619197, -0.35505038870989536, 0.4620532513043, 0.05726108276349448, -0.2805307999346574, -0.09724940976310921, -0.028752091425378403, -0.2686557018849303, 0.30772465781004793, 0.3332106423549922, 0.017399957143154007, 0.2413536613605731, 0.7216208972420312, 0.16267220818126876], [-0.109495627374139, 0.019575001033777528, 0.3593064326924406, 0.1933977118383587, -0.1294046245521877, -0.313813493999017, -0.29047789687195813, -0.04730515446980709, 0.28908357405794827, -1.3692162456599752, 0.11694233791956626, 0.01562970038842502, 0.8458305695162736, 0.5043008613291258, 0.01373674138977084, -0.08015490714403056, 0.372367911618289, 0.058052093178963246, -0.2968392962936877, 1.1992746102548444], [-0.4306102782282888, -0.6191532898005696, 0.36624732960476664, 0.3878035534059926, -0.13748315879084447, -0.23594323160649391, -0.22311653159471131, 0.7627073653471786, 0.0031160923916588893, 0.07568394303346779, 0.1807974217840183, -0.03742375031055596, -0.20015670164853636, 0.5079124742383955, -0.1848616718339558, -0.567657098792435, 0.24990894961070337, -0.7307204789054474, 0.3444066271206753, 0.2660086241070559], [1.040142388623464, -0.285664617565547, -0.3151189384091271, 0.7228318815693596, -0.24168049828963442, 0.368938482127565, 0.30765412824850097, -0.20800692665019732, 0.0747476830689841, 0.0201009731163974, -0.05497883571392099, -0.2528913864674177, 0.5654182805457515, -0.058495693757630356, -0.12648230818033465, 0.6320356459550137, -0.21546169143360838, 0.13873556511472077, -0.39990324462028504, 0.9244320114930022], [0.08605177785747836, 0.7544429271584777, -0.08706955630352635, -0.9499457387725346, 0.7519056652174197, -0.2161823573095513, -0.19411832307629548, -0.27671854801122725, -0.9282360155617805, 0.9453771330073616, -0.26256947659582086, 0.17446219492397838, -0.948082755408586, -0.7497484891952565, -0.7786333140617177, -0.6215552420189838, 0.9865534927721425, -0.9021037220305176, 0.2922782620141894, -0.9120653209000888], [0.17793648007353602, -0.51287381538438, -0.18577125531427188, -0.3403844177981941, 0.0028658639300467932, 0.591284255986712, -0.24111515340916698, -0.39656505575955303, 0.20283716261862123, -0.09217927212706349, 0.3627368164262812, -0.2312121668631094, 0.3917017513127363, 0.2699205258558192, 0.31012833109468774, 0.6688776971898088, -0.3028533210953133, 0.17637396430389338, 0.013054685360113344, -0.2020025930604019]], "B": [0.35214387862830615, 0.09555108775648168, -0.07617619266748112, -0.8837972043412778, 0.6217685944882606, 0.3599072654207731, -0.005176895809267879, -0.20743757032262988, 0.42117513104990967, -0.3691047455885162, -0.08064041411781354, -0.24531947082555736, 0.4586223060560192, 0.2401412860759921, 0.20400126561471058, 0.15026663312224095, -0.1408955858591434, -0.05742435857754251, 0.2737611526244951, -0.11038393988129114]}, {"neuron_units": 35, "activation": "tanh", "W": [[-0.1344508779402425, -0.6804970640878687, 0.049807458002377895, -0.3426019854907906, -0.13082857602083103, 0.48344310601151425, -0.350698923801799, -0.47009291215166316, -0.19941456940378863, 0.34238986389961634, -0.6632882436006953, -0.030448530129225337, -0.5986326035265812, 0.05258244093844523, 0.059226466275957936, 0.2869907742360147, -0.4629908013501682, -0.050611620529354855, 0.12555899258859204, 0.1222754368838677, 0.19966083730857692, 0.11935619786643115, 0.02743038359645107, -0.1029176410057332, -0.3080323389875394, 0.19038307273088567, -0.352388683229073, -0.4516022881636303, 0.11573673194263226, 0.16052043884840117, 0.25925591543306337, -0.1581317548759336, -0.017345995019498406, -0.3013649058110275, 0.32100138040257065], [-0.1237808145806473, 0.6580727115653641, -0.4288385311013141, 0.30263996558399375, 0.07534272460500722, 0.3564788495216439, 0.543557920569648, 0.5600573772789881, 0.3616354594041636, -0.1737776541678521, 0.2733680408242416, 0.3413988854173076, -0.17033853819591463, 0.35517637026063437, 0.3753735599523658, -0.01975045487255124, 0.2031267016009267, -0.5814742260670079, 0.025787969850763138, -0.49154640685072454, 0.4975505186060651, 0.32142411807190663, 0.45844325356863713, 0.32846470159257124, -0.46118143117096333, -0.36095435514555974, 0.7725876426222967, -0.21007452286820602, 0.5742293429197853, -0.08321198539216638, 0.42770887111775757, -0.3496293333154849, -0.21985368865566007, 0.7699369050738747, 0.634256743754827], [0.4016602999211294, -0.05342436068156445, 0.5424142704812199, 0.5159905296777673, 0.46978232799548414, 0.3781780193313398, 0.49031117429790727, -0.31744096329365595, 0.03791356963196225, 0.0008027871298032234, -0.577063533537341, -0.3564836583286127, -0.09210785788354976, 0.18881225505471727, -0.3465351647280387, -0.12624528352023293, -0.15206482128619198, 0.6639133901784096, -0.27097800579971976, 0.33590422714866214, 0.10299454748553041, -0.14172920920304363, -0.29194430902501534, -0.5057079604971724, 0.28494092802910015, 0.17035961040673742, 0.15348092615620548, -0.32626091562947995, 0.6047019652991446, 0.8163471398976901, 0.3229235491593486, 0.5650943510976588, 0.129732915031393, 0.6369686901406976, 0.5208838513584368], [-0.2501365367162444, -0.5857807279046039, -0.71767538079214, 0.12084175881396485, -0.236632367808335, 0.21075404594582448, 0.04153680135813591, 0.31043276252991847, 0.26261042909955096, -0.4230027545638629, 0.010950639205212586, 0.3497876297943527, 0.3882776103569768, -0.0819638202231309, 0.4671850220208694, 0.6513054894515847, -0.09164693810456825, 0.010337482936777862, -0.027691164143733044, 0.15311652754673213, 0.672251434091951, 0.7052691665441538, 0.028714197111757316, 0.5245289150432015, 0.5068339301954046, 0.3162142245371111, -0.4002924329729403, -0.027574688433611445, 0.02669531619475539, 0.480194502778552, -0.37256590677908413, -0.2905225074921131, -0.35509247232184565, 0.7756798924265443, 0.19284343441843976], [-0.19844784689555878, 0.3642089235869638, -0.6465957919033132, 0.1962433701654834, 0.11171939281526957, 0.33516200496533655, -0.7192546205694235, -0.8997537472680474, -0.6246111005707963, 0.1567581207163385, 0.10642921459364468, -0.22546109391516314, -0.9224793800898703, 0.3992939125393904, 0.37063688650556464, -0.19629127570218216, -0.2219248150365086, -0.6661248671093164, 0.17796382643776484, -0.11313307794135043, -0.2925494580137068, -0.14246625138081423, -0.4706021290145122, 0.07859780337527791, -0.19931979356461962, -0.4657777795824197, 0.12490148902368052, -0.1989174701539854, -0.4500886220574196, 0.18393846781277015, -0.18654105861534664, 0.22180934590981768, -0.4326588631191519, 0.20247704607695424, -0.12414264617644982], [-0.07088581916083433, -0.8621970146064822, -0.21967222380052404, -0.26305601657222105, -0.0514059514270893, -0.8958275491366493, 0.696154506814453, -0.06522191345849128, -0.0446733953888488, -0.9454077062385033, -0.02333065247312774, -0.06052912265205345, 0.23890042502939002, 0.07490448217065285, -0.0677259075358948, 0.5020417179670308, 0.5413423763554577, 0.3236815911391067, -0.14257278045805089, -0.30597441310649853, 0.2787062238620368, 0.27163314532923205, -0.17102414147511596, 0.09047391321029284, 0.017137010686097246, 0.2240088631246718, 0.282090746623485, 0.30793557978248337, 0.008462934549832319, 0.17371968812154906, -0.29388521547566515, 0.17495683950055427, -0.25668345827556255, 0.18726725414802775, -0.09604114341099304], [0.09639766828909577, -0.48450532378454997, 0.009108622081239897, -0.22159294907591356, 0.2031198963612254, -0.1820966816342191, -0.05838658155252806, 0.4301982593796409, -0.07795295822541821, 0.7471718005269059, 0.2225282430635771, -0.3261295241243468, 0.6104676325439583, -0.5168392865789141, 0.24274719683879914, -0.029176461241009796, -0.18932287811573756, 0.47391244700833096, 0.1218560756941795, 0.5182626760031637, -0.2111243169495146, 0.05445283173108572, -0.4339923713064038, 0.14505073928145312, -0.06189671525792355, 0.09166618567579889, 0.5636323170439008, 0.3916183922014288, 0.018420304415032108, 0.09775643233730605, 0.1812200243283731, -0.2413827421322987, 0.19465243372270769, -0.0827575194458435, 0.6472484052471399], [-0.1442209912709112, -0.3117662435676182, 0.052210503555759936, 0.4085824729247127, 0.032100459941654204, 0.11382224396447937, 0.5320656351909364, 0.0007340666577633821, -0.0004368928841655023, -0.47260323201599674, 0.43706157205444346, 0.5455828534276596, -0.2647491309487747, -0.336563923637152, 0.1727259146342579, 0.4129090465555748, 0.4054258092202243, -0.04259942856351881, -0.029887156544549442, 0.398483575781264, 0.4647434844970871, -0.2595970083003979, -0.31172773518769115, -0.33987696126858263, 0.36216570753311755, -0.23270956581238203, -0.3504280992591786, 0.15198376174243583, 0.04213407357644268, 0.1433810026518123, -0.009926332685387946, 0.5510680126732892, 0.2532852254639166, 0.03841930223519121, -0.5126792901847883], [-0.39522558900131705, 0.45143369513714343, 0.5823343538213246, -0.5655353678821762, -0.2877643819238603, 0.1186217373408797, 0.11956853918763685, 0.09335964147692415, 0.5497149854113886, 0.2759184066060388, 0.4481608531387709, -0.7147856841414487, 0.29855408913577325, 0.6621116255506254, 0.5141647000119672, 0.6899586927385785, 0.9950698099118063, 0.6059733032166944, 0.8787478592037115, 0.8354189845575161, 0.14222289117861397, -0.9709215882030798, 0.1941674041114112, 0.3293063124565547, 0.29417792030110784, 0.4846045574304885, -0.18343705749459732, -0.41713857510439534, 0.19841876582334508, -0.12228282258036169, 0.05054540514361543, 0.08978357691984269, 0.6530915796185658, -0.39226955107534145, 0.13540152271001152], [-0.007531578930581721, 0.33137996506465045, -0.7554998596278582, 0.6772227292727798, 0.4452957636423956, 0.0699750519129805, -0.5915989086154347, 0.8864328340182043, -0.71272144847397, -0.34370575424892225, -0.285715946451169, -0.9598741853095872, 0.39741491768057335, -0.47682851522872466, -0.09485618741386467, 0.22520272732765417, -0.5223122132697053, 0.5897124556776184, -0.4323708216915214, 0.30553895720478785, -0.6122558519647677, -0.5983817872871381, -0.6135888330902141, -0.44356561410319745, -0.7654048487979453, -0.9747060290352917, -0.32914180962177386, 0.4135727303873853, -0.7653899390685895, 0.08328115008573717, -0.0932961449553531, -0.1828129369852292, -0.6915360891670495, 0.7023276463319098, -0.6048101353549186], [-0.04535762698620815, -0.0017110980004838541, -0.25883249630803445, 0.387750740505366, -0.4767958682118173, -0.12496602862711394, -0.328227865735559, 0.5617186818190305, -0.33562716314638646, -0.6066305421652433, -0.11868088052664552, 0.24486299887997212, 0.21079211573273274, -0.07645142360626711, 0.20974671412485868, -0.028610760212348322, -0.4280947805361111, -0.896820809832945, 0.0943932991450639, 0.03941430948138079, -0.2551821832439364, -0.24921784726248494, 0.032800125809397056, 0.13170299651294892, 0.3147407666952674, -0.23840755200845945, -0.31745547326422996, 0.11119166636942458, -0.20009230027892394, 0.2750279219766685, -0.3721872546773645, 0.19750329127952612, 0.37939626139705634, 0.5474566552629477, -0.21519250831081566], [0.57475139365896, 0.3994756748822528, 0.5413781296475474, 0.627801466593814, -0.11264783091484329, 0.28836120327124953, -0.3133154632564948, -0.024082065453528628, -0.10737035526963074, 0.3311536240623169, -0.16835712021095584, -0.5825501909363425, -0.3439677474050245, -0.6571149693255783, 0.34584575552853497, -0.18901457299922922, -0.19852098709264882, 0.3587760647632408, -0.025966015250731677, 0.03537938646021291, -0.2657580158729964, -0.0006188433646464174, -0.24630884043358428, -0.21553613202515198, -0.38035899081094393, 0.10543418047538704, 0.3109362190132299, -0.12882074500454216, -0.5375129002114386, 0.04069716671168716, 0.03724031893828282, 0.24371135939707023, 0.7150767701369657, 0.20781060365758414, 0.39367076371099785], [-0.29275217120486513, -0.5841794591502409, 0.059264322821198104, 0.24424828176690427, 0.23996830848409054, 0.04584403499408576, 0.2694316558467492, 0.30186100282244355, -0.4997585506200016, 0.3269199279468326, 0.012528920451834357, 0.8869935747278046, 0.22415408241336612, -0.2087392228984541, -0.6922040055882795, -0.054837911692681554, -0.1557250725949897, -0.10253904456930688, -0.6764759908601337, -0.38930577118602594, -0.1891050772109112, 0.37935569969451055, -0.3836740082283295, -0.6335933216282564, -0.09543151810211156, 0.11074543033079255, -0.5173903754674765, -0.6711994134480458, -0.18036099947622689, 0.035600311214830836, -0.2206117051633751, -0.6863374955909164, -0.4933290335566371, 0.4609329981191595, -0.1025277228668862], [0.006831388181491949, 0.10699337499147396, 0.10958615886144353, 0.3430225198771728, 0.2687209360444993, 0.5701969768022466, -0.7610167039512707, -0.2399281576333657, -0.3629644225041465, -0.10127585116931043, -0.3093634776346161, 0.18558839515168812, 0.5230382038928241, -0.020960284803399676, 0.5560814146868558, -0.02846195015758396, -0.5458106669651792, -0.2711191613567026, 0.1729380363209857, 0.23258490978520202, -0.23010476904660299, 0.3977739381076688, 0.6429771758596322, 0.1826157067787392, -0.19148159322114766, -0.9485405643820711, 0.2626555430662737, -0.32256457137200856, -0.5011591128018907, -0.1303499668492295, -0.02497309167659446, 0.05528472182283283, -0.22467286154087499, 0.15094248746863623, -0.41751309713386525], [-0.42361513493182745, -0.6040337035558826, 0.13352997769393604, 0.5409615519803608, -0.31687134521684956, -0.04534366705704822, 0.15260504945632603, -0.11524055489238262, -0.7515087579102508, 0.053187561484003006, -0.4643395788554263, -0.3676822237192113, -0.2595194947419327, -1.1146815966400545, 0.4251105175411244, 0.45249149268958494, 0.228572538779748, 0.3000735004281466, 0.3300329490829722, -0.12984538495463127, -0.40834437889690123, -0.22544585644174434, -0.08638526304320704, -0.45651921273509466, -0.3252979239087573, 0.26134060075988086, -0.5769193675488923, 0.08238674983901648, -0.7305307342294864, 0.2714686789155589, 0.14546915127207777, -0.4685078573675833, -0.05368665587874147, 0.4896309503438155, -0.15800552375575777], [-0.6563230846576351, 0.27688894728100294, 0.024888953812566377, 0.362304063129878, -0.6973667818183483, -0.6672438734139892, 0.3321457524311992, 0.1240921090501735, 0.172844443314772, -0.37406328563012253, 0.18336070743931893, -0.3852211782739475, -0.644236394774347, -0.693862672969058, 0.3620478272593925, -0.3454620250982975, 0.4074391270430571, -0.2639481324549729, 0.6683294749727483, -0.36036800592902785, 0.05387692669370831, -0.7271401355553837, 0.4155172373008818, 0.11454423626401157, -0.2096180744825507, -0.727340832667155, 0.2873246369304426, 0.11927749058919351, -0.27762783561003285, -0.4903058787865998, -0.5233705827849119, 0.10620252750769815, -0.16051414064618888, -0.21970351857755155, -0.354973031465357], [0.03256031750375707, 0.29713839840347195, -0.1610149755198332, -0.5014335185695007, 0.14346747046660574, 0.3086542788049594, 0.27044598324516445, 0.3776283512383081, 0.2685189799534422, -0.2026521685214944, 0.48164010460364437, -0.06384565592723035, -0.023748136524966566, 0.049533127291107704, -0.24235642511052097, -0.07813790457715478, -0.14967227498894012, -0.029520402741186783, 0.31796475621984455, 0.48823850211266484, -0.5430890978738064, -0.7727760944937093, -0.055246490446997955, 0.5326595516230461, 0.362919342458806, 0.4417529038370284, -0.22707322036274968, -0.200008768738861, 0.1620064902373775, 0.3503552492957768, 0.038972805037024945, 0.11913159892108435, 0.21269216279929165, -0.11445883858141019, 0.1526548845407235], [-0.12008640977577742, -0.17905423084720967, -0.2420003135698587, -0.672875952785017, -0.08469497659767221, -0.17866677837805348, 0.06682586883378183, -0.3409947007610332, -0.17154435394793616, 0.21533476597367415, 0.16717517983616953, -0.35285198485844155, -0.026835825979111688, -0.35461526752447164, 0.1959463681323993, -0.22058519704023233, -0.12304645038827608, 0.3726774154781536, 0.00948144794797285, -0.5502388774214558, -0.13622768603161622, -0.40546273245792047, 0.18772270700432517, -0.24729992130902442, 0.08554117728428781, -0.0688815809296522, -0.03560129014075574, -0.1107365138309391, -0.18776082027085217, -0.3203014676772197, 0.0494324382063342, -0.35342101457319886, -0.04354193103415197, -0.6991410531638325, -0.1746213237865264], [-0.4745005290472717, -0.49109324101582513, -0.0698343873183485, 0.7240690158373722, -0.7075806582978658, 0.01882377526663874, -0.5497870390954636, 0.6925722058054355, -0.15034248546093734, -0.8168489009176177, -0.9206589593684508, 0.7345339607765674, -0.8044665787048516, -0.3069156867541289, -0.32998287274668897, 0.6226930013826414, 0.13406717053587847, 0.046634299005069865, 0.310886375566258, 0.7583500266281833, -0.4044903717796388, 0.6169308390971595, 0.5217757315728329, -0.005199168621496765, -0.254489115541194, -0.3672094140762588, -0.23394914774398698, 0.5209399262058295, -0.366302672674285, -0.6214112958934888, -0.3070677563170367, 0.18194236659248528, 0.1391026360626031, 0.5705286333334889, -0.026162559284156714], [-0.17772014689001767, 0.1247347767342443, -0.19934506469508578, -0.07135291517228814, -0.3007966276159493, -0.030374901999123825, -0.8331793617863944, 0.65961313774884, -0.6149367599808048, 0.4035924158889616, -0.20561798591333325, 0.25045016795713887, 0.05629951590284878, 0.4008379672573409, 0.11777133459425039, 0.6402083649084032, 0.15546733009767474, 0.6611036936629255, 0.07835022977189152, 0.7313042214923636, -0.4437705374653758, 0.6493446604906501, -0.3281432130743872, 0.7903886005982486, -0.7295404768891693, -0.051761648458688386, -0.5915858944839276, 0.49904492922238464, -0.6268637332516569, -0.5594392867048917, -0.3108092203515832, -0.801675642168621, -0.27953626401874365, -0.4938254033355265, -0.2942017318519571]], "B": [-0.37558919975492955, 0.14444883219970722, 0.2696814567582717, -0.06160159061282683, -0.09805333511086659, -0.045187703083613015, -0.11048126644304525, -0.4793155997267983, -0.166129755680299, -0.16398146629416133, -0.1269100256174525, -0.5174200071144965, -0.5159303322852308, 0.3090008143249846, -0.054558189224891016, -0.6511200490439837, -0.5798158137355759, 0.17391954766122844, -0.0091998756462775, 0.02469991191842147, -0.2220823782607931, -0.22525533702761336, 0.27742314717593125, -0.2668469393228296, -0.002190182192224843, 0.41913762255870174, -0.39841480215198427, -0.3669883405881963, 0.00735646201898497, -0.4753031181535273, -0.2641416548464821, 0.44727001233797187, 0.41584891235609817, -0.01398235348381299, -0.05908796298731819]}], "mae": 4.387465012458919}