{"name": "test_adaptative_lr", "layers": [{"neuron_units": 20, "activation": "tanh", "W": [[0.14281046848617707, 0.14208736477848505, 0.03511118564837301, -0.021147645375284362, -0.17730006657353212, 0.11364825148190627, -0.4707478873213347, 0.0739926344123952, 0.24513922320795983, 0.12040874852512712, -0.10748196461569383, -0.23142048621687264, 0.2914533860992315, -0.4017658534528126, 0.2246638224632755, -0.25853439588520705, -0.04678327153238128, -0.21966722266966893, -0.1508262030048467, 0.10688447032546909], [0.00492655605488136, -0.09734753253795637, 0.218440693953817, -0.1083014323000628, -3.1347559302510735e-05, 0.11956153411502402, 0.2507438357056336, -0.16429849009140715, -0.22322448633429348, 0.2703093781901129, -0.2851497440494087, -0.11571409435729194, 0.11806610827380294, -0.09633840316406048, 0.23272396131353007, -0.1404093438018782, 0.055929124573862954, 0.0012350502449246473, 0.10823657261397396, 0.1489435739826817], [0.1717605659914201, -0.31311408827181025, -0.009456864969544381, -0.11718506930022464, 0.12361306526526183, -0.3065256585621707, -0.027667482775627254, 0.1973955464378259, -0.3318732940437635, -0.2872321270849706, 0.3056010285898186, -0.12540147888767014, 0.2622668663356959, -0.2195716951536773, -0.35682843568451955, 0.19808086347299703, -0.1655049753087961, 0.032686934119223875, -0.057562177319660165, 0.14130392204637182], [0.03345200590659204, -0.15580153452351264, 0.03429470248405585, -0.0735898570443712, 0.3307731104209457, 0.11037957639573537, 0.2784417765542582, 0.315576827030526, -0.12907568525248886, -0.252995740592505, -0.2427631592633181, 0.252587288073365, 0.20122841870975644, -0.1165958408834798, 0.02811521112515598, -0.0388157645044414, 0.10012424977779069, 0.3195308924247393, 0.07877780600724349, -0.12095905936042485], [0.3019374810843374, 0.01557074212162, 0.37419937668130787, -0.3648416746028261, -0.06733753752583208, -0.15604215675792282, 0.2001376762178997, -0.04467260671279071, -0.13251845649833277, 0.28358325979382304, 0.2546093243952326, -0.08827759329134299, 0.23269161087492496, 0.1963220264875153, -0.06546946845105031, -0.2778028327595546, 0.38402299008180896, 0.009959870414061022, -0.0094246653779987, 0.10838254894947162], [-0.1928503606716851, 0.1657817730167952, 0.03293331637584489, -0.04936286335317729, -0.02372879062856304, -0.27527245619209634, 0.11840908206484248, 0.107731424220749, 0.020958790074944368, -0.13568265316065234, -0.21904447428144835, 0.20460371277495396, -0.00680882748152928, -0.257011299853163, 0.06600981701437858, -0.1699603032223338, 0.21965441374910294, -0.13259540148546428, -0.029718043681445955, 0.09715316561148364], [0.3061445969650537, 0.04840005451821884, 0.347412542939077, 0.11468457676356465, -0.01775723224021617, 0.07858496980679616, 0.05874264681497251, 0.010176875467102893, -0.3685481402892102, -0.03514107305475238, 0.013116068718592812, -0.08230432394308618, -0.03925288130888329, 0.08494779049740492, -0.039881520897292265, -0.6712913603294552, -0.37392540618528003, -0.014492508608880761, -0.21697483660015401, 0.16948199597944458], [-0.01805989667086472, -0.08325911113311275, -0.04295370183583562, -0.42365656762173765, 0.0265577636828193, -0.30835902558906486, -0.21740523436416673, 0.17830776148468921, 0.16573306021410783, -0.15124616788727854, 0.04615058268173393, -0.09321297620339106, 0.23113866673262135, 0.21429959338233995, -0.5507717622901116, -0.13608744688335334, -0.0900466406090406, -0.6350351220918227, -0.09406917850598268, -0.03291711745267451], [0.28696676102528396, 0.045695827731462746, 0.13874046325688894, -0.32822447995110726, 0.16923326451355422, 0.12005350270710782, 0.045097760086331574, -0.11114738939341962, 0.1430940571613577, 0.18958431083008012, 0.06449144920136297, -0.2116715114626195, 0.07658750679466618, -0.11221554577769807, -0.08589095499087238, -0.021567859114694946, -0.09555537675059378, -0.01607673206041596, 0.19043864523660217, 0.15454473435548627], [0.037953206651322215, -0.26490712916588527, 0.044184461956235654, 0.08877594046361197, -0.22665696448950992, 0.09050521710721637, -0.22858438362886793, 0.35391177541847624, 0.023392344625695727, -0.23508848339305063, -0.2108730519973992, -0.263326987223183, -0.18309955783961535, 0.13162045669029684, -0.13978641633939598, 0.22561632998880643, -0.24800073277989704, 0.16720088380760062, -0.057815364212204706, 0.1027676423514245], [0.20966719187180743, -0.4421260709442138, 0.49118096537416, 0.006361176284945681, -0.09277420379481413, 0.2030029454030316, -0.0126047929088153, 0.07525325372034575, -0.026321645643325363, 0.06559677012177802, 0.22842545845756979, 0.022361454833163704, -0.18481067071916157, -0.11250975259129964, 0.043336619929650384, -0.010469921552995438, 0.26045891464341364, 0.40738746844641094, -0.3162905390854439, 0.06939533421627402], [-0.22155509966078196, 0.017546898322680436, 0.4354352190241536, 0.5140228706739877, 0.28961002182385376, 0.030453171133201548, 0.1037608137629059, 0.07615517474649561, 0.16878561472398657, -0.1399799680853371, 0.3454989084065336, 0.1307268532708609, 0.17757598068551095, 0.30611029979331, 0.08120124814384161, -0.12014765681585501, -0.4594001644595611, 0.020393240671985863, 0.02138312384985338, -0.005468371655268455], [-0.052085125676895626, -0.260631893705113, -0.0022078213461827587, -0.08921235800827355, 0.16067070141728604, -0.32638495832171227, -0.15105537383898396, -0.12469164857649519, -0.3498742157140479, 0.10691692942419043, 0.3469006714187273, -0.01564198032624309, 0.30129652754781716, 0.3806891279789409, -0.22668594566026828, -0.0822948771677483, -0.05344242287593014, -0.153776192996874, -0.08618446777764818, 0.18031183745363288], [-0.27065881489124166, -0.30745999669139196, -0.0011726306139108929, -0.16088208759091832, 0.017838304664551906, 0.0538340929097711, 0.049844896003736296, 0.28778250838619407, -0.0621199264840247, -0.12322905033029655, -0.22797184458341407, 0.17684820905857182, -0.1497353369905044, -0.20296383424959302, -0.013735631877428399, -0.12295199362056608, -0.1211387901780406, -0.1573209444017139, 0.14809534777550612, 0.10727447882543036], [-0.14783890655706428, 0.022513424805519183, -0.056303767479225386, 0.025957876981821216, 0.19517734390865774, 0.25543472689491104, 0.07279958347517017, -0.1470499243739037, 0.0946640864320313, -0.2976172368897846, -0.2041839664404631, 0.38793603183953757, -0.16514742227142054, 0.05169284882034952, 0.06919083427760803, -0.04320729717808145, -0.24240330793829706, -0.05247374144507661, 0.11884256195815918, 0.17970536953764793], [-0.22744415774572913, -0.04181238210246793, -0.10141339423825346, -0.008037972044541923, -0.2832958010234784, -0.2326654995126637, 0.18049072137971914, 0.18793065482472235, 0.181831279350664, -0.023063232111402977, -0.1976237022872938, 0.010810435608825119, -0.09321081319182618, -0.08470184606051145, 0.09961655723530194, 0.19723743628135448, -0.07131234223378624, -0.15845601052802744, 0.11110755345842743, -0.14494999788029805], [-0.15393483728953378, -0.08756594714759257, -0.2502252425128472, -0.07907936721736013, -0.3003026796344419, 0.10063955562490337, 0.23149119773532037, -0.023421628233299116, -0.09063849913149043, -0.2674878932368111, 0.08260410666284614, -0.030778978973519364, -0.004066766651011489, 0.08548142664023245, 0.03304780152755719, -0.1230102707938952, 0.25378195725657804, -0.06636174783771256, 0.11271739169206732, -0.06471011011962928], [0.1870025652656393, 0.08832341049168053, 0.11472860170155469, 0.06252146216297706, 0.10582648238026521, -0.05475211188050195, -0.3061827440299281, -0.21283858714466516, -0.06556307368222995, 0.2164091831478621, -0.06896137286494632, -0.23625840882823626, -0.11388548078108744, -0.017955539962601384, 0.1843896571788612, 0.19962991143467557, 0.1825374643488229, -0.19907182162320242, 0.063110237936378, 0.040650532348533365], [-0.12227341248826891, -0.29468148429176805, -0.363540390534943, 0.20417272371514045, -0.054813876052600616, 0.32745367510881523, 0.14047619983465706, 0.07380164569289235, 0.26212198758439204, -0.20901540681140532, 0.04718168720905576, -0.05035930299546268, -0.05556128317124764, 0.02162600655469633, 0.11412773364102421, -0.001180795694441957, -0.1659469637266099, -0.029517415322942407, -0.03825045415095929, -0.03924867555123238], [0.22477305516063234, 0.0714022360754998, -0.2811642866195535, 0.08198848627753942, 0.21265175709937464, -0.06999988029424095, 0.018914967190036092, -0.042415696354346395, 0.17561913765711695, 0.04985313685529433, 0.19135349111457967, -0.07425375697188799, 0.23826975845548892, -0.29058723654493407, 0.2281048742417191, -0.07789976010147939, -0.2200562961619384, -0.07555475417482349, -0.12494600389628999, -0.02897151213645945], [-0.33613424110837875, -0.058008322501730616, -0.24115294790298786, -0.268450008489875, 0.2850450008636737, 0.010239836050894844, -0.016142816204084542, 0.09471127967822499, -0.0749048447706205, 0.1541483930411364, 0.15632732495886237, 0.3043627134070251, 0.036954249857795406, -0.1274293016431228, 0.1539759024661691, -0.25864296405823556, -0.0831380679396442, 0.11366983320025476, 0.4331069636316359, -0.11276000973677137], [-0.30437664707026224, -0.10396050295251873, 0.262359339223893, -0.1647904968129043, -0.17806383109435212, -0.089473492531635, 0.09935959559160522, -0.21772163407604592, 0.3753696457204306, 0.33749971497589637, 0.39501772182081646, 0.11265360016973824, 0.06822615922305598, -0.012353258398385579, 0.04679805921686261, -0.02174728304284208, -0.029364753944765763, -0.006257272464422794, 0.1445952589917068, -0.3383408747473547], [-0.02372286903881617, 0.2496031666602514, 0.3052655958634898, -0.0591904009912276, -0.019476511253183906, 0.3991722034734337, -0.5230341370673558, 0.4740629539258912, -0.05602312452210174, -0.12245932060081176, 0.02235938332485767, -0.15081743009598966, 0.015269064587905515, -0.19477282539957846, 0.17444185846525206, 0.06907316869414136, -0.40493729058642813, -0.09065737542391578, -0.030416659144581908, -0.09753396725993004], [0.09207339834569513, -0.09800096699973758, -0.0054278218659373195, -0.25854450729960066, 0.0669596152389319, 0.13433544856618995, 0.037350936556188714, 0.21912762335694744, 0.12439539701306802, -0.052774696440660185, -0.16953518511002458, 0.1446640668635423, 0.24568647512253006, 0.07592791441351521, 0.442266838351101, 0.16500468742125912, -0.18033712043012473, -0.33215033975802466, 0.35187034361192127, 0.16263167017396724], [0.19152148538456093, 0.33476679739122045, -0.06524249183592506, 0.2268633610814471, -0.02266337410048854, 0.009338113158928763, 0.09759299344389614, -0.20293370419752368, -0.0144923066775732, 0.0695498316197205, -0.12449661800236554, 0.10480094930925324, -0.3988477582494579, 0.04736784241328489, 0.06292417458029534, -0.02433758445257959, -0.06830529382255815, 0.1393954448387687, 0.20179500186595115, 0.42768963619813566], [0.08834745499822104, 0.005197684367807439, -0.12333603528804321, 0.12266242302543841, 0.14618747194130224, -0.35994626674906666, 0.018204567985672573, 0.5308008344027262, -0.46020691998851687, -0.43024633280399693, 0.011591710476460352, 0.4112547138403719, -0.03110859461349126, -0.2897757534406559, -0.19138841740223267, 0.1545131464675239, 0.08417116316854575, -0.07621529209917277, 0.1577506880125916, 0.021227302192978203], [0.15177604256461613, 0.08638769333899364, 0.2521487232925115, 0.012287971683621394, -0.14805502587282335, 0.4642874381120427, -0.39501134184868597, 0.21458919054206596, 0.4714769524624914, -0.17342674713575948, -0.45672533590713454, -0.3087706607901726, 0.021209717228635426, -0.13864858809821212, -0.1783350782284402, -0.3954733968551178, 0.06056268814671316, -0.2332598096707778, -0.3096854957723729, 0.21495598399809784], [-0.01743354565816441, 0.015653953071684146, 0.3256582711288183, 0.2375573563758917, -0.03629143401290434, 0.2632085019608133, -0.12236583426106615, 0.2042813946137804, -0.04536167171632665, 0.13699543226811553, 0.19304271265896816, 0.11264335103472384, 0.2648540672998925, -0.008890678242559154, -0.09300523763445687, 0.2952843210328499, -0.22065273890687065, -0.18596548207903807, -0.08626663430131551, 0.02577149548149692], [-0.0023602097733368636, 0.03441326279080639, 0.11679849223038574, 0.08002822102102668, 0.03216507565263438, -0.3327106671592523, 0.12460443850595318, 0.287694235961595, -0.16249702011618455, -0.1804755520811089, -0.018109414840564785, 0.0014286017260031634, -0.20149710964710787, 0.5397951535365765, 0.35200993118766594, 0.12926855638387177, -0.0628846136843274, 0.19626903381899385, 0.033545429192749804, 0.3969001680471332], [0.1862415369174203, 0.16351205073169428, -0.1443573587493877, -0.019128731902269377, 0.31991199861393815, -0.14492581674388716, -0.021920137110209143, -0.5266696046312489, -0.05967712693192944, 0.08727906088180681, 0.196322790418838, 0.0898588863309022, 0.18405920500074474, -0.22017310930925615, -0.0757028964512198, -0.16419525060866463, -0.23906432539172429, -0.2999447250919465, 0.26211003844176006, -0.001540569273298465], [-0.1386390612483424, -0.14455527129402312, -0.19964717906861873, 0.021789572168661526, -0.41058863132601653, -0.2681426777569556, 0.029053970840547613, 0.17479759623887872, -0.3589667881726632, -0.1608502622013411, -0.006500061546737428, -0.14447152039892633, -0.11554705388350069, -0.11839171504949741, 0.20034195319158843, 0.1648509704008697, 0.14012923517539227, -0.11495791100747982, -0.08107714099950261, -0.04902016668732576], [0.26647898559060235, -0.32207035830358194, 0.21224344125756123, -0.20728536334105835, 0.06993172593412844, -0.3578687047519557, -0.14513892515826385, -0.15161463043850323, 0.2680210669959365, -0.058265104771759044, 0.14775907017476975, 0.05964346106430396, 0.20142345872531991, 0.4033584764527733, -0.058522778297250215, -0.15310097110707177, -0.24664827217283103, -0.2075872132299435, -0.27272626188084603, 0.37177574568253685], [0.07297586626412082, -0.11144110630913788, 0.3633095467759968, -0.1650131536526595, 0.3298285272943601, -0.32187096461618875, -0.1284564760887039, 0.18278489269689072, 0.06917260784564998, -0.24102420895163226, 0.3593683560129574, -0.11785719211152748, -0.28498909955416735, -0.20914046581483398, -0.17559072478580223, -0.04589556101537615, -0.049755371570679274, -0.00990434026696379, 0.2509485350822952, -0.17742807172610142], [-0.16923631661004285, 0.07106670738105915, 0.12934403248055032, -0.1438738827658162, -0.14812526350501784, -0.03202781408320598, -0.06674979039821154, -0.015984807671174335, -0.1181096214708142, 0.15345165572769973, -0.17072177304866465, 0.22494336027940523, 0.11737000202514584, -0.3695759335648661, -0.0624252952741242, 0.19091055978345584, -0.4947708909023488, 0.02547708410031005, 0.1341518013744146, -0.23833351999484176], [0.026104039546077495, -0.32920661228518383, -0.08903635580202715, 0.15354369064071421, -0.23514711864339896, 0.30468192200063077, -0.07395448323603103, -0.01708060362334373, -0.14977115571276522, -0.39575433702202256, -0.16705465309999157, 0.017568995106335073, -0.2467121726278227, -0.02487819596221118, -0.031942740663450105, -0.10043069600814125, 0.16287953364772828, 0.015396505941186743, -0.18275535966909104, 0.11061175539843897]], "B": [-0.3819360237385002, -0.2039262348929794, -0.05511220814898571, -0.19236939505330997, -0.07155394815901972, 0.08356092116128522, -0.02352055209737979, -0.24756126100772816, 0.3819015520202809, 0.2218129078253834, -0.20971427507209073, -0.5146197914827966, -0.1065931398849813, -0.13851423703712284, -0.1857417526419491, -0.06626718424091577, 0.3082405312390726, 0.07902524909411099, -0.5527004508819019, -0.3686234398743102]}, {"neuron_units": 15, "activation": "tanh", "W": [[0.130657239300729, -0.13458274204124657, -0.24742135136644203, -0.37233032754133116, 0.035093091063579565, 0.10943400546705499, 0.05894034986806284, 0.13722321001160806, 0.206826734022908, -0.027257302281031758, 0.28585441441291026, -0.48773191987239567, 0.10030717100288587, -0.09388176113938063, 0.24131442603088463], [-0.2702606850260152, -0.10959898104802603, 0.18645457670425325, 0.022301807522826966, -0.1712223080806066, 0.049574232791790865, -0.14641129061135202, 0.09931182800213081, 0.12297160561555967, -0.02222001505526515, 0.013067861247957085, -0.06179693878218915, 0.3606816613567657, -0.3679715235230055, 0.05810649366450208], [0.46521267479413253, 0.32739963221917867, -0.02494493783116253, -0.8383227987929835, 0.3312869870401311, 0.19956853141138464, -0.1153460962179369, 0.3209679390799684, 0.21650480386274715, 0.36388304122796394, 0.1338370124898218, 0.3376270511508321, 0.10235581674137847, 0.2686744810851625, -0.04883942229645054], [-0.01335917146005266, -0.3849110599184005, 0.07670518495468659, 0.05708934880456518, -0.07042131496891955, 0.1861301330675198, -0.11905092936564078, 0.3832606441580321, 0.2376431625607934, 0.09255128963672762, 0.12722424049738715, -0.07572576808948729, 0.37642862270517136, -0.04644003010093991, -0.4088343299111857], [-0.07961978049530702, -0.3102476733626217, 0.1975763146641801, -0.25371923141749925, -0.008972736192276851, -0.17199912383952945, -0.1813251804862349, -0.25907194083069207, -0.426644384067771, 0.06126552308717921, 0.2641680353652869, -0.18250167740516657, -0.3339297997937534, 0.4333653753806963, 0.09723818660428513], [0.22041479271442077, 0.12167822254893411, 0.13206274443014823, -0.026817461546099004, 0.23643428554803783, -0.3124312140310382, 0.23123810079183924, -0.3240559591007475, 0.5351237595186192, 0.054049894819115686, -0.0684972436494389, 0.39574033132902053, 0.06825655538044888, -0.30543865953522453, 0.34271746330454333], [0.1504397968156165, 0.23769450681587104, -0.42147279323855485, 0.5829097955474789, 0.2412256761249809, -0.3566571642567987, -0.2990765311634925, -0.01964541924635791, 0.009283729494310281, -0.24417659990610524, 0.14662673340200325, -0.04788347723698738, 0.04994952417568492, 0.28611531600309587, 0.5751623115246036], [-0.17265673446364835, 0.11289087451457532, 0.4226668946887247, -0.1653578756790505, -0.2893718971546337, 0.1551128059965715, 0.2786796511998267, 0.24954898109061022, 0.4331545026416973, 0.12918546174328438, 0.4350653576077661, -0.01234263201668814, -0.12981272055678958, 0.337450158819112, 0.020012269449795915], [-0.20720037730394303, 0.20903770156897042, 0.33142953541120584, -0.22379605648104517, -0.27212283634601275, 0.30854622990051916, 0.8784453188567216, -0.44290719900253356, 0.2625283313275088, 0.31560889260836256, -0.26465181986678066, 0.3437752267414339, -0.5967865964680517, -0.002018020007870359, 0.15385185200199966], [-0.20797969445844472, 0.32938833569482806, -0.0007503460993843094, -0.292070856383922, -0.23112055886417232, 0.1066671183331486, 0.27743519715430603, -0.5327122845276662, -0.4264027939590972, 0.23292143565305704, -0.22838867199677057, 0.4865532861024273, -0.14253117833463047, -0.5563501742079944, 0.27651917751832517], [-0.6789122077577555, 0.2078307681268852, 0.24514974997166225, -0.08462293891555105, -0.06735363499272506, 0.4503587130346593, -0.002156516527120301, -0.3623302995078462, -0.11561544156735626, 0.2695631287549948, 0.26039892495738176, -0.2882604472306156, 0.7755138852269159, -0.16127508795641182, -0.23122508393850955], [0.25959756066918627, -0.08200112857837137, -0.4156986295070075, 0.27387630580567396, 0.26105485461448835, -0.037098405577719935, -0.11942540520055053, 0.2797348812890654, -0.01713767125898551, 0.1258514740792581, 0.35905632074160504, -0.04353581008187132, 0.06083953287695614, 0.10287952782192486, -0.07623333691158263], [0.358982018624662, -0.5147885540655729, -0.27568718297525596, 0.17889562640396856, 0.5323588596421495, -0.43467909960440304, -0.11102332483483454, -0.2877248795837414, 0.24877497431893789, 0.12244655042973696, 0.09015915614915065, -0.01957949395642863, 0.0076334260965468725, 0.003068080449001214, -0.5012114916166011], [0.26171526549715696, -0.6258759650620208, 0.41701572370046047, 0.13752375779165715, 0.4408848848668929, -0.48535006628794997, 0.02827671593240344, -0.28781727883548014, 0.015578768758451834, -0.40823643078049304, -0.03359478965441195, -0.20192595136280692, -0.5903404580890094, -0.1672526683464938, -0.12599694232906553], [-0.13820705812530687, 0.2545752536650148, -0.2080830502798339, 0.18764524493081516, 0.1962999157915627, -0.2691790538656333, 0.1047423978075003, -0.12592701848224136, -0.419456665882894, 0.002262918527974617, -0.27013638110827676, -0.11831653036522871, 0.3059338041765873, -0.1490190098522643, 0.05329478694269341], [-0.26228678797322635, -0.16185523078282954, 0.0666626605844294, 0.40885803157727424, -0.46381141295333467, 0.5027769625325541, 0.1445209391468883, 0.04171799594927182, -0.01355249691147657, -0.20615082887106947, -0.0037498833584483247, -0.11786520826527325, -0.33919829941533636, -0.08336291893156314, 0.44351177442818135], [0.16685235253268066, 0.5170270304255066, 0.1053773225998025, 0.16898726711821793, -0.41822265916149987, 0.20254276902248944, -0.1369040694533948, 0.29513574240626983, -0.07518849627563226, -0.2436841632454418, 0.058504831830322374, -0.00012134015631056492, 0.2765906838991653, 0.3166087577075973, 0.251660766485817], [-0.19710739505219177, 0.19534214733415445, -0.017534418733296666, -0.6204283141239493, -0.03654690326749351, 0.16227244047202666, -0.37009724663527155, 0.08740266885511006, -0.3917121766183997, -0.5319534279878508, -0.26884268953591833, 0.08296359846900125, 0.06613182584413536, 0.020403006433314667, 0.5502525516456503], [-0.1241228616135925, 0.343029834606174, -0.08277843080396541, 0.042247265211593284, 0.010701704306395015, -0.1424562490660245, -0.1731919422460543, -0.3582011092713725, -0.18312527480041008, 0.01200553004515314, 0.18084494891231284, -0.16624566072254054, -0.15521951636649153, 0.36654331382452116, -0.29435065936021837], [0.29594646864557295, -0.0035085071049699283, -0.05216408349509032, -0.4599880706500984, -0.5025319761172823, -0.12084762699607672, 0.49714069444468695, 0.3101428900831109, -0.2227890098855303, 0.09436826487494816, 0.3461126758426206, -0.04356366351522169, 0.3829715487861437, 0.26700169862648915, -0.015587028504544782]], "B": [-0.30817848854037794, 0.18121438747808807, 0.05028546530320184, 0.08441608529001648, -0.08400757219963027, 0.34969785054745517, -0.013406869501301663, -0.04195418252568003, 0.5974092862849828, -0.007464094526084078, -0.058766250578807765, 0.21133373039230613, -0.32781657440147377, 0.031606206811150235, 0.056471859304031986]}, {"neuron_units": 10, "activation": "tanh", "W": [[0.13316161847511765, -0.3255445375542877, -0.6927751968190471, 0.5918223741435168, -0.24385380290265912, 0.5106717539832816, -0.43234606677242887, 0.26433503475348075, 0.264497953323626, 0.1909807641586895], [-0.26899038059998936, 0.03860817604157652, -0.4733275872882245, 0.1574953360090508, -0.004276427077613953, 0.21049864354940365, -0.4958068791011317, -0.3300099863736501, -0.23970960920604725, -0.28347999918802713], [0.06459464925900459, -0.03278701353463584, -0.3205970830793899, -0.6187625136002584, 0.45037303817805324, -0.08889336115825938, 0.4342452057351722, 0.061152825562394285, -0.19489856044924023, -0.009766572403816943], [0.07830427069776555, 0.12168034667932737, -0.003998024516261936, -0.06624197437935861, -0.023239580158504053, -0.27093765219308197, 0.15081246359736605, 0.5246587664622963, 0.2932929455953819, -0.34277051623889526], [-0.3952685514935647, -0.8831857362034427, -0.012968396928431696, 0.2345742593947269, -0.02593261981431596, -0.07465099787267683, -0.22949953962817135, 0.144206983220759, -0.3138529367810738, 0.39660756993325696], [-0.2488513716659778, 0.07829155877218379, 0.33932519498199293, -0.06593380495994668, 0.09182231898408975, 0.25209664416406624, 0.1172394137072402, -0.3964112045444701, -0.689359948732279, -0.23854189423874048], [0.34191023567102863, 0.08075498545151338, -0.2288369653679982, 0.169223592673231, 0.1147160362920104, 0.41820239908679147, -0.1813333518355716, 0.49283239929274425, 0.8504282855292908, 0.17998869221772476], [-0.041920027410081016, 0.49559552144395047, -0.7129272577715119, 0.09767711829702941, 0.30719689332859107, -0.050217147016976445, -0.45237596358144144, -0.2517123307908063, -0.46985212793188635, -0.09031473248662213], [-0.2862689480464764, 0.18970159089705035, 0.27384007842098484, -0.748618077453117, 0.5984220151421537, -0.22721747857304259, 0.5015091619156307, 0.28309504258106594, -0.41883679292598264, -0.38935158879172205], [-0.23227060986049394, -0.18175163374258746, -0.01708632952879887, 0.01829072571159247, 0.17895952760766748, 0.10013112019760931, -0.27582343678114624, 0.4474893818968527, -0.4637442522889257, 0.4922959767598501], [0.21809685889945762, -0.15833687079819314, -0.360951506575535, 0.007139710459961143, 0.06641376872689692, 0.05073853013968677, 0.3337175424480002, 0.010511434856058403, -0.3646506493002717, 0.28802522509916384], [-1.0033525750683965, -0.08411121572649943, 0.28432628579753866, -0.3443799829603368, 0.46511168900292543, 0.10975068767228792, -0.09679429185672327, -0.0327694971234462, -0.6438699112843697, -0.21343328527504168], [0.3092406315910283, -0.06597480049375108, 0.13554967635679638, -0.38617039622107896, 0.510342235714294, 1.0065249406908356, -0.3278775337077779, 0.4474636901307052, 0.017917540904754743, -0.21024103210697667], [0.3691224635474246, 0.5025436072613105, 0.4547798217377553, 0.7927480804684479, 0.4679159017037002, 0.03441278250556825, 0.27197169533615806, 0.024984213584481132, 0.08533211865206364, 0.3601906027269031], [-0.17129022209746012, -0.3615826616678428, -0.4477305663940718, -0.11355670887601556, -0.30979180173325277, 0.31869386638502545, 0.4903173294002881, -0.2673552969968862, -0.7148301485241614, -0.45470770898359575]], "B": [-0.06739641794699847, 0.5737532351999838, -0.6384616011610171, -0.13761307327089317, -0.04335301359731334, 0.09286282482468777, 0.3701245649795204, -0.5230373616040203, -0.14484693858839756, 0.0943419546981352]}, {"neuron_units": 2, "activation": "tanh", "W": [[-0.3932445634491097, -0.25471911904427635], [-0.07615087614923746, -0.42574136097306564], [-0.3384989526571314, 0.16125358303386983], [0.26664413661202724, -0.40903698283527246], [-0.2046598957996812, -0.16869396565200573], [0.13706703178205834, -0.3637330550399926], [-0.5575770075888705, -0.37567032031792774], [-0.3316277010354748, 0.34742084342007723], [-0.1823537276517528, 0.39631947002071255], [-0.24222714068399903, -0.5768979702000245]], "B": [-0.17793513819738907, -0.052662073201539955]}, {"neuron_units": 10, "activation": "tanh", "W": [[1.2185206402537232, -0.9375444535973742, 0.2783353671034313, -0.5707990688822616, -1.3538989689951584, -1.1253274361948529, 0.7501137376888138, 1.472957757941276, 0.5122441635832358, -0.15428423548667194], [1.321696852195047, -1.1929521740103823, -0.31200177696632836, -0.7118245285078202, -0.081408823014968, 1.0332160876224374, -0.8795597096952279, -0.19893793791344497, -1.0632647915176183, 1.063712505515463]], "B": [-0.054035306951563965, -0.9742659485382656, -0.5239016521586705, -0.7267459104826554, 0.8734096459505218, -0.07681880551005754, -0.8357402798845565, 0.9678566195543021, -0.5719124658599166, -0.8298077322323552]}, {"neuron_units": 15, "activation": "tanh", "W": [[0.26951346273841775, -0.6774760559645638, 0.7055932722834898, 0.8357587924515236, 0.4155990568642231, 0.38466153753510957, -0.6182897553082239, -0.26642122264876317, 0.20770852194554087, 0.22293511081479234, -1.2888016231180182, 0.9550137852452196, -0.28461626919752014, -0.04013280575991966, -0.7762265353642284], [0.8683733520337917, 0.329600294979058, 0.632885880629819, -0.6500837161805793, 0.18531052987015983, 0.0561103547654439, 0.2922030137347706, -0.3123543745718756, -0.9520608189941128, -0.24328995234903408, -0.21266989141882459, 0.43518812761785053, -0.15864987376079492, 0.08959234503744973, 0.23520139969844783], [-0.2943443914403871, 0.15206014504137488, 0.1700519079658453, 0.1606948849670459, -0.3928985027562264, 0.467925556669347, 0.0663338162515104, -0.5669534601004644, -0.007398337982550037, -0.39190740733756924, 0.18785303735413048, -0.045500738951108184, -0.06712198013340313, -0.19792057768018387, -0.4957213680676816], [0.34723733020508446, 0.3041301562896927, 0.3065924695589539, -0.5962036481189384, -0.24887873079511982, -0.2477469661388738, 0.404564730516582, 0.009583356087113274, -0.7359930126531093, -0.03435289353924114, -0.09788639492884865, -0.07937200598878655, -0.8095084939325312, -0.19002149223738027, 0.08535782376284505], [-0.37037602667365027, -0.045128297831864415, -0.0385882467586137, 0.08290730303801214, -0.5885833054754044, 0.45230898443772866, 0.04569045938404348, 0.4146045872632713, 0.09558771912029053, 0.9501145580298505, 0.3556876412503878, -0.16942887863982833, -0.7933397800221309, -0.8569606826055939, 0.7295674764493647], [0.7657997146632057, 0.09720768003302956, 0.7110603453985599, 0.0203676706905967, 0.15032453445091354, 0.7142042163446772, 0.020383812293131662, 0.6309097293532382, 0.20483885371443672, 0.3023342815547438, -0.5340744614348806, 0.1405743778351704, -0.13489608275297327, -0.13223777805903955, 0.3467718046308217], [0.126043161733073, -0.07740349084787036, -0.01117522929610034, -0.2197031142653104, -0.014314151034710244, 0.22582612980792433, 0.3672084169189323, -0.7462302201190916, 0.1492646065777599, -0.9082110761578976, -0.47802947335147417, -0.5692764520061051, -0.06908061042962066, -0.03161073297735398, -0.17338170998016683], [-0.9554038269171173, -0.8519885466282173, -0.5407273143878868, -0.09331817546474916, -1.2166238592806855, 0.009279183194747648, 0.3070538862287646, -0.0651278115369079, -0.08327249084960792, 0.14368536038686888, -0.2726686372290073, 0.5345855484221181, -1.0055057462488681, 0.04562333507997592, -0.8360196712999169], [-0.11225624989725999, -0.3281368981397228, -0.4547932654012875, -0.2285845845775588, 0.22128898596021163, 0.2183186199057181, 0.4112276744339832, -0.5084062664133954, -0.16605284013075516, -0.6245501387173091, -0.6721004707297523, -0.5771593394742357, -0.04147065605432288, -0.03917664018318749, 0.1135597533901447], [0.715344698786007, 0.3110456614711458, 0.9194663549573266, 0.24786790169214687, -0.151507088206363, -0.440042965237918, 0.02049840871616255, 0.43244331794349516, -0.3309778855702297, -0.7507985566123173, -0.6401106604982938, 0.033206046826139694, 0.20438219579487116, 0.15871973217069257, 0.1797010580696781]], "B": [-0.2930011343546796, -0.3707184229794378, -0.02166811704041356, 0.18525342314116486, 0.9360474241172796, 0.5176509250374652, -0.9832478521549943, 0.030848521938132006, 0.4705459232330565, 0.10375205031766052, 0.2071128174981012, -0.12048045943008462, -0.08388167782592865, -0.42432656916428557, 0.2527521087471503]}, {"neuron_units": 20, "activation": "tanh", "W": [[0.32600324884490656, -0.38966496999157546, 0.05427392415880317, 0.6892998863416301, 0.38029142388415244, -0.013660536602987518, -0.30645053616474494, 0.4103375646660203, 0.5028923503973086, -0.8994853701555204, -0.5716869656719414, -0.4104135254204918, 0.4351406446013897, -0.031258603248009914, 0.24591705180721138, -0.09960169842161368, -0.0813685045311611, 0.6565456052170949, -0.38797569359977435, -0.9368932140214982], [0.6253202083598769, -0.03974148405984373, 0.07581025272235656, 0.0880690748268022, -0.14770197855883113, 0.3948571748911007, 0.23737785501900802, -0.030626314071693004, -0.14177309023245896, -0.4865639813778686, 0.26690030120708386, -0.15462007523362678, 1.0419288268905371, -0.32494754766080725, -0.017137368362701536, -0.21055393946806564, 0.2725022504563955, 0.040227690990805705, 0.09002599722396777, 0.22036252486216862], [0.09503026962934094, -0.2861754352372182, -0.3748139039135441, 0.9923283336546304, -0.023720455589536036, 0.105039938587773, 0.6093588285660109, 0.7548082651406893, -0.04589707750933953, -0.35411150333284186, -0.041714458095460115, 0.36298607479115874, 0.5030996410904947, 0.6606072898475553, 0.08887829094595136, -0.03664551992963875, 0.11479870932249087, 0.6506523271366333, 0.37357117765010867, -0.43124935730503444], [-0.12788167154458333, 0.22114467676869146, 0.5844759046903563, 0.3740524932031748, -0.3846118810341653, -0.138346641177662, 0.21235071183549212, 0.283635694601014, 0.8287851365289899, 0.20768085135801226, -0.26225706917419506, -0.25905743602763515, -0.543433906096873, 0.2361923708429744, -0.598854967828446, -0.5709836155746282, 0.8138451284543049, 0.2908259391352053, -0.051790404279395, 0.5242356745672593], [0.08997532708448903, -0.4329621629800169, 0.03839491461330941, -0.31817795048516334, -0.2923966120550154, 0.45963962422750815, 0.5950897134818328, 0.580359428834402, 0.3634792027070507, 0.3783439799418681, 0.33284235951963737, -0.46838789563186656, 0.34680556843886257, -0.7583464098786008, -1.127300109893571, -0.5198159907337577, 0.18925453238040366, -0.050304346958357095, -0.11883709814269755, 0.34320885449837374], [0.021180005531645663, 0.1408580775298056, 0.05475200514151793, -0.0007935576846636165, 0.2511141047762175, 0.30152851529498165, 0.3350882818736263, -0.0019082241167607454, 0.4863629688517146, -0.1703498492528496, -0.5093107624031591, 0.04259607081530175, -0.2097173798601189, -0.40920545252157225, 0.07951040396401833, 0.22140688052138036, -0.35730435268703825, 0.25391917544433923, 0.3244648564564493, -0.7619472165531066], [0.1856947415462237, 0.09581397307510775, -0.44886260188112564, -0.38967120125985233, 0.8072320240214148, 0.09610116148944726, -0.30233354258354966, 0.05391584530485458, -0.6318813424286386, 0.5034713294154451, 0.5405540517884643, 0.12651964341712124, -0.2167250074224958, 0.39996442566070595, 0.5812502095237458, -0.45984814200146423, 0.1525365957414228, -0.8057339764410664, -0.12944656019674725, 0.5064796396287161], [-0.12426968091215798, -0.4707382550515757, -0.08164873013411823, -0.5839813417193063, -0.22334043151801125, 0.08582501288365328, 0.8733484761481639, -0.07313408640761217, 0.39635683891527634, 0.12330731312059434, -0.7334786006329745, -0.39943174367203643, 0.14362220644254475, 0.7480279202539419, 0.7180939492362161, -0.4208632927821512, 0.21784356613896377, 0.23459298366010709, -0.0362429688238259, 1.074070736100829], [-0.6212086460560731, 0.33802228918744076, -0.3466450254589075, 0.31837930311996726, 0.46230582329341824, -0.7745081559659581, -0.10303160379719194, 0.7914944766322859, 0.5488811064074053, 0.012904726369311103, -0.375332635380964, -0.6166568806057393, -0.11152155259700507, 0.328053601844114, 0.30664168304385975, 0.22891857206518268, 0.31536556308571106, 0.22604382756790534, -0.41743298423422315, 0.32438081431725957], [-0.30077588037780184, -0.16146081424446726, -0.36958202660736145, 0.8453638619530301, -0.3683216280906512, -0.2777092971397341, 0.006678076174046945, -0.5329249877270867, 0.2721432772917947, -0.6169439426344101, 0.641407438065249, -0.32319647152102887, -0.34101751797845237, -0.013504502871826068, 0.08241097327544047, 0.30146834143987716, 0.22420602040646626, -0.5038082396242927, -0.636369437853751, -0.5082475242460069], [-0.06578395270557989, -0.4122933821051461, -0.727354868070781, -0.32227214769298423, 0.11708684301506361, -0.3273482506570301, -0.84732767120813, 0.41050416094962555, 0.17628401330708335, 0.21049873586635273, -0.27985443240205493, 0.01026704223715701, 0.3863424382391927, 0.0843698961948888, -0.19434770027722717, 0.6081977973657605, 0.2117239269214515, -0.43699448536195207, -0.7219442560403799, -0.48941390609957997], [0.09263243321337625, 0.6683254176355664, -0.8142570547312129, -0.5066296615657372, -0.21286387879503355, -0.5836819903335172, -0.05929100254589904, -0.4495765663264748, 0.10942785899122803, -0.6301931521976772, 0.38094685982995685, -0.6127386489258736, -1.15829665587408, 0.3251730318338388, -0.11901550440426936, 0.05987750176224341, 0.6888674010399561, -0.5630218076385588, 0.6887895652830714, -0.25992529165657835], [0.01161633510073105, -0.3702903037766498, -0.19704805059431962, 0.005375159909863646, 0.31894045303783325, 0.24469337838999017, -0.20947991882215253, -0.18552997605076063, 0.1080221698985262, 0.07064071052202159, 0.09480697160137032, -0.23222141699925836, 0.28622734052208254, -0.05894790833587633, -0.023074911005713915, -0.53024828228388, 0.5434883434958577, 0.7680534112882091, -1.0339159786683765, -0.18130484319788845], [-0.14149502444152157, 0.2008877822641726, -0.14690049855881382, -0.05126328982277207, 0.2810183524499466, 0.12490442270738598, -0.2871654101676572, 0.025315901277225317, 0.3712163994781368, 0.11675343922615249, 0.45351204321306493, 0.22961003476334418, -0.43246729441418413, -0.1826037707955673, -0.12142117480998703, -0.8420005483252525, -0.00010189218199345474, -0.2307582262616163, -0.4206244973667828, 0.11217978248864557], [-0.2597515250680664, -0.4842452306551496, -0.16844859476197765, -0.16576488239765705, 0.03222593611753145, -0.5702888138621474, 0.30349601143277216, 0.6899060054901831, 0.16813494188730843, 1.1976350347604592, 0.07474275261788164, -0.45951390680603954, -0.25681884998667104, 0.4851557247503973, 0.27486000672337885, 0.5949668353920052, 0.3052624648757501, -0.20965564014634905, -0.25896188018517236, 0.18658576647057964]], "B": [-0.1414097606043353, 0.24080402731881884, 0.19454843977170339, 0.27974287923023494, -0.45464378687846785, -0.0005718601164134246, -0.13216567216858444, -0.3434413625301517, 0.30412533470830755, 0.17594699179297937, -0.32922684049967893, -0.26868453190226305, 0.041788152318534645, 0.0509810777614036, -0.5034770139015072, 0.16956217752243818, -0.36247065499840037, 0.07499788321160271, 0.26700121089210777, -0.19532160565148404]}, {"neuron_units": 35, "activation": "tanh", "W": [[0.23370503902371056, -0.11935282232471627, 0.04278627886553784, -0.07958155038871965, 0.29918907708019155, 0.11304686819174424, -0.17352303208368797, -0.14327918717869534, 0.17799745941799344, -0.2330662266131112, -0.30087347901290856, 0.6676337395897741, -0.8236729198211385, 0.4378792249404321, -0.05264264613504812, 0.13646893406145608, 0.09522022334823176, -0.3421825828393174, -0.014202196065446095, 0.0073813098210855155, 0.4004526375949143, 0.021408949611001586, 0.002470723507065194, 0.12195847763311576, -0.03095700836947971, 0.40724374951342535, 0.2991278597421354, 0.1076860874619536, 0.07994543769120643, 0.2303799978383303, 0.2522297306829288, 0.0036609936754264747, 0.2556388522297405, -0.14990700242100297, 0.173663373695359], [-0.019565353398529512, 0.08385889301192122, 0.07543476388187599, 0.39801814788429773, 0.13239405262836096, -0.18977450898790368, -0.21477358747642233, -0.032461593597771767, -0.18639444320784365, 0.08741687738364348, -0.33156702408903266, 0.2820418386974773, -0.33058190918797137, -0.23020884550188495, 0.16704018209420782, 0.4111229157344632, -0.4716290417635925, -0.0993792541480663, -0.3416932375489217, -0.5082207035879074, 0.21848475225298156, 0.31465805826324705, -0.6963398703790561, -0.4260291319352341, 0.04879794533796831, 0.4548960158320088, -0.2131210950373913, -0.4910108940186502, -0.2833641415430748, 0.12360697163494014, 0.08622697499177585, -0.5011301349516726, -0.31888903414565595, 0.4736203656569633, -0.08592096270239591], [0.4679496172316349, -0.2414409653403911, -0.1770142573386466, -0.34710730406441354, -0.010919758962225653, -0.05538255923271255, 0.8327122826271118, -0.4796319955060314, 0.39663237715645155, -0.48940424475747274, 0.6703451560339162, 0.42194436170638305, 0.33125872376275867, 0.2510397418191334, 0.06545907306098178, 0.4124067398481707, -0.24888517925959602, -0.514941778075174, -0.18149707088664885, 0.40093341456842246, 0.8113870501450753, -0.1210280230816652, 0.14953849413511938, 0.030209935529138653, 0.34293357419146764, 0.0163724983929931, 0.5055959849876429, 0.04687909642462867, 0.28212471225110897, 0.2985132332058622, 0.2960542767904724, -0.11495601866840638, -0.18922738809958786, 0.5442185538083285, 0.3389359344244535], [-0.26493286365976243, 0.02437645485145118, 0.13764914477013274, 0.51128670578918, -0.3321672668867833, 0.2621929660402756, -0.016826113265265022, 0.48546196045161877, -0.009316896294643565, 0.4933080435636992, -0.2503563316281193, 0.3257912860888777, -0.03475009774379674, 0.4003983629190669, 0.37308899769472254, 0.4294948735466365, -0.2224540646261523, 0.14829571418027296, -0.2273028079364976, 0.20772866164910822, 0.33267830432618406, 1.1502327527253566, 0.2641926277910166, 0.21997443875026054, 0.11392247275952327, 0.22669601712413795, 0.3808207071752802, 0.19168314122373822, 0.016209729476102906, 0.5336785004492716, 0.22709732383236556, -0.4629830926577162, -0.3265087906923361, 0.9124244624714551, 0.35645694115716225], [0.23736602861248512, -0.4639134440762949, 0.19441787232075158, 0.09825391695616402, 0.6046638130820701, -0.08041928406936788, -0.1392793929452598, 0.16782189432992697, -0.018224765798066884, -0.05012535350854633, -0.02210170848356988, 0.11966631861629462, -0.45448175574604843, -0.16925903833265515, -0.28445145375555436, 0.01292590366711596, -0.08620512911807099, 0.12389017671158557, 0.03801211841071361, -0.34681584240938945, 0.06106758448665082, -0.14623565659718105, -0.2094811457914704, -0.0063121234086847295, 0.0035876792180051854, 0.1660943828640735, -0.059607301251631516, -0.1659249225363716, -0.6227607495432538, 0.3194298214253949, -0.028775507625177214, 0.04745106994664276, -0.07440707626453477, 0.48024574465106007, 0.03914789398007175], [0.124166078520479, -0.4298861235184673, 0.11135932028689313, -0.31108640231713863, 0.4464565775341142, 0.05698489290908442, 0.04887129087606672, 0.017374379841132728, 0.6962399136333024, 0.08490760910457153, -0.121997113226, 0.48749808841601394, 0.07645296704232264, 0.46272664961928184, -0.04293430053815363, 0.043116348496675116, 0.22987227505132632, -0.6826706668712282, 0.25367744661892977, 0.26742105793824034, 0.27406841675928223, 0.020986515935765608, 0.0979507408070153, 0.2910125203280089, -0.15908425916800373, 0.2712543227145724, 0.3252497598551879, 0.18058183421728036, 0.4125465019184262, 0.004823567836007934, 0.15783080669173033, 0.537579398664966, 0.16542587010087442, -0.04561583103073764, 0.7699386115068035], [-0.7026400958297002, -0.4267984185625839, -0.082836419534473, -0.8558206439515944, -0.5522043645003937, -0.7489664497334676, 0.34853815324452586, 0.5223354700901301, 0.25639416409789717, -0.3976119740562338, 0.4889306107103438, 0.4660990812151202, -0.010004323509717828, -0.0761853277699955, -0.17298856864431542, 0.09906865293904454, -0.5206486008703733, -0.5535512663205191, -0.08813580993477367, -0.4816023235943694, 0.5043294557265408, -0.47385346977267506, 0.4108233168226921, 0.5287385392100121, 0.13740058613566788, -0.24195748060350739, -0.5527191334542093, 0.41260330421829006, -0.2103185468880573, -0.536545842461543, -0.5401598284267267, -0.34937526282061665, -0.12393224767131646, -0.20341048616961874, -0.4280792623619284], [0.2531546946761963, 0.07824540157702149, 0.4682095817453777, -0.11533279691499068, -0.19095493701913271, -0.20582933920700144, -0.2643311002437419, 0.43233703718462285, -0.44367259572662243, -0.6508999008480192, -0.5389351581254394, 0.3325592810735745, 0.30228235781018487, -0.2418754549024927, -0.3192761899982432, -0.15236073776207712, 0.14538035300691493, -0.090911643832637, -0.7486913018192711, 0.22800232903611872, -0.3356183555087144, -0.04016169121587635, -0.6234798981781011, -0.0855862232305039, -0.8598139441439667, -0.15973161577475545, 0.16956793265655723, 0.5952700770262909, -0.43225928312064943, 0.24226934945404927, -0.05702293659935017, 0.504163356254516, 0.2288957258702799, 0.1411542528867951, -0.23893040094755286], [0.33220838627434873, -0.056609556892735315, -0.2633999577275437, -0.10598350579817621, 0.28083857490850217, 0.5929873690030374, -0.6361520035769176, -0.42808893239226964, -0.11682201317880272, 0.0699248207452725, -0.07128677761224274, 0.5080061258400969, 0.16051030467422658, 0.1901578763932928, -0.0617698229564037, 0.28849355431354484, -0.41566924248214643, -0.3427542375456091, -0.22682610959140295, 0.023077731565575417, -0.2782290541232865, 0.2841796655808649, 0.6862629063180652, -0.20927067629092197, -0.47258913528865804, -0.4156178303456253, -0.09853941766230037, -0.692313127120492, -0.35038879388012384, -0.0756759948779295, 0.09955040174719458, 0.07203555300177708, 0.14497364690555206, 0.4253264102596106, 0.33656432208846193], [-0.44859016264169094, -0.07062566416761862, 0.5774351915279134, 0.3467138311921526, -0.3737880072054061, -0.2611366335833913, 0.4242970107048268, -0.14405375941752246, -0.0006821493185382704, -0.49842489636493575, 0.15381126904220968, 0.25260932087577787, -0.26419229862486965, -0.4977135030800378, 0.15513441413835583, -0.6873943129990405, -0.27628277915358157, -0.43642288999380585, -0.22000616642124632, -0.8372732162943829, -0.034966852941115685, 0.03245093441370853, -0.07073704198580177, -0.8027124626542521, 0.2719040572743683, -0.17017147351275141, 0.8107834908382614, 0.18475463744216403, -0.011597823586700884, -0.3681765090498981, -0.15864377928943174, 0.542207104448232, 0.645819254478255, 0.2365943698409567, 0.2647370967974185], [0.5075587862276215, 0.3097689040534864, -0.34636987187232116, -0.08499879027556494, 0.7876965955703396, 0.3650090794631089, 0.6461896985740665, -0.037393143698603304, -0.047383780248806316, 0.29398922303744335, -0.0162210937920851, -0.08925667949023113, -0.08451841735330992, -0.16792858207121275, -0.640728739523761, 0.11925089503287221, -0.4716669825328358, 0.45363656286416665, -0.42889100538724717, 0.025779866294326548, -0.49807306154259723, 0.23542692213450322, -0.3905539928946958, -0.058201608694665036, -0.28075207295156057, 0.1281795126681495, 0.1948393484920001, 0.06751125648685243, 0.5696141702759672, 0.2960968283731547, 0.2780930715814661, -0.3669439823451286, -0.060733671274079984, 0.5241382191028994, 0.5199800498203739], [0.10248268316159308, 0.43268952348991874, 0.33932649367599443, 0.26843185621306215, -0.18947583373556956, 0.29861146522956467, -0.1595860613721001, -0.03845442533520859, 0.04664823513690343, -0.08312856141070041, 1.053789386046741, 0.07417012594149588, 0.4386039832037314, -0.2648173982521795, 0.20688361611509082, 0.5500154433985179, -0.0543942991501157, 0.06855480020757194, -0.4452871662365618, 0.8115017881199064, 0.008272669001440275, -0.35339584959521175, 0.07559734606669453, 0.21865080237423662, 0.2878355726155988, -0.19085169234782345, -0.10084391653390821, 0.1183274266766474, -0.22390940401408535, 0.33988460913532986, -0.38125219920840336, 0.8325567493205948, 0.39858989108854603, 0.2517750202504193, -0.5643784718804908], [0.040837473239671976, -0.8867796533828015, 0.673710469762144, -0.3753729676776782, -0.07776603620456536, -0.10702611256564484, 0.8189193129369812, 0.767865168608615, 0.18825628007934894, 0.11408336560240737, -0.13021391695749165, 0.24740290558361883, 0.9721151158529903, -0.8646469184565037, -0.11218327756226901, 0.6761598904422673, 0.5450083029093843, 0.9724971732519193, 0.2178597560673662, 0.03571186380553988, -0.31209398541966554, 0.3824137274668922, 0.7778553654764612, -0.8027926364533757, 0.14900922065007904, 0.3549831973424574, -0.05032932216244138, 0.05765193656799285, 0.23517332860083062, 0.16793865122207421, 0.10740613781872459, -0.9582346759106697, 0.351964826829346, -0.25417338225836467, 0.06321848907028858], [-0.4892552743710405, 0.2219714892141871, 0.29387845686704517, 0.1218665927119594, -0.2982027186673691, 0.14669047886945924, -0.5450989579549048, 0.31529006020637845, 0.19922089339320567, -0.2943308411167628, -0.19310555236554358, -0.23880613072729653, -0.17248169873637717, -0.741475940478819, 0.39735915389497684, 0.4182989955685005, 0.21059319474857732, -0.03782253334560284, 0.4223638435650985, 0.12682494482740791, -0.25352845910913907, -0.8900263903476285, -0.1745508577159168, -0.2463142176223873, -0.18046980378947258, -0.6419101541370166, -0.024796356821488248, 0.15228802360148114, -0.07086773379521047, -0.2892266945707311, 0.10198133105532757, -0.3757132849228648, 0.3716932210081004, -0.06777601033228152, 0.24102481927394864], [0.2722019138781797, 0.4344877800881799, -0.018897436602186554, 0.27758468655066687, -0.15184167874926957, 0.8422291247915707, -0.34717163932019923, -0.0845590743890495, 0.18992052549086486, 0.723380815109206, -0.07057643763649905, -0.41170819295200234, 0.14437218043992084, -0.15677679363561517, 0.6379251162714851, -0.17656453938909308, -0.25131775416788793, -0.420505567426357, 0.3446947497461078, 0.13374164795466487, 0.24953949048938662, -0.0702399537743989, 0.5828403815165829, 0.014369785826012046, -0.4506922204359155, -0.33604485481671353, 0.21474735003341391, 0.14786401858313744, 0.26026922018223353, -0.08745971250593794, 0.4346489561557525, -0.15496508299046569, 0.23587412572834823, 0.45576562673760895, 0.4378131559954079], [-0.19546692492096607, -0.5419219134110259, 0.3453372447826699, -0.060927390891676036, 0.12158730746306365, -0.03979709739174238, -0.40367621382403546, 0.2606365202434706, 0.24023713417478756, -0.11604710449928192, -0.7370713117032542, -0.30315976449383647, -0.7561601129634297, -0.4824268298690349, -0.9619351470696292, 0.8311279680637779, -0.1345650952202072, 0.1925166758134568, 0.152240956949658, 0.14081341749868065, -0.12830074794836946, -0.09476625157609891, -0.11413035633699634, -0.2756613010217131, -0.05613393833415356, 0.5176815404258108, -0.41923025367274425, 0.03886339246967574, -0.5642024615303776, 0.07428799607530853, 0.11586195749273885, -0.2688859352477728, 0.21843056584738518, 0.34719029169215765, -0.11278122792883832], [-0.058406440806311265, -0.5949813946378221, -0.7791925082196015, -0.5415674483002543, 0.2639166838928182, -0.6445177158039123, 0.06333667509600803, -0.3890123326273355, -0.04451209401045513, -0.4334654630179232, -0.11717753885552859, -0.19429467757061697, -0.3902288703123093, -0.12794569045536006, -0.39211254085791203, -0.13966162393069004, -0.38593905376914395, -0.05876782544675759, -0.7046816066076108, -0.2924906718748147, -0.013008395436175081, -0.027847475615679993, -0.47923486566654266, -0.49026071632054824, -0.4220205539483627, -0.34454246444016284, 0.09515730152684145, 0.2306757377327923, -0.399550579912416, -0.3707563770667927, 0.34266729800080736, 0.020745171377368202, -0.6809167873528394, -0.23800688664980477, 0.012235709632661443], [-0.06092367398114048, 0.6745868486932015, -0.642383998339357, 0.710726952136282, 0.1134911278921631, 0.22205045102831925, -0.06426912485820101, 0.35201679991293816, 0.3960977962997639, -0.21082761174409345, 0.06138648465990129, 0.43125189618697213, 0.6005647772408856, 0.3379598417106778, -0.07440899809791804, 0.08085668532888027, 0.1928029353319005, -0.6310528663920086, 0.5733782410115987, 0.33748657740112004, -0.14593558757060882, 0.12420593277044734, 0.36017268826210114, 0.5328935699436356, 0.34239995874625384, -0.2657525591668326, -0.5220191735811744, 0.6890724731920534, -0.08397349446963955, 0.0356176306658288, -0.13418656776140087, 0.005631491536751166, -0.6006671993835971, 0.2329947873258834, -0.1435166590450269], [-0.3945330522035088, -0.5382281742229029, 0.27293104464709955, 0.000468718224242275, -0.4452733726435187, -0.27539903576752217, -0.09737762647880248, 0.6424868796655238, 0.5572771786382134, -0.7128729976785937, 0.2639476863230808, 0.9810744896492173, 0.40823219092690183, -0.008212396956515221, 0.051392511563478946, 0.7790540318625457, 1.2446056480997507, 0.14571596170918913, 0.6842427078146214, -0.28730344366683214, 0.4798143408007958, 0.6593379615965389, 0.084701089117393, 0.3572936793230603, 0.38104744457928413, 0.0005108689799998598, -0.20017859728779921, -0.36779750584738724, 0.45217610149939075, -0.17151023043742908, 0.06415427754378411, -0.9044116116445725, -0.49218722626960093, 0.5111008872800641, -0.23492646210157175], [0.22308198742646623, -0.22249485229692947, -0.31897335896823226, 0.6728808828092555, 0.2977326004408725, -0.41672063628496153, 0.04548443166758478, 0.22437306538325247, 0.11036102528776352, 0.15484280938578873, 0.17409729113324857, 0.40069023126865766, 0.216233408638937, -0.41997585405314874, -0.09374103616983244, -0.3660123317130171, -0.3739799569859882, -0.36197633599966844, -0.6640404468994258, -0.3078483123472588, -0.3572253055864037, 0.44639874244553307, 0.6667489636604697, -0.26038534685367826, -0.10352239773901244, -0.4227691519460818, 1.1274718244460282, 0.4786493989589825, -0.3060541659002455, -0.5165736867342244, -0.34810570073927916, -0.2907865797383759, -0.45562187229227524, -0.10687997458044513, -0.36907848083057065]], "B": [-0.4758648650247607, -0.17459038354910855, 0.09832793685906827, 0.011064104616206803, 0.07907769412916031, 0.130325314442758, -0.07694187315589594, 0.07177046725566313, -0.22741399173317864, 0.133730519633636, -0.26037772652759994, 0.29351822256940596, -0.09775239491582992, 0.2184241821999153, -0.3877916774163245, -0.5118004869400347, 0.29099610572573137, -0.07495312101207673, 0.05330338566849439, -0.13794311187788083, -0.41831938523442863, -0.2155067045103166, -0.03919223502281315, -0.1544831297710502, -0.3521252128646391, 0.014637425293925158, -0.31874851934052467, 0.23413993313309245, -0.09880517752447653, 0.016797277504343632, -0.21234713821471599, 0.05424704772035425, -0.028406560430356238, 0.12660124817539098, -0.2805066475956042]}], "mae": 2.429078923795817}