{"name": "ej1a_50000", "layers": [{"neuron_units": 20, "activation": "tanh", "W": [[0.1048878553975884, -0.18210932772694705, 0.6186741816568538, 0.09180590851461233, 0.09771710634424843, -0.23574272434551719, -0.33659187798145107, -0.2172728593351044, 0.009693905256025093, 0.02570264553247702, -0.0380345642580971, -0.22186280491248714, -0.23681842034606593, -0.09770002283872725, -0.153011887214467, -0.13183484796644696, -0.02040361092925752, 0.06728268303518697, 0.20936753802124783, 0.17061448483018712], [-0.05026405639035068, 0.1341654484675372, 0.03828463482694168, 0.05296893001071146, -0.13206408572394443, -0.05397335939256901, -0.13027034117505984, -0.4161098113523362, 0.2481653140221812, -0.004425975875087436, -0.2351419651084114, 0.12828468499570203, 0.26719839163214737, 0.36431582043596017, -0.04531678309879909, 0.4699311822138413, 0.12868823185102393, -0.2673096022413429, 0.23096839808019218, 0.2458171945559988], [0.09764395870206959, 0.09501804177345813, -0.29667324926107846, -0.2975204406872045, 0.26649875024347236, 0.10323041064542424, -0.315582575295394, -0.043510808110812496, 0.2820934055389159, 0.0016227173784806345, 0.2629276708249552, 0.1505487090044703, 0.042823964055140384, -0.11458185241223764, 0.1899473408498638, 0.2669438697098245, -0.1376119593490412, 0.12559433066116868, -0.07726477120966403, 0.10516739588611348], [0.20463573226153148, -0.14635169088238476, 0.08211111638797819, 0.11072722403207692, 0.08854974600319787, 0.14704753941695609, -0.1559411706447906, 0.11565031298717877, 0.04710848845946016, 0.11160974276767419, -0.17546089796703657, 0.19007508642930285, 0.30465322766030695, 0.10387708020072464, 0.15354716651716127, -0.08736700179038855, -0.12745800670215982, 0.06302270993711909, 0.2307063234857211, 0.047565768308634036], [0.06315861523618148, -0.2521435948678945, 0.04373350064157193, 0.4677629125601951, 0.013095560718994063, -0.10841271284711143, -0.08886367291030295, -0.031910117182730964, -0.035815850608601964, 0.048668678147051746, 0.03672930071772406, -0.2739573364355959, -0.1651756691667577, 0.1623305222683018, 0.09320099933250571, -0.185505248154956, -0.0708938592713715, -0.16076524377373305, 0.053477716588789304, -0.11012324531813183], [0.26636157340665745, 0.3121554840067507, 0.15411429866553494, -0.03754759364701491, -0.054505467140758435, -0.0325735793435307, -0.15917852796382073, -0.04079463499072904, -0.05438157048495224, 0.14530422673006804, 0.3808678900806764, 0.4934286509439088, -0.0713881082827429, -0.11771427236749898, 0.1104290483323815, -0.04772216691993091, -0.27727701483609657, -0.020785529613472173, 0.08345463770634594, -0.11256274734957669], [-0.209649850747753, 0.20806270555433537, 0.025274496252110437, 0.03619134778721683, 0.051778883773288875, -0.05385252657696118, -0.2700035532160011, 0.34667792791967084, -0.33863343603916923, -0.15832254272238777, 0.03669162977216218, 0.2713409346534544, 0.241725748140663, -0.15330814062518, -0.0649933370861802, 0.2234304368996241, 0.14331742673564202, 0.039711800135286614, -0.18894856419529968, 0.11260591786836283], [0.2141029703141683, -0.08302223884295676, -0.15378011972872746, -0.11937353938578817, 0.17965428136685083, -0.025003119039776932, 0.17059740363413708, 0.2977287350893251, -0.10446114445828067, 0.3004693742695553, -0.130299430897164, -0.12009926203182171, 0.24333327834859386, 0.14518865503779588, 0.22101301955942892, 0.04073677227148958, -0.26663721140310037, 0.07983458690848877, -0.02569546048955082, 0.15689840563189408], [-0.2842643910671937, -0.25519258547904544, -0.0957089959801461, 0.29885586726965896, 0.22511226786676067, 0.10272029470174565, -0.06563304858031682, 0.18707724616835977, -0.18919388776372947, -0.26183020696951126, -0.0690063590708589, 0.052819396485946156, -0.12168442641691861, 0.09211416820372578, -0.13147623930422364, 0.2062472273008235, -0.11963402953856254, 0.1310071044743892, 0.08063601694543134, 0.001819739575588138], [0.05484428480701598, 0.17927680595671625, -0.2059526333206858, -0.051000265151625784, 0.1798147534829844, 0.18236099356771635, -0.07100823705235995, -0.06359910980094947, -0.047213808923044116, -0.03862157341390896, -0.2704366360397514, -0.26675022954914923, 0.25991883173079006, -0.2437820649170031, 0.14739233640193117, -0.050241737634774, -0.24564114830404757, 0.11682512440852483, -0.06829246574223764, -0.13302101147846904], [0.16309744089252842, 0.07885243854479373, -0.15969933273779818, -0.23448298901745912, 0.2370464078103848, -0.2925379614960608, -0.23341670289147573, 0.16536777720021864, -0.13723128931890516, 0.0959966988793555, -0.07285818227190795, -0.10319153122061252, -0.21470605196507636, 0.17629585079501886, 0.10370095382063234, 0.13469236685271102, -0.16174866712807645, -0.07583887885884497, -0.18846876199164617, -0.11172164931146047], [-0.016907136756282887, 0.23770680301749575, 0.0033893463463116023, 0.35452276604695465, -0.12559295808238669, -0.11907516360685444, -0.09561569812586315, 0.3993141915237937, 0.055269390068699346, 0.0960124340686837, -0.14904670155330246, -0.010690562522119772, -0.05924903528875028, 0.2936872415226906, -0.1265563755319173, -0.04477093016015563, 0.012883807963660513, 0.1557905516432779, 0.046864929200822275, -0.012740424427008075], [-0.24485192069706566, -0.04374713351542121, -0.09473676287100502, -0.010127384089844016, 0.3272741781665621, -0.3125662098821319, -0.30871666687778965, -0.14877335742114076, -0.19196284260587837, -0.02284633081191693, -0.15419034532997095, 0.19132137288028264, -0.1030371415184768, 0.10107421306588982, -0.006318695167330156, -0.38248232223710005, -0.08960325793244682, -0.31348736575134983, -0.22694562274815203, -0.014839730201774853], [-0.012585142894249722, 0.08617184696210198, -0.05194570475571961, -0.07468906503618415, -0.03397868700119218, -0.2722667922068023, -0.16039799753287817, -0.08828266577303133, 0.2545519481342124, 0.25346737488620313, -0.04279139867410855, -0.0778760413989724, 0.0437506988485879, 0.2080721764134814, 0.5112676644581406, 0.1836901360382378, 0.07391198908439124, 0.13439594907457456, 0.17100867329192124, 0.3868756129919137], [-0.17993625629210946, 0.07050330434786731, 0.11650999789259336, 0.3072103348412326, -0.0013932798126395113, -0.25345348626409425, -0.22958629679946949, -0.05806465709724942, 0.0397875441283693, 0.028935717460033625, -0.19224936246452168, 0.44000724713526324, -0.08145071834293087, 0.1406841513037112, -0.20043780542615097, 0.12904506850377445, 0.045102329768965194, 0.5256893144018843, 0.3106898669119772, -0.36102625699651386], [-0.13708538143237636, -0.213113774662733, -0.06629889737862711, 0.4835706020128967, -0.1535008330825894, 0.25015295421743994, 0.18878504191012271, 0.07723502327033195, 0.018183550010883162, -0.3050586635260432, 0.08606035452522927, 0.1319913321561181, -0.16384204328563978, 0.31219490787200826, -0.1560135811668174, -0.584968365847563, 0.03202403356845668, 0.35718249052389317, 0.20555585071737056, 0.43982655354119243], [-0.4460160258644642, 0.08707225476501335, 0.21041585753734682, 0.28822390983184143, -0.07409121186207543, -0.14305616799516208, -0.15561771423989737, 0.2781531731524019, 0.16034751323475338, 0.0017196915118852104, -0.15472864571832512, -0.038632370332469766, -0.24036967777887197, -0.2163009352645366, 0.0005825836627607156, -0.1175830085033888, 0.04065690201890626, -0.25985715952470523, 0.2996493158349036, -0.08757066339357994], [0.0835725331441161, -0.3642499839518422, -0.1968986563233831, -0.11247915436288376, 0.1687039759751375, -0.3259040735354497, -0.31491759773503747, -0.06119774494858451, -0.12542980834077067, -0.048293652665304825, 0.14604925644668093, 0.13028156297495405, -0.09936796231672336, 0.44595047369153346, -0.22087234226663272, -0.035848725522927526, 0.4961531087802049, 0.31832956368523757, 0.057799353366522366, 0.15134131635899792], [-0.02439179751927268, 0.1617582196685215, 0.08007703240189915, 0.12549898181963146, -0.18601610471126315, 0.20555242828069104, 0.02285304670503708, -0.09769724158421429, 0.015167722281454753, -0.26636458405353697, -0.12842754759694058, -0.3099241976785679, 0.2069992424643704, 0.18092862847596547, -0.316987829513826, 0.11370451094079966, 0.2019630126591665, -0.1601695725005783, 0.10466298028720254, -0.27747570725502585], [0.008977743912115465, -0.07423190214710196, -0.018477864761713814, 0.16275229680708836, -0.19243901953430428, -0.2862872875181922, -0.019768161884686067, -0.0023692094461713244, -0.22361432399299536, -0.30516171938537434, 0.161942909892981, -0.1736840913260689, -0.03669917121290814, -0.22608612257702576, -0.23900147635401942, -0.0593059946601626, -0.03816917439007608, -0.04058688524464709, -0.015024543133578235, 0.23147553698871073], [0.16339646917529543, -0.2897224812497314, -0.26695817169709785, 0.425117580903138, -0.2163105180501265, -0.1576568410994772, -0.042352982916229145, -0.03214390615501933, -0.37951700725751564, -0.26511849689823225, 0.23741870259450237, -0.2213828823163427, 0.29294359966597466, 0.09332784737996769, 0.1478673292081505, -0.16601633189468817, 0.002783015836266246, -0.24285817477476437, -0.3116763028038032, 0.1269288456955894], [-0.17500136136611882, 0.03230908430059168, 0.14919481618264163, 0.17266297623727206, -0.09840719992176919, -0.2355286425362132, -0.25698025256589146, 0.01729916289496617, -0.18454433281168936, 0.1746314264000326, -0.010052936580864346, 0.21043643770145457, 0.14863895846101477, 0.03983982495155642, -0.14485964261933726, -0.016937445368440867, -0.0061660719829072855, 0.14690283105241417, 0.004965100917877823, -0.2090675389976027], [0.22920814348064084, -0.014083899033975776, 0.0035919640403518664, 0.06338530895337424, 0.01393691750224267, -0.06919768980399701, 0.1920491352148904, 0.35520412271551155, -0.0712077388916263, 0.023590894516850498, -0.12658734091596946, -0.0018418800902289458, 0.05368813243949093, 0.07369818334629358, -0.18445730698481416, 0.09025325302185376, 0.09968035728258261, -0.22039668822553551, -0.4177652673773876, 0.2897090769164921], [0.30855706903648006, 0.03487650306143564, 0.08565223177423614, 0.028917477170798064, -0.08662186750783876, -0.0011498225303317499, -0.28684750553876104, 0.6135626877031396, -0.212572965675705, -0.014564235032656272, -0.08566745158572693, -0.019310574808371676, 0.19148269674004875, -0.09159205570882661, -0.18650422799090294, -0.05574883924136239, 0.36991712655526876, -0.057796760198459494, -0.02093186697197086, -0.09345711453083683], [-0.19900997450705454, -0.08015316877601006, -0.05043458702272938, 0.21864488695462847, -0.13643023780504174, -0.39410417919057783, 0.11909527123205296, 0.3255101597407189, -0.14826785549680976, -0.33722060690021555, 0.04601073851976572, 0.18399722686582917, -0.1270308056314621, 0.19136206695717345, -0.15941984460667075, -0.23374443496633024, -0.0022992591620792846, 0.20428329313369417, -0.06321423094483376, -0.12968893314388028], [0.3390246345221054, -0.01507943851799603, -0.06734454850062599, -0.3442265697039626, -0.055434660230502406, -0.1276798403242836, 0.025514267089332077, -0.15133211314320297, -0.04017070338311771, 0.003939007650418682, 0.31681978771728075, 0.0831868781587256, 0.0860244509925615, -0.4432170536685684, -0.2713038378390895, 0.047296168007656965, 0.334465010965903, -0.04839171213435157, 0.07009532869102976, 0.1255091471630155], [0.18050128625600498, -0.06425190112257195, -0.002435059343634821, -0.05221264337718687, 0.1878033100314682, -0.13861995979354252, -0.2622931192063205, -0.18981649585754498, 0.3295635167574367, -0.009880766194580268, 0.21966934926792026, -0.11755866930436541, -0.09707574004248483, -0.05651103901296305, 0.20373196006159805, -0.011875745956739577, -0.16800888581677076, 0.08504429539711056, 0.009469652176258316, -0.3258762397705843], [0.24053714723623887, 0.16837568760948607, 0.20247131463577517, 0.3371986633082562, -0.1412009603373481, -0.018314338081270514, 0.33573828577925957, 0.16689655209367935, 0.18216629331963174, 0.09359582434602248, 0.3190056877741965, 0.011724725266659606, 0.2032029837448706, 0.27597404856016267, -0.19648692002189866, -0.04122237375571881, 0.01587174623134662, -0.18779070770335796, 0.05589507262258882, 0.19697130953214756], [-0.3975907266426604, -0.03463202711871215, 0.18853829664562954, -0.05439823462361345, 0.09973238536745904, -0.1743707555733599, 0.21131001908348532, 0.036041116292192574, -0.1771163783117743, -0.4408988983265783, -0.20777023832052338, -0.0770695503810959, -0.03290050512367706, 0.1510223860370684, -0.2569213685084736, -0.03388802884253602, -0.06415698661323652, -0.4662417942718654, -0.3984230583013163, -0.10211634562189947], [-0.16465934930779674, 0.063070122470421, -0.030315570292804215, 0.2501364326035981, 0.05345258395326123, -0.08080344316470009, -0.32442831579561315, 0.0030240089208571777, -0.0035978432902143685, -0.15008534218000347, 0.23739046933254404, 0.17351060656026132, 0.23951331952267707, -0.4014038988908713, 0.11067911023693229, -0.014934661256251695, 0.06616707334103254, 0.03308119696567461, -0.21705994666555986, -0.20588433010449622], [-0.054141859654462575, 0.05784604675202337, 0.21630743728387947, 0.28940875901819607, 0.2554575588214035, -0.004691545822007007, 0.2560385172884627, -0.16426994675750142, -0.013636405675724054, 0.22366774576313175, -0.03320608015139604, 0.04594596678565812, -0.23794824019243654, 0.04415846201895419, 0.2263352442959951, -0.29885947775487426, -0.26060258080737253, 0.3104953557623592, 0.03317384519234573, -0.08454529834158536], [0.3280958419322826, 0.09297137661953006, 0.3062117285917452, 0.33758989877957224, 0.2998846827237688, -0.14730141723689844, 0.06240124745677389, 0.023715761232635656, -0.21887375479406596, -0.10244071029098684, -0.03342703982052012, 0.04810665892621766, 0.02208715357762089, -0.13456856150292462, -0.17580579028874815, -0.07437207193010538, -0.00744736205569196, -0.022571480010794343, 0.11321044519529617, -0.00693974588868891], [0.29247852127976603, -0.24456962750048566, -0.44066416666957503, -0.16946325892684172, 0.026418219573313646, 0.07464757773132086, -0.0585256228745003, 0.18600515763852252, 0.11657847970756763, -0.2555441591919771, -0.007509331261900722, -0.11577396033877528, 0.09791332680607791, -0.14433626201314492, 0.008265170134401598, 0.06545129349449146, -0.22310601614378572, 0.3531764382223922, -0.09163544749372905, 0.017638095232249396], [0.11326296721655972, -0.06787916260612445, -0.17397812810858254, 0.2346561646141424, 0.13116990867859382, -0.04342012557500941, -0.11421649659978039, 0.3631603727443184, 0.08733286733887549, -0.028111272852927218, 0.3349047867703672, 0.12819078216827648, 0.3339582643899878, 0.024811001454229657, 0.3379367747427433, -0.1386001980416911, 0.25069948213443566, 0.17685012414188292, -0.3189849905069324, -0.2674982141054811], [0.15285295669626575, -0.1623938292970885, -0.1919371305034797, 0.4004457856121617, 0.11683895646045236, 0.09943988257678921, -0.3812406952940828, 0.16853913076996, -0.01786081614443634, 0.36180432385860223, 0.12800627889353786, -0.12784069243392257, 0.1788558848090666, 0.28268877126062025, -0.2662973210485894, 0.06382813214398915, 0.3803741732073628, -0.2788337171239911, -0.17290765258126842, 0.09803759904797887]], "B": [-0.006488543196778607, 0.17400158144622058, -0.2213024279988916, 0.05329416485436425, -0.346748794330746, 0.5440692137456048, 0.355344364009894, 0.08992480849314365, 0.2169249309338715, 0.1500718392368373, -0.14699467047721054, 0.3200559174174383, -0.016121556398855996, -0.14686827994176882, 0.21552844707201363, -0.031510108997849694, 0.34611109594691125, 0.4650905007360676, 0.28871713951452427, -0.01738958032289066]}, {"neuron_units": 15, "activation": "tanh", "W": [[0.28642878323950677, 0.20993566957075896, 0.20307291452806947, 0.37327724935452267, -0.1771531179347683, 0.14329394820551156, 0.1406823129846904, 0.16603393971699137, 0.16397514785064382, 0.004973116482728588, -0.28883522426712493, -0.020435777581474277, -0.20228578402223954, 0.4096816276148264, -0.5550519535849854], [0.14575155156374883, -0.43500704570436144, -0.08692579036462626, -0.2729599169602468, -0.2222235091557515, 0.1412294280488749, -0.09647404712402011, -0.29421527572729483, -0.7534651843534855, -0.03455231906587394, 0.15562026615479474, 0.05231498786734047, 0.17244811538914576, 0.36894558476989747, 0.030456871066344256], [0.21118779905838445, -0.1408120552589923, -0.1660099722957512, 0.061484168562351046, 0.18808236256758953, -0.03992523640711589, 0.34649491420481154, 0.3929614011430065, -0.01905610841559428, -0.2485106932341697, -0.14142364216669429, 0.2838346902182143, 0.2962778390888034, 0.10487513506601225, 0.31641764436804676], [0.22690672375711274, -0.3474656289946417, 0.30101597935785773, 0.04198861900839531, 0.31395549667265427, -0.09630215755830265, -0.15753039025280235, -0.00957001019471583, 0.07037284859373374, 0.09007700195477554, 0.34673629439467357, 0.1464388164731685, -0.1558274417243576, -0.22547502110240084, -0.037073070462715116], [0.3744018869735955, -0.26719791519362, 0.2433176565735258, 0.28378475927287605, -0.1588879567198315, -0.19032235367798056, 0.1942144574808985, -0.24897427937651073, 0.4283766452006291, 0.15519730548599203, -0.01908286263737967, -0.09869681990288302, -0.14722722157601198, 0.2667713969907742, 0.11964565626549614], [-0.025842692678281893, 0.4218287957472746, -0.1650335054762418, 0.028463293589884038, 0.1288400009835397, -0.03181955594821246, 0.00900627898854831, 0.22118290719850534, -0.4986621711672168, -0.17441090157139502, 0.005077068635894201, 0.11440490235076371, 0.3133742161518813, -0.3166459013969074, 0.003459657637431985], [-0.04571094359674996, -0.03171427713308767, -0.5939451957243448, -0.43063500746271455, -0.23433266856786972, 0.05115855036471568, -0.3504642637747123, -0.13745647137361322, 0.24622310586726537, -0.14945171344564864, -0.006784463853307093, -0.04972516634819801, 0.33570400224720903, 0.4850758347719598, -0.026124287994881087], [0.042137118123855316, -0.1441388591464471, 0.10786321442214192, 0.15238665122581935, -0.22770877514885973, -0.4982254157469047, -0.021569787190788253, 0.14309036486572146, -0.15661684757031255, -0.11188582729273049, 0.0002600188222534715, -0.25822084850525345, -0.15111409722304772, -0.3648638823345281, 0.097278818275575], [0.006346363902739659, 0.16073373272696886, -0.08775779214869725, 0.2900234491714646, 0.2535438377634288, -0.08219561674777422, -0.039668156496473324, 0.12192972422943542, 0.29542066310543813, -0.026892453537474846, 0.07007357434354428, 0.2214551457166747, -0.3042138764294529, 0.3834002258888772, -0.01958667288806487], [0.3756004203079283, -0.03505251577923248, -0.4189411415465942, 0.5151631006504498, 0.12719899366841692, 0.07665700344481385, 0.30577255319807906, 0.2578868332414751, 0.10923285829553239, -0.116106670457084, -0.194271238708856, -0.327667235461817, 0.034816585485575716, -0.07332313121249003, 0.20221034667257037], [-0.07665300804536837, -0.42909455231289095, -0.3496222806951869, 0.22973612712144245, -0.22161695469055712, -0.16306857351350518, -0.11509853049673066, 0.6123935396509775, 0.216372212612573, -0.09224135091689802, 0.05893894866786043, -0.387779072748808, -0.3740564947595876, -0.11282786117808093, 0.0019868697479662367], [0.0025751752340265033, -0.036478774732408015, -0.42031709346557516, 0.07393013466815308, -0.28663330366468537, 0.07845444044856623, -0.49617582858453274, 0.10980541770454073, 0.39284878733718825, 0.43874678318441146, 0.07755227497038988, 0.27225354443872524, 0.07534592173007477, 0.0324632439335181, 0.4611114358332379], [0.08432684314793916, -0.025337154295659556, -0.0773243224966735, -0.11749065289723423, -0.21473119963643506, -0.021479802368031143, 0.2150888857405983, 0.027415521841262912, 0.09871429237811864, 0.033828276218971665, 0.061457267782741895, -0.22566250764705376, -0.02908999255602418, 0.21228948685553148, -0.35267184850372435], [0.003603859016100657, 0.0343503820445832, 0.5789810008659116, 0.1699315148141617, -0.04548422511035018, -0.14165692229773436, -0.39500705724064644, -0.36567610719534965, -0.11027280804641765, -0.16993183275034432, -0.42001396114122036, 0.21748807976127793, 0.12962424648964704, -0.29229999288371583, 0.22536577070321664], [-0.02935623609860484, 0.06936618390992617, 0.09599176965388312, 0.1540396376112439, -0.10637251638103794, 0.12058512765583244, 0.4059920747150543, -0.01346201149374442, -0.064569627499431, -0.4012943532035957, 0.17204225741455914, -0.6456768745734383, 0.14922546810225237, -0.24427856770726863, -0.06477043221605736], [0.259397788398697, -0.0009024771964026571, 0.18641092556664116, -0.17113474552121166, 0.01897771205370453, 0.08471653455963205, 0.6389029911407959, -0.48980133430910605, -0.15776304838643737, 0.036917806181937324, -0.26936361307913503, 0.17429539344913011, 0.028652476581903806, -0.3130843299893878, 0.14712522114894822], [0.051505866461676236, 0.19941037191512204, -0.17350541934184557, 0.28122944417121015, 0.14670289160650618, -0.3297802857049263, -0.009413923382254292, 0.029682471800955512, -0.23214925890632707, 0.41525160857553306, -0.09065052710874161, 0.23399318388421383, 0.4067671027301202, -0.6569219261669408, 0.2243834776823199], [-0.10732123824687938, 0.0720793116902213, 0.1514312181125654, -0.22110257192477978, -0.21550752233949227, -0.22562193213737153, -0.24347377167000897, 0.42009218731427656, -2.7269570194209915e-05, 0.06575939961739782, 0.43696649290743206, -0.5780433653893631, 0.4177071431614495, -0.3192836282431403, -0.5842191780663711], [0.01653344891477409, -0.24525235860925204, -0.032985288528178267, 0.2603391518255286, -0.34877150754968766, -0.15015196877471854, -0.1352884943723655, 0.2532241844492475, -0.14459863757060967, 0.23833087500155228, 0.6403564061932167, 0.011737052334205493, -0.17979970948277627, 0.47409892412073845, -0.019293712662299713], [0.29949751170602834, 0.03488196721091672, -0.09831368774703304, 0.5637466592857527, 0.20948824973517724, 0.19512385079071515, -0.10273218229670203, 0.20847107185193034, -0.08765050775352178, 0.14706648034153885, 0.11150949659635738, 0.12737378039335834, -0.29809075075726277, 0.28401412426336137, -0.5262267455278151]], "B": [-0.34755578899194695, 0.2257561898534346, -0.1044691826071399, -0.09518378689720018, 0.2896636824740181, -0.48326350292352643, 0.48977602006013776, 0.027855172993919767, 0.09250479484240713, -0.2362959653020254, -0.10984010081095681, -0.05422688657839598, 0.28548381251318083, 0.4032693731158772, 0.0732503792510975]}, {"neuron_units": 10, "activation": "tanh", "W": [[-0.16372825352281553, 0.17662736055874184, 0.1010069283970831, -0.3059351298178951, 0.1803314087982485, 0.43961006966390354, -0.367069573981307, -0.22202836324760922, -0.39729863796333226, -0.06091322132963836], [0.13835322321443572, -0.22791193370431603, -0.010515264078550883, 0.43807254789984446, -0.17404991744878154, -0.09894751063120656, 0.060826659702555255, 0.009975394644557099, -0.3102427730239128, -0.344823928783535], [-0.3924417730179134, 0.05675011473340256, -0.30517687466258225, -0.3882543045928597, 0.6852002945292777, 0.2703585673835681, 0.3165618969503419, -0.11895388298422137, -0.676888127093538, -0.3474104547986444], [-0.14624697255429112, -0.34522758969610773, 0.10879583182782988, -0.5936338322324749, 0.0546533621039039, 0.34155675448477807, -0.3184133646241709, 0.004078861369397375, -0.26521726549429747, 0.35776738952895376], [-0.33751806805281087, -0.46476525859221857, 0.038972941219941715, 0.10521506668722609, 0.19241972842508626, -0.015768071104485918, -0.07844336725036165, 0.5590656557066709, -0.3647916340923993, 0.1093237480384612], [0.09321575125539482, -0.11045022916990592, -0.3076874420594259, 0.3828414568126215, 0.20401357119234922, 0.24462783191303303, 0.20378586327639905, -0.053100917666960484, -0.6062473909871604, -0.006359383610411632], [-0.0655564335542177, -0.31772763732141246, 0.04152693199109796, 0.1449169620943186, -0.12326454746372265, 0.26074333396134936, 0.07878991027954692, 0.08183943588531448, 0.37976523589047223, -0.5678804792779452], [0.14936523776503183, -0.09761812410172097, 0.12257847095789606, -0.1496699126394113, 0.23492443222819148, -0.0380721592130806, 0.44713182618157477, 0.12765148980214855, 0.191654879452157, -0.032394515392994275], [0.5268516121648033, 0.19573486797008505, 0.00751891148389182, -0.026078403266607753, -0.23841364250905336, 0.23761735000118034, -0.05912516361118146, -0.42095228131929874, -0.5884759258543644, -0.16519080221249238], [-0.1368372985205836, -0.15863257659783025, 0.43172060536790036, 0.11559486823182845, 0.08734994859183955, -0.008835561559594377, -0.09857922872749902, -0.2172268670642705, -0.036057236698967786, 0.1530022035967537], [0.4207667873830807, 0.29692476428395415, -0.10511997872710882, -0.27840699129500573, 0.18214180629526155, -0.3328138467487261, 0.5072521183679525, -0.328619055705802, -0.27743860096433487, 0.2011377297101122], [0.07510235362566199, -0.473870797919654, -0.30914088414449176, 0.23770545595699097, 0.18910331298967856, -0.04754516278237926, -0.21980582954675718, -0.17382657241697752, -0.37414339631805493, 0.36805531129743807], [-0.05649553649716706, 0.2559966573384528, 0.30110647736862145, -0.2843106509805654, 0.2984581137744304, -0.038723865215804766, 0.03705429246640137, 0.2315710475667086, -0.3430365917333865, -0.12838826152396815], [0.14272887014251062, 0.030934981836415753, -0.32424210139413395, 0.802574599753446, -0.20344448413512609, -0.045690835152663305, -0.09115060232836784, 0.25351693475786713, -0.5797796533539741, 0.18166911646612788], [-0.32440172863204864, -0.0020686411576313294, -0.4586592378408793, 0.11556682366234403, -0.3108604078009953, -0.25045836280368416, 0.060782534971264464, 0.05256313247450621, -0.38067001911564463, 0.0625126340302007]], "B": [-0.1709722210376696, -0.11542743633289425, 0.4649754649709083, -0.2852318352440133, -0.42275468738859184, -0.13617106491503503, -0.08638102192938378, -0.18656093400121343, -0.24076854498675618, -0.4105444019354923]}, {"neuron_units": 2, "activation": "tanh", "W": [[0.04649886863894483, -0.17855092047839774], [-0.38029203802762707, 0.06734887102695403], [0.09790483209589683, -0.17904442586224828], [-0.3433735984497589, 0.2729682725061503], [0.10442501390991182, 0.13172730165025975], [-0.24785751327133057, -0.8884273785432095], [-0.16535253012388101, -0.21742615924718817], [0.309363661409175, 0.35229735001612117], [0.2451148241432551, -0.6282580245100392], [-0.4026927759663799, 0.48235541175705193]], "B": [-0.39639940307110033, 0.13663557116306985]}, {"neuron_units": 10, "activation": "tanh", "W": [[1.414403118544592, 0.08862887042830556, -0.017202401482549683, -1.5416162862301885, -1.2838252205323082, 0.8549950188625557, -0.22825089524728998, 0.4795812241234417, 1.5371832618361785, 0.205590280375461], [-0.1810754161169714, 1.0148927390626103, 1.353218843531688, -0.6027922764470166, 1.3797007887312505, 0.2638145346611637, -0.3556680861820572, 0.45378546923653557, 0.4304932717855962, 0.9046652028607068]], "B": [0.41649013439691773, -0.4757691234129446, 0.33343704382136746, -0.31134222546095786, 0.2519382332197339, -0.49778737546349094, -0.3122363903420606, 0.01393866308941906, -1.1118984191853334, 0.535135798692524]}, {"neuron_units": 15, "activation": "tanh", "W": [[0.08945861414585057, -0.5698191462519081, -0.39389886688046716, -0.6263947605599485, 0.5471563619304401, 0.30493374205795953, -0.5604276231992756, -0.5683458743449977, 0.225110969079285, 0.17217583000542652, -0.8566510758251294, 0.26181497970363954, -0.969172970454624, 0.48259477437159937, 0.4637176350449644], [0.010199886667862377, -0.40303152582488705, -0.05002200968328624, -0.1584680926555848, 0.2615600948398358, 0.22297899782601766, -0.22131908492245142, 0.8361316384320029, -0.05789071477613301, -0.40474609057526634, 0.24827685704923808, 1.0890889075619372, 0.11758898114315194, -0.5861576211888273, 0.2217186385412865], [0.20232097838540553, 0.12362569291794176, -0.331644017310646, 0.45682562752491046, 0.31889359271656526, 0.12603800811463306, 0.8402953874713025, -0.008787928298896503, 0.6072477241541648, -0.310875988263835, 0.02575237864787786, 0.4164505965081231, -0.3448883804379377, -0.700998611625751, 0.8085431837627083], [-0.21294107368799822, -0.11251912954861518, -0.04418133050356538, 0.45856445205897123, 0.24319675092249457, -0.02437906948110896, 0.7956436238246586, 0.3836860496589207, -0.5321463725973743, -1.465635693457595, -0.2591448634894455, -0.3503920846525385, 1.141308212272058, 0.10691541947201029, -0.6674324959654924], [0.8697419210717254, -0.38518035342444235, 0.1268058081266554, 0.4077469139248474, 0.19106582753445644, 0.21057531831590678, 0.5391234528873767, -1.2914211345197837, 0.12269876085652719, 1.0610258257115097, -0.3262020934326369, 0.4671383921105034, -0.4080749713949361, -0.5170820001464291, 0.49646582888908125], [-0.17383860872995788, -0.6592744043971323, 0.4795589868967986, -0.04885310328712844, -0.5691639102791641, 0.23231424242111723, -0.10517824438621028, -0.5513794922396081, -0.21259776824888627, -0.17218065217959475, -0.19822362858316464, 0.32560585042845946, -0.4279342865646217, 0.06590681829974307, 0.4039294886736872], [0.007629220323814774, 0.09281714247070424, -0.16161883295841764, -0.11265597498244731, -0.41572802737852194, -0.29484149372981117, 0.19091617772360103, -0.8061549902184142, 0.24453932164349215, -0.031096912048250384, -0.2294640106388384, 0.17970342397853029, 0.15119704008372695, 0.718806104732777, -0.08927264284732198], [0.38173924175878515, 0.15527502141309357, 0.2475206428848029, 0.05056957317475338, 0.34753073648847876, 0.07361323199799177, -0.1578913886282759, 0.5339986575901916, 0.1085832592750134, 0.28605897124260454, 0.20961956525207184, 0.33199436912691527, -0.1430875157357554, -0.22672022794104965, 0.6512159863364795], [-0.8443517750646431, -0.7535471873288347, 0.5444021196457374, -0.2368711620102112, -0.8423825450604691, 1.250178897575176, 0.049103202546043126, 0.0017491312268538327, -1.1997209349201048, -0.6440605678508905, 0.05298207121834546, 0.22456268786808903, -0.4165909006081799, -0.4168946459642111, 0.7014923574370964], [-0.16965474625481214, 0.36576044444452904, -0.192978096150824, 0.49816086608957527, 0.5356229679189978, -0.5341371771274885, 0.43269880828692664, 0.15869298105618296, 0.4115018275244682, -0.08744093663053225, 0.012337902174446046, -0.14438856758515967, -0.5543933788961602, -0.3036137450048001, -0.051090526453447464]], "B": [-0.27298785254506835, 0.7927651699308482, -0.2610855061681476, 0.4614953696640513, -0.2662006314287878, -0.001405605618431271, -0.6501190248253685, 0.18401639803645017, -0.8870347027635094, -0.061160293014733386, -0.5257795882220402, -0.44855161706383445, 0.35923634802056936, -0.4165063690407363, -0.02323562445970972]}, {"neuron_units": 20, "activation": "tanh", "W": [[-0.7271867413434608, -0.39151842512735846, -0.018191701252182852, 0.0919060140101029, -0.7881393334763807, -0.5333987088377892, 0.6809220186844911, -0.7490531511656496, 0.1939323448964431, -0.38010802406017624, -0.43354419370643993, -0.4314493966482469, -0.22589102390680926, 0.49482069703334497, -0.8507767408421562, 0.6005615675185282, -0.36307864866929884, 0.22292649347807578, -0.23636624945720627, -0.22184074652389002], [-0.9527904525126903, 0.4072633057467115, 0.7484642460954315, 0.4177385052554651, -0.3054094889774433, 0.6436157482260129, 0.2886146529405479, -0.2723590581838934, -0.27114510221908245, 0.9140060822310657, -0.20117286562446518, -0.5071116080274372, -0.3168499442878422, -0.1695290453785401, 0.3241155639576177, 0.14587530779893618, 0.43158996336536604, -0.37047481674542604, -0.11397025348729, -0.6605639171492214], [-0.19741215647358104, -0.03419393973272234, -0.2571178140131837, 0.2139877151567484, -0.2349682642712303, -0.06697416614942123, -0.190704758929453, -0.14972954355425658, -0.35661897000911924, -0.3276910364194644, -0.2617804688134757, -0.10781846053364949, -0.12283980817581852, 0.1919744930550136, -0.17735939746025206, -0.38500036286809375, 0.9908652405056028, 0.25126526057747745, 0.2643337380699793, 0.5237745395841227], [-0.316044107387008, -0.14871396070402, 0.540684641452066, -0.9240568371251736, 0.0096240654962837, 0.19679699159905523, 0.2209118884655322, 0.10113075448869764, -0.3201299413455499, -0.20076207519899136, 0.18519862288447045, -0.24713335440045972, 0.400754948445855, 0.3200760420283606, -0.15947976042937398, 0.6210296204165539, 0.41680317252280286, 0.3421299751751775, -0.007141330612336528, 0.09291530428626157], [0.8612833944657428, 0.16787350296267567, -0.3967356720922992, 0.08806932554437542, -0.17820732422461122, -0.32573943275701417, 0.8430640148490194, -0.6313056313542552, -0.5274678849555561, 0.027513520919283153, 0.5451739683255795, -0.07072420007205986, -0.21700484826340458, -0.5159399641933515, -0.0512962534221869, 0.3840371608125758, 0.1410330194799546, 0.4748313953450327, 0.7036155999524029, -0.1512596513339676], [0.3182379453802562, -0.30666899948522597, -0.19068347104843894, 0.22204896142694333, 0.49518868418134354, -0.26612381332761614, -0.09843822109225177, 0.18211602134620092, 0.7801999413752952, -0.7033860693716101, 0.42796757937446345, 0.5217643342497581, 0.34703353365674566, 0.052700884975760184, 0.31441840925301273, -0.27263904642802766, 0.2045186460995453, 0.316013537337508, -0.2148767224423734, -0.024494425360538495], [-0.05955276386035649, 0.24628985418683533, 0.28697957601662116, -0.20011184341646232, -1.1433155496968228, -0.6369844253285911, 0.022611938848003818, -0.6431187545301994, 0.42359798389777414, 0.23000061417255285, 0.24995559792674218, -0.1810199320204728, 0.32775647136317243, 0.42367644305451324, -0.354383971174327, -0.5063343269781391, 0.048583451330959, -0.7302671928168026, 0.42196957003737684, -0.07749346244896761], [-0.023349913341851342, 0.2279921083817966, -0.31275940574151073, -0.6392927277387956, 0.42736319519731714, 0.05263252226675498, 0.00984241152197643, 0.26002029996508, 0.26088555945768976, 0.48442408722202385, 0.2424438797138779, -0.060044357283889425, -0.32309654769678875, -0.23344894927197357, 0.9805640126040938, 0.10018827513895877, -0.11435701200699913, -1.4634918281664868, 0.9015182962509061, 0.2545102546723665], [-0.03249284049593566, 0.977997982570657, -0.6421934007472002, 0.24312032213848717, -0.5275153854073666, -0.4681225558770197, 0.27961550232254967, -0.6986857094710397, 0.9233325105174739, 0.006153328553937726, -0.0983094330294237, 0.13876044336035784, -0.15199417708206991, -0.44545725895452215, 0.08308092626006287, 0.9066209091806138, 0.05165367249942038, -0.12275975511968402, -0.1891627431380417, -0.5108552576147666], [-0.43591161504417103, 0.4341482997436927, -0.3482098248567673, 0.535712758977335, -0.027019666256148992, -0.13067498384725026, 0.48600906849546127, -0.41405024533787466, 0.6584139139719727, -0.9528741031766601, -0.3940971821479965, -0.18842096607233083, 0.21972387476517022, -0.8221981687320162, -0.17794117108356333, -0.5655873347502156, -1.0124101913702996, -0.11324336380189363, 0.6883562227130933, -0.29454140203756646], [-0.028529928786668445, 0.21415388269269156, 0.04158909072193446, 0.44313065403988816, 0.2840244453397798, 0.16215274912967456, -0.21875279331010428, -0.4315542602846931, 0.07735870322170568, 0.07997272302574504, -0.15031646142591104, -0.06549226328267864, 0.5286512227487051, 0.38375969227325957, 0.4150199116442827, -0.17531558621825574, 0.2401381101831104, -0.0049053047069742605, 0.5137111022131085, 0.31152763268385253], [0.12151187614630878, 0.05829575329320936, -0.060436672392570195, -0.6465690789843943, 0.5719028067325174, -0.1575537546941163, -0.07016418521661781, -0.05065485950981677, -0.849251079070348, -0.5296080504578757, -0.8561743888644714, 0.7460357458897412, -0.4225600077102486, -0.3527605425318174, 0.5086285218592038, -0.03482695414950527, -0.659337646564236, -0.3752508465960983, 0.616622500392886, 0.45111215864830784], [0.0604372656441322, 0.04780401875654462, -0.5796587820703675, 0.8488759894572385, -0.9334377594278114, -0.3077577741724489, -0.5303762873621366, -0.2119656133100195, -0.5107381654091027, -1.1226552700817352, 1.0361401899835634, -0.1341909178717751, 0.3743708362497665, 0.4667497346344227, 0.6790459565366292, 0.004689870404669455, 0.4860858835887214, 0.6641734537752372, -0.03325548763912162, -0.054110696481728796], [0.18864945070342892, -0.6442631424465296, 0.13883656293649266, -0.3962538112514887, -0.39501121013326973, 0.6489105617291954, -0.23833092456069563, 0.1508881205970135, 0.0337024043258065, -0.11035626565020853, -1.1415792064079622, -0.4033441920616862, -0.7021423229791721, -0.1589803897783151, 0.003963741561633461, 0.05197541528897006, -0.5762537822350157, 0.23127274693927288, 0.7083506255492954, -0.24978835330854054], [0.200162831069733, -0.030007808579658717, 0.6656285461142495, 0.5742111654808966, 0.37591609945958776, -0.11652611314241533, 0.15420279179633073, -0.08444091434587567, -0.17368441652235672, 0.6418060409781391, 0.34397685306742737, -0.046563902356886774, 1.3856315096400362, -0.29035883749930097, 0.5785058935759315, 0.3855955750674904, -0.1946107055131474, -0.32478794546218925, -0.9661368389700927, -0.005785711593901316]], "B": [-0.0060476128255724905, 0.13369305610595636, -0.251567989811112, -0.06271230097203617, 0.007073116489697827, 0.44158056512962907, 0.237496099850687, -0.002610608431385597, -0.31324370968662385, -0.5178836704400752, -0.24416083147568654, -0.3804337069705985, -0.1946289622601368, -0.2226345456244561, -0.08439028723024018, -0.3273927041918971, -0.12359162066695806, 0.5336256135338037, -0.017155006369869333, -0.3056426053303523]}, {"neuron_units": 35, "activation": "tanh", "W": [[0.15242938781117293, -0.34271507374721655, -0.10765236399219168, 0.25203124821069867, -0.1326473782527465, -0.46821286373247284, -0.02647610044327212, 0.1791727396007111, 0.4978883910641188, 0.3295079286014349, 0.6327063059703392, 0.5478932713462895, 0.2150794815522539, 0.108134620173966, 0.5213727932773241, -0.27300623241943967, 0.43641042094971627, -0.28174739162577517, 0.24868556111135787, -0.2901554606492391, 0.047628810936093245, -0.09414307491628325, 0.3329322504797563, 0.48801287063973986, 0.5121655362931045, 0.5888475935398398, 1.0857389298406592, 0.23183600680299268, 0.038365222194563835, -0.29984155407170604, 0.2915466023404916, 0.05889970267539192, 0.08674772336486795, -0.2729565959849451, -0.036901123215512505], [-0.3208129508570234, -0.7596545182825324, -0.40069954634565763, -0.35764979685889575, 0.048018101246042, -0.4751761551321101, -0.19999448795765712, 0.5615948041093334, 0.007535815879344567, -0.5425644480599701, -0.3008689537979877, 0.5359289140312533, 0.40470385894810795, -0.2588018738905983, -0.212805208033289, 0.05329549501910915, 0.06414045586722349, -0.24712675247100735, -0.8940299288370553, 0.006747060562528293, 0.00334261274970479, 0.46568901205426605, 0.38502642109308793, 0.09123808850432392, -0.4036866102294057, -0.5782234454592984, -0.03314763258036583, 0.35963628775675344, -0.4929206641204297, -0.5625403813932938, -0.2660574541213666, 0.04149891548341263, -0.18782532407161762, -0.7222480364169788, -0.5118448691046502], [0.218068770790502, 0.440425309403866, -0.038522753314756894, 0.34501633667805015, 0.043489514895779756, 0.5177708537421909, 0.218454075635196, -0.27319978110455717, 0.08555898514314564, 0.1572262091101198, -0.40587858384575254, 0.2550491183833684, -1.0175748495899335, 0.4040687843816477, 0.4736818285299001, -0.1106746468829636, -0.39469051217738665, -0.5585173686904954, -0.03985065636572061, -0.033298953961338564, -0.04091201950513321, 0.4474881395253857, -0.3198027858336552, 0.3258606247519523, -0.18612655992510768, -0.18601506603444362, -0.10806424653249512, -0.6045973290132061, -0.031010477072153878, 0.08524719665184974, 0.3250737084136741, -0.07574504479168437, -0.7475618496573703, 0.4280907493424437, -0.021161357811579764], [-0.07965224588843421, -0.6259037765746198, 0.22567971256894084, 0.470636802347942, -0.06510697139696214, 0.06765250981334867, -0.028841617333531046, 0.9145656943088053, 0.17976443029925074, -0.2566747685701576, -0.2682431829510143, 0.017358621732678575, -0.12509520653328152, -0.33293074493661196, -0.23106652778717832, 0.8190300571354294, 0.08005403402931331, 0.5896389356429862, 0.1985147181611598, 0.4203723039088582, 0.05633570918180563, 0.36239795885381215, 0.22444232181778462, -0.24632960534831422, -0.5616384095193111, 0.13086606311909577, -0.32724960116205404, 0.11566600634131936, 0.31690205719803016, 0.4734621213847686, 0.510563135041514, -0.8608109089390433, -0.3016249560483408, 0.5052626116454073, 0.4828648927361424], [0.20427454490708138, -0.1795945848755929, 0.2947839470610606, -0.5567505508284487, 0.725564460825089, 0.06383561665804706, 1.0117277731236496, -0.23393095285226487, 0.44177148612565603, 0.8650324879491588, 0.46303608537228247, 0.3809059382748305, 0.22681874164396754, 0.07026561975818414, -0.1884664936295452, -0.3192535753489222, -0.5114812327865875, -0.10575611208051537, -0.4352755009410008, -0.7735487852929398, -0.004454538266122952, 1.0214153127539196, 0.2739239701165689, -0.43187507489052845, 0.3295361317263982, 0.6204763631092726, 0.32713379785012214, -0.8376765520194972, 0.3550080210281892, 0.15333627376893783, 0.31439693856885137, -1.540698033723907, -0.3716973753210911, -0.9725072237777651, 0.21322292821544522], [-0.1403875436147222, 0.45038167660736594, -0.13063668324823133, 0.2707322567633971, -0.10437815485642503, 0.11355661558571513, -0.5465437257101179, -0.4851503347580822, 0.2798219635641737, -0.3064046958221475, -0.34253854288533614, -0.04614843873179721, -0.42162777343737295, 0.24718850425204092, 0.5971687772145493, -0.15958968314186373, -1.1382440158280114, -0.621522262284722, -0.4399202335867575, -0.802193512998149, 0.3813697815940502, 0.13896041632741996, 0.22386252557114636, -0.0381599516144411, -0.10535642389365903, -0.4779575061501064, 0.7763981339062006, -1.063896403019163, 0.031781869380333894, -0.1344068099289911, -0.08604428312926425, 0.05241456983694208, 0.608384885533598, 0.19062177850377754, 0.046927912794350844], [-0.30762162196541704, -0.03651890245786564, 0.2833300748109052, 0.2509427728385101, -0.24968722114197034, -0.22576561232403405, -0.2528536853656145, -0.04218176471155636, -0.08404794128190275, 0.39394690988240394, -0.9928208141001819, -0.1952266876425743, 0.2807248048261263, -0.2627108232792412, 0.28942514751759435, -0.9047428777028693, 0.16661692716643958, -0.09756066916749216, 0.8045296369882551, -0.3944192822097725, -0.18969235952090652, -0.07116301885044628, 0.5346192114726339, -0.289372389984517, -0.14774375530440623, -0.20403474342137565, 0.25278027567254235, -0.020555409804273467, -0.06390784577197789, -0.5743074770922622, 0.13855874630669457, 0.0354770999101993, 0.4141096084079541, -0.28574475927858245, -0.17175906564793766], [0.4999751407802116, 0.009599813715358925, 0.4882594238512898, -0.0980720612136987, 0.4416418046879467, 0.10128999622388783, -0.05093635834747744, 0.02469427487628999, 0.4019603038600927, 0.5177942506569645, -0.10448777987476313, 0.2956050561642601, 0.23431322401312674, 0.7693508309149591, -0.6368354585169456, -0.05504843612296236, 0.008134449327178642, 0.5704928584865127, -0.027613701870566183, 0.11815309953013671, 0.41548023065505196, 0.3142183987370822, -0.10382394547008156, -0.05823775375260824, 0.691372875930184, 0.8007653607986642, -0.6366200564006653, 0.042546391438013996, 0.3760136809341556, 0.3077911188198512, -0.3192693736078704, 0.6219162640318986, 0.24623517431877995, 0.6726372036044539, -0.08648312618277924], [0.778734009587921, -0.27525863082078256, -1.0574758457944873, -0.2458961567830157, 0.1290447459840549, 0.042061462248007477, -0.35189309496727483, 0.5344500626008938, -0.045610735316250026, -0.1957576577503405, -0.839841772145691, 0.14233232676880392, -0.22040090058840883, 0.2816051109569196, -0.058736265537910955, 0.07416937277543086, -0.41021819770120976, -0.018653771008186295, -0.5422867397230815, -0.7128292560622738, -0.32395485102401794, 1.236808447180138, -0.16510914720891304, 0.43161335603488327, -0.2671096657317788, 0.2271453546133106, 0.3858999887940373, 1.081723717630359, 0.2973925991824811, 0.07061134946801258, 0.2492257588748162, -0.014719357367543413, -0.42783584476057035, 0.220808089502028, 0.07002589439859751], [0.09089304161143485, 0.29447801226983206, -0.21873698989794912, 0.18929154280669222, 0.1494158757266355, -0.31171734790637695, -0.6745579068829959, -0.8116537838497262, -0.2677049570350016, -0.16248458521790324, 0.9973457980296636, -0.35499055000502144, -0.8889201554958781, 0.32675029014375545, 0.09738378086068382, -0.21245695298347886, 0.2870849137717232, 0.3489085169458374, -0.3844811298978544, -0.31898805625517507, 0.20858063884260475, 0.20170770127553347, -1.0830343669013645, 0.2521697533384416, 0.1130686012359643, -0.44164243299319633, 0.6963362190592236, -0.5877734424407938, -0.17007500332156242, 0.08381423097863942, -0.26212468727591576, 0.5317174006320068, -0.41732200164545075, 0.4808057399476238, -0.7551390448020144], [-0.49142477944062896, 0.33764020590665106, -0.02087215604949589, 1.0180839940280668, -0.5462667986715455, 0.019149989137439673, -0.5089098634511383, 0.22171442559524954, 0.2283278790871365, -0.34017137665444475, 0.1263252661436311, 0.3466860116019704, 0.10595004003090133, 0.27636817588031776, 0.35866153297594877, 0.7449421956401062, 1.0671289426041652, 0.40004227143449883, 1.4286200150105055, -0.048990244501024675, 0.5174300275049087, 0.6616817698668923, 0.3733184928511514, 0.28967439826059266, 0.8349042099065365, 0.06306101284467867, -0.5478239300554782, -0.6527139678687018, -0.20442768842513787, 0.36936532864794885, -0.7484188503077147, -0.47546528546274397, 0.15332141212446895, 0.174148921113112, -0.5113315156757118], [0.07070263566372814, -0.30473886556258273, -0.3500521739029276, 0.025860882845330942, -0.017676493372185173, -0.040479226945392514, 0.25336847631878606, -0.16764257417057166, -0.060687068072852325, -0.588110897870535, 0.38981639139328805, 0.5251635975159223, 0.7244556027915258, 0.10491445712883227, 0.7119673066408332, -0.12444329390266731, 0.20943699146793726, -0.6016686431148248, -0.0436934989499296, -0.12782515774895228, 0.6543047700669196, 0.44322485660968913, 0.5776334185542966, 0.43505125723296145, 0.25262567310962525, -0.7137202498170838, 0.6161843617733713, 0.13212584115150428, 0.1924968590922814, -0.12846041192229737, -0.3007531477646573, 0.5645009992638853, 0.18765549081720906, 0.23672261694525643, 0.04174685443492432], [-0.20940851214461464, -0.34844543773653586, -0.09174367317773746, -0.21241426918154546, -0.96026074374984, -0.37227911006131936, -0.24089976877993727, 0.298698102845573, 0.677880458307155, -1.0630748188492807, -0.41931066926766, 0.23308077732207397, 0.23879022531704988, 0.09227930668660805, -0.2192684767701644, 1.0272466847171224, -0.3992875265256683, -0.9681499055476629, 0.36563456258617766, 0.30124709781822234, 0.14090008720367037, -0.2504083799660642, 0.19829085303873584, 0.3606891349144044, 0.14706753153875685, -0.7613661354986891, -0.030215555262049765, 0.35214337963513165, 0.44975129938500835, -0.18008325874867664, -0.41002038962076365, 0.06522867982073444, -0.36690970598252914, -0.10739618629991869, 0.02707887850353029], [0.3483605664722334, 0.39306912730082366, 0.47407994047074736, 0.457775341354826, 0.3893134254341317, 0.7543825477036501, -0.2119846468974286, -0.6002587428082712, 0.46019859223630327, 0.7929968478560115, 0.23702517170243734, 0.04615375448795923, -0.22135708165657747, -0.012494167335577433, 0.7238997678557374, 0.11460773412813491, -0.703666512263648, -0.0072904382724156966, -0.12176669455465707, 0.5059739032671904, -0.20599716547210636, 0.38166978241023636, 0.28218771999967607, 0.26884315858699875, 0.5956360169130849, 0.07838592840536837, 0.6857801119068964, 0.0026554018573572806, -0.11636996963550815, -0.1597299927677776, 0.6746436548692305, 0.22166775538161573, 0.23099199705013632, 0.01079916146055922, 0.7503446987696283], [-0.6609489197253058, -0.9693006926881731, -0.6869361386792489, 0.08906530338882161, -0.5876143811423097, 0.0375874362258073, -0.027555758011966046, -0.6166421379390602, -0.4486707280338675, -0.4959729319067792, 0.043774827817850664, -0.5163633914699072, -0.1327641632982971, -0.15995818155496072, 0.2770604924552634, 0.6783762130309301, 0.31400912237482587, 0.6460568331683914, -0.37561785981429097, 0.5319925082626504, 0.8264694559557152, 0.4441978117160767, 0.009481324014228921, -0.2683121366860242, 0.3247944644551875, 0.35893301828751517, -0.9751068096832519, -0.7805039777301195, 0.27497456351884153, -0.10439293150200878, 0.6435905132628549, -0.4549988738335113, -0.20892811592269375, 0.4576825167924222, 0.42102791233756004], [-0.4818721167782354, -0.3524728102142766, -0.3576193728603966, -0.14312674445750362, -0.006304324454169331, 0.10474956786741577, -0.3983899312297801, -0.05194787399469921, -0.512359959657701, 0.2929803611169, 0.7514111887050869, -0.09128229482569303, -0.1242099961970739, -0.37446572829669533, 0.4541317022338233, -0.10884436708874963, -0.38274590796881897, -0.19322608539440775, -0.7838240452377337, 0.07122282389681002, -0.043670311524630384, -0.09719614516340498, -0.4168599064981858, -0.12274538094153097, 0.031057467885085198, 0.5060165076444628, -0.6724738312648434, -0.10597996128487817, -0.5127230265520292, -0.2885155013162237, -0.11756629772937811, -0.8903818845791951, 0.15925713082493126, -0.5404825685613228, -0.49933764339249576], [0.4302946121990242, 0.4871016688282758, 0.3657533442000502, 0.7014662444049443, 0.06635356702642878, 0.7478585129882123, 0.03778498502144401, 0.05562547753715319, -0.10430174272536591, 0.5769536286217187, 0.4799158079104397, 0.12756029071712702, -0.32303013072663583, 0.05250398291611006, 0.1810339660604709, 0.3108894742049013, 0.35227262634318257, 0.5079175789500824, 0.0635962260356571, 0.6022794182651239, 0.48819843848273364, 0.3577516745305427, -0.44433990301111725, 0.283191183222917, 0.25460696861572024, 0.5968732471627519, -0.08324971116997841, -0.2666568819503523, 0.40054795331292414, 1.1431610114674104, -0.11978982233551023, 0.29455714258050225, 0.483963176609827, -0.05380504138653012, -0.2997747990470671], [-0.14856146172469648, -1.0491637368022513, 0.7471075409366079, 0.2966892018960372, -0.643928432331307, -0.18319817628553375, -0.3571397145696806, 0.3946171078851753, -0.03895264058129501, -0.14182164358158814, -0.24491526269500416, 0.8761875765392085, 0.3078615177862536, -1.2497936517323305, -0.2250121396019657, 0.3336184663326905, 0.3971937735193572, -0.35326576257636966, -0.5621210611733457, -0.6043336856297612, -0.028773251866008903, 0.45496084973742845, 0.23577327089927205, -0.9921207503072419, -0.05768764816147555, 0.35810603619587056, 0.40799407450369174, -0.24288209838272992, 0.04589496342660999, 0.4319390612341283, 0.02078761529785562, -0.44141844480243975, 0.5536229354397252, 0.5988260839026929, -0.5364524951984923], [-0.1023578971998785, -0.4233563743039631, 0.46104059952495474, -0.7963987634984951, -0.3876428688983138, -0.1389337704198545, -0.579835971255637, -0.895072113800415, -0.16611291546263848, -0.21735808495346723, -0.5974462472529671, -0.9378941677471634, -0.1056070687872743, -1.0470466649719543, 0.16609181044708796, -0.25933224014278666, -0.08877022524104942, 0.7976069010006034, 0.30547452975844397, -0.9398363372206826, -0.01380783315429008, -0.3884719144775755, -0.008414390664868094, -0.7488911213483903, -0.02386148832438986, -0.35156146788262477, 0.08692691744290643, -0.0765287325500393, -0.43031803346166275, -0.17488611420910757, -0.0525914234062351, 0.1731956164666728, 0.3090809132780756, -0.7096613891562795, 0.08210062789724258], [0.33632983102543024, 0.3923685046810194, 0.03787970189319265, 0.05740281782753076, 0.2637014590488549, -0.262393292178674, 0.5360427740493454, -0.047247698374010653, 0.6106829647839417, 0.030732846979561503, -0.12511571130422675, 0.15056851961702666, 0.30116918203788345, -0.13073923242711535, 0.057871534732733945, -0.17427399173915714, 0.6842032956524096, -0.0007492136563748212, -0.04448937891849073, 0.08630530062209177, 0.45638408056815166, -0.4322063680020199, -0.09608957650144992, 0.034517607360599833, -0.2629934065265576, 0.5404591286270621, 0.35244018598411375, 0.15242514093975337, 0.692873138209731, 0.231894109121144, 0.4216063634272056, 0.4019514714929514, 0.3283977577193004, 0.12190011428521633, 0.42300744823830994]], "B": [-0.37385847918528003, 0.04866976372171326, 0.5520095369365584, 0.16830985421351605, -0.7005309654097499, 0.013332922873440007, -0.3055133117685014, -0.2219313082188578, -0.3955292207442251, 0.08009600504096157, -0.06694593221602019, 0.40360457523715093, 0.25003195317033955, 0.04790568795766644, -0.2912348945115525, -0.20391027046346993, -0.2502614440924755, -0.28410376796013986, -0.06423459458421532, -0.19483021533774753, -0.3191087763872381, 0.24505478489316984, 0.11890277112300436, -0.6288835554362385, 0.36060031525280006, 0.377233805507583, -0.3027440121581091, -0.4389637162266668, -0.05590534765483112, 0.08788345967813561, -0.4105327140487008, 0.5718489139228214, -0.03684228708097148, 0.19321123166814627, -0.2557405033153433]}], "mae": 1.4684156390789969}