{"name": "ej1a_15000", "layers": [{"neuron_units": 20, "activation": "tanh", "W": [[0.283550768329415, -0.08800730338330033, 0.09875379295308069, -0.11095051573198154, 0.10558201386526321, -0.07067949802530975, 0.34591076850335317, 0.012179152797651674, 0.13615632215457765, 0.04282283956490822, 0.4959174654904288, -0.15645070850782294, -0.04560916473311314, -0.14617843748386963, -0.25258782350510356, 0.0780607743110434, 0.017490549339087905, 0.2643765629353112, 0.2197634600690141, 0.14530191985510837], [0.007847494697074875, -0.02892284219483646, 0.07980796225379537, -0.16551708581527225, 0.0622311844759474, 0.27089363378815445, -0.36074445193005494, 0.09941907398351145, 0.27516955579059066, -0.04097769138887215, -0.06575274984119447, 0.04966496250289132, 0.25446942790204746, -0.07040648339410267, 0.16894606993289923, -0.3002735607660505, -0.2515597706733207, -0.009785889009748016, 0.06106453575035295, -0.12162128426491513], [0.1139465419912837, -0.1544221684370816, -0.10219068904290639, -0.3284482019729427, 0.13776070148758074, -0.05063299116617446, 0.11317107030211983, 0.1913628368576318, -0.07871549541658404, -0.07550788189147946, 0.17758538613567068, 0.2823901354878341, -0.10918227563444871, 0.03392771093192601, -0.23299720881624092, -0.15737472524238974, -0.29824883909129735, 0.008277482086191954, 0.0813152494495364, -0.05342639563407955], [0.013092576519121215, -0.10106941361169526, -0.04292416830566924, 0.0721702675288312, -0.09590524342236349, -0.004337130264897544, 0.4401278963662015, -0.10182903575536746, 0.1885173189002278, 0.2403089888412033, 0.26248380502128943, 0.12064428612954532, -0.013385004660763337, 0.10765109945268438, 0.03854647470055683, 0.2612008349628426, 0.022798581826326506, 0.34730377776137084, 0.2636183843963521, -0.24389396332252838], [-0.29191876116842125, -0.13566708962893673, -0.12965514818276255, -0.1626511912417128, -0.30775556553189004, -0.09723748352422086, 0.2381729759378813, -0.34671438563427853, 0.005042825552904631, -0.0957210562500481, -0.19519366862077978, 0.16869839054593477, -0.051567896834007636, 0.5930546984181527, -0.12926973329285718, -0.008594101309157063, 0.2949127904209469, 0.0012086623656908724, 0.08010690238692199, 0.2990209595133052], [0.050144635391459566, -0.1000954838283689, -0.2288356093585194, 0.15778755757889734, -0.20087397038889943, -0.36980984273608697, -0.12079133095500004, -0.09370106560096007, 0.011392433513215859, 0.04046801362621749, 0.07859765423150927, 0.05562032618297989, -0.26924154607944634, -0.0464567781082134, 0.21178602660189688, 0.2719016873322466, -0.02840004085186784, 0.23727870862564426, 0.09387953208267273, -0.08097989203791257], [-0.15365348958154218, 0.29016870009195267, 0.1310611850712535, 0.04754209339146812, -0.09259389170891223, 0.12946899477134402, -0.18096834332181508, -0.15224229739615933, -0.1961616004747844, 0.1625182061186166, 0.3139665547438534, 0.1505148967575642, -0.4800628453161471, 0.13406056995440238, 0.19263611648081597, -0.2985235286979856, 0.1791200780351466, -0.1905875801454871, 0.0022507537771482063, -0.09056378081082848], [0.09526164710578411, 0.10841704857953059, -0.26732511902938166, -0.11445389624372664, 0.13991492734698047, 0.12857843169654729, -0.16372269849172386, 0.10442099058932831, -0.1175012205925457, 0.0162737397553331, 0.17185035316624828, -0.07417852170402021, 0.3474540310068632, 0.048377861729180974, -0.009035904076085123, -0.21741793905256432, -0.10156218406772442, -0.07105716077150755, 0.0009020158087182845, 0.08021489241934969], [-0.05691492064149406, 0.12055793929690299, -0.06692217944428148, 0.018542507980462447, -0.13838056508163343, 0.01626915083300537, -0.03657700744917536, -0.028210548614735563, 0.019957141984761426, 0.08951510484274348, -0.4563034818154458, -0.48829345044296535, 0.1709507247321777, -0.27838522297233387, 0.04779077474189168, 0.039161347658404795, -0.15651651544993359, -0.08445271042720963, -0.1449240116796885, -0.08678845879473139], [-0.2489763059118527, -0.014061023620390663, 0.0058647205466798085, -0.04340626889077775, -0.08020841614090006, 0.17861689943278702, 0.28776755382778113, 0.04199967457416052, 0.14004999815326205, -0.06533130906163004, -0.02261371872724446, -0.09293902997901472, 0.33502496834995593, 0.06223950969419092, -0.08432735468981307, 0.1027578942970261, -0.1034179140890135, -0.19678566944708514, -0.19608008569659074, -0.016742202034017765], [0.23494792072016557, 0.26915877887551803, -0.07219608310757995, 0.1955113289758072, 0.12183601992733824, -0.09203090080954375, 0.14524403507409825, -0.08923563814088585, -0.16529564224428792, -0.07018619420138231, -0.036381405775365014, -0.07055353248054906, 0.17642727291782428, 0.22297296200598812, -0.21707252596635196, 0.09839700693448773, -0.02164580814943829, -0.047457959929959985, -0.13741614536738683, -0.14021445094596025], [0.09445111806964437, -0.1876632231070974, -0.11532991073520406, -0.33697770512432684, -0.11469444753838938, 0.004766131269963937, -0.05435427866769019, -0.10577192628272143, 0.2119101828934745, 0.10647372609548532, -0.08092395312635128, 0.0005960422367727256, 0.013321807484203122, 0.06547175261631054, 0.14943513637213568, -0.10742059536595956, -0.07605556084291283, 0.0930912867558298, 0.2728007648198697, -0.025993234174720038], [0.13388673479546537, 0.021140449891999317, 0.06690904135695468, 0.1763024710192344, -0.14204885914314813, -0.11589742312116984, 0.25886914507210973, -0.09122554576425825, 0.021429973376704745, 0.311080593315236, 0.0791093523973386, 0.23074711801844172, -0.07188631740964871, 0.03007318951935412, -0.0952777174060435, 0.09889360669130669, 0.18642768134935997, 0.09881142140522493, -0.3178226804015698, 0.07628000977206552], [-0.41295019742368816, -0.26052231338488213, 0.14755378001185512, 0.267631326409937, 0.05085623043363137, 0.1196314234854889, -0.200408095769762, 0.18609437731270653, 0.16426535797120637, -0.3357293300803164, -0.29402233228710273, 0.2672650770135587, 0.09372068954515303, -0.0864672272027422, 0.09801139163139257, 0.04731440009984703, -0.06500747745636017, 0.04648753421725838, 0.2154189953741586, 0.16608480606959752], [-0.3310432369245671, -0.10386732097486563, 0.1922148660863793, -0.10236682034776322, 0.18940457028368973, -0.09879043526984103, -0.5086761879060597, 0.12082750201064531, -0.16751758682110143, 0.13605859365770642, 0.3649568834123198, -0.0342192625270364, -0.023252746176350748, 0.04205045379873494, 0.20771391951580565, 0.013361613311111369, -0.3577557492318207, 0.2292147315853838, -0.09950541089188332, -0.04779512105771145], [-0.015691446902827724, 0.15568052476813568, 0.06064656786122953, 0.10418216814122593, -0.16058331002151038, -0.07581538488825736, 0.08720993324266109, 0.0451972001407124, -0.09097400760898572, 0.2099270447469692, -0.37672649682177317, 0.12157763516959579, -0.4426233990403106, -0.0745553979402566, 0.15148317953218, -0.1222761423266699, -0.3316917815062765, -0.09660682474984171, -0.035750104299229854, 0.04534132155951418], [0.05920893831920972, -0.24735148730684184, 0.17024769155241395, 0.07789694214354666, -0.4376750321919624, -0.16948124708448692, 0.30415079249061466, -0.0007552651210212665, 0.2670544501398612, 0.06740689617301741, -0.05936870331639102, 0.19634608224128253, 0.28357645072240695, 0.007697313891974515, -0.23827069976413295, -0.005400175577750204, 0.14791838947755506, -0.08695029611133394, -0.004742418638976651, -0.24554924739671502], [-0.0855134830956576, -0.10238103049730275, 0.12929787895130787, 0.07582471792312274, -0.3040372518352143, -0.12487209774048465, 0.117208645837982, 0.17432886081233365, -0.07940090746698811, 0.07730366789971567, 0.15292980372622725, 0.08827285032819902, 0.18904682609996049, -0.27853055836523816, -0.09598992660226664, 0.2620734810193569, 0.09142953472604638, 0.3429535926226707, -0.1438171248352672, -0.3287432006616804], [-0.23629826909216667, 0.10285756250289292, 0.3019348565437799, 0.09644241245299788, -0.27848031582276417, 0.20434525296263895, 0.1923507283673925, 0.08679749917283149, 0.2596029044160221, 0.22013063167345917, 0.1593016625506736, -0.42263927019436076, 0.08681470768137614, -0.3866579588434504, -0.06509761999739307, 0.05500865587901053, 0.22755097360737206, 0.10518043784072, -0.28349588224111777, -0.09513793506464026], [-0.11062141026470806, -0.02576925260194402, -0.09424156219965003, 0.22094116391428498, 0.04157890266134903, 0.14115204492221223, -0.10765260429895117, 0.05579889200621715, 0.012670877938949596, -0.30565842269463644, -0.0709299299949889, -0.1300069060546702, -0.25643159574563906, 0.02765696664306121, -0.19396764162917657, -0.01590957805347142, -0.009121352967969048, -0.07191846102246931, 0.09369172957774237, -0.20140181256263362], [-0.5441569409226278, 0.2514037864211059, 0.1648468131203508, -0.015953799042262292, -0.1672751666553069, 0.08597666423362409, 0.03210575399923139, 0.10340709724984572, 0.16166083820980973, -0.057135291554952075, 0.1579725549801073, 0.17487729500749155, 0.3346963641449701, 0.11005883349394073, -0.10602790022270912, 0.11728833719414646, -0.2954758503384362, -0.37765035178700995, -0.12619783778343954, -0.12585491029986035], [0.23712456228151518, -0.4243228412714955, 0.24887669841023327, -0.05565023843160937, 0.2699379805957363, 0.08458169975712874, 0.06700712317742287, 0.24558892016826392, -0.279591012099629, 0.09888490745689786, -0.08982317914747964, 0.06243549133275822, -0.07701109217209198, 0.19711402666466762, 0.04013443960573945, -0.12023723405251462, -0.088883045706965, -0.06074352873680388, 0.17013242522981847, 0.03047731306276298], [-0.2851184947994935, 0.17036623852256358, 0.20583648323554163, -0.1086654307902757, 0.07145537791199726, -0.0579891649339254, -0.30322658942345165, -0.07496118157210128, 0.16425798795890048, 0.12701116758299852, -0.18625685669912936, -0.04802700671659765, 0.12874172440762993, -0.04208803785973067, 0.1824808743749764, 0.36677140519747875, 0.025902366955474418, 0.06514846101998394, -0.2389980989595079, 0.12227493614487338], [-0.02303461087026975, -0.0030925542227076253, 0.10097258588160495, -0.2978797908898962, -0.2499401598202878, -0.22470119220263612, -0.13444125080394656, 0.24270926581084237, 0.08522323653446967, -0.175192942453636, -0.4411581040153021, 0.06235373763985949, 0.10705107714784093, 0.04290044847580132, 0.31281836040472044, 0.02698484877607771, -0.3603306310884415, 0.06698234190860904, 0.3304919471664317, -0.08316142757768509], [-0.11296832238920751, -0.14309477996276818, -0.21658295673452224, -0.26526273778479176, -0.04366554326756519, 0.14301097551649072, 0.0582749809491081, -0.28787594619031204, -0.049744765105284465, 0.05663257975372395, 0.09645103520731518, 0.07463259358987571, 0.13859004035139771, 0.29606626020360854, 0.24351335202078347, 0.06523995649219237, -0.15540462793671914, -0.11673358212217559, -0.13251370445290406, -0.278577406282458], [-0.46046713140092427, -0.26736895820994405, 0.3425411857908615, 0.5609395798825457, -0.11192766534779468, 0.1657651655130758, 0.4351987504125639, 0.1303178340856305, 0.04804915283655308, 0.11921612852445075, 0.40738582742656226, 0.28014288785770547, -0.1046734550475038, -0.20437623426331106, 0.5467630344223557, 0.39966863128438646, -0.1414191863316365, 0.07418840214215587, -0.18063140606528194, 0.010572449349361789], [0.12052973200134509, -0.44545964465219295, -0.26654577303321164, -0.21424237355739084, 0.12347631803435956, -0.057938351925144814, 0.037896843325941815, 0.017250813275744854, 0.31176967494726604, -0.10854424942637471, 0.18654242064919, 0.2103426279736521, -0.20509486099606722, 0.17074390787174823, -0.130213582172258, -0.10249996729600104, 0.252066027941842, 0.1278495086755004, -0.264289903992157, -0.004824728968199568], [0.019896730260684767, 0.0227477989556599, 0.18219244719193103, 0.32419076135913555, 0.05299415372315888, 0.13166170770360947, 0.09235892338360215, 0.16427239733862156, -0.1350046362611528, 0.12557691582035768, 0.2697026939720001, -0.3949835947667133, -0.14195887902185833, 0.12461916118951492, 0.05560462446874549, 0.47875855472522366, 0.00020952937465776607, -0.4213230186869114, -0.0642707193584489, 0.09983710098243385], [0.16765168807652642, 0.0018008322696934258, -0.2575559338870668, -0.12120694823396054, -0.20875880986655732, -0.025532053709970758, -0.14711537645895564, 0.2161725943419113, -0.4078725498144249, 0.2409696730236219, -0.08565438332816247, 0.02935674950908944, -0.032337243939123246, -0.11107264539934371, -0.1645699584239932, -0.16638444144637968, -0.12603155781217998, -0.26713903437523673, 0.33233942264336114, -0.1559989976364261], [0.2702037408101479, -0.17328842957640708, -0.1943043471980774, -0.049634659917380454, 0.2312840043850829, -0.4559762773672713, -0.2703071086031014, 0.038345669480848006, -0.10010396590902892, -0.1275735179207274, 0.06792541538185873, 0.4374647035422031, -0.13335596973417513, -0.3086960855045045, -0.07321989975587899, -0.2011732811011436, 0.14889169909475833, 0.039188859190677015, -0.07453069347454556, -0.23924580335385487], [-0.1883733922129528, 0.15394591383284886, 0.031766658690063954, -0.0717764871326489, 0.2930772797851727, -0.02825856631401397, 0.09496741422487258, 0.4170551730169872, -0.186920921397049, -0.06564275840516064, -0.08731222771936759, 0.11237533987859687, 0.04006875230635846, -0.0331140954934922, -0.2747570742702202, 0.21920626714011945, -0.023070978305942513, -0.054451259906601636, 0.21751354792002753, 0.08604454308613803], [-0.1292010018056634, 0.24156081259061066, -0.09091429001834096, 0.05304083382779722, 0.054316916070398874, -0.32974597757335355, -0.05104446614372804, -0.0505804953407391, -0.19480782550376805, -0.002359800680892138, -0.2641410550504907, 0.011095555935365856, -0.1404730993175881, 0.24346934522276745, -0.3149191791010365, 0.3086197094131591, 0.12184387829796532, -0.02301323535734353, -0.3249718395248188, 0.04801656921072351], [-0.06241137482311225, 0.024725982699331777, 0.09791829038699666, -0.063314344854135, 0.02078625277079209, -0.29155041703691, 0.23309207200760043, -0.208081745151843, -0.21028706762377433, -0.29482494165935286, -0.15733715163288228, -0.30278366343482677, -0.024567857626247535, -0.02454917990544168, -0.07446066235490319, 0.22375833532929487, -0.311489005686665, 0.09677065691920249, -0.26025987853264443, 0.19292191192698738], [-0.07421784078557661, -0.3793242815034527, -0.0985159004407317, 0.10488414673066608, -0.12773153175059643, 0.12934883130544547, 0.19468928334218047, -0.11025662479436411, 0.014699888966889386, -0.24231487985491604, -0.28167134623587864, -0.06503148356163567, -0.29344184300616755, -0.12741476185309625, -0.058647533866244606, -0.08842883751755017, 0.11602742148895802, -0.2752548951164547, 0.17845655590946968, 0.16312939504883794], [-0.0579368307335361, -0.07228209085704108, -0.04360606917646043, -0.40757613575609103, -0.1655345704286016, -0.1204666833210059, 0.06050707388185454, 0.032821433008968885, 0.0880810913627241, -0.043437407949882906, -0.25696764540778694, 0.13590845287747894, 0.07821441719187233, -0.22237721375872535, 0.2586641636452742, -0.07002537404916327, 0.08853276369980707, 0.2780217700153987, -0.30597898072410634, -0.22555211375476247]], "B": [-0.44900132501285633, -0.0319826724934415, -0.01818347680368353, 0.01906671202619748, -0.21333252296962107, 0.1747238739508557, -0.5872275693934816, -0.187467404525572, 0.01761976184962458, -0.09883779516521353, 0.16947121983208815, 0.05174086113399684, 0.11859511804215764, -0.2889203216304504, -0.05746996530545895, 0.2593338011008972, 0.10074898017671742, -0.007086879410148874, -0.14689902302111157, -0.05159866980441593]}, {"neuron_units": 15, "activation": "tanh", "W": [[0.13916186938570804, -0.3264355642916261, 0.37366537064928307, -0.004401194346163619, -0.14970887865839605, -0.03814214953382743, 0.0773161078064148, -0.45790372822078945, 0.14677572789650883, -0.6193667400558642, -0.08369037305444266, -0.45646712341415546, 0.07787253439353554, 0.24513587875731133, -0.261422856025126], [-0.18307339741272416, 0.7110986850578199, 0.005568150420226263, -0.12468098960838268, -0.12391827172369071, -0.09744182259371068, 0.14228269958067546, 0.25526624291857697, -0.3369674684752147, -0.050987328338990584, 0.11887506724115586, 0.36019513602649317, -0.2066549899671478, -0.08285865246173277, -0.3065176701426309], [0.16472627935387232, 0.015712180633324746, 0.13293874412919798, 0.12483287099475003, 0.17583490160418055, -0.08439858759983185, 0.2615629997204237, -0.11641434883641391, -0.08651276643828666, 0.11393677972592782, 0.037253498742579536, 0.3016566462425947, 0.06118562445163321, -0.05096013627791033, -0.20950404050014526], [-0.37131760781152906, 0.22246495565641333, -0.43685518859273215, 0.5783410320277551, -0.019891799883976703, -0.12768179591205922, 0.06004194864204284, 0.034080142776714874, 0.10586142876284438, -0.008271634180398835, 0.15694025219001267, 0.013059775477336383, 0.3148781586810481, -0.4343686629031343, 0.32365566277534136], [-0.50052693553107, -0.11222113939836366, 0.39185294125333, 0.2152477066968158, 0.16159742591778029, 0.342992791392209, 0.2925239733938044, 0.15011638709590225, 0.033552922784352616, 0.3060060354003648, -0.00019306691880114398, -0.22894690336740509, 0.30293109075598385, 0.4544550292227825, -0.03818793997610951], [0.2438694073728924, -0.2511367089888393, 0.2345775337767491, -0.3008682783896558, -0.005674445917030919, 0.09151716037186954, -0.08670534956651417, -0.24887794934526547, 0.07336700015978351, -0.11214087810773617, 0.6103415345005552, 0.18312180501648137, 0.12323541360559709, -0.1051762312173421, -0.2600603099114633], [-0.3622517775949343, 0.12520107341172396, -0.7263491639864006, 0.40481927361035813, 0.45826745457533624, -0.31867961389240307, -0.1716052377375244, 0.48602441225997955, 0.15957749721889852, -0.20419509720382573, -0.44507615665317, 0.09316765355250721, 0.08838919602477527, 0.14694224739862347, 0.0820377152138713], [-0.045869061739416406, 0.23476341179707413, -0.046958696848277776, 0.12944182208307234, 0.22464786878514767, 0.07371697142777663, -0.349984836743091, 0.41186582518992476, -0.2579436343710113, -0.12975467785154715, -0.577867639105432, 0.020289353519701084, 0.45656662410312704, -0.1660853309007322, 0.3830568864971954], [0.032574308848942864, 0.1351258335126414, 0.08826140753960653, -0.13506374352449718, -0.17087607291764803, 0.29492326435789945, 0.2699201852714421, 0.24136568590260254, -0.5131439500836616, -0.029977561535357758, 0.29938303549072165, -0.3353064817200393, 0.05107439369689648, 0.024602919028081635, -0.0584822629719814], [0.015425285933240286, -0.03128074173114253, -0.33559455516596226, -0.05763483200425396, -0.061039483512753845, 0.4325119584616378, -0.016590014964580624, -0.37626552401408614, 0.0053981988306570925, 0.4996385322506116, -0.11647683980204346, 0.2400992193728165, -0.13889891246718242, 0.03497533376969634, -0.1919118693957191], [-0.05467503218044691, -0.2296760425741626, 0.21819981592300225, -0.4199797445445957, 0.27063507697780365, -0.1507440248140347, 0.07404845823221082, 0.16486476975022563, 0.15910152647530507, -0.48133955002589784, 0.11256776226348683, 0.2931172015440386, -0.26625703031117914, -0.14217470093996337, -0.11476250573756286], [0.12440134618041739, -0.2943562650276253, -0.09053419399323039, -0.06759653868484616, 0.16110963671363987, -0.014147768275920588, -0.23990073841444373, 0.3791827594229438, 0.5161325724736363, -0.2522508134554019, 0.12901938305337143, 0.2565798153325365, 0.35274131007030485, -0.08557190323918396, -0.3550930061637774], [-0.17590898974309477, -0.07768091595115692, -0.17588232801034928, -0.3888612823179495, -0.04399253870559487, -0.23432660818854056, -0.24400380594838508, -0.0002495746858169495, -0.08180049141826026, -0.07147647143131883, 0.09389339982422483, 0.022332610012883513, 0.026416259917624405, -0.3194166228307224, -0.2195880801590942], [0.007165362279430227, 0.014582164751058573, 0.08382487924102355, 0.013213345144676283, -0.09743755448789737, -0.05571180988504296, -0.03271007007230063, -0.11862389339804988, 0.10089911733037828, 0.1905937940867732, -0.12603300705455303, 0.1888663162338528, -0.15000020526288366, 0.05072584244815316, -0.01605891808216124], [0.2312298193242573, -0.0788752748734775, -0.10231183974343996, -0.12122422647862835, 0.29523053783381453, -0.15460427692951648, -0.12034666775105358, -0.0997054454541827, -0.01717593456981915, 0.27815726544290803, -0.10371240768152243, -0.16394398923001485, 0.09389115900834348, -0.21173269585179066, -0.13138247287177743], [-0.4702269231242396, 0.5060224326194867, -0.26793046201760806, -0.2352072231565678, 0.47310104434918343, -0.060520907066957064, 0.1101168060875274, -0.21043993004795075, 0.20756957868860504, 0.11722026970077022, -0.4413620157572705, 0.5865462896606408, 0.5245567811094393, 0.17126993049240896, 0.47261137646830226], [-0.12398843265515518, -0.5274009919437473, -0.2079602510824287, 0.10929307291716332, -0.2435437409101828, 0.08893436487841325, -0.019059390650482753, 0.3559578167483034, 0.005428263778910989, -0.1535640678755359, -0.30670064536595115, -0.2170539106618727, -0.17362250248669273, -0.25697169575842643, -0.0867598914692104], [-0.05566423594972131, -0.12332463932683724, -0.020487913124977927, -0.026079820301427414, -0.316339364817824, -0.20819418500558567, -0.20415381678734823, -0.20193592477536665, -0.22671980374011386, 0.018702235596656264, -0.07960152065797323, -0.18952581543805583, 0.19692115492307097, -0.06378863645150522, 0.026620591034044946], [-0.04047849926014186, -0.17768837967462423, -0.33047556674400175, -0.1323739404922621, -0.03488411571845504, -0.3277135367032123, -0.07116614084156392, -0.1907388836064481, -0.028750955753715033, -0.26181067279980164, -0.30720102130786947, -0.23154932257381852, 0.5147894412598726, 0.1057796868506653, 0.23320338550222727], [0.024857026777766047, 0.17774023577234316, -0.16601047580100053, -0.12400031593471701, -0.22633320340837493, -0.10274529493668774, -0.41446981039721603, 0.04900026104928069, 0.25857874174755835, 0.013412344861157438, -0.06552926605192375, 0.35093359780756367, -0.09758039255843819, 0.3024006964389386, 0.1662912982136183]], "B": [-0.25550436134961363, 0.08394706817536035, 0.3904531051849777, 0.34407163672915136, -0.046194758533386795, -0.10294451959767367, 0.1895803958360618, -0.09180517477187454, -0.21595825922908268, -0.3823009103599007, 0.16399326042761497, -0.32953061734939376, -0.10815900733867782, 0.016667371869342185, 0.06925543616667683]}, {"neuron_units": 10, "activation": "tanh", "W": [[0.41388475106373945, 0.38801210024078636, 0.5487931450253754, 0.07312971056925997, 0.24729514959595417, -0.18309022427818106, 0.12726285115956296, -0.4477305849716105, 0.6062089326983116, -0.048150362837171015], [-0.36806765313334877, -0.4420477014124096, 0.2452954092531034, 0.25545590273334373, 0.423742811324347, -0.13429728229626622, 0.21126576907646255, 0.0011001167049801486, -0.20454110988228263, 0.013648749343218226], [0.042272816134165545, -0.022325142600149932, -0.3155544738270865, -0.35394664239537565, -0.28948623274925983, -0.3825828867857871, -0.25915296002405147, 0.2712498986135367, 0.12681904455084494, 0.20765358848189136], [0.4322925577601907, 0.29479217125285456, -0.5406909979512544, 0.2887868771685894, -0.23756863906931525, 0.7407530245019185, -0.21828851700936788, -0.3056960215736394, -0.03981854227476685, 0.12699866085964834], [0.03191207849147, 0.17506709172915205, -0.006631870488458417, 0.4305451194890505, -0.17193408324406262, 0.03429304226009202, 0.19367195125659253, -0.18883951777931587, 0.3018623777521574, -0.3038618803973261], [0.0027477319575102683, 0.23614892789482317, -0.013300604383709074, -0.10282463665702114, 0.43898570035818907, 0.20719824687011865, -0.052916578808799256, 0.04276217266913463, 0.09936429895185292, -0.48049163555465596], [0.29698821068451947, -0.16061253778140616, 0.11064620835943335, 0.03972081217447737, 0.2516478366284135, -0.2900476523245818, -0.28156707197265224, -0.5505880064056224, 0.2708529445319686, 0.07563904179969602], [-0.32877457659045783, 0.20812083975928763, -0.5821499898653503, 0.0535468130015036, -0.41088630409840066, 0.35378847154751236, 0.017336413561155024, -0.1029363717163566, -0.45489670059912957, -0.13428123438350378], [0.3943654916316625, -0.5242032979789575, -0.28324645297271595, 0.20457109747088778, 0.0005729898209508174, 0.1652907960658903, -0.25806049188107294, -0.12746683155159919, -0.010124775456406799, 0.1328663824432546], [0.17259869170893338, 0.24678254549066767, 0.1644240219965884, -0.3345410782825415, 0.605710110228025, 0.06114541445213705, 0.00523707985949064, 0.1529300944909438, 0.45684199900262545, -0.3142239108473593], [0.15734427841403423, 0.015475850548398649, -0.0282254065208323, 0.18333356843344217, -0.4964482424449856, -0.07012777856757374, -0.3229424834449709, 0.39219166732370764, -0.11127897173113195, 0.3429727100770674], [0.36739493457613587, -0.4087443937556026, 0.40591930524678077, -0.009768609717231175, 0.06134298151675633, -0.16035017126302964, 0.3506512395966315, -0.0652611534488916, 0.00990913547996306, 0.09693728572604103], [-0.3345374605234315, 0.006212105525569731, 0.03053418338095264, 0.4784776750782711, 0.09131410996575472, -0.18383139823195419, 0.7825430343845344, -0.24686090361302987, 0.4232540278245707, -0.20672079242284142], [0.1154674354471468, 0.06399387386311269, -0.32733179826905995, 0.04969432158662929, 0.5144255326662182, 0.023115701251437953, -0.018417954551096193, 0.4257568621098619, -0.18559886290702907, -0.41089529140547826], [0.045965118384975294, -0.6398904892868931, 0.2810537842838621, 0.4219753923412917, -0.28496155239362303, 0.0620491477142388, -0.14230541082315956, -0.13430419140679462, 0.012331417478005462, -0.6508887575637272]], "B": [-0.12611794004107754, 0.3847339773473247, -0.29129510132905756, 0.269970359764531, 0.09909259907090984, -0.6027263164658742, -0.415398010470554, -0.17010229171664992, 0.14111197393704172, 0.1930250207207042]}, {"neuron_units": 2, "activation": "tanh", "W": [[-0.06951209110901609, 0.20063071190986953], [-0.14721607246617396, 0.15008070919691763], [-0.22580117594233223, -0.7953771235078549], [0.6015823636279675, -0.29476633544532477], [0.5171803836582883, 0.49876985060033396], [-0.3190249687603297, 0.12177598357262309], [-0.32441708518995005, 0.5360153339532343], [0.4937874276667781, 0.0396823064947321], [-0.3482463196941709, 0.17865105721310376], [0.21043216424314065, 0.4882393155109839]], "B": [-0.5031342282318392, -0.13803762043108694]}, {"neuron_units": 10, "activation": "tanh", "W": [[-0.7052472385811495, -0.20749832488841272, -1.2715198387084323, -1.4598288121391438, 1.0010026663665663, -0.1223364337201294, -1.0759498685341595, 1.0514716758711442, 0.20788035622378423, 0.13011860952788418], [-1.659146341202591, -1.1390675788478748, -0.1643484371624279, 0.10972990852073367, 1.036670472054553, -1.0616103428667212, 0.5595878413259298, 0.698462050042513, 0.6222824944925781, -1.0057939453215978]], "B": [0.2722956963763738, 0.36932576311720317, 0.5449550705505943, -0.8830489222374237, 0.553434897616926, -0.7023634971586646, 0.40480067979561923, -0.23689650541152912, -0.6938594580571332, 0.5616472063597769]}, {"neuron_units": 15, "activation": "tanh", "W": [[-1.053338573760186, -0.011647060605711778, -0.036987430852312715, -0.6630498389977014, 0.30824259060605436, 0.3650769938466515, -0.29364914030757844, -0.2782229427499303, -0.4993167901894495, 0.1483343920209998, 0.06153974721055536, 1.046423526880862, 0.7367684334864676, 0.7481584301626146, -0.7008232840420782], [-0.0799549903208777, 0.4444833973753649, 0.1121315277123715, 0.13726892175545463, 0.16057017872997312, -0.4035734423198862, -0.2966106315970956, 0.5142187703943971, -0.3574003480505865, -0.11313676069472194, 0.5405050806719675, 0.865954805644946, 0.03572396162093264, 0.4284043407836326, 0.17398156599302653], [0.1461509599462177, 0.8528597898452448, -0.7333926356198274, 0.05125925048966042, 0.15791346229012299, -0.5689676182650009, 0.2586313073178436, 0.06988522244796398, 0.1838730518772959, 0.4082163259077249, 0.9211863044649576, 0.40574934554552433, -0.057756476844473534, -0.3359611901527776, -0.5798168754865755], [0.38144369845587484, 0.4081359434335891, 0.21802649698969837, -0.6377328500109588, -0.9461419616906475, -0.09326098243203648, -0.10193739720508233, -1.0814094807811683, -0.5298941308986485, 0.6975397212130868, -0.06622352539446699, -0.17137014820694788, -0.41085063190900456, 0.04092718265438377, 0.8349583152457714], [-0.9916863100591183, 0.47532731044666715, 0.23915652845959715, 0.26229779907815054, 0.2593036859238781, 0.14304622323385477, -0.13335354020047777, -0.07585515112319732, -0.0589587061448946, -1.2452765278640938, 0.5453756804863771, -0.24272091309664393, -0.07690478386466988, 0.014736223863102237, 0.44098403965759925], [-0.11018882390760089, -0.29393573794744915, 0.11854014485893713, -0.8116437345135041, -0.30391464046147265, -0.18937817220938774, 0.2886934778367643, 0.1994047334559333, 0.5796957681159804, 0.6968787994990062, -0.8881833956568201, -0.17814951248740893, 0.21596581711330404, -0.08204056975838384, 0.5512295817580004], [-0.3733108503254931, 0.7761637650981994, -0.8344745176959247, -0.1914746083020216, -0.21033615708066727, 0.2753696125188117, -0.08362612235121314, -0.3132839443926464, -0.3382486220963807, 0.3612473242976585, -0.5524305357932459, -0.1445188346449117, 0.6481536916162335, 0.020822675234694662, -0.7892002825684403], [-0.07826936704267508, 0.38714676042374385, 0.5836109215123727, 0.32175725682966405, 0.07438184603259147, 0.47669355686537335, 0.08827272083237811, -0.20174276451427953, -0.9782167661507724, -0.11496284039213281, -0.31787588628454727, -0.26860409831532933, -0.5877023459035942, -0.6079319999367799, -0.008904746419865975], [-0.467648889636632, -0.24878356367578053, 0.34910733889557233, 0.2940562247315852, -0.33837131682306104, -0.159390821459894, 0.8817552463629243, -0.19692372772403355, 0.45517249224331374, 0.37021752442832895, 0.4532335670408855, -0.16775875608611612, -0.05919393169729069, 0.28213715725139055, -1.1937479271398783], [0.807185831511518, 0.49468296092636393, 0.10323426846386687, -0.13042445021578505, -0.09692440829942756, 0.3528784904645017, -0.0066736140307891096, -0.37273288866996057, -0.037472023794964386, 0.7591671147751105, 0.03293391557003744, 0.25682310774540645, -0.6621936115028484, 0.13750778666043836, 0.4111535550156548]], "B": [0.4294077151966432, -0.238047955272812, -0.8495301444902226, -0.5927258146608929, 0.11912216605676858, -0.60001765401519, -0.020643961524324406, -0.28837989056095614, -0.019818708028289105, -0.30233676953822486, -0.4480538892202493, -0.008517418999707989, 0.27142587433644005, -0.2580598729664001, 0.26649177798867]}, {"neuron_units": 20, "activation": "tanh", "W": [[-0.2876524369274832, 0.28941882307820316, -0.9955600574203993, 0.06321405292909105, -0.2812934978636605, 0.26477258723498726, 0.7277731386085188, -0.19978242336735103, -0.7913392504394137, -0.3528079430192374, 0.1601900003725775, -0.4116461873661027, 0.7184107167063596, 0.07149729509136822, 0.1528113317304181, -0.24287318370517505, 0.5601174532097978, 0.1067274953714778, 0.25342586776549264, -0.008305136009493926], [1.0094422175347384, 0.06953027466995673, -0.16545027904733925, 0.31041400777949685, 0.46050994561086217, -0.0924091603432175, 0.5035768230634015, -0.15427971095763132, -0.022304962360560763, -0.005468978896381601, -0.5276706580953374, 0.02500142228865236, 0.31129003339647593, -0.05517959206493166, -0.20795939799189836, 0.07564171541089158, -0.3411461387235633, -0.09929901713287438, 0.31326387202806955, 0.19148337996893444], [0.07577205878312752, -0.10605632342951445, 0.31846201176996736, 0.0011941639049217023, -0.5571568594438044, -0.17132158330216563, 0.42711319085486565, 0.0733882895096533, 0.07079806762472403, 0.10498478876313058, -1.062757384156824, -0.8151726777887337, -1.0054106305824566, -0.42396989337822094, -0.15559782445593345, -0.16219801198827885, 0.4603263067729133, 0.2819963484582777, 0.4072064695289644, -0.03302288077602539], [0.244843682130563, 0.18032801683241942, -0.36400679806765807, -0.14125998276565296, 0.06100718525136928, 0.6047173883774152, -0.2896948734029613, -0.41768189310162224, 0.534327446877245, -0.4407460253331636, 0.3772525544115431, -0.44635223319203554, -0.19115140899641195, -0.3588801188350629, 0.6405000065467369, -0.35005887252194207, -0.6100134360898198, -0.45152365262281474, 0.014140352558666051, 0.004969195505867907], [0.7840802885573277, 0.3863081810764657, -0.38315226238653743, 0.0023472439591716594, 0.049278275697206365, -0.02103066808827571, -0.13938708892770124, 0.47541584097591333, -0.14255385810271948, -0.023020642313512096, -0.5886527805093436, 0.4594659477671289, 0.012882504764929524, -0.030968664746333963, 0.47330790671536394, 0.28988829196245275, 0.4462120172240378, 0.17797390212064124, -0.0368652419403134, 0.27475699528979847], [0.4022479453572943, -0.4866948235573134, 0.00666911488261921, 0.0010074774655909763, -0.23432313566024093, 0.06717325958015084, -0.03975486249564556, 0.22983012804993125, -0.00978507951475216, -0.25327824432212076, 0.013873473229657955, -0.0855658185723587, 0.01958763452050445, -0.13260584780397525, -0.3147139924916029, -0.08731038895326346, -0.029092095179986472, -0.36548504773994483, 0.547710491703265, 0.08581167803296096], [0.39699703385276164, -0.3220540591342536, 0.5655385780471982, -0.18807212570847542, -0.4806782844843001, 0.0948177941725795, -0.19827686384385232, 0.14922563887880133, 0.1705541161695693, -0.2840057894012457, 0.24928472161089962, 0.14560086694055677, 0.4683884703232165, 0.5306309882807112, 0.17439755471235438, -0.26002337533189107, -0.15458429206059038, -0.12139204077038736, 0.19769284749177465, -0.5031026893601915], [0.4863677142332807, 0.05734051323026541, 0.28564842786844613, -0.22842131504788346, 0.03442702490468679, -1.122588163630345, -0.40472369393122526, -0.055432593224066136, 0.012372925148779195, 0.17370561949960028, -0.14105355274471396, 0.2935116396764715, 0.8354087204505067, -0.43533656558866196, -0.15449011802063656, -0.07998012248898163, -0.06393776220626604, 0.7234114195681463, 0.29596626953875727, -0.16029077772460762], [-0.0070705272337446695, -0.1021704344785906, -0.3941604570260382, -0.8074970476724741, 0.22219183885929816, -0.40197971075650196, 0.030021951536048086, 0.44642974569536714, 0.10844596830909513, -0.04979332771836402, 0.2730001250321555, -0.09696900129673076, 0.3526559382826147, -0.2955779821287866, 0.4991382963859646, -0.7011010469321549, -0.0017921738612830117, 1.0549532037297626, -0.12925830617911593, -0.12078191626683152], [0.7202351153044745, -0.05657586459428986, -0.475291056311734, -0.5691559639186353, -0.04903102009918707, 0.32007786642334657, 0.806677888178511, -0.8959549037182782, -0.02154113576647642, 0.24617830212867411, -0.7193432476103845, 0.10366100348351445, -0.04945307886966694, -0.6905338183130922, 0.7813519770229925, 0.5490315724921926, 0.4796168425252746, -0.8139981043672408, 0.6266684162084071, -0.09365323515820609], [0.37000701173964656, 0.09511765500991207, 0.016940906213170237, 0.38459243262552745, -0.23369096947951934, -0.7582054202080265, -0.05970138784400456, -1.0170434882651949, 0.5774194469329315, -0.25721203553157634, -0.20422552951673792, 0.28823554765513393, -0.9156851054053865, -0.24942111200331715, 0.16417158080896294, -0.776083763682019, -0.06721464182473522, -0.11739147489105159, -0.8097783625335803, -0.06320040007223902], [0.421751199321891, -0.092947046833122, -0.19173279226147538, -0.06733594242077527, 0.02980572879028091, 0.29432894446625324, 0.6565038881294507, 0.6401665686149824, -0.09732668390748006, 0.4393550287461154, 0.5293512812635002, -0.4539034075226173, -0.5876756424960675, 0.8060362311557351, 0.88819706913319, -1.2975478229732325, 0.06256732111234398, 0.17779344698917662, 0.8516000906475701, -0.06842494423308237], [-0.7854887016950534, -0.11153940421839577, 0.23004304832580727, -0.057650000310605964, 0.7598242029478921, -0.06268044482386563, -0.12028058087676928, 0.19779285846177072, 0.37163688001518297, 0.31938475248268966, 0.1609497862817893, -0.2941095342233096, 0.0686489062748121, 0.3952267874001758, -0.271378239813601, -0.018750829071434893, 0.2406727448004358, 0.29079693559099357, -0.22561424196821664, 0.06924362816619446], [0.3461362674643795, -0.0843255174188021, 0.17817543678309594, -0.05998811978489018, 0.12012094968905375, 0.25510439991042544, -0.35327260227631585, -0.09337116970586107, 0.26366403107184944, 0.3521440502103393, -0.12293321093674285, -0.01603686626915489, 0.35815542952022456, 0.07087291168121168, -0.5069636498305582, 0.05516774909512194, -0.10545635871848826, 0.09727790144436721, 0.11053724539076795, 0.16387837906465685], [-0.361540172574925, 0.05826081720963575, -0.08460483151829098, -0.05699893724524552, -0.12520303399830976, 0.1372817183876469, -0.2299455440940232, 0.3747330544276079, -1.3051817754145967, 0.05366368690719533, 0.9861074380891869, -0.31377971191001547, 0.444161230710902, -0.46322948327717167, 0.35262121601206486, 0.8010362615164519, 0.9255378550844768, -0.38577549811067097, -0.026429907878793346, -0.16558610554010972]], "B": [-0.3919896347260703, 0.7768358491061795, 0.24742996670509387, 0.24550576789815026, 0.19818117559717763, 0.22626680722403306, 0.1986415042219431, 0.43190963193454673, -0.4560823950646266, -0.2898171870277902, -0.3456686256894044, 0.5848648770824574, -0.058988278158051195, -0.6991747360691821, 0.09231949791550532, 0.22525416440737353, 0.21031405523040628, 0.12049085672513206, -0.1274963477118087, 0.9027472688731586]}, {"neuron_units": 35, "activation": "tanh", "W": [[0.8749307782749967, 0.8772081658960604, 0.4303965536423592, 0.9549635389850457, 0.034947895699856554, 0.7727636576731518, -0.2636912271449421, -0.11684376896399153, -0.42539472237647846, 0.18494303333315606, -0.17643030410894708, -0.1767651326400063, -0.6634573336392403, -0.16190967454118843, 0.14361029398969913, 0.4502122126516894, -0.6082143246044047, -0.011735184202249378, 0.0605393260254005, -0.2917824910567962, 0.24673525301134167, 0.01014892955408374, -0.7170151591516533, -0.10306643857428484, -0.15082944179433241, -0.24341792798277484, 0.11323328030578841, -0.30748065694017673, -0.21161569657655832, 0.8646248950551371, 0.025573406837814512, -0.18956781430220826, -0.44993513443660504, 1.0640165285837926, 0.1649886951756236], [-0.6704819539594553, 0.33015264236764114, 0.09141105842961744, 0.255642114395917, -0.32236478799373913, 0.023672193090433974, -0.263305362495048, -0.1123625288945424, -0.365424238902007, -0.11518594041365389, -0.33658953547999926, -0.1406292497415811, -0.16296357616745186, -0.1489990966714368, -0.035309960881316486, 0.017602276038906548, -0.242005083866437, -0.08345092638455258, -0.018024223501531277, 0.008847226937750086, -0.6483719542327288, 0.3611327705200384, 0.24500624410090377, -0.11244113583034955, 0.163129567709103, -0.2779444901758775, -0.22747504382431144, 0.02055663927567104, -0.09623868737134968, -0.4963739347708149, -0.11239917213035423, 0.15466645485891067, -0.007703527062562327, 0.0645088667381514, 0.020329987821272447], [-0.2517855512698545, -0.09360024262328183, -0.5094167649774292, -0.2332930498846166, -0.026749385317616226, -0.11765933625577371, -0.3518702018300096, 0.4901054953289522, 0.009454967578551117, -0.07213113882959227, -0.5246411928717618, -0.2325996632102252, -0.2523785308055423, -0.06931905752248098, -0.5176207892691702, 0.6624021302770258, -0.07516786411881633, -0.18344846207725762, 0.14774845584824614, 0.31074777330776066, -0.024043180575006914, 0.3637844874607074, 0.6421493530169718, 0.06076611897599147, -0.4491918117090004, -0.2724835867416288, -0.74508784122456, 0.7634105947637548, 0.18302352455172569, 0.007236126192106545, 0.04346386887282877, 0.023334764152790646, -0.713733656474929, 0.012854054272569122, -0.025021070328864536], [-0.4299104378261327, -0.21651928055884548, -0.03744539594369006, -0.3078211352276507, -0.22198294321719614, -0.22234588890599216, -0.017666788988058044, 0.17507078154817882, -0.2862463009755905, -0.15154476087080435, -0.3147888044543204, -0.14603034984854918, 0.1478725555452484, 0.3149118565563498, -0.5726617015935347, 0.33755779228493143, -0.03244167856463251, -0.18281327234736908, -0.2799918924541149, 0.015013702901387233, 0.3669995296389281, 0.2581805143691033, 0.3068389106495188, -0.41083236164296494, -0.2522723779700839, -0.06542970085742603, -0.22049712596295112, 0.07764887456374694, -0.5414490403648763, -0.02389299412284079, -0.11338871444239325, -0.17620013757153163, -0.23608799805444555, 0.265490294516914, -0.5223955472009096], [-0.30315500808763085, -0.15592200555307084, -0.4534155688924548, -0.1831043013669652, -0.07041163665483453, 0.033397375190460314, -0.30080252358867793, 0.27334514828371276, -0.21151594468584126, 0.06811623872986881, 0.29016065809957897, 0.46107440022207596, -0.09631266449168496, 0.2070631680412675, -0.13012339414951563, 0.3849460109029873, 0.2012016433956631, -0.18490121047274016, 0.4285803506764202, -0.04702987334331609, 0.008470279630240654, 0.11374253391685225, -0.2728063637425319, -0.11956625753610922, 0.2698088364706261, 0.025811067586110896, -0.7379276375035047, 0.23836985163196114, 0.06554476973109903, 0.21033575721860331, -0.24191158639729649, -1.0972476100026538, -0.5343189905145358, 0.2991377264096813, -0.35157193118980473], [0.42884690423649174, -0.3291183797208207, 0.565110903313109, -0.264358173472903, 0.664049792779678, 0.28938721736119777, -0.09017594426844233, 0.25273103195992014, -0.1303277004748061, -0.28675999253164053, -0.44628930707112596, 0.5380040280382551, 0.4588319263008203, 0.6330127820694109, -0.3765957157755561, -0.3624465965074958, -0.36093303238574787, 0.15500141515095733, -0.49896392139212775, -0.298022111488455, -0.34551087340945147, 0.26403496086183753, 0.5036995635298812, -0.7272213361616507, -0.3504579123746349, 0.31555547740105144, -0.3527379375892477, -0.14777962829092559, 0.17115943465195027, 0.17102471371893221, 0.3060748621226517, -0.22396454397613913, 0.12267873893356482, 0.3146752984841211, 0.38364579690390044], [-0.013494153918605093, 0.28670049401333797, 0.7109840430798771, 0.294206191750642, 0.14131303253822575, 0.4837507564095282, 0.1626230390362767, -0.6893107854886773, 0.0539319594560737, -0.08285446921480143, 0.055809583053253654, 0.3479540197362783, -0.5213256826080765, 0.0045157977755115215, 0.26438855622676083, 0.3264257094946842, 0.7495840915474152, 0.23034672322840066, 0.4165901171722388, 0.5927889590098825, 0.5558481285441491, 0.11249796450272678, -0.23150112751245533, -0.4582419971436387, 0.4563621247535105, -0.03035079758437316, -0.05822623951525139, -0.3452388108159173, 0.20409020736710373, 0.5544117261864647, 0.2373853534570041, 0.7370915605668475, 0.03607679652348763, 0.20375203048012555, 0.369907907747055], [-0.09505483710164164, -0.1546543121892765, 0.8238028608780088, 0.7562382436215929, -0.07192955403338416, 0.02050005000376033, 0.15111101126935414, 0.3203083553378808, 0.2615056517274361, -0.6249464742040646, -0.2929558185121313, 0.6749541755154445, 0.3602359232165418, -0.31633045649088704, -0.37626147361752754, -0.36706199385573407, 0.2032521882944507, -0.1780498177315983, 0.5461951083332581, -0.47770030609262476, -0.28751643132105587, -0.5120672269085652, 0.3163204050510519, -0.41959794318743576, 0.18927701918151585, -0.21445797909077693, -0.08486810999716685, 0.23212569477542427, 0.1644043469672147, 0.3453018714568073, -0.4771665780678351, 0.5338462246183813, 0.5753995486427881, 0.08378925767362928, 0.2040141210371135], [0.1739258708164728, -0.08889790566823189, -0.3578103688615395, 0.7828892116284841, -0.04662832010167459, 0.03868788881572142, 0.0006010465304268833, 0.31826421103551006, 0.25031675402072284, -0.2220277339499989, 0.18519603298489107, 0.759475941531547, 0.81712807637963, 0.5995344823740231, 0.4259996511229993, 0.2060453199695586, -0.04840040138393879, -0.2532179460657495, -0.06419479627549655, -0.05347432421591933, 0.42215346813903126, 0.9744819612540674, 0.3895647685529797, 0.1637865336007353, 0.6737099289364836, -0.19059427838538395, 0.07867407593185831, 0.34162221333437753, 0.3258790594621239, 0.1746087838852294, -0.052181385620074815, 0.13378866287424074, -0.46353158679905665, 0.5357823162751559, -0.06168786387609708], [0.04075858084890476, -0.19919245820114126, 0.00950643946927376, -0.3118032427380356, 0.24415576244036205, 0.2856159765647328, -0.013038875953235825, 0.6527561145245157, 0.31720755252143756, 0.13711675352415087, 0.03237449940735851, 0.12953567232663982, -0.22838624051435288, 0.595968685029179, -0.5705536601082128, -0.06854432572206523, 0.22202520285100147, 0.32291370672026487, -0.009783476082235874, 0.01201350931772025, 0.01397444995225932, 0.25503225029139703, -0.21544239427952583, 0.27820970545836565, 0.16151422801005313, 0.34121573715159365, -0.2224435126434588, 0.17852775656192266, 0.5972862563292078, 0.24886716774850798, -0.06466653822113515, -0.1902914475210168, 0.0030351383474852573, -0.08693343962161805, 0.11337013177110399], [-0.0028442536761171663, 0.22559048517020552, 0.4727218175606586, -0.3035004291033194, -0.7398011064730987, 0.39497277997030694, 0.014048612975565788, 0.5962104374061282, 0.43664134255303355, 0.41999933650878696, -0.154872073976941, 0.09748721739343086, 0.5968333374516687, -0.22943366804459916, 0.0038347097759615367, 0.5276321086338064, 0.601109575670457, 0.35727874359516587, 0.9693371404119698, 0.42366191450965923, 0.0943750528644534, -0.13032128898318904, 0.8868101123843284, -0.35131681114352964, -0.06463812320459282, -0.6709370845584465, -0.42302101808516457, -0.2192861090104381, 0.5338441626003524, -0.07079419513339665, -0.39058544493303193, -0.8773719350887771, 0.0008021497246132332, -0.6835919323694756, -0.10393627100498412], [0.1472578757123553, 0.06785079113958621, 0.059747119910938354, -0.11592168772225979, -0.1264086211767547, -0.6723946713002915, 0.033840929141763544, 0.057479416063027325, -0.49751552714301256, -0.23867908560502318, 0.01365921686166507, 0.008083834143307737, 0.12532518182381094, 0.2613381496960283, -0.21706202215378156, -0.43815307632404626, -0.4218503744856162, 0.4425827349921595, -0.2966799630973825, -0.4791485594858027, -0.16615578146023122, -0.0848139938424585, -0.15703366096129692, -0.11973516827708748, 0.0873601874909826, -0.36759046233849857, -0.3519172976018155, -0.7068173814688661, 0.007806681626772101, -0.1831117279747022, -0.3395335254065916, 0.11405703622507563, -0.2773099903781673, -0.3049477999665697, -0.43842636110087796], [-0.3508875360616833, -0.7614176096157773, 0.6121264082785282, 0.15677962488205172, -0.3645855402728329, -0.2207391577052838, -0.3628869507653373, 0.5082679736903974, -0.26431289318549167, 0.05963501552971524, 0.47236642842980975, 0.009347251835701176, 0.27151343692664043, -0.952968684491282, -0.3350951816756926, 0.6339635331308712, 0.1404181615190918, 0.8079734958107252, -0.26052685471044656, 0.326063956988618, -0.05435633969456504, 0.15075337901051375, -0.1429347550738669, -0.7149218470772343, 0.13442313460929584, 0.353236550543521, -0.3191273267360147, -0.08323236167720385, -0.8156327565267264, 0.5189555639016105, -0.5281456844038988, -0.17449115214263153, 0.4462787329287561, 0.1003800135370406, -0.8578159582329293], [0.01981808514985159, -0.4085229336618401, -0.2638693268818531, -0.16893558017746, 0.14963321614868838, -0.2846977454199146, 0.9014230041985659, 0.08344667227176537, 0.5032482783921092, -0.05058083756147401, -0.14526973085553946, 0.18232938492653464, 0.5738293286033054, 0.36036438475330246, -0.3258296662387749, 0.8932459100598441, 0.10886733031874424, 0.38586755321146754, 0.10079636425899861, 0.2091131758702542, 0.33216046363162316, 0.3836402077963846, 0.21161982021168002, 0.019847443471180923, -0.0703894153105315, 0.8987465234161942, 0.2313574416274471, -0.18212887158194693, 0.3337400067513883, 0.5184993998289614, 0.024982428519395437, -0.1334672936185111, 0.13321617397099142, 0.08041264515138581, 0.2601437576596702], [0.2672516591159139, 0.7599961165309278, 0.16004327369494634, 0.436718367651031, 0.24501498124016846, 0.6207572559052408, 0.17796811085156594, -0.3212290044086654, -0.0316094595913214, 0.8493702033906472, 0.6836132950914671, -0.3411019157636635, 0.5418065245136579, -0.04520546298246818, 0.19320918890270924, -0.4023272828059395, 0.06586897499951448, 0.2782767116726142, -0.0421913464000318, -0.08181500015477638, -0.02097066420543606, 0.18175269903424313, 0.5195254252015605, -0.34372157595947544, 0.1421365713016597, 0.27572680826711804, 0.30287567768125284, -0.13096049614624783, 0.5468353987078184, 0.2646018604889425, 0.3060163399396877, 0.18410086750902846, 0.10375948423926601, 0.09668473023574033, -0.13947347525112613], [0.7737450824647288, 0.13693401284915527, -0.3024833751904906, -0.12143948549538375, 0.1973080079659969, -0.29138758882755933, -0.7753488644674067, 0.0906780669444188, -0.6221648040183957, -0.519429555532468, -0.16032632023251567, 0.19235147749811415, 0.38637321140411923, 0.02152957806834889, -0.677899107131942, 0.15376336450591876, -0.31332141071725744, 0.3910238350891235, -0.5140629394268615, 0.8524790797008931, -0.5425087008850183, -0.259113087221125, -0.8488893886487623, -0.4669180930140674, -0.3545768003989887, -0.27310068365157075, 0.04755893227466123, 0.8416548114920036, -0.5144530031765477, -0.17642939917435524, -0.12562250534711716, 0.1803805090271221, -0.8731938162582328, -0.3981164490625683, -0.501727149018781], [0.46269378315561865, 0.04994528565577958, 0.13991814414062204, 0.08299577126066499, -0.11443050949637877, 0.12438277130528641, 0.4796199444479007, 0.2014754545298219, -0.31659115211027805, 0.37995397368060413, -0.23011320174628408, -0.8606722793642125, 0.006337594758576803, 0.2983519525103802, 0.014180052403122211, 0.21504282333624467, 0.20449553669029974, 0.9210514542539214, 0.36444817987278794, 0.16703043286527863, -0.5594177984307444, -0.32892291867631934, -0.1182951126799185, -0.5873746992774341, -0.22948715925516042, 0.4045028880240511, -0.09967561081251605, 0.24770006970192196, 0.04388855643601457, 0.05937921150929564, 0.07601611078381737, 0.22441491954017934, 0.1667449535615657, -0.20847207018571612, 0.14264566796578207], [0.0652755247880434, 0.3562953350325925, 0.38489020585445394, 0.35186010229310516, -0.028835390420966008, 0.10007889450249446, -0.0992917199271388, -0.3423014812386841, 0.20892358348918452, -0.6318659548275215, 0.6717191712222829, 0.12316052203508698, 0.4994063282658361, 0.15393763748597772, 0.6017149628497253, 0.16403640370479003, 0.10884697930825368, -0.17044701115933625, -0.011645562866729858, 0.9674354678441537, 0.8937295804756592, -0.5693001488840974, -0.11650496328429154, 0.3497931182040756, 0.6805296251082514, 0.049192372318870636, 0.15423959616037988, -0.23878284388321563, 0.08435293593778408, -0.2640115727054037, -0.31326703288952357, 0.7933568453960926, 0.10069191530311833, 0.48960733514575905, -0.14214697497409395], [-0.28086048807440894, 0.6536305383348817, -0.018601302553513156, 0.061985069122306474, 0.1662934084769695, 0.47767910779580364, -0.707450082260057, 0.15990091312643726, -0.681618714233574, 0.2574817031209747, 0.007536462256603688, 0.23643114868675685, 0.5812631193171627, 0.5351732995945699, 0.4876828172465768, 0.14484931437931348, -0.8809811986261349, 0.26098962927568536, -0.3024761780940054, 0.3187283032018853, -0.2933175469373032, 0.4684005233834429, 0.04585282798875814, 0.20111202462323874, 0.0919173285979848, 0.07448080722408165, -0.31200598122767415, 0.3984040308287643, -0.4570399114508635, 0.22595371991117333, 0.2598443043279487, -0.1102411549172755, 0.4691260911430853, 0.4320052193013643, -0.19264248067589954], [-0.292506421944602, -0.06127881405070258, -0.19356284554893444, -0.18717514744511093, -0.37150311135986924, -0.11052453573426041, -1.0980468661391987, -0.12202607474308896, -0.31300667675418503, 0.24983222098942806, -0.1251754160174659, 0.1000767344226874, -0.06847140117480692, 0.029124214831195903, -0.020614345792610865, -0.5037457157450571, -0.34498526196538554, -0.22871841302090742, 0.15089992636202101, -0.3272517248384538, -0.13591910157580367, -0.002479968807064843, 0.17260924671119587, -0.05251489375930769, -0.30222633874844246, -0.16978647058193078, 0.05333032268002453, 0.04016100856881971, -0.3076495289280874, -0.3396649518457259, -0.1674361254105433, 0.07714352989585858, -0.17042343683762518, -0.261733301916739, -0.5015178371796615]], "B": [-0.13588719318656603, -0.027253687485951673, -0.3396956462680946, -0.18247716794385785, -0.36844119131012265, -0.025096012083185057, -0.27425118630856543, -0.3107602637847729, -0.23685423882659923, -0.24175852461416086, -0.12271680826139215, -0.20535265406422834, -0.19781506819285202, 0.062058510312754625, 0.10643869171777419, -0.04927189979464359, -0.1643419872712297, -0.2887706174267313, -0.1958392675888833, -0.15331677122737133, 0.04859916104584677, 0.2533235996301964, 0.08270245894619951, -0.1786709516842446, -0.16552746735893595, -0.05612250988669148, -0.5719911148931297, -0.3011833270762296, -0.11708669351777179, -0.364106765549227, -0.29328521668548535, -0.0033970465450912, -0.10101170478707952, -0.2447613664549157, 0.0017464289210783418]}], "mae": 2.2509569819394954}