{"name": "ej1b_25000_100_50.0_smol", "layers": [{"neuron_units": 20, "activation": "tanh", "W": [[-0.11741132891474879, 0.49778352131472525, -0.2376619312391166, -0.2074524811635822, 0.008615459623842572, 0.0710053175251951, 0.15451768980829345, 0.09329269479247977, 0.034121430916949774, 0.2869762553510609, -0.36054464761187205, -0.031448988213899305, -0.15034252980546314, 0.22628661392965033, 0.37988705863052774, -0.29429403912221974, -0.16497079978548831, -0.07806024613404325, 0.034092998446700176, 0.16810599821657723], [0.18876265791462066, -0.17345566118290542, 0.015309585011871744, 0.2818685953644264, -0.04706843453261514, -0.15730698201453092, -0.17006404007011328, 0.33421651118918855, 0.04790388713773719, -0.3540343835834512, -0.3132277876795324, -0.028116167494676894, 0.18343314702953556, -0.12199519683112856, 0.2700964752438748, -0.05926329486473588, 0.06407854998634228, -0.0038859644664939338, -0.024558930173366945, -0.14563766922262486], [-0.22208657317711625, -0.3167675433892103, 0.14236699799913372, 0.07750037109809076, 0.07612886050302334, -0.17938724092580827, 0.4133216238900762, -0.045286195176795725, -0.19286769463364037, -0.02914558279338631, 0.08095175167077884, 0.18605032908742708, 0.06130787030851906, 0.2274822585285891, 0.02681139233720703, -0.06547399791870971, 0.12292181006810145, -0.18818718091694833, -0.17863260084736146, 0.28183440927346237], [-0.3148878239488876, 0.17152587364410019, 0.13719163856311217, -0.06423019926884231, -0.37297741085858543, 0.2503721070169769, 0.054126030428264915, 0.46423877775706035, 0.09718493601734131, 0.1986111991911204, -0.09878550819936248, 0.062616595681933, 0.2851582290333419, 0.09038186948827166, 0.19481107283376492, -0.2808733083114099, 0.06504397361865512, -0.3002728078945447, -0.2066928612479872, 0.05515722782589557], [-0.02105886540692726, 0.031955150220979965, -0.038639194768231896, 0.2041102788552332, 0.024993334259576415, 0.011530248328056459, -0.29974899418981993, -0.20026176929887726, -0.03782453447470862, -0.1443229958269672, -0.12353635332497248, 0.16143455778342744, -0.122615097723607, -0.09712804624738391, -0.10423452800569442, -0.4775696725860056, 0.27822046036883047, -0.10648208296488575, -0.260879086291559, -0.34114291106785694], [0.18101872587913412, 0.2471956058055964, -0.09069231756298533, 0.22276862523880184, -0.375382238014342, -0.09060613967328289, 0.4916281055596371, 0.04352663067931222, -0.027844096412355655, -0.06426065746615477, 0.18717028856691806, -0.2787673057997628, 0.1034548501856567, 0.16225134001442845, 0.12349913681408237, 0.37589925051762035, 0.07417297468394685, 0.14957973616378217, -0.2341089166161184, -0.3441671025035186], [-0.09010654283787761, -0.01519771712302888, -0.07440962724747115, -0.10357499884748896, -0.2621393897044793, 0.18204736927562692, -0.20793976720493434, -0.35112778300266795, 0.33737152530649905, -0.15258763838000952, 0.10551470879894548, 0.11420505343673196, -0.06571375922851493, 0.26046736715331137, -0.11149710759252544, -0.044242358442705104, -0.1416922287031657, -0.16443125901477934, 0.22015248435446197, -0.18390083948042207], [0.21032602783665533, 0.14051339341065397, -0.05016692205520005, -0.06939040994154462, -0.20681467549955312, 0.08415994811111413, -0.17672050064129327, 0.17647525949841622, -0.06899397450141365, -0.046029850152354106, -0.19142747609343863, 0.09731428304919108, 0.2563732457133186, -0.06175757766673177, -0.04891217600183158, -0.018103182580298, -0.08075027814526269, -0.1774794506018298, -0.09862261970619082, -0.11774002991211648], [-0.33685720618352283, -0.2114108170960126, 0.06865755921095801, 0.09379744118243263, -0.3899117012765007, -0.19276874090880303, -0.4240865571197976, -0.13845323407399282, 0.25185212570236837, -0.04422682969863171, 0.18699070013636093, 0.06692887994770705, -0.175520278089553, -0.1497799346498089, 0.10916879923855234, 0.08564884833940274, -0.21177435950338772, -0.024899234485092007, -0.04647237580560801, -0.02625282400910765], [0.20810887034134146, -0.167040400252954, -0.009399815614114878, -0.011568021841941936, -0.001803605859453679, 0.25574179046602774, -0.07895785242408068, 0.18938392963032938, 0.17987168814644924, 0.2609170083025793, 0.2790634430989831, -0.13354830979121324, -0.14854181458259708, 0.3086737235297103, 0.05171204532690016, 0.02025404950330916, 0.15904529619867694, 0.015832884920777723, 0.29317538875361965, 0.25475142980843174], [-0.17377857477850456, 0.029869969929434106, 0.08042878810460083, -0.06453795617722367, -0.3570869093645838, -0.24653318685210995, -0.26506344420957073, -0.07710682748356959, 0.06917225716783212, -0.1645496477511565, 0.5397562725523164, -0.011410496604170286, -0.039200709280847214, -0.06464210627301478, 0.4537588458442481, -5.6357065301518156e-05, -0.0037540220966394474, -0.2685970987286368, 0.004984151752722065, -0.43487790648891606], [0.023077710871486037, 0.23752744479125296, -0.34550720554379816, 0.058699330326423764, 0.12613305704252062, 0.08762601620735586, -0.25512849551628347, -0.10687945769629198, 0.37657993128393397, -0.06015658499419227, -0.06514458676061853, 0.06683339764316547, -0.4110085599261139, -0.1034503492265869, 0.12031311921246314, -0.174040559432447, -0.07731639265991384, -0.10537975863015656, -0.16854448725458862, -0.0035269845000984092], [0.14660778190789037, 0.368069784459336, -0.08270507456536666, 0.22273511190154463, 0.3604079533651457, 0.20406926846371776, 0.11950452883246254, 0.4428627379142613, -0.2809816294716278, 0.33115820131380413, 0.1311761990533012, 0.009090248163585057, -0.045229897432649276, -0.009024596781644469, 0.024356266699300036, 0.008496616725792255, -0.2382593054184369, -0.3951003484933293, 0.04821420280940539, -0.10985416483155878], [-0.17233612279101196, 0.22824593670372983, 0.42671044523252166, 0.24573152312725302, 0.24058228178143748, 0.2849388984093331, -0.04431224753806468, 0.21485022546731833, -0.1596346144346668, 0.05251926908218178, 0.14737030346093305, -0.17755959966307494, -0.01933656086988814, -0.06619530390208095, 0.3009069765708965, 0.049143562485519904, 0.04191009513065962, -0.06512755099459504, 0.2787357806070954, 0.02523417147313967], [0.14728528370762153, 0.13354338020351317, -0.09696604663498448, 0.05917804253558246, 0.29100062441237096, 0.09185244873909436, -0.15177714564966577, -0.23402235237131616, 0.004765535026100399, 0.22702054799194438, 0.08025284208026676, 0.09726623307212945, 0.06660320770112245, 0.19532908837167398, -0.15971450179539207, 0.21912776572389364, -0.1569435689265002, -0.06270151980459346, -0.35272753659476863, -0.28427500885346524], [-0.018989494666412993, 0.1464287709487709, 0.015031811851739798, 0.10515968278589669, -0.25123791293100045, -0.06084244396685057, -0.3727201063396554, -0.014878924885671028, -0.11081188817834269, -0.03644050651935485, 0.04061133001584116, 0.012538058781081126, -0.4353432104082668, -0.0055375835682031915, 0.35748815620938634, -0.0016368693764621824, 0.029272216980373873, -0.1339579998956837, -0.03218700406620859, 0.21307536446568703], [0.037523766152209266, -0.20004738177327008, -0.1004711995693267, 0.13952383604840182, -0.09359379614143264, -0.17622247889414444, 0.0505223752546419, -0.01637785140769924, 0.27875300569497286, -0.2360450435032514, 0.16222076454852152, 0.01652794269410939, 0.07640570497188309, 0.08544065559555569, 0.07345004083864662, -0.19389099237382854, 0.020262897771981276, 0.020854664416278028, 0.02282360312472456, -0.12854819505160023], [-0.305505718164774, -0.029369695570583006, -0.3384191538392869, 0.25621712541140806, -0.020171612370947882, 0.34568574042365025, -0.13541943565310496, -0.26948767690212616, 0.18940889464070973, 0.09272278896754071, 0.31649291279016045, -0.1380542850347042, -0.18947083403421908, 0.1396195663421708, -0.034492569946480436, -0.1805221757843142, 0.2644028615695742, -0.3275399715517883, -0.054658173634023526, 0.06064668936620615], [-0.0971171471409966, 0.26584024596388595, -0.2568334959693992, -0.028312483980282542, -0.3070500798111381, 0.001345075642906278, -0.05649255278786745, -0.10632967018961806, -0.18666396306903346, 0.23970996308760292, -0.08069844398893052, 0.1280998381227494, 0.28153159368600256, -0.25068159596739104, -0.16320955615763624, 0.2513308725347683, 0.2032971792857554, 0.08007670773481149, 0.06724628575003813, 0.24785383128180713], [-0.06290075690204057, -0.14577316985201963, -0.00282825436628717, 0.03963309077608848, -0.17006169330755355, -0.08227875544878055, -0.021227021626980352, -0.05799999837163395, -0.27708453505916075, 0.3722489982404027, -0.23771087551501774, -0.25849206241081807, -0.030890147042371505, 0.07500862141101114, -0.14981017807638353, 0.10361425011007304, 0.14212023546380667, 0.0399512175826258, 0.13211987229702343, -0.08311126559578273], [-0.31878310763626166, -0.03468982752647654, 0.1376449764293178, -0.3346179606863757, 0.012139597541463452, 0.07688575822794584, 0.20214714591917096, -0.106739801888702, 0.043954030291826575, 0.13764092564771965, 0.17339601885624184, -0.254107976757281, -0.32401813497957443, -0.025437342398898832, 0.33044779363090215, 0.28667331355111925, 0.09325668985401363, -0.0882777645559322, 0.15214228972537885, 0.20860771391702018], [0.11049663053791242, 0.05400266492037418, -0.1947995048361879, 0.07632845370980601, 0.18877287975565415, 0.11743285820086369, -0.3059406298442918, 0.0157448310784436, 0.12304469593955542, 0.19473364064267937, -0.06218490647320073, 0.21379521334725715, -0.11948730816123995, -0.06440912251488079, -0.003645653711498066, 0.01444155597425138, -0.17106466621790248, 0.07719719539081177, -0.35919669869868304, 0.007748446356765414], [0.4215611535713856, 0.11282036633973577, 0.10382968749100996, -0.2991163423472805, -0.25516031017361807, 0.18178470805924468, -0.045151237958617994, 0.021114653655333347, -0.20645738342499298, -0.049891233095197225, 0.029989901450145046, 0.07518735907918699, 0.21980707623606335, 0.3870116198288049, 0.027635031625032377, 0.46220480321788365, -0.13160151566076908, -0.27717741870486584, 0.3001754095652145, 0.016446054012840366], [0.02593442233763806, 0.40896484602219807, 0.08526209730432702, -0.1993734595828261, -0.3568046004654861, 0.4236694049397304, 0.27531744602902825, 0.17626546831407355, 0.0925323189042497, -0.04236500291092131, 0.07430097719837014, -0.44206690845497093, 0.06702150523043902, -0.35344937422531997, 0.29984620025790754, -0.1738159204412999, -0.07863274434490342, -0.11491033534202011, 0.09685869022608087, -0.032935167024215756], [-0.2288985671433653, 0.09812595763743624, -0.01993879840354987, -0.14182114377580687, -0.15967966428239883, 0.05990939260977569, -0.1879795876283087, -0.20293361655733982, -0.20835276216495108, -0.0780389719771722, -0.0437219009835843, 0.06972457299137895, -0.033484674083278765, 0.05453164652289847, 0.08862108609195117, 0.1710774872583438, -0.19540632085166712, 0.12219835008936561, -0.26299674484942775, 0.03449393019240887], [0.24530627076467923, 0.08268067695407047, -0.08751496123606975, -0.31882830037733495, -0.02770901565155067, 0.15444398677788893, -0.43655877946201016, 0.08654503548692974, -0.017043946254790946, -0.17296282304897875, -0.057323795231896374, 0.2500586513513775, -0.33175165302257853, 0.2009688440851342, 0.06439187683426204, 0.15248380177425525, 0.04047559284387342, 0.30159141555113705, 0.4450548391868504, -0.1675153742504236], [0.21984337805544216, 0.0771657981378139, -0.13101052361713744, -0.497703211633591, 0.06940826451378092, 0.5070303600135366, -0.039527617924682734, 0.07541826062949081, 0.27286485874363453, -0.11003933708318417, -0.2233221748171525, -0.06203228229577629, -0.09439425831532972, 0.29628800221909163, 0.234443017361141, -0.2729688047571358, 0.2895809491800993, -0.12457703322078922, 0.03456855724490198, 0.17555836267122746], [-0.19027190524938906, -0.2217409420891663, -0.009773714958883363, -0.1679885961149207, 0.024278868172540404, 0.16592075884827992, 0.38818707173004224, -0.053804702185035795, -0.08380059766298373, 0.14190424322031786, 0.4414569911893722, 0.26328672910314543, 0.10171954240141053, -0.15790304861177057, 0.03180869010602404, -0.15779843585358735, -0.26283272819397674, -0.0023308991394589574, 0.07624997151593557, 0.11564163780645047], [-0.08797968595521008, 0.3229959679969464, -0.1931528032614753, 0.10209607869520411, -0.07872376349643995, -0.2665042325617309, 0.21068859091159736, -0.454756312844184, 0.3584383894859223, 0.0366787257726793, -0.11476707732828588, 0.017280900390608693, -0.06675361038429753, -0.06991146827181133, 0.24757038991863342, 0.2716344621517673, -0.13718395066397782, -0.06256186311682044, 0.0896724901563433, -0.19347164895833935], [0.12830039755498576, 0.2292521747062582, 0.22199031877600103, 0.021512045739803677, 0.0015703178620163905, 0.1448970256230537, -0.18198591196928626, -0.051303869247953514, 0.13702311972368422, 0.29231293305797956, 0.15936777308552932, -0.026121278020080248, 0.05062282807481562, 0.23964160051406824, 0.1401269134906915, 0.01455727034158417, -0.10505966110972749, 0.2845711296497321, -0.127299812782148, 0.27352830336245526], [0.022752440302042463, 0.34355178020038885, 0.24686605133929843, 0.29002932365111644, -0.4602579467848758, 0.09088551097620338, 0.054233215721106856, 0.013453806949706337, -0.0836335074611386, 0.23102805587986142, -0.3533873281745509, 0.22357983361575856, 0.08921538050240653, 0.08159307591938857, -0.01664116069281925, -0.18553668197884848, 0.3515941304479832, -0.09810287336554013, 0.07335338994707466, -0.22010677182602686], [-0.2678306170662631, -0.19226654055961298, 0.42383063654996994, -0.08865894446560717, -0.27407099202419155, -0.007024439848436977, -0.06079313464599171, 0.20379943812119258, -0.12569777389979142, -0.016044446862246795, 0.02556176836885418, 0.023587925355474628, 0.09750823973417741, 0.05935336283366941, -0.07850224743327178, 0.11828038380007605, 0.07475065309705191, -0.14814613985866898, 0.26635260886667667, -0.3994993987010101], [-0.17923755059010985, -0.09150021828574662, -0.07643265460367674, -0.06327522268974865, 0.08427969742215563, 0.13974758662592648, 0.0751129578859813, 0.24132262299901996, -0.07071031386654272, 0.06511933512544636, 0.19627241790988476, 0.266604707720603, -0.16683706598382447, -0.39399384886244987, 0.12841703868509666, 0.031396477432718575, 0.2864600811094845, 0.0792830915965222, -0.24471317646893384, -0.05542171981480368], [0.0032575412352775597, 0.03874604160673166, -0.2238162135789343, 0.04240547796723103, 0.01796655716006609, -0.3030582080752547, -0.21177755739913817, 0.38320499226604926, -0.01943089290450812, -0.240431256945093, 0.31097521712648857, 0.15105039782782384, 0.11427038789114742, 0.18847767622032968, 0.07502280241063178, 0.14486235585275226, -0.008621338893121609, 0.20967000239152123, -0.2319780495767074, -0.06161382466380904], [0.18096132490742273, -0.2514439208313627, 0.16441006480602144, 0.11171437551544035, -0.16750332497161596, 0.14642077841258022, 0.004342401239158204, 0.09053017316275387, 0.16725402009823856, 0.2673130419513458, 0.030757041142231774, 0.15270537994592953, -0.006909455424547221, 0.20957862750386977, -0.0635091239963815, -0.00943970611631136, -0.1658411206917785, 0.19271110065892263, -0.03659794076071684, -0.19720188537361308]], "B": [0.09769483200840444, -0.17458112185835636, 0.1584011668300047, 0.056376067101286814, 0.04745774622466512, -0.06453789722584996, -0.034993440304464184, -0.15613019646434925, 0.09452096049893227, -0.11893787429052317, 0.0900942562736473, -0.08064713384171977, 0.32755612958378194, -0.11925901641337287, 0.1287890979680645, -0.03316136733927168, 0.385832200296861, 0.17746881485348817, -0.05131216497815285, -0.06267554232831754]}, {"neuron_units": 15, "activation": "tanh", "W": [[-0.10785991210732221, 0.23974021537891355, -0.1282448700999401, -0.3704123353240074, 0.5171308624936807, -0.20855930530472963, -0.3135641624472456, -0.00961048173017596, -0.2256217033362114, -0.2513263793935167, -0.10927871696782679, 0.18485812305439603, 0.5623475123935487, -0.24922338911363418, 0.04119397871340201], [-0.26866942595483306, 0.04626978484724463, 0.1757355032002688, 0.09046955378202462, 0.24201641991738126, 0.16113061965452852, 0.05354442978311237, -0.024116745657055846, -0.025693116100183128, -0.2635586315418097, -0.5043942635741427, -0.20969283409182463, -0.137440287608124, -0.2065999207403898, -0.009345404369090947], [-0.12302891738915991, -0.2666467685145873, -0.08955634368834753, 0.40575308960682377, 0.5004469517009809, -0.11507254864523148, -0.3298746315250608, 0.1431651618620509, 0.14328919908662938, -0.007053296875400903, -0.48826108588865, -0.13610154149608505, 0.13779002680394953, 0.03527857503763126, 0.3404739956717952], [-0.17077749584829924, -0.05584490261873195, 0.07902485565832042, -0.33760076154359125, -0.11463738870119779, 0.2122513915640709, 0.35648631971843053, 0.2891057612275925, -0.3038921966700531, 0.07516392919447246, -0.4564236781253601, 0.2954473451026551, 0.09146304326653329, -0.42624360117060794, 0.1179643787554444], [0.1896710438675862, -0.605568392169473, 0.30718652349320813, -0.28468985800222446, -0.005446670249565069, 0.33983903240717217, 0.0016334334119569053, 0.013261989154246123, -0.39644221384020545, 0.38927687850449766, -0.08668089599704278, 0.4525479677391983, -0.12677122680342282, -0.19108415300672787, 0.20956998884611205], [0.16197796682395407, 0.26432921538358983, 0.14389610467073713, -0.09685238537017604, 0.3675125625085432, 0.10317074445149617, -0.5052375865678358, 0.2633273522575904, -0.258552479167497, -0.34969071778491717, 0.2341369484147982, 0.34338976395912396, -0.3448402831131665, -0.3830126219345545, 0.16840455774792848], [-0.16374223441574093, -0.18609847417306483, 0.4158450939204093, -0.04348516223800791, -0.0920449773098087, 0.09091287781039434, 0.12477850401530766, 0.5455624246512993, 0.35347609371042843, 0.04262325743087008, 0.18674920294095818, 0.7155924389661888, -0.11481428281605477, -0.16029363476556696, 0.07393535275562911], [-0.2156073833126269, 0.13947289658629847, -0.27074177578434305, 0.01622684494648829, -0.18053035642247145, 0.27163837288781173, -0.4484157302680343, -0.14172768436579708, 0.28319178542796136, -0.17623760434726052, 0.12017532283418865, 0.71560691678824, -0.4620183976254536, 0.3388317090168413, -0.476348366304879], [-0.09197758882639787, 0.08540951150138842, -0.0017193072299577189, -0.17694865123095802, -0.24704809056707933, 0.3697608227361133, 0.5667091093634586, 0.15199771555753722, 0.017285697220164046, -0.06723752660398839, -0.047122797310832035, 0.35324718823460777, 0.06751576232655497, -0.2164242821249829, 0.06721688458319804], [-0.05169760550324569, -0.013773783933788135, -0.3198553436767001, -0.08786258941058828, -0.31598850265218426, -0.012298368346175245, -0.20162593807638035, -0.116185855088644, -0.1245146647831351, 0.26016363286722805, 0.18829047263277912, -0.020330575467759446, -0.3718094200934184, 0.015102157614018773, 0.1380910649793617], [-0.3115661109763897, 0.09157032887292395, 0.12773513542920453, -0.3057515379419573, -0.08506109773318475, 0.21395897865199437, -0.08989001831335182, -0.27669557644412907, 0.1881753278596352, 0.35739080146433333, 0.11159341353581659, -0.26677564185745656, -0.17989787375197974, -0.05235079495231511, 0.35556648467168955], [-0.3364898408961941, -0.04060347037423238, -0.3323953503316144, -0.17382551070920707, -0.18230038998552295, -0.3210814956221069, 0.18636798890119838, -0.310553141901212, 0.2774304651676111, 0.5797505120166163, 0.09272312684513698, 0.4760873775706127, 0.45980270240206794, -0.30931164852173165, 0.14922518130179166], [-0.049895280616767596, 0.6280239168385989, 0.16380693519307693, 0.17401590992307459, 0.536521334993604, -0.07803604869253652, -0.07549026599781192, 0.29234538952239647, -0.130892010738945, -0.23387230968428066, 0.0923811952135118, -0.053493056427208724, 0.010477580017403518, 0.20768409099248752, -0.11352895385428383], [-0.022691960589518893, 0.3534012951545925, -0.4990973056730538, -0.16321460767449553, -0.020384797133656846, -0.03161926257042581, -0.08429183509602009, 0.010876777321327922, 0.5415220396488241, 0.09448931084431698, -0.23301205384317522, 0.027659788042757424, -0.0840157967521107, 0.1781876813155189, 0.3958991999230118], [-0.1611625171592008, 0.15399045887358373, 0.05149075529108404, -0.22741542378101728, -0.49246720077598866, 0.16760576217087722, 0.07580135479715246, -0.0201970997010701, -0.5354602117232031, 0.32722723781266827, -0.3537294903012374, -0.40610728895836345, -0.23389711244369743, -0.02081209729528467, -0.03391263871115172], [-0.5709283477493327, -0.25285634439656834, -0.19326293919743273, 0.09016693565397126, 0.3517147390087683, -0.04014696555250537, 0.011287756337581096, -0.09558447357001126, -0.20686070195948883, -0.37003339149052084, 0.1955827571958636, -0.20260828036210013, 0.08813767373099268, -0.4558608375228478, -0.1028039638799212], [-0.13113556119658315, -0.37577257050853036, -0.30284135666538575, -0.23436698697021818, 0.0030751816293654406, 0.5628185473024968, -0.3785328631028026, -0.5633563664116966, -0.33353741674296933, 0.21620734151572066, 0.20100976940180423, -0.07788672856457589, -0.03137636816497737, 0.18715018510798578, 0.7777895579162949], [0.16464996828129233, -0.626483376610258, -0.4738941111365173, -0.11398738165551234, -0.04156905255061975, 0.23966683341190206, 0.21542748565783654, 0.1547522836447615, 0.050544507970249154, -0.18315733002356172, 0.056890988898410544, 0.30126611292159133, 0.191680470309683, 0.26479098107696525, -0.02965247356666246], [0.28962643421370193, 0.403509283172318, 0.19200853518474317, -0.10909426596354138, 0.11866794004731426, 0.3684382528572323, -0.16133233560736035, 0.31365665057224346, 0.3560058958736493, -0.3619316620005342, 0.027839275547392003, 0.0981775058463803, 0.33538876879909074, -0.5659610090850541, -0.5055267683226864], [-0.06842057441022771, -0.24770621121785857, 0.11657690969823903, 0.23544018241996004, -0.8434563833157899, -0.15517534376331585, -0.28949282422576617, -0.40968298421537647, -0.37319402860134204, 0.35089000063514764, 0.4293300635732052, -0.3210082949513701, 0.11320333260509485, -0.17988536135609764, 0.17125308470480055]], "B": [-0.20993991345699767, -0.04489403388246801, 0.0024301266649724993, 0.2599292046241461, 0.025848126726625478, 0.3977644611797266, -0.23563047067243156, 0.43314036360320796, 0.0971810609294244, 0.21356949737184353, 0.01491452829447667, -0.37554258386761485, -0.09685821420009326, -0.07088161629927137, -0.013493020221219856]}, {"neuron_units": 20, "activation": "tanh", "W": [[-0.08434475331257552, -0.4387603311785622, 0.3713236287544066, 0.7361066982084337, 0.8305496565266297, 0.2484951112556959, -0.18470417709120512, 0.02241758121642497, -0.4171283977957097, 0.0513460714036111, -0.17956139735685997, 0.0519082382046093, 0.38902178563738793, -0.5761180719032067, -0.08863480834960523, -0.2086397212511653, -0.13058809565853896, -0.021197169945509454, -0.16573546312739185, -0.26488000072323714], [-0.43595299432023216, 0.39582823780890625, -0.007929481145553507, -0.2872314073052039, 0.10787610932529701, 0.0522989122401914, -0.6844231145982566, -0.188944370544712, -0.05158646305400242, 0.06102393526135408, 0.23666380485857266, 0.10864890223664105, -0.23462686902964836, 0.3792117942818745, 0.02873282972113442, 0.12469444383184758, -0.36053707462343626, 0.23151755934075807, -0.17146366401815655, -0.13966388942671806], [0.0790061786499775, 0.18748307817685456, 0.12633484392907646, -0.22965109625708896, 0.6145934341421893, 0.768434288750212, -0.5740675355475602, -0.06707747668141033, -0.011133094458538858, 0.14531482486808792, 0.17275756885404617, 0.42220529766404913, 0.11283875123668734, 0.18401663257297063, -0.008170281642659868, -0.7579973491933414, -0.5096412502507881, 0.1564396619479064, 0.018485328360027187, -0.15844847243746465], [0.5845111802595981, -0.03664894728024391, 0.7696188711054832, 0.011634905938668822, -0.410410186309303, 0.08549468823140059, -0.42226355236865265, -0.43331699448254024, -0.19268418610664298, 0.6241578667703662, -0.29074052329318556, 0.48159534759190886, -0.5253867753598129, -0.03667430001207218, -0.35934890269990244, -0.10405462765718106, 0.10850938133457329, 0.4952709192839447, -0.2761003969057446, 0.007915631135116537], [0.002848607580275347, -0.3609292616637848, -0.1773794110868749, -0.04287530431332786, 0.25965143829508935, -0.12887457563477162, -0.07451039689055425, 0.2543440783375403, 0.11863821185343873, 0.0990694389909545, 0.21454870388788086, -0.14369667977365652, -0.42460722684523644, -0.3402446954361318, -0.7731049495963479, -0.4229407107024796, 0.5474507747150549, -0.1543038826996605, -0.41068731237235223, 0.19556000864769837], [0.011606104975020105, -0.1378117331161492, -0.12603847792897846, -0.12122954406959881, -0.010963913388637656, -0.1282971020285751, -0.2261382798813576, 0.39977167334306424, 0.2717742771954396, -0.4299922231024243, -0.7042058669774584, 0.2078652976280797, -0.019775121904893264, 0.10243791202957894, -0.30116717069372023, -0.40536742195464576, -0.5343015947526236, 0.0934276372929439, 0.39614865622853634, -0.37363910481917867], [0.07013897392486462, 0.10125559045295554, -0.9388464035675853, -0.024840676617514622, -0.060524620181900086, -0.15757517008433888, 0.544489062823867, -0.514749021828057, -0.001471853568622555, 0.27647360085047584, -0.10990211265924414, -0.30584030256240496, 0.06422271914767345, -0.0030052344961837454, -0.23696913295505323, 0.33968736359818796, -0.14917760685677747, -0.09028719373985536, -0.6081120791903843, -0.3016148578305133], [0.090897277626959, -0.11549913673344338, 0.07460035169213178, -0.01804190978848703, -0.10351854799455996, 0.49378365087266224, -0.3739262074302373, -0.26843006424704496, -0.12613990332263295, -0.21081410605817594, -0.27627537673865693, -0.17046037428672922, 0.2090898399222829, -0.5054389946782117, 0.031350975667536515, -0.09432846042897727, -0.006186887611279333, 0.17979504407960506, 0.2956286574090526, 0.38063423048537437], [-0.1347129625996083, 0.05430907940131432, -0.13767954751441164, 0.07488842983826187, -0.04810732222152448, -0.22984779668113553, -0.3612036696335977, -0.7453838573545982, 0.14034830417644975, -0.5962396046906829, 0.2576457313493876, -0.008289610897526575, -0.1151198228254524, -0.18987105348188899, -0.49887407043642445, -0.0282726026379342, 0.5010322483482329, 0.7139757795336521, 0.05726180849175078, -0.2609200592103516], [0.1298248721047162, -0.25771952362434514, 0.24246892333876208, -0.21086738374048875, 0.060145793855200934, -0.021495339655497596, 0.019377719371940792, -0.2336114460421722, -0.15694045952042746, -0.10296420494044459, -0.3709133776861773, -0.22812256274763712, 0.24691417176584193, 0.213636837247977, -0.06078508805407704, -0.2968635154840098, 0.0808162005107318, 0.06082007683048949, -1.351905361950105, -0.12830343624425475], [0.33258225711860606, 0.18193787023766367, 0.014191270669881977, 0.3362303463046258, 0.18046196737603964, -0.09698601837895492, 0.400300593356599, 0.3379693057914425, 0.22061055315565933, -0.3285918322195787, 0.2856914001198585, 0.43531717789205693, -0.4731619316968981, -0.17177468917394537, -0.23056924217648858, -0.5560663363853561, -0.23910919821156484, -0.005620835146883477, -0.06526564312432662, -0.7242459097787011], [-0.32486125499072266, -0.02809595213937446, 0.4504597199990639, -0.5087589638989183, 0.49314756317999947, 0.0633101992938965, 0.34188888528114064, -0.031231448016941422, 0.2988940925826056, 0.17219335770774988, 0.5718122191958227, -0.19756615986430276, 0.39878339969692456, -0.3334698226566835, 0.05100480800311826, -0.06058662211221461, -0.2741949906067598, 0.591041977254163, -0.004773106386214834, 0.43604163654882633], [0.2792507540151357, -0.21532992565500514, 0.09103028620449191, 0.632809663007457, 0.08963333950238907, -0.46706890306173604, 0.06537435048045337, 0.3245893668815102, -0.576650932034505, -0.3954595032134388, 0.3181894999607843, 0.19131758441721494, -0.3536323669441971, -0.2799688874585018, 0.09215489340973161, -0.11148161050461465, 0.1934243340434524, -0.05982290182714874, -0.2707529351450488, 0.3165201503014519], [0.6078022808965606, -0.7769764771369377, 0.31531546371627067, -0.04445011201959328, -0.43303561510505834, 0.10692679773705682, -0.21213943711050756, 0.10048679603581136, 0.2878866251248095, -0.2124573161929012, 0.033718011205634404, -0.11096099908652046, 0.633514952656175, 0.10446587729293767, -0.3281549589487615, 0.13646673754632035, -0.16377685703178022, 0.12886196409475512, -0.08823689283475349, 0.5538237427351821], [-0.3096907782191703, -0.30589707078954503, 0.3591072841584688, 0.16235040156416464, 0.019794524846412743, -0.07796927314352839, -0.11206448077093789, -0.11917940563522161, 0.704200662264326, 0.020910642851890492, 0.05170958333923239, 0.22469701138787826, -0.09915336774916583, 0.05903437721847007, -0.5725469346982759, -0.07206126836113988, 0.7130350980150137, -0.2725799616954745, 0.24958669332710445, -0.4430172379800411]], "B": [-0.5282508033798752, 0.13736340682041256, -0.10560202125382545, -0.5584524194304913, 0.1987839258240699, 0.3134527564581525, 0.4811308429094246, -0.1537173300117049, -0.48029478307131634, 0.32420401807268223, 0.5619243599268164, 0.47150440565990814, -0.0036963324443619796, 0.0477872994921624, 0.17666782438652684, 0.2924040636596996, 0.36394501215945285, -0.14350582167902617, 0.08426309880180033, -0.4575598202405958]}, {"neuron_units": 35, "activation": "tanh", "W": [[-0.06722137629548233, 0.14429906276876286, 0.016205961534169477, 0.2675575676755809, -0.40423828235599973, -0.43072030700138997, -0.6514910343378435, 0.05277970209090545, -0.04032218441067321, -0.4594258072139281, 0.034590148310889565, -0.22485137269752167, -0.45184969015991217, -0.35819394602461635, -0.1832805931253025, 0.1569735987098261, -0.15476437015008515, -0.4745582547827581, 0.24354143058679004, -0.37095287205643834, 0.2263801462864345, -0.7849959143409648, -0.04853938466345417, 0.1731683329775432, 0.23439604059966357, -0.513187783216943, -0.3595764103829385, -0.1801681917876252, -0.3125371773274885, -0.09386448414906805, -0.4691194371532835, 0.3839151296799869, -0.15163747020273952, -0.12579563891001466, 0.024784567814733174], [-0.2708848766968545, -0.16987489109623186, 0.24498004373183185, -0.4186014103513542, -0.061364397664597004, -0.006373228035690091, 0.5520555685345758, 0.4136247514905657, 0.392301240223561, 0.062089428201463855, 0.13971300399123635, 0.8037828965996057, 0.7857522388499163, -0.29072599207211064, 0.06489054761430896, 0.3756373860738353, 0.18411572774343393, -0.11217906769161465, 0.1607309193389531, 0.05048769997974343, 0.4094994801027194, 0.08648458126084482, 1.1604856714415193, 0.41911181097332195, 0.2055964074799989, 0.15534740359340488, -0.0850001268101182, 0.690287350346783, 0.16534159372346033, 0.11902574673430874, 0.02288997294143582, 0.11556027875716819, 0.03278049238336916, -0.20908940079423635, 0.19753051059978413], [-0.32745550675511054, -0.17065996969685684, 0.1375036805796628, 0.2697978418453633, 0.04258983476303638, -0.18639280186783166, -0.17830488232848096, 0.03990468942416462, -0.5655731271422764, -0.43269566450810165, -0.1382957509008123, -0.32748534990300465, 0.2052838038261675, -0.06989771672837691, -0.10125947560589788, 0.16583508872182157, -0.18947418494464396, 0.06829894306531889, -0.5373778220995344, -0.26127702152499094, -0.019679750861260278, 0.056608686625079965, 0.04601948547211303, -0.266656426498165, -0.06918359942999139, -0.06832014571950745, -0.2065702538743299, 0.3033812769703284, -1.0037571027851595, -0.004757111878059041, -0.04773082029799438, 0.2646208512725866, -0.21787971477088344, 0.20810593254460905, -0.3166736275897462], [-0.2426673955746054, -0.22495283959809576, -0.5156637147771601, -0.48118355587259076, 0.12172360854571974, -0.6364716299602484, 0.32788232288226704, -0.2816646016936285, 0.031324884466665336, -0.14771110275463273, -0.27265464912836423, -0.019080203864229848, -0.6349275614819718, -0.2815843805444067, -0.43909378690058376, 0.5844833095107995, 0.5869129487585739, -0.7336383520697939, 0.30257934705564904, -0.10510760951706423, 0.07535246133041347, -0.5445266177203948, -0.3332930215943887, -0.3350372838498638, -0.10058890599955243, -0.041602334027235996, 0.21900784017752584, 0.14353869796499694, -0.14904936987028009, -0.17427951309194986, 0.3319126380042665, 0.16030572831551415, -0.410607513117819, -0.8808485969666412, 0.39308951644951534], [0.2854310822426811, -0.6089093041324916, -0.11656812896256244, -0.5543869455206779, 0.27025482985842575, -0.3931097082389723, -0.04803912889918812, 0.6122892496680128, 0.042935555551953435, 0.19209598056845595, -0.19165714939069448, -0.40014953827758043, -0.13170855727376604, 0.041805207918727424, -0.5172150792997662, -0.2531173105591889, -0.03565548532191813, 0.8499114504763886, -0.39573813668221336, -0.2948270114589238, -0.34834507530405856, 0.3168547272102169, -0.2276794616253402, -0.22440111422430623, -0.5074896511335134, 0.20062387462124287, 0.18333111023022802, 0.4476045071567578, 0.016117208019588533, -0.09862713307643102, -0.2192009492916638, -0.40776202332002043, -0.2880156161357358, -0.04561786358463815, 0.0020333907013310734], [-0.15558231992297686, -0.33397859682162234, -0.5068140259065853, -0.1577411015250846, -0.1849327089446156, -0.1582335456532807, -0.5404696530583085, 0.038669899296890936, -0.13519790096997003, -0.476220633417365, -0.17974349675713247, 0.10266298016436508, 0.45822516165632116, 0.26534999440879564, -0.5614375580751044, -0.1792621846931625, 0.10957392382396554, -0.12303120891352684, -0.35629358179795484, 0.19642540738793, -0.5685932754470651, -0.14057879550360497, -0.10353973215854434, 0.1802705556741592, -0.09343337986272761, -0.6944336839435425, -0.19754947912947066, 0.11781142344642437, 0.10694961197764384, -0.48641602707408105, -0.19553578854000123, 0.1616584360855392, 0.16201674809817893, -0.3323238529094985, -0.49211314938208994], [-0.46560269391624914, -0.18549271663735858, 0.5308060131282746, 0.07702718296251071, -0.21162351878636262, 0.4260902768729762, -0.36924730101978015, 0.22636166301615604, -0.26358713728084276, 0.3282529911780198, -0.7229446721479088, 0.6214189667104211, -0.25077434692258044, -0.4699508430814459, -0.3827563240060174, 0.34126189052157413, 0.6837235447470265, 0.5021993509933315, 0.43390390455713024, 0.2099927421303478, -0.15563782674872526, 0.2563610264171945, -0.037843475918275894, -0.198918038239443, -0.08280065158268941, 0.624392249827502, -1.24388123855159, -0.4190850409478061, -0.020571769206137926, 0.2778933553199582, -0.021564239525968178, -0.5624657564307299, 0.24434565705919065, 0.08163528595496757, 0.450694843961847], [-0.17372751758163815, 0.11949216117821444, 0.015323563800818918, -0.5575527838545686, -0.13485339289514894, -0.18754695209258537, -0.7135672533437015, -0.027113920847529165, -0.4324443731080445, 0.3071183946292729, -0.10287806436683326, -0.705780256012571, 0.005337269168569114, 0.1145287452062577, 0.13663760090871502, 0.23643933549986, -0.8530632135409966, 0.2607523572518537, 0.3925032687503493, 0.1728586641306624, -0.3337569986138526, -0.5634014238219783, 0.16396534774280894, 0.34994817731215017, -0.31984971513673566, -0.047688429406478966, -0.12876291290915207, 0.20130787836391847, -0.9249251976276133, 0.45242817815391945, -0.2149808278281851, -0.5610891638036241, 0.42127541448671857, -0.6215142204612212, -0.36766963678516956], [0.6199733070322134, 0.3187548349897376, 0.7478809258297018, 0.5371678033701514, 0.3435811415928578, 0.8562242278803244, -0.07083811085158806, -0.11749077851780991, -0.44084329809020584, 0.798347532729663, -0.18252512162632825, -0.2830193976227777, -0.2424932760264695, 0.19420430133966182, 0.5055471679487745, 0.2399373490931568, 0.1364211444656541, 0.2723877563922649, 0.24004822970635983, 0.5332385258469886, -0.15770665887154978, 0.05888405664274202, -0.0031272805805719977, -0.1868749906773211, -0.22829846449897515, 0.08963552501991341, 0.17784294197293146, -0.14478217963921758, -0.23440397043018008, 0.4614937763328966, 0.22975746624409718, 0.38374636191409334, 0.7099146299846312, -0.26317757346153214, 0.11444993607668119], [-0.0655681106276512, -0.047951262718223406, 0.3697935318938914, 0.02470523110428607, 0.1586389331191295, -0.10989508424520841, 0.062621433061602, -0.07652395324896392, -0.2514037897433727, -0.07887495466598739, 0.29425280852010954, 0.9544666366043543, 0.2633881287497866, -0.07541195014936591, -0.04608311055111924, 0.30128943970694844, -0.31536594472542334, -0.2410922539747296, -0.3757285993472162, 0.2714556110443694, -0.26627197228192245, 0.327148754474712, 0.11177616245580976, -0.23811599368734473, -0.12571068809738778, -0.2495196744743526, 0.09891124681930664, -0.43390718507967657, -0.12100467443390023, 0.017753949423655657, -0.6069538208382877, -0.23737561945286426, -0.5975196250971253, -0.2274318377445025, -0.16496190726160928], [-0.16932492658425652, -0.43611959966304126, -0.03654684438877024, -0.06202086624786574, -0.6486116675311586, 0.06465642852232086, 0.3422743845725718, 0.7644276748311364, -0.3674285868372233, 0.1885677912625675, -0.501751475842183, -0.0011275729845092854, 0.036132975576673124, -0.12737118745653114, -0.23046778634174214, 0.12026011649399797, -0.4793903259866578, -0.021826722808535613, 0.06313473296492549, -0.5683357453655467, -0.5775674665337511, 0.04980112969654474, 0.2741276426295307, 0.37513526492013427, -0.2137726124215519, -0.20613983318108406, -0.05089051596636976, 0.642504715484946, -0.14946156665684956, -0.15035672868542319, 0.1902914886079409, -0.1300180690774347, 2.4268169706017138e-05, 0.2160425135199324, -0.27081267492611677], [-0.6781796788414052, 0.05545351499578505, 0.2877592047128726, 0.04023230070162558, -0.7144809215079102, -0.27391397215121266, -0.17140293373644733, -0.15953793039732908, -0.2712640920547191, 0.23838327651126207, -0.08224918842628659, -0.05558262994249319, -0.2703442862760362, -0.2154639877767517, -0.16194176465979063, -0.15560234121825198, -0.12110187718774876, 0.14952995265998706, 0.4423266488936627, -0.3394059023417001, -0.07058404356945791, 0.2459961313583914, 0.10659185649918898, -0.06704785995667678, -0.1733982185108122, -0.1354384696596875, -0.12186399947629607, -0.3084322073511269, -0.11841330528468164, -0.2661360324615925, -0.4603977712574236, 0.07520748332867411, 0.11979392527495664, -0.09407144646367052, -0.1907317236273945], [0.5786112971488244, 0.5481613971786806, 0.24145361479411626, 0.17285043379270698, 0.39422083768369603, 0.10052585862554463, -0.3071452342310147, 0.20855207182885635, 0.18373722625766675, 0.44425778633386687, 0.05866130658010946, 0.6340768678276448, -0.28694362234339255, 0.5536416539174289, -0.5767574198849226, 0.06295261143931892, -0.22383880049342023, -0.1419542838805645, -0.73201083479016, 0.08309797218084716, -0.29920727112759965, 0.39163878220518605, -0.6264776642910631, 0.1921211795235734, 0.05573998427518527, 0.46402291060847034, 0.2911668207354041, 0.08491366288351963, 0.07662944881320023, 0.48054784099973913, 0.04272648011235436, 0.22427582880137395, -0.23204418606720478, 0.3548520024458458, -0.14051640879790472], [0.03526278148845375, -0.24234482878515792, 0.31995542241082814, 0.33995487762182924, -0.4973578628129799, -0.2146999511958749, -0.16440164860013612, 0.3801189359060908, 0.6114940445556136, 0.18057100078915259, 0.712696093387183, 0.017428724102896986, 0.06552091000002001, 0.30641798944041865, 0.23237495852634812, 0.08741843196847834, 0.37166552826575444, 0.2392790334585134, 0.35572669769210064, -0.4242619554624333, 0.32490719247084204, -0.17175393564431468, -0.44797959755516803, 0.39513969190725856, 0.8435134779957494, 0.30375214323014477, 0.2559143485595195, -0.08008300393772737, 0.16315425596661962, 0.19026146646325962, -0.37299152028125643, 0.4640960551654882, 0.4560761823501123, 0.4325713540780763, -0.2687394808789684], [-0.09986062142613485, -0.8434907122225609, -0.5401793518021558, 0.056682879634779075, -0.20939017936594773, -0.007984605298240558, -0.3777465957240029, 0.4860302910804258, 0.29455518981113593, -0.19277702361600002, -0.08636838118225271, 0.1439722288694552, 0.0783475505193273, 0.18324719540592327, 0.09238625427787937, 0.4820853719360659, 0.006292387081723572, 0.09832179246534738, -0.2414579255286631, 0.3496772954921237, 0.6001429605595362, 0.8612197409314077, 0.38187075772611195, 0.08365934422110367, 0.07619229275195621, 0.030791952041325343, 0.11250777543375251, 0.5437565044805898, 0.12239749977873575, 0.10923408779911287, 0.17161065726942112, -0.6522442947579565, -0.1958967342897654, -0.026716883079219236, -0.0627706192425588], [-0.020463445782935234, 0.08835088743296036, -0.4946317737160315, 0.3453975008942399, -0.1415763536983191, 0.0704760239093448, 0.34302168926592147, -0.29978296769905255, 0.17125570077772898, -0.4579706203589478, 0.20057318182975697, -0.44480132672805806, 0.15870938213392483, 0.14627116732766884, -0.2033744051308653, 0.3841761247910823, -0.35225285237087633, 0.2942179260255184, -0.24034782556311024, 0.009852209437204941, 0.5672372000675091, 0.13977770860143843, 0.01453680987229243, 0.036729489170289294, 0.1502997777142785, 0.3251102032091164, 0.23933349512204197, 0.09602647654823132, 0.3344910108837739, 0.7757076594513879, 0.3930750436482302, 0.2298671176015429, -0.3130807417985453, 0.9678206508063693, 0.27158875298121876], [-0.24730889175704732, -0.42616873169899633, 0.18689907177782986, -0.4841391313265755, 0.0064387874366449, 0.16448384274882544, 0.14469774331392574, -0.6235306426905378, -0.2347567370908342, 0.10725052254865561, 0.20898335931087994, -0.19308285795151947, -0.10345855044035022, -0.2716198590290851, 0.45934837322261957, -0.7548744966996258, -0.6584752711987454, -0.020080965798541104, -0.9922202726544381, -0.34853894200459834, -0.20501049372506366, -0.2228333614972291, 0.34962232728267056, -0.5439841825545192, 0.24364716084063087, 0.24166406018091072, -0.24230115599539379, -0.20447363657786224, 0.25974165087058676, -0.05611886544353349, 0.19698349087489828, 0.35145579412212863, 0.5320665586759753, 0.1469866021006607, 0.03413990898562707], [-0.004267222308056859, 0.3008760004587562, -0.052122626216451154, 0.1869162380304627, -0.19872379280704702, -0.19406640779764397, -0.1638898297181802, 0.4246648372029041, -0.052557554408555154, -0.18073517983159282, -0.8937203286145546, 0.17231887338374188, -0.41962388299511344, -0.23894254966393008, 0.26293785416436066, -0.6582070059368321, -0.21085521149324724, -0.5072446821817833, 0.08412309881786216, -0.8186111438860039, -0.2669330245057747, 0.04236741750358862, 0.15908659549586596, 0.08416444217288915, -0.36931044022652704, -0.3826532568591554, 0.2653881145447233, 0.6721361048959612, -0.18601977837347175, -0.31478602904975744, -0.09753510123066404, 0.917548842170711, 0.15445987586926357, 0.5539534072430434, 0.4249212725041317], [-0.1651671996806747, 0.6019322820061379, -0.6057020587036537, -0.2596313114160698, 0.1709806680959585, -0.059035789545705576, -0.4193587556790045, -0.5669514214981171, -0.15030487335694803, 0.6301360910986648, 0.02856403668076654, 0.0540627994763821, -0.5008299378163206, 0.8494867251273197, 0.6671736909585467, 0.0008098462836949601, -0.14349403213806314, 0.07132417942665452, 0.08772353362939965, -0.5831223047379704, 0.3159542459675784, 0.6763788297569643, 0.05229469944358763, 0.6231254022135884, -0.1071003211285231, -0.25410368819206997, -0.4362641159178745, -0.24798839559609762, -0.04497953099521829, 0.05353602350600591, 0.4049644528178313, 0.43288494734253047, -0.7524576854478825, -0.40338382172707854, 0.29403020141553793], [0.15429313344067755, 0.2210020017571248, -0.1584893897808875, 0.2254961436490464, 0.22129003223763963, 0.05761253110629474, -0.399789797169841, 0.5788288171086732, -0.2296481567013494, -0.23206422307062496, 0.12256661062770559, 0.37580779330780273, 0.20133873611088507, 0.587720152547008, 0.06992788215257559, -0.35212766195600054, -0.701243388912202, -1.0544056075014454, -0.011880849395431312, -0.46070657265431797, 0.0577515632266955, 0.08464360131536484, 0.2269229920279171, 0.4831624057966615, -0.19295093611432634, -0.3413954797999203, -0.7042598086869523, -0.1858126681502602, -0.3661326300453031, -0.5640729467315747, 0.23914888641204482, -0.5367264673431522, -0.23226608955930508, 0.2502911045115859, 0.38043325271137024]], "B": [-0.460951629616391, -0.02922081219441905, -0.025863744661095592, 0.27907573390453067, -0.3667129947904704, -0.30470054249629497, -0.052508891046577834, -0.05959782176637835, -0.2560416026922884, 0.04414095485473572, 0.17481946397676285, -0.0696083479795391, 0.09407947765345476, 0.1941162087004932, -0.5356491647344783, -0.3475026960759184, -0.046804800617513694, -0.10273740568118937, -0.17830847581379056, -0.4701878339116589, -0.059317991461872825, 0.1694263414000068, -0.03742817884913524, -0.5165408659706885, 0.25571288991056984, 0.08814633416872061, -0.07568725292724156, -0.22146545552631342, -0.3330362405040583, -0.23767393873226614, -0.31954599280427126, 0.22625539207269085, -0.04181573344226888, 0.14059435883899257, -0.7969124967272985]}], "mae": 1.0995071255686932}