{"name": "mlp_gl2", "layers": [{"neuron_units": 2, "activation": "tanh", "W": [[0.3673628715267351, -0.4477674289928117], [0.09724186172880722, -0.5931845840605878], [-0.06149927313646542, -0.5368150084417405], [-0.12544876220103815, -0.21618271417072316], [0.1412393158632951, 0.23888030087417644], [-0.13752449674409795, 1.0191015127750669], [0.17771660169532671, 0.0713127988523543], [-0.12051458349202358, 0.26491053667382153], [-0.3270697639921358, -0.11892428440342728], [-0.1235071827310741, -0.6984545051654653]], "B": [0.1458583014268641, 0.6977898863047819]}, {"neuron_units": 10, "activation": "tanh", "W": [[0.4502671176070852, 0.16568943307079845, -0.1205402672684083, -0.23400454732209652, 0.1131397248208356, -0.06107718348310809, 0.586730493446265, -0.05140532755665889, -0.9518342855363539, -0.43646721586755827], [-0.03643132043429871, -0.19015505790863907, -0.06693188940062549, 0.02353687874305786, 0.052628497317920096, 0.6869622387288219, 0.2312817764676884, -0.14849185890213737, -0.46732843338276536, -0.38471565163667876]], "B": [0.004352799688216756, 0.20327583667783322, 0.058242838041255546, 0.06995218666327023, -0.20397394424638135, -0.013806862970320456, 0.1893639505078341, -0.17359175635664484, 0.32143310290909566, 0.3212141893941958]}], "mae": 4.498430962660241}