{"name": "ej1a_gl30", "layers": [{"neuron_units": 30, "activation": "tanh", "W": [[0.15895384112633895, -0.29790037128062186, 0.12643912656667072, -0.18931097841782926, 0.19935973131023169, -0.00027687410188960735, -0.1412155911057829, 0.0700872240862207, 0.34034868167967475, -0.03355298674443724, 0.014725572527251053, -0.05154283347168884, 0.14905364974411534, -0.39606583392017247, 0.20805778053956364, 0.07840191324409936, 0.04399556206190527, -0.08764639297981766, -0.04306243391200783, 0.3243751586637626, 0.09448181788345907, -0.21587545047722892, -0.14477338834773354, 0.12480365147891481, -0.07742017415597134, 0.2337988880828366, -0.22333079076311999, -0.002848408596334701, -0.37040182734510796, -0.39750367976658163], [0.21284878307041324, 0.2595684837735991, 0.410471444925559, 0.025819677895899288, -0.0876343086748212, 0.13690775951866715, 0.17570316379628848, -0.02255285555511019, 0.2754406273578331, 0.032962467659653286, -0.23793726913462135, 0.030122779505259507, -0.013456015905615086, -0.14942208686646577, 0.0883979219697665, -0.32349177987913547, 0.048084495491635744, -0.21057847595548093, -0.23103648243990005, 0.22144158387885607, 0.08556317232013408, -0.08981585007719628, 0.3262864277481357, -0.15455048059181167, 0.00352645250905183, -0.07237182990684159, -0.0018833276053066743, -0.15690878936543562, -0.17758002595621372, -0.23544817899302578], [0.12942401272624102, 0.07075349386905116, 0.1059036299894105, 0.03890196403464925, 0.2055650073984737, 0.2988055527321862, 0.1684463381495574, -0.14937214003163865, -0.28043016419209177, -0.10260848063625201, -0.08197795479772158, -0.051512811127864044, -0.4375752467448948, -0.14609889476346324, -0.08361167999347623, 0.2529771751286001, -0.036843421763352334, 0.16807160248132627, -0.29309244693616804, 0.18284374481548757, -0.08431607301014298, -0.030362430459265247, -0.06346440409950094, -0.045067988348742906, -0.0007369260368461386, 0.06345275674829101, 0.41796489232631295, -0.016653544898684588, 0.174975183660967, -0.42368243381174686], [-0.1344906030783005, -0.2142855542903969, 0.07313480261121084, 0.38599064182578924, -0.0977888163311982, 0.06203125329510374, -0.06764480269286179, 0.2612467502441425, -0.18855234064020035, 0.09301365907214, 0.2407110040036179, 0.18992376978558662, 0.07642112788186921, -0.371968548843843, 0.1339054677567728, 0.136255518882888, -0.08131275612506039, -0.03194377362550446, 0.10469368562088216, -0.13083959330974812, 0.008761676235974014, -0.11882123254782329, 0.33549775594487774, 0.005540037025964208, -0.1902347391151591, 0.33982331383492054, -0.19469924827071364, -0.08249874723355913, 0.11620262628114329, -0.1531259107846129], [0.120353237772176, 0.44094516986273213, -0.17879507308628198, 0.048934360512162614, 0.10930377047903957, -0.295639167120714, 0.026408906917122867, -0.2002071857590876, -0.04289670655201843, -0.09742726773225642, -0.053661548034891135, -0.09551473236544361, -0.0026788565269398722, -0.2424155388986394, -0.20159523914615396, -0.1249693530236871, 0.18507499233649574, 0.026771031234561586, -0.2856860208530131, -0.07796371532496559, -0.05901211738807598, 0.1241724530593302, -0.1440047654877523, -0.22248166172944708, -0.038818026160734244, 0.1195632447972602, 0.049878556126578585, -0.20562550247178515, 0.2264881517914836, -0.07364132459174788], [0.012403220643790904, -0.09520739962092387, -0.05258466278857113, -0.12028833814395658, -0.08290265799945891, 0.20472557096339442, -0.006987415737959334, 0.27106772760397985, -0.15146160592744543, 0.11417340350049993, 0.36274538351029556, 0.15747159415325301, -0.2370575472277061, -0.018708068250079406, 0.3778412124752563, -0.1807243015287962, -0.18136933177726508, -0.010811921812296788, 0.23148016968911314, 0.03121641544709906, -0.2356329583567774, -0.05426334203874733, -0.07269062991623451, 0.084868615963366, -0.065163134513799, 0.15039230385499716, -0.19052864846821727, -0.0584038426929308, -0.24303037942553465, 0.07801574725898319], [-0.08269019223161476, 0.4276819180972927, 0.17378716215732756, 0.2340919533435595, 0.12159173772427846, -0.057438887920874884, -0.2527346250951926, 0.07231386980331864, 0.018424762303648378, -0.2212700806926293, -0.1684110269111521, -0.06753751607431704, 0.1379315625068132, -0.12328402530794985, 0.11670254846910426, -0.06445413302328182, -0.03718451256520076, 0.18342134936291374, -0.13818590120500177, -0.029195399409105278, 0.32319737313229047, -0.1869245621366147, 0.027387684175729163, -0.11354266385668307, -0.03868456677722384, 0.11021961819985664, -0.03813982474354181, 0.09720244547180415, 0.014953533192727643, -0.01743556245024696], [-0.02951158860136438, 0.03295862621266038, -0.15270706550873311, -0.042060185503621145, -0.13348526146920944, 0.08329901285325401, 0.15362285008534993, 0.3523364125523501, 0.0440216339832074, -0.0704378808509251, -0.1678729148115987, 0.03420833634802377, -0.33650323679518424, 0.33421591888061597, -0.2885252383691264, -0.2783724408231421, -0.33892191189721554, -0.030455505498478596, -0.4284180189444693, -0.06830572158040123, 0.22639937954493228, -0.14067478232914046, 0.17003686551741407, -0.2000695646261422, 0.2480709915256477, 0.2565244934429054, 0.14362170735653618, -0.030420247957273813, 0.14057345982524752, -0.10417863549555148], [0.0865951754767836, -0.13926343027964247, 0.06393817381006991, -0.30363033254670413, -0.04641666591611583, -0.1709604510245694, 0.6351215226317755, -0.04661628084296899, 0.011364136791891737, 0.03851446665747514, 0.16331415696337967, -0.10517957376661044, 0.02736891770662415, 0.15838472224582337, -0.3007663918562336, -0.28618577763494346, -0.10935125328076992, 0.04325278596568119, 0.3112772668189262, -0.013259816455545073, 0.06391338835426326, 0.059006807484177096, -0.15061870101279753, -0.03519977427686693, 0.00944013566793744, -0.11190632115011538, -0.20645765441121147, 0.2637200547792087, -0.23624653942883037, 0.023989702900251757], [-0.30139019464892214, -0.20622895306788971, 0.0708446763666141, 0.023690357910055537, 0.24999462133699385, 0.024807314487244585, 0.1309248867930876, -0.039548826875650624, 0.37749122812861907, -0.3906271818841725, -0.29392965484719696, -0.28447882302226085, -0.1578479586911088, 0.17351486038901762, 0.2503572722399846, -0.08672376145434905, -0.10833712522520311, 0.06837117012107716, 0.3056387280836227, -0.014141578746639764, -0.004176484033398701, 0.19639916720526238, 0.2477462580370642, -0.05469625067740009, -0.02119089490490639, -0.18080937223322735, -0.21144594414643514, 0.10056027706985479, -0.2235045116653349, -0.02473309895627638], [-0.054198843687326775, -0.0866722477983462, -0.1544833335164412, -0.0004039243582696547, -0.20651378781941895, -0.10614714582052799, -0.09733648729082349, 0.1465535493754793, 0.04844485377348214, -0.030757622505371025, 0.17210235323782955, 0.3644115194389678, -0.29803742626817753, 0.22514239125456073, 0.2857141173945504, 0.028933294179238643, -0.06869926936500874, -0.011909763002656813, 0.0785374993293832, 0.2235371243056001, 0.28032178473748987, -0.10235588951010641, 0.07928417211090305, -0.34719341740568643, 0.23408748027300408, -0.18497479813477888, -0.12745253813039806, -0.09817856601620395, -0.10983318304347349, -0.11956263125575972], [0.012650644436159713, -0.018142539735034685, 0.6139285743677135, -0.010193665807237004, -0.07975997729679278, -0.4321779648238287, 0.13379156550759203, 0.05058426175560043, -0.2573606092316985, 0.5375749055587923, 0.07825746700213462, 0.16103066225195162, 0.16971370107160344, 0.14883564318855116, 0.239229851363288, -0.008129214262127359, -0.0020041756086393854, 0.09815804121308677, 0.05518295446532029, 0.19805436052159078, -0.348151795110318, 0.11800832231734881, 0.08081078591581731, -0.03286719408878456, -0.05861792950147666, 0.06354480294066504, -0.0018002377905428795, 0.255761371704379, -0.013317810955623652, 0.22280208631781612], [0.1507288547869617, -0.07596435237773264, -0.4953021243860363, -0.0019659511066220403, 0.11835331845803597, 0.15170168357812516, 0.04217916284218018, -0.09963668237290685, -0.2999103576292402, 0.17443338010349535, 0.12706277768480517, 0.12993159928419723, 0.2187810984395096, 0.036014151014582524, -0.16418944778908307, 0.013058754820417186, 0.0642256658258849, -0.019290246753435082, 0.0790338859785259, 0.3720079770100205, 0.2426203111789123, -0.08277613569896208, -0.016191430622645116, 0.07678519643494225, 0.21508544514438094, -0.24283187796985248, -0.023602226395144445, -0.0565881714285976, 0.23971774144008323, 0.31731241566363466], [0.6895414257466361, 0.033924771506438925, -0.0418172895696344, -0.20839852341888113, -0.06773037302349316, 0.03940848319513307, -0.2767012458161608, -0.041056354727041826, 0.09515219444293782, 0.21899211293296206, 0.2640292965021942, -0.10390078045934387, -0.13847568234365348, 0.03406143968674823, 0.05406556145621038, 0.28645054810161735, 0.01169690135374293, -0.07442803368818876, -0.41661769716966046, -0.04696753462224986, -0.008252482573065156, -0.06526417840698207, -0.04242136199730174, -0.10727717220700395, -0.15319978798151612, 0.030097279386468837, -0.48074221824429825, -0.03148301352202571, -0.28397867187276643, 0.14522814080012397], [-0.16272932039919116, -0.07940062604202916, -0.05842583907360053, -0.09978413502113262, -0.04082041805165472, -0.004626959409515913, 0.14441077419645976, -0.08683902609886637, -0.19622189960392547, 0.026796965702804536, 0.3491296060422929, -0.2012631048372056, 0.20569881007618607, 0.05742869726427666, -0.1980371660777821, 0.07402976131991333, 0.04769102137301593, -0.07165133020102518, 0.07033697400220716, 0.25844299594449854, 0.07131658906805001, 0.19900722277875296, 0.12803598877685793, 0.04709812847860637, -0.07626613779134096, 0.20047469481093122, -0.14938847148569076, 0.008882330455526333, 0.012713245014926189, -0.20579865844209944], [-0.15652308642941062, 0.07564630043711354, -0.08090238631732827, 0.12149612410057922, -0.42909348390442054, 0.02219190264332849, 0.47094685132437725, -0.17092009570257818, 0.17523795034063697, -0.22354937838043729, -0.04885962060559296, -0.24886558948381388, -0.23920124388830571, 0.18652398447000332, 0.021102137710631522, 0.04635837202730458, -0.1763318321757341, 0.10375644301615272, -0.20253511302740157, 0.043195054457792724, 0.2498530997984835, -0.40627625391568395, 0.031383412275861784, 0.20926907047645313, -0.05149713841787982, 0.011607736548851303, 0.24291654108125965, 0.1062096804918948, 0.06823196264198635, 0.10424460904473304], [0.03369105151963483, 0.24656914829038956, 0.1554703981082087, 0.13787704770669013, -0.1835385962699629, -0.04948244190943385, -0.032758855104410324, 0.1981560864862286, 0.06965492645928018, -0.01596112968982468, 0.19930856899168323, 0.26331088788420726, 0.17946841664475033, 0.10527955245576454, -0.015054654287961667, 0.08649399991346511, -0.2619256971981763, -0.008130721782000808, 0.024218121538460428, -0.3559512418802558, 0.3165096458331276, -0.17053927092379703, -0.20426851916591196, -0.46268979295925666, 0.16871750676256364, 0.142841307084703, -0.050238563234041585, -0.1664434948871433, -0.08017328971637953, -0.009124298031938791], [0.05751558931512572, 0.02448602758973968, -0.03595125320140004, 0.1627320075227772, 0.018603772000971186, 0.09061571654172539, 0.0556642178319992, 0.258367014754807, 0.047902731247565465, -0.3630578630921531, -0.22118561339975676, -0.1929067155978748, 0.2336905550982027, 0.33832236799163384, 0.3522493539894051, 0.03020029621010488, -0.017728744886968965, 0.26654808019683807, -0.20099825453755915, 0.4655787479088693, -0.06547885607823882, 0.009452324777487035, 0.1542436296972742, 0.2612230661424714, 0.16253545379469386, -0.21340301440998027, -0.30561776813545466, 0.181549807894167, 0.010440477080329446, 0.029554782822147754], [0.21987640242642062, 0.13610418708744174, -0.09075226211680107, 0.19081592060069988, -0.010040473074548074, 0.28946097030835954, -0.04864502772051666, -0.20207392817299577, -0.12342915928763035, 0.03797768520985928, 0.12249686258883738, -0.0925078814835067, -0.13531515029587882, -0.2763607201342677, 0.15015067186292413, 0.30563323235968975, -0.1973417338958591, 0.026182625775382697, 0.12158131425194417, 0.06528975144431991, 0.06732871391954232, -0.2447147385297467, 0.20290063701811392, 0.1351201937322181, -0.2793293692779842, -0.26761621448048245, 0.17198373483724927, 0.07226793966652417, -0.04667796281659049, -0.1598871616868361], [-0.37875142147541296, -0.14846439314495427, -0.057620498249766644, -0.17970581180446285, -0.0731870085423314, 0.1835052439110502, 0.20543633355684654, -0.01143251185657035, 0.12917659758255554, -0.03560904525026412, -0.051747344195749, 0.3879906576781195, -0.04242161007493334, -0.28455564853813575, -0.002816445660615705, 0.3289869141113799, -0.27645847834139015, 0.3146363568845502, -0.06663020212651488, 0.28558840701707305, -0.239130019736969, -0.09524138632843057, 0.053471030141105096, -0.22391393188033212, -0.06129995499630785, -0.030038687351396094, -0.09910970457010788, 0.0005947367658721869, -0.1028119020785155, -0.019248550037476046], [-0.1757350977451341, -0.24840932657862705, 0.0185223193593894, -0.012900339285081983, 0.1032951049815725, 0.02314640017581081, 0.03434515198997176, 0.22677308795392045, -0.09839413944662817, 0.22656133725036603, -0.22729635360701714, 0.0462365601363785, -0.17201368444399917, -0.130950633551172, 0.24692871443976133, 0.22203827875862997, 0.19824791209985224, -0.21157846604399352, 0.040139276730287214, 0.1887054919180243, 0.16084338550138294, -0.5444637057539214, 0.2683850737877103, -0.07346203050938149, 0.05902904876353666, -0.04177853219480761, 0.12277060566967649, 0.32589930059141936, 0.03863387073257091, -0.016842367755261458], [0.0895356338936066, 0.0783319820070065, 0.11398435755658556, -0.2012459909434051, -0.20286033088841596, -0.1664684427896105, 0.18930707632924915, -0.085556997489594, 0.24255574239292274, -0.09318086645522357, -0.03272238557075495, -0.08830644273944896, 0.37525769615286964, 0.08926385022357242, 0.05820160947884621, 0.04315237687971247, -0.039855735749357864, 0.08221390620592545, -0.08526233579716153, -0.036356415119965006, -0.08576804992536669, -0.28333901876432604, -0.2801133386440082, -0.15054737151782924, 0.005551511908817209, 0.34573990421438866, -0.27110553976105056, 0.08814989754738398, 0.20801269191868846, -0.06266830710753027], [-0.3860279238063523, 0.130515815293046, -0.06958599515720182, 0.2858422592694324, -0.004094246036207765, -0.08778192859582552, 0.04461795782611463, -0.10904970755624904, -0.2318990201784856, -0.0015285704411837798, -0.00421936728222669, 0.16786811162783843, -0.006176209109897023, 0.06697262527595021, -0.19173966297219946, -0.20058511620549802, 0.00033853331416142324, 0.3053135238436598, 0.1516415683774329, 0.23655468859139134, -0.1688653113145247, -0.16284380927761646, 0.26878718174691885, 0.13093542205208053, -0.19496252148550136, -0.3397208297572251, 0.0680647121844102, 0.32232820661710315, 0.1800506194159279, -0.05631356644474533], [0.33794584842118813, 0.0035689085940411873, 0.027119043758320797, -0.2424393658566574, -0.15044279031074695, -0.051913459776807266, 0.07097432648332568, 0.3479236480734234, -0.427088993499038, -0.04407910584384164, -0.06813928769181746, -0.1860913976294687, 0.12847130081195718, -0.25482898451778235, -0.07284587112892298, -0.24301855768642777, -0.15949955934968738, -0.06526060580922656, 0.07682609631120899, -0.009564803986486967, -0.1314927520688981, -0.09269244669500248, 0.3564336541839771, -0.13322350571719568, -0.17378827755053866, 0.13582719353980838, 0.4190032065943884, 0.21999919407576446, -0.32488535230111093, -0.420170126686759], [0.10211861346095054, -0.04268969598591983, 0.04466586731304735, -0.023194263248375886, 0.32263614399307167, 0.07044541599590014, -0.07775913641901437, -0.1149657613944037, -0.23626352891975824, 0.015704855065499748, 0.29165935519031494, -0.06965935050755118, -0.3519295590039432, 0.0053265987474427874, -0.15582606064177906, 0.06044983815488635, -0.013931550473534247, 0.11110646779314584, 0.04977393858835464, 0.048857395142499684, -0.10396415782458411, -0.1613035057885495, -0.18848819587691532, -0.45626254420216683, 0.25109605268738105, -0.20935820874557465, -0.3235290322442982, 0.18695980581642474, -0.1101487835180061, -0.13989924547472332], [0.0237734358682402, 0.2560552301182002, 0.0661046418764683, -0.27216965414859984, 0.05228071306842637, 0.06510259860918681, 0.09564753253290369, -0.06624217228876948, -0.20656327002662292, 0.02763776627472584, -0.0532844063191656, -0.34173431711087215, -0.23114622305674937, 0.1674463829729214, 0.09366856851401555, 0.31057560896528696, 0.18518372251352885, 0.1938648912537755, -0.011431224130986673, 0.10197742101491326, 0.009062501992100663, 0.27235359592798686, -0.3046788745408321, -0.07141291384698567, -0.052291045796787415, 0.32665912943138226, 0.17235588683800726, 0.05140343598373782, 0.24253349315332293, 0.22308193719836017], [-0.13616783281379427, 0.16893618820342982, 0.10315701302039787, 0.21285787629612016, 0.07308048376254707, -0.13015599894075278, 0.08808107650280765, -0.40971466598916023, 0.28284057028992254, 0.3706275520804247, -0.24985261882496246, -0.238761753499444, 0.021793152576324564, -0.04319573062555833, -0.03600429907687234, -0.3224529159131806, -0.10899483370485136, -0.0013543791073859874, 0.36914217296659546, -0.024364451043195085, 0.22378388247616732, -0.1035435736776617, -0.2373267355268964, -0.06737728485545985, 0.12990981253358871, 0.343109939220493, 0.14206832743592437, 0.040572547324653964, -0.0017106038460516738, -0.13813805101218296], [-0.1123067991471997, 0.2594772101179271, -0.350966546967839, 0.27694179683932907, -0.4528343898498585, 0.2325748696879483, -0.05465656098298361, 0.0429146066091384, 0.03055196238976791, 0.024938972802797457, -0.3439170885506057, -0.2786716238265799, 0.06689640810814211, -0.22273475839587212, 0.04682465264219549, 0.2210429516560608, 0.32750013977197334, 0.15537874788916414, -0.10818860694292756, -0.02529779483032456, 0.038998378115544075, -0.23670073376966233, -0.2582922875030555, 0.0027395734823615404, -0.4875515864493701, 0.39835089951526276, 0.1497506550497105, 0.21184282604308613, 0.38623675294384585, 0.15424073097861157], [0.04475772926628514, 0.0979376512805866, -0.1356964370540771, 0.02527713525333582, -0.051025701310371485, -0.15964481394437532, 0.04182815082244914, 0.4242485891257935, 0.022777992603945193, -0.17771995057927698, 0.10403218110466483, -0.02638340502269661, -0.1776925870866623, -0.165266562984163, -0.018200209429625674, -0.10475564530498103, -0.08478514610641946, 0.12586770870175676, 0.04680414079040446, -0.10044007233811207, 0.1114815655433366, 0.31568635432423797, -0.0009092296075376594, 0.1098827951768491, 0.17798608270311456, 0.018647854524564893, 0.109325459363903, 0.14018696322490037, 0.024073917915042577, -0.10901069166599345], [-0.03128850859309612, -0.02578120103870777, 0.14224767541990577, -0.08222929959388933, -0.23488988749896125, -0.004335922823049212, 0.0378946762184566, 0.04555527497286963, 0.1839343395431475, 0.18086505156024307, 0.233056257554112, 0.017008867933746643, 0.038573894283658795, -0.05961337103222285, 0.0031711304410224407, 0.2897787400912644, 0.16666642551984226, -0.11299463689057623, 0.1739984442727996, -0.11731640677349926, 0.03956209861477904, 0.08351075473699651, -0.2356384667691884, -0.23522982852557892, -0.17082014698096684, 0.04100559030979248, -0.01913449916514511, -0.03570411996604098, 0.17927160079124135, 0.08348555398048318], [-0.067312023941329, 0.05305579237335541, 0.024282158872835295, -0.1614152146601547, -0.059813531734440706, 0.05379938789390286, -0.23234866411490795, 0.08151928531403368, -0.019337925332443422, -0.18218884759216422, 0.05933227290932642, 0.2607391117772975, 0.11701467461869357, -0.19958966332871333, -0.19671692128359747, 0.12411740994695934, -0.0269828835470864, 0.07703344920107263, 0.033316674263605794, -0.344050825365428, 0.041657091918944913, 0.09432769162901797, -0.20447821266628216, 0.0012119763191382426, -0.05877973527539523, -0.10581550717260556, -0.18674026957381315, 0.015285883778233002, -0.12452305983434878, -0.3576352736115551], [0.057713816757349094, 0.01082928068717272, -0.06467347095399037, 0.07197000159999045, 0.011700637566548835, 0.11637180433861168, 0.11483236165630194, 0.565668006848956, 0.015594355851896915, 0.42374029142008157, 0.20639545182266725, -0.1321007819768723, -0.008337240779627721, 0.014784025472651612, 0.07648242129262152, -0.1634232162015799, 0.31075319509160804, -0.006148516730142629, 0.054650696099142894, 0.03517972097509992, 0.09867079260839982, 0.003539072487622461, 0.21046226403967924, 0.06809311664075471, 0.07820449212394177, -0.17312272630134082, 0.10122025285165463, 0.14238220780731153, -0.10302054212217689, 0.008644774612712458], [-0.12174781241374495, 0.15402465857609307, -0.025206725906956336, 0.0037935560035000384, -0.11640448879670347, 0.18418085102414092, -0.22210083534753505, -0.20374134789683915, -0.33381947568947795, -0.43231209472614557, -0.010797723633193123, -0.1555303214577229, 0.28464596420834953, -0.07270135201205338, -0.01582854501369108, -0.06788977007744887, 0.11802665746276819, -0.06334674225668999, 0.266321355672536, 0.034690414479257935, 0.0799852306873803, 0.3277708460973602, -0.105532972092936, -0.0013324567911559598, 0.12781650089325247, -0.11998193350956761, -0.16134642998575552, -0.4584540873441144, -0.09894291779891627, -0.21596678669002428], [-0.13904373354037589, 0.21111201885539047, 0.3108128520040415, -0.13079138053379227, 0.05471035044531827, -0.12954415102840497, 0.46536048829334037, 0.04789046201219591, -0.024237682997895447, -0.08031562301027433, 0.1908408399023042, -0.34899625033064147, 0.020935458439597283, -0.4811341028872217, 0.10711903594305743, 0.025313998175521032, -0.12511352547261292, -0.3289622858221459, -0.09616760696687401, -0.23079627694207808, 0.2698294045429649, 0.19479386089114922, -0.2091199731377403, 0.0641396069376248, 0.1448851696368576, -0.31347899063921986, -0.1448976340182571, -0.12411353054885951, -0.11910653844296488, 0.12313894771387979], [0.16101137327501094, 0.31413334800517656, 0.12379539005631393, 0.05299462179198777, -0.09429603594451323, -0.09593269969119049, -0.22930881874889172, -0.3650371848627226, -0.1462073856457762, -0.05371218841036701, 0.18058837830845512, -0.08203074786982367, 0.19732545364819104, -0.22157497107583415, -0.15628288779337152, 0.14762988354352014, -0.0990953166161159, 0.07024745540456645, 0.2736829025431353, -0.0756849847813189, -0.13029976799895393, -0.025626152620242183, 0.019587189232768094, 0.0011656192718083353, -0.39273389279222987, 0.017357211827985605, 0.1434806978950704, 0.06555769720044244, 0.11520894531937707, 0.08313997418924016]], "B": [-0.003198387344457419, -0.1934494365120385, 0.17977288331202382, 0.12881597084242705, 0.054659969240163114, 0.040622753284791896, -0.17064107283986457, 0.22216718557739876, 0.12145526033061012, -0.019993669418377234, 0.11580618979468063, -0.2877858042673345, 0.16784891825654608, 0.33365699729260767, -0.04330508514911465, 0.16205114250060143, -0.11082093680607513, -0.20768589341303598, -0.05165787992527024, 0.1164679741725519, 0.09114164550917693, -0.1691396840632948, 0.3381168882663437, -0.46041087351610677, 0.11984667375792668, 0.0492840874513847, 0.05734217109759025, 0.02882366731553356, -0.16317704493687016, 0.270926377615905]}, {"neuron_units": 35, "activation": "tanh", "W": [[0.08022856731919255, 0.08449661451262974, -0.11060364455450865, -0.13515836854144017, 0.2576586168750163, -0.1465215019336984, 0.18463800218306206, 0.011075106690209925, 0.051509257749399164, 0.28885539965043366, 0.10236068879061255, 0.08079500351462564, 0.002227768875904249, 0.5943075379498264, -0.3529283212242915, -0.25897200352143573, -0.06702314521958984, 0.09408895437940151, 0.12639018714947728, 0.02555316930435781, 0.01698371093767797, -0.1264979461125095, -0.23111227790416727, 0.4668894642526094, -0.0019440839961262532, 0.17597000549839087, -0.10514239597244435, -0.12424319772667303, 0.1313638510825751, -0.02238017734926523, 0.07947183429033204, -0.04255517830231092, -0.43190784982011377, -0.19747634850865842, -0.0013364492449265298], [0.3076019568623498, -0.11463672816288553, 0.2590813435024734, -0.4049220076741888, -0.13782556610649857, -0.13412442868975377, 0.7706524000421915, 0.06637329678803074, 0.018813115193883363, -0.005819593725490072, -0.05399164891733134, 0.06200277070129765, 0.17724235442890365, 0.1468961872342078, -0.012559921264474347, -0.12530832627515476, 0.40697070857381157, 0.2594997564284692, 0.005741055628038366, -0.13598270398539367, 0.14240010601311348, 0.2700335467142993, 0.07973031323888033, -0.07876571335340067, 0.37665060069713047, 0.03847135675762344, 0.05934463470450461, 0.016100989740383546, 0.534006580182632, 0.3133722427739174, 0.15494415512036183, -0.20305294808395777, 0.09646184406576126, 0.072853016760092, 0.655028419455994], [-0.0341325884379907, 0.15845011936327813, 0.3492012368985947, 0.517333855922462, -0.017564517250176694, -0.04046061810381784, 0.07016935715728727, 0.23100610554541262, 0.023570694412898736, 0.03705544487048174, 0.0015707537355561104, 0.28399153221645473, -0.11009268850880082, 0.23437484187008434, 0.016730305600686352, -0.10083894505981118, 0.06883512608710896, 0.054443584854723746, 0.011198916357072814, -0.2785703645743458, -0.027804302621361153, -0.10488362620049713, -0.13414711642248578, -0.12047969122406854, -0.1085758551799041, 0.2110262430427865, 0.11928143016400224, -0.33012223241142424, -0.08960253547168993, 0.1121157901777148, 0.05475623703338173, -0.11690186010839883, 0.22275492377640083, 0.5000723091595067, 0.21495546127148774], [-0.26527745580008044, -0.17572911628180188, 0.028193879196821238, 0.19792314857368037, -0.20503838326811832, -0.1987748570936709, 0.28996454710001973, 0.0015645927903140226, -0.1258037633588774, -0.047637186975920884, -0.13849720254985048, 0.02978621737884856, -0.13366688096245133, -0.46642518972262964, -0.05489864246662002, -0.25086929283393017, 0.3461842536471708, 0.09315209633653539, 0.46041405804809965, -0.29493736725471403, 0.02598074419066223, -0.01275180824109869, 0.005706722490861922, -0.4721094437984174, -0.19020786970187648, -0.37728493854613054, 0.008241857231097395, 0.22357091956751401, -0.28736311876638887, -0.1408911147898189, -0.43180136018712617, 0.22897430104117092, 0.12495664781455441, -0.02860977345868399, -0.19208407216022957], [-0.1759372615469372, -0.07383705144007537, 0.4973352901545487, -0.4126164079344486, 0.10770291490339086, -0.03487221680699332, 0.23072093123650134, -0.4557219524194146, -0.0005443169802064017, 0.04996299640485262, 0.20867758050957808, -0.12293366698202346, -0.1952511408121595, 0.06671899061933965, 0.0027186796420014788, -0.09142399034324973, -0.2519103836427078, -0.22717818970346518, -0.056388835430989465, -0.29042104501731125, -0.04090809368155965, -0.1852925585086891, 0.17364135047334767, -0.26312590193205365, 0.1052254428297928, -0.12816338934754976, 0.24215979437767643, -0.4705819269985883, 0.017157782800261596, -0.18072561498555936, -0.0070315694351017225, -0.1380396314153167, -0.1178696734705124, -0.2515318452356232, -0.24540198281488476], [-0.002005826783209253, 0.20627836369163616, 0.3147785386662797, 0.07174078674663088, -0.5031122551014574, 0.21704106969956025, -0.13719701409103358, 0.08316625961568729, -0.3149571505327789, 0.09042639543155323, 0.1378242538457195, -0.30917469810359727, 0.006542403746052489, -0.012840854478190817, -0.02870269349663864, -0.03074934682004697, 0.24535125764695564, 0.31228650987154544, 0.16460683913154825, 0.29922576231260045, -0.11831008615768812, -0.3888921300742183, 0.00024005566309207369, 0.015051486537794551, -0.2728839252497847, 0.22500607964900204, 0.13919006342982979, 0.013955939920207779, -0.2046222930322589, 0.29500410740111177, -0.0316768490580949, 0.40366488500174225, 0.3077479136150682, 0.05607116971715452, 0.01365574233475096], [0.19004044577168472, -0.05534398681223005, 0.3449326280951098, 0.13339501644182972, -0.19709720234899672, 0.11143935923903321, -0.11171918871746253, -0.042827975694641716, 0.2695190184473982, 0.15889297052264478, 0.044972109409812014, 0.26170500532850366, -0.03366280075386833, -0.01842590064503617, 0.25026624837664435, 0.457628279640843, 0.13336518821523405, -0.054841263418535464, -0.19315537808057578, 0.23093086400742482, 0.2915815019105996, 0.17880647971618144, 0.20836439953463112, 0.0307900705176649, 0.11669647992631965, 0.31207617881987604, -0.004058544709386091, 0.05761310954778252, 0.27055742982737485, 0.1094555942337471, -0.022001864967813138, -0.16633032580332213, -0.04017597241019093, 0.3038580319339703, 0.05225531811935534], [0.035772004902993954, 0.1293273343776617, 0.025402218071014497, 0.08298750438898961, -0.07265881409737539, 0.24360896511281382, 0.17759053185396748, 0.09996072954349619, -0.011848657643459142, -0.285440008820734, 0.02492848866640685, -0.055814437550528805, 0.049983277029192474, 0.05610620660593947, -0.0024346115800869456, -0.03312770133200796, 0.10120228309397888, 0.07009128868738917, 0.002437948214915183, 0.08997152914908156, -0.026431010746844792, 0.2321221224085763, -0.052033896373978546, 0.3013660960856791, 0.13272552657784573, -0.17464545780609833, -0.3229625139991036, 0.26388468226030687, -0.08996954188538907, -0.07885008443318452, -0.09724769391451384, 0.47759098287124563, -0.21623475589768718, 0.33878517757573984, -0.16899676239884645], [-0.11341911116157087, 0.08288095003402236, -0.2421772331663675, -0.1979873785789431, 0.11889720075669011, -0.15726747391245624, 0.0333116625844824, -0.33008704334748573, -0.04965384144424501, 0.19169097244016192, 0.1323563746180457, -0.4077558135967334, -0.430167325123193, 0.046227522859988567, -0.0960656603854833, 0.11833920966399908, -0.1621461186176619, 0.011739114553075535, -0.22167309661612994, -0.051897268045823404, 0.08922227293690839, 0.08497467618250905, -0.5931977843444375, -0.08989130738060311, -0.11660795518398105, -0.16881963095584943, 0.2049209004049687, 0.10016833063771145, -0.18592000667140474, -0.08269395249006976, 0.11441519754096062, 0.11872095441345003, -0.44493615798138625, -0.4506611536817966, -0.024604763250031483], [-0.1194154555198611, 0.01830006085606089, 0.038861332956296894, 0.1485177776778749, -0.0874116139709339, -0.10749870274216491, -0.20666811900161125, -0.25816365375362665, 0.12197729291132778, -0.4139219327047203, -0.03161547300030236, 0.49597589109560636, 0.11172673919933052, 0.10053928191965544, -0.020568289698558513, -0.11867686696227737, 0.03280585815269619, -0.6883758898470819, -0.10364182167403847, -0.20744434051294738, 0.1502193626685167, -0.053283331524466765, 0.07654195435244644, 0.08551726252839593, 0.14255047013352737, -0.16022337574472356, 0.27171737739972407, 0.08750254740703639, 0.07672440829898164, -0.2387905630297321, -0.16751497445180838, 0.5510671178269806, 0.0251834055235247, -0.1567214358013237, 0.048205717302086275], [0.20685204973928187, -0.0296116218865141, -0.27452570353194583, 0.2816033054555406, -0.30731151272338547, 0.15052948035455008, -0.21257646761122384, -0.08203586280434703, 0.056340745151295175, -0.14895198312751318, 0.00633987614139812, -0.08632645456255006, -0.28583488866644474, 0.016777820739770164, 0.34197318473895827, 0.07565780201114, -0.02850910157290782, 0.0484002299059907, 0.17501810232009665, 0.019762618526383037, 0.6406493978097226, 0.1241876582485234, 0.08749866475056002, 0.11621455611392838, 0.22072616205812237, 0.10171988239541402, 0.05330419976609045, -0.3155677454518782, 0.10596127062055082, 0.041731480784972644, 0.20532572914421277, 0.2914201822222493, 0.12458659361985316, -0.019630340116269813, 0.19166480344936884], [0.3600002233756441, -0.01309673576369864, -0.11493427342321616, -0.0996294541203691, -0.23454013238235027, -0.1416302698295535, 0.16210194081741322, 0.11479131224401612, -0.12436071211564657, -0.4340704225830169, 0.15426215048987524, 0.2607297578418886, 0.30401054685954254, -0.19782659552324522, 0.07082750462585194, -0.07318906773356673, 0.38186716054191794, -0.2650669992086767, -0.2062377753747733, 0.4460386963679821, -0.06126968678020852, -0.34648836155388385, 0.1490208612427701, -0.09500841307125649, -0.015304568704034243, -0.2136944413128604, -0.179359633964743, -0.206024343360318, -0.09428238303171167, -0.24978562257812909, -0.05856616891241472, -0.332959347858345, -0.4236342695161016, -0.20401312514019687, -0.12439272101403258], [0.10744820976663072, 0.027899132996818708, -0.36083128874464565, 0.10780813885469166, -0.3727942790858701, 0.09582672568580886, -0.08917060484077474, -0.46509076367723545, -0.1984872688677, -0.12219442576705354, -0.13224795150695037, -0.13588280928116775, 0.0636643732572988, 0.23813158331798528, 0.3975149031210525, -0.189046708487328, 0.060410063122588065, 0.49879156273199665, -0.22461037717447657, -0.0652039712565417, -0.06268487600703875, 0.484844232059226, 0.10998202826955256, 0.07947327547860589, -0.5444958775557371, -0.23511085463442105, 0.22302378613354346, -0.025516011693563125, -0.10049555704739578, -0.1622232179041104, 0.29819589535141233, 0.17715812446259957, -0.21039256676364188, 0.328880599641227, 0.06528325188801039], [-0.422587434711487, -0.1482003719170022, -0.019232057971396536, -0.10625302456249866, -0.35191649382249335, -0.2488196066387916, -0.2195229806011748, -0.004429437928204132, -0.03401540525676965, 0.0674645779975169, -0.02336691444751543, 0.023552818231458068, -0.3598351265964405, 0.18037699252576234, 0.04755018358487122, 0.02523526828044348, 0.26250707204990514, 0.2244932401264949, 0.08663233898928326, -0.2209667548047173, 0.037681133084829004, -0.043289289256172696, -0.0314583526713943, -0.04703362882046225, -0.1029480642051014, -0.08827194732953748, -0.23885100747598192, 0.21684367637638613, -0.18311798477685676, -0.3160381989033765, -0.1274712099648901, -0.29835635139568784, -0.008421956273138914, -0.16005040513824045, -0.39428685873233194], [0.08631597237519575, 0.10439771079606597, 0.07456254464429475, 0.29542942707150677, 0.19088183701603953, 0.5009139772354053, 0.10286665284533697, -0.2624471841270104, -0.29064829385056484, 0.35485677042029234, 0.06425435266725303, 0.12829451272926748, 0.15595551889635176, 0.11529906058443021, 0.05005534451927917, 0.3251950565773148, 0.14528051816635332, 0.1436404254527558, 0.14056970227266136, 0.21023681190518378, -0.2134909660306731, 0.19515442992465673, -0.32233605982622177, -0.22161296460675547, -0.06452494387441206, 0.14616919530440442, -0.12194771590241717, -0.2819325859693575, -0.010990210697805175, 0.29928863726961985, 0.08397787962550371, 0.2877798145553002, 0.2256486920120884, -0.21948036395631537, -0.04371007576933033], [0.19528322042744972, -0.30963797133550625, 0.18380171249952137, -0.020799715979575167, 0.02859412748366284, 0.15357867991792248, -0.006083377624064249, -0.3738004079048902, -0.08598973526088888, -0.08012002045518345, -0.17857293431997273, -0.06438704444043443, -0.29209009024935717, -0.07480878037038717, 0.011612850888515507, 0.3117691941431329, 0.38935662011807537, 0.23623172539682596, 0.3114385879270647, 0.297632617941476, 0.1645652497777045, 0.11675929534072246, -0.25909346321778387, -0.20573091222189535, 0.41443580021644433, 0.38380099165472925, -0.45095646927322985, -0.05709838232126171, -0.023816772710357863, 0.4392163356697811, -0.00011705275374375852, -0.06584368435024351, -0.1036305029851525, 0.032535092147546345, 0.14993234867934893], [0.2223931355383491, 0.20631976075973754, 0.05643042991495258, -0.11622718225661471, 0.06124682262452632, -0.24413159211136728, 0.3181249182841515, 0.10198001379075969, -0.3059617800801452, -0.2003961797961117, -0.02505138155266282, -0.07998799769590356, 0.1850236201522541, -0.03675253117788584, 0.06994192347923564, -0.3270894207671131, -0.41187089948555883, 0.04223379574297942, -0.3430504789296766, -0.2819076810096399, 0.15014432295194285, -0.017536969849004377, -0.029890796749797603, -0.29601354366980975, -0.07621445317196306, 0.12074702042888721, -0.21646886266202617, -0.04570865550617815, -0.2162825294423726, 0.1740186285414505, -0.15350789236845175, 0.4792282121319889, 0.21464491933165258, -0.006309951849583821, -0.03709879505812014], [0.05994248686872776, 0.10879791043991761, 0.04447954460941143, -0.2643508740693379, 0.07877154606464978, -0.024403128045975577, 0.1431069845837988, 0.060199648318255895, 0.2690060247009446, 0.09332638650303401, -0.05218450884046825, 0.09810998908702703, 0.41723835398039816, 0.20756802354770554, 0.08586026941641645, -0.03584472334276361, 0.2026901285695203, 0.38806641786847756, 0.16775062338611757, 0.2974926676100531, -0.012917047439978487, -0.13745410634116037, 0.30779169945328505, 0.026360402648228348, -0.16038852032985187, 0.1467236409764695, 0.3023975698248817, -0.0292735816071566, 0.10130088943419753, -0.16337804637772416, 0.21995774393887488, 0.47211687190021484, 0.3308156779271412, -0.36543719136831293, 0.14760094959188105], [-0.18909714548716894, 0.150676621817707, -0.004823563024770032, 0.14950116911863648, -0.05765169166539697, 0.26649623554508484, 0.10991431632636459, -0.24640485438828125, 0.3896555068413753, 0.19261868752862008, -0.0003992033576897705, -0.0676157227751022, -0.10434585181331346, -0.2888782023705634, 0.3533619918161421, -0.2470458531071602, 0.26288902057119556, -0.159486035841309, 0.22008539161358645, -0.0754609484254351, -0.014856076656176154, -0.3615822808559414, 0.1330711174583786, -0.041408547278804546, 0.1706072224993643, 0.047265672286648956, 0.28921052993142327, 0.09591784476140522, 0.04512132106397573, -0.055516931402156, 0.03296841814906022, 0.23170972222638048, 0.2120434607799358, -0.05865799242697789, -0.04041045393384698], [-0.2853855730614882, 0.03271970621938997, 0.3578486668256732, 0.08409529962771022, 0.04388561377152971, -0.058839706247473283, -0.24683334983727048, 0.08476154450070389, -0.13090755616044822, 0.09355191438596377, 0.16608181886911547, 0.19058613515824158, 0.5057398021740335, -0.035557285919069336, 0.2909440553882779, -0.16843526411536136, -0.177279426197357, 0.485656118195155, -0.22270609400315367, 0.14293757253532682, -0.02707310971115151, 0.021022945806571557, 0.22277783740861087, 0.13073788922046295, 0.3105300485185317, 0.03409486978700306, -0.10323076157276533, 0.11356662414390953, -0.32153809645408055, 0.006979989362463288, -0.29360668294231324, -0.10438238356927271, 0.3137869884091024, -0.14285080933326186, -0.34122242002626757], [0.169356268534032, 0.16100341060442777, -0.2685869383275867, 0.26864091546421753, 0.11429211956184152, -0.4244458522958655, 0.25361905598948564, 0.36879786664681424, 0.18830055699857454, 0.01386607304417567, 0.2802422988588747, -0.2502891929379126, 0.2581910168387993, -0.21957365133061668, -0.0008741310599135648, 0.2549803094659179, 0.1069217669024921, 0.13180607080425044, 0.1711448345858988, -0.06572657324577875, 0.6980743697750476, -0.30290812515071563, -0.023748220069861672, 0.14026231607840256, 0.270210053253618, 0.27594909401499423, 0.2690182996008599, 0.35699120640093857, 0.4809241773961591, 0.09132278017517297, 0.18972688332004037, 0.25042448842508097, -0.14384881367370772, 0.23666599648320724, 0.01548549675583076], [0.13679898310184635, 0.06562001274397306, 0.23987603249009906, 0.04911562812624282, 0.17935051286382298, 0.3340637843388065, -0.1767002447916867, -0.3564210240794044, 0.2221420916133049, 0.28709271123185237, -0.22072665166435168, -0.10403885034709844, -0.23539466511971663, -0.19765307512572342, -0.10578071033900356, -0.2627743870269139, -0.046773109119942355, 0.021593990503506424, -0.4033917092835725, -0.0451930085410173, -0.4234344249826193, -0.14187118522347772, -0.29052401984861986, -0.14487150349240943, -0.04868580617231603, 0.318553995789329, -0.09213475497511511, 0.15924348604160882, 0.05461942006999631, -0.3202367216310373, 0.044044537974380314, 0.22111229035577182, 0.42034311965459753, 0.015703081791855634, 0.4144692635110296], [-0.153400823474618, 0.20074018524052603, 0.28661896767031453, 0.12248491140182786, -0.3803620757462829, -0.10789520797930964, -0.0037344325699186116, 0.06436143984284844, -0.026964989400965735, 0.006958257732115287, -0.27443568088433185, -0.22170138632748054, -0.1652643625267072, 0.14940365055442123, 0.15188351115752646, 0.014866731466163479, -0.10741635588645612, 0.029459279035567887, 0.1783585484973084, 0.026243354725054638, 0.06872198988860335, -0.028047288016630343, -0.045023379511920925, 0.15524247301115218, 0.06071709676850276, -0.4641780230281485, -0.1420315381562888, -0.25865762390207786, -0.33926396465481035, 0.10289397357039264, -0.44022481956286796, 0.37366812174120656, -0.19378849497089298, -0.2548628276260975, 0.08228276955398654], [-0.13188461503486298, -0.15065874219881834, -0.14178880433188978, 0.04579258169277903, -0.051574846256734794, -0.13715250573854054, -0.04637346210096784, 0.08955312782203186, -0.2521482547769622, -0.06964039329138069, -0.6309455977989962, 0.0009666088110759813, 0.19216491465258329, -0.2378968497898146, -0.08959471576732675, 0.09995885293688565, -0.5164258426880056, -0.05751972829546269, 0.0014932862560259133, -0.2928508634322228, -0.19792684429502866, -0.08142345032969517, 0.14601446346839547, -0.15620732218238229, -0.08676643341771957, -0.2094548004704267, 0.029006411319582183, 0.08998510057832912, 0.12238763133664911, -0.17077240897451748, 0.3660315562300012, -0.03965489189105262, -0.21474858915170295, -0.0995014489464314, -0.0932130306101767], [-0.15869430525314523, -0.30401631652440647, 0.09967159194511539, 0.08946237030906798, -0.10702164898881386, -0.3377445402290936, 0.2697463481243199, 0.024552230558109036, -0.07250993621286488, -0.2786726487783349, 0.3131052605810214, -0.03672749147641422, 0.15187710739200508, -0.20464257541996145, -0.1367732393275736, -0.145526119955994, 0.3308885313720568, 0.01555460315513602, -0.44157187544915816, -0.21909257952101346, 0.025706404097075333, 0.13748333189611142, -0.4293339255959138, -0.17877128657489536, 0.050922070028447605, -0.21401718916886286, 0.28692797475740406, -0.3691781666809033, 0.05668829439560025, -0.2129291680472117, -0.35192499180785247, 0.08271097662540675, 0.07663415294397417, -0.025307521760599992, 0.14305854395144038], [0.020179625210629642, -0.004029566246344929, 0.1512748458447835, 0.09417497979137814, 0.30417900500387474, 0.049304976109008254, 0.1062415005192152, 0.4466413049692292, 0.19099522479018385, -0.15446779498923918, -0.24312898749939574, 0.18175020474452774, -0.12713155407478188, -0.18259508006925257, -0.1347534205944008, -0.10633391241581513, -0.03275116083623993, 0.19248568074542607, -0.19592548279879257, 0.1556277893440495, -0.030624870094728283, 0.347660375423606, -0.2878474396199032, 0.10461615664055761, -0.44961816267697774, -0.06668595873588298, 0.29811589716845177, 0.30011416594247436, -0.0769826444469307, 0.13256764314300531, -0.05207084560473438, 0.027993016651036845, -0.02603988195935276, -0.20031496185550238, 0.35665530310307586], [-0.07231741175277369, -0.3360704650652175, 0.26239644764514947, -0.08524541728324102, -0.28442048150654853, -0.03063127923082888, 0.1182112580378219, 0.21833079788222465, -0.04149349438988717, -0.27988347845407574, -0.15563028260765555, -0.08613432630594398, -0.22091186561060022, -0.16144664413145193, -0.14938013851317108, 0.28663953906164885, 0.14335571068146302, -0.24352342646587255, 0.14647546100027603, 0.06589020066512795, -0.012458379581588849, -0.3659206295507984, 0.1436959610289147, 0.15589058504716016, -0.026757216794137822, 0.011014959588838736, -0.19311919944710873, 0.1593136055199047, 0.09043887027732005, -0.3227048950086597, -0.06861107213327333, -0.023052446310067767, 0.016873723444843995, -0.19022546399713902, 0.08028302114319197], [-0.027597546215163932, -0.3278273000519, -0.14803648851161041, -0.17296695202544451, 0.03685824009281283, -0.025003075866285515, 0.43320812202044273, -0.1078641694917331, 0.3063449734886319, -0.05606920184829461, -0.02241898911964044, 0.24302639866024653, 0.15892975206405954, 0.02067212524676307, 0.00672228061499957, 0.13875115878272792, 0.03548221174357212, -0.12502571468397516, 0.165253074443598, -0.17196006842046688, 0.1102630934225112, 0.4810016421202204, 0.31602079169017117, 0.2112613690548375, 0.1508832899750869, -0.13430260649405795, 0.09725870936554389, 0.18841210311882545, 0.30254881319852783, -0.0874465521223448, 0.041110225930771994, -0.004704323860639738, 0.005846497639623898, -0.276217393991844, 0.2731876273138231], [-0.16967779980540912, -0.5303048499082809, 0.18814423133735853, -0.14185836094459905, -0.23674935273003256, -0.10293021345454909, -0.06127155711771928, 0.4259912031044759, -0.12930097245630442, 0.02255432966253982, 0.03052743449773003, 0.20283519429975194, 0.13520600723261386, -0.24778127727410618, -0.3404780607106517, 0.03671799165108111, 0.08710482851294059, 0.07464621196675637, -0.2133234653154883, -0.27027024836235225, -0.2510618710492623, -0.09947111082050197, 0.052697562710600006, -0.11930306241280968, -0.12553735034975477, 0.1109515699962974, -0.08659107353604185, 0.0457472205613172, -0.35682125901173706, -0.17234199933223363, -0.29091537220791897, -0.16253488939435093, 0.26365414894939043, -0.13870635505316506, -0.08958154047213653], [0.03618588378777235, -0.3022047322023899, -0.38032696605916055, -0.1377787999785886, -0.10267707722641511, -0.19602998050663512, 0.09919743115458055, 0.27893964089612877, 0.013550364956551694, -0.33480266373594164, -0.13700098327053908, 0.2780132984073159, 0.11427742164362141, 0.041740464080289204, -0.26177049594903096, 0.07109065968488228, -0.20272812597358372, 0.05949191758856784, -0.0902566176613924, 0.2603765871906342, 0.0913498188295621, 0.06913203108150946, 0.0649441685305218, -0.27655666683212526, -0.021224801460570857, 0.25390109024214313, -0.31030125131616126, -0.0526187164812777, 0.12989533953973792, 0.20330395884289298, -0.2179990496323223, 0.014295067285148693, 0.16795669395624832, 0.2026780315735617, -0.5201159544033555]], "B": [-0.48838956962304597, 0.07562358207883974, -0.07307654548699767, -0.07000825422985271, -0.262094458463185, -0.18736579370598336, 0.029912148168534634, -0.08401558375054513, -0.15162978925137544, 0.020229622858424577, -0.21244766301126405, -0.08204322538962937, 0.2704163862915269, -0.08621524884490844, -0.18126626638985618, -0.22591478702598047, -0.028265581478730588, 0.09304201465266969, 0.1565139030237535, -0.2017622311726104, -0.0918509416943145, 0.10586545010374734, 0.05082612628637778, -0.016025963904177924, -0.008698271207334565, 0.264711166730117, -0.09486902394500288, -0.03773819404946924, 0.07322680669018096, -0.30705172502221234, -0.03162302001945681, 0.054739075732143365, -0.12214349931010982, -0.13510264133486846, 0.09184767699275398]}], "mae": 1.3592754440696266}