{"name": "ej1a_id3", "layers": [{"neuron_units": 20, "activation": "tanh", "W": [[-0.3833787483629528, 0.07993361662506517, -0.04050561464706273, -0.07382174712704677, 0.1113341404674086, -0.17137229816682936, -0.17257922815178017, -0.03296015132706699, -0.33248355321721673, -0.3263995378035032, 0.10815096072804382, -0.251163104082253, -0.04372482002345752, 0.11663375598877432, -0.03105385861202582, 0.22317449393447994, -0.10251100843434134, -0.3746156160029649, 0.21486945497706497, 0.17164505335415664], [-0.23664131131884672, 0.42402095393143924, 0.2512408015757203, 0.22138783010319152, -0.06799014857243009, -0.10268707398519404, 0.343394501967091, -0.08237590488741418, 0.17090747521681035, 0.015929714698665776, 0.014746877080497647, -0.11914728165087955, -0.15267013760999462, -0.2763150983711085, -0.28759720327492583, -0.10331059472153512, 0.17913724190937408, -0.46537434038975267, 0.15760023049114988, 0.036875258790535326], [-0.031000983399239502, -0.15398901295385742, -0.1125789164603072, 0.26252242881508997, -0.38157458999306537, -0.0870268323072693, -0.2893132101382143, -0.13648810214043666, -0.06664134612556565, 0.23637140944359836, 0.03576726708626322, -0.12566944020577694, 0.18595241325066977, -0.07169358983675084, -0.09812741786105654, -0.026205594686857778, 0.13521706680953344, 0.02764198315662325, 0.06643874658183603, -0.19082021277133387], [-0.26476232241448105, -0.3265911258646397, 0.0014628580608655678, -0.021454621400679292, 0.1547151410624065, 0.2342651948219902, 0.04040495642469325, -0.04670419025634952, 0.2881190880130258, -0.11640341080300831, 0.35988743528765677, 0.03312708693310312, -0.08171726886215461, 0.19859191767618153, -0.3099880682082881, 0.04090458702218525, 0.11694291332358574, -0.041983367214022474, 0.16577550040318115, -0.4289099964820504], [-0.10768539513167853, 0.17910715274234795, 0.0025081700426706835, 0.1572584582714054, -0.15163549572642251, -0.1305718750627921, -0.007592426960348897, -0.01604406025539409, -0.037136359229952634, 0.2997348274368031, -0.03380679460652858, 0.23745828830956636, 0.12391740547656631, -0.33767760906177674, -0.1275751454873618, 0.16291116882285891, -0.19094740435625351, -0.35383803196340957, -0.4065478254982031, 0.12435741298237186], [-0.13518963944735274, 0.21569488033288187, -0.1921365950636845, 0.056055053495190556, -0.16331627794886247, 0.19219656788485406, 0.3279733242225691, -0.036908488352612, -0.16439610221210213, 0.29192124054299823, 0.22922588791433243, -0.1100083941640133, 0.29035639562811283, 0.07897106040132135, 0.21779476946833787, -0.07485730054919496, -0.08272942299720039, 0.16524469741835987, 0.023722149555002944, 0.18313418336551074], [0.048027745228503234, -0.2537154131178738, 0.48392567629389954, -0.037576727968678496, 0.3719711522837579, 0.08785635525119763, 0.143458352567019, 0.4119742779913427, -0.10082781004084813, 0.15829565570276738, -0.26798401808854866, -0.0816500615868019, 0.00020610716798955523, 0.09175646091785986, 0.1478360677763368, 0.06025175056232668, -0.23982877491900123, 0.10321423773789488, -0.05175269989614651, 0.19513486065086538], [0.06200227045621638, -0.13662949848007916, 0.04692394485881379, -0.08032566323585323, 0.18120354156949056, -0.08508353844214538, -0.33972512153379464, 0.5277154112224599, -0.22964659340015783, -0.045721596208386325, 0.12032808459480461, 0.35558241028471, 0.09824422776377562, 0.2611251414862195, -0.18150033301084073, 0.1062882307930002, -0.4155354053897349, -0.40542513440359107, 0.019082435369686956, -0.08863739051317404], [-0.09442364678920825, 0.10959818347542709, -0.18435946523067634, 0.15809791053490507, 0.20987150371763033, 0.3665709433298993, 0.0010498802286872592, -0.29897639425465594, 0.29331563357816054, 0.11127079751473642, -0.07147030062854483, -0.20407206951312992, -0.3039686127912397, 0.3260666750274234, -0.001130567640570306, 0.1283597440768274, 0.05957715081126715, -0.12816015864629168, 0.20936005840083952, 0.1977718804951143], [-0.07826223215455741, 0.2453554890064129, 0.09456650812810354, 0.2807810240234236, -0.2748483124447123, 0.05643432269665384, -0.316449516168686, 0.10389923311324274, 0.47620934315072455, 0.1583177560388857, 0.004440175104050401, 0.06598401817681245, -0.2996619705852063, 0.1341276112625985, 0.1861906734322128, 0.3171598948772431, 0.29380857839932073, 0.3273697013991168, -0.3647432098137364, -0.26260852734725626], [-0.0843123163940956, 0.1355115692066522, -0.15857541285415852, 0.22605419804725324, -0.27820891090766253, -0.0655299596478691, 0.2075511586228811, 0.20861472323719293, 0.22231113033641112, -0.08001820144510716, 0.49053039409825966, -0.13619893969710004, -0.21373568792838374, -0.01976302625326552, 0.22998845842737392, -0.24427250111491736, 0.26594898779003506, -0.18551911791945883, 0.06381043998720333, 0.17244588396288546], [-0.1282468250239009, -0.023050602506583417, -0.10121310772926388, 0.18660469572910826, 0.07490770303117802, 0.03574875648346343, -0.12653433713732987, 0.08507182093656361, 0.054306204913126835, 0.19470697265459846, -0.40555751635770054, -0.200083178963237, -0.13717786333467333, -0.06549200502085623, -0.02115092813241376, 0.17105941060936045, -0.01260661357592058, 0.22093806346837766, -0.3540327607002012, -0.09340285100197687], [-0.33698110746938836, -0.32208249585337045, 0.1694014917893186, -0.1687861134168423, 0.13011611116214553, -0.06524397576547845, 0.20444756556585703, -0.1715098492019307, 0.0028654961283823654, 0.06873654999515766, -0.11118126974929803, 0.16549820567700765, 0.14652419742991127, -0.09441108452865396, 0.08314775354798305, -0.21447963947907858, 0.0813225782514214, -0.1090359003677951, 0.40339612386824186, 0.01752962241837626], [0.014489512753966528, 0.09968771616805912, 0.23847337822931888, 0.5141006413191193, 0.08806668491641993, 0.0910813759900684, 0.08835537663824873, -0.21827574568397135, 0.43798021164776985, -0.2348058748491701, -0.014989447247839542, 0.07826101130129416, -0.108594798735314, -0.05942602002994534, -0.3147543098007924, 0.22393442767707886, 0.032755421794615894, 0.0688684351705428, -0.1620655181174482, 0.09742672193517615], [0.3039272177828183, -0.0339697433421382, 0.22331944615636376, -0.11346219062565176, -0.15068653096362436, 0.094576549126471, 0.002778609617271036, 0.27086652195842364, 0.0864486726998371, -0.03138876284718081, 0.0570024460873829, 0.2740471427096703, 0.02912359963948453, -0.07310949545111226, 0.16395352305438216, -0.26795856513597976, 0.33530915810415096, 0.03604252753738328, -0.21387864407068483, 0.06736977819011422], [0.014616669688200613, 0.31582974013708465, -0.11685892478162364, -0.17595610076592227, -0.2767361409519479, 0.049412777119261966, 0.14902877197160924, -0.25892009170490726, -0.15703162598633916, 0.2253701763568831, -0.0018989042739400797, 0.17976255414909134, 0.045630304662029574, 0.0021238846585171036, -0.07352764099604224, 0.08480719100010387, -0.061897341353123136, -0.2504427503620214, 0.1200183803203216, 0.2576623381348566], [0.11611276218891901, -0.32840913508804326, -0.2760890767159914, 0.10686819342688962, -0.25172240528679835, -0.267011636423743, 0.08943905899463624, -0.04780384133190946, -0.30362384740222187, -0.46099758779556804, -0.12383440269465344, 0.4137203090197454, 0.29598312103293084, 0.05188869480315437, -0.012822280729063908, -0.10209623347283028, 0.10245476488113574, 0.1666801298714969, 0.13280374502681505, -0.0424634051749196], [0.026950767145020267, -0.2756563513447391, 0.08497062224219117, 0.36629395086381017, -0.1828405987233094, -0.06047115741753268, -0.005921206656549947, -0.1677740596935675, 0.009102406048409206, -0.020739984090725194, -0.297597486844717, 0.011357306801649045, -0.23343247425276695, 0.026929307538711162, -0.3126502011583408, -0.06199260657589437, 0.12443441506491894, -0.2595535428022472, -0.21641485242910422, 0.10557833810184963], [0.2064488580047694, -0.1163087700363062, -0.3806411420534646, 0.24211581319991476, -0.20683660210881313, 0.058738764990391275, 0.13328781749166352, 0.2568227243270555, -0.2745508027444277, 0.07818633774911776, 0.25378468072045646, -0.23563429927544635, 0.10276668555950641, -0.041118168099725995, 0.15251924289058066, 0.180379159378562, 0.24918486859697714, 0.30015773516752386, 0.6432571565322321, 0.3603498365110014], [0.13863798271691677, 0.04994051402969377, 0.04854361656101158, -0.06657528972087966, 0.037560717635029654, 0.1543662274051723, 0.022923246671319973, 0.008681610472053338, 0.3284930536987973, -0.3197567369249364, 0.1599985159295352, -0.012973787734932242, 0.26161865134610646, -0.05353060667129062, 0.12971238323956363, 0.10129278171605505, 0.1623249602838882, 0.3115361039683685, 0.05161120251472864, -0.005279690551589484], [-0.13535161107005772, 0.5120523217899835, -0.16400234016631263, -0.33395086149733727, -0.28113305013782264, 0.18655470535438157, 0.3648758595733891, -0.14220990180700677, 0.38714688045140416, 0.17158068188443393, -0.09868975266223386, -0.1445361801169366, -0.32765376787975026, -0.2871481176266885, 0.06927965627596587, 0.03954418307874593, -0.07385507630147124, -0.05448137668971931, 0.3637134062081696, -0.21193115782232802], [-0.09195559196428177, -0.10134722684616511, 0.009468791363913003, 0.0052605369319074355, 0.08029634745232757, 0.2151169951594783, -0.44608027285884777, -0.09633059020719907, 0.28059592351493773, 0.18439153093206845, 0.1024300535108535, 0.16297194921644945, -0.40916081601781634, 0.04691126221671397, -0.36070005521539444, 0.43621072318918747, 0.007617562703153188, 0.15567576499394717, -0.034131491261979695, -0.36350345134713], [-0.04070079046929579, 0.3910613365049882, -0.0009001976002911797, 0.009223897913249445, 0.17390108271529678, 0.24630164546834477, -0.031048669534330667, -0.18785327072280184, -0.007538351382153959, -0.03530702848353286, 0.08926895908025488, -0.10151283172757018, 0.12177840125713191, 0.5299311714175302, 0.0978258190353659, 0.12541464136191827, -0.50391023989409, -0.30327765206401647, 0.22458648688549446, 0.21784175768583486], [0.16515646400757603, -0.288332287997325, -0.004997537460265461, 0.10071238563146954, 0.014433184255854107, -0.12114832553489623, -0.007262182258335551, 0.01981352862926025, -0.2784926787941104, -0.18686724383107117, 0.2510959690111623, -0.0032159704504477232, 0.2711990410582102, 0.06286581773773398, 0.07168185161595607, 0.11762203280447509, 0.09210361970472579, -0.0840844114143552, -0.15866987900754895, 0.09689719617281492], [-0.11069538601970147, -0.058597422784512784, 0.26350891206542565, -0.06720053236243363, -0.10931128207898753, 0.33308929254056746, 0.017311319852367273, 0.3511399265790315, 0.34095374203513734, -0.4831267177204582, 0.528855662369485, -0.18336180577093333, -0.10446577022370462, 0.17020416930922325, -0.11978906930245688, 0.019446265617875026, -0.09212838164980845, -0.12954297454963, 0.2295370002346205, -0.4366148665607663], [-0.12050099887975456, -0.10340400077681876, 0.2514937919255665, 0.19172343789003587, 0.41326154588996644, -0.22723255061237058, -0.015376530588082584, 0.148519005831943, -0.055450513642976595, 0.1086224157024483, 0.01969961158096418, 0.2803218625178157, -0.1635170005410392, -0.0007003636295886692, -0.07716910346959176, -0.05621350485806834, -0.055416772751415454, -0.03909635282674398, -0.1255701410309598, 0.11790195418089044], [-0.260132890196035, 0.022745343425237652, -0.08600299512154173, 0.11245490587363792, -0.020266609725957993, 0.19849533999907726, -0.06293866670096782, 0.165017553704716, 0.2830384992579477, -0.05397980322462702, 0.029995148872105082, -0.2774812602110536, -0.013782200367622299, -0.08378765154045284, 0.21843911600355903, -0.1317812530809617, -0.2123389205101417, -0.14621705084968253, 0.011416452916983942, 0.0028160801756841785], [-0.228983602152633, 0.2032851391420758, 0.08983039824244178, -0.22004849697568107, 0.0011267895332877562, -0.1946691724193954, 0.26560617263117936, 0.3794206675681857, 0.11102728147048492, 0.018868445422138523, 0.043399347082329835, 0.13020681510815538, 0.320475515423902, 0.23192405176966194, -0.055876602026038814, -0.013656386861094744, 0.11586715741795679, 0.004450457959280363, -0.049489789246447195, 0.012075909680803045], [0.07032267774055237, 0.2176535841560065, 0.2665728201774397, 0.08319843409459303, -0.26384099623284085, 0.2516435134646798, 0.1800138394671395, 0.35958790541077024, 0.14323236718947932, -0.0300751010148243, 0.11032135737842168, 0.22610169021736573, 0.2547476371307024, 0.2467066275636838, -0.019626383582614454, 0.3389497791630954, -0.14303584499151178, 0.044559556515366056, 0.18691160182374303, -0.0002975650246572052], [-0.27419607574356997, -0.0693599903769792, 0.03605725595096598, 0.1558893593872866, 0.02964814896772021, -0.18800862628631237, -0.10336940251818398, 0.1102403512806485, 0.27918437490038966, 0.16727372323536965, 0.047789235262074604, 0.13985277146261596, 0.005409823241889892, 0.06618889963269983, 0.0636524550331826, -0.09383794579658078, 0.26798640644818406, -0.021181944602904887, 0.07945445368904806, -0.00711015606468636], [-0.2039958583128477, 0.16043051967841904, -0.07981511406375953, 0.21264866426810186, -0.09449641078538042, 0.11942316844132142, -0.014618313216159046, -0.11065519857631191, -0.17886636671302178, -0.13636670501575532, -0.021387763508547444, 0.18302259576980454, -0.00466439284217585, -0.09023313965850224, 0.19861319569818853, -0.03911389937882811, -0.13413079860317234, -0.26108010505739465, 0.34239141142625684, -0.017619879630204657], [0.07751930532622994, -0.08945383145228557, -0.05201141740824197, -0.3919160803491934, -0.0839147867874842, -0.15880950754012318, 0.05692503112456925, 0.2207081125570024, 0.3411735975241234, -0.014831598242221333, -0.07377782892161781, 0.1107186542969504, -0.2507863793039764, -0.015203309351124414, -0.39478885552783843, -0.11170130697794756, 0.40041548790016823, -0.2932050427087497, 0.09671883386892187, -0.03919514828779008], [0.04889661988557791, 0.0344570498164046, 0.17938922773614965, 0.4062342545029595, 0.07776301490838207, 0.03900352082028691, 0.06897629027209264, -0.14433518410628698, -0.41327499049619315, 0.08913949028920684, 0.106089821351926, -0.21355155507389936, -0.3575299923742951, 0.12136619490702968, -0.3354952987350173, 0.05686644517170635, 0.03048750694711769, -0.05770140873497259, -0.09509166834293807, -0.22266931560201403], [-0.058154352626825286, 0.24961459963794771, 0.1908837414160067, -0.6291533902737173, -0.20631128927804868, -0.1562644264656438, -0.35762028057576445, 0.36291432772261456, 0.13769851024366883, -0.27958769590112903, -0.047252383279441305, 0.1546853383935792, -0.14796464412429913, 0.0575072759815431, 0.0029587856587123835, 0.1553796694750951, -0.008677312320041505, -0.020604247862218594, 0.30822962512749186, -0.3191193207367786], [0.08193955423724522, -0.11815143169201577, -0.16893078128191594, -0.33370178628699404, -0.06489407334537985, -0.05624797499126698, -0.3071303135693413, -0.09634542937491745, -0.2632596144890898, 0.14020172757130234, -0.2913081968443004, 0.03682005687850995, -0.1441924272699495, -0.18858240782002358, -0.0038276247294093163, 0.021224348289311357, -0.005748460876093998, 0.02681098034470758, 0.02681100900783924, 0.07873441464386718]], "B": [0.05260000684711095, -0.13912886841533462, -0.3048932459019689, 0.065928425505122, 0.1264316466805893, 0.02051222995271016, 0.13055451532467804, 0.13807052835784184, -0.17645104140124576, -0.11125727964125051, 0.4571845891776176, -0.21351852694880777, -0.22830373294956344, 0.05757129295997606, -0.12848451866567928, 0.08432911126296655, 0.2242988842752633, 0.3614860870343227, -0.06027533995408103, 0.26152665594293445]}, {"neuron_units": 15, "activation": "tanh", "W": [[0.28000300388073546, 0.15432194268754137, -0.36125809682673493, -0.1376051713337277, 0.08604961299985751, 0.26207221952176124, 0.07222698630299186, -0.09778405418221651, 0.34533805994602895, 0.1500186031083348, 0.03129350303568355, 0.6301104685321501, -0.04311987452450581, -0.4361673786292738, 0.09910009325468139], [-0.4345566066272417, -0.10990126648387422, 0.13614238166006085, -0.0832603564423271, 0.1776068101063321, 0.026956296544819597, -0.4917636401931478, 0.4485703209445151, -0.4246944821852339, -0.026458862195371947, 0.00019984161511244053, -0.022541155487124577, -0.10305890407756269, -0.038448769730947276, 0.00757229287216845], [-0.06764440900568743, -0.29515723155654405, -0.32260119574251184, 0.2383044442411617, -0.3283877135334934, -0.3189706595262444, -0.24063092512894227, -0.09977250007800507, 0.3461903903991517, -0.038709689162016156, 0.3765248818792254, -0.08160705006679805, 0.3586437975151054, 0.03942053972857155, 0.2854020982392379], [-0.07763905264799277, -0.07028637432540755, -0.3657621173172534, -0.34027972016068936, 0.5524083602599776, -0.17690465307831, 0.10237884538679347, 0.6100468257769677, -0.1322399750570581, 0.3206258983040707, 0.3597673800761394, 0.16552396703178762, 0.32033813481684403, 0.22447900880105437, -0.04810383513483652], [0.41274934651143097, -0.31147604626917147, -0.1301448092845456, 0.0428982432340889, -0.11942750702823349, 0.14496507344432286, -0.3619909917763323, -0.09586869597135993, -0.3199688465426144, -0.028561487061635627, 0.05149489274784724, -0.17701701069308934, 0.09668043545764786, -0.08155842840557656, -0.21447293215473243], [-0.0872159227320453, -0.2953237213466363, -0.34532008812004344, -0.4224139933820278, 0.04521610266789464, -0.10011045768907863, -0.21476299864387619, -0.23156529133109055, 0.037577805938117145, -0.20255483985702796, 0.2195742099175681, 0.12576127154997566, -0.1881595955553464, 0.25785884105313883, -0.25282659498459337], [0.17564883224797181, 0.07765565736417905, 0.05228387566568816, -0.26839310484056067, 0.026599372263391527, 0.4356602069132168, -0.2972312585697945, -0.17154028745771793, -0.1848767572649619, -0.23147630761270757, -0.12519731701655087, 0.10064913967793214, -0.12431061109212395, 0.09375615707682308, 0.2355291427292172], [-0.051169496259319935, 0.08144140408241782, -0.5119699909433928, 0.1868307964234955, -0.06395608994846842, -0.31781012542716497, 0.2247448023802951, 0.5813292724020472, -0.04480841957731832, 0.08813295581228682, -0.32655588830960164, -0.20785048955948976, 0.36445440783835426, -0.41258844292200986, 0.2789681513467456], [0.0845084059394298, 0.16291798961993942, 0.09640966334621438, 0.00026693867837134573, 0.07943285504785672, -0.04378165096209338, 0.0558625366535575, 0.5548940159929084, 0.22956519391398425, -0.02053930006141949, 0.5448756368088491, 0.3781456008371795, 0.030520716708896084, 0.042422637354971066, -0.3968985713068197], [-0.2951504256167195, 0.16484307844347834, -0.18814787321515108, -0.12691305022382318, 0.29594762943656605, 0.09195392971577943, 0.1618397880349623, 0.33001573965324743, -0.046742846271968876, -0.13936097667381567, -0.19267983360653393, -0.021230047665551584, 0.027755351924157394, -0.07800552401193642, 0.06330502252619868], [-0.11762470135178328, -0.04999602844180092, -0.30683065315522484, -0.06410257385609448, -0.11944972475668234, 0.130058937538583, -0.33209504133706036, 0.43275879686712404, -0.20636201558007303, 0.5289754437644314, 0.14280385158966966, 0.1472043070163065, 0.004489156652516746, 0.7466941551889629, 0.03144156691580274], [-0.1744579703141199, -0.2606423996855896, -0.07661916937162423, -0.3344204769337902, 0.33291372027558236, 0.66974278385234, -0.12686611573927398, -0.5355231741265094, 0.13321668088337835, 0.2654843726309947, 0.29611870725180706, -0.41364312871869907, 0.16462557488044416, -0.0756411599397235, 0.04802075379683405], [-0.2876346894222259, -0.010580842920013689, 0.43283742681170656, -0.07309567789708488, -0.28976611181180956, 0.0635163465591317, 0.14533809380409637, 0.33473452803475623, -0.31409242195870646, 0.12359860471437494, 0.022681798028280062, -0.03986970787241572, -0.2409800833915831, 0.09288061319945863, 0.3579216002728264], [0.33652276060908587, -0.04117783945903562, -0.31205221797136806, -0.34894532028796443, 0.35599787809989786, -0.15233913725719186, -0.13777252315541572, -0.2476222654889014, -0.39504756457507667, 0.212675077346601, 0.13361842581386693, -0.23823732065524308, -0.22158301355342774, -0.2525964260258582, -0.06847693027898917], [0.00590392920931641, -0.7983182232409457, 0.1523665043955693, -0.13516049251237164, 0.1208490563444561, 0.2079716044526858, -0.417034197234214, 0.0927288521041394, 0.29563555432494454, -0.3643550551532669, 0.2547121530911858, -0.38341982135488945, -0.7379791806185797, 0.18976888455888022, -0.29748572520967503], [-0.1594200182691183, 0.24991836720198754, 0.298385636216769, -0.43957058392640264, 0.30452740320859256, -0.0669688738882749, 0.18324877084456268, -0.026535160531056007, 0.19213827765896135, 0.18255188325664606, 0.42963921793358245, -0.1887702312673336, 0.04426947144630806, -0.1708855192928826, -0.21348090645322337], [-0.028965446591223357, 0.27177178118012585, -0.10790446120519825, 0.16208072246361108, 0.15187783243866748, 0.4041645000149315, -0.12037195433044665, 0.23849428044677248, 0.5205072084069676, 0.1253354240722631, 0.00989836265578068, 0.16923039244168422, -0.25546955146108385, -0.17894385667358947, -0.15693442962077828], [-0.12487276076066581, -0.25755110780825163, -0.4128780075736124, 0.498907025673271, -0.32180990629270284, 0.26204051790423216, 0.10130619995212445, 0.14225183515300902, -0.26430852567636587, 0.11906304780201053, 0.27349123163690064, 0.17870104739944562, 0.05164020743839956, -0.09255007019477196, 0.1206640215160808], [-0.09005057173213257, 0.2423104212584727, 0.17815690673969975, -0.17175448763090392, -0.27229277951049335, -0.19215721425363905, -0.16000461105762323, 0.50479384088546, -0.12321101789052818, -0.27264756571391463, 0.03648981054151817, -0.1867283612567585, -0.17947024131913647, -0.06847300778889447, -0.38674996182081], [-0.07103249953753989, -0.04142138308980242, 0.15557494082642911, -0.038997395536137625, 0.3904577227736352, -0.1923709742619782, -0.1124732061037741, -0.26832750172173636, -0.5396690081578176, -0.2772206483355492, 0.05614576472471325, -0.036220897259484415, 0.451379076272846, 0.3017207315614214, 0.27629044557104676]], "B": [0.03988492847735856, 0.2898829774128555, -0.25975007973356834, -0.1568084786508009, 0.12969507731116608, -0.10009779225131532, -0.1219588538346673, 0.19404090377735206, 0.19621193694086958, 0.041888474411537924, 0.10152850960010279, -0.29783904923489346, -0.3778882714386977, -0.38919463965896167, 0.10631263369171677]}, {"neuron_units": 10, "activation": "tanh", "W": [[0.031409968477652685, 0.2291286069446807, 0.20318598792957848, 0.22652485264476052, 0.07204474203990933, -0.03143973551160397, 0.32762275385514217, -0.05012946338203091, 0.26178688101937775, -0.527614949513529], [0.1354969773881866, -0.1414053136532424, 0.1700442095320039, -0.18252205873262134, 0.2810483529298911, -0.22911226700275208, 0.3147407177495816, -0.09425627978702017, -0.11823289361595951, -0.20671426257178738], [0.0019115738711500939, 0.19692340630081664, -0.4037320632257208, 0.802662500437007, 0.581360012199444, -0.10654140181209151, 0.18484106409313888, 0.1457995804138401, -0.08375382402314038, 0.21867545739085958], [-0.5700009111579077, 0.5144994476877425, 0.01260974061534951, -0.040422069240407754, -0.3290281558253771, -0.3016817435040377, -0.27310843472308954, -0.4400595573176076, -0.2534796460575216, -0.3319093430617625], [0.03881345045315977, -0.04116410479557153, -0.2975407501743102, 0.016778818692595367, 0.008505657442095048, 0.3168196314283478, -0.4716158437791434, -0.16482258063654434, -0.23282512949791784, -0.2353878593086671], [0.3149070101810632, -0.20307065337980065, 0.18882364821722505, 0.04646738082925187, -0.1406314883867325, -0.4359577859037495, -0.003438079006093726, 0.4444108777309432, 0.5259662149502513, 0.5090832852405563], [0.4904152652229029, 0.34531057651976377, -0.4046132419677386, 0.2732199090629265, 0.496803391209917, 0.4867315717794582, 0.14171710127569506, 0.12889250163876995, 0.03299687920281113, -0.3185497593470734], [-0.5055175322804785, 0.3092562654064339, -0.2443839477055979, 0.15363968321798863, 0.5910774328941127, -0.09878163601271701, 0.152243348467209, -0.04260389767505376, 0.025907804226641264, 0.12700374680823048], [0.13585351880012114, -0.4763657731683025, -0.06432026536852797, 0.24982083661044707, 0.733039699032684, -0.130552955293553, -0.4438389100008885, -0.6758568911760969, -0.20204196938804744, -0.25736182531460544], [-0.04373415592650619, 0.08142928173447421, 0.3143363851743256, -0.29555138371300127, 0.462662677283922, 0.5308079641508933, 0.28286411848243964, 0.19973479546077955, 0.27766333897153217, -0.1127947929671011], [-0.9396702094971447, -0.26922944934698895, 0.08427868567596321, -0.10216858181366091, 0.5846360528256501, 0.013672836227153661, 0.10555053861167475, 0.30396125015206915, -0.23055139144823464, -0.09981383612625436], [0.18357067470925012, 0.6651168342480593, -0.11056295450968008, -0.42905915140475265, 0.12003406280757462, -0.5187609934684196, -0.34051459730318334, -0.17309172797790656, 0.4587723697983847, -0.36028161939087705], [0.13470337903653495, 0.18869243589202797, -0.22847710618867162, 0.13322066316125566, 0.2037134726303365, 0.44525339335921826, -0.2781525009565277, 0.23322695604847501, 0.31997190780259244, -0.5282149041073863], [-0.0025761790749233918, 0.6325766251373652, -0.12796144486685254, 0.058009439060256456, -0.05120120424490193, -0.1526494964033531, -0.7676645689312688, -0.08634038796428535, 0.41717459773448307, 0.7935535754199429], [0.5139258679089076, 0.7090138177337306, 0.1719134501051947, 0.13100818773973547, -0.35211519874672836, 0.007535213464146931, 0.21079877154103377, -0.021438939097950326, 0.7435160558695444, 0.08838671745037024]], "B": [0.23115634206596544, -0.22042172269030041, 0.7512654174312345, -0.2038264501014572, -0.19952131647715407, 0.2583860231003728, -0.06115835722524944, 0.2000882667533975, -0.0578513635509892, 0.28571086555601843]}, {"neuron_units": 2, "activation": "tanh", "W": [[0.4923658105684034, -1.000768764463649], [-0.252532087621008, -0.03385624136991946], [-0.32211192441172437, -0.41052150862105485], [-0.26201587068498194, 0.40102581214175065], [0.507068772944446, -0.6684676783416661], [0.2771611197872746, 0.5195998974582873], [-0.2549819810742272, 0.5482237904895856], [0.2862890489196509, 0.045039094976461407], [-0.25726252390362475, -0.013395461126330596], [0.3608267465894227, -0.048570646182295986]], "B": [0.6227429563681997, 0.2860430785624456]}, {"neuron_units": 10, "activation": "tanh", "W": [[1.6440724147185442, -0.052045521319846404, 0.6021847049954944, -1.4119139549822712, -0.428350212385552, 0.07890356567106782, 0.6945343033164988, 0.4239833567180211, -1.104410749170065, -0.8758316129476698], [1.23138427188808, 0.48844340329792224, 1.276768560759997, 1.3105984581069214, -0.897954110859396, 0.894927406180936, -0.13467376807938597, 0.6673890466575986, 0.09747433189691958, 1.0607758305593578]], "B": [-0.12282565458488415, -0.4150353280097739, 0.4169157588435329, 0.14555528405678758, -0.8429570758005488, -0.5593830961918405, 0.3162783729473039, -0.27484088213840735, 0.15997241222181108, -0.38960881476184434]}, {"neuron_units": 15, "activation": "tanh", "W": [[1.0604161496894116, 0.779467676117715, 0.9284936318465802, 1.0219846051507369, 0.13278196717821225, -0.6973291815325355, 0.5811540799705976, -0.19060720809328166, 0.08377096228886513, 0.46236516488187596, -0.50548070176361, 0.46354071985098827, 0.13864431159036114, -0.03074492802083308, -0.006143741990685307], [0.02797406663967754, 0.3679826792282972, 0.1569492583275125, -0.0670026693041101, 0.30809763360755266, 0.5937391203605052, -0.1356833687659518, 0.2555485581539209, 0.42196740624723855, 0.24775367739961554, 0.1794343365427953, 0.06591383124592042, 0.1516145453107858, 0.3386359731985156, 0.01998009789945367], [-0.2672493111185468, 0.8150468029609402, 0.5814107130794137, -0.1636855300803227, 0.22823278228104685, 0.012240342791915194, 0.24156631158308103, 1.0744397948636841, -0.26746149460468704, 1.0252913367124417, 0.4731877654597813, -0.2056323498524182, 0.323706518963231, 0.22703836179655115, -0.5477501768342145], [0.8538242938080537, 0.16472981704278708, -0.47878572486099436, 0.46411887833114146, -1.180691584675714, -0.37612431682745123, 0.03927700850286997, -0.017188257263631775, 0.24708081303859142, -0.6075098411516696, -0.3554577197437062, -0.5155904062340129, -0.5520595633286712, 1.0296189409710534, -1.1615136516312927], [-0.3786941930890303, 0.3930677091814661, 0.130330067893667, 0.40005162488549123, -0.5456225085666611, -0.17325210643648137, 0.32902105096401224, -0.6899202494631491, 0.18437320108787975, 0.2740314993142872, -0.2649592725862578, 0.1598995259732348, -0.11918118033132276, 0.14889203086955724, 0.5600468018957581], [-0.8552654813959757, 0.5444931510581433, -0.6385727928476372, -0.3994604077993518, -0.12899870853419387, 0.1679678272568836, -0.6162165105363616, 0.2637223010161067, 0.16912462553219895, -0.3896219541901632, -0.11911012712591164, 0.11003015796337519, 0.7200940460899576, 0.49782612108187535, -0.30651464646964854], [0.3276244897798767, -0.3965413801231966, 0.37777730967504214, -0.40587417931546466, 0.041137599486638095, 0.021095668424998607, -0.39031586234156757, 0.06246588254447129, -0.12749709235614773, -0.5457700087032817, 0.21160159921537453, -0.5294152470396101, -0.06200436138980463, -1.0032747007188105, 0.44409840412209206], [-0.1571337218143129, 0.04412769617711576, 0.5719964601247084, 0.020262310345759146, 0.2226388909476239, 0.12469688949926706, -0.21817932898290124, 0.18113527122808354, 0.3737565953985005, 0.17825408820199176, 0.017658726686262338, -0.356715770464135, 0.6043700692592616, 0.19681329381146795, -0.24552646205696607], [0.30066103205289824, 0.4518338966399491, -0.7116033177769345, 0.17989427266592467, -0.3005288593710834, -0.1274897666329244, 0.3800587326691698, 0.036120955397473904, -0.26119902103843207, 0.7876320193354814, -0.11162684328005584, 0.6835344341604979, -0.2092917803633382, 0.24265315335605234, -0.5042765583499363], [0.6128656523039804, 0.32254050004523177, -0.08063547906687114, -0.3525542826149066, -0.1343303327261081, 0.7628004890237555, -0.26564130055098023, -0.015798828724961394, 0.1935378099299771, -0.3754798530810981, -0.896535776204647, 0.07414997954454905, 0.4746915795529771, 0.435339163760781, -0.16044702188956714]], "B": [-0.10225885170689071, -0.05294725100789479, -0.4554554302535719, 0.06374022815429936, 0.9373369848069569, 0.07960274156663828, -0.1370310211929884, 0.46093443845469095, -0.3903794700249951, -0.15170684843931428, 0.46541211840885865, 0.12966092432887488, -0.446689512674631, 0.04157574983812699, -0.7281067909531249]}, {"neuron_units": 20, "activation": "tanh", "W": [[0.3894435933756727, -0.12436354429997426, -0.5210465169606511, -0.3749574192023806, -0.6059271998332155, -0.6405101515055467, -0.6175637321117856, -0.5612141780713089, 0.2829794163448188, -0.9615273926176215, -0.15931214700238744, 0.1008328787034172, -0.41949354053898347, -0.06564730616328095, -0.05853831715011325, -0.3271380298498237, 0.34055873243684265, 0.460825165438857, 0.05640687509075223, 0.7082746437233889], [-0.24239421841216618, 0.028238845850745133, 0.18619137324159632, 0.11815572878167045, 0.0831204887257559, 0.7091343281463472, -0.1626218064856015, 0.12411658154694956, 0.2356547700141731, 0.02048688186902968, 0.28982423657571194, 0.7873893688805893, 0.24743208914234324, 0.951810906250598, -0.8305792594842704, 0.13071494268710662, 0.4366924599079202, -0.2681199892895033, 0.679649932967194, 0.010411456039448833], [0.16760170006931022, 0.05967949814942445, -0.33046608036100505, -0.9317582445919846, -1.0153024418859042, -0.11702423026154295, -0.28327454306336347, 0.5440885969383896, -0.006322318805909029, -0.8317910793643738, 0.2171178618729685, -0.25606251349458004, 0.4682194620967097, 0.16041664468943587, -0.5984161380360589, -0.6019860876353632, -0.4075650008435331, -0.6698924490729612, 0.3760699567896781, 0.833773922897654], [-0.355590941778845, -0.41937747613912185, -1.0553294340255344, -0.04685475097168733, -0.18151594192785642, 0.38273110016982537, -0.1445422407589556, 0.34151271903191016, -0.2495372110035915, -0.214967379444937, -0.1266188967259922, -0.12882397591410255, -0.41561807462858674, 0.36910430932381677, 0.04854726071965516, -0.5554296770991025, -0.535242584089747, -0.023825972082840884, 0.0357992650685233, 0.6869707805988772], [-0.6017055592079907, 0.23891957541436473, 0.5151101031700784, 0.004671328098572927, -0.23827328453325602, -0.7575673360775513, -0.0891096272948904, 0.20140839750162, -0.4078353585739134, 0.4281354169276091, -0.4062162777838104, -0.12099774654648757, -0.1401810313900064, -0.18815033932792818, -0.6063803015873854, 0.15132859762275888, 0.2719907051301353, -0.6449185463083738, 0.4171675609397745, 0.016074501818956366], [0.20050355092736066, 0.30354591375304935, 0.5098023809861257, -1.0862108976758567, 0.5522962861538288, -0.19031820785630005, 0.28622437217130065, -0.6364690513716302, 0.4055263258626926, 0.12725163767950234, -0.15324000344412889, 0.4465235962831739, -0.29455446855264233, 0.03484344354805008, 0.23237614009419047, 0.448541823571809, -0.01733685148869954, 0.11663583980247376, 0.2254092901354067, -0.5340084577311173], [-0.3274303348499981, 0.33320337756693147, -0.49571935608811873, -0.06861465839069658, -0.24482763987866912, -0.3596793320156022, 0.18956961450041324, 0.07507617555530773, 0.1182973590509474, -0.9709744952855578, -0.15699534776239243, -0.13767352785697898, 0.23082501168852104, 0.042177079176289045, -0.5733224663081552, -0.08363887354099073, -0.11910404071127349, 0.5182490180867969, -0.20412544139352806, -0.18275019705778894], [-0.7826886926915755, 0.2961809576772035, 0.33146178374590224, -0.13348398942094916, -0.4643582112107364, 0.12839788139881755, 0.3583330867305486, -0.2636000790589688, -0.5714270524191835, 0.4179743841092233, 0.40622854807254744, -0.1761537511961169, -0.1247863297450785, -0.76059604389699, 0.2734311474643797, 0.21883258653942295, 0.19776441841612338, -0.15419637142825957, -0.23646443998188477, -0.26535355466117516], [0.09253927512159997, 0.3578042159527375, 0.32003983261053687, -0.23346214975072382, 0.26671836745682526, -0.20103706820634068, -0.3783134432701561, -0.16988143798128022, 0.23555500531850634, -0.0443757206550797, 0.35032077570786135, 0.2616903395508049, -0.5376056161472339, -0.42859707543400094, 0.14906208767725312, -0.48642743263413113, 0.05204096777890044, -0.1267770555797912, 0.2668557113869741, -0.05049098169285157], [-1.1225265061861067, 1.0310864208011736, -0.39429599073988053, 0.02517074316975423, 0.12884651923935425, 0.09155601694466838, 0.0728190584588372, -0.14034812959721024, 0.008164811686592185, -0.43023163792053215, -0.5440375945551139, 0.05144534614608498, 0.07979137523393036, 0.6920720621982691, 0.959781756943213, 0.39451408453100306, -0.3660589340459336, 0.1408213828663551, 0.38100600641827215, -0.2666187021151921], [0.19515148748732877, -0.07114754885121954, 0.03031241278469914, 0.11721624806946762, -0.4361534505488042, 0.4865066710255096, -0.6252048334339726, 0.5718591368695923, -0.4497043642275824, -0.21776326053404094, 0.031272924728688194, -0.07408820754627268, 0.3113056623704725, 0.5511577496731722, 0.07433332786343713, 0.12158246212657434, 0.21050179966117027, -0.12944410820661756, -0.4193811205744807, -0.10233605885052043], [-0.13038713504644725, 0.4062821853222262, -0.14512420609935633, -0.4611260960399737, -0.08122445680238735, -0.8372165284633463, 0.021402046780677607, 0.18205439448889502, 0.3596261013832168, -0.09914921541971203, -0.476394406085131, -0.19944797507736226, 0.8070216270556456, 0.1839874526018744, -0.40158960287630924, 0.49146375497628253, -0.15425058621197357, -0.17411917650073136, -0.025802615634566383, -0.0027682140567721245], [0.29867867561018574, -0.5409049764113545, 0.6953787539940675, -0.2268390283041065, -0.49867436597306863, -0.5303639143692688, -0.3638970669117313, -0.21060482039804826, -0.5872018818589066, 0.1388634415713803, 0.29555491319562255, 0.5083211502076108, -0.4410055067433605, -0.17015176159269027, 0.3986878845184964, 0.5825583762936534, -0.6449715996961646, -0.18023998399380894, 0.2816982208003409, 0.08274988592283523], [0.3475914458320372, -0.1592262660961913, 0.10440924853309459, -0.05960322255999872, -0.731526479973344, 0.3083198628221175, -0.12333817320395597, -1.0424512256762803, 0.22505049031796015, -0.09007491774533077, -0.37227071125802597, -0.2744356470013853, 0.25261535019083176, 0.15369714877816434, -0.9003913316999282, -0.2642748780993203, -0.7161946846057518, 0.2490857444170009, 0.15852066593417766, -0.009468916960438403], [0.19142798686326104, 0.42851814268395966, 0.7117833589084286, -0.37350739251929227, 0.16671508856103678, 0.24554900097253854, 0.7935777271810067, -0.1534122417896605, -0.6935192583599434, 0.5101186902551499, -0.3966412542316072, -0.3872991469858897, -0.7093719359621802, 0.027342549979623938, -0.29817430788848315, -0.7383930862842168, -0.23991590529448784, -0.6312328935928995, -0.4868669225863119, -0.26485032777163175]], "B": [0.38785208257024395, -0.12930875349751336, -0.1134394175767511, -0.6571079837089813, -0.12228991121101043, 0.15318889815732145, -0.026519831241338266, 0.058473671241108686, -0.42458105869994883, 0.4802223029461956, -0.0504228904214238, -0.17374756697937302, -0.16684275957708639, 0.7198147199380373, -0.025985225691562606, 0.20480884501362145, -0.4144318685436291, -0.12557223980935772, -0.30181838641325026, 0.38518071315799335]}, {"neuron_units": 35, "activation": "tanh", "W": [[0.18196565956166216, 0.5078946199636384, 0.10340707088353719, -0.24285510661018572, 0.4276389895797482, 0.24437308751217898, -0.7185051016353626, -0.3848962565628766, -0.627814114731313, 0.43867158924146593, 0.020998461696028734, -0.7471478608074614, -0.5924229478264124, 0.5211937433096929, 0.29929444830426016, -0.3068706675929694, -0.6310051663065545, 0.4034519513655156, -0.3850659997994903, 0.435700338003667, -0.3348454337060553, -0.2746468325363215, -0.3312809323826513, -0.06557433225022022, -0.43861459038083683, 0.20748902742606695, -0.15043011038446594, -0.4242540583417831, -0.35061823817341153, 0.0363834442073218, 0.09103137674687867, -0.18308081429372114, 0.17512393780519986, -0.5479440276662373, -0.3851112135471225], [-0.043995249527535606, -0.756101236756261, 0.41587524830942324, -0.1715491205336969, -0.27016572079191287, 0.010608537352456735, 0.5217846562368265, 0.4104450531155391, 0.269776694168478, 0.11409086724348419, 0.1254575487845322, -0.28962011877810134, 0.4499629139801096, -0.3820472284930534, 0.10691553320512093, 0.31438479412919684, 0.29513588700875704, 0.6166187810275177, 0.3072725821202664, 0.6234223522830008, 0.09502212018005661, -0.503196498029342, 0.6151981293187423, -0.025586980454183145, -0.28805223829358867, -0.04972186030077308, 0.13818611126847802, 0.5909698040285454, -0.00028080067826303167, 0.04713259553334292, 0.07486921312064043, 0.21255681052913583, 0.34479798018395263, -0.21228360223028436, -0.19868470950097672], [0.3840873221895409, 0.47743402547428015, 0.6408219422153147, -0.22205730021201303, 0.2127975949527036, 0.5575803297298377, -0.010918784810024689, -0.17401910681639957, 0.20839636792767316, 0.7126631215907258, 0.13030422323914828, -0.8475789791853444, -0.2778933840859687, -0.528116603077211, 0.3822967073656921, -0.4168242385674648, 0.47542585968345896, 0.5454647987017949, 0.5160659559580686, 0.444489277105973, -0.17516745912706744, -0.44545800055533064, -0.12242927088690936, -0.6257669547363505, 0.3657270538085789, 0.3370584649212331, 0.18528840602055063, 0.1600546138796652, 0.5691337282299821, -0.24508546171240428, 0.3311489681072971, 0.83451206785635, 0.17744809348033247, -0.2975564364397848, 0.27206800783693696], [-0.23405831454483844, -0.27573407174649384, 0.01359347887121323, 0.4819424529009304, -0.827861838857403, 0.1704849878863527, -0.49047493326833386, -0.3996683922601465, 0.3636869924934431, -0.7293865940336924, 0.2622188146711092, 0.12007794114653576, 0.0934815158375776, -0.5836550190544048, 0.5386951696363809, 0.29799722271853385, 0.1841715863099583, 0.03284459259612253, 0.6776654417784779, 0.42152657464192783, 0.6664667594837639, 0.16359121087027506, 0.3471894001406269, 0.4702347344195501, 0.3668677120861897, -0.2560918487272439, 0.05281030881946919, -0.06597868377660718, 0.24710649832453302, -0.044890091692237545, -0.21528194640098608, 0.9226145980711782, 0.05399030505372858, 0.16135349480445824, 0.050782359818443874], [0.4456985399094481, 0.6363017945106398, -0.04705852674148374, 0.3238751478098257, -0.02352440669202012, 0.2686647494158049, 0.16299244068455612, 0.6366707199893461, 0.11815219680622292, -0.3426554436514707, 0.08830267628308155, 0.24289608814808844, -0.09904551697882696, 0.432913451413529, -0.2857254578703766, 0.3617213299913452, -0.011980370421087974, 0.23901158283046714, -0.14677250573089354, 0.45562049063756227, 0.24928798624247478, 0.10933699844628116, -0.9561715872599469, 0.40715736693769833, 0.513411922758528, 0.5914138078531832, -0.1997719510149314, 0.29623851654898553, -0.007564853899535487, 0.7666850976523777, -0.2931768736211384, 0.4700145992177184, -0.19625119171013058, 0.5203136848810437, -0.38521305486516333], [0.1389007416784542, -0.010171031649094676, 0.3306200598390902, 0.034044181103885386, -0.12460854047767451, 0.24699905298786412, -0.31000585776573514, 0.11442846702935261, -0.10859830547883911, -0.20020122936816998, -0.4217663952951316, 0.15696258071106572, 0.36132536177047536, 0.08824335910909528, 0.1956701122566213, 0.08067165683278021, -0.6230405774202724, -0.3444414231384805, -1.0247188115051808, -0.11665329486706709, 0.25253711108385885, 0.09650090245879446, 0.2685574860086969, -0.11984127800037087, 0.0963388599142656, -0.5947444468429117, -0.29935803392975696, 0.08806924409628636, -0.7885028670096487, 0.41555817596544786, -0.3557581210156914, 0.4797687151911308, 0.6078991335203987, 0.6493360658310939, -0.03488792897159311], [-0.22835873957540692, 0.45692530239298224, 0.8714713301450984, 0.28086429258980183, 0.22651436351874443, 0.7432222926237833, 0.1889311683659728, -0.044564803500132616, -0.018550825041648757, 0.5682354179922305, 0.3656663412567917, 0.3715329126774982, -0.01822311295541147, 0.04580090541539802, 0.0575722678396198, 0.1290155805372314, -0.4517761926208841, -0.46181035480963484, 0.12011055648504125, 0.12910226761825047, -0.022935246462453752, 0.1416599560338328, -0.04763768391169443, 0.46570248295572375, -0.09247832471825101, 0.2748778419720578, -0.1979113700604011, -0.37302558567291144, -0.17412831229200626, 0.44556862240761924, -0.04478747707919083, -0.0363210137324713, 0.2561513696803052, 0.43123844383189425, 0.07069681658285054], [-0.2011396405725035, 0.5106233392355469, 0.20930212095589817, 0.63725604159125, -0.27037752483836625, -0.4841185672702045, -0.6842840090808058, -0.37915360370180085, 0.08987128209597772, -0.28775331709210705, -0.0603106816887098, -0.3318139717611556, -0.2741985477494932, 0.17648063440360182, 0.09762136401812756, 0.28829357182745735, -0.12827326816996135, -0.5537891076364037, 0.05381457186165747, -0.4087161522900973, -0.14905884837650832, -0.19695282531515307, -0.02356818418884114, 0.017716442255860654, -0.10542776859108799, -0.21373237288160202, 1.0397596899706278, 0.6488443396651099, -0.4735132583680534, -0.467178245020574, -0.21433163392885424, 0.7741346884052924, 0.4076191967117941, -0.3259107953369107, -0.3789877717059215], [0.09014135738470735, 0.18071261341421713, 0.28225827155963784, -0.26802410873364513, 0.2703229950943856, -0.2224727576466333, -0.25730200218952637, 0.07239398582816033, 0.07717142650504649, -0.026520821466208166, -0.43473786768309736, -0.3270734958993094, -0.1486671328323314, -0.5986855795526531, -0.1272054518088441, -0.3109223250544584, -0.41541614938031285, -0.08111804160607067, 0.1795963450254635, -0.4375243014499154, -0.29566958137219485, -0.8062865680532418, 0.32297213035159306, 0.35772386177411275, -0.4148968519149635, -0.6141682952478623, 0.34244903404778154, 0.2576329411032209, -0.4316536414004096, -0.7544515477207324, -0.12351290216953267, 0.22511055044745273, 0.5476135762105364, -0.4571315899533635, 0.1709539797392844], [-0.09110470275548888, 0.5865114427772815, 0.3885289673732095, 0.38500014733880483, -0.46913793879534266, 0.21256709741739088, 0.7555620972709269, -0.900525585379961, 0.19421275324450396, -0.09040929123679606, 0.23597786355533273, 0.021192925772082705, 0.17137567008785337, -0.15217743487319377, 0.2407966360459011, -0.45785430486454654, -0.24174344258085576, -0.3497948303074145, 0.48511461061117395, -0.8073274279526141, 0.1835672219286091, -0.5725877005770507, 0.6465400563291713, -0.3730464987038474, 0.44387688115248275, -0.0671718973393245, 0.5479438476575742, -0.7760960277684263, 0.15368270362022265, -0.004461619986158855, -0.4162530901865151, 0.04312393368301165, 0.5988866276909905, 0.32828105254334533, 0.3242152630559754], [0.10439236126939558, 0.06502538484901321, -0.14196070059691168, 0.019910493879914008, 0.15294560545723096, -0.2590866946131102, 0.06097518814095504, 0.08988061325871093, 0.6971394597485482, -0.3662410934270779, -0.23334636957675825, 0.3810873526195578, -0.1613313729319671, 0.2111428170696737, -0.09717980254707821, -0.10696427887407359, -0.08942270185366186, -0.04828357412282603, 0.030055629637302374, -0.3254431045339075, 0.46466752597956557, -0.0953433299164069, -0.18530680092438426, 0.5132771882725621, -0.004559263990833797, -0.35774058196225134, -0.3251671064215218, -0.22324220449234505, 0.39600202414301666, -0.01597474052914905, 0.399328681414238, -0.07629799846748633, -0.3620731519514686, 0.49863516893943144, 0.38091310856664107], [0.15158333360732074, 0.305970225630708, 0.2481928277722798, 0.4277553251436548, 0.13048419658873106, -0.08524267306644512, -0.30128612635525454, 0.338821765006128, -0.05711155314974811, 0.1828821848877403, -0.4249811399819826, -0.16874617421647792, 0.15820474795023173, -0.058004363721071574, -0.12434242869839945, 0.31565576616358065, -0.5196065775126634, 0.23288365778972703, -0.11329472965012351, -0.1407220536852189, 0.002380047234416438, 0.6628585155434242, 0.11899820417924156, 0.022303692250371425, -0.3343707035201595, -0.238768538020186, 0.5078114397763379, 0.27614954197268776, 0.0540819793676861, 0.39371544412287324, 0.252084924394968, 0.21566430621668004, -0.15800674729944347, 0.40836105162511305, -0.14712055351286996], [-0.23653308148016716, -0.2712757047782119, -0.18977286451095335, 0.3993701943369525, -0.36712189731413436, -0.44088958329822014, -0.06221856361938747, 0.2891044171557376, -0.4566987548312682, -0.1699713770945088, -0.049435735854731454, -0.3223551327187203, -0.05176854870137215, -0.9116825998348811, -0.015623624645098937, -0.49306407542071273, 0.38521105975042913, -0.4901237916983197, 0.4375030612075215, -0.049588098146370295, -0.14197472318746976, -0.8317759707637052, -0.20739435103479428, -0.6730134631587994, -0.2686666272540553, -0.3809364324990412, 0.07538774794113, -0.07952556045680713, 0.0850438243880636, -0.4594215005799835, -0.19243505799052057, -0.28987818670373744, -0.015918850199529114, 0.1622690245861989, -0.3206977839393349], [-0.38596566553178985, -0.3743524272189555, 0.5896419433718184, -0.22077275820164272, -0.2581644197105168, 0.023776859910971667, -0.2965760019298986, 0.48643580442026224, -0.17059594498129635, -0.10160591150065086, -0.4962294123261437, -0.3321113921432553, -0.0894827908561865, -0.398041594131609, -0.8775721492904366, 0.12123117460830378, 0.2200714257455904, 0.787238469039332, 0.24249219849607323, 0.29117297278011944, -0.469824430117935, -0.5394907179736562, -0.05901237019994254, -0.4471951627832044, -0.27347717686110096, 0.5802790588035213, -0.8481641567521335, 0.28574772212964905, -0.07122892835732642, 0.07092964385859322, -0.49837051508464275, -0.08564451313827542, 0.4014461719597896, -0.2811281393807133, -0.566079366849256], [-0.18643165104040693, 0.1545076761512857, 0.09318180728732796, -0.23318074168247896, -0.059901791717206776, 0.3122708518610961, -0.1012768603655328, 0.3728109799141728, 0.3822411393150073, -0.03845218951269275, 0.5003258693782741, 0.14358780118838216, 0.5542248575253639, 0.8317984538300286, 0.13872354583499621, 0.5610877220982409, -0.0187596380160516, -0.0576020372629588, 0.47560975748267337, 0.7342229678375759, 0.7087455771305877, 0.08815630770569391, 0.5580735828713975, 0.8513395477995755, 0.6235953039426699, 0.2874975537804561, -0.36543374095584635, -0.057193213936519875, 0.4749615494879404, 0.22052738290418414, -0.3716262643314012, -0.5588339759525024, 0.06288219168357306, -0.004066629486369169, -0.04241446727157633], [0.016446041212050087, 0.12285319352504223, 0.19218496439657765, -0.2104322353425771, -0.2596361990808158, -0.634251069259602, 0.405762738986504, 0.34311841523963127, 0.1469223293085607, -0.2143997391919378, 0.327090180861417, 0.16626134200298293, -0.4316543523156596, 0.39436842087397567, -0.25184174932512515, -0.21315285152787863, -0.18918643042522607, -0.4458804781848994, -0.2548087669070864, -0.46095196769202695, 0.3982208327910941, 0.13710044373189803, -0.24200511068639502, 0.07793492959775253, 0.3500220646650047, 0.022497227117503613, -0.06065086808863258, -0.2744156240156539, 0.2817292425162995, -0.36797436152392504, -0.7949523926974668, 0.5110261182205286, -0.2933856147802343, -0.5454188387645333, -0.28737843868211527], [-0.26034266519435545, 0.3957717467765993, 0.24577212597972217, 0.186260999434798, 0.1631110326164913, -0.00729965565080744, -0.3445057756228855, 0.04068021134679625, -0.211283123131421, 0.011363496690636762, -0.24545374584043428, -0.6562094458717149, 0.04256475498939041, -0.0358043479129941, 0.3778951977034402, 0.22850468428705695, -0.5428745591832317, 0.20968741776817573, -0.0152728996148722, -0.6172066196745859, -0.010243163159033617, 0.23400794796937904, 0.4802504671844986, 0.3067387669365802, -0.18450313698450702, -0.7519200916862193, -0.3681691158350824, 0.27593554971103956, -0.28382835332317347, -0.30208070633364764, 0.047248870900388595, -0.00240526559708791, -0.6682973714217504, -0.008327553109895388, -0.40085058023969733], [-0.2568781616418819, 0.2861865861717599, -0.3115524834183187, -0.4441430398376432, -0.4570000604923269, -0.07261411335735446, 0.2942401135502446, -0.01984708108040365, 0.19596842848901574, -0.6375818726988236, 0.5054861380430129, 0.31685515491519295, 0.8994913166979394, 0.2959550710263495, -0.24169366251306154, -0.6446228393924648, -0.268080408249443, -0.466020109125823, -0.511071361834307, -0.09996309399967672, -0.4419186010499999, -0.036957808338960896, 0.22415369181346403, -0.007038410462264095, -0.0012924763652987458, -0.6523275560339492, 0.4604221630887782, 0.6407498139571668, -0.3626724869983808, -0.08175349761973563, -0.16675994532299063, 0.4604191822731777, -0.363725811864863, -0.22125184931587044, -0.3732221243206794], [0.31249482277149027, 0.018430554267976906, -0.30326000103726247, 0.5658534322795102, 0.23023663466926564, 0.16087734664343128, 0.6174932354064888, 0.2701702949176042, 0.24586888169018, -0.03571534561546252, 0.3208209336527361, 0.22814049498295288, -0.09409373527285818, 0.01759808726661588, -0.15373812985276017, 0.4067857691629726, -0.16042711838026408, -0.3028993822143351, -0.018509944282135926, 0.17233852904869834, 0.07946242594221968, 0.45086002650110996, -0.21887841065216265, 0.18726356308921585, 0.14031452999690386, 0.19720373042453238, 0.3295080735576761, 0.2996016733115045, 0.20302343501140813, -0.05670780353504051, -0.3917552420915876, -0.18532377387125507, -0.019184096504023487, 0.29992821020658905, -0.1647491291548216], [0.2664272613239635, 0.28060665206681806, -0.16990390440133643, -0.17283171607886252, -0.22692885671341165, 0.13921641449352345, 0.026368844934447116, 0.1980511201163204, -0.21279305029024292, -0.14347347393249002, -0.5928009093758474, 0.28892162772654456, -0.2721932338152397, 0.08493929369420967, -0.1484476603892007, -0.4436756085462229, -0.66847958702121, -0.5734962388770504, 0.658987272014681, -0.09561447957407962, -0.4662209812499676, -0.16756765127040607, 0.2829494030627961, 0.45137712818104325, -0.4222165668162969, -0.42161443186048986, 0.2427775546326818, 0.009425633889227944, -0.2747239057565996, -0.22297925655235207, -0.279089738588389, 0.11049657659993842, -0.6716045825060836, -0.6525672809885773, -0.032441086407974946]], "B": [-0.48076410402670433, -0.09836357663780763, 0.04785673037466899, -0.3087395450346659, -0.4322397113347695, -0.03183709482411783, 0.2900580142977359, 0.061002689478231245, -0.11586850624792526, -0.0030028414823836695, -0.30586481751697764, -0.12426264001303435, -0.28870612097686843, 0.03858386941820801, -0.7022577925148771, -0.6097314504459109, -0.18338487470434478, 0.44281666473826653, -0.06403404699038051, -0.17373590514678933, -0.33409066510252694, 0.423263736265113, -0.2420650804468155, -0.3049016904371956, 0.10797567257439308, 0.08520786618783921, -0.11578202979479495, -0.2727223597823951, -0.2359258407473042, -0.004725792974965644, -0.6476632101423746, -0.008412866862686646, 0.018550636081496548, 0.21106104730276015, -0.504226625187543]}], "mae": 2.408214090797806}