{"name": "ej1a_gl", "layers": [{"neuron_units": 20, "activation": "tanh", "W": [[0.07941892685240765, 0.03257808472400087, 0.038260196382973816, -0.1160522049629232, 0.2577221182225747, -0.02827201641564381, -0.2670220610040763, -0.06451470645425818, -0.00949337335246477, -0.2147843865698351, -0.004559907708283706, 0.26561324107817974, -0.04988059567142495, -0.07546362177272235, -0.2671192232714665, 0.15677303570312112, 0.18524077924734003, 0.026841056130505886, -0.1758185322531031, 0.2617086898585122], [0.2394738147227671, 0.0577412256283222, 0.24503699866963824, -0.14439785008694433, 0.15051669235972226, 0.23122808933851194, -0.042726415606584765, -0.16539423710215506, 0.049013136651840164, -0.19872147534282028, -0.23715510048565222, -0.013619279776764843, -0.38854836764094647, -0.0055867354848474745, -0.03632554804420281, 0.19360103002713644, 0.06660943298847508, -0.043821210574929666, -0.05738015926232776, -0.17813353790296796], [0.17849565910452944, 0.14046535917824438, -0.1638438382396795, -0.054408924492671366, 0.3507088769357696, -0.0740413724750752, -0.1689168369285541, 0.3338230383298856, -0.017251889260217226, 0.2364901752005959, -0.007540609724955226, -0.03943651409070213, 0.13934594449454182, -0.1718038072720589, -0.0938656414061756, 0.08295950637727384, -0.33608140675277476, 0.0020864619139336986, 0.34605583265528433, -0.18036211259862064], [0.4226086054867811, -0.010933150839248881, 0.05300771878518262, -0.0936665248329061, 0.12262910358977851, 0.18632801671304208, 0.21932340360482647, 0.3668533204462784, -0.2678097407903287, 0.1364101670094678, 0.4248640479460293, 0.23872833900822124, 0.07730824370171158, 0.10077729922228128, 0.10516067225308369, -0.07636710326035633, 0.16695707445626676, -0.28748949622941394, -0.26607716792178215, -0.20328512801422924], [0.05211615992542626, 0.1301560141163596, -0.23888411617425648, 0.17634076343682953, 0.10637667153550293, -0.02000650462014161, 0.17700751654115918, -0.22767423024591635, -0.25682206763733834, -0.2528241111648739, -0.012772789483826461, -0.21535654301043333, -0.24941161493075192, 0.16344455273311645, -0.09440489973493893, 8.216665890507093e-05, 0.13171213738027998, 0.3910281963521874, 0.03273459392659464, 0.08394816630385565], [0.10782417393354309, -0.012940600155426911, 0.33260594957512457, -0.08267042675611039, -0.12290768389709843, -0.01554008248491044, 0.0713459461820014, -0.16609856322372601, -0.024626344848293954, 0.34776526405190716, -0.21482279824006917, 0.07056263820970159, -0.08735971668177195, 0.10875782383726632, 0.27203476525306575, 0.02826748646507181, 0.1959794118979484, 0.04408886765064365, 0.05660896468399472, 0.1852283926150482], [-0.12298450805392402, 0.07288236481639412, -0.30872658477260073, -0.16241728998385124, 0.03442225851861327, 0.2884231066589542, 0.01694061249240648, 0.39287633473623296, -0.42240772768455576, -0.2681130500028844, -0.3466873669278406, -0.3521564543648471, 0.14986838882351178, -0.047460239076142545, -0.4723430071412402, -0.321087918546074, -0.033752551764781945, 0.1324444474189999, -0.09214524912250074, -0.2444434430192607], [-0.10803269755108735, 0.23883365166504453, 0.4324530555303938, 0.027969976697492183, 0.14021092306595695, -0.15898231385454956, -0.17137366247942348, 0.5314189091915742, -0.061153720046778756, 0.20423729056944115, 0.12125030433021103, 0.05749955808012272, -0.41729514518486827, -0.3204489189448806, -0.17594785693409556, -0.07086734911413514, 0.21957755534857418, 0.2018183035178618, -0.21830105202290856, 0.023191970741673916], [0.11470101929037398, -0.3854798675044823, 0.2004265437436571, 0.009673528234125142, -0.12481379621056199, -0.17413400606295562, 0.3905928008137559, -0.13152810908793064, 0.04292746721843458, -0.21205883131294437, -0.125902906639924, 0.3103123192163116, -0.17999128095822825, 0.1229807706425425, 0.2048446028942655, -0.21533836675196513, -0.3075041447869423, 0.08540045630797424, 0.3902302624016902, -0.07415982917179804], [0.22540198801209838, 0.23778280207049013, -0.26241221267983544, -0.16101594834435012, 0.21140259801659742, 0.08576539225280863, -0.15072499946127235, -0.11406941541056957, -0.25114611586293556, 0.1484596607710031, 0.2234080388705677, 0.026213969349577385, -0.04244266922971221, -0.0737244264078577, 0.1196779288859713, 0.38607942158997127, -0.017463188655728996, 0.244553569450694, -0.13685116551448048, -0.4190136708391179], [0.21804811288243112, -0.10525228325400274, 0.05101637003268152, -0.4731742090001532, -0.19712678352450114, -0.05193435058489648, 0.14373385536277608, -0.140723682562503, 0.14587430937595608, 0.32440241373112094, -0.5113062461887635, 0.16516558405985196, 0.009774422814165464, -0.05698216852629, 0.23717430622980118, -0.0701889056101528, -0.10670265354136776, -0.22891156703797386, 0.03011801407851677, -0.01993987983818056], [0.0951315201065353, -0.043466141010158096, -0.25730824328584806, -0.07931870551944313, -0.10859311645873776, -0.013793672997301134, -0.1566483116468656, 0.05508300584476544, -0.1924500699267884, 0.17161477926933538, 0.34165556982433987, 0.12689200276802126, -0.10286554886000397, 0.009979034623812942, -0.0840510627514669, -0.18154102550849388, 0.3031223432225142, 0.1517568508279441, -0.1523232307058569, 0.19856644079548952], [-0.30045770608241096, -0.41786320251551934, -0.11583003703384608, -0.3795383003057339, 0.09902878901724654, -0.07270643415961373, -0.198714839193899, 0.29870050939519927, 0.3751385564389958, -0.2665991567405059, 0.022426636808970005, 0.4447174744652766, -0.18883540513178368, -0.046043600484769506, -0.47641900811942517, 0.24817453983720397, -0.39847963367318057, 0.23882985588576564, 0.11019866529637579, 0.5032177597268839], [-0.17303684089966428, -0.19687220104450254, 0.2314128312486211, -0.13164167272714034, -0.3154249535551606, 0.34936722861034736, 0.03982734798761497, 0.17537145963120454, 0.27211779287089644, -0.05333969226450593, 0.12671752589468463, 0.2004706615920823, -0.021876043343606145, 0.14566738619366368, -0.26991648662314704, -0.18709922578025706, 0.0027849260941563815, 0.4443017413888772, -0.08487088185031798, -0.26956296969565346], [-0.04744506471913026, 0.20942263046214316, 0.08840805811634452, 0.11694959576831603, -0.10271386658180036, 0.3227962775916253, -0.26638229259593893, -0.09673648885346245, 0.04381404940407933, -0.16894848833201626, 0.05045107410981564, -0.09181748134480619, 0.07235937957211867, -0.07468229989766684, 0.28104268842522817, 0.07682949338195691, -0.0030063842247154762, 0.06798169199331515, 0.34428331599003364, -0.16592740707887674], [0.2321839842621836, -0.10838151781905021, 0.06926190968863072, 0.34420868873671007, -0.23172307670550354, -0.33870911273276605, -0.24041116639959417, -0.3827640551714428, 0.34338496044763295, 0.1346436867177671, 0.15548039895963367, 0.14369914470122036, -0.06478005795396717, -0.2702027689129413, 0.15511593981617522, -0.041650292060170284, 0.4134456878423887, -0.18602545264667708, -0.24971633710429048, 0.0711578908103911], [-0.04989876978927827, -0.24101940956100504, 0.37231240099090623, -0.2825526220128833, -0.1457739703003375, -0.07680614542066024, 0.2640564523026293, 0.15559635885744402, -0.3701961217556378, 0.3083996221650452, -0.1273838559464177, 0.06209743377393962, 0.31512085032138193, -0.3570989051113818, -0.1101754995268246, 0.05817791607754831, -0.20598501519961712, -0.12201800257364034, 0.015602619327309128, 0.29324970044851606], [0.09110068943348323, 0.04416818191930156, -0.08869761946321766, 0.2301190425291743, -0.33490797423308866, -0.14178287940338402, -0.06458754074231757, -0.12129863571957301, 0.08084676567653146, 0.020126342198713402, -0.4815526725334256, 0.07827857077831461, -0.15185241223965684, 0.10076655582079373, -0.24727398871107145, 0.3870551574324469, -0.03620333963386068, -0.008563459341652025, -0.4710506246590306, 0.24669434958474837], [-0.24424962510748624, -0.23957820001199015, 0.28547383694833833, 0.024476519973254555, 0.07745978864399194, -0.0752724719616213, 0.5330919530080627, 0.04294342356457067, -0.023733523685291465, 0.0901887075727977, 0.1709655715505631, 0.048397676021216904, 0.13206245845066497, -0.2654410620455426, 0.16992401502710316, -0.03959221491500544, 0.12706046376067473, 0.14722927171659903, -0.0016687935137545404, -0.24757697326399677], [0.130508106886133, 0.011229879958603202, 0.08627979482421781, 0.10773534433165675, -0.09822293979649063, -0.3501291219352861, -0.4072659779241891, -0.415103993653323, -0.1940255478252255, -0.12210749941038967, -0.013885598971819355, -0.26464531565232546, -0.20315468492822664, 0.2185191428170859, -0.040016650874429946, 0.08805549854792047, 0.055640087608612686, 0.25178235020477124, 0.019228113986347693, 0.14368142862713149], [-0.3014595442277782, -0.05880394167127419, -0.09972972852661871, 0.08199783854787603, -0.15312986735342146, -0.3611888103986377, -0.16802787790555443, -0.0785059542691915, -0.2978147117489284, 0.309425554689884, -0.10685715498717441, 0.01849857210277015, -0.18795193940429067, -0.11757622343101218, -0.020778738119191127, -0.33491216616685565, -0.07291970429991296, -0.06220921025872277, 0.214642980782192, -0.19139293984405786], [-0.2820508389307759, 0.28102733121802254, -0.031925981538512366, -0.08957878644762243, -0.15044846904991616, 0.23434776362643342, -0.1689726395001449, -0.15276274217506464, -0.2201968583468966, 0.02593057613138599, 0.2942142408568731, 0.5162808612958163, 0.3226805507062704, 0.0843605091857591, 0.056087487828740935, -0.10268605761202194, 0.011831729526854426, 0.1330820768177053, 0.08758056355920169, -0.17826832268973788], [-0.37508575678722567, 0.021970703589368624, -0.020148811477357354, 0.2983022712704046, 0.08267624475799255, 0.07631505717833077, -0.09313934848274391, -0.15878184359394715, 0.21832934054001474, -0.051272059548651, 0.24125760338576505, -0.1042962388317017, 0.18762641417200976, -0.31134290672191156, 0.34017335044727387, 0.16598601078888592, 0.09811199306392099, -0.2785388245955942, 0.18801502891591027, 0.04107462695204309], [-0.13566798530920166, 0.10110948900687468, 0.18928496576091094, 0.2821907129419058, 0.07250784592354474, 0.11242623406730001, -0.16312917445826366, -0.13539556144431383, 0.08611383546246681, -0.3638064496729653, -0.04954331027233938, 0.2197778540143878, -0.3219315850940242, -0.1193737537846453, 0.2563226091406254, -0.34142522105592876, 0.06029484877277813, -0.09255596505536519, -0.1487052029513598, -0.10448275178043406], [-0.35843443399488367, -0.10454497094636703, -0.07965244721816259, 0.0025069077552115336, -0.03642328457792733, -0.12565916165537877, 0.09141610024612858, 0.13484400025616206, -0.12539223389667542, 0.2674357097105312, -0.04849852592047648, 0.00466793153054887, -0.11891278384424624, -0.14057238312960954, 0.06062230847760976, -0.034163004366097004, 0.1074481923483088, -0.13213133540131036, -0.03584242043256181, -0.3615995121075752], [-0.19019159400675317, 0.1257603642499845, -0.21511533229402602, 0.13100396915364731, -0.07914090402307955, 0.2958615397769802, 0.09052177992399241, 0.02921799171694267, -0.10043224959846571, 0.3606681324124683, 0.10016832281294127, -0.08508880244309332, 0.017815822173211208, -0.18577256770177095, -0.051049414748788456, 0.29715800615660964, 0.2529268326523108, 0.2787862995857831, -0.07224148241920093, -0.15332333680796242], [0.01659004050326492, 0.14954328149141674, 0.31985229210954647, -0.16825491318670893, 0.04383575211355667, 0.2011841762597633, -0.22508530466678173, -0.14067113783182508, -0.16429510965929991, -0.2104017191767738, 0.09825803158142064, -0.14489498859768576, 0.19471562076012827, -0.1424602183124449, -0.09238652136524428, 0.1392144321531929, 0.2957609169223812, -0.04270821600302112, 0.5857173014638072, 0.2585372525691332], [-0.17590468087123787, 0.35747975011072647, 0.34271194778568, 0.07814439161364178, 0.38338634771746827, 0.3201444390469129, -0.24637002157723356, -0.006818581809169903, 0.15682375559094489, -0.03584212911580154, -0.2874209573849858, -0.31518230748360887, -0.23697450744081217, -0.10018223941885004, 0.05442499148609878, -0.2878948283816956, 0.10562958996968547, 0.08570170132347, 0.01604952179077002, 0.4122051622436984], [-0.009456289313049898, -0.25209645743037135, 0.4498480280472845, -0.29155116911017204, -0.2674124449388314, -0.02564066945586868, 0.08956216455993778, 0.2584152983878096, -0.15116627177776892, -0.059292821093758656, -0.2440495713559, -0.21920874135925858, 0.19063812767460409, 0.17468457767318168, 0.030924522599994925, -0.14615827905793968, 0.14728432942323277, 0.2415960105001331, 0.12796580568701346, 0.4342954869594818], [-0.1668324826312085, -0.097604442141609, -0.05283371842118345, 0.05126539325267684, -0.08270100105092333, -0.13684600823020643, -0.20179450678377658, 0.44476417668998086, 0.07861351442190176, 0.03845874081568896, 0.012796372885296451, 0.24431989769627696, -0.2883998361992616, -0.11679532387513504, 0.06701383891194569, -0.15573800768385965, -0.1902424677341714, -0.09394577860687081, -0.21687636109136907, -0.11980066632722887], [-0.260089544197248, 0.06572936222336254, -0.026929956703936653, -0.07323338390201187, -0.012035671342409085, -0.23982395616487687, 0.19991354947711434, 0.15990155300624406, 0.14846512336112894, -0.08762092808817822, -0.1643459888018384, -0.39500257851187964, -0.008718649230403858, -0.5411749632368006, 0.06438249681238598, 0.1303924552807773, -0.05565218794818976, -0.11695755045111612, -0.008386352840482503, -0.2302944564889017], [0.09854660577951939, -0.07901240417618051, -0.21799916540957862, 0.29844220081494377, 0.21404675771665407, 0.1647001894749569, -0.03994406708579779, -0.18814193417760483, -0.7328197513058501, -0.36058693835632927, -0.03126691275060176, 0.23349136949102295, -0.14053422032215163, -0.2864337416277795, 0.3010220523385895, 0.07865719852551985, -0.03706860680776984, -0.031358399162541684, -0.27301081956956663, -0.00326327810923084], [0.05430591587965525, 0.08693278133005572, -0.04146307462626868, -0.005181701639708433, 0.41686576869431724, 0.1162673196174908, 0.2298851635410152, -0.3071349968036559, -0.20710244952951337, 0.1162062267356016, -0.308877876860815, 0.1891916507431953, -0.15104172302741425, -0.3838779004993068, -0.15344149640319196, 0.20499408889320614, -0.387829135783527, 0.09079747122411062, 0.13899354486274262, 0.08738093551553106], [0.1550294168109076, -0.11146658830556695, -0.028687721842312646, -0.009489021847654861, -0.33004975888828203, 0.2084348624358934, -0.14375568440082223, 0.2701051547904839, 0.01250944001908497, 0.1628880826114719, -0.059857381964457515, 0.3087330748010907, -0.16633335280721162, -0.05417798986068939, 0.15408769525146812, 0.24560093889437196, 0.4352413744523209, -0.2587671884989756, -0.008861086775471915, 0.1933178724627614], [0.052637207461601436, 0.09000289214357174, -0.21454222774544757, 0.322446430777959, 0.2183278749420309, -0.11003290745478324, -0.0731840834260122, 0.019313681411981524, -0.2764450963523832, -0.07459815996357512, 0.16924484750912355, 0.05238168195688723, -0.04876748915747068, 0.17603299119995347, 0.43726025448176836, 0.29565928445297557, 0.6063445510327596, 0.42438391093430156, -0.03263211787346794, -0.024276763286619877]], "B": [0.0973468429983671, 0.4967842627925254, 0.3015671518724075, 0.41273863183910536, 0.09961916755014913, 0.1672198382589188, -0.10448029466776851, -0.03038105985779284, -0.3257691967006648, 0.002016370148630183, -0.2129410558779248, -0.12962613782685606, 0.044158874424326686, 0.08916055513495846, 0.06594995964376034, -0.24048779167077677, -0.1904502161263, 0.028874475138794316, -0.11136085217946108, -0.06991564757220164]}, {"neuron_units": 10, "activation": "tanh", "W": [[-0.22790859072935074, -0.08208840588287926, -0.4447099588993577, 0.11770723843566115, -0.013398545128932722, 0.38314665078785143, -0.828579065569806, 0.16893567496795533, 0.014239013375213725, 0.17493494146231436], [-0.43839017962196863, 0.1455267702919899, -0.2912082420637017, -0.305280731284269, 0.4605206001220638, 0.2777265874023749, -0.051795780681826914, -0.2381864889652569, 0.08379071884413508, -0.24204027362596145], [0.5678312456504782, -0.10898050485185412, 0.2914038422612062, -0.037381370978606714, -0.4057349678039885, 0.41816811655025715, 0.45345060670033877, 0.10542963218763653, -0.14682784303706, -0.49954570081955885], [0.32929261115387265, -0.1439673825075264, 0.17249781423775087, -0.22627774981830945, 0.010264961670672321, 0.07394020581429499, -0.834216753241864, -0.06785214415593085, -0.45339629476737014, 0.33300965080896344], [-0.3934162237308531, 0.2775121807374425, 0.32673763746541185, -0.19704871615048272, -0.21501191474745665, 0.1931007772825196, -0.05905096221797855, 0.07934254391720479, 0.27144079071639593, -0.19256392704341657], [-0.295056203065711, 0.17846104070049448, -0.524927917069001, -0.1629998235412939, 0.17781224839609847, -0.003113361108432043, 0.383371412819696, 0.023931294307662596, -0.3525333376580803, 0.05623015029061879], [-0.10909685527382935, 0.06342658798301572, -0.14043751624131542, 0.05554174289406825, -0.3479577225086478, -0.19190165891312416, -0.1092485606255353, 0.6328091267342492, 0.08652357210168234, -0.470410802674776], [-0.2238188348106668, -0.14145485782424191, 0.299207754191394, -0.033580691647320256, 0.04764482256186074, -0.07836681585749956, 0.49754376181873633, 0.44429335617802646, 0.15582154938974535, 0.042613774727701635], [-0.06609225999340439, -0.1638933286657516, 0.11626469729578134, 0.40469526626180685, 0.3900903316061353, 0.3271559384117176, -0.7863537192372295, 0.3664762409187459, 0.018520843665618007, -0.4213657109365058], [-0.30563612928362655, 0.1709580042952626, -0.07231874148789015, 0.45879965298519454, -0.5262763135711424, 0.12725153880834372, 0.26135872736640386, 0.16141776674795547, -0.18891671995150805, -0.07720792286398928], [0.01130266040921235, -0.5310156639209086, -0.10375832038372221, -0.02691666639541947, -0.0005209587932679781, 0.1530077384790699, 0.12153918793539893, -0.24685480211271513, -0.4219898645198527, 0.0859210162289695], [-0.36842274692352966, -0.4172590719500046, 0.07419511870084958, -0.09872761392585379, -0.363072837739594, -0.09477856991448755, 0.1504724630865169, -0.7235186392723588, -0.08439200242097146, 0.02923097446160081], [-0.5955600056876535, -0.23061008203327943, 0.04774837793143037, -0.10973609895903033, -0.014987071596829216, -0.0663589965832957, -0.30124288434230223, 0.09189590242082692, 0.44158428221117, -0.18439859203072512], [0.20303221559565518, -0.11582092016147226, -0.3750435133019722, 0.47304014013204804, 0.07045486952139546, -0.12754597757696534, 0.14793159188125396, 0.4310152522151731, -0.04114192502545034, -0.04265084551065032], [-3.276109672188219e-05, 0.16627691647538304, -0.3732082371667529, -0.16071528469821664, -0.5429893487931766, -0.1596423725498771, 0.05242955170116042, 0.10989874916420128, -0.4555321555663854, -0.3570733488033014], [0.06149272937635085, 0.09883354309648197, -0.003674953504755917, 0.22005754578934417, -0.2384830205523532, 0.12574805451632234, -0.0774298408005471, 0.03632913373242101, 0.012811551635862506, -0.023638963331683225], [0.17558558920037226, -0.2223112527488519, -0.2576884337681723, 0.007973705174239353, -0.30944460833202014, -0.3778777372910691, 0.3418145743208969, 0.1194258884082995, -0.11764175661232437, 0.0021381188909936058], [-0.49707617231311507, 0.13749876875028683, 0.39308888480500787, 0.3358940403044339, 0.07564991365501048, -0.27033824551486213, 0.05093140172874757, -0.21710303153870072, -0.5073258828578664, -0.12084821554539243], [-0.10848413572327907, -0.5201796685376151, 0.07101829669797793, -0.39672283013152165, 0.3286778641180384, 0.3028202432394095, -0.021667690417228408, -0.14384237634067373, 0.39575686060091003, -0.34636108552693773], [0.2110984308418487, -0.11009910236267048, 0.11399590153292277, -0.2833391460569063, 0.001026516355276425, 0.45095271038482787, 0.5164612240874092, 0.42644092138899015, -0.1329273971651292, 0.3169665152165378]], "B": [0.10267858114064031, 0.0024550872550658594, -0.23784796574403497, 0.2618427869243954, -0.13808389777409952, 0.23811615244360734, 0.2580219852154807, 0.06426285453753983, -0.3484320447586726, -0.059944648856567015]}, {"neuron_units": 2, "activation": "tanh", "W": [[0.24528896514454568, 0.09846282655883058], [0.015398549554127545, -0.10498920008924296], [0.13508899709674227, -0.0015839149056983686], [-0.09425339816783311, -0.0442742473662584], [0.11040626714263119, -0.23296931509250976], [0.31252545759488015, -0.09918823194658354], [0.0017217746710494928, 0.1889746734897378], [0.11164968297645064, 0.02923602926666099], [-0.04813076755011354, -0.08694511953906078], [0.04454278754714835, -0.08961329196980637]], "B": [-0.08671328607333302, -0.21041718170490792]}, {"neuron_units": 10, "activation": "tanh", "W": [[1.679140377748011, -0.24310154759121252, 0.41854277335409756, -0.1713730484390781, 0.5518161946493381, 1.5567537611740572, 0.361106411566575, 0.4208972715473493, -0.00511313759338572, 0.035218076621510566], [1.5946919345549944, -0.5084422296927836, 0.1858924590477397, -0.08921433751135113, -2.943610763602802, -0.3476750598975272, 1.7809765957315613, 0.037191252208598695, -0.19554024361916428, -0.28682251397374153]], "B": [0.13401097556602493, -0.1985954694974995, -0.16035814798829845, 0.10427998804090823, -1.764721432631553, 0.7772765802922479, 0.8479083660294519, 0.411382815619492, -0.11555159945584091, -0.13807556787022293]}, {"neuron_units": 20, "activation": "tanh", "W": [[-0.19659680360472354, -0.7407233698794488, 1.2573335594071597, 0.308710430894582, -0.6318441830485957, -0.3587961522558687, -0.04802304768897409, -1.0643180765327882, 0.6612084052526712, -0.8635625098636146, -0.6154313449288127, -0.21053944190275953, -0.9242871508210845, 0.6919593080638613, -0.06601822062548857, -1.0554753735091957, 0.28856401754985833, -0.18685814804480974, -0.6331514791259304, 0.3374107213312551], [0.31450313487673986, 0.03921844806990391, -0.313964535978745, -0.39896763831479753, 0.8582277079397015, 0.670868763188376, 0.20998224841666455, -0.7266157896923492, -0.5537985671049204, -0.5178885611959299, -1.242994511326868, -0.6800726658572701, -1.456985811846169, -0.6437305881435539, 0.002792891056655705, 0.7868379665784753, -0.8208469064615311, 0.8182730757513567, -1.0043820432940287, -0.44369743266900674], [-1.0232395826588023, -0.576653959362096, 0.5238654587893311, 0.5456731559018714, 0.2880066037514869, -0.8620859231870593, -0.1388805600505872, 0.6130204034270166, 0.8307019729179254, 0.42678724775462856, 0.060698661081474245, -0.3359216608753686, -0.08067705824299651, -1.19744240922951, -0.6085242015257647, 0.9747962511926539, -0.1969202443033013, 0.4929903136567358, 0.6204726229042167, 0.5674249418155751], [0.46184348240883616, -0.06258261887599091, 0.1970616213738918, -0.4908727120347346, -1.1728757636275495, -0.8374044982199235, 0.33446042508767615, -0.2529406773715875, 0.7589683431630913, 1.1703044147742605, -0.008845651121536326, 0.2685433368154769, 0.21429476994090033, 0.5748823552289711, -0.8713157010585421, 0.4694972141484367, 0.4945198260034074, 0.41698794260341476, -0.744286752669788, -1.0001486554682149], [-0.7542954433803499, 1.1929185215519509, -0.5388880009362089, -0.2078212621124615, 0.060322913266647786, 0.4576048147809794, -0.8149596241616506, -0.5375397362518636, 1.3401246248301824, -1.0105942580691887, 0.4685799578621875, -0.7027861948264282, 0.148105454216785, 0.6275651306441465, -1.1343757009097237, -1.481829349793311, 0.600603499018941, 1.0894059609929228, -0.33065556936971796, -0.0808616797207192], [0.6682157429582098, 0.8138753461356314, 0.9215941821471471, 0.04320623799496008, 1.2319139242765362, 0.10260309722360272, -0.2889404106391411, -0.7181295203144232, 0.43988325381156357, 0.2789305245832439, 0.3166374158785999, -0.7320548203750313, 0.10026702469841345, 0.2807605269206222, 0.03595674925194099, -0.1263694852415317, -1.0279655748158916, -0.6970378793645223, 0.18887210197455265, 1.2083974526982302], [-0.4098046080648008, -0.5279140507133218, 0.4376363702064847, -0.9906188525697154, -0.08955629506627162, 0.49311647155610955, -0.4283171152382708, 0.5588287339158069, -0.4081780627906875, 0.17097587511969126, 0.20898951798065193, 0.35486345315306267, -0.4483434333399913, 0.03998408799243225, -0.2896151125183258, -0.7451753110585712, 0.706748624590162, 0.7772917473810925, -0.4825147196196544, 0.7178708839501063], [0.21316397511810514, -0.6446886337747298, 0.03435686924086549, 0.4720366238498272, 0.3304940660580762, -0.12311501689257548, 0.9349643503274844, 0.8325189127806388, 0.517918492512833, -0.0010315237256103237, -0.22351607266954363, -1.0884724177030825, 0.1878212878129809, 0.6858180676546497, -0.5519386436291202, -0.3989268730343845, 0.41573079025022414, -0.25652927428853534, -0.17905016726570316, 0.7869691701139887], [0.5076822637625372, -0.2851131776153631, -0.4726467031437774, -0.8001293603904792, 0.1053186324219098, -0.47629927754688095, 0.3357956937230493, 0.1653772620050967, -0.4110596496764791, -0.3238228418468408, -1.1189969986977262, -0.7192612226974298, 0.4356031639347329, -0.07279619293735921, -0.4668726865114582, -0.5423553191125546, -0.2519029467539962, -0.531343937836886, 0.3814038094174387, -0.17443601112002619], [0.4820971501469016, -0.4057712844013213, -0.8470526538645361, 0.34552216908566935, 0.13248532058637597, -0.07793149106272984, -1.225121151318177, 0.819533918462298, -0.5516704836469479, -0.060542290502593556, -0.3155968097725862, 0.7569109772782913, -0.5252876980668457, 0.3953349010539546, -1.0073885951312878, 0.6009794788506378, 0.8403017466826066, -0.0040340248846111055, -1.2950071245447834, 0.7797683761506319]], "B": [-0.899553504636895, 0.10974361102092585, 0.17464926856436747, 0.5516808768759655, -0.05218375841542973, 0.3174925443855735, -0.18492284568970577, 0.19155119264379206, -0.09903857048012106, -0.24476493990947482, 0.3570708768848808, -0.38364284606906623, 0.5841245475091581, 0.2551910386440002, -0.20857212059283708, 0.21425180457275433, -1.2230136336749082, -0.5205645226344046, -0.3408456964352888, -0.21901541588742865]}, {"neuron_units": 35, "activation": "tanh", "W": [[0.343726293418106, 0.6848487117556985, 0.2518220164167756, 0.6107135373862927, -0.02588934239066417, 0.34804381560901626, -0.47884196789148553, -0.38706341965891344, -0.3602395013232532, 0.06338510698314799, -0.14926814680639133, -0.2925625672889979, -0.895697722578243, -0.39277538256867045, -0.009014957998869519, 0.2837617206862109, -0.07705718210760712, -0.14673868815415417, -0.31836710966606124, 0.07271141095356212, -0.31565196086620795, -0.46883892906144525, -0.9379817972195333, -0.2612133669014585, -0.3664321431008996, -0.23169669428733772, 0.029592395765622524, -0.3114273546030844, -0.28313009258343697, 0.12642092771268146, 0.06415731355858174, -0.16060573643664763, -0.03095252151011976, 0.4540645415149272, 0.08444883811168107], [-0.3039682513845249, -0.2941282069708931, 0.05449234307171648, -0.06105539419335222, -0.2412199522831378, 0.18351542356876915, -0.18616953354735943, 0.44098583359951976, -0.33824883623223334, 0.7339126562178687, -0.38458718202502196, -0.1636329718852266, -0.12438221540454694, -0.2904248283072536, 0.1461384533492839, -0.20979967737551586, -0.11401559370689467, -0.2594732654559376, -0.4846344139031058, 0.06740769716138063, -0.47827020407885823, 0.4957374758007549, -0.32279506825570264, -0.3481870669289532, -0.4645768576285822, 0.07856620376758237, 0.06832425148389179, 0.2529428186301, -0.49329960889409047, 0.2131806711187835, 0.00047145873272521976, -0.20120944373329736, 0.2824308296936702, -0.15952833239189315, 0.10344389968303044], [-0.2142915784169855, 0.364543976721394, -0.38353923134511203, 0.3153194900281965, -0.431790498895176, -0.1497627799411375, -0.233737319827441, 0.6116009305250928, 0.37022775996707386, 0.20800167711832923, 0.024646708851085528, -0.25630838320407273, -0.01434704112956751, 0.10561041095859214, 0.14793280662213337, 0.3381935049900568, 0.6522401220031975, -0.10243221251223263, 0.879866183277107, 0.5442501057576598, -0.358442155685569, -0.121801376487352, 0.029368302871629306, 0.6399478691343826, -0.06404361750092384, -0.37359982633334904, 0.30581781268384156, 0.6767321374292811, 0.5759023362743386, -0.009635755010800405, -0.05654008860024538, -0.20162544226258153, -0.12327716286334864, -0.18645321448042546, -0.12282791492113998], [-0.4628233601528575, -0.45581484754915313, 0.10124224875649021, -0.07562209135791662, -0.5078061099447954, -0.29737796672806605, -0.21237920740600844, 0.18115002438109964, -0.3634848283687148, -0.2894766073565002, -1.016610208201388, -0.213459220950027, -0.6645446429824414, -0.09611782541617259, -0.18408202272707197, 0.5214994084398965, -0.3216978845300825, -0.08484971055886309, 0.38625690159454373, -0.14888509728191074, -0.04972718723946882, 0.022627794028677387, 0.0633394899544132, 0.06019091082667745, -0.2989308323146922, 0.08214444527291116, -0.4528671402709754, -0.1646679308083407, -0.3812134942042788, -0.003014324530116388, -0.16384062668825863, 0.356920670422594, 0.2328390400936464, 0.13727035551938221, 0.16393799394203087], [0.14631384682311815, 0.1443706272149389, 0.6868143969632711, 0.19894037983386179, 0.011896901441489503, -0.20819439616651533, -0.09477299540282381, 0.4070579286977307, -0.16565573138481302, -0.05406598514015994, -0.4558198811927209, 0.003279756606766251, -0.0009640533003735082, -0.3109832356229975, -0.32827934849259327, -0.6777770663513759, -0.2552255440765278, -0.1425992699456719, 0.32186052172648566, -0.3487668230294801, -0.7365495817160752, -0.7481226258174937, 0.35936594416768564, 0.09150038124200686, -0.1278932054073565, -0.3492939141626241, 0.355060555301585, 0.2170631784625578, -0.14950133641486368, -0.4664984495027679, -0.5917040582991768, 0.4725076074594859, 0.312111474230795, -0.33906130380591837, -0.08938473359014223], [-0.13085905674451973, 0.4039316370263717, -0.16722935682423784, 0.1926488226444148, 0.014380230185951293, 0.14202638370496204, 0.1532888946912223, -0.20745701443030498, -0.13864698158909022, 0.07830438343080219, 0.25168744786722547, 0.01934977839793419, -0.3568440400611601, 0.32561022690593977, 0.3201078359278938, -0.832505440825584, -0.07192975967582474, -0.28667869618641617, -0.22954924555476136, -0.5661900999147393, -0.1837221486957693, 0.33880883271328166, 0.02916499163407593, 0.29861824373874774, -0.03333099222657344, 0.12533466686756403, 0.0687337398699657, 0.5789694109922611, -0.07398797483169653, -0.03230460778918205, -0.054196335927725416, 0.3485630022361994, 0.06463989879940385, 0.5805365898383276, -0.12836063783129517], [-0.35259303923166263, -0.11708574611893822, -0.12166589598182385, -0.0012150459836842563, 0.18022994174194693, -0.02731183731916648, -0.11621821500231924, -0.39419984164871924, 0.4773518125572354, 0.21085892867862152, -0.07210718695710724, -0.23715624703846705, -0.49675106893408355, -0.15880454929416293, 0.057325946431408495, -0.5586722877776911, 0.11480273223889773, 0.05944185265315084, 0.6100407384931967, -0.36965100820149255, 0.0239815108021452, -0.5590370549307139, -0.26879909818657, -0.23762471376849428, -0.017225634370465648, 0.21739130686735272, 0.022679280501054794, -0.5338507135410008, -0.011840226502243003, 0.012482643028839504, 0.00344912979350113, -0.05686137352041374, 0.20330335297567406, 0.03413995589249002, -0.1339488204781651], [0.1490579188229199, 0.008859584054496068, 0.18419971235724117, 0.18345372502869134, -0.27570739969161634, -0.1912361522069311, 0.7401267706955381, 0.5827450199735119, 0.23114694465542437, -0.4905269474911347, -0.35940410514872, 0.4516791828674665, 0.3317740122185734, -0.300972619049635, -0.36284150232192797, -0.12754517486032302, -0.08927128354206466, -0.019832616474974436, -0.0637819909852562, -0.5753315694382465, -0.29953043881606845, 0.07410772370413368, 0.1509700937910198, -0.19475742518251857, 0.19960433007839024, 0.12667129582399866, -0.32916502820698795, -0.1818556234105211, 0.28888083834981193, 0.2624520929797156, -0.04856725297876759, -0.09176533599353949, -0.05515685788256141, 0.7902486092594037, 0.10533384566470812], [-0.209040303192023, -0.31727135023026887, -0.34643066093788155, -0.5232321129060895, -0.0031594804377757532, -0.2731768572517215, -0.26303297411620946, 0.5664117313862331, 0.08934029178230546, 0.027980781484875723, -0.12558314636725307, -0.06942555242265758, 0.16223421738790209, 0.042815301564252124, -0.17975071053140612, -0.005774929092514254, -0.5457603137046648, -0.18405505203628944, -0.26876932074516346, -0.3242298850181859, -0.16543722675419403, -0.0878082658352686, 0.29076058542003036, 0.4356829294751525, -0.49821189538635047, -0.24412909406300937, -0.5855764922282938, 0.1746042145106982, -0.18808025491998967, -0.4600720227134344, -0.0849226109253491, -1.080792073576461, -0.20632102553981607, -0.11459928103918106, -0.48557894053477496], [-0.2764846610247466, -0.327350377638784, 0.6892333792478681, 0.38914111192134143, -0.4208069326430089, 0.49844568930043737, -0.5210611360901021, 0.2603686333325426, 0.1365645137691039, 0.20318026625582103, 0.020080668920570678, 0.48526751063523776, -0.2752432250917018, 0.022154955550863387, 0.09697961434086602, 0.1808163371974276, 0.46018345582628406, 0.06276182697464863, 0.41384708159050076, 0.3373329285050606, 0.20131663094409044, -0.08268479644819227, -0.03509309401400095, -0.3279172239232718, 0.5141951158876678, 0.6666942618922262, -0.7801630987791135, -0.1736405340169534, 0.0778176474031132, 0.17428242359273177, -0.3395301282439062, -0.3113321553776487, 0.561884509458754, -0.07020512586507448, -0.14567043211447767], [0.2460384951390919, -0.09132396586478837, -0.00517238198882924, 0.13256114918688863, 0.02612159737455811, -0.41177937190369596, -0.646591433359554, 0.08371936322736777, -0.010047299435406607, -0.2526168843189236, -0.6510609931103939, 0.8017955609800967, -0.17520208647215005, 0.1733885037611312, -0.1108122913658723, 0.03816085424622074, -0.16370638892388711, -0.20208809716358986, -0.010458364340335043, -0.22708539470292038, -0.34472350240758265, 0.49728564275575826, 0.46187358117883237, 0.0071865017373556744, -0.4318636627295766, -0.25304313610636675, 0.23309101978205918, 0.10552202267965062, -0.3283906383886909, -0.3398656659060582, 0.4719175420196025, -0.31219240927865005, -0.8117707424671295, -0.17935114759099244, 0.014278480872244611], [0.23686194776148145, -0.2560880885295085, 0.13238474527124133, 0.6460612654196181, 0.15237172856332845, -0.1357991255904177, -0.19099574073838219, 0.1334083020129402, -0.02116452796714141, 0.18536258347070567, 0.32400931015624995, 0.5491827452020963, 0.3567681311574495, 0.3799347672497332, 0.34110529532552164, 0.24918124325046279, -0.11689671201953725, 0.21826757407386277, -0.043004372725918484, 0.09509874847384517, 0.4428622148768037, 0.711330579382835, -0.05705544542236577, 0.5691961880122532, 0.28981306577953675, 0.2512943233968125, 0.17422446931810254, -0.46206253299841243, -0.37515785250255557, 0.4544183297080665, -0.6337514225308681, 0.0024295395907521543, 0.24806363435037942, 0.3916184513970565, -0.39098968988708394], [-0.04075956149572869, -0.4936150271530049, -0.20008206473143572, 0.09524015458241634, -0.14304064776991995, -0.540385392960847, 0.40679941261250147, -0.1770079997466425, -0.0823731772220361, 0.40637072158703635, -0.234409270755137, -0.24545044063508062, -0.19676088191267457, -0.4314528491682293, -0.2387461811341691, -0.06530085056816136, 0.43700223592549764, -0.1343984675816881, 0.05324595465339479, -0.7248276130295789, -0.11850475820985265, 0.17984033432314256, 0.33758440187364736, -0.31257073471219887, -0.18755942288356423, -0.30346138891407914, 0.11314868765801446, -0.4002938218628336, 0.12995734754230978, -0.5703013306386261, -0.34024236743222236, -0.4681632951132657, -0.2574778114528141, -0.16991408330523758, -0.13107547904394992], [0.22041135031451808, 0.28926265565354564, -0.6593107591503297, 0.1009953923190925, 0.15969857383071673, 0.23407611227099406, -0.41136066691859785, -0.1389293384219888, -0.2920347753408068, -0.36952192865573213, -0.36266110555800074, 0.37198314210371397, 0.10259056007610147, 0.4448373252282844, -0.03848448966326785, -0.24233123288521663, -0.9294592887741211, -0.08777323814337738, -0.44198810913658537, 0.35525387702033484, -0.3995658566326894, 0.1959941331755039, -0.3801918264853412, -0.17525273095964058, -0.05813662183911288, -0.33275777001573426, -0.3131544873351771, 0.014875842035366592, 0.1305143941320477, -0.47899146229276085, -0.30488734256168887, -0.15259592041176182, -0.48579156878240637, -0.41535050618500335, -0.27908771090128837], [-0.04595744453633845, 0.4810673751269714, -0.10435325667397757, 0.7283037527143544, -0.3282087938090845, 0.5469993210295263, -0.33413364600897033, -0.27963188372699155, 0.007683251947201381, 0.31574939169334454, -0.06943782007564175, -0.1963394159695779, -0.19956871292614592, -0.2059258274014604, 0.688109512612834, 0.23571537883978597, -0.19710485863505747, -0.2421667317899006, 0.4030559872228949, 0.09495750471206083, 0.5011535588263086, -0.2009969584060558, 0.5359363913132728, 0.16532954270649516, 0.22122575101722278, -0.08137635902662983, -0.4330664274199737, 0.0014989816754687351, 0.1754843574418619, 0.08836308991290924, 0.10045222390606358, 0.5494767805594026, 0.17634170793496476, 0.37022718325440396, 0.1455701277257917], [0.4700527736441782, 0.24873540451851606, 0.5137938220507111, 0.28532556734625836, 0.3539164354243253, 0.6048246190251182, -0.5742664325546111, -0.12085997141300063, -0.0880302281052212, 0.6838302170263338, -0.1423275747783101, -0.6248517471717433, 0.26926090615624637, -0.1891369813820158, 0.47748513102470946, 0.1628159931967976, -0.36745586145705, 1.1025811969653962, 0.08874578950559521, 0.18440691149859545, -0.29067679593332585, -0.08875338207300454, 0.49932363005027824, -0.32120369720560915, -0.15566534418552344, 0.32402369242291146, 0.24036487596248246, -0.2987578181646722, 0.15586668480571786, 0.1853538834621579, 0.5357980277724727, -0.3021808173790567, 0.43045218901063537, 0.21977284997158011, -0.04847119542525884], [0.3657798158506783, 0.012462856009371566, -0.22609796581974262, 0.06379416881262272, 0.46129888801004554, 0.4480258938605616, 0.26280112082354207, 0.2828274450951501, 0.34320374026191613, 0.061569688756963746, -0.39309133185952094, 0.06104306175055238, -0.475534311995276, -0.06835402159971894, -0.0592572110970687, 0.35877636258030793, -0.5295249947036552, -0.22322557669670526, -0.23239976789249822, -0.4811421643007989, -0.055748689484424, 0.4854760905829602, -0.07320830883132837, 0.03264746010427536, -0.25562417421517725, -0.050959722635746954, 0.23268523257022405, 0.262144151488009, 0.45409716342173906, 0.06387125188647005, 0.6410404150726412, -0.2650705753845165, -0.40158009661593963, 0.581443597637845, 0.5748332480365235], [0.6345326604977695, 0.11473748316775244, -0.1507145563589565, -0.2714114414448941, 0.6136283372471528, -0.029252708703425088, 0.619217872963411, 0.06764596901503332, 0.3136559230093928, 0.6745375168109472, -0.3090614133497106, 0.26319256321861606, -0.02029153051647721, 0.9398460504867023, -0.2384372658462372, 0.08036626819823207, -0.055869120560127994, 0.10772710122582344, 0.03935871638329776, 0.3811791284854956, 0.29910850314843646, 0.20027623666696048, -0.28427469678240175, 0.27993072749167164, -0.11133758356307386, 0.8585829273528169, -0.028687947306998637, 0.09727770985436067, 0.4801848277339463, 0.6086775044827321, 0.4305085652682169, -0.35999495572431833, 0.07168077757437527, -0.5508314688848872, 0.5780185863592636], [0.028351127309624247, -0.0633412218325825, 0.10931051284761904, -0.2529666932934363, -0.2998676733051479, 0.274542400986855, -0.08866772888448808, -0.12800665941964728, 0.5852097046378176, -0.11372221020875703, 0.13389001255865152, 0.30804709703420585, 0.08645803071923593, -0.10326284382574329, 0.6304463377826236, -0.2268444413770282, -0.2668904499514622, -0.5498067532276376, -0.01810353911241602, -0.19756886110406302, 0.38043785712974554, 0.09457797229729774, 0.49414567099918016, 0.0746338876558741, 0.29706852958815794, 0.024362419542612854, 0.8516934934461202, 0.07650229101108968, 0.2989675398138274, -0.5387251363307911, 0.006597096378321292, -0.3954884469928884, 0.6372722885651126, -0.16498986568967694, 0.3746771356163098], [0.00425397977614065, -0.7702990148233197, -0.2857412254690845, -0.1578002956959302, -0.10907517486273885, -0.20961765451587122, -0.07454107773696016, 0.11401593022044466, -0.03886757105357202, -0.35057195770320615, -0.18276376163050612, 0.3172811897424189, 0.40831698721677206, -0.8100658149895174, -0.26656621758974836, 0.12676129224873994, 0.3379217659695622, 0.24366498049902827, -0.2892867316576478, 0.453873603149866, -0.26902182544572373, -0.10744169429029263, 0.3061698657937388, -0.4372768841205559, -0.33104582123936344, -0.0638566614046959, 0.29300563276283015, 0.848130914991898, -0.4042950843099464, 0.02377600537995159, -0.07221935672949883, 0.12330690204429495, 0.2419419807220193, 0.11471746021569988, -0.18794853315659177]], "B": [-0.42054978319882386, -0.09607872979621429, 0.04769812519768281, -0.24524685825263645, -0.3271887520109711, -0.22200030528435585, -0.25182707640600044, -0.160302257766459, -0.3093095249596395, -0.14525257236892591, -0.08106339508579961, -0.293358861326575, -0.032331246893938265, 0.18719479068124784, -0.4930783888783846, -0.1678984368717639, -0.4054357302237637, 0.1795169083000069, 0.12328058132747635, -0.2258721650533043, -0.05849679782522871, -0.051681893644938824, -0.062014450241172414, -0.3449803865351754, 0.22652261428869774, -0.06736122006649999, -0.34897924087784715, -0.1654410143348713, -0.04861975744710593, -0.30276665922429163, -0.176444893232679, 0.08808163706884037, 0.17545158555634024, -0.04131147428922575, -0.2906655534369243]}], "mae": 14.235594690386872}