{"name": "ej1a_id17", "layers": [{"neuron_units": 30, "activation": "tanh", "W": [[-0.006838178604589579, -0.02650921360036962, 0.05624317131006901, -0.04595631070947921, 0.22043078913298417, 0.2621638198550814, 0.2749833020541445, 0.10779615294336449, -0.1672520378140877, 0.05730620319039736, 0.06348580818452668, -0.07499881615631415, -0.09784986376799151, -0.10727815075052956, 0.008139701630985144, -0.26582255548354666, 0.10551515317079613, 0.07101554223379944, -0.09902534839758702, 0.006776828714398794, -0.33539597082593753, 0.06113190080351024, -0.10738575410401813, -0.17006365698666054, 0.30644982105291885, -0.22838976988968548, -0.24636291059373874, -0.0804335980635118, 0.07759422913615441, -0.03741638272594169], [0.016925627667280493, -0.05448002683644041, -0.015647958391793542, -0.12211126848900385, -0.06991143337403236, -0.1310540244117739, 0.313071839277931, 0.1311983753895014, -0.1347248852301477, -0.3296368664816346, 0.17475683769244257, -0.08137241200249515, -0.3175368395066286, 0.024564957045909285, 0.2343540149028051, 0.006637041122848344, 0.12653290648467003, -0.08451294168421997, -0.23110461810385616, 0.11102590415110157, 0.08522512018594706, -0.01417155351899561, 0.21704658488434242, 0.2937968674761728, 0.13906161276721665, -0.09160229276543697, -0.30544631612040135, 0.12394809464599299, -0.031567032244644466, 0.1877925683592865], [0.010082719759568964, 0.2900314648849979, 0.21347100633807553, 0.08493619603950626, -0.3268123702488221, 0.20307101393461105, 0.05123881245135583, 0.2802398189282299, 0.1477132394910433, -0.3577421240783223, -0.01591905117721903, 0.11940476005457487, 0.04327670702399415, -0.11221950342474195, -0.19197416459908018, 0.1562432122808871, 0.024588690078006112, -0.19906064773897814, 0.046399405768871416, 0.04884534273639427, -0.2732338566185849, -0.4667090563465169, -0.02754918943184217, 0.4393071942103333, 0.002762009457868418, 0.12875236954635993, 0.018578622841061147, -0.20345865342608277, 0.08189292601390721, 0.16300066681855543], [0.1269316516631386, 0.22680779208032628, 0.0181366315963379, -0.28462753220931475, 0.26290905079597965, -0.14454640213258194, 0.07468382529785264, 0.01845906975984148, -0.09650125280220291, -0.05046715120626622, -0.070436633646218, 0.05473904659346389, -0.22657326655297433, 0.002377371022339537, -0.21533048974112984, 0.38123234947809065, -0.07078805058119064, -0.08785406183090574, -0.2309691228613229, -0.2366526428712885, 0.008347921953909175, -0.1328414891030577, -0.03457160788297379, 0.16196965314083112, -0.22146801644671574, -0.03638587357399615, 0.40653484479346874, -0.01825399435253853, 0.09901622582321065, -0.06334062396905882], [0.05775788770757739, -0.09868575463420956, 0.04935948126400228, 0.0766104755498609, -0.012677955771036338, -0.35573036557764814, -0.07703532382691727, -0.20662455140337788, -0.25431665984205176, 0.41268895594742394, 0.036939512688666874, 0.37230077655384874, 0.09264498326634979, -0.4390917289153222, 0.0495378601960426, 0.15200249847773117, -0.13674413548224673, 0.4135761629664688, 0.37402490481152934, 0.18838467230632616, 0.019561615337304432, 0.07035269672491966, -0.06156763483152438, -0.030189567258229518, 0.2761927274143944, 0.09475737655061167, 0.009243630478414878, -0.13824850227435093, 0.203518825053167, -0.12426781467017886], [0.11019567921789926, -0.08046447305103566, -0.34485801540788474, 0.1193985163749884, 0.2805455283501939, -0.17495280954370798, 0.13333955936274988, -0.025161578044862198, 0.24900165612552885, 0.1775453166167484, -0.01700748457345787, 0.0924885481158661, -0.08090891101811645, 0.22233204967661327, 0.0497415933773602, 0.05649292194861503, 0.3114870047984465, -0.06483879805201692, -0.11318267749999243, 0.38204283900300523, -0.19810173689056512, 0.012916301150810734, 0.06008320405014051, 0.05280190381375683, 0.009223706150744719, 0.09690362007880349, -0.12099882095802315, 0.03882340578913342, 0.00043894102343342657, 0.14158309080389905], [0.2565511402753581, 0.31671653369576885, 0.05340115863819558, 0.3665446948052136, -0.18057168132800008, 0.1003065131257331, 0.26058283491700057, 0.007477553790466347, 0.06694452174514808, 0.3878621987024806, 0.00687416320240037, -0.2860509774644968, -0.11211129263641276, -0.3233758070462005, 0.10120357314495193, 0.01901539677278449, -0.4218699882970035, -0.06525168822244523, -0.20203892432423706, 0.1403880377530226, 0.08465055178387908, 0.18131271266036053, -0.01984339781026157, -0.12121722098414144, 0.016671816431593073, 0.08562944076275933, 0.12274949653970597, -0.19325005039496823, -0.21552377826981858, 0.06871031903074604], [-0.2308550565053604, 0.0426130019217112, 0.08716786069681344, -0.22015290986202724, -0.1347478931434806, 0.05011959663037692, 0.10661566319383564, -0.03453754965069141, -0.05250336116843885, -0.1956413157027395, 0.32116407177999357, 0.16095578783352496, -0.2166731240934518, 0.15115006654254173, -0.22996566477748726, 0.17631644949751607, -0.017123902025609768, -0.10248703599729495, -0.095052192224007, -0.07556888958309287, 0.020047603693724686, -0.031078294070792618, -0.11215099303801715, -0.1774737679795758, 0.22053950490223387, 0.08171205495068837, 0.32644086209833106, 0.0654336822094519, 0.0289137246599117, -0.014969031112578331], [0.09725641530031, 0.36758708902482223, -0.035705914521943605, 0.16305780043117707, -0.40668957324598815, 0.23722239192020125, -0.15450684069460358, -0.024068048458750994, -0.019723409102803038, 0.09932134148973712, -0.08008803242264764, 0.19844671929410315, -0.1853261638402791, 0.10211631950164067, 0.27733843779287676, 0.13539066313061132, 0.20028422808506807, -0.0794757656738714, 0.16872651346877512, 0.09419207542235476, 0.11538699591106912, -0.38366146298652154, 0.40505240590552094, -0.037365343660464394, 0.2090974784566613, 0.28880090293245025, -0.33731733345751974, 0.28907630674941254, -0.1392466043988775, -0.07267844370661297], [-0.08067426107576038, 0.0884256322064721, 0.2116796581332287, 0.1262276072287916, 0.1409929022080225, -0.10518840377105274, 0.0842268975705055, -0.08059013324350676, 0.08164099366290585, 0.09330306089934479, 0.14644783802258723, 0.14520664721787388, -0.2404652786967908, 0.019505150339337907, -0.0011718093408055743, 0.011150746165079455, 0.17184639658265427, -0.22801304616563078, -0.11655913394534655, -0.02237303919083556, -0.2519961686741317, 0.02011415513604312, 0.12856324568570715, 0.0024495791980652295, -0.18953325161112908, 0.021171750953382466, -0.12330638049710334, 0.09818766568878143, 0.02504882547340936, -0.012425641474458736], [0.20275666258944666, 0.20071167236013712, 0.23624630904137028, 0.12358848479445915, -0.008720619074971582, -0.08194307456460706, -0.294281935173569, 0.05884209260680944, -0.02266755772996223, 0.12833779462661943, -0.07266640636297797, 0.07950037400298848, -0.032165457711561866, -0.1596821870953233, 0.13496812676395825, -0.19584456819680013, 0.09305066568116466, 0.05968806760254917, 0.08390204447165676, 0.29413557572231636, -0.06855784093613905, 0.08023557127971333, 0.054725053520072474, -0.042307105258174986, -0.16907063764324196, -0.16473409620588206, -0.19592055491425325, 0.14146951208416453, 0.046259407210854794, -0.026233850111621104], [-0.29817786882192354, 0.22903234372804684, 0.12825390064843284, -0.11189541515087843, 0.3886537383404847, 0.017942610486390665, -0.11932076728286067, 0.3049157679714467, -0.0039646296009162455, -0.06935877006633032, -0.14961086719146324, 0.041739093523214366, 0.0648841564125788, -0.19366129036379118, 0.10244104377907565, -0.14879878549247577, 0.002541833335036677, 0.17793214241724864, -0.05215800697332183, 0.009642349826790334, 0.09091867046587042, 0.0735396531520056, 0.2350334365861365, 0.1982621662440045, 0.05225008102437949, 0.5745423467385271, -0.09123030911468578, 0.024104786960315545, -0.05426346084242242, -0.29669861783281853], [0.028178276841187802, -0.08462400091453029, 0.0661336837724236, 0.11439713859869262, 0.29593622354822297, 0.05399428326768975, 0.1040611484573678, 0.024528095085595874, 0.13886895602607335, -0.01972007640335588, -0.2659216789335056, -0.2837996213802929, 0.17773283293161618, 0.025530861272518763, 0.009286035507320623, 0.20778614004606616, 0.30600886200333577, 0.028251385100178144, -0.40046678236989536, 0.23758456445904608, 0.023795710382898023, -0.24010790546265426, 0.2394163677073487, -0.265856220861827, 0.2084900844058968, 0.13532887805521762, -0.09832856854418802, 0.07959966373248864, -0.2352401459324057, 0.40126358772140497], [0.0906238817436101, -0.5386509878456588, -0.30115964791202565, 0.37014774437671855, -0.06685030240407339, 0.09524085202193433, -0.007874387142123745, 0.004873532866724171, -0.046333439901488783, 0.08708024514947629, -0.03678328007611687, -0.02376992903096988, 0.12944222629077992, -0.1203582621026744, 0.46369407205335383, -0.10743289386633145, -0.22803900539137556, -0.05791873535790595, -0.2552426355244017, 0.19421370393476273, 0.0778731976249946, -0.21811837329291145, -0.10430541539953683, 0.3183307894972173, -0.13702210137487467, 0.04784689383279767, -0.09095050995217104, 0.2068280844543003, 0.1512655398560148, 0.03437383659475821], [-0.20739531719248686, -0.007916151923289878, 0.060046695885156, 0.06424770880480245, 0.14582307891724125, -0.0171982758284072, 0.188791228816726, 0.10766172396672292, -0.16250828454662236, -0.07713681722875176, -0.08429578212391534, -0.003934182605299952, 0.12304382738928912, -0.059165493345154585, -0.3587101787136691, -0.03923062959413937, 0.2840822727964104, 0.29213536694535636, -0.02703798900729269, 0.15355542895344942, 0.0316818019564527, -0.08682536948209978, 0.035023035585969815, -0.14136892294648357, -0.17581793454904535, -0.1640968185012148, -0.0060953677748463485, -0.18397209844202894, 0.1596712478103757, -0.30120696341034464], [0.013460924108113021, -0.07713651950129027, -0.2345211812556251, 0.08796273306170423, -0.01690408642563766, 0.13811049986062937, 0.012760164686482571, -0.2949212900366607, -0.35829487777465424, -0.19548892786456903, -0.08740420048373443, -0.16204544926753686, -0.06905313694288465, 0.12365710549447807, 0.23912482288264963, -0.03647190586450997, 0.009625388148762947, 0.12868539145619318, 0.06011403460988457, 0.1696539785437996, 0.3569848298577081, -0.16078788712015063, -0.04427932693082721, 0.004409856892967618, 0.3719876309135909, 0.09977568139168569, -0.13640735663479425, 0.008366974913842713, -0.09362154200821407, 0.20057928958111873], [-0.01570998502425849, -0.03159163595100707, -0.4630583105527729, 0.005231134126350416, -0.2416370749032705, 0.08360834424888444, 0.1236211056019838, 0.069327831511647, -0.06080418821773149, 0.11823250614049272, -0.20172318236868222, -0.18915845444566173, 0.08576541506685897, 0.22935998910194852, 0.012556787369169596, 0.24263609873196634, -0.07841313716638254, -0.019331250878540453, -0.057542009960979995, 0.1270156003024452, 0.341776942813097, -0.22638605108900972, -0.25542022844773327, 0.1589933033338336, -0.21860136821069617, -0.21509214832978732, 0.1384458403774817, -0.025608097798498305, 0.16441579265313547, 0.1337431635004588], [0.17729636666421025, -0.224696999313675, -0.4587273491979017, 0.0044544786335295825, -0.1436509997515034, 0.06854859636530919, 0.3086751010173581, 0.07752128465837253, -0.0899315229304702, 0.180587997214585, 0.028378481286479098, -0.09377166104009216, -0.14660669709212804, 0.010613349404574967, -0.019062709264063796, -0.012693333404566067, 0.34683348889908094, -0.07244577692827853, -0.657445004966145, 0.29316972915929956, -0.0737860706829601, -0.06516856543054096, -0.16467132102450133, 0.04791424687519077, -0.11961424320724671, 0.030234034320234915, -0.14076681582164563, 0.15813494358513291, -0.1527182166252741, -0.04618789788701557], [-0.018053594237840406, 0.14387927035752732, -0.0020254170648862932, 0.07726429217335835, -0.025789264096692684, -0.01640089679692947, -0.1662421642680333, -0.21352784847421657, -0.007187474016432319, -0.13705853515685, -0.08726904911437852, 0.42132202180001044, -0.09464124531067422, -0.10516729130663742, -0.2914155394560706, 0.09151726401178498, -0.17197389969221127, -0.16063650990405842, 0.033884989343217126, 0.008995150181319076, -0.10498005486261004, -0.05649502663108884, 0.3210700123277622, 0.12697464178772558, -0.32107755594044474, 0.02536615427343101, -0.054282409710302786, 0.18589670696464072, 0.35781592435226806, 0.08330778284494392], [-0.11741567136108456, 0.18737458723892983, 0.21962354616870444, 0.09721713121702193, -0.16462944090761142, -0.0076350017973824125, -0.10330365924463128, -0.03296376599579858, -0.033283212475840575, -0.267685369934081, 0.37563312099893015, -0.21345809031259347, -0.23771824910807637, 0.10028675110763811, 0.14625274200342542, 0.1278226365864566, -0.06355099878171717, -0.1289988544274311, -0.19906639068132523, 0.011707279593858701, 0.3564814916320451, 0.015036089486100555, -0.15384898826450044, -0.04710402310709493, 0.06538952078963811, -0.00980717283003205, 0.05018057387674311, 0.3155957063388586, -0.08130867210677908, -0.020288493099909308], [0.17108798263412686, 0.04660844806058662, -0.166210453376602, 0.046673817060988027, -0.3972916846836741, -0.10909217633577487, 0.21161872474492527, 0.03189947218937022, 0.03718131919763356, 0.04962046932816185, 0.10897311326657536, -0.37468101976109736, 0.02080453979398691, -0.11579975716682127, -0.40754310921156084, -0.2709830981555624, -0.07730772837960742, -0.07281011917605612, -0.07120732055682112, -0.17742721419572738, 0.13930675103317838, 0.19547646199922825, 0.05051579534790971, -0.12210592062579685, 0.04671344151703741, 0.15920063672458315, 0.0815763791655331, 0.20717446269716971, -0.17670365744724217, -0.04319968691533336], [-0.10822741947660293, -0.052067130501720606, 0.10542316007819406, -0.03306117951371686, 0.19739397322539984, 0.11491137577219837, 0.1492416036615758, -0.03200753132679549, -0.17203397586613045, -0.03395373193448684, -0.06556159212248985, 0.26080821577947755, 0.025779762154695223, -0.0823167357771868, -0.416568957175422, 0.07792787688370897, 0.12247215351613788, -0.144144407778311, 0.1114564592493457, 0.11391754394013763, -0.08352981967535082, -0.19571080227282828, 0.13292743166419058, 0.010840418581293506, -0.22404620807230438, -0.06116873599294358, 0.021585103205524613, 0.3124745835099688, 0.025925508310158555, 0.19548698275840584], [-0.3882551115001055, 0.024638199422406283, -0.043124913122333, 0.20743861633591287, 0.15620584228836856, -0.06750351946742725, 0.19138190769904057, 0.2712122772960971, 0.1602616416164397, 0.08465551666831714, -0.10524266218376507, -0.059837407872182335, 0.07536104909410002, 0.03661339348671262, -0.0007433766290524208, 0.04059705227319187, 0.12318097000960583, 0.20417396440052327, 0.22959210548814749, 0.023976246067241025, 0.26895766520614484, -0.05497554859693285, 0.04976112638328562, -0.14264102397421013, 0.14458959086925569, -0.10658750362697542, 0.3613946413508517, -0.2055890329822584, 0.26814296300555884, 0.19267114270351796], [-0.05070732272397166, 0.10015686440186711, -0.23791173159281304, 0.003424464469603046, 0.08602792381253552, -0.13071454180182043, -0.12407226132540908, -0.1279032241089738, -0.2845011217058612, 0.033059159200775255, 0.17639855944909807, 0.0360249244248953, -0.301257822732362, 0.12272182254224752, -0.015618162151619857, -0.08457661481813974, -0.1163604305602017, -0.02099411357361833, -0.2534776513934394, -0.10385119895408142, -0.21897729847962613, -0.2352303372294695, -0.16423515609974182, -0.07376090254485179, -0.14815173664017264, 0.09845925247176285, 0.2885488738011878, -0.02160827932310725, -0.07298663231945171, -0.0024094820751679796], [-0.25987487870860326, -0.05348372139056031, -0.07611671508566582, 0.24184497721524723, -0.18477724451674213, 0.3444213239963727, -0.025126131026733025, -0.20121853687219982, 0.023718992460387004, -0.13589275196245001, 0.19369894915629374, -0.3000838762984067, -0.1679688310286902, -0.14967301391928675, -0.3987936648090786, -0.12016084093820298, 0.08019354980644297, -0.0008549072151590775, -0.09190894655323721, 0.040918110276431434, 0.09719053733207576, 0.15267650020039863, 0.26672428519884794, -0.2427171263826718, -0.09292555283047303, -0.09157585105722235, -0.10185825487855028, 0.1423322449479092, 0.20305667102322053, -0.24313288381740392], [0.21123738352844987, 0.08984173049557834, -0.08634778364949965, -0.226196153766606, 0.11415796346191076, 0.06387877226689787, 0.18191744960838258, -0.10160449493753552, -0.009268803293315375, -0.06917509530808222, 0.18148538910727072, -0.03134269679411382, 0.07054302008402416, -0.07224194966540408, -0.1398521216538684, -0.15445504845710706, 0.0026569496141273297, 0.13457152836818154, 0.12443938817254786, 0.24274352781755576, -0.14625058068573418, 0.2998832284757433, -0.09062318643870118, 0.04354394972334603, 0.3296366681562667, 0.15115549964447952, 0.3009611046127096, 0.2348889827493224, 0.211935033396593, -0.17273770013392867], [-0.16208817633780573, 0.1097096319596699, 0.19487830253122146, 0.05115712866545122, -0.011734240829835796, -0.2669961853349987, -0.17120058515153025, -0.1749963813345879, 0.019900119396395462, -0.3135207927040229, 0.03114290418184497, 0.43370491825731083, 0.05354019104730377, 0.08663045949893257, 0.24658428042248742, 0.11801726176940586, 0.10172785589168443, -0.4382952468774206, 0.2031435393536388, 0.329290124679471, -0.13353424625937557, -0.17106885967093527, -0.15937803942511214, -0.19014886330456848, 0.006416291627245431, 0.14962518211909046, 0.17348966712367392, 0.2667887208299937, -0.18903165153796372, 0.026463460840113417], [-0.19102582810097482, 0.1655782403784157, 0.1442845238495084, -0.3971605759174454, -0.1689042048494168, -0.04751597014474995, 0.10301563276057618, -0.008295483441322657, 0.07402220651284981, -0.09939406829004, 0.19358129550339911, -0.33981415187296293, -0.0223066507877925, 0.29793063913099926, 0.12004602418577545, 0.02479740225106147, -0.3285738312866874, 0.15458643977680253, -0.01806925825953401, 0.07217641909849896, -0.3534372989689294, 0.2375488881300662, -0.056215819998286, -0.058324534952153805, -0.10247370576100619, 0.0951432573349566, -0.2859065198778777, 0.2777123146973165, 0.06508703284855967, 0.333380422933886], [-0.10394572094951947, -0.10758641587657528, -0.16407201355375928, 0.225639207405276, 0.30537588450900727, 0.1957181629363353, 0.07847618400916515, 0.025494348364307296, 0.12836586940076158, 0.31701012254368455, 0.08122632976220986, -0.15077681846148208, -0.3405560656979617, 0.07120473136617715, -0.042572523800460296, -0.03845396431692746, 0.3031370645529674, -0.13124903848734437, -0.08653225236075658, -0.04649088156771417, -0.05838003050951671, -0.27415228728027236, -0.11868915130577043, -0.35207129613663707, -0.047295915281506534, -0.1092901371147206, 0.1910171481987885, 0.050634460217912486, 0.14933208629799963, 0.048098513119714754], [-0.06869105507697816, 0.009101056819418722, 0.06591815013512399, -0.3890301903301436, -0.15634707626203834, 0.18166102847715052, -0.06048484623538381, 0.04142908342641081, 0.045692396709351775, -0.009453212010613306, 0.16333210675733953, -0.18780202971223883, -0.07343041622047922, -0.00503523116657246, 0.18642705327584946, 0.059018716297874814, 0.06445033654018137, -0.25209900486313264, 0.16296003397630007, 0.16662455222520284, -0.17769582211896592, 0.20634464710054945, 0.2214758932541781, 0.1561073854668628, 0.33795057242135496, -0.10412747300373587, 0.127198391584624, -0.10779910764933795, -0.11125685987859837, 0.03460227816984731], [0.043373748530860304, -0.14672270070234913, -0.23027159560197646, 0.05592375957990191, -0.32369888872182423, 0.019996276907525815, -0.22040568094055601, -0.07561358938163816, 0.08744640178435366, 0.2211052991646433, 0.10497180806000844, 0.2124433553744167, -0.04284152540801185, 0.14802916130961205, 0.02989515534868159, -0.04262721692003447, -0.1199835587171989, -0.21665143892945693, 0.24192525232380677, -0.0598323564392339, -0.19507975118625723, 0.29949332391222167, 0.0866874751660694, 0.12476314521839492, 0.1657373075879858, 0.2563587689938451, -0.2227580536274053, 0.15548636175388125, 0.05281401705954017, -0.16972410080037173], [0.18313507156333927, 0.1601451496299877, -0.34689922175396204, 0.05966027021577194, -0.22287000329137827, -0.31129144860782654, -0.17194668420013248, 0.5173275692651558, 0.02503473131752958, -0.0717780699898129, 0.07176930243895027, -0.23011778698845434, -0.2082094315895498, 0.06543399627971637, -0.13887654973144387, 0.04598827777512419, 0.1124618727601254, -0.26386038256024014, -0.005854696884417628, 0.02067665092751602, -0.062392530428377134, -0.04456932986585539, 0.06840669045587075, -0.09143734027662184, 0.139096642372207, 0.24072936921895619, 0.03487617583373146, 0.0687720671168989, -0.14147301186491382, 0.2536783463108853], [0.23399135030885485, 0.005412554567397101, 0.011788129777665688, 0.07482374438596344, 0.0573665103332017, 0.029066600640789347, 0.31118691982002405, 0.11089988254623155, -0.11672289380247396, -0.03108974396875811, 0.22661721307637886, -0.38486182426241633, 0.1532658316981484, 0.2261237157977862, -0.07751354182861392, -0.00466751026720758, 0.12305659759823091, 0.25153874548855826, -0.059463052576334705, -0.14275432297437562, -0.03349641630788917, 0.03605222694577768, -0.0195514207577759, 0.1159012392366047, -0.12762515510108624, -0.26276219742372015, -0.02822458221870719, 0.009348348099455834, 0.09729781301598048, -0.20676137903817535], [0.2620498019352777, -0.03373040805368579, -0.07910180562337664, 0.1880689465569672, 0.38883777386412616, 0.2785875095338133, -0.30311107347591354, -0.05433181960128442, 0.1994953351976359, -0.23913528581819424, 0.3006369352832937, 0.3077324689871487, -0.008647476324123599, 0.16224495910839595, -0.034793611328891694, 0.1973939500985022, -0.09527152058644145, -0.19501232210740077, 0.2213768844416614, -0.3166364790883342, 0.021939054606301682, 0.013311193051289763, -0.03764346402162685, 0.07731456556546204, -0.25180856970421506, 0.1121165544912339, 0.07453085550971282, 0.15452268819350035, -0.2473971971984602, -0.3186475348555417], [0.15436591156490106, -0.21997879413064916, -0.04012369491555597, 0.14755948836026617, 0.011992159999216512, -0.18089138737212004, -0.07667076672245662, 0.01002795226992411, 0.36139361009061094, -0.10731210035214822, 0.004343711717558971, -0.09066902685304726, 0.09216293389331956, 0.31861575021929633, 0.07498778066672204, -0.025195126289674432, -0.18836008614882443, -0.20544131904163543, 0.05245184839988916, 0.2600094141620793, 0.07079614177195513, -0.35783468973706395, -0.05673045126062035, -0.06902325826802133, 0.15823006231677503, -0.1771080384476811, 0.20002044501006044, 0.14505053320668304, 0.13333761834579047, -0.07553116448329489]], "B": [0.16776384683525988, 0.16671828992587837, 0.027417041062749555, 0.037621971767784104, -0.14533366162385178, 0.2894891252222658, 0.053977422706645926, 0.20130708219468668, -0.06656527398903993, -0.3015284475276181, -0.19851455447520835, 0.0651131630769399, -0.05918259665266595, 0.00838768077075385, 0.09653425891020428, 0.049247513195888985, -0.05206399084479675, 0.025233958717511395, 0.0008374080069814301, -0.016072050837857677, 0.27242740682576616, 0.1564492199038338, -0.05255323486408544, 0.05484326848463179, 0.04240352060907912, 0.26112523326957576, -0.13829080367970842, 0.02738000287259515, -0.23428068693639562, -0.1740125800675443]}, {"neuron_units": 25, "activation": "tanh", "W": [[0.3857909493930944, -0.0011465761070055878, 0.026035724094914607, -0.02378683796080875, 0.013935062529506334, 0.005577434707248675, -0.04066103883542765, 0.2154409504815022, 0.06899364504492336, -0.23092747892354423, -0.4749587095702663, -0.3405592686232842, -0.025317803929714108, -0.5344955798165474, 0.21192053777207434, -0.02658240651344805, -0.18265917118685893, -0.10438570845939524, -0.11552326847551526, 0.30731810463263987, -0.09824252854332403, 0.4324175924293704, -0.05807882318694366, -0.15020635166737425, 0.1185893739511907], [0.07409827977431402, 0.259737249755714, 0.03996764989034233, 0.3317090821304168, -0.35951445940348115, 0.1047143276514084, 0.14110557553517558, 0.15113323568061857, 0.07711653502963382, 0.08561489122989223, -0.18993046146452372, -0.1915175015504293, -0.1636840414721397, -0.20243462024974176, -0.026561318357835918, 0.16549612076913137, -0.038636068918800615, 0.28657141208444104, -0.21296056978472494, 0.2819794742423985, 0.10903336105472568, -0.2181751846225076, 0.3394265320544033, -0.1328655679219312, -0.021016207457341562], [-0.2555642059044686, -0.18508844796927407, 0.20405344562077068, -0.37728517293344727, 0.5015703035338742, 0.0902908631974154, -0.16388944844007433, -0.31294828493061966, 0.03614560951214127, -0.12832446019567545, -0.18287556329251073, -0.11797605514588277, -0.20509838326910335, -0.21064862272420615, 0.3670183754051622, 0.0867439799466671, -0.15746770352073114, -0.4486288477350499, -0.10512232394023857, -0.3403338051455387, -0.20702906675402796, 0.12044382421381787, -0.0820185942700372, -0.36373170959850704, -0.10962361871122674], [0.16814798695838362, -0.09124545746010776, -0.13782131203390124, 0.21475124732048523, -0.05335170020718657, -0.24555422139083505, 0.24717527189105293, 0.2074264950275706, 0.6621965644860187, 0.06326057597684341, -0.10099496554282154, -0.17255013644812212, -0.046323301528612935, -0.281942223685774, 0.09171649993659695, -0.22551850935526999, 0.06590659803169742, -0.42013121581717267, -0.24067678061840286, -0.033895736531139295, -0.0023199187929303826, 0.42641133813870113, 0.2721005508832591, 0.021864924412732245, -0.15437820276941602], [-0.15264339219772916, -0.12261424194557637, -0.1515849862668217, -0.10978971988438026, -0.00583138853047776, -0.48379170499890256, -0.2296959025966569, -0.09397046488767624, 0.0963158586001041, -0.024803490634544147, 0.48562066261605635, 0.06597826019123999, 0.07990976695188601, -0.10623105476437211, -0.009818989762647336, 0.10826323287991442, 0.20914359947127803, 0.0200813540920647, -0.13175979776964158, -0.2115200424937721, -0.3667870649785874, 0.057438002354403786, 0.27055117947463697, -0.012009867994674654, -0.02635277159136406], [-0.5055651532095129, 0.00035881500570107244, -0.19429607532975024, 0.1589427001225702, 0.20935669926371736, -0.1472748502665509, -0.04527508209984106, -0.04051774549716314, 0.014362404552474981, 0.49845061433848, -0.057215683240169596, 0.08244974751904238, 0.13799910843262989, 0.03232767292570972, 0.30438875633078954, -0.24031464754726725, -0.22678922725062856, 0.14088496615530569, -0.27670601229626557, -0.0968183375733896, -0.08858520754230145, 0.1873449024549617, -0.036037894118191555, -0.00733086655031066, 0.08384852248119207], [-0.05553637000768083, 0.03014187972980266, -0.03569414054813111, 0.14600174666887814, -0.01355793991297613, -0.11665847129084007, -0.3273760084711125, -0.007457143746983069, 0.041551970623822376, 0.008264715743724747, 0.12776012167043674, -0.18382427498440027, -0.026719107799280033, 0.2361745266513875, -0.12196366294702102, 0.09787466010150021, -0.08039560000221481, 0.1243579918708529, 0.0533554848284049, 0.19933453135549833, -0.18144093112407586, -0.06159527377096137, 0.14906039265267598, -0.16939926649507636, -0.006106402718017625], [0.2959549030343724, -0.010372622610459138, -0.13537129043319296, -0.1673765531733878, -0.04074054040346209, 0.06938388029238858, -0.08767250850273456, 0.31041469280589346, 0.03182007303959902, -0.24239717963383026, -0.08956702416096034, -0.24743532136278346, -0.09911721814058136, -0.08229701886955554, -0.14399873340979716, -0.0012326700570344854, 0.056775439078863295, 0.05455219817351435, -0.19313347287916838, -0.37381055749843123, 0.30260287004659786, -0.11206385955820024, 0.4170343284143069, -0.009413480803414044, 0.14104337628862507], [-0.03003076258999886, 0.10857714716367607, -0.19728532906614013, -0.049198943354903914, -0.2805243403927575, 0.3231893530661693, -0.22111379944643142, 0.006608528915062673, -0.41542415434143914, 0.36708968639232786, 0.26194420810556135, 0.0598693407165145, 0.007818269641375107, 0.01850832625366504, -0.06606585991158773, 0.012339525080599222, 0.09668837650998234, -0.01596966876587512, -0.32750065971557485, 0.0785295334013615, -0.32604204809994536, 0.19238159358819962, 0.0316613608349144, 0.1104349331275894, 0.06778280215784224], [-0.03319311325816356, 0.10448124961124826, -0.27112387497032825, 0.27562398427826423, 0.22198516272346788, -0.057420497553925524, 0.061505771097729804, 0.39409927113204, 0.00881979650823103, -0.40293177457325113, 0.10071534031419258, 0.1846955482905746, 0.09713390816537348, 0.24552311019249082, 0.07106435638536264, -0.06651498322519499, -0.36522582915791707, 0.08863757643324431, 0.10048845482419327, 0.41462133669879336, 0.09792832657669104, 0.21201774851042174, 0.31965516380752307, 0.29822456863538843, 0.22677503660632176], [-0.08971374941574224, 0.10154795652135037, -0.0670970033110491, -0.5095823900710642, 0.12475659059935541, 0.06859130694920362, -0.03782653416663668, -0.25970589978861064, -0.30312955668922253, 0.11535893335782287, 0.12975365770177863, -0.08314794784397701, -2.1659826614757374e-05, 0.24570699786206057, 0.03878158631190328, 0.37640241243482264, 0.059754466724195564, -0.045261231218212385, -0.03510253610061535, 0.2735457714163496, 0.24664154900881363, 0.3972043181160891, 0.01509090175193605, 0.1386917388012585, -0.04914184809305003], [-0.11150678420480631, -0.1272545022890703, 0.2505159624665126, 0.08006064210674536, -0.12667925766150295, 0.25053910970846477, 0.001763947118869653, 0.13326442696330876, -0.2854328496915771, -0.2599470207771163, 0.06386843510341933, -0.13694952407030314, -0.10505041293003127, -0.09739963668323713, 0.01995498216397807, -0.01828678076131748, 0.2829475649198352, 0.2429438778982994, 0.15306920092473553, -0.19687611952857748, -0.2463218612364854, 0.01091242891166225, 0.13768815478966254, -0.17640979063028786, -0.30509709149270564], [-0.024963167127513092, 0.058112842889040055, 0.1746446305599039, 0.1674450003549051, -0.07907040812979364, -0.1196622878861508, -0.15629558016332057, 0.15881569613005864, 0.02879458062078362, 0.2775158679183952, -0.04510457799024212, -0.047389137499014335, 0.2972248342452862, -0.08100508523285825, -0.050997325249931474, -0.09533990051223028, -0.030673591426895772, -0.018549593796578702, -0.2832292064650733, 0.15464628650993067, 0.273409969824209, 0.3575714342949092, -0.18597743627415922, -0.18147135366535808, 0.034549374795679905], [0.26324090876094564, 0.10640998310973397, 0.200315645518867, -0.02653193930131246, 0.029727286993336807, 0.25031206194644706, -0.027081026123328605, 0.45067829449511065, 0.342457319157623, -0.35854036195558747, -0.4920078374012286, 0.2872843576227102, 0.3422276689443921, -0.09346292339066298, -0.15531166915078726, 0.22525303837864158, 0.22045699706921446, 0.04146291045323165, -0.07629620851464199, -0.2880204727803341, 0.2041792266931932, 0.046572419930961916, 0.012499992418551218, -0.025987776354941833, 0.2043763652081783], [-0.08993334874940322, 0.3616305266160843, 0.09844052045478041, 0.2007128386068456, 0.1462821227323773, -0.18264129017469463, 0.28311251615103356, 0.066398149484757, 0.18595393267121907, 0.216910859655485, -0.22590947928153943, 0.01460017244131279, 0.2378317833870663, 0.01967299006447055, -0.05174029605914674, 0.10677130339558569, 0.18822766675133162, -0.09741524697600216, 0.23406275364808984, -0.3000527165538992, 0.04613324094903626, -0.01930523113717159, -0.2168928809470925, -0.412994141393329, -0.21400510011836837], [0.19619553844726872, 0.32735545088098905, -0.016830508083678017, 0.20940130539830917, 0.10593308330106221, -0.112824236189677, -0.16895364045302197, -0.11806772231612153, -0.1294842642393139, 0.08754934032068212, -0.1870381013624983, 0.14614654287112303, 0.09904970444883333, -0.20184561550342156, -0.03503156921558784, -0.1208886395916265, 0.41585573745014376, -0.16102160585207878, -0.19781704498312874, -0.2328108551670302, 0.014055485787218573, 0.012162652319822031, -0.044506646346029965, -0.21920670023295777, 0.07499817365288607], [0.10330892525546548, 0.12546015218154216, -0.1585359839677101, -0.16066316256059288, 0.058843616201216975, -0.47584387603818484, -0.03165167162033154, 0.0975797328276679, 0.008542200919852666, -0.08886051788828214, -0.20351521211492743, 0.0619220016455529, 0.3429386211719279, -0.04742606319607838, 0.4453323710955228, 0.06328922700545686, 0.1583866339029943, 0.0047657215604472855, -0.1702046517661701, -0.05854770474164571, -0.22816426563388403, 0.15444098115563706, 0.2679964117826293, 0.18082942424045198, 0.15104617013806368], [-0.16925617754260308, 0.33549929437966614, 0.1265714322190658, 0.23441286787677063, 0.14431065550053512, -0.01616300779277506, 0.02474130038090724, -0.35006294925638054, -0.18158820683023016, 0.2886309902322272, 0.11304091805394201, -0.05528678007954963, -0.20233571314646867, -0.03845328820686784, -0.25029837855209625, 0.2612628116618889, -0.010580605366202058, 0.3172813740838975, -0.08315093885486788, 0.04238488746634366, 0.13099735086179257, -0.03780937266564423, 0.023905300135421543, -0.047597305383891626, 0.271038881891975], [0.16455443036252754, -0.17596713769813943, 0.1429159953555826, -0.06196774584365278, -0.3971181401229263, 0.30889077508331353, -0.2697647779970537, 0.1874181190620926, 0.03351544019088841, 0.24437818621040264, -0.06692322885221946, -0.11448968842144357, 0.10339191828170362, -0.1295978860914149, -0.03666631430797289, 0.6433187943219545, -0.2067120065954819, 0.1970672291933312, -0.2238034092966535, -0.2680342727305518, -0.24062399482656724, -0.2740042506629231, -0.13380309780949792, 0.1835953337857671, -0.07851124709134467], [-0.32169982129479885, -0.03556903270608302, -0.18203414286076386, -0.016455145777009354, 0.07460042430883615, 0.1752426101225942, 0.2544510656861329, 0.192502881881926, 0.1414196762101146, 0.049198158557297554, -0.012422979078516295, -0.07988475718723899, -0.0526647562177685, 0.25506140914541864, -0.14639621638579164, -0.14970453373224965, 0.26140088188681837, -0.17505016971272433, -0.12078848494515579, 0.0443557541779724, 0.31395931114509823, 0.12738007738116564, -0.033698336209937015, 0.008511972668619123, 0.20335358264480466], [0.08855984223135248, 0.04693207449836467, -0.10555612899135808, -0.5386335082972292, -0.13859896475661895, -0.014340239255244408, 0.16268338423857473, 0.276131666482174, 0.14597176735890638, 0.34684939600277226, -0.06651705886788983, -0.09098669223147926, -0.43256620481183217, -0.2232438580171898, -0.05987625836412318, 0.013650921337800112, 0.059676778081643574, -0.199981886821582, 0.017412133824154727, -0.3918540632154486, -0.06908902144531792, 0.34699368132093533, 0.06565600370130821, -0.23344607700260459, 0.033578256101862006], [-0.05171140526670799, 0.09235427000979238, 0.15795967129295346, -0.00827561679926678, 0.3038130671676925, 0.15669029113635313, 0.5679101065818585, 0.24720670005721443, -0.1669949351729355, 0.06631684406052497, -0.13460796542430542, -0.20349126878006657, 0.042898550204126244, -0.04157197566918505, -0.1418372256635672, 0.16415031168936156, -0.25167268789462605, 0.21719438178137287, -0.06858541474673968, -0.2410074774744896, -0.06555622951437032, 0.07069647090306358, 0.05325491632688399, 0.15470748152560124, 0.1969686258783551], [0.12365092142048487, 0.045147225143909814, 0.11438784389077795, -0.35579922657946567, -0.0587922940720387, -0.12255314823324896, -0.09414509105933352, -0.2137747284148621, 0.10446130356587996, 0.004604642299039068, -0.2704330903531381, -0.076405079759873, -0.11293574224824902, 0.11011981815966936, 0.11460456998839247, 0.06747759222507028, -0.04762251142794545, -0.1397734644492724, -0.2264669286819598, 0.13670714889347227, 0.12675008390887527, -0.10566123705389038, 0.12124007680926775, 0.27757081261131983, -0.08187248151527646], [0.28054920127610244, -0.19529375981155675, -0.021079300696604436, -0.05273320783193563, -0.1626911870907985, 0.26792061016813656, 0.039263323526094414, 0.3315746799415639, -0.10873811863386455, -0.32971690620892885, -0.3666322623390476, 0.057246853377688166, -0.1234816545384148, -0.03626171218383908, -0.1806123831948822, 0.4528323304198508, 0.20516917004737006, -0.10588878325297535, -0.11601877583434048, 0.1632248195523292, -0.037185534950479444, 0.5892547053181612, -0.06613072961807337, 0.027580381781873733, -0.5120677255099854], [-0.04765832159784361, 0.14591081696730068, -0.37156541948097194, -0.03803180371556709, 0.010514527578495496, -0.15752823738584867, 0.06884388107949381, 0.16224553499998592, -0.19818430477848958, -0.27919521487012217, 0.2741823479577334, 0.14726870285702004, -0.12242122802733377, -0.1015735185516976, 0.07041846855078503, 0.34441630179799865, -0.3512249829703248, -0.3395750064885878, 0.08193005466362538, -0.22125391237806893, -0.05768614556273907, -0.010572307536524777, -0.3302918264226282, -0.12651738164845852, -0.0660037903503658], [-0.00959619990572965, -0.23401105012274548, -0.00700559432209971, 0.2923244469198038, 0.1687216897943882, 0.0037781098066589844, 0.023459721001477238, -0.04217230032587013, 0.08091379466418386, 0.4096276842634124, 0.35698848092234803, -0.007402692959221183, -0.07956262650654791, -0.38256138711814525, -0.305582304614356, 0.1620453319301771, -0.05320416436960065, 0.2538287381652159, 0.02147758172767499, -0.16489519132082564, -0.09090528223285882, 0.059582460442829256, -0.07502292577992795, 0.0769511555455934, 0.22880587112289608], [-0.08009038792892467, 0.16350032126999967, 0.18609883335558391, 0.2261528568243868, -0.15455034068219103, 0.01495845056985984, -0.1999881245802739, -0.1467700180371255, -0.13951707553802684, 0.049188927665760544, -0.1527218856808147, 0.45855141195290877, 0.028307608855991054, -0.3934763382812251, -0.14534376345334588, 0.16357905465218223, -0.06635861465510727, 0.41080412807041616, -0.1703477954693401, -0.07810678909885192, 0.011329064336524513, 0.0624387773042775, -0.3341252899453089, 0.11676395894574715, -0.02422032334646349], [0.07141131077621743, -0.1818682079475378, -0.015054308515407946, 0.09144295144957894, 0.007214921451265179, 0.3219014887867547, 0.09654286225382042, -0.0013661006554612047, 0.35169248494109007, 0.11558166077750509, 0.2740073880700227, 0.00889205504430587, -0.28548675280900715, -0.08453226947842463, 0.05038548873942187, 0.0934636748122276, 0.5698360715684966, 0.19441286406830705, 0.19215594744592712, 0.20457875863921532, -0.05862391490252661, -0.15477985801628769, 0.2787912950501588, -0.09222391190468497, 0.4163398893196287], [-0.16711984957074508, 0.021530916423947583, -0.0375472599892889, -0.3998626419792821, 0.07608223826884576, 0.29902986670139586, -0.22958932401171, -0.049076969444634425, 0.25187807535616036, 0.08969844537040234, 0.23650655759362865, -0.18148501366922754, 0.352625566545407, -0.19265546929897293, -0.1313179070251914, -0.010529307580018781, -0.1134016264070768, 0.08031526717500866, 0.23231724238383253, 0.1275675137149907, -0.019804662405760738, -0.10897641456501507, 0.11965401301874748, -0.17972317448923855, -0.3495582396736494], [0.3120796642904745, -0.025353663766763485, -0.0977106320985772, -0.20272393742367717, -0.06684047664422824, -0.23576362582299754, -0.053861678434567586, -0.26460246552837535, -0.1817580020476238, -0.08037420894976363, 0.029727513196619273, 0.027105717330803268, 0.1737209103910305, 0.34959306933963313, -0.26448337431502866, 0.029744407930239525, 0.10978198025667775, 0.11198781219236961, -0.16142037872615103, -0.1448335537403977, -0.10249137453379965, 0.22974126503961229, 0.04390309670453912, 0.17353722473001187, 0.386149474188846]], "B": [0.16409377747056758, 0.08868565316509187, -0.43972620411193775, 0.04404011571375431, 0.411630261950567, -0.0010844806525184796, 0.21045355425432052, -0.0345323093120423, 0.13677146186753544, -0.056774635430915155, 0.27334191926500634, -0.32560422647136766, -0.06744403489448256, 0.040728566791848754, 0.14051319357218311, -0.1561966459190141, 0.030673491505855358, 0.12475951220568902, 0.3166748620154323, -0.12377281991905358, -0.0565694974456524, 0.32542680018350356, -0.31999267592624564, 0.01821352859732004, 0.08709338998004565]}, {"neuron_units": 20, "activation": "tanh", "W": [[0.17339659300664415, -0.6253700116217555, 0.07496727738741615, 0.10400432196565443, -0.2583124323366092, 0.3155412505260527, 0.25428885335552215, 0.2613856211688679, -0.1355372553451356, 0.399491310984458, 0.13700250256286234, 0.0004557227516243763, -0.01643832504055551, 0.03005402171958402, -0.399930561317531, -0.050087986606161754, -0.04510091576005446, 0.1952529098665327, 0.3584434790994206, -0.47293521595276894], [0.007196086886980983, -0.11647353021450234, -0.0018890487283426654, -0.086238228995589, -0.19654097748932967, -0.1924957256066688, -0.14736233996326845, -0.13227530475283863, 0.22604014868371416, -0.1262139428122204, 0.14778080183447323, 0.14465680366711978, 0.14596546984190822, -0.0019377912504930388, 0.3438573745560825, -0.11895866899356929, -0.2369891882071242, 0.0020154377908986566, -0.04178846044224685, -0.043262332786966985], [-0.07236137292917519, -0.1284504984017723, 0.04063050435009097, 0.021478641931302223, 0.2055950055769438, -0.006752460187953762, -0.07699621389209023, -0.1260373285768333, -0.17351266974589435, 0.3695095242577379, -0.2589241586752102, 0.5691944350976653, 0.11200859460753217, -0.25264444777255246, 0.385066176470063, -0.09335665756465526, 0.11878665260108666, 0.27459351102993335, 0.015445861167448014, -0.016599715275987293], [-0.14613894995177587, -0.0696630613175991, -0.08539192228410346, -0.0465764852353705, 0.3037095352236261, -0.5625859647540681, 0.05629429800350273, 0.5447485477033341, 0.4503892065640017, 0.15052736626479546, -0.10676638110957709, 0.24473942030512683, -0.3684352479549853, -0.5673862264779965, -0.0475036598187444, -0.049729320739332505, -0.027301668554325913, 0.002755784880139608, -0.22838362864928433, -0.07371575770610858], [0.19031812364869666, -0.13530939062392616, 0.23826210004041776, -0.03630527582930891, 0.21650978783334357, 0.2950786189844691, -0.029362296428059268, -0.1804359892695119, -0.23438516213054367, 0.14059086642592616, 0.14933043231373036, 0.2022331770222795, -0.26145515968094263, 0.16763752702007972, 0.07016031232823824, -0.014167168690145926, -0.29743441182084657, -0.02943194350890081, 0.21842930825184678, 0.07113961563729682], [0.25889482863054586, 0.09910663795676501, -0.19844530045019795, 0.2200135316785721, 0.16549129330814588, -0.19788001475810024, -0.17842437019303886, -0.007289442078074198, -0.22255295286906188, 0.5448070762432133, 0.38195286398189177, 0.07614474751006359, -0.14112301675420127, 0.22467405699961893, 0.308693129938352, -0.033278792088654044, 0.44612037040902497, -0.2153967732983076, 0.18061203508435192, 0.017739962110476865], [0.12749653387485194, 0.2127552820347049, 0.08127020169441798, -0.09549914158558001, -0.44180492105412156, -0.31847340679159464, 0.007028780338979596, -0.022778445818722702, 0.19428225599761, 0.1227786296322758, -0.03376969326554517, 0.10415395457811369, 0.16757840118716588, -0.2574171353808726, -0.005137270989778149, 0.051096826515721776, 0.024241048461029327, -0.02371730824475951, 0.38796673982630614, 0.12286539019276684], [0.06775071322889462, -0.07499903237273253, -0.14552616202690416, 0.04131192387862804, 0.36177269980861354, 0.07288739915069635, 0.24942338571306985, -0.11346691373288671, -0.07004896185269464, 0.41545265490783034, -0.02947296079416954, -0.02570577650712804, 0.14600639504893737, -0.22116668406163714, 0.28478943004610663, 0.06817129167074748, 0.25879714881854915, -0.32153716397007925, -0.346160271922964, -0.03294773711947275], [-0.08766466217568492, 0.33047041361395174, -0.6570883134430391, -0.23434892418401432, 0.2990490633521694, -0.19272951666717802, -0.11144765529815456, 0.1009510537489004, 0.21180807846508154, 0.1020196410449687, 0.09467464814715068, 0.2819649845460559, -0.059026539892050575, 0.3430530311678954, 0.4399270697563094, 0.31505704159323694, -0.18022743121763837, 0.45741229367451186, -0.1913722861920664, -0.18758326569027742], [-0.0322208916150283, -0.1304278456486188, 0.12488444182836957, 0.1649455102418368, -0.12542376686193732, -0.16059121093916587, 0.3223567368164313, 0.30841982347296104, -0.11384263891802059, -0.3672557350074986, -0.028772779174256836, 0.29022310528757317, 0.014214719588868057, 0.01751933531465679, 0.44461786144179716, 0.015593360013786197, 0.25390841336921677, -0.19681138032451265, 0.413203366888632, -0.005730880005008985], [-0.2961928033049608, 0.014849517765611024, 0.35250073735896886, 0.15439789356933306, 0.1274986582118968, 0.1257204359551571, 0.23658689212880618, 0.04555821776374785, -0.13859589122896615, -0.1420964589182536, -0.09500264260929796, -0.09219183309890461, -0.4989117826442453, -0.18394963040805168, -0.05319542842230423, 0.39326280134757846, 0.28491270867108254, 0.2594055404922772, -0.018012854664000454, 0.623647129043021], [0.3191338535524467, -0.4656338048738024, 0.49197773946748774, -0.19021610680447212, 0.2912660221450131, -0.10161091344218805, -0.56826282442085, 0.2583924961855286, 0.13040549268262117, -0.14619952018571258, -0.3581543437136822, 0.08021095243668262, -0.09214067198162791, 0.19873584124534804, -0.01673414776780527, -0.2217486002373742, -0.21722230526382852, 0.15246247086908368, 0.2904289734670964, -0.007477040560105286], [0.376743607213715, 0.1988944711431284, -0.007129759676790419, -0.029116741344683478, 0.254334824146548, -0.1922626131221895, 0.0916967207161511, -0.054460978949229175, -0.2914782923090184, -0.11475919820837938, 0.3160463115467462, 0.06534117994380315, 0.4167736306719012, 0.24981538787400812, 0.06397484936525236, 0.22373693005614034, 0.023934325599686883, -0.18881523468934455, -0.10565475747258699, 0.3213498675292288], [-0.13766587794671, 0.1671819728298526, -0.007265453539100723, -0.2113438807626534, -0.06788435090621592, -0.4072486944759065, -0.11593550962071417, -0.18880516379611487, -0.2824551762309395, -0.18975727478682522, 0.2867585677494658, -0.06024831202071133, -0.05600910889050007, -0.12782349081113956, -0.24933735564612053, -0.26517320278946577, 0.09194453068485137, -0.323879837993188, 0.021703283773933726, -0.3354778928314811], [0.2954749356051393, 0.004063572763943306, -0.3115549561198368, -0.0645369611924197, 0.16446927901068206, 0.19897123852573134, -0.10743327763236143, -0.10278954030191376, 0.4319004485637538, -0.22465401525744852, -0.16336968339769223, -0.3462081271547995, 0.08569921135184969, -0.15562836435979302, 0.2960015381254239, 0.00531661404998745, 0.133936150693726, 0.04711004632248915, -0.03821677386947259, 0.3911416493615363], [-0.1696154495667075, 0.19431204241303812, -0.06421522737422036, 0.030018849682907384, 0.027994737319343526, -0.03328121701596775, 0.19851522356352885, 0.0994724984842377, -0.02742380138338325, -0.01773774651855654, -0.37333397280133573, 0.024952946471897944, -0.2492655597373594, -0.005126663805206261, -0.09497995315821228, -0.17622809222871197, 0.0572009320753573, 0.1879889206710881, -0.12974897291874074, 0.1563408441802661], [0.03251603864355955, -0.21263923079148428, 0.35122518311540535, -0.33688011796160405, 0.07109478666016175, -0.04881509618566405, -0.05514218115504163, 0.29098505575593725, -0.005192456601490947, 0.09579529074478393, 0.03994761397222216, -0.15218055643473075, 0.05747015946571059, 0.1345678629815158, -0.10246585328269783, 0.015949612921237383, 0.14614671745948252, -0.2719840505973599, 0.09292739626643363, 0.1663154560755977], [0.05234834338150629, 0.3533386752956794, 0.0512356107723692, 0.40816583925992633, -0.6132560048158322, -0.27645005507478576, 0.12436860248808793, 0.09250150339503643, -0.17425727102039026, 0.1798237719903248, -0.18203563703385023, 0.489274074604971, -0.11958887117932356, 0.07448359285430521, -0.2837515345628273, 0.5351297998475313, 0.20775934923184242, -0.27114201821385553, -0.16735033413226172, 0.4187284645398611], [-0.12931891145101496, -0.03529536313445621, -0.2399282234331981, -0.03463333743298868, 0.3808871458473472, -0.25259557407015304, 0.3749675661833733, -0.34922843825301614, 0.311155713603866, -0.19555768642093121, 0.14802334845557408, 0.07930009930264244, 0.04372874650757281, -0.2146548604265412, -0.04230816610553368, 0.19277423225651438, 0.21389883594002393, -0.02616924746876896, -0.01686392965072322, 0.29177861568697916], [-0.2689794787510858, 0.4843291987800923, -0.3366013334372209, 0.109716777510077, 0.22642318905464492, 0.009986088898351337, -0.07907465616427063, 0.16392822231958512, 0.0888137408638746, 0.268759856922209, -0.001789013036995091, 0.1692180950210233, -0.14463999204108752, 0.21640628593037067, -0.17118700035409345, 0.46405588689456784, 0.010963455652132477, 0.050528847699620356, -0.11762113395882266, -0.22806261744185155], [-0.033907022363044874, 0.16214973231559565, 0.1023009277837387, 0.08650729693389755, 0.027771553627287688, -0.1786364934166073, 0.25646567822555283, -0.2265925508646052, -0.0202666727652505, 0.19025247079633834, 0.060273003711193276, 0.2089146168060024, 0.18418700202893948, 0.26656442006439496, 0.4286046492891838, 0.10125252649738312, 0.062407941282752434, 0.14045840883842017, 0.023876972718331446, -0.21801259281039903], [-0.31950886527639355, -0.10940585056644794, -0.17643807757587565, -0.1592859037161351, -0.26173284663714413, -0.1364597552058704, 0.09813556767837293, -0.0224412843415565, 0.12185818606436323, 0.22102168583657206, 0.301097114406334, -0.278863847658666, 0.055133992671875236, 0.26761769106743327, -0.17576034886888084, 0.28829118106760077, -0.17590687974162247, -0.22673589941985572, 0.06230018934108458, 0.09129312481597242], [0.23148556132036685, 0.497123610841869, -0.12496526899977843, 0.10116193852486789, 0.09960561204582809, -0.09273565471282327, 0.08572568568789081, 0.2763163956456007, 0.22897060943268924, 0.47136356524692535, -0.45256413349930025, -0.10218260928516891, -0.016408791298466827, 0.013108148772858451, -0.17323219526931247, -0.016368025074396608, 0.10842536135081825, -0.4780591059643243, -0.38817917173536093, -0.03796711682171152], [0.36735375376435264, 0.09855371364474974, -0.10429882391459781, 0.2651848780002055, -0.11404088835786774, 0.20712321757014546, -0.06632401488699083, -0.12908187244023409, 0.02555187745918014, -0.07719306450072874, -0.19528685822150996, 0.009629225085992111, -0.16756464081162553, -0.040027288150614064, -0.13957625090422304, 0.16726318308204174, -0.04982352708746475, -0.14062574949018003, -0.3427904281831104, 0.2090890402256012], [0.4366705278267164, -0.38410357013580404, -0.1165145189319539, 0.20514363898500632, -0.24007214879682684, 0.35217767737054156, -0.27884193049936756, -0.2553805710946709, -0.10537631751789463, -0.24322364148999537, 0.13137630998762168, -0.06735516213562227, 0.24277818950594127, 0.10423984458489964, 0.00824141528013954, -0.08928288898039016, 0.004926192892040516, 0.5193985177884808, 0.3270528344242221, -0.3277710481176017]], "B": [-0.09823284611305076, -0.10387235400382959, -0.10460351454782768, -0.3268090249248498, -0.022440863033376102, -0.2072343383390036, 0.7164176971270136, 0.2845460113555642, -0.07825835370222779, 0.16563796186538, -0.006784468160756276, -0.33848901970429685, 0.026583071128644924, 0.02858661705771268, 0.16686547046509723, -0.042942443265380256, 0.08281600560954579, 0.08145810487678522, 0.37611004406615944, 0.3116528198432659]}, {"neuron_units": 15, "activation": "tanh", "W": [[-0.5992148383595733, 0.30946890728570964, -0.22842147595735154, 0.36897256032795633, -0.3589340505959365, 0.067680751227182, -0.2776124575865904, 0.05663581501096096, -0.004004818890828159, -0.16572754190816277, -0.301268210529737, -0.10028023424253679, -0.04165863862902676, -0.12764817376347007, -0.2570779110478805], [-0.22034565707197692, 0.5017962179255671, -0.2511285679099005, 0.18352700954326595, -0.18113832753534503, 0.19817730729426156, -0.3114686148275052, -0.1898590993256671, 0.10381084957058266, 0.13917278103035313, -0.1850009243963374, -0.17310906033520626, -0.1456696193220401, 0.43841868182866683, 0.0658117402666882], [-0.3726234629097991, -0.2550444288246747, 0.43500248602942554, -0.19176173407825986, -0.02400002315481075, -0.1950016460154821, 0.015325172971829365, -0.3393760617017999, -0.09215454789643567, 0.081123531247806, 0.029657807854739253, 0.47989228019339475, -0.6113699853651743, -0.017901421589720662, 0.11483319244948327], [0.39481508822407874, 0.06749215127909682, -0.4319218870158689, 0.3398258536189785, -0.05064127108419494, -0.010875745007569064, -0.15407072292177112, -0.14061782381709778, 0.6031163847828527, -0.1338763845172004, -0.04406859582398635, 0.13065043649804778, 0.09749700865881682, 0.4989748368840003, 0.4251295939401707], [0.13318659081166867, 0.1869940139674392, 0.1335482343602763, 0.06337081968581228, 0.013194207792997143, 0.05205044457451573, 0.4214994764287697, -0.09613002319746507, 0.03055951753127627, -0.3151437941791692, 0.29643636291863784, -0.06249904344417005, 0.3321292685228726, 0.09659135447011365, 0.06811356556694573], [0.14267932285619456, 0.09335363373682791, 0.3415492306926307, -0.031585336335670226, 0.02266986959770845, 0.10789202689793094, -0.2750372504006418, 0.08222852849209981, 0.2743036360079486, -0.07131328125174241, -0.10709922916056581, 0.08068203422395491, 0.25040101257178154, 0.015901847239276963, -0.021601534838197333], [0.3313204658951153, -0.17082714649769604, -0.09893518839596271, -0.43159874380160945, 0.5810259345441479, -0.17601343579667977, -0.053612935226783204, -0.3615499590525328, 0.08821764117194024, -0.19415368301245262, 0.1040615967133123, 0.06937233513345414, 0.13972167413047007, -0.2238378858362111, -0.21247541770908776], [0.2836877056490777, 0.48862953585485613, -0.20991781876264304, -0.14283466745262882, -0.12552668827159866, 0.12993804280634488, 0.2334750486749944, 0.7411734626103522, 0.16683734080605672, 0.2907205957032972, -0.5487211431979284, -0.08583600511814773, -0.18068891225200012, 0.08858118473876053, 0.2944713690440099], [-0.1984036820894676, -0.04680457426573566, -0.0849309923302978, 0.26846151646454747, 0.20972765733419096, -0.1089226757073838, 0.11350190798245675, -0.17589964871267397, 0.033610858601194706, -0.09003247941166324, -0.08730596669790265, -0.17864424592145414, 0.5193348871640237, 0.05026206437465638, 0.03630034979338544], [-0.48095787876695784, -0.12253110620688434, 0.06338892145336258, -0.7638407563931103, 0.05647020293805398, 0.31587174868051227, 0.04310445025799972, 0.03441574685796038, -0.10641762879243641, -0.4426824961289393, -0.06552319033057999, -0.04592137351856268, -0.000986669576228526, 0.3290943423231153, -0.06530542655417532], [-0.11230127269520493, 0.4698800886525672, -0.5432776729343053, 0.13072145438111354, -0.0663192494799379, 0.3089420280519485, -0.28060738718483014, 0.23180684634250454, 0.044198539964042084, -0.21552483784589577, 0.10577685167483976, -0.02319756229153947, 0.0805576056269127, -0.24756402677481637, -0.24655774481589623], [0.13736201292804384, -0.45681206546563297, -0.11751492593468142, -0.29684431884575574, 0.008954533859325379, -0.304099661818407, 0.04705978562420553, -0.39220701412052145, -0.5664140154618759, 0.014171050870027409, 0.13667861076542626, 0.4803533220511048, 0.07580603004622016, -0.09556724468818645, 0.042380262765720635], [-0.5001305756681429, 0.17735658317595812, -0.06749223840753649, -0.22452478940728035, -0.03427497571669172, -0.08380668324802211, -0.10359717012735212, -0.30311133046624106, 0.4390576007652216, -0.21846171678617898, 0.00308127373143905, 0.3867116725789292, 0.01296162828329254, 0.0428870028592131, -0.23271497818468906], [-0.053678753454834124, 0.16076019863373375, 0.09852970035813507, 0.034437251564855595, -0.04358202769160844, 0.1370033372218306, 0.1449971379414038, 0.07076780184733741, 0.20916988400654785, 0.14611015254276918, -0.206494213349623, -0.45408487695559596, -0.30013128862056965, 0.436938571672226, -0.1797451026973475], [0.14352447155675888, -0.05371196520050805, -0.09335079518710672, -0.01213142353201366, 0.21736949610172712, -0.4889973431131414, 0.45188841552833314, 0.5717449936562277, -0.20607591368179143, 0.24485029107828415, -0.057610873278614395, 0.09150293367184796, -0.18704409965442118, 0.21079380594192593, -0.14054226302271214], [0.039073719663823316, -0.528286558303277, -0.34793374040154595, -0.015668798376548287, 0.05325018999584292, 0.465284998457983, 0.3090004152054674, -0.3839484081409771, -0.21625220859623237, -0.19334826732184218, -0.11992904324358833, -0.05006292322640712, 0.3274350659768777, 0.3530978097424851, -0.30602466336932077], [-0.16696320362228828, -0.1834309785593553, 0.39919240943076406, 0.10906971697817494, 0.20316439758901225, 0.23780985968437515, -0.016474854937982904, -0.6223371259579951, -0.07746959181026473, -0.1033078581233897, -0.2890394728948234, 0.13242940765186778, 0.2100327679276224, -0.2735993975098159, -0.0007258333982432165], [0.1326389508247225, -0.4453446851971705, -0.2982708784561882, 0.2569539111677689, -0.28876602013442115, 0.16876524159660786, -0.4171046177206624, -0.1916152001268685, 0.16945062671280772, -0.027611442591974497, 0.37197152186081495, -0.06728469761843181, -0.24838417793042417, -0.05771332807568901, -0.0835219573135423], [0.27179537239005286, -0.7052526449595782, 0.1758643911320859, -0.4218519121529256, 0.09223357673438143, -0.6599683759536443, -0.06267485699718034, 0.0678737285935208, 0.3239568852050439, 0.09566490383689487, 0.4221057639186091, -0.0962640052647823, -0.13114303435561242, 0.332950722054147, -0.33345382023130843], [0.030106456688371613, -0.39978140783639365, 0.19227967664601572, 0.025328736659825418, -0.2803543592243645, 0.0650997700150185, -0.14520030650888383, 0.3565181105042053, -0.20016808461482793, 0.025385042211497007, 0.2860046419459533, 0.32501917973080546, 0.2021123986813541, -0.1160837888296971, 0.09871969529460016]], "B": [0.10133634666216322, 0.1385201295081129, 0.06956593788685579, -0.03466511902553564, 0.006789813464488818, -0.18632531942176214, 0.1288677611714219, 0.17043121337649486, 0.05401143450346047, -0.09868775888049568, 0.05103750235869552, 0.10872040566741101, 0.0820073707930154, 0.06033242487646932, -0.15462566363774694]}, {"neuron_units": 10, "activation": "tanh", "W": [[-0.13238341273105528, -0.5119159676220429, 0.47577596740001554, -0.6774498642957336, -0.05757881709526584, -0.5011139343003133, 0.12462193941147383, 0.09782598724353232, 0.07742872531272854, 0.27957368248779496], [0.503147995977695, -0.17423067365281972, 0.17806059194252427, -0.21762436896079781, -0.47517485845086993, -0.08550609445179463, -0.17849425877306682, -0.48261441600733884, -0.6286956815846793, -0.154945431189927], [0.07403299174779553, 0.2055383752929843, -0.1575964159148747, 0.2976291077844823, 0.16842631530847815, 0.10576625055675981, 0.08089185833497062, -0.3271891021054469, 0.2704284369644428, 0.5273117017563687], [0.5101144497984333, 0.5580686142015593, 0.5670720370003536, 0.45609204831750544, 0.21310818412188542, -0.1879308177707571, -0.13568850260409004, 0.583925451346434, 0.42811033414081406, 0.3314736020424488], [-0.3484327100859598, -0.6195972708280515, -0.35925032896196657, -0.1036166331373506, -0.11961147325605917, -0.13776274817660486, 0.7452322366230032, 0.2734845996091949, -0.05344244679801486, 0.25410332805631114], [0.3069308769499342, 0.06314584019597115, 0.37805064581073555, 0.002854866996527385, -0.45614953570697264, -0.20197157191268175, -0.35002189562259745, -0.35044734291238744, 0.1959382160439759, -0.3419006757709877], [0.013490622649580822, -0.6035154633447942, -0.3161468968952605, 0.34928600487366035, 0.23104649785690032, -0.5030825344676239, -0.3302090171268983, -0.10511887087103186, -0.09022965733569091, -0.43262502202345077], [0.015047666234443096, -0.13805454412098048, -0.3185384231299514, 0.008458558481473264, 0.25863478520138034, -0.5321466268407653, 0.028703606025839688, -0.36507981525429545, -0.19792597903143255, -0.16131707845817833], [-0.21273011879738152, 0.15390104251285097, -0.2374177084767552, 0.20832000409498644, -0.14009376139331872, 0.04192048462733204, -0.11795877050690903, 0.2697845653639676, -0.6722072069181159, 0.3636091864619324], [0.38913730676830605, 0.3957136075100083, 0.090144971053275, 0.30100544029752924, 0.4469101191036086, -0.10098663148996607, -0.02663381807802822, -0.32513489556676534, 0.01973976897678575, -0.10608499978927946], [-0.37780083082346394, -0.12266066510613738, -0.1663695958111302, -0.18666980922064602, 0.03348457626088468, -0.18833299540897844, 0.3047111237018957, 0.127491524565514, 0.08589031829452377, 0.4459665806715757], [-0.15307410443499822, 0.4070670520592046, -0.5886843187256059, 0.23821984428266413, 0.2926873209183809, -0.6823050752658931, 0.12469042658515003, 0.1772077755622003, 0.3574941452357378, -0.5034479944273877], [-0.41451371405422666, -0.3927539380766233, 0.011557777916209728, -0.33955048175732727, 0.021766370553702365, -0.20507201437885217, -0.1893648262433015, 0.45112048498090435, 0.08162407113449663, 0.5463830555519282], [-0.36319813025206577, 0.05447819745651333, 0.21220333895833035, -0.03871251340250735, 0.04902124960555804, -0.17484567207910615, 0.13171713249643013, -0.11433741318002748, -0.1685170487484393, -0.5156253806722088], [0.27515653105388155, -0.8094937444038416, -0.21980156254746083, 1.0253008375914614, -0.31089142169340095, 0.34515296156351305, -0.1409863275401647, -0.32482720382684144, 0.41914279820674755, 0.27097887867830855]], "B": [-0.5820242606391918, 0.16025010113275057, 0.0752517703205172, 0.33361344901204193, 0.3818203153453687, -0.30029286675846745, -0.3225678472566735, -0.28938488739267165, -0.33296031482648974, -0.4957404355873119]}, {"neuron_units": 5, "activation": "tanh", "W": [[-0.41953481081157107, -0.24803851396831614, -0.1503341998865221, 0.47308189924394245, 0.9287115841789371], [0.07923147882737339, 0.14086359512240906, -0.49600521329360325, -0.6022209118910405, -0.13837555849267863], [0.788855562330604, -0.2715843568566486, -0.34664782121223336, 0.76238162180045, -0.1029766453618288], [-0.25515422947961813, 0.6135806389174698, 0.4786416841720277, 0.6378991253180984, 0.39303639032084436], [-0.3955237924007954, 0.9012052977925584, -0.21954054062575748, 0.4819085498270203, 0.05245144723567389], [-0.5021555106346992, -0.425346638105405, 0.06990606746514219, -0.2930836425076593, 0.018666054616237316], [0.03898965202944652, 0.0030211974670306977, 0.1715820962375351, -0.15673527052786954, -0.3012190717389323], [0.26442545053799404, 0.11947009128463149, -0.2554881301434638, -0.25493333444989263, -1.025144467066106], [-0.7005245414606063, -0.25801259810160887, 0.5457082290525589, 0.27638866486397307, 0.03201664758103789], [-0.15191533856539444, 0.47292220963652526, -0.7700370448766108, 0.3635901924611995, 0.4730402653971634]], "B": [-0.11466939951448354, -0.23229898339102298, 0.11062256222393187, 0.4219826517432717, 0.18129556558521862]}, {"neuron_units": 2, "activation": "tanh", "W": [[0.469858001063927, -0.5483186736178343], [-0.33065537106510984, -0.05716994353616504], [0.41851471059978884, 0.2246297278238435], [-0.29348630045506885, -0.767264724921725], [0.7467327214781815, -0.756925821181852]], "B": [0.3968539858614575, -0.8278789194594993]}, {"neuron_units": 5, "activation": "tanh", "W": [[0.21959145480877465, 1.4295330785877929, -0.8582794883930963, 1.1455497774853265, -0.36267242687034185], [-0.8508862727309505, 0.0579707725917054, -0.9760773790823554, 0.039297304027681466, -0.15354320870903296]], "B": [-0.11734422742668453, 0.8852046962260887, 0.12383277425923087, -0.6146534661104591, -0.6038140100177695]}, {"neuron_units": 10, "activation": "tanh", "W": [[-0.07982335027352772, 0.9465719514464412, -0.5963776676369429, 0.2818956597695702, 0.37174120836788965, -0.6925728819331103, -0.034566580621796066, 0.7274752617906812, -0.2688745474376453, -0.16898723608123506], [1.035016085749467, 0.10911976302676998, -0.3398399910165279, -0.9139546551774506, 0.3074582584159589, 0.06159187195705436, 0.5448164072699827, -0.6337094195648798, 0.7664040424779961, 0.1504298383681435], [-0.010362657185280224, -0.278923005725521, -0.4508524235165676, -0.40285787151707314, 0.6133463994413889, -0.9154702253271103, -0.6903229083803882, -0.574434628887541, -0.9205975915198591, 0.08501016036113272], [-0.8510469013068, 0.19039170126480903, -0.4182205073008248, 0.901760814151002, 0.1280900523998182, -0.24905877470210702, 0.7105853732674942, 0.5838135159641337, 0.1725671610200447, 0.05586448085225547], [0.04808755510674812, 0.27514973401695375, 0.5602362210887115, -0.2144181869415906, -0.43967511548459015, 0.12828495027201783, -0.5451352260288226, 0.11693644767220253, 0.08979532827841474, -0.5534842375556431]], "B": [-0.3513045675552354, 0.5338159616197875, -0.43859366755653106, 0.12216371080475748, -0.045079530614529253, -0.5628823524008013, 0.7070976445278752, 0.7293265480887611, -0.5618036520705777, 0.3572375045124088]}, {"neuron_units": 15, "activation": "tanh", "W": [[-0.7544980223836921, 0.16051301874957258, -0.3683940531003365, -0.2225566387037156, 0.15001699190286202, -0.3101703613089825, 0.002008262645799518, 0.18479989567009072, 0.47024743191584667, -0.2921018909957747, 0.5352205059752938, 0.22759436693918866, 0.7684381010792419, 0.7094475154702924, 0.25185646204957374], [-0.5215077603310908, 0.8326760476405491, 0.010526762110757946, -0.04968230141361183, 0.0706775199760335, -0.40312411759664024, -0.18445435006427074, 0.46653888294210116, -0.00878748417835694, -0.3276491020445543, -0.4051756503243214, 0.0509989355363166, 0.5726056913973713, -0.2681062722798697, 0.12706861924501006], [0.07362235459395206, -0.3688217279612839, 0.3519900916520498, 0.01666442177353265, 0.40331892905785716, -0.35184773735610897, -0.4725427802864444, -0.39735142828275144, 0.27806879432562287, 0.022340920217882507, -0.04152279152262415, 0.6363598478763458, 0.2587129261252335, -0.5910172489826561, -0.42299340301617894], [-0.14491984371292757, -0.14974325011381065, 0.25290676384879585, 0.24248677677922212, -0.35355071325517445, 0.9293227040611182, 0.11216142485197017, 0.05559205036242146, -0.523677974327902, -0.8775765819944936, 0.11109793740885385, -0.28358922251272783, 0.6461243877157519, -0.5036284812591058, -0.3845171475823486], [-0.8196346424514453, 0.1509365189010993, 0.28959263783105665, 0.08563095909343013, -0.0783951133214123, -0.3290156715049152, -0.31582405493044724, 0.2313577172606609, 0.01729497339298693, 0.09521255643404719, 0.2332083511764988, -0.27623899290357545, 0.2833495776369698, -0.33636064374908115, 0.7452683512642123], [0.24779012333256492, -0.12947941325066367, -0.02450581919469858, -0.9112109591704477, -0.11625957515118067, 0.07724187301964028, -0.10849730231683571, 0.633396181432295, -0.29311853155962925, -0.7760307533779806, -0.04612933842343642, 0.7522771313489255, -0.21155504711252615, 0.603924853241832, -0.09470434587694171], [-0.2162981329544629, -0.22744583598071033, -0.17572501933591367, 0.10415424269260265, -0.42365872442151326, -0.3633837454411729, -0.6992514952459953, -0.18678274534199496, -0.03592602391671503, -0.0929114927327632, 0.39075215889470993, -0.29924902905106043, 0.3573124893745451, 0.5213616429559067, -0.20905054617679003], [-0.07280241118464811, -0.008394954742709841, 0.20383078585528994, -0.40662882262057326, -0.8516097182480382, -0.11465398831013857, -0.2236559382150394, 0.24961347667837216, -0.4116764551396003, -0.20255711235670487, -0.3756567589322756, 0.23667167845973056, 0.6556550638580233, -0.2898999539181218, 0.04676921251225611], [-0.19103059814408802, 0.4743024280897235, -0.0021532408902235492, 0.6451530272375468, -0.17112991670618233, -0.2023579541996482, 0.4684847147756311, -0.4388816222284543, -0.2899071297187965, -0.45106261840508444, -0.48409144441491037, 0.15348704337991045, 0.30098364365585667, 0.282609133186695, 0.23494662531177163], [0.39783117718981603, 0.1418210467039515, -0.34708932002273857, 0.02734927669014949, 0.22622011461345198, 0.31049493073821016, -0.03639602959175481, -0.3811833747806058, 0.28921517362886845, -0.04967451702366218, -0.1381205376920691, -0.32921421466634443, 0.3118445433697964, 0.34679845074961463, 0.1238220466174426]], "B": [-0.15019139387346367, 0.23665645891843629, 0.5680725602295806, -0.1707229451456474, -0.02511172561703323, 0.14067913324789807, 0.5954432742087477, -0.35544335968499197, -0.3069196205921544, -0.11577685187979775, -0.4721114963133952, -0.13709238180097774, -0.2136816237210822, 0.4342001964331004, -0.13379588035126241]}, {"neuron_units": 20, "activation": "tanh", "W": [[-0.16720016588248737, 0.11400858178300778, 0.37798859216641867, -0.03558810389920638, 0.053320424703006575, 0.5772710741770912, -0.3605983107979323, -0.3554957670836086, 0.027178532036618443, 0.11203453712295078, -0.10254291405325976, -0.07826135152490245, -0.13737792955910072, -0.04143120982804143, -3.843885589953755e-05, 0.01317574095196813, -0.815473859111958, 0.02688499359833392, 0.29021547992544156, -0.02767869471867662], [0.3949488226343067, -0.09523917377522595, -0.10186642896925223, -0.22662964481780126, -0.46974709724507424, 0.1172860191659069, 0.12653234271241326, 0.07405692971584196, -0.07405890360986757, -0.021765287530389373, 0.184364482639518, -0.5596196761360104, 0.3117921245927665, -0.5334996255809659, 0.7423625273408241, 0.07737781315114028, -0.16103556569173472, -0.19427108642761834, 0.6146751721263223, 0.09574544469731383], [0.16532437982840215, 0.2835594159203624, 0.08793980549644788, 0.28699031215067344, 0.07342690877695006, 0.09876852083747778, 0.3441353912631857, 0.1397214366788144, -0.07910483338638569, -0.017364711364023913, -0.09683141076343443, 0.1282366491902328, 0.6200532358041237, -0.006958309739996028, 0.058998947257257524, -0.13256341104623567, -0.39045448310104197, 0.1175848631554799, -0.231112099519018, 0.4725512428928627], [0.2600764681183596, 0.03263992372670086, 0.061554633450759455, -0.07424408803028124, 0.35544351430132815, 0.0741197517090911, 0.29595420611285383, 0.3040982262874651, 0.016303742148868008, 0.22884109358587523, 0.38451245129062134, -0.8315686401093607, 0.06718666363200236, -0.20530823061461279, 0.30317848866030483, -0.4843984737086688, 0.5886356189827066, 0.4057686488324026, -0.13490934207516425, -0.3491892988763577], [-0.34697966092462146, -0.177427119511707, 0.04411833378632544, 0.22909447318407414, 0.07542376655854738, -0.4255494035591807, -0.05479326553129739, 0.0712297408068035, -0.2219744361867311, 0.24243161608068717, 0.22175518913824416, 0.21681269532410816, 0.31652448629270513, -0.08934696244070188, 0.23239339950302923, -0.45638877624860724, 0.2392062301859029, 0.015518985977979953, -0.22183940392754725, 0.7309275491513638], [0.23224191175830017, 0.43282481284526997, 0.295211210380614, 0.7445869809511231, -0.37697001702368726, -0.6632746911021812, -0.25966007864561447, -0.055732019690490124, -0.3502882363380139, 0.3509131159811912, 0.1877251344568086, -0.19919846619387224, 0.24109398200191567, -0.29140827498642524, -0.36718132390885677, -0.026172782003800694, 0.07797761036334959, -0.1319625620066629, 0.008606244049263828, 0.11916634026991973], [0.21010332222145872, -0.5349860045944529, -0.10340034484476718, 0.11296544363576418, -0.3905943843785366, -0.06443766763706318, -0.20392598803883755, -0.16393555722003605, 0.3200331488678646, -0.17518458725740144, -0.12461273377376984, 0.13345865826901984, 0.4222869598561414, -0.17521496376997697, -0.11143982938525422, 0.12123414758842438, 0.42373767469173057, -0.10072731256646117, 0.07352989574163432, 0.12427071188746311], [0.0027090363696020566, -0.11660538930087425, 0.11678105093599093, 0.04771782195539592, -0.4876654018721868, 0.2969093549519352, 0.41886145454964374, 0.21483488631876219, -0.39830196823042624, -0.4176779849973623, -0.14837236050675745, 0.36138580375365986, 0.026318471943611893, 0.39546689229249093, -0.008231752199606495, 0.3210611234964233, 0.08841363165786856, -0.013172834357788354, -0.06958998296073783, 0.520499749953269], [0.13274696615878415, -0.7510326204996642, -0.04082319090545724, -0.23994484425599105, 0.058525756927799905, -0.0975179097447364, -0.3538522212439544, 0.22227895015362917, 0.2431987581997394, 0.10258156179456082, 0.2577992923226233, -0.3532018805503841, 0.20059477389424651, 0.03999610641448559, 0.09989797363372856, 0.22981638440267882, 0.1172045394980791, -0.5939950342854948, 0.16676300934257296, 0.03663221454814791], [0.17961791385177456, 0.43637465830258493, 0.338880955882488, 0.017827267283285795, 0.2440767276612933, 0.22912061162789293, -0.261769689615877, -0.05521626498820959, -0.47745443851502534, -0.2572128903699847, 0.17433575005508803, 0.6056859779666239, -0.03113210566208212, 0.2065117855888677, -0.19863520746308774, 0.04209599689116217, -0.4989644646156445, -0.39131649670871294, -0.18544953104623185, -0.08001546878010633], [0.21750442955291802, -0.27849696038967053, -0.006802746637233941, 0.0814996594734962, -0.22161605872697565, -0.4715258486090523, -0.3093874409869342, 0.4657776171065988, -0.05533144663547419, 0.14566146692739684, -0.2341051312348843, 0.08043225631698916, -0.5274489153658348, 0.5672690925737157, -0.1783251949748376, -0.2931869664328699, -0.045651224974809446, -0.30752823244230215, -0.384231049461129, -0.30495322911506095], [-0.5011785196982302, 0.5354299676872092, -0.18389083151406516, -0.057738563209386445, -0.30832860844545823, 0.05206024696382837, 0.31880332708809517, -0.19640838263914495, -0.07414229500457296, 0.519324327729908, -0.07124774279684264, -0.13278743002662421, -0.31042007418924394, 0.11501149503036086, -0.01770289951360633, 0.31960583189709735, -0.19143639299887755, 0.27390337098280104, -0.0389607360997162, 0.0440405640318576], [0.40027001345378177, 0.2440930634180391, 0.2734889194838837, -0.2591459866787692, 0.2222623628109055, -0.19263664047114185, 0.1921483602818881, 0.24167751506051197, 0.06209346055910605, 0.13962251770616188, 0.08670797972362608, 0.3603534157952815, -0.4568936532535075, 0.13278417638059578, 0.3331061883790369, 0.3839392620807035, -0.7179822640165101, 0.200504193810537, 0.4054000034088989, 0.42592344394298753], [-0.20836405536325578, -0.18779643029877052, 0.1445524516818958, 0.04903306383099806, -0.0977700665479764, 0.05715328613869163, -0.3578317406752779, 0.07805947512661612, 1.0767966065036891, -0.2669202717659553, 0.4701753163189446, 0.26126990380899834, -0.7097168514271547, 0.1438642626501343, -0.13206520631194194, 0.5584142235747025, 0.0027505958778656888, -0.10033001243104009, -0.11453004192315841, -0.08547619725162894], [0.5023852221292759, -0.21317646894813141, 0.2570857314157507, -0.30515173031405923, -0.26686941199032366, -0.029276289179413363, 0.14380449892737068, -0.3020462569103334, 0.38718739386495793, 0.09486156606013117, 0.27094190932218737, -0.22243417668691076, -0.38727381878589784, 0.07549137659332728, 0.4715971224257546, -0.3221884927802508, 0.08231300599977369, 0.26215724111360694, 0.1419296989813565, -0.12115280481403341]], "B": [-0.2103103565374386, 0.09165104540135513, -0.014193002152465805, 0.3330398484065132, 0.02861914982363966, 0.0003928837843606138, -0.32559144410821794, -0.27699909089167424, 0.20030707590789723, 0.11978960136568141, 0.13628552179858572, 0.36069957866549995, 0.027104148767281032, -0.21336043066477464, -0.09180360836704969, 0.0013462465010809362, -0.17897109632082853, -0.16207881399630084, 0.2212771412251289, 0.26186298327710933]}, {"neuron_units": 25, "activation": "tanh", "W": [[-0.0474987250033774, 0.1323289709337332, 0.5205334538951879, 0.13697642699852142, -0.1943747056761753, 0.35607107911804214, -0.24620486870974687, 0.22625879987754527, 0.3183599887526029, -0.010555073853599667, 0.1051390327408571, -0.32239202398821126, 0.3812449222312701, -0.2520013973275589, -0.0817256740360139, 0.20979033204413772, -0.07744708619111745, 0.14425922758626297, 0.06012643781757653, -0.07067359465539318, 0.05212513607460089, -0.11749160652217967, 0.044406204863734665, 0.2949905700142283, -0.3647028152431623], [0.44584753370401514, 0.015673511575525906, 0.09280098520196407, 0.052378252055418226, -0.2924756398836919, -0.23613992363570988, -0.13086066469581484, -0.0986719264375372, -0.163327310600589, -0.817466386243566, 0.5767806463239714, 0.3805319194762421, 0.4448348633247273, 0.09615341072713983, -0.29894090822792657, 0.2930484599313208, 0.3743990740005818, -0.03383427362859681, 0.36981344656106874, -0.0800383450362005, 0.14624449992942162, 0.5708800521115905, 0.47332321258465143, -0.00712566734507336, -0.4894973323163188], [-0.298119459858832, -0.4761855517650782, 0.2377112916658622, 0.11815755710158161, -0.3410019380578053, -0.1048597916906315, 0.02871614346740567, 0.27592943617082594, -0.19490517894855874, -0.15017372231651396, 0.042453382385076, -0.1699614191151619, 0.14126601512271134, 0.06599667153772117, -0.0792848029182808, 0.04122568853684467, 0.039349039196436585, 0.21218368604954996, 0.006460960929493331, 0.07441476966526883, -0.37407008660319074, -0.2143281884600577, 0.3366621127549759, -0.061197178868432435, 0.20167795485078532], [0.11729824318517167, -0.18769531469542652, 0.4872502655606874, -0.3047493319942564, -0.4557525789472217, 0.030057189190529052, -0.0663499889087766, -0.2759557937847323, 0.13255286502224017, -0.1043493783721164, 0.2942899954836956, 0.31052507962761516, 0.1175653805248832, 0.010933785018715236, -0.27636515115143995, 0.12733947597215917, 0.29056160183286, 0.024363737070883854, 0.21079136081077302, -0.48953965169683544, -0.23054177108689775, -0.1434978478030961, 0.16109826790042872, -0.1540321866643493, 0.015035062345670386], [0.02255687504691494, 0.016118330604561033, -0.043053274488369646, 0.32583283409119634, 0.4516717147085485, -0.03107251751504082, -0.4981815003496724, 0.09797343899029867, -0.3551999385998316, -0.03750867313201441, 0.2244994254805771, 0.3439931562181682, 0.09554092967171648, -0.049951879662747875, 0.11695525099407345, -0.15885733365593238, -0.23011086509450854, 0.10339824683063392, -0.1459107634191748, 0.22063858569266165, 0.37371214043571, -0.42894195761696663, 0.010790681012904766, -0.2534276710192521, 0.3305944469191212], [0.40158370423190076, -0.3396026942778152, 0.11501563439693713, -0.525918628119214, -0.14164103154035, 0.06437003710859679, 0.11248353196587378, 0.4548981379177245, -0.20758223101865383, 0.27593374793851816, 0.26248791543359457, 0.0810265796615666, 0.3126312618012655, 0.15183507095025656, -0.1975082446313975, -0.27947363932734387, -0.1766001833304179, 0.0423748016460418, 0.0004403867678364381, 0.024160142640428647, 0.4176950271133591, 0.06247982008589582, -0.2509018201339084, 0.11680818533457872, 0.2887020182936012], [-0.1096924322103063, -0.2397851158533361, 0.2785336208686766, 0.02948652636548786, 0.09203872862629348, -0.24655233708573385, 0.6697990165293628, 0.10386293901525777, -0.43633355202740476, -0.17978686137683078, 0.23118012656704498, -0.020148818263938266, -0.13983492631998556, 0.42360266529217316, 0.042260420974765005, 0.02094594918752176, -0.2659505804210115, 0.2571635442848861, -0.07513018108819283, 0.09329441544221088, 0.27012643551531285, 0.394142953293798, 0.0437773792687447, 0.5711853587246257, -0.12675696447333126], [-0.3723140926912166, 0.5876259305197522, -0.35437090030548457, -0.37771182744130644, 0.0228292755772968, -0.24323892866155036, 0.21278895646689786, 0.2866636229933513, 0.13002594175168142, -0.273620438862912, -0.664774818783824, 0.06182405253281887, -0.2968168282068993, -0.33872176476881244, -0.038365450589537366, 0.21658734408832003, -0.10421735190932238, 0.1260842341223328, -0.044360078851975265, 0.33296475219040106, 0.01376329360693488, 0.11304069711221716, 0.09952039727136336, 0.10483915687285417, -0.14881489464505143], [0.0527299828112131, 0.3791419376767096, -0.1999329303644688, 0.19792383532465535, 0.2655828742395136, -0.2276809902192295, -0.493011335427599, 0.5291699883927576, -0.12323534213652514, 0.49612561191962284, -0.14645584650513319, 0.3110454885423516, 0.04868615421505096, -0.817769171346248, -0.9172031184966332, 0.16375159259062125, 0.18056730530300202, -0.34452499566557615, -0.33820885623360936, -0.10070570211895195, 0.2975050891503929, -0.2686540457826284, -0.2763827420283722, 0.12736291540230865, -0.020260510355141204], [0.5385140305380751, -0.4902942496034666, 0.1973662399574722, 0.19610802900719518, -0.291249928986713, -0.22083063223774643, -0.01906503816786232, -0.19343130167335804, 0.2059821473933646, -0.3968874350213902, -0.207524641890626, 0.03367134915582479, -0.10761350041146558, -0.49318614235812785, 0.2768524806516444, 0.2044580603548258, 0.30593606596821044, -0.13280310061185238, 0.4300602255696908, 0.012432497271717146, 0.3466300526939134, -0.0542736145903545, 0.5139876743553803, -0.2821634638353162, 0.37340203133312583], [-0.14217352060359978, -0.19392311640350277, 0.11697950949570393, 0.5355714358204318, 0.49585657248027226, 0.5722373699377827, -0.45308453252301656, 0.12239893956583393, -0.0526462883173446, 0.03204637340216173, -0.032129146500953096, 0.272619674546717, 0.25787114776826636, 0.15177680374542957, 0.07139397589395718, -0.03719129710793162, 0.23135871154400542, 0.00827968342353459, -0.4297973292508898, 0.06021448831644013, -0.321183288358951, 0.0829656520539121, 0.25886052693619555, -0.10752690351363056, -0.08319942103239117], [-0.1733043002525446, -0.10450386991309807, -0.5661610981335969, -0.10548954877686874, -0.14321484517244396, 0.3526480870845652, -0.3903810382983766, -0.4657166830471014, -0.24945596033227274, -0.029094182925434364, 0.14077453894695732, -0.5310041412264246, 0.3442550571202341, -0.04514750217523192, -0.4392076556776835, -0.4738203111823096, -0.38038936287838876, -0.2403363223343918, -0.3154769100543671, 0.3109059153114223, -0.06726790104422496, -0.20162064964644064, -0.334422466766882, -0.4371441253577053, -0.26093392587061104], [0.025048951853487374, 0.10116369484874282, -0.47273203348759407, 0.2968316313105119, 0.2877345480773545, -0.0001808201910595063, -0.7154102485667715, 0.06090898452574038, 0.03246886398892914, 0.01833457039294523, 0.25709779156629026, -0.05913067592044742, 0.3939871793685897, -0.6729285162521698, -0.22212340782832296, 0.2796277976922137, -0.11232240904402538, -0.03934590263615725, -0.14986013244075785, -0.5464277430395256, -0.6885828939861697, 0.42925238645093966, -0.20538048525867045, -0.16069347564367745, -0.54149228710355], [-0.34705632830304095, -0.18907698081259017, 0.5480324722728412, -0.3062809702440433, 0.4003386378112828, 0.1355130301535881, 0.44692097874350284, 0.3956409613092235, 0.25036033812143693, -0.10425099345325692, -0.025036369751049715, 0.06635616578715474, 0.015440524572723924, 0.06561383169215686, -0.35522959176867963, 0.32896613744064035, -0.6107386917590005, 0.1335617067475269, 0.05405405430754635, 0.13838772479230105, -0.1951962792535034, 0.27937487799930827, -0.06869590914457697, 0.013561876885904975, 0.285469940758791], [0.07438012450715428, 0.28079835912046514, -0.4129650663359953, 0.26848098543570914, 0.357582202946705, 0.09688004166841363, 0.30092250752975425, 0.3642551252145397, 0.38590702725113785, -0.06668088638980879, 0.043251653613542405, 0.07033840716586078, 0.07864844173376659, -0.10525290317992532, -0.08063678221452011, -0.1003331970445597, 0.317482207927684, 0.7474818543000447, -0.08347216864404572, 0.1299743550657326, 0.07578178207155307, 0.3312754521829931, -0.004629621453015419, 0.09531276446089608, 0.18079571802941355], [-0.21187914553142914, 0.029781419848462387, -0.11880148462082751, -0.15274394187791512, 0.25821946038517185, -0.01838504494171709, 0.3024922985138239, -0.10324717680334784, -0.03165063520868332, 0.13320292869180134, 0.32431009073745953, 0.0916179625331217, -0.6949251040792449, 0.22730097773264227, -0.31834088430800905, 0.5304367082615482, 0.029296242960924757, 0.0997047062608838, -0.5291594806469414, 0.38213522305091047, 0.14612809885209374, -0.5811300785952043, -0.19210705510720252, -0.07500319355837559, -0.16591313023998902], [0.10541370594503945, -0.16369162805094897, 0.08579430504058237, 0.09183299796115482, -0.291619196329807, 0.07548580609252306, -0.033099334625746824, -0.2797311278667476, 0.26188537400312917, 0.2827887252652094, 0.0741409837738393, -0.18082129660970755, -0.40861567220655703, -0.5715549720533819, -0.18786808966585478, 0.3791189039041148, -0.0823117815922803, 0.029959501522312092, -0.09632655153627931, -0.5618323137080775, 0.04722652898259596, 0.5310909800414387, 0.3145510378390122, 0.2515953156535195, -0.7681662468084651], [-0.07650642865070342, 0.014201014959887905, -0.2133657955060994, 0.021952946549496005, -0.3092100590162297, -0.09671798351556321, -0.274973696054267, 0.21958745718062425, -0.06522761541510892, -0.062047828361407716, -0.0011306864482601448, 0.20072231102182636, -0.38801681779875163, -0.024216216535658083, -0.4094266629780309, 0.1869979514826262, 0.3911317467413161, -0.16640993302274526, 0.041459924449792594, -0.675213124452924, 0.09199100338646052, 0.25454170290868827, 0.24558915730919662, 0.2322513083470653, -0.34544753583430166], [0.19701602721330663, 0.13560176339295188, -0.3166965678611013, 0.110704378270599, -0.11655633543621399, 0.34981450479718856, 0.39590609197917204, 0.09783836790544138, -0.08737701580582773, -0.28648526140200503, 0.13676406018252324, 0.0697694429480558, 0.10690895500853358, 0.12370653189709858, -0.02115467584492991, 0.21787461647618558, -0.07523895166602554, 0.638714054412846, 0.20531450072991636, -0.32878844151069964, -0.14279886020932486, -0.2021163821576069, 0.08057146747951668, -0.1402169762958095, -0.011279015073251861], [0.3875039383285792, -0.055615569012990994, 0.1227639373699129, 0.501118824479853, -0.3591977611851282, -0.3421715701405322, 0.0075192088010948835, -0.3911517586432796, -0.2428053955828993, -0.14072725257775912, 0.09906555465123898, 0.2635747026639979, -0.37533261423696446, 0.03182525064778677, 0.01996824220490958, 0.6611466423974224, -0.09402963866602647, 0.05439530044865223, 0.2703241587104912, 0.1901944466051648, -0.301829502976934, -0.16616690365765682, -0.24347209431844466, -0.2796689970988968, 0.013308189460273564]], "B": [-0.05936379935171275, 0.18643134775892942, 0.016212158723403328, -0.10706435026467945, -0.08170442262190436, -0.22382413139586266, 0.15488408531310227, 0.16566674709281962, -0.20747348025683915, 0.2821641271008781, 0.4190571193460411, 0.10684988276047391, -0.08247352125107393, 0.01720087709225807, -0.057124858675696416, 0.14707173319020742, 0.036277645282647625, -0.16343950791889172, -0.23117404197749394, -0.009892224679108528, -0.29970635858720934, -0.17301124409325883, -0.273938106678975, -0.33333422556483655, -0.17268201136030548]}, {"neuron_units": 30, "activation": "tanh", "W": [[0.20701653149999524, 0.1534697215814283, -0.391779574204725, -0.30548480899294045, -0.3151589658145597, 0.12025034848666025, 0.07837133086658854, -0.6668273674064236, 0.4153904032810011, -0.01668026693323787, 0.05223422852131856, 0.3750273244846631, 0.36989280859851237, 0.08445777759240612, -0.158674305422969, -0.01719012722978883, -0.018062737802320053, 0.06250449278959476, 0.406846496952491, -0.03565405933929105, 0.20220551472473006, 0.013945461757589239, 0.04551392858618197, -0.3555883350272409, -0.3690977247005171, -0.27044355189381386, 0.09122251631559813, -0.23380151252332057, 0.5429508012125086, -0.08102242745283211], [-0.1663373920195584, 0.3798620088538955, 0.10061192506194996, 0.34942765155158595, 0.03352169107629308, -0.16850918409590504, 0.3663249769692932, -0.1731276587570332, 0.06830432776620483, 0.13934785868175364, 0.17010145090083376, 0.028005229389714188, -0.1527187076069965, 0.3579093226328064, 0.5333784096966541, 0.43637471675904466, 0.03934255518356688, -0.1928148325133989, -0.23803164386117795, -0.17053246088356605, -0.058190189201868296, 0.36626280051039056, 0.05565734475748022, -0.0711481103119486, 0.3372807051175757, -0.2158638999327953, -0.22439688875138242, -0.3315055263593165, 0.23420171237106743, -0.30339633116166537], [0.030990621837510546, 0.47107813449920344, 0.006454440133081652, 0.07118776269689261, 0.08571053889162415, -0.12233420892882124, -0.09219719799951605, -0.05143418146548227, 0.37791756262379217, -0.3089108758871926, 0.6060207375004433, 0.4748869668396183, 0.4442536999221457, -0.09579821903283214, -0.24228527338016978, 0.13509896284178116, -0.1256745899770394, 0.42698235194701895, -0.19471966574394742, -0.039656195654041916, -0.4931568047148856, -0.535876510451864, 0.12458100122154643, -0.09379181877525328, -0.4813653354130176, 0.09743294638779183, 0.4250550747526625, -0.10262564898185689, 0.18688075303802898, 0.409829052024169], [-0.0026862456872121525, 0.16952329662329857, 0.2502385843711421, -0.02227870375939705, -0.07966805393197544, 0.10059716863603285, -0.1918065359810119, 0.13261309768110088, 0.24312664022573988, 0.2430659055484465, -0.2078230064260037, -0.1187867039649816, -0.0030732321427601413, 0.1238137013262126, 0.48076189253487916, 0.18788246072266596, 0.13949782754180287, -0.02587950797263712, 0.5687322211904419, -0.4056004921588907, -0.2923486397885906, 0.5342629637982559, -0.11846329420181395, 0.08007418522271535, -0.04028542372592304, 0.2771794279816365, -0.4516442818598412, -0.08028582502051497, 0.20236810805795655, -0.0736680079227557], [5.7689798153081404e-05, -0.28573435303074524, 0.12044541684830842, 0.5588533977922837, 0.5529778372815216, 0.5089959444020623, -0.10897018508823486, -0.6114395924274458, -0.4855525820494752, 0.21185265635033956, -0.14027457366858812, -0.21605665646018418, 0.0857252571961469, 0.1416076116567554, 0.3521287636147139, 0.4316736990774131, -0.23191183496462325, -0.0010561802872936204, -0.17022123258345814, 0.7312438348936591, 0.08526232116606608, 0.2852177459914083, -0.25763352562278946, -0.19827714345514139, 0.21300027600886173, 0.5018451643264326, -0.04441541042326556, 0.3416095681796819, -0.19031981959052086, -0.05144516980916103], [-0.28747368408070484, -0.19225740704218416, 0.18330857840217948, -0.0925141884879324, 0.14552845664933983, 0.20969801029572036, -0.20402163630802797, 0.06835438047706689, 0.05786188195340106, 0.4906093990056039, 0.17524062966892381, -0.11078044523598682, 0.3441785552689905, -0.447251780096887, -0.03502315513460983, 0.045958150152374026, -0.2161028098160119, -0.1604832528415361, 0.03641484873849105, 0.12392778147269454, -0.0098663795689677, 0.31779195054907505, 0.33919040094279534, 0.14393732740922202, 0.1364861840498709, 0.1525259449522991, -0.17429236744060003, -0.3349339235824191, 0.3152800625867403, 0.37171194377538513], [-0.16768212117363945, -0.21523826204419239, 0.02322004823720846, -0.3307465424338205, 0.08199930771120854, -0.5133388832442343, 0.596940521521957, -0.2884362918887389, -0.1956081339598027, -0.0826796861596595, -0.3195087828718614, -0.18814647077622654, 0.16416574260817893, -0.17427397457109428, -0.15650693790940928, -0.3100356606077838, -0.23324222923668567, 0.2190939081875627, 0.2886114113741185, 0.223542917023142, -0.8475859478533398, 0.43433702578190625, -0.43463311402846616, -0.15979704402572828, -0.8011852478780178, -0.33782500640347185, 0.029287468605932357, 0.22127415267212147, 0.311458574172802, -0.3149608281115546], [0.05341839192829089, 0.39882166619408654, 0.11762640555820625, -0.03692477603668768, 0.3145597271913041, 0.2892141845977302, -0.19777368932656492, -0.4397602046764494, -0.14064297559451833, 0.009846275065039902, -0.6065852213012526, 0.012207123097008023, -0.017552283871262887, 0.4794997158935085, 0.3292810054733581, 0.2630639065589199, 0.5869626906487513, 0.08141182503963833, -0.26120581473832677, -0.24875561997076714, -0.05796843919184976, 0.06418492803850946, 0.11011208137490536, 0.23565013704479368, 0.36273192486504563, 0.08229510043843088, 0.3152985775330341, 0.09297183173960172, -0.07493784011335768, 0.6489367843215266], [-0.36781908660045093, 0.3515651179249144, -0.30107527464732303, -0.09729133485367975, -0.005148908702728803, -0.4570807125353629, 0.2454639553720691, 0.2315766926604685, 0.4935664713717007, -0.11633067835565637, -0.022581490101362945, 0.08741874039557661, 0.2264739839064022, 0.19492765124345263, 0.05511832147475501, 0.030803424268033317, -0.15532292886069307, 0.22648147061593207, -0.010491186757767236, -0.015088368864920055, -0.1085184889283574, -0.09154047022299303, -0.39369827572286986, 0.5312343442106087, 0.15740866349183316, 0.5912404226296523, 0.11580823344486331, 0.08773363872978429, 0.14651989428858653, 0.36064463133054914], [0.23762857628346393, 0.42829367503842114, 0.23841470328858624, 0.061333898062351, -0.2958012763975553, 0.01771440620552176, -0.34270899680765843, 0.0010510769145952534, 0.38591903045510445, -0.1900798731490213, -0.11790485684938656, -0.5440162404118573, -0.04199237771538043, 0.18744928032584515, -0.3068817494838815, 0.1261994136349184, -0.24202172868584437, -0.19339880396953874, -0.36226155797702136, 0.04802748329990613, 0.4420145722267881, -0.09173291359020053, 0.24733640316615488, -0.3310685653473416, -0.3822665786545481, -0.12660712864055368, -0.10909917728140184, -0.3477756746295814, 0.012900092667514578, -0.33305978166264355], [0.2976977266429148, -0.18294620520986915, 0.41217395637509513, 0.2076048664895478, -0.18839617331099115, 0.2323103034645504, -0.17064881626344905, -0.0868828809266038, 0.04002704498187865, 0.012279882966152204, 0.14169859933234652, -0.040192710724691584, -0.31930230698316475, -0.008926928132764444, 0.07458816458515588, -0.09993835082271592, 0.06755602469023497, 0.21247181988554203, -0.19598732525916251, -0.12131413871122224, -0.05692657602728962, 0.05406759872649411, 0.327192631889429, 0.1844044166967814, -0.36631550898332893, 0.10959244018398408, 0.18802682942768448, -0.28650397233443065, -0.010745562328353785, -0.04320806922631877], [0.36153950916748473, 0.19313092399161877, -0.24520419293923837, 0.253585028020071, 0.1178307608754075, 0.11613146710786497, -0.1353236637284606, -0.27469829384588934, -0.42681970744139186, -0.3344262419351039, -0.04324161841698682, 0.10526051041198416, -0.2874932410007694, -0.1550405508665017, -0.09492281884377492, -0.20934507937305682, 0.0830478350333695, -0.03535864803683142, 0.28884109731187496, 0.14129332437115852, -0.019936344965304564, 0.0026462961170315943, -0.09740833448910649, -0.45169405155910286, -0.013857563838356906, -0.24031350481290967, 0.45055914062755037, 0.25448253308948265, 0.1506616996363858, -0.23552446169635485], [0.39636762709580814, -0.2900977202748441, -0.05289451904071685, 0.29893733047748944, 0.22095487484347567, 0.01062105514367797, 0.3917155615458817, -0.11572164933874689, -0.7055511220142116, 0.4757671255402285, 0.1952352169689034, 0.12791696736578204, -0.12159452073933125, -0.5383355011293164, -0.265342702535632, -0.07210830374603759, 0.5408854339853444, -0.10833517710667129, -0.09842828079737499, 0.39283666391595723, 0.2688240995283283, 0.2721246923160143, 0.44031320425741827, 0.22603305901199636, 0.34159466524138543, -0.0031685997261713885, -0.4700169882278906, -0.6503487814849913, 0.303100233456666, 0.009974988112558094], [-0.7455390282765828, -0.15493777904706288, 0.12644733073820888, -0.09996425318643565, -0.026880935938547047, 0.2339282629209667, -0.11536514180997078, -0.0795550448279084, -0.48753841714127755, -0.09877798044748483, 0.23275413364839487, 0.04500990642409449, -0.022706789576934835, -0.3293390000812465, -0.22132527706609348, -0.19338075907027855, -0.05859227124013518, 0.11922790363986882, 0.5593628883928817, 0.20707517085805177, -0.556865894545647, -0.10722363570826103, 0.3094692563581283, 0.22990777606883203, -0.08565690069893764, -0.4688818626472501, 0.710391924901234, 0.13760290972481334, 0.16479429632670964, -0.06393045004100602], [0.10412174266195082, 0.08217033032338475, -0.13361701546813715, -0.3857787740442205, -0.31253875680134086, -0.030991326521486513, -0.20890012456701365, -0.13716017861744131, -0.21546690889017356, -0.042974632117868526, 0.4471561758302037, 0.17144083296471466, -0.36380815126970356, -0.08908667534304185, -0.1549089176024415, -0.2042984400616554, -0.12302793203967173, -0.19249444947967237, 0.2696019978094665, 0.30871890477789116, 0.09027779139102932, 0.10098720347988746, 0.18816222402264327, 0.2077609937342275, 0.36165264475198033, -0.43431799547441435, -0.07249435345363463, 0.138424236545818, -0.4124435888262675, -0.4790498662528518], [0.47101916483278716, 0.7442070011389854, -0.06213783030396, 0.2201846929556034, 0.2582417785201496, 0.08832685589393136, 0.3935921187145378, -0.15652491767622342, 0.230602464328117, -0.4064706233830554, 0.07059123873747095, 0.07313509576666176, 0.1737240060161639, -0.33286460076935864, -0.28519653673868783, 0.2663858442370706, -0.2842508178942945, 0.061104034788108164, 0.31303246393204914, -0.6202648617140071, -0.4321824484620194, 0.0247475244494314, -0.16887980000188288, 0.09123839416081342, -0.3052377665978656, 0.04696268247644638, 0.41011837963698816, 0.01341562348406457, -0.38114802422025174, -0.3162977166293028], [-0.42210116357516797, 0.20425451543836828, -0.021070607018572267, -0.016679097076028496, -0.6482985118347439, 0.35652714337779345, -0.014356922687829184, -0.39408275362728534, -0.04428052491700168, 0.18761194474617351, -0.2265114959008819, 0.41829836865986547, 0.12448121313429623, -0.4875722383079555, 0.2418917458791925, -0.3317545506777632, -0.2576077224632662, -0.1761020805013399, -0.08709073179538358, -0.21115724789345677, 0.08314423758223394, -0.24726273253832107, -0.399049796149241, -0.1361686062829309, 0.02145220428086746, 0.2039209781928392, 0.4522107739157725, 0.1459770731620462, -0.06549954607365122, 0.04687367409780218], [0.5031280173934993, 0.11960771155890845, -0.311575542370191, 0.28513305302618014, -0.018306376437174983, -0.0665915325077514, 0.4194727414424852, 0.03178411575015522, -0.22731787187818425, -0.13898932195131483, 0.11004323729231923, -0.11125818720107007, -0.20718603534041047, 0.39879503342520567, 0.2606203771570457, -0.48536810056379853, 0.31391856506380933, -0.14607277374706967, 0.34769300759260885, -0.16052351223468148, 0.01145709492863272, 0.691802351521122, 0.09428781620200814, -0.10759111572637903, -0.3800680769571429, 0.10973636243331608, -0.12599001408072835, -0.2636135782479772, 0.4831682584717798, 0.07048385890899549], [-0.2276748295796893, -0.06274732877141802, -0.24397110273967992, -0.28642919071477196, -0.037674406842444885, 0.10585331588323775, -0.13962698476868193, 0.11396344144565218, -0.37475826217724906, -0.05488712747905503, 0.20866680410741473, 0.37514064805224817, 0.5085022202009634, -0.1275017854738131, -0.10069139481178316, -0.3703704108538643, 0.11600507973580984, 0.2584246223624158, 0.2465389659599811, -0.08021823905835525, -0.33621115428826187, 0.16423451621032306, 0.4873728256091457, 0.21749784849213022, -0.2181748279466645, -0.3676375534679659, 0.029517357079356873, 0.4684710955040294, 0.08718838944635555, -0.3260462827536517], [0.016416506178035955, 0.27000437448787185, 0.03650342907121757, 0.1472523925999935, 0.16121497506041965, 0.10842452785418721, -0.47497687259922233, -0.2353647810278402, -0.014765544044906001, 0.24616984865895664, -0.34428548879762705, 0.22330464035297906, -0.12701938394365136, 0.4093270759607166, -0.1814813054875968, 0.14540474815554544, 0.49662338207783546, 0.09608256095803144, 0.49274781095666864, 0.4857509076520802, -0.32412503612983873, -0.3176804554418903, 0.3254119305493626, 0.33647316256116067, 0.12455410582073836, 0.280866124175649, 0.016567517632698515, -0.02538614556150132, 0.25300222333299466, -0.15637321732438858], [0.46081429762465836, 0.04505976329068079, 0.05542659472017725, -0.12759838714015984, 0.19527401190425653, 0.36249937200385535, -0.1240444921585819, -0.24476062571477294, -0.40571357378021244, -0.05531126976395337, -0.24885665752016056, 0.04401258620095904, 0.25359805673500047, 0.43815995650020617, 0.12895991851598332, -0.4941532528358193, -0.5947266525670976, 0.1073247939646869, -0.023707558356358214, 0.38269841968811014, 0.11971760291280148, 0.01795344609486397, 0.45282723238656064, 0.3020685440477787, -0.5333434662966051, -0.6144029801296198, 0.5608363102932643, 0.15887601651986294, 0.03556154139796761, -0.11655776724756582], [-0.07403905243642754, 0.15828078631575326, -0.13279296841624313, -0.36124143462330144, 0.16050311729627809, -0.15332711956821266, 0.264913379231505, -0.2273098443516494, -0.3537874742759647, 0.1877631246011883, -0.24587318581135137, 0.30354552236775245, 0.17283048735888432, 0.021666436064550494, -0.10489693678187148, 0.1419824009827775, 0.6699856679209799, 0.0786288287504582, 