{"name": "ej1a_id9", "layers": [{"neuron_units": 20, "activation": "linear", "W": [[0.16352289254582258, -0.35839095694680145, 0.08598259589450377, -0.46406712539999256, 0.2461041546034124, 0.09666235924063997, -0.09929834931286688, -0.4054032257532397, -0.04784838761477246, 0.16390822225316895, 0.1527324514346532, 0.6221810111936789, 0.06837008175233529, -0.00020635789229512405, -0.26580232746887245, 0.26601178610379644, -0.1343543965683959, 0.16651975081415027, 0.08922351665193021, -0.044088649656216485], [0.017977629311411676, -0.27095263133139125, 0.23934961519747436, 0.15018103389152548, -0.0987330571531153, 0.05960615398796638, -0.045323857058118575, -0.0453962356605015, -0.2934920752961504, 0.2915468098290712, 0.10976505729493159, -0.05736709442534403, -0.017070971239748475, 0.40447144620832487, 0.06222623003767565, 0.045755058007501105, 0.12536296228197183, 0.07165724201189025, -0.2119584959401248, -0.12279550152157032], [0.3377968652526536, 0.27374257799062696, -0.12759494932355944, 0.34978752190471213, -0.5688332482500599, -0.08836604701514665, -0.3724970812142092, 0.3243633144470043, -0.3425883526161396, 0.3686484186685194, -0.16065059871590132, 0.06917195329983912, -0.003915949400049836, 0.3235039107433233, -0.21972460709557062, -0.2842792706883183, -0.024190591823298364, 0.011498542926696376, -0.2884422539216001, -0.038814585185066496], [-0.22320839464867714, -0.12354953717756763, 0.07570473705419706, 0.20113722530903733, -0.13461042179354615, 0.15209829500202013, 0.15812042681720037, -0.44183592168687513, -0.049327324041689505, 0.541552569360625, 0.7440225287363149, -0.21670781342502135, 0.04257796640886243, 0.46636293452488764, -0.04329789633694185, -0.22882348279219653, 0.21057392663436583, 0.15441914802887796, -0.3966529938114764, 0.0916996360349249], [0.06076900940633422, -0.10993710962443907, 0.06156432317620365, -0.07449290587742828, 0.34931938029096726, 0.08308552262192391, 0.36084934958133197, 0.1607720882549182, -0.4091955002192913, 0.6976177615035001, 0.41237300225092166, 0.5131736744999362, -0.35374421425817776, 0.22387996245851838, -0.19609105814070438, 0.23674738009401966, 0.2716127158548602, -0.13640346925714508, 0.28237981338748447, 0.35027956454220155], [0.17947684088513793, -0.1949046220068076, -0.30741046449471193, 0.23573959355494511, -0.0498271942358966, -0.2707586861234437, -0.06087605276671648, 0.023628612392711308, -0.09910750257455363, 0.13145982376813997, 0.4224393709219002, 0.07478462657997743, -0.3441825780221351, 0.43727045996058744, 0.007017072604285988, -0.0003708219024609885, 0.2545757581219898, -0.18510554070857344, -0.3225066654938375, -0.06443760162062762], [-0.1983375075642872, 0.00771288334667164, -0.10991280344694704, 0.07541009023619023, -0.005297239400633949, 0.19045052732499704, -0.01069331809863558, 0.2212500573059865, 0.37779050348888443, -0.3295529574815227, -0.18915704018766422, -0.003374484813007687, 0.14498469636449107, 0.09110249555093897, -0.034320570558091665, -0.006496726883074871, 0.06678848797897946, -0.3568091519088018, 0.5152334246155461, -0.03541264964430383], [0.027355257866652577, -0.142953944075514, -0.13561605711779698, -0.14435925774648334, -0.5516985139541123, -0.042529314750040424, -0.20113609287330683, -0.21870679268346285, 0.10585173803174679, -0.01123528851947907, 0.11976489132955694, 0.4419274744113113, -0.22685773137606102, -0.41702539932469807, -0.43929306500164045, 0.0076837018287576825, -0.32787987338208424, -0.555066907974282, 0.32843212633279223, 0.5772327680952769], [-0.030756105073504573, 0.11023062629874976, 0.13563030075119006, 0.04520349798879331, -0.2155271932511048, -0.47802860022618326, -0.14471587919959863, 0.13656080333521928, -0.10587236566317075, -0.2591401859487049, 0.08002198409608531, 0.5284292124658725, 0.19324627356400687, 0.05027271646508756, -0.23927366101965275, 0.12343927914815785, -0.008716230200208916, 0.36522288996546004, 0.057998461533308475, 0.04269834098944916], [0.2434897595420784, -0.43120246478638535, -0.06053935525454544, 0.025543534607751436, 0.18206064957474216, 0.17864078857228102, 0.01976786166740425, 0.09197972744934853, -0.5358925128993871, 0.2892170820829322, 0.049180572676309285, 0.04392911399456259, -0.04272506928563357, -0.012349430057592115, -0.10303963812892242, -0.16871495743959428, -0.1966657018888804, -0.31515707534779913, 0.12140417953564693, 0.10538677369111188], [-0.2957460099825677, -0.2730069710388052, 0.04959481031751462, 0.04033396331700175, 0.30717524974522575, 0.011246822321316012, 0.05624858136234123, 0.15621758252455206, 0.260974823824494, -0.497652595812623, 0.012557140746792527, 0.1007719909106728, 0.1063606854333858, -0.07770127171063787, -0.030932295662248595, 0.15138709420023724, -0.10055748917071586, 0.04018967885713031, 0.2848355609307523, -0.2029726818132288], [0.34241645616543537, -0.12868565010629504, 0.2033322081040382, -0.046630641511056926, 0.0494619884374996, -0.41960130252728417, 0.2514245079919762, -0.11265543488338507, 0.21802907280859757, -0.022858997499750726, 0.48454528678124253, -0.1585407259998972, 0.3087299149323685, 0.036502229474665596, -0.2536362498257495, -0.041853727208495235, -0.2420224015634482, 0.018292143426385576, -0.1217388916754236, -0.5363215119187537], [0.23390520722384783, -0.20898292847121916, 0.3481024269892064, 0.2508814767209138, -0.12211041424899792, 0.0076879992250652885, 0.0874675896359298, -0.019966458395273473, 0.048966366923788765, 0.3820012824716379, 0.2494504085028794, 0.09315246127575237, -0.043723628518874326, 0.009941189888361473, -0.6774988151819201, -0.08686752161940783, 0.09526386676794296, 0.14824313963764435, -0.08498818592430896, 0.3628188079126904], [-0.3968891476589377, 0.11544520081383229, 0.24611905709184825, 0.09525511075661881, 0.23128251316196463, -0.1864731995678753, -0.34402002147888244, -0.2233734174093205, -0.22456045855412218, 0.3240201581884442, 0.07202752486267834, -0.37383994322099234, 0.6192791097575909, 0.09788736783620391, -0.33880776308315164, -0.22346482559378375, 0.23676437211205978, 0.5524370894692429, 0.48280096509503795, -0.22400675921137325], [0.13939071977190176, -0.3451190155164382, 0.2875997279949503, 0.34074693465776734, -0.13992446139245196, -0.3031758118172804, -0.006353216504773622, 0.6259718532606621, -0.2711217787427983, -0.020571782089308183, 0.3727000946559609, 0.4117705374551852, -0.10936590314656845, 0.03858695168042266, -0.4519059420461944, -0.30045726402220935, 0.03108155142740912, 0.26992863422058055, -0.44593132790427753, -0.18651239615052234], [0.1586496562328833, -0.010933422569875808, -0.003932495395028796, -0.5808231196449055, -0.222313002094516, 0.2809627597639292, 0.29473797263458656, 0.07986722519337001, -0.3930343938780779, 0.30853774863098804, 0.10913010936895594, -0.09866009647386613, -0.1525409770723684, -0.017574122956979413, -0.27330842519048004, -0.19093751701284692, -0.06398909801915054, 0.14535579900447732, 0.502173491880547, -0.04230539563329112], [0.3116066883504909, 0.32276547549500045, 0.2124352436957244, -0.4053541784094972, -0.4566615260934284, -0.21058486373714116, -0.21861216926752955, 0.07071858510990794, -0.37676740833470035, -0.24701326009529817, 0.006575760921750433, 0.056404313648512616, -0.25002642590798235, -0.37619943923647015, -0.17987833798813596, 0.2627736733291797, -0.0620362019225258, -0.06767962791046944, -0.20008054230886094, 0.18720979784174774], [0.19631294117934933, -0.020039958648293964, -0.006561756096147799, -0.03907964735232498, -0.46784284416918737, 0.02817076537812919, -0.38096056279413215, 0.17972364713014674, -0.07233024423755836, 0.5470285705564643, 0.7010522810625406, 0.16445471347717242, -0.4870562745774859, 0.10360309044854601, 0.26297584390054984, 0.18051799124894682, 0.07664926641511183, -0.1766019929580388, 0.4555924034394954, 0.5249662558064647], [0.33883640102997015, -0.08689816378012981, -0.06464489117489866, -0.39422980106470523, -0.5551453007451507, -0.45872685510294114, -0.2926086597535974, 0.27423053951983856, 0.1728475893727859, -0.20479161608957883, -0.2075954197372371, -0.07729824153238622, -0.4159524243258172, 0.3848408456179381, -0.32035320472398743, 0.08679397887814908, -0.19474023730944004, -0.2452594287561327, -0.59285577557583, -0.10660787537312807], [0.17420888472555351, 0.047453677274518484, -0.1458831334821644, 0.005782249555893452, -0.25941881240978876, 0.04197508231184959, -0.5110292800980475, -0.40081333008374953, 0.21779904550614862, 0.01858031206073983, 0.004759043325293271, 0.6532600370565372, -0.25854351439449336, -0.010049564452626095, 0.2250686755522351, -0.17921008825595539, 0.10071920336621795, -0.05712658061031326, -0.1058413371566918, -0.26437828566497745], [-0.20839954213942602, 0.23081075612131122, 0.29496227854537665, -0.1388073859865589, 0.06732901990461708, -0.04451898436521783, -0.3153090686064922, 0.020972651110209482, 0.13217553589099668, -0.12922678522336728, 0.2839181607161044, 0.16433170336056538, 0.6672730927488943, 0.30190733004044945, -0.26026235659823466, 0.4271667572496997, 0.26964145023316766, 0.08626867560719029, 0.07124766194606517, -0.061628753309606064], [0.1597334633749412, -0.049028413174135234, 0.4173091574266498, -0.26026627439425837, 0.23036193922284848, 0.08524543064276267, 0.31655612975163894, -0.28335966194266604, -0.3516481184355946, 0.5270353007181265, 0.5270322666741223, -0.3383561577805998, 0.7455841761387059, 0.13160740374351515, 0.4551486569859391, -0.18394863214243182, 0.17637891583781054, 0.05556745116843973, 0.40007531573775196, 0.10491909392712573], [-0.056135449112307216, 0.15329158596332862, -0.03672892407105403, 0.1907830141765295, -0.27160315229617776, -0.06966383609568783, -0.27104922932857556, -0.0049605714934588445, 0.20991874912047045, -0.25977025674143045, -0.402879001029413, 0.11071867535883471, -0.024366076450947648, -0.005998266565881568, -0.41943291111224035, -0.3179528297048044, -0.1989819977306941, 0.2131172561311513, -0.09637559553902617, -0.37298668350311326], [-0.06942593419523391, 0.24650162357667674, 0.6121889255945219, -0.019572934624408834, -0.15778434117868761, -0.08392956824934823, -0.23522212707259835, -0.006107940877302506, -0.1698684262435793, -0.16007194100717012, 0.10603826938337647, 0.33733648488673584, 0.5584792215914445, -0.19887209279124607, 0.00553736313772384, -0.31521503336299866, -0.2713564015410874, 0.9097088409682292, -0.2867496457145637, -0.38461932172414504], [0.12838552499848555, 0.05151201755381394, 0.12419874289397198, 0.2478378325514971, 0.32398983429608746, -0.18242886260757477, -0.11954750237038703, 0.2101823589897475, 0.31690798275642584, -0.18335416887963393, 0.034669552916767994, -0.19325280906041611, 0.5766523075629497, 0.011811492673199574, 0.18106327556967178, 0.04134696305916124, 0.05214894107272718, -0.08133669318051914, -0.27808279929968377, -0.51885790564248], [-0.03384905671665681, 0.4777749732301795, 0.2075293223242531, 0.30656488645355345, 0.07381904698753337, -0.5468020030756031, -0.5528543273928483, 0.57563455655991, -0.18201338554754223, -0.07257726398918343, -0.11086038627367502, -0.1563808738907588, 0.5061227175671987, -0.011459144502247996, 0.2883274624681691, 0.6516340082066303, 0.012284186131135551, -0.5815467017886378, 0.24363258076383174, -0.08770483243671429], [0.06720983344223257, 0.04634969131280537, 0.5712979078574718, 0.18759562025548032, -0.3430989223073723, -0.12658980547934254, 0.11560749284475813, -0.5928427503689032, 0.07207754345251612, -0.14314237693663182, 0.3459477390739356, 0.02735261841323761, -0.16175873200191532, 0.0691795207166213, -0.11717235626545289, 0.10666876661932573, 0.20200702116286903, 0.0848013536776544, 0.10228976795672151, 0.010672199421628479], [0.021077705750314125, -0.016024406396584607, -0.09605007968215537, -0.07880942937488063, 0.17792377213057364, -0.4621915788715932, -0.23411279276673594, -0.16620230916184328, 0.5347364013523302, -0.18425921652634772, -0.3883655261021538, 0.5194676079675683, -0.4087001704214966, -0.5369522890376482, -0.28097637021699723, -0.2051880910800177, -0.2684785173150735, -0.01566169543560935, 0.17197255676458958, -0.06437299917836922], [0.01976073147799498, 0.353115675378292, 0.36929421034872917, 0.16966497874329367, -0.00841587735257519, -0.11988615233870621, -0.09023510977045993, -0.12278729713413447, 0.09027571051855747, 0.10565175838363738, 0.4837136528971876, -0.20984723558168047, 0.1657141555062665, -0.23846505071034751, -0.1922821014264608, 0.27594556012655086, 0.16064193878436303, 0.01843342060712648, 0.6114027528573375, -0.22912757676375478], [0.27463667744382725, -0.0009840735520901, 0.40788867103868337, 0.04190311347905946, 0.2976913158805768, -0.17680327931010772, -0.20368202428229196, 0.2103551539511259, 0.2130155714547818, 0.3137395634485558, 0.4155002213032172, 0.05698101459176377, 0.002866943102590172, 0.07098523481901031, 0.15554122742087634, 0.31800210886862784, -0.0516475782324947, 0.27044923628406803, 0.1069191995165217, -0.10667706103690458], [-0.09519794308224241, -0.10067240275459892, -0.04573350936243369, -0.11822175150444332, -0.30985440640024825, -0.03459129510463529, 0.03853345578820121, 0.01599137238404346, -0.041826572006558746, 0.3087832181379856, 0.15050220360357758, 0.3485297732171495, -0.06073623486559377, 0.04328674676960503, -0.4107278357685108, 0.4205327274752431, -0.12976639020953276, -0.17062393526000158, -0.2994535061562021, 0.5176040446272856], [-0.12117788873187246, -0.28025230367139686, 0.83367797862903, 0.5696602620602226, 0.1392709460993724, -0.3624950697767038, -0.18124627919208805, 0.45333314069599806, 0.4756502086851063, -0.04045101389021114, -0.2625344316531015, -0.04522339690699831, 0.47219257074624227, -0.0005903408798520083, -0.10426508592043124, -0.10186867306603534, -0.08345801250260365, 0.48731804926493627, -0.29372636843176286, -0.7456889310813737], [0.5689780929477081, 0.167771841543613, 0.044812935211111925, 0.19420280161717557, -0.3877453982043327, -0.6455508516728221, -0.5856467019344203, 0.03421801219044773, 0.23157770719313622, -0.28034951028018545, -0.2367412950379199, 0.4521026278948206, -0.27736002253869796, 0.11990748366044046, -0.21604692499138695, 0.2001726471499717, -0.3907581341632834, 0.0072843849383810895, 0.0759529555610394, -0.45560809937058755], [0.2668546780865093, -0.2110801481447611, 0.40544418391276377, -0.2782332307299958, 0.07861447116640762, -0.25921613923378456, 0.007677871925837309, 0.10686029533844359, 0.026747646400719756, 0.18762902865078987, 0.5001022375281411, -0.11174704323586666, 0.10770453059053324, 0.22283444232664296, -0.06417613020722787, 0.06878367202906988, 0.05678182296949006, -0.29216255319585116, 0.31805514952274355, -0.22495621460824256], [0.34811678023019277, 0.09099905845977178, -0.2680745509563727, 0.08414002893740939, 0.008855489280692436, -0.04605086117128137, -0.21625128829682136, 0.1005366742420991, 0.1897712400443234, -0.26023828201630717, 0.09480461639025024, 0.6336543425731965, 0.05761778487451536, -0.24698448962815148, -0.23094743280417607, 0.04703506202413032, -0.09508457890176872, -0.49805820139971213, 0.27060362210202377, 0.17270163693816581]], "B": [-0.2094866443580235, 0.1324082927675995, -0.3963846142888178, 0.24204692339973832, 0.09878164561600132, -0.022455712096009935, 0.29480252269248586, -0.011904511203729286, 0.051647595589555756, 0.23918801909088847, 0.11275841854138278, -0.5766396746556777, 0.16087063348758496, 0.19507648846778736, 0.6015772692256209, -0.2517729571745611, 0.2716659605813032, -0.3348341221283143, 0.3220635040201795, -0.25997585228718967]}, {"neuron_units": 15, "activation": "relu", "W": [[-0.2565752028982901, -0.026986582323352513, -0.04516916424263117, -0.08003375719346459, -0.08265185953504132, -0.21773954999632736, -0.20863481000557937, -0.3293540415342053, -0.5843995774316508, -0.3278463288522412, -0.1893491446218404, 0.4751793222981814, -0.32421568594832684, -0.5130818332418792, -0.13836031833103246], [0.040861558472998744, 0.014937104215831038, -0.0034507487355173927, 0.3744396847946954, -0.0011773609186062613, -0.010887879417660059, -0.025671831733745182, -0.007028479020332741, -0.19048244970244801, 0.09839258937853695, -0.2451220365237901, -0.21376620207525351, -0.293522611884689, 0.44417963127371896, -0.2276478523310831], [-0.1654582870933331, -0.17412559801668742, 0.46282405418072553, 0.44198720368836797, 0.3224642523727913, -0.41516126293699157, -0.31362115970532406, -0.4102122450879537, 0.013911463154108007, 0.05877442961721591, -0.12885931470954062, -0.4605776118644827, 0.4764084286612721, -0.17740592618360276, -0.3913229797909013], [-0.5819378489429183, -0.18991954518051604, 0.19590898499340348, 0.20688229975564235, -0.40065988898260846, -0.43368707238253607, 0.2127605526078107, 0.2995685331191087, 0.09836562816174438, 0.24093148447560023, -0.14104962436940202, -0.03647053982355485, 0.3169674052038112, 0.12123267340292097, 0.3857212605847064], [-0.135035506020016, 0.17612137283857907, 0.45232515584195104, 0.4372996266732116, 0.04186724391622267, 0.27470549497248514, 0.11821565813552373, 0.46994409022173816, 0.296988500657349, -0.2688394868376106, 0.10878362008462011, -0.5302288665439793, 0.4242726258113182, 0.2176501985920066, 0.03508849765681037], [0.1127642283328265, 0.7796945816735414, -0.012871979046371653, -0.43431946914932407, -0.148315574029441, 0.3812067377042246, -0.16668154650576403, 0.27964951067661287, 0.2526434492410481, -0.11128372290361804, 0.04020185365438739, 0.328975240047357, 0.1964109273452905, -0.1538011350907209, 0.014368073053077928], [0.25477703800887763, 0.28843310216974827, 0.20629146600973874, -0.11343923550754408, 0.46078501123954413, 0.6358022822972169, -0.09416607279232284, 0.476500990716396, 0.5004487497847562, -0.18785992697733572, -0.027357135580800867, -0.07454067776955856, 0.023569196026742623, -0.42710445870615427, 0.2722673210827597], [-0.25435936290321387, 0.17781475421440301, -0.22393922115138198, 0.4827578699077852, -0.3015860441925737, -0.234483686670283, 0.4559601821380924, -0.18536818890553158, -0.33751119145170566, 0.06192196605368447, 0.2800433857068238, -0.31907353481264566, -0.39331370720279685, -0.010335067197539422, 0.41486221486438246], [-0.05577855045049822, -0.2795513161281485, 0.03933588131831546, 0.5243930646023864, 0.15572233187623302, -0.47523116322894143, -0.03948924372911768, 0.5799738105949607, 0.11701981962339177, -0.276510228157459, -0.20710874555666067, -0.37366541930760344, -0.34048744542235476, 0.14109609903851345, -0.19221665996292844], [0.10355085053515448, -0.037043729816958436, 0.25927379006171786, -0.33400320042035925, -0.1321337494814755, 0.5446859318482854, -0.309072040840555, -0.36019541896301766, -0.796802841020189, -0.36108117770042125, 0.23937614854971725, 0.2813634524145938, 0.8936703710436213, -0.5649737772786834, -0.013595563402463092], [0.1308901543660215, 0.11041597627509489, 0.13306163933743115, 0.02829261182297715, 0.2819122398562824, 0.5072936642321707, 0.05779334723340119, -1.059802465184532, 0.04376180822431494, 0.2748115220635408, 0.05214585863188764, -0.33425746729458733, 0.4833794776756813, -0.8662602401342784, -0.02299831034115295], [-0.3130172210667145, 0.16948299316042195, -0.261159402689917, -0.8708795735004294, -0.73347186729187, -0.7672869358396526, -0.49806640060666074, -0.02867717569097352, -0.19218252654659712, 0.1260309364747094, 0.44587303732176226, -0.1903513809797333, -0.30387871692349044, -0.6637690330322441, -0.0047153068877120495], [-0.09927712499935566, -0.5632427196636727, 0.7935447775145384, 0.40039650617316275, 0.28455337127498187, 0.23012808103321547, -0.10188977168719059, 0.07510577261077862, 0.31737695746633865, 0.055767080515459776, 0.3663487512140346, -0.6364139210767333, 0.9119336636160025, 0.3373224665671617, -0.10296471289503904], [0.48709423950251124, 0.29795631624184543, 0.09053922187629178, 0.28817608843782766, 0.19833889181599382, -0.21219052474617311, 0.21828769568339745, -0.8008125319375735, 0.018276967538342685, -0.2949294735911472, 0.32884720674959195, 0.32660691782018797, 0.5301530016777202, 0.04669352585502597, 0.23362225943766846], [0.1889371432053987, 0.04553429773099838, 0.02423310714574535, 0.5161552101579713, -0.23198244038922258, 0.6877101891689358, 0.1629450467568881, 0.24441809224426, 0.2590099593278727, 0.25926184011914655, 0.3157671035229001, -0.05542526930744538, 0.29284662076635815, 0.2771588674085328, 0.13400186174333795], [-0.12396525646320825, 0.3230968812093389, 0.007984553939636497, 0.15120923619853896, -0.2580693098893789, 0.1458719173469221, 0.17108182233433736, -0.41926250298067597, -0.3652790901302525, 0.23285351310012675, 0.19318300926707085, -0.5170188600364822, -0.31681908291516203, -0.2812516952532022, 0.004635225160767932], [0.07408612911090011, 0.5195279855787006, 0.05681832795639969, 0.42518799935288853, -0.23250433697959172, 0.2750299508353277, 0.06444082510459329, -0.2637614691355431, 0.28488280788632886, 0.11886867697431644, -0.10885249318966556, 0.2905190668444202, 0.3875928188649411, -0.21152627279452302, -0.3821923257624024], [0.15526374239254892, 0.19737681824308081, 0.6274499042708666, -0.03177587405233787, 0.4602207526274936, -0.8051314933532544, -0.544775497030673, -0.22664767056609386, 0.680522536084302, -0.29461166010567463, -0.10493730632961028, 0.06544656293802789, 0.4313596627342804, 0.15646286178322288, -0.3556213105438209], [-0.2056291236011647, 0.15646452336588065, -0.43810459211575203, 0.041352971426069196, 0.12801769338496605, 0.6158584096822755, 0.021178825450407834, 0.36721319186762197, -0.448128766404617, -0.1349202440213306, -0.07041177478617444, -0.7039552253908682, 0.5966499874979558, -0.029999982353331147, -0.3399488977949665], [0.1399768964716818, 0.3085621566869392, -0.10703704538270388, -0.7264794194262155, -0.05751724977368592, 0.7678641696829565, 0.01828734983923807, -0.014298660845109622, -0.44498795112643125, -0.13397685382382513, -0.08543299264461666, 0.18994268577264276, -0.5058733605032661, -0.6610454315456805, 0.09309098836083317]], "B": [-0.11924875891278455, 0.051793280638696856, -0.1823968412624625, 0.48772378359061164, 0.30830586283814704, 0.21737276479137418, 0.1266933712151633, 0.31688912703031685, -0.07744878957399544, -0.27402372861494484, -0.21570095083046703, 0.4054315960616364, -0.054263490097325916, -0.10071930094425144, 0.05276214642533717]}, {"neuron_units": 10, "activation": "relu", "W": [[-0.05072996786440905, 0.046840002466315186, -0.40293611185897216, -0.34251615600253027, 0.20103896441826527, -0.1113333522607242, 0.6187358531312512, 0.08592427408728887, 0.35524437075798326, -0.3479666594375007], [-0.22513511871115455, -0.20093564411230624, -0.7416741246323658, 0.15849478921477964, 0.4270080584531713, 0.36479325192641604, -0.23988145346338263, 0.2375932255685172, 0.08389455792626654, -0.6029792999498361], [-0.26513249413255296, 0.01734080941212974, 0.5804070222080583, -0.47274646823593386, 0.8524937193075885, -0.054483744583044356, -0.26416418650401774, 0.12003679331526577, 0.09448361926361262, -0.17339088842651612], [-0.10371657662255644, 1.1484708177431233, 0.7554359881743217, -0.2019365174631155, 0.49492862844581476, -0.15267827813085108, -0.3091428214417709, -0.652833371637393, -0.4237514927238816, 0.18341336047039294], [0.11374630683593018, -0.3576085830752542, 0.4173654311399201, 0.13850532147671, 0.8115679976188613, 0.6154157981907247, 0.20688530778254097, 0.050962796651742644, -0.18004809559711096, 0.10872818550026632], [-0.010279482181505584, 0.4168088515674574, -0.010648683341654506, -0.18149634611977544, 0.5028825628650039, 1.4727393811668998, 0.8729362924546441, -0.3229772010530531, -0.21356482162451065, -0.8000434370012024], [-0.43751717421902847, 0.31662241479632863, -0.3195947101286006, -0.11763475865529073, -0.20464758648681383, 0.42424274159340547, 0.12647052195946668, 0.18355798849462512, -0.5221254811291586, 0.3337226313554494], [-0.37263889338534306, -0.45539613051440514, 0.38584267587591525, 0.2429570418920933, -0.8009943322111805, 0.66072314101771, 0.20674643854841504, 0.06842255342485552, 0.3805251954215572, 0.9159405755017997], [-0.221574724895564, -0.6996262599036028, 0.8936799329966144, -0.4500614183435819, 0.21463136160928917, -0.7842678379317852, -0.2339220630325373, -0.20073031757640045, -0.4492905773640588, 0.11418357173380109], [0.2552027156096827, -0.02144726166557339, -0.2829497439348344, -0.39541684760566476, -0.20523433505499009, -0.4350309887528054, 0.04155707078155386, 0.2346753071434643, -0.1231774907338676, 0.09018910831061873], [0.20273234209660315, 0.011052882983577586, -0.3359404671799542, 0.3155684711813716, 0.7718893821779904, -0.07647505704412119, 0.1744507361424626, -0.12967533686160634, 0.2181561408373794, 0.18271144472962292], [0.19662213442079743, -0.23172711780595462, -0.6515660882552811, 0.07200231977692212, -0.12380852608527854, -0.0031191223631635906, -0.10475506092689325, 1.002679095237497, 0.13548696973431185, -0.6714315450572071], [0.10555480462369632, 0.5566201610866588, 0.25582392853553704, 0.22857897732794166, 1.6218105286969562, 0.38271501299199145, 0.005028176052617807, -0.1432279244772344, 0.46563581819657013, -0.14192323140288415], [0.04845036831402771, 0.33919375211630454, 0.652086492468685, 0.2826862262674916, -0.17575971291306502, -0.07589200574326396, -0.33061723053176595, 0.3498702907206372, -0.3894837822676143, 0.684251686883755], [-0.33175702592734096, 0.23279795738030942, -0.3027581408444037, -0.02038922432488528, -0.38729450329072607, -0.2635409161036786, 0.02182278340648996, 0.5001043904986509, -0.03332556886174968, -0.06487490811983693]], "B": [-0.09551575917914319, 0.4246472638103025, 0.21661912436642927, -0.011462865967317286, 0.22024794850403165, 0.12927396017305096, -0.15248936788766765, 0.23405706714288063, 0.5927432481114476, 0.10901793918707997]}, {"neuron_units": 2, "activation": "tanh", "W": [[0.17195307430184556, -0.9033445237132863], [-0.5678184846907864, -0.29432170759613635], [0.07624739936784553, -0.0876209123020346], [-0.19442148462243664, -0.5251285777553032], [0.4931492867203744, -0.42738161474210223], [0.110748537523814, 0.10548899830766342], [0.3887137374990569, 0.4417435552719145], [0.0969372426331329, -0.11075259699417644], [-0.07415415936669652, 0.19241330645553356], [-0.531855226420626, 0.48020861259360414]], "B": [-0.6087449368671235, 0.2641531196497966]}, {"neuron_units": 10, "activation": "relu", "W": [[0.14827724585268762, -2.376256889036796, -2.128219756622175, 1.4122894412377673, -0.17179668434046377, 2.755689968988182, 0.7748009668890166, -0.6248151376010147, -0.45667176436689516, 0.33661008807382586], [0.08198361154806955, 1.5234492487431168, -0.927848343429948, 2.653262515468954, -1.0615323878184664, -1.372335395193281, -0.5199035239355629, -2.024740804295594, -0.12343702585379353, -0.058169816693012855]], "B": [-0.29593436718036925, 1.3154226783109504, -0.2068274144237315, 2.7355279735406195, 0.4183506579975902, 1.8845882140636874, -0.2952862731244654, 2.54640630130754, -0.5806327667693888, -0.39570433464738347]}, {"neuron_units": 15, "activation": "relu", "W": [[-0.2722812999422697, -0.15628018560090304, 0.420335585885589, -0.20154752499747877, 0.5353800801172159, 0.1319807895449688, -0.25162737472393176, 0.47468875443717645, -0.22817966887806995, -0.040901985878401916, -0.5377607575067566, -0.14797125012368573, 0.07765746030289947, 0.059292841395504614, 0.12002894257959405], [0.7051488532795077, 0.8804586483952287, -0.4563504366730743, -0.016256673954914966, 0.20077543627482708, 0.3254963020334682, 0.16004935112926538, -0.4186721821891934, 1.6289604234410462, -0.42413510971987367, 0.19593919853534267, -0.2716815466999171, 2.133591958100509, -0.20969542014728043, -0.5811428553587703], [-0.27986217497384286, 0.2580511922908329, 0.5308894578216607, -0.28437757144192094, -0.08096133646074492, 0.903953321243735, -0.6445586040738266, 0.8346100589668749, -0.18932174155323114, -1.086821439299448, -0.19588831596684833, 1.0565436188129047, 1.1678070831045306, 0.20075839296622436, -0.07496049572189542], [0.09288734692382437, 0.9312500087034986, 0.5504959651372833, -0.025611801958272826, 0.3293931292703332, -0.5932639503821299, -0.5508313510414913, -1.095554244706813, -0.44160854060031746, 1.9365297862448865, -0.38913656957107634, -0.9157108809731636, 2.1593751147462785, 0.4801290568321515, 1.9041401019092556], [-0.01195345211387855, 0.623982490313374, 0.23402203709601924, 0.40712916779487035, 0.24660389993433376, 0.21939387439355842, -0.05297893784892144, 0.3211631988379959, 0.34468477329551117, 0.8390900048232489, -0.06685661320480671, 0.676678799073523, 0.11033078292451437, 0.2647079050673147, 0.8549813400637667], [0.023192242424202467, -0.28998483098065175, 0.01712747524122934, -0.5010926434948323, -0.6502840114787696, 1.2297865027109687, -0.3726993743364678, -0.05913709608908865, 1.0393173849500628, 1.0693496610018887, -0.22581448009616614, -0.26406979877695125, 0.6284314231297173, 2.7097438089693844, 1.1580350339381447], [0.370290155348648, 0.27997425385774943, -0.2542894780158411, 0.19267863480189862, -0.48792554651663667, 0.18534060780762276, 0.24325002253569505, 0.32124960832254473, 0.10079463089004867, -0.1994630936014704, -0.3821018844980082, 0.21736362783492086, -0.00504222155928898, 0.4132658333904479, -0.136427543646918], [-0.10512620620335647, 0.29979414974437396, -1.0256422948494262, 0.29931200416080056, 0.4459975284024807, 2.4124113863861227, -0.5412887321680694, 0.7349963789042746, 1.1263540982621298, 0.8852262788087043, -0.1639637498750146, 0.65163067687967, -0.32158320561152526, -0.47886613555589924, -0.05818335535626772], [-0.01946049165843768, -0.09236331352515954, 0.22658207273107908, 0.2332432314550297, -0.00080591741547256, 0.6447405462616588, 0.034411922054007234, -0.13892778779446266, -0.028758630219997052, 0.02530382398343268, -0.00038130605049531944, -0.008060131805059934, -0.5963578480900928, -0.0383986360482048, -0.06807090779517667], [-0.17130351680246064, 0.17355130053194517, 0.4961773261627907, 0.22613884257161612, 0.4540964220331735, 0.23909409537283044, 0.018896665006061797, 0.5924408425051587, -0.5365800013045071, -0.19891440540907473, -0.5515580675853818, 0.2801872352575868, -0.21685582825468094, 0.36191336410474556, -0.4881325742112107]], "B": [-0.5097868095208609, 0.4192826229972953, -0.34095866045747936, -0.2486502098830989, 0.4921532716611969, 1.1864198325779776, -0.42339374736051777, -0.08672684358098645, 0.768214915191225, 0.35242853164702315, 0.1022650621060417, -0.0009191733128705265, 1.1388764581370703, -0.5628811892849165, 0.8263481920119565]}, {"neuron_units": 20, "activation": "linear", "W": [[0.020923204880569892, 0.20527294298900128, 0.12095710215846407, -0.1778241898841093, -0.5600552884649173, 0.24195746236033003, -0.17529548107335677, 0.12788391713584524, 0.037620079158702885, -0.09600044528659266, -0.32823862704054324, 0.3263705193997228, -0.35915976098878244, 0.09728945506401956, -0.13533365088625018, 0.30735255402471606, 0.034747391486105804, 0.41424188207988094, -0.3711001960190636, -0.034743381244091286], [-0.3286337975685086, 0.28344688218689396, -0.23862761679236694, -0.19041972570440094, 0.12054851016275142, -0.6926034028276995, 0.1960080174685371, -0.5725692403331998, 0.6056345893941064, -0.08196860201095323, 0.22120034171349093, 0.18829353948367714, 0.40588464104550337, 0.860611058932778, -0.017819758231861157, -0.21074492015654156, 0.06613329549612613, -0.4745495173202409, -0.06055894022086511, 0.22920835047708407], [-0.6219429892263532, -0.45752684990314685, 0.10382985398204245, -0.2864448279379887, 0.1900418699351478, -0.24630337278020253, -0.787126935404093, 0.03020603602194838, -0.14336570537738658, -0.3391665736498677, 0.45639835053920513, -0.4059507322838423, -0.2141901735237338, 0.6894159621190318, -0.43465492272956086, -0.5145009939348523, 0.17549227107173582, 0.0331524201378407, 0.05802359119936086, 0.06929417067939755], [-0.2518049528124448, 0.2418944046888139, -0.05441364437664144, 0.07355296821501921, -0.08594150495956336, -0.0954473823980302, -0.29434686026851925, 0.007679364708935848, -0.06291249057929157, -0.12555467530104342, 0.24214610171950418, -0.09572317903648556, 0.4410892897560074, 0.19012559830383532, -0.06264439931801244, 0.19101454168238255, 0.21829717534099458, 0.16526105628146834, 0.37187532894436015, 0.014782535456019168], [-0.3048068591331557, 0.2770781891572605, -0.6612515472407507, -0.40168130051084666, 0.39889232111949474, -0.42347796660725034, 0.1438661616217615, 0.3319786511715234, 0.07649005441323113, 0.06822762683033137, 0.18601034739102737, 0.06109576799924357, 0.22514469933225975, -0.3689880066006656, 0.08539503177382592, -0.2871721345885451, -0.5333357338603238, -0.2910194039552904, -0.3699282935833848, -0.28199815702235814], [0.6808638838711187, 0.17320345566020542, -1.2612685651725122, -0.09344999347900666, 1.3013873722678742, -0.561648970146341, -0.10784342242799942, 0.40185581286406385, 0.33222872448328145, -0.4703811069795748, -0.3881462162951967, 0.7671832863189876, -0.28491879959353505, 1.3313413331784656, -0.3158150817633236, 0.5027083438650789, -0.153591275906172, 1.196035295574244, 0.5857500005993942, -0.8744547668153085], [-0.18300423868627977, -0.01034679090758616, -0.28182317917110633, 0.027929990548537023, -0.4657140385047193, 0.19728475419297262, 0.06554074734083876, -0.0221123476329856, 0.35697081229382693, 0.3326394410340649, 0.4658404801534794, 0.0623178958280574, -0.770732268522394, -0.3788741398214815, 0.3172195978502908, 0.01368917413305111, -0.29614700829821267, -0.1173449487903382, -0.12566680088456686, -0.125835089144612], [-0.20642365501914844, 0.2785326300437505, 0.28090346103662844, 0.21530395227773083, -0.6094510572521397, 0.26247132789545646, 0.8533878440479306, -0.1250447955143998, 0.09724752874511253, -0.2029971922038572, -0.6752787099906028, 0.23149580614886694, 0.11541480222413389, 0.07904351041652871, 0.36904174501003884, 0.24667368365763342, 0.10525667982356035, 0.26131392624302396, 0.666300311072779, 0.22005161497785483], [0.0247400856040913, 0.7567954738440467, -0.9734505340114874, -0.2617117759717021, 0.06383447648831059, 0.5926089692246758, -0.8139584083086187, -0.23616491760003752, 0.7917007317804404, -0.0034267716622858675, -0.35484800358848034, 0.739217363085896, 0.32833632407435726, 0.6985344079377533, 0.37764547482098854, 0.6810712666494348, 0.15807048281168237, 0.6939360880238722, -0.23660181385331366, 0.43185719775214765], [-0.42951791051573196, -0.04792577901181392, 0.006172664456354047, 1.3591106508558952, -0.1545694710783058, -0.651915332787878, -0.1659683167438168, -0.17188898246516326, 0.7647836644699408, 0.414854103560317, -0.2562580451183248, 0.9252297406392401, 0.011863359379890833, 0.6287299726488446, 0.2532287146468405, -0.920765951558825, -0.08873166405671722, 1.030355215420164, -0.7220712860797567, -0.6111286066954076], [-0.2292422437240311, 0.0012758569438517527, 0.1629987152504371, -0.2861543017668536, -0.003098361033942141, -0.19183272278370891, -0.30322561357518235, 0.3168961401750827, -0.030803951993890057, 0.10777913918451561, 0.021170766544800514, 0.18832851500093817, -0.10951173982394463, 0.004737357341043664, -0.5456491178068085, 0.11819325099020334, -0.44939197794487545, 0.013592751972291811, -0.12875831156396098, -0.1201265085284622], [-0.3838585729285296, 0.67917517366136, 0.12118242426576141, -0.19621761617054448, -0.14375171517999275, -0.24352180306310509, 0.9423255247778936, -0.5641611136879652, -0.18940378374626474, -0.3784607512824977, -0.774406979733078, 0.2612365402275208, -0.27351273203033116, 0.6744028228601747, 0.0932492121262212, -0.18309867149128398, -0.12617330371545865, 0.12918581583138247, 0.4677302129119049, -0.1295886883282883], [-0.36319462605019626, 1.202792030120793, -0.35142588531606017, 0.22621087395551404, 0.39661423606426643, -0.43060945693700375, 0.5677692345722487, -0.6832098907243508, 0.04504423110412477, -0.3028337984817208, 0.9243200198600161, 0.7316694170756661, 1.5613207767950357, 1.4163543779271668, -0.6178857669146388, -0.6440096364997226, -0.3252709060251196, -0.2250056292809663, -0.8608517456359599, 1.0428872188809593], [0.5886053788188809, -0.17148824329358459, -0.13255261749245079, 1.3966135776335775, 0.6121375086969516, -0.38425553588434863, 0.07700486642075659, -0.6683515294561699, -0.5698485560459017, 0.3479692871146928, 0.2761680110388537, -0.15064907039819952, 0.19058724338522146, 0.5620190751024753, -0.09239410357804097, 0.32766403675850897, 0.7269149400500946, 1.4435854324252573, 0.366264461377575, 0.49356100166674777], [-0.7446171766741622, -0.18740286611082232, -0.14280795198940952, 0.9452329107169546, -0.10309122189895205, -1.1840025838661248, 0.48109664446687794, 0.2622284804244102, 0.17209790622270146, 0.09536979021668385, 0.3097087667233727, 0.692801717580143, 0.30838869635513266, 0.49978155451536876, -0.32879585723017307, -0.766125294516333, 0.468541182635973, 0.30422959431306396, -0.6495429505386963, -0.27657393212318393]], "B": [-0.0040439004350189935, 0.046051390024003255, -0.3638728776817253, 0.4139944633021586, -0.04741336621652892, -0.4254897408664102, 0.44549054356233314, 0.4617883833580362, 0.13707439369588956, 0.4387620660490786, 0.1888297978862125, 0.35175546365230415, 0.35321090893311785, 0.0839655138012495, 0.1586034343187797, -0.3099455850503872, -0.12043447848372868, -0.11430973893812614, 0.07235697132752943, -0.13020992827359903]}, {"neuron_units": 35, "activation": "tanh", "W": [[0.06426573085373935, 0.17966544226314832, 0.34270503512549894, 0.2986471928989495, -0.4332558572813268, 0.13518995211905382, 0.19647091806051037, -0.16243927767926042, 0.0970130581236131, -0.024078914964242276, 0.1495264335386972, -0.25678564640070095, -0.012468841329691012, 0.18522074356818147, -0.05814060590623329, 0.03869785459211549, 0.20141132264147607, 0.0044701329740748485, 0.0004798881301886575, 0.20711014141725537, 0.2014934577368143, -0.0255532744485169, 0.1916487661862291, 0.15556732873935195, 0.412020742777835, -0.18473661895706023, -0.1536546429084819, -0.3822530677952745, 0.2053932040041954, 0.08085938894745456, 0.2382187373944628, -0.2321400249998024, -0.039684933938996414, 0.37433540204302196, 0.24530769157240495], [-0.2660676176078023, -0.35520956358162503, 0.025471251150461408, -0.19182850091153153, -0.41673009670626593, 0.04799421842677016, 0.16933247942781812, -0.029454718529758894, -0.4589417551277036, 0.02113653116282925, 0.18201133700025213, -0.05813344209608027, -0.0548429770190166, -0.2308868662453571, 0.020703782084540646, -0.10952622411594685, 0.17747334775884996, 0.2507661071324146, -0.09196281721937057, -0.3673025545009562, 0.35761515860141807, -0.39668751231967325, -0.013767102896438203, -0.6763647725818722, -0.013067287306661773, 0.3659316932484889, -0.35734112537683094, -0.014012085537489288, -0.06163826257730227, 0.14313675082634522, 0.10355620021953882, 0.08994479841830474, 0.43048629798824123, -0.20914124247799828, 0.15941069387517814], [-0.02649875223261075, -0.18668380017573988, -0.09245300822893225, -0.3388146879695836, 0.15573076264078445, -0.4498225694321661, 0.04514300606840606, 0.32525746452702303, -0.10314548779552143, -0.198708966994039, -0.08028652197939387, -0.1696489677886927, -0.10703114650300238, 0.2944316187291236, -0.2615435572224507, 0.208341277826582, 0.036420934054173404, -0.0853681683023408, -0.18658942618385363, 0.18912779329356508, 0.13581740387611296, 0.0674960449311085, -0.442413890896208, 0.24017903658518897, 0.13762462839599432, 0.5404516699877672, -0.0032741001061865286, 0.21829278095624996, -0.15916475660719479, -0.21584282163661367, -0.2511776135360432, -0.36957044228351166, -0.3715276262189563, -0.12311671228154007, 0.05121428679132207], [-0.3223117386314259, -0.22065093383505638, -0.29214893744703213, -0.214023600401129, 0.24005270954333321, -0.3361899032028645, 0.21785828161317322, -0.2162551267498076, -0.06932258443853236, -0.21870202750217954, 0.035121028453608524, 0.17624662555974363, 0.19163993737523244, 0.583380658494287, -0.058912595764859944, 0.027115325484882213, -0.13029456258870178, 0.20291153771438866, -0.20664917309285796, 0.07877699198448676, 0.10186666323177293, 0.21305763714345038, 0.15185867564620453, 0.19096773803063985, -0.020221138287543686, -0.1373697708848925, -0.19638764338277712, 0.014404134990948794, -0.11868821283281877, -0.07034444532659558, 0.07834266040942897, -0.47528602910536455, -0.3398931048503438, 0.02290108171630876, -0.03404991410405136], [-0.24500220426561, 0.5854611199652503, 0.2318357421488131, -0.16578515630271393, -0.10768145888336209, 0.33273553622431923, -0.16194587898357282, -0.14289485238284996, -0.06238408562405348, 0.09577377523530453, 0.16537031749555023, -0.06362811549257318, -0.534378464987175, 0.05490369486798385, 0.20649958576539265, -0.010459450824682866, -0.1676145527847629, -0.4721117985821752, 0.2986025599385312, 0.11469476863852561, 0.0002571628743056274, -0.25494756203436286, 0.5284636366298288, -0.061812406124334945, 0.2306894203299023, -0.10339300969137032, 0.18134512572739492, -0.33493336689918984, 0.12526104083549905, 0.19007674366051103, 0.1369029071407247, 0.1245196670336496, 0.08705731014235636, 0.13917845344440316, 0.22631017512485052], [-0.14955868242327952, -0.3319863527764071, 0.18583390263691776, 0.16731164628025122, -0.04399092431325711, -0.043464014704035506, 0.2851633267437305, -0.06432793193531998, 0.5656146305327208, 0.14931243751970003, -0.2656922425928836, 0.08140579477200399, 0.2469253239801475, -0.26669025480235053, 0.0508821701269147, 0.33900942504465803, 0.4229163497448789, -0.1416414315751541, -0.04793630529034016, 0.055254801501518125, 0.07028848962135664, -0.04734214936329371, 0.21735276976521367, 0.30428257603431297, 0.13897604339719297, 0.4560319265869061, 0.03267101519685217, 0.0029581121813008872, 0.2723267478262659, -0.16079572405743306, -0.21257034976166636, 0.34526969448636385, 0.2483288844802689, 0.15573758421082562, 0.051216777527772754], [-0.06570585936364927, -0.19563904169447963, -0.0373518562170942, -0.5717096966576399, 0.07384410745102606, -0.23827894699442526, -0.46221062402635, 0.2987964699589966, -0.16911233744682075, -0.08661308445415801, 0.34716922967452346, 0.053618210798712554, -0.19794884222741826, -0.2282021132384232, -0.23172861030028527, -0.060664616946595, -0.2060061013603785, 0.3391276705639774, -0.5871293348315306, -0.1752185962826119, 0.2600714941647879, 0.07733547679547291, -0.5276388187700729, -0.267027826453539, 0.34000491371490277, 0.054452547473517236, -0.571390848616488, -0.2591577107821918, -0.13019772740285604, -0.17016895792445813, -0.08668148884543736, -0.32514823116375796, 0.03448451409983494, -0.09215748712518866, -0.890636458938301], [0.566554527932961, -0.13011308276988606, 0.10776958421131977, -0.10934222369023071, 0.5357314703825777, 0.04963255212152199, -0.17780039221380758, -0.06277977083227888, -0.026615291013122946, 0.5638758711270097, 0.14026384246959064, -0.26593836021590816, -0.09323138278294711, 0.1517385482682577, 0.1317185856052312, -0.17202187598164964, -0.23841857582900686, -0.13514604624747303, 0.018783069405223476, -0.0683827120002427, -0.25668699526527233, 0.021216336021999415, 0.20101956121037473, -0.21559426833581966, -0.13649302943166694, -0.017062897459846182, 0.16990369720108636, -0.41141418424042725, 0.043023895818407445, 0.10910046041648792, 0.16560013540476182, -0.01445349024219973, -0.46216141106729436, -0.13371903326184814, 0.16385655613917152], [-0.16466838957350677, -0.230779391558036, 0.04264703633267014, 0.21285963435544972, 0.18283645425248943, 0.31782570189886855, 0.0002540367373259001, 0.15426492717958526, 0.24843629588185404, 0.10506948566379624, -0.36507269647245366, -0.31615180975368656, 0.2668869235938508, 0.07392379870942135, -0.02588782043800403, -0.22240020242353042, 0.26747067768378224, 0.13469920165959845, -0.22986850402991202, 0.19937738693800008, -0.5715957006985608, -0.467196371023013, -0.035848662213921745, -0.2946163304498255, -0.5486743396987761, -0.05104920493134464, -0.15133020170685454, -0.26823008972267093, 0.03375082693018421, -0.08131776250334585, 0.14853817303876715, 0.1510728532654851, 0.02884470017601606, 0.10548042323061609, 0.07699904019008764], [-0.07084418002586405, -0.11440437631451893, -0.6045441751764393, -0.11691120272631048, -0.10064250114815078, -0.028762744510391937, -0.11561263007185542, 0.1223310776889622, -0.1237777377418853, 0.09690505915968392, 0.12711045897642817, -0.11965607561109197, 0.2495215524390179, -0.18839041913374688, -0.3545098223512556, 0.014974348886690048, 0.10606258214739453, 0.0535853673716757, 0.047757820154970335, -0.2211706071804514, -0.3346318658818336, -0.15400647525720662, 0.4075086106996354, 0.30331935455917486, -0.04322088485521668, -0.13713192975028257, 0.10484443563245661, -0.143690444746177, 0.13014899822710777, 0.2904396350771001, -0.034260627340404054, -0.278413283162568, -0.24763677594314001, -0.11021940888699289, 0.027972514602487737], [0.1494229077312523, 0.2077507376426312, -0.19359275849790178, -0.33014691038012167, -0.3193903495332844, -0.15103925213724903, 0.21494170250706263, 0.00023512638596068772, 0.5663258104777935, 0.1790966035652643, -0.22385936178396143, -0.06608982375535123, -0.5218909525456077, 0.004138569381468645, 0.3056560749960972, -0.43836083601929127, 0.09142993098840677, -0.4889793148551777, -0.35376076038306914, -0.2472693582214867, 0.2599798745814236, -0.2778456377041916, 0.11796214761580337, -0.28921826095075687, -0.07602843704172438, -0.317229751290533, 0.14463049516047566, 0.39276588020724107, 0.5046294277062994, -0.0875399860274604, 0.15989286796590618, 0.20622887054595027, 0.03521896854459142, -0.3304120692480201, 0.15329457929841397], [-0.14687649777629702, -0.16225461033797028, 0.31532452074749484, 0.008968030335417815, -0.1077144475544826, -0.04800879033081839, -0.09321500590208626, -0.3112210774067136, -0.12005954210810114, 0.18159044440404648, -0.49934287518694753, -0.3768401127136539, 0.3510611853584021, -0.2806860859683968, 0.3708697100872332, 0.24175154090769918, 0.040290374589799616, 0.0560462390735823, -0.3927481725996556, -0.21180306643273566, -0.21066154290364977, -0.20943663787298922, -0.3497336412065955, -0.15760867220750494, -0.1150621737599226, 0.28438616042818565, 0.3859054380245361, -0.09367578672192653, -0.4110818970187478, 0.08651915822806032, 0.04486342990400316, -0.06235443515861565, -0.024258164739778036, -0.18638058811407374, -0.12313322682125917], [-0.15579256327823907, 0.10001635421081566, 0.11015295176408668, -0.044249990973059906, -0.13668210758033625, -0.4933391971134315, -0.18842069751266532, 0.23377183696802306, -0.1954079490106347, -0.016550239982741233, 0.15516009486743754, -0.40748923394183284, 0.16046093095601507, -0.5286917050594213, -0.3952224834034565, 0.0420700281298502, -0.23515073057083438, -0.022120113857851915, 0.4414820426978773, -0.2256752529488265, 0.108108944960089, -0.5222548767168176, 0.37327422857701215, 0.28551404085375526, 0.35636331657152337, -0.19698534955149227, 0.06706973132618164, 0.12864845450829615, -0.007174092690318152, -0.43741164123423787, -0.3842976476312035, 0.13638547354930872, 0.205469412774133, -0.3691869530314472, 0.08552658620691113], [0.07452123486693746, -0.05568927048629613, 0.4993086502164494, 0.3109130294521811, -0.11531915852539552, 0.03776425419924562, 0.006112751746475155, -0.05790409741605331, 0.08617627014469069, -0.16335005080342305, 0.009868326179388518, 0.3073709397337451, -0.2932437747123307, -0.09997473766005191, -0.18700880504199266, -0.01905583630712137, 0.043389036477358575, -0.13988848610857527, 0.2846357828885388, 0.02230169799538136, -0.03163799063354698, -0.12335506183896605, -0.19142057691405642, -0.08036110771435548, 0.0889800182696413, 0.1426658616881976, -0.06526808602782375, -0.18910777683635116, -0.021034128467303962, -0.32643928360246416, -0.24355578651804508, 0.20135651864153514, 0.3804020070595254, -0.052009602114932614, 0.012414745248405454], [-0.09576457962429345, -0.12082734167028235, 0.2017196491178235, 0.09738779145570578, -0.14599398924246826, -0.29563398893826304, -0.12463191295748574, -0.38921977436479516, -0.337882358015771, -0.17652569951992841, -0.05438638044033853, 0.20115075841812563, 0.2195216669995891, 0.4484449913628382, 0.13955599297837246, 0.14322902490740433, 0.31689824362445784, 0.7449526815095943, -0.08798568432557098, -0.08131310700676818, 0.06993441850674378, -0.21981904860027512, 0.2646362339550681, -0.048817257729042794, -0.41296182545014826, -0.08898002743831973, -0.006851721843665287, 0.04414081882032311, -0.23305658101773463, 0.37534582165384095, -0.09693446748771088, -0.24553098409899043, 0.03620014425737416, 0.23236989949242742, 0.1534187492193411], [-0.07192968144936752, 0.0051740272307440075, 0.06575988179743363, -0.05395189889136387, -0.17893736193305507, -0.028989791025886953, -0.10400875206327333, -0.42258347877110963, 0.30186342949773, -0.10136436271167829, 0.4622617143844543, -0.05431623255507631, 0.12220442192443565, -0.1305846131514814, 0.027864103528998433, 0.26346049968048507, 0.15568532041878239, 0.09212009405609939, 0.4041876716839171, 0.06634400435399865, 0.3407042656981687, -0.09889935706304279, 0.027672721700801896, 0.2829026914604157, 0.2298548285743785, 0.054180295076242384, 0.0768268300678209, -0.14225151122985996, 0.3889198985587502, 0.3851707041658386, -0.0766772664409009, -0.050030758100169985, 0.7084953065488971, 0.11753234490742505, 0.08547085457134813], [-0.004256581844902314, 0.2259361666590048, -0.009306549918725654, -0.31777026028011224, -0.09354156590557555, -0.06556581959803419, 0.05302151239448017, -0.036448735442315625, 0.36662388413597113, 0.055269848372774225, -0.14443570851588786, 0.18318414149779738, -0.20838050280581272, -0.057161072181969176, 0.026424091159007897, 0.41365387892931155, 0.3060656409585993, 0.14062394772166584, -0.15176399311715486, 0.1372506163508717, -0.08398289513603603, 0.284671808130913, 0.12949038927958806, 0.4416479501465835, 0.10931663306890392, 0.29960118218109655, 0.09165488148770931, -0.03349552086444154, 0.11424126674777112, 0.08134396490299618, -0.27591493022367425, -0.470468297200555, 0.004177382091268868, 0.16636853938719504, 0.0012558197922181496], [-0.03758062442171453, -0.22228437710682689, -0.19949210101303538, 0.31389452156159897, -0.02504408044764827, 0.05036081809647042, -0.11562774082990795, -0.43601188139489, 0.24683773711465457, 0.2231603993642849, 0.11162445023163388, 0.038672288125141036, 0.223441177575141, 0.1567958107491642, -0.2718884734136343, 0.1354092974516897, 0.2519677974500984, -0.03552218231933434, 0.0226158706506843, 0.274863262543708, 0.3478912388385701, 0.4226309149956523, 0.14757031493227482, 0.32135714539030547, 0.07894760972972945, 0.3950105369285942, -0.05581245573845703, -0.463107552321745, 0.19822196456652982, 0.2669957621830588, -0.2899664075087726, -0.31141538119123446, -0.04358782938891962, 0.3722787516378762, -0.1588873236577994], [0.08579706383472846, 0.15575146065700077, -0.21052871262855452, 0.2326748802940087, -0.10131662439715769, -0.025600030047995298, -0.01595043748908045, -0.29066457035694204, -0.04876111537573317, -0.16937439072565735, -0.032783324217594105, 0.2198540007586552, -0.08329274540259472, 0.13038721360993616, -0.14869471177852175, 0.14530396157767836, 0.14144844305921828, 0.25680916732891035, 0.0706043256789966, 0.27629262674950605, 0.38761893644729206, 0.21173450084829204, -0.5046224809312373, 0.16028021520415425, 0.36425926543954273, 0.12815366485028815, -0.06374824560941682, -0.3467293977912794, 0.2994235427505302, 0.5112813820386312, -0.3887707305272482, 0.11584636513601666, 0.07230026540031782, -0.048840617872024344, -0.41634469339383107], [-0.4912068538681624, 0.13286475061212555, 0.05805393930878395, -0.05570997633889414, -0.31541555931697285, -0.10859883290643495, 0.3826871819764316, -0.12104240874109937, 0.4210430209882968, -0.27883081742010535, 0.34838345473973564, -0.1567905071852429, 0.13371719884007535, -0.5580313240531808, -0.12248644066396545, -0.001800491023260937, 0.12878942339814553, 0.1720246041569173, -0.16569869687833416, -0.19773382868967168, 0.4313432736070027, -0.07027431846436186, 0.24451871232043285, 0.10926902723708032, 0.3311373939929539, 0.25137565967833647, 0.09411251591635988, 0.37816087591532793, 0.5387256766025715, -0.4102591920785168, -0.1876454132238408, -0.022783326847379673, 0.21608602676978755, 0.044887048892594615, -0.283137103348627]], "B": [-0.20296632512122295, -0.010229000243723014, 0.5462524793456789, 0.08105416539002538, 0.08609324866523159, -0.06869217179932538, -0.1901801446217131, 0.12098449171297698, 0.27990878601070035, -0.2840483746752234, 0.2557113331135083, -0.15729851732187589, 0.11806166983833166, -0.18075342397755523, 0.022533062017045098, -0.4251052762276409, -0.39227949365961057, 0.1482312815648616, 0.16293181431858741, -0.402401018640257, -0.4464939095589402, 0.11523155322135545, -0.5982458828607398, -0.1351771127097481, -0.22619853201255624, -0.24576269649079036, 0.10486904405909858, -0.14083536714485906, -0.31302961205012203, -0.3530412263062989, -0.3509174863106586, 0.33125344145492297, -0.32565826190101704, -0.1652224351237549, 0.059983105790442776]}], "mae": 9.102533359420436}