{"name": "mlp_gl10", "layers": [{"neuron_units": 10, "activation": "tanh", "W": [[-0.07870547679558831, 0.18191267253720256, 0.06148908434748627, -0.011672316624983232, -0.1921010720159141, 0.6325202130517391, -0.07021584287946936, 0.035600915581681374, -0.11647667037224842, 0.09383628205683794], [-0.015261128665323342, -0.09898067761066623, -0.33051134031755175, -0.44191062821674704, 0.06540631809205401, -0.3683842818552058, 0.6320177855255972, 0.04254884322170279, -0.20580007831549707, -0.09948660224656371], [-0.22876036772469888, -0.14806294670592549, -0.1978250698916569, 0.42211991177380437, 0.030071564170503738, -0.1811008057495504, -0.17833924234074208, 0.06657006659963641, 0.1388359384826315, -0.018092587900822122], [0.29654268047491844, 0.13433357925337874, -0.21620899114963626, -0.3878035433432289, 0.4550956904312368, 0.313950750782103, -0.15742420287443287, 0.21817529830109766, 0.39395677147912456, -0.3198827582783061], [-0.13960592209568398, -0.022237730361305774, -0.5969842830561076, 0.10311574552956888, 0.2601489787565896, -0.1850279220268016, 0.5498077819924125, 0.051867686247244506, -0.20453915508603507, -0.19805352422522107], [0.4644872672786106, -0.11133402860804166, 0.10883586809764169, 0.3444703023591212, 0.36121980364903156, 0.2060553606843519, -0.3261980910926243, -0.04616180845296672, -0.15565951868381112, 0.2854471251379297], [-0.3489236146976448, -0.4229661616247567, 0.03334556426151499, 0.03946873425935671, 0.4405049864341261, 0.19443290434904253, 0.20287005831735497, -0.12103457275674595, 0.39308192604156694, -0.1928936099795667], [0.3366605242041317, -0.327216499562694, 0.20385357627491968, 0.22392299353469158, -0.09227144998179278, -0.043380212082181645, 0.5432370705808488, 0.1289846998456103, 0.6031785312245533, 0.06907795233312741], [-0.13619556652584275, -0.06585593910565525, 0.16964988249340873, -0.026631039640103757, 0.009930019762238741, 0.4811138084132879, -0.3094225172965862, -0.4555563473099698, -0.33283490927862497, -0.06274890235323222], [0.1925008225606421, -0.42356071456853733, -0.10736750068602317, 0.05361833481606169, 0.24335628093198483, -0.1044648174801506, -0.0714166124833463, -0.31800307885586976, 0.06476195372709569, 0.07535994495335979], [0.4962615735076391, -0.4984591589540741, 0.47772381435470607, 0.16811229436280195, 0.09142830583076225, 0.22718872215138936, -0.0023703252824028953, -0.03517303797002155, -0.35036241135211527, -0.20841927470837388], [0.06540222510407084, 0.5389617735911326, -0.10377400090264478, 0.5289475544879584, -0.1364343972950269, 0.0556926463361836, 0.16011968101382204, -0.4269712344156481, 0.316776137609608, -0.20721144822233747], [0.4129056713906908, -0.3059738569720002, -0.059271476571080506, 0.13245291650589502, -0.7616640284475588, 0.06637958387395493, -0.11195047793439518, -0.3792030361371379, 0.10421864895140967, 0.12818553013593084], [-0.23698678825619832, -0.237184411017762, -0.29615743641441966, -0.18079660115996252, -0.37013071551653104, 0.43582326869545507, 0.04072167706954425, 0.4256302806020794, -0.18406183682539004, -0.14672783804956074], [0.12529958152865311, 0.11444541913367762, -0.17326089300642455, -0.1342295265287434, -0.16285229197449771, 0.2517684661776024, 0.0469460703220288, -0.32968319836195414, -0.5612110579016258, 0.22606703087575117]], "B": [-0.11455199531650351, 0.10767673286359333, -0.2580989919109996, -0.2083102313657416, 0.0015719126507206121, -0.21332444466669823, 0.49056925832309317, -0.02226765973694868, 0.0015328849937943654, -0.023493167432956725]}, {"neuron_units": 15, "activation": "tanh", "W": [[-0.19659374978984778, -0.038652152811258014, -0.33903658640779394, 0.6049190014225384, 0.032091602411979774, 0.4592742277873304, -0.44112058640143614, 0.14628354801547971, -0.3901850351480676, 0.5634823256788128, 0.1764685387967416, 0.11061933538467368, 0.47764219159616667, -0.015981622685093805, 0.10863625384525075], [-0.17512294669952708, -0.4050668541775571, -0.2952749325901979, 0.19492111751092348, -0.014765355303872588, -0.20889321282348197, -0.3002930406405044, -0.12902112020464768, -0.11764349852035638, -0.32550617916455077, -0.28672427189918764, 0.5640128526929858, -0.3370956470177034, -0.4345207275620604, 0.2971746180628264], [0.30942724492672546, 0.012019597123945758, -0.08544431631778573, -0.25273659906637336, -0.585111472217731, -0.41390456487706967, 0.14969455286382555, 0.5045649873436377, -0.003337039669525371, -0.18060538861096526, 0.379429185555072, -0.030600450075495146, -0.5571426588560088, -0.4923675988606026, -0.16442993787817992], [-0.06305303246998975, -0.31476268500184384, 0.7292265596035323, -0.29806357633478636, 0.26715665636666897, 0.3579151512327147, -0.23713870822610864, 0.4112711144299246, 0.022753830858677812, 0.018558403845708907, 0.23093983161187467, 0.4862291635930131, -0.3532008392459413, -0.005823725375005301, 0.0037930654704964755], [0.008564740642461412, 0.11911861651001188, -0.06454958716206345, 0.19044991223512503, 0.18968922540370142, 0.6600101883295529, 0.29757917700109127, -0.33039140764510266, -0.1044518748809613, 0.30877774648787, -0.054661901744596654, -0.24317560864735221, -0.5457562943786965, -0.453790249740786, -0.30115475450699186], [0.6085292378159358, -0.42163148288654173, -0.25143490595528534, 0.13907589945240226, 0.15309645345259199, 0.06219678048450176, 0.17736081236608894, 0.3800766371367598, 0.4540105825649155, -0.1345218590377016, -0.04314403160699161, -0.028141297667299316, -0.009613340431768489, 0.32273587568372347, 0.21244186311290075], [0.35955904318686155, 0.4518340410022625, -0.3887513873159845, -0.38434519288318286, 0.3174374077680773, 0.008192392717571592, 0.14226902311228562, 0.5664421299283914, 0.04378940395345416, 0.14215620339506616, -0.16868511090690055, 0.25935301856218645, -0.06402097395979035, 0.11558189977698977, 0.20185414431673596], [0.07204191413132509, -0.15673265293543334, 0.22698366086057462, 0.0865327005736995, 0.03429530682946099, 0.5140256514399383, -0.3425624922906485, 0.20570944276150155, -0.4002784907884315, -0.5358901130893938, 0.17583865841684712, -0.3064611882649414, -0.44386157617161626, 0.3850823631310831, -0.45746676560783733], [0.014133935408614746, -0.26100199163612875, -0.37340126145607866, 0.1308626346010756, -0.2988225507403431, 0.18753868075623886, 0.8003920103989115, 0.15086981591163995, -0.3638492254531727, 0.15587082555177975, -0.46261391762157783, 0.439111899671351, 0.4136347767080945, -0.11697865097150743, -0.5428834546226595], [0.3137425811983456, -0.039290557565999265, -0.29833901545307784, -0.6190223233719496, -0.14224046434428397, 0.24418385234629036, -0.3913835767430722, 0.31324294937899955, -0.35762965740999947, 0.5057755801530739, -0.5535420821783177, -0.4487684352944493, 0.03781291216797125, -0.20525797862678763, 0.4448119104436854]], "B": [0.14228946252143435, -0.3633840342341301, 0.5435413346736112, 0.40728081509025676, -0.22716028071562117, 0.09233165656418091, 0.1464445260934157, 0.22976840403906176, 0.2208223113488205, 0.11637958318278765, 0.06193043481538186, -0.15027254847880017, 0.07063352543744643, 0.17024057411548515, 0.08575888637991921]}], "mae": 1.591778339146904}