{"name": "ej1a_gl25", "layers": [{"neuron_units": 25, "activation": "tanh", "W": [[-0.19883501288706296, 0.3494393305877421, 0.07873247471976241, 0.0420757949545837, 0.3341271081707838, 0.19629378009605672, 0.130904798981406, 0.27677584082570855, 0.19980790928150383, -0.14642404957223948, -0.0702309971589412, -0.1427858594801272, 0.14157901373672033, -0.20284874064746947, -0.14814036221716376, 0.21031088420028424, 0.23766387378525647, -0.07526496353767038, 0.1532607015987492, 0.08394814148880089, -0.12247747425097112, -0.012676529701244419, 0.11203693046690241, -0.18622628869312696, -0.11372193290225477], [0.003924119437731801, 0.03563668737855223, 0.08797823220897326, -0.21981806246999658, -0.11953391216254503, 0.08236922110926394, -0.06193029073347642, -0.10525984915276958, -0.3300750381459942, 0.13585182904213242, 0.09838319192217794, -0.06519607319541029, -0.3087563798991304, 0.33692246324702696, 0.010121006773918449, -0.22086490244433843, -0.019166245260583543, 0.0942739505927556, -0.01846304263953281, 0.2767412750202035, 0.052832653755207945, 0.09155638193029324, -0.17620998034140384, -0.047834344770009335, 0.08383653450497798], [0.11391724714881439, -0.1342191358722464, 0.38254177348358875, 0.06192041595359877, 0.13238955011163125, 0.1894292878570038, 0.3153075382888517, 0.0714969230388547, 0.03841614943330677, 0.07594037903378115, 0.07930398366564496, 0.004190240702742644, -0.014515658284853244, -0.10137882534860554, -0.1809350033242955, -0.5279039202689363, -0.11400734994690472, 0.09874535223787063, 0.02999140242400891, 0.22500829429730151, -0.22169434636556454, -0.2596491579874035, -0.212375141860869, 0.13008267968185197, 0.4089129195932613], [-0.30520917289188765, 0.04715057849060128, -0.09113095441019468, -0.23782387168832256, 0.27724342776742045, 0.18767195650037452, 0.1114795845866029, 0.16619716477897895, -0.10862076977930031, 0.17278991564075669, -0.009059948650351514, -0.036872960281474416, -0.23964946917128088, 0.01378265256014989, -0.15902759903060684, -0.10494823129950759, 0.21161496659057913, 0.23732506613644494, -0.13006671313955429, 0.053902412943847164, 0.05149747441392357, 0.0534206950343424, 0.5532103982483204, -0.1676691588914131, 0.4328503649701956], [0.058955154506104765, 0.018597760565504363, 0.15083915684695506, -0.16173859026419074, -0.06899165313439917, 0.19856508523984517, -0.20363288176393268, -0.0036359385630316213, -0.401768543799777, 0.18103238025859003, 0.1177480885298749, 0.050916824257641984, -0.09017952375618188, -0.007478767964623382, 0.15332753514992584, 0.02610256725064532, -0.11214231344069903, 0.11338955865934035, 0.029638139551665825, -0.09762428593448083, -0.028315334061548132, 0.06791163865819864, 0.3306480526230171, -0.3488267334184601, 0.01258163640211532], [-0.0175143629643811, -0.026855430515928466, -0.3537149181486267, -0.34269571103070284, -0.17339236907505784, -0.0043394139559706675, -0.011056258298820452, -0.08582454717275348, -0.08986202764847735, -0.2192090327452069, -0.09923770471470134, -0.15147940237121724, 0.221168050148831, -0.04399858615106071, 0.12736908811777797, 0.1216656294448044, 0.2353371389025591, 0.21660721033110447, -0.09496381396784802, -0.3987031585036522, 0.5387556899040049, 0.3124921026393136, -0.30051045822276834, 0.21409707960588645, 0.29263201899657276], [0.1358926136875896, 0.03899580592791089, 0.15714468784245117, -0.00787073272737479, 0.06410158179918372, -0.06803658498893375, 0.05731962551880273, -0.07153392155777717, 0.33513568468401045, 0.12664634156342514, 0.009417484632019205, -0.28465413772522474, 0.1328659243584049, 0.010757616820696012, 0.1097872601257965, 0.4470766796855961, -0.09574674131735732, 0.25217939042803567, 0.051702546482689946, 0.14298050364137727, 0.0006969275953799067, -0.15308758519608784, 0.16512628344348385, 0.1814855989397488, -0.11643843551120311], [-0.06219931537501437, 0.11495582644819465, -0.0792678522646902, 0.22762950971182563, -0.17310476465003158, 0.3135634772877438, 0.1473456196487987, 0.087339191698298, 0.14590301412653675, -0.19690923353021253, -0.09739280338564399, 0.06571956036308554, 0.2698998113158865, 0.05503476178344135, -0.22790941664301348, -0.13892729966682255, -0.2629170616478101, -0.35580767060994334, 0.317699221805645, 0.31834761881062007, -0.13094578216912753, -0.016754822832673058, 0.21527661200127543, 0.21877712783785502, -0.45957016977694326], [0.1006431115545923, 0.2529318080007764, -0.019090600808821953, -0.3498902221811812, -0.38462997146104166, 0.06280631610438889, -0.04475522005356749, 0.001976143014604059, -0.1351427755326928, -0.3310280321047102, 0.05062248876049688, 0.06998711891401209, 0.43347822430669314, -0.11239619982080278, -0.387087268773555, -0.1976435364795592, -0.1526154321026994, 0.3179452705141947, -0.261574792434215, -0.30192773244432236, 0.139925851299748, 0.11358920095013249, 0.210052712614783, 0.043369797258081856, -0.03934356189508204], [0.1483889648075126, -0.08937438040168683, -0.24795581250759036, -0.1480955491717401, 0.07910105508379148, -0.049364801113533315, 0.20706982981238858, -0.16846960627088328, -0.13242030046714126, -0.24873491822677757, 0.6092522618064553, -0.037102080365094825, -0.027030173265143193, -0.0007005906597026915, -0.05222838678052446, -0.009273548620475552, -0.11128099508942586, 0.20365362040825052, 0.27577433856958433, 0.3466073416340314, 0.10804307513088389, 0.24003011607943772, -0.5251200842548323, -0.14475960980447955, 0.09346147918842562], [-0.13362969438217856, -0.28748486705104176, 0.1481577818853573, -0.295335280399026, 0.038858458411465666, 0.1241777653041672, 0.024775923980196086, 0.4221430301919741, 0.09587843211087954, -0.12483059375871274, 0.006215983328561586, 0.01736986527216845, 0.2966142210115807, 0.12241369032278676, 0.012562091964749039, -0.05452240668294846, 0.041293813204562005, 0.17732173091646222, -0.2336205179432142, -0.0718842743142882, 0.17767042153275744, -0.044054223344069894, 0.1748840608741276, 0.453131585748741, 0.5150757768619347], [0.297888860493497, -0.2612465531763834, -0.2220754162016931, -0.0939317751370624, -0.3623193099193097, 0.004511031301383345, -0.0372388760094719, 0.04031720039799998, -0.07486564340540094, -0.0748232199906375, 0.04772778434323076, -0.022709666022761154, -0.20570249431093685, -0.008811461325418398, 0.23448889273789378, 0.05092497612879486, 0.3788945058609681, 0.013750615561888887, 0.13473428015747654, -0.36175383078018286, -0.0733997500708598, 0.19798799217098492, 0.05062904836199421, -0.07953021008009219, -0.2672309362738336], [-0.06922862201031434, 0.06216790142325439, 0.024208429981763684, -0.05152745046712765, 0.1675313113633779, -0.04613832380157909, 0.0360903837085802, -0.2236014896957596, 0.2040801384875598, -0.11562844356493589, 0.06527169570015778, 0.3703892961112103, -0.0413825944036855, 0.4865653614702675, 0.20459470230539706, -0.0013792537641657235, 0.10982978963259478, 0.07710326551296891, -0.08032277949115883, -0.14205338751398375, -0.09036709406569056, -0.040116258622306944, -0.01964832096705648, 0.08036589310179686, -0.2909644364970589], [-0.22199027981621525, -0.10993898949341017, -0.0009129847895563916, 0.04173593606070855, -0.4091736177062479, -0.2396680606156892, -0.10952559699870193, -0.20742216601817579, -0.07060701117486133, -0.17943384153125666, 0.18952822777797154, 0.155063883804639, 0.03480433517460101, 0.20491030947123678, 0.36168686929091665, -0.06726208592334836, 0.09592349334944021, -0.22065578703195488, 0.8377555669549355, 0.19210222774350297, -0.12098074672368589, 0.20770934805360397, 0.046223763294729964, -0.4014719953960803, 0.08915565675716527], [0.2832415994584881, 0.19927606007169316, 0.01623980685113328, -0.01821538129621001, 0.09228138905830831, -0.12751271552192, 0.24406228568579674, -0.15833791829753993, 0.10255287109742917, -0.0759545921324722, -0.11795877375921437, -0.3017777694554886, -0.020997196184537485, -0.04592518585415012, 0.08774852916232354, -0.018480945195498828, -0.40618537187391873, -0.0954847833712305, 0.18579722056410455, -0.09670345765324774, -0.1833756052949994, 0.3202826830735032, 0.015529879957504234, 0.09097494259764874, 0.15196946480859966], [-0.2761865179075873, -0.10883452368407873, -0.049609433067000254, -0.08043337727243126, -0.0143154200574583, -0.22610240703149967, -0.361219868339493, 0.15553207764805146, 0.04403526021654356, -0.18975067687829358, 0.09891205955019519, -0.2563712001077352, 0.06114564728476266, 0.04650025494659993, -0.09867093345588192, -0.29377318381339, -0.09548666795945272, 0.04454905773243992, -0.22787231286283735, -0.053962209009560336, -0.07944551439255818, -0.11511819709670765, 0.12767655714560947, 0.11750181039060612, 0.07684088672706528], [0.16494157871885612, 0.3766294247610916, 0.26233039953226095, -0.018527317673857468, -0.282637439116891, 0.25164479044293764, 0.033190517535301986, -0.11977291100244347, -0.23121425997564088, -0.06775426708733193, -0.26337086681451155, 0.05901876507799509, 0.17731601119523682, 0.22049557306148354, 0.029714773600373494, -0.017110171122966075, -0.0918630366068821, 0.041248438264697866, 0.0342527119117049, -0.13518229851910982, -0.23184565204855237, -0.007730296904097816, 0.03675176283074568, 0.04187344665895537, -0.3940318481466027], [0.17532368475429436, -0.11503241671129441, 0.0003157376811713228, -0.4584805318165208, -0.06896880450316842, -0.13612022045448316, 0.05158475098899075, 0.30286125364362765, -0.05651918333205516, 0.035445265121810794, -0.3301816769790891, 0.08200071654888402, -0.3570889639831496, -0.24428382986914618, -0.12037405733433049, -0.12197867575677926, -0.11397113603933076, -0.40274015000987357, 0.007395275988365426, 0.06941898364749528, -0.029264299738561258, -0.25004510000619734, 0.23113371118124693, -0.23181486004724616, -0.07714805563948453], [-0.1031737308338521, 0.004305488261613827, -0.3923949099166073, -0.008059031504019293, 0.08157070860699338, 0.07486521574868975, -0.22430836773754134, 0.056946836194720206, -0.021504754160028533, 0.35801143334876817, -0.0589682495312217, -0.22226833308704133, -0.047511599731846196, 0.05428350234275118, 0.3654097942790979, -0.2580054751034948, -0.40665843386070455, 0.08137697058055524, 0.13050094643329527, 0.1251331400696355, 0.07406633281149451, 0.08147733546033924, 0.06815005045253944, 0.2027812388093096, 0.07925819143887143], [-0.08646568053652372, 0.38191110016433943, -0.12582357442951608, -0.19255878391593, 0.07284219722910595, -0.16472776096031608, 0.24257717989665956, 0.11425663127834088, 0.002516103801684116, -0.0929463537282947, 0.32214238438237575, -0.40456823025768757, -0.11614442903906755, 0.3618095495154644, -0.13692266123296157, -0.1784651872032361, 0.07869330891808633, 0.06029826874553322, -0.48816228895915487, 0.038408124119390076, 0.009586248497906034, -0.03142457959795711, -0.25989617542205795, 0.0639505428746219, 0.1458513335772977], [0.0629469784632303, -0.22559787073428358, 0.23954618165132727, 0.022161909673416004, -0.07343550196128518, 0.25906665718172256, 0.1762399066851379, 0.18471713341323368, 0.1543202543125053, -0.015537075476462155, -0.3116582953968435, 0.062483846234462084, -0.03340977646712156, 0.0252123358438499, 0.13367555533773556, -0.03658211555810886, -0.2903571371604186, 0.023029994818359923, -0.05094003226441134, -0.5507059775004678, 0.15137857609955593, 0.06956626613839952, -0.23193852656394892, -0.15670643691429265, 0.10163298939339663], [0.4893491489514631, 0.14715076047507664, -0.2507402305442433, -0.026305080864662152, 0.1181637540261837, 0.08817150643408705, -0.27769341805436615, -0.046148547376130285, 0.19862883417032187, -0.26435549959595406, 0.1573144192802097, 0.029998415583495006, -0.14958216851244083, 0.1403363509551897, -0.10820538957348573, -0.01661010407984859, 0.18646481719335464, -0.03741008437617543, 0.29084434277744975, 0.3431576657123446, -0.3154612829389971, -0.49895179208544954, 0.07633229050500112, 0.1826866991194081, 0.05240294124408952], [-0.12540579761061135, -0.2221158195523858, 0.34545675564761863, 0.13714636484438816, -0.07614923675551998, 0.2951316987037256, -0.3534681310987548, 0.058366719010902714, 0.04483982940152797, -0.1396357127672257, 0.1554911930884006, -0.047078599701378024, 0.058578869653142296, 0.04303442322956125, 0.525050896461788, -0.1020696174448937, 0.11671317874081118, -0.07542254083440922, -0.31097331852732335, -0.1991900755938399, 0.11277382955847032, -0.3008864843670741, 0.025451923798545103, -0.20798094902901154, -0.2522689068032233], [-0.007207038768128854, -0.28428361783111583, -0.06953894452732222, 0.2625672997517784, 0.046797874706714516, -0.3755626566375841, 0.021312127116535965, -0.21757671360835026, 0.2329967751571764, 0.17862332057890656, -0.2996345826587434, -0.03149447159360751, 0.15512102790983895, 0.1815582552402911, 0.21260078732246163, 0.25296954787277254, -0.0446076303118435, 0.353253498016632, 0.4758249487681267, -0.2857367547040511, -0.13819687265124145, -0.3438585658849088, 0.1722976715819675, -0.10762335792743073, 0.4300502841283115], [-0.10409537566419413, 0.027159312867962096, -0.22530295281380955, -0.3474186500200898, -0.13146099941593195, 0.3463684457797725, 0.030744277721126718, -0.18702493764574438, -0.18612609667353777, 0.10723454463802515, 0.1692510336920957, -0.2528496446802344, 0.13191190169006742, 0.02836571193054054, -0.2970971379308111, 0.07304096563679656, 0.24146485263560025, -0.6197633840965805, -0.216428839838729, -0.10595570051164507, -0.23039076830744123, -0.10428338538023071, -0.031959431907656446, 0.056155792728074874, 0.2747131734341963], [0.09155673270761336, -0.02691089973535982, 0.03677296496375011, -0.36686420425073973, 0.393466808376393, 0.15535917654369108, -0.10557753395501028, 0.5049009917066833, 0.12899879037998407, 0.06386969890008476, -0.054428425669006686, 0.18628748942269735, 0.24819389142624768, 0.11667322120565561, 0.1884618321829241, 0.17889499375992268, -0.009188238077309084, 0.2993078899896845, -0.038074981845384465, 0.06607632578642894, 0.31610009298606034, -0.15105702546815541, 0.09753995169769783, -0.12281389643456288, -0.21245688045218064], [-0.15310979530376864, -0.16273749549430205, -0.06278503689940736, 0.021266440313697038, 0.3322567853977147, 0.008452387902933952, 0.012179562473076626, -0.07292789344711154, -0.3352791213828959, -0.379892137841332, 0.054587410760013444, -0.18171309161788057, -0.25881457295644406, 0.1416551260890068, -0.014117536968392843, -0.09465742671002862, 0.016298208409538772, 0.15635398275508477, -0.32442901786121936, -0.43712149139630113, -0.07401248292754851, 0.1477216796564021, -0.082350661544428, 0.032676860712521, -0.5291494941531645], [-0.178315636350407, -0.06542842723162991, 0.2378860284619709, 0.0015341579553697997, 0.3186066182162439, 0.08632155216715565, -0.1438847928712481, -0.17709500220465005, -0.0915679226325903, -0.04671669136258933, 0.08772799922017918, -0.02957256328835263, 0.0810063075623506, -0.01663696105361905, -0.3260799499996377, -0.30049418062587474, -0.07829057650580984, 0.20082816571241055, 0.14293811301237677, 0.2344727938536676, 0.1516204067295982, -0.23168131604738065, 0.3586627556618746, 0.5039680020697076, 0.07866768689153784], [0.3268880080735535, 0.1308894569653127, -0.01432199838392442, 0.47873548217173295, 0.1796100734427208, -0.13538956281988432, 0.10211228236263614, 0.14703673877577855, 0.034332646375213036, -0.37525737830530476, 0.26729142323995214, -0.000550413840403098, 0.00011952748880174917, -0.2281940071931441, -0.005045317664885644, -0.05613918039656108, -0.26882038452243734, -0.30466770545464744, -0.05999742308460092, 0.16067964314196365, 0.3067784588772717, 0.3488135504732738, 0.16088819033215893, 0.13518052065094424, 0.28941652379661864], [0.12067297083955536, 0.09221788207976575, 0.30294018167899894, 0.2942879668640167, -0.06115795528933802, -0.08225272287733035, -0.23977505068174312, 0.25014381566995536, -0.07251681282997553, -0.0876892797989294, 0.24210396283287072, -0.3309577761986401, 0.04496213553117871, 0.07421431760544997, -0.2589204938576046, -0.0555585779000593, 0.11751108356615274, -0.2366935394374448, -0.03282724174415559, 0.04299415524738838, 0.16107641693684477, 0.10028978535775336, 0.1058694952474734, 0.06521961169851408, 0.07016412272929572]], "B": [0.005455016858895163, 0.19476541305101477, 0.07871320586875787, -0.07936214282761805, 0.16976599529736777, -0.09288700384660224, -0.028303883513901836, 0.03780797896096127, -0.08882317364091158, 0.2555263114450619, -0.0007548439903769623, -0.06379096094644165, 0.1276463784957005, 0.05421870112007834, -0.08928721554593352, -0.30766258696499266, -0.2853799413622562, 0.04050925816040118, -0.16735582592402762, -0.015196766753513991, -0.13113829903321408, -0.02873436294263375, 0.15440823900808334, 0.023156050040459144, 0.11104700027905923]}, {"neuron_units": 30, "activation": "tanh", "W": [[-0.3324556168445473, -0.1071560760629359, 0.2495905005507604, -0.6090476472934392, -0.13377282827765802, 0.004014034059211833, 0.17909458997191477, -0.044959495085172704, 0.07282069023909005, 0.25658559999882863, -0.09263437990770261, -0.010298611905999355, 0.03989800995098451, -0.32191324028837864, 0.3719189802927724, -0.23015487090950132, 0.06491149204235903, 0.5162753465304071, -0.18502335187534932, -0.09829382971740583, -0.04742692448967846, 0.40994271040238195, -0.006474085877121842, 0.0466682839333362, -0.13097339274320274, 0.26299484689579533, -0.08598531408986794, 0.1532470009456028, 0.17132709608475624, 0.4016582120370251], [0.0829407593935978, 0.3398995437556993, 0.1233057567212903, -0.1594862551526784, 0.43495674228264253, 0.2640376386006719, 0.19335167653118165, 0.10881776005916932, 0.23133875930824696, -0.20272765376124305, -0.4414042724186846, -0.16733897385416344, 0.14190125690043637, -0.19016353633667737, 0.027227816843430536, 0.5789658261125188, 0.2902339019275067, -0.4595381569269101, 0.15405380319283327, 0.015742485850737557, -0.10616241395020454, 0.04620895261605035, -0.19192578942065017, 0.12248220537012589, -0.017417447653406103, -0.20730830025873292, -0.2269749141234093, -0.3314206678815633, 0.0979853758187347, 0.32971454236873926], [-0.0010270907204431286, 0.0047709968809005925, 0.17017713339965138, -0.4477091262327613, 0.5221712785890636, -0.4013168292025815, 0.37332832972077307, -0.20443948766093564, 0.06781349214928498, -0.28006570078166726, 0.06656750370390621, 0.026391347036461787, 0.36182587024076435, -0.2878873853173267, 0.006189316818569456, 0.1437077006969279, 0.3421645810620733, 0.05028312203594176, -0.31729733879357375, 0.07455364314717713, 0.3814149657467378, -0.3751151697056902, 0.333038995288749, -0.051077933019922556, -0.260369036256081, 0.25312515823095977, -0.07343661169001457, 0.41128483028079466, -0.09795139030059062, 0.3054058942099148], [-0.0010686629925420927, -0.3251431188881273, 0.2554579834454107, -0.030285239619231467, -0.11259416782604148, -0.3202475796077976, -0.27800213502901217, 0.19671794690626457, -0.3893719348979137, -0.23964052316400555, -0.25114411605872206, 0.34834029045143927, -0.2573081901136346, -0.03463303073479351, 0.14124740294245355, -0.04742773571268699, 0.20687451934894668, -0.5813724702068355, 0.0929724143753243, -0.12552928756215442, 0.12251451273447879, -0.2698496285308569, 0.3212084788560273, 0.5950994510863548, -0.08342121899827278, -0.47793892194719606, 0.04552777996395929, -0.005493751022881166, 0.6589885562727564, 0.0018100494967126883], [-0.08890829908738357, -0.3046203110783121, 0.15257796090922682, -0.0030295182758633063, 0.08846312682438294, -0.34306575784672244, 0.18045365580301506, -0.4447112694265261, 0.06351736579861471, 0.27070168713486126, -0.09884104841515778, 0.41897372875946587, 0.26142880919660194, -0.03944001905233109, 0.1796912125475698, 0.16207265541702556, 0.061366402390948295, -0.43849471269354634, -0.02742231745486518, 0.056702653723324725, -0.20238833511090723, 0.17976345671228652, -0.17136377687216944, 0.07951648981844132, 0.3607234756077228, 0.4030128040494688, 0.43225340918525446, 0.40971117819523206, -0.025469930851812577, -0.3538964788881529], [0.08124511625543707, -0.18943574874577776, 0.06995041335763612, 0.13428158662766082, -0.01615898828497071, 0.07439202154493336, 0.15671933388579487, 0.4404817168341627, 0.09057300903814684, 0.02794515981963376, 0.16329667659050523, 0.3459674359334653, 0.12854169358760367, 0.13437142997327273, -0.14107875255393132, -0.31759116703907203, 0.17662979650142646, -0.34703137766023556, 0.29041863168669696, -0.4729999918218968, 0.10453518328450606, -0.11718697653067027, 0.13063551057926473, -0.5593504224144289, 0.5566906699438194, 0.24048151914092955, -0.12358858140035095, 0.129770272985195, 0.04679399350941037, -0.18017957532506076], [-0.0055739479916131944, -0.19615092785874105, 0.14868488480477604, 0.1315693218669744, -0.3702706832650496, -0.1331893122714669, 0.07329847490306361, 0.2643659910702411, 0.29745550074097804, 0.03730898757965416, 0.2464409624888666, 0.0009731366675831416, 0.23251011910659455, -0.059058124069974315, -0.11055710664716786, -0.29647276902124375, -0.14378696152951853, -0.19085156731741465, -0.4190617374721803, 0.16190825207422505, -0.025456264240280326, -0.19203917114673083, -0.4039676114002643, -0.28549297880655544, -0.32156325602414804, -0.10289995433334823, 0.06944427598651644, -0.28809915131589825, -0.2535120741632549, -0.5922318520094761], [-0.06782973225060406, 0.12068245397735973, -0.1436235952281621, 0.031575631700971316, -0.21423186233182412, -0.15244133453542216, -0.21156309311857688, -0.08144655475961689, 0.12752182677293675, -0.0634788981395713, 0.3242424608877787, -0.0620698445066259, -0.57509565916083, -0.01842271674331265, -0.2382932860956894, 0.19989607279569171, -0.13523291192734493, -0.11392919756963524, -0.32845420060841685, -0.04790013006633596, 0.06403614258270307, 0.18324636413308618, 0.13325343289675545, -0.3214109433295979, 0.09548869783691609, 0.5367993560356866, -0.019538991655947524, -0.19923164696661289, -0.019282180418616422, 0.28520992912282245], [0.08476357842997145, -0.002473730947781984, 0.2019631385153484, 0.29188848380030785, -0.2238014296872038, -0.28101855135615705, 0.4004511663453224, 0.13283469391551447, -0.01831878413507094, -0.24350085913368083, -0.03110622786953591, -0.11248284512248931, 0.37186760364011634, -0.07693343382924536, -0.06593483481057981, 0.31089007735970087, -0.08476481653515308, 0.06717786683418207, 0.06239877911326406, 0.13606814483454666, 0.44441311503060493, 0.14453739969576979, -0.08535501586025201, 0.17390092334769475, -0.1603942156705034, -0.016140054493401477, -0.12273310800630406, -0.34615073855570705, 0.1897445155317819, -0.1766639014510152], [-0.029745051829113803, 0.29653449214664956, 0.05082442681769398, 0.1369833419059525, -0.09707424163843255, -0.508497084344291, 0.10036650232420208, -0.128925279156039, -0.20278613114231117, -0.3005169736525501, -0.14751549886636045, 0.14930942649537007, 0.13735319373180496, -0.06793067383283297, -0.04988536348408728, -0.12830106215672055, 0.2948965418163463, 0.19020729377945403, 0.14341689934815763, -0.16241451711583144, 0.11152679243836996, -0.06216871455288993, -0.21592047331643366, -0.0053397808239739036, 0.3620245403082332, -0.31388796060493146, -0.43047436551010687, -0.15789630561720897, -0.4374492520103985, -0.05609955957627578], [0.04628672944991737, 0.10390732772677509, 0.38886504389850995, 0.12551057143587127, 0.05013963303830777, -0.16475155534610345, -0.32777680115230895, 0.184064385515376, 0.14529831526243434, 0.4900576192689836, 0.15374498711252613, 0.014247192522306672, -0.06534929734539655, 0.17984775416825882, -0.14141699133208596, -0.23125882032503703, -0.38323137497022214, -0.12978953617913644, -0.4132432047655692, 0.2771647878893539, -0.3960454498894136, 0.23529734930699203, 0.4807769832526031, -0.2862611012184259, -0.0011382040555140156, -0.09031554402371722, 0.04089447726245816, -0.237690781167438, 0.14831315588206978, 0.18326890148435873], [-0.16139546589896003, 0.11494173059463555, 0.1345897701863148, -0.07935969473607195, 0.02785434651516653, -0.06051136372900882, -0.39013646538313, 0.10899336421155821, -0.02824858843501141, -0.06416603192585017, 0.016008824700872854, -0.18877294876935183, 0.30084906632589653, 0.2058400456275736, -0.34142129347914807, -0.5545879150915524, -0.0828203452756001, -0.008281425183257148, -0.08796778678256773, -0.10075273796521113, 0.24707269212521632, 0.25988435592519415, -0.0748462315533252, 0.12527682598027992, -0.07780066458789259, -0.0841349684995388, 0.005312117884696264, 0.057894618116520136, 0.161810452494448, -0.020030646105307713], [0.2722059908205306, 0.024968660518331447, 0.2678181264606187, -0.2881795210104611, -0.2831362294273287, 0.17355481968978317, 0.18920087494772347, 0.4322686922399858, 0.15270215123349545, 0.1816722444874469, 0.2427430800053929, -0.10548277134057121, -0.2318285568179293, 0.3907260962678555, 0.39680824024854827, -0.056714815516905645, 0.31621993216349853, -0.17533730395398847, -0.441859773247028, 0.06831816884762772, -0.1232653925734274, -0.33718082585132597, 0.4645508472394441, 0.02241434994025878, 0.3412941499016024, 0.1854091191020604, -0.5239044829374686, 0.08579074678207456, 0.22120583323917445, -0.3036815788222317], [-0.284916971822775, 0.3187413602269614, -0.21841919324491818, 0.08441017451516653, -0.23521155211952555, 0.1818838263888729, -0.25643780644292086, 0.22879358105092074, 0.007658482738623177, -0.25093210300529945, 0.16274111565859256, -0.3721414439189486, 0.5326457085233234, 0.42962247115067237, -0.22321193404042147, 0.20533782969419434, 0.3049108305425444, 0.14162990172248333, -0.1497905405086946, 0.18203465902881893, 0.032413888078592155, 0.3475020952652494, -0.008338562907405516, 0.16680015665486514, -0.035485879596278844, 0.14916509891345192, 0.022395677907922542, -0.353163852422012, 0.15659712203150783, 0.16143749951977718], [-0.16551339190980022, 0.07867707066979636, 0.13745071572152276, -0.3164039223841528, -0.0031989632018512956, 0.3481199695004574, 0.2117472779653619, -0.3488609875142397, -0.4273971372895822, 0.01082942547620229, 0.281852617398694, -0.04808045116151602, 0.2747659419094201, 0.03642161636017419, -0.238493469255852, 0.04104707644736327, -0.20426118639845128, -0.16387772163014297, 0.4217161892842254, -0.03611578240975272, 0.011445652532598237, -0.06479354323044162, 0.555209351180049, -0.1502285747577589, -0.375732996313931, -0.10988884711418992, -0.2010782707956812, -0.23483291732276465, -0.15261835397569992, 0.07288091843688727], [0.4206478324647958, -0.15009466134309044, -0.6657562273669276, -0.11929793513207537, -0.2096225567279767, 0.12826812769721616, 0.14501169161590027, 0.2739231373560218, -0.3002587572385316, 0.11708687153274462, 0.02182266052221673, 0.0776049357156431, -0.06804399910550347, -0.020487139495727752, -0.031865518147016526, -0.4461706027597501, 0.363547739515222, -0.11599392348882696, -0.39124610080717553, -0.05894257974679933, 0.036665674871258346, -0.00593424018395397, -0.01827896697078158, -0.029872028634324664, 0.14580407212298296, 0.23935038935799718, 0.2558168194726717, -0.22093299701209373, 0.05434528048101426, -0.12204526657360526], [0.11479507847661952, -0.3255076224619504, -0.13246933095839702, 0.10313867741901003, -0.20070084681823366, -0.20643330712582622, 0.31498291823342267, -0.0107387086139549, -0.37983625975974256, -0.14846378120031162, 0.027109933405796593, 0.17628340148019025, 0.35167959673787774, -0.049990741750665035, -0.5795348601437154, -0.1266077020536136, -0.314393115302089, -0.0653475130585683, -0.08438090684793159, -0.0922604394343392, -0.07168077390123291, 0.09969820782478152, 0.15444290397742313, -0.028827354161470302, 0.39304371788296455, -0.09288676597949953, 4.559889772619007e-05, -0.055983391569580036, -0.22449677106706342, -0.3118193793897889], [0.029874036796968578, -0.23166160846953532, 0.053709883447170564, 0.1666509973001857, 0.08413743934555434, 0.42153477011545637, 0.023122095609179154, -0.20584868742499093, -0.039763752850077945, 0.35262711410168956, -0.0022063260148479876, -0.17965270498329794, 0.06639509141090265, -0.2124952803567892, -0.2548308449432613, 0.4099293697135593, 0.1329027763096253, -0.1038499939090141, 0.08161451468298919, -0.0017336496346729389, 0.22490762924274482, -0.32936933623513587, -0.4007752624048272, 0.2126898712599405, -0.5146317156556725, 0.23359848426640398, -0.10408267695371742, 0.10961702745672479, 0.07319240302346637, -0.4906131308870444], [0.2897655582308951, -0.15778672811024277, 0.27599943208742594, 0.06803814561747683, -0.015023900932600889, 0.173598481997016, -0.08212969690667969, 0.1560481787962672, -0.23067127707672194, 0.39664051274911155, -0.15829078438569874, -0.11597401251639064, -0.056313049853006975, 0.4845304316981359, 0.29602142486579214, -0.016037102064442966, 0.3339165892090416, 0.22631005091145573, -0.036054173375170674, -0.42591123411533394, -0.020917185693786144, 0.4885579261827929, -0.03180659051557389, 0.06180659392719942, -0.18578857928876807, 0.017284000788056704, 0.08257669400286345, -0.0156766299194827, -0.4046780050274952, 0.0001082105501123484], [-0.20018367181249713, 0.16220944413670113, -0.0018463952489461532, -0.0660798613177642, -0.04326887195645481, -0.23213037507926476, 0.41377767351716715, 0.38831295922902537, -0.2939306519870018, 0.12728005141015844, 0.1934581015058891, 0.026984813876697128, -0.21620973409890268, 0.0318103964421207, 0.03208779612368062, 0.095292045732474, -0.20592575560787527, 0.08088212156714773, 0.09839328133083222, 0.3685840996696308, -0.17540048991260834, 0.21484773277007632, 0.08346545886683993, -0.03841743072260924, -0.14761765019420334, 0.270553646373091, -0.258652969019159, 0.10481167574944025, 0.19295676387503416, -0.19738908369438413], [-0.2840875996094002, 0.25108609618532046, -0.2777208054926344, 0.24508171238865598, -0.09008222461282245, 0.09625986471154349, -0.0443727250014143, -0.1191378915901979, 0.3681228879729338, -0.3198550975329124, 0.3055708014289076, -0.2865599303862387, -0.09077264130781308, -0.2597954808715433, -0.3198145961487405, -0.26242764369309746, 0.38896319622812453, -0.07731439213803658, 0.12228164726578199, -0.18070793656814882, -0.007185091087644385, 0.13425153837926337, 0.37807274939233426, 0.3469427287260651, -0.3294090619197802, 0.09868066627080116, -0.0427079552581629, 0.1049532877408955, 0.2012050951762741, 0.12652246653783583], [0.13725373806776534, -0.0649382303759164, -0.02899679791618592, 0.4523739904278418, 0.1936602096264665, -0.09598627299808911, -0.2547664056816089, -0.09507761030410329, 0.14607541975279303, 0.37316130285484883, 0.0339929077471913, -0.08043061487185042, 0.15170464709379747, 0.017055552900258442, 0.1459674967349139, -0.15324354259718304, 0.3128067058306024, -0.13170545639778258, 0.5627754401640064, -0.21879562787898943, 0.12761281829414628, -0.3224000996486223, -0.07761447698170136, -0.3395589056093905, -0.2652343052999099, -0.07055227626688255, 0.3998160583031489, -0.3153623083355358, 0.12852239113647426, -0.20312398822640135], [0.370149442525937, -0.15214423227749926, -0.24610438167481719, 0.8088514577093343, 0.20768447371566703, -0.16244089064405, 0.06140625827908917, 0.15076729800912042, -0.01191645262480478, -0.46383598485998384, -0.21189684461093036, 0.07664801795861498, 0.14237137412720005, -0.353857236433706, 0.2952122875282886, 0.03849559878758938, -0.3607858036562905, 0.1655064492070508, 0.0129884827903145, -0.1897238495681054, -0.23704962560145904, -0.11523713237384045, 0.40505199147903165, -0.01954517322185151, -0.19877100607700407, -0.11610180318227774, -0.29265234683897484, 0.46352769140414285, 0.2568493182610513, 0.19205711624127778], [-0.4126868782882254, 0.22478948966114393, 0.4544705785268736, -0.18937810687848705, -0.4239238776524937, 0.06726824042878815, -0.2995078371916677, 0.21374784416611747, 0.11638278879982396, -0.3349037451857355, 0.5484883104131026, 0.044430850871036064, -0.13774171407024793, -0.4054939539364212, 0.3775292921624459, -0.05229657141034271, 0.19048352865570248, -0.3002668193428475, 0.3133508062088002, -0.008822930044640777, -0.3620212669900098, 0.1742842045879967, 0.1546049251301999, -0.30894759775589914, -0.051910562385594015, -0.08542857030769348, -0.015828284543493314, 0.11771520413216545, 0.018754307973175035, -0.2836165344478465], [-0.23247482980101528, 0.2835624491977418, -0.05381856087790894, -0.0016744770856893835, -0.16146161391573793, 0.09636038617061647, -0.44078758070078344, -0.24098655812348294, -0.038561301423395894, 0.20107524753161793, -0.020347262524310034, -0.13047907332839268, -0.01479856402926485, -0.11763534207897741, -0.0805091226840469, -0.0588897359231098, -0.16140737774876307, -0.3422156385009739, -0.021580904850583966, 0.1547764538968653, 0.2535949818367044, -0.08966749333876987, -0.4178025410504579, 0.10920448382727739, 0.12527907856426201, -0.08795529035077325, -0.4974916965468145, 0.19607863893484515, 0.35475007330700997, -0.06975307975805652]], "B": [-0.12471566505334147, -0.31098748069379695, 0.03758034820864189, -0.02530263241943156, 0.13609587610345578, -0.38422374294647516, -0.2544659476141185, 0.10562857686378795, 0.12119073101324813, 0.2783093038497369, 0.22480446985112723, 0.4216838535389216, -0.21287687679439293, 0.16949395619287508, 0.1620833008192453, -0.20356454501041957, 0.28311657509190347, -0.14243592693839202, 0.12136275144105144, -0.04029267184777929, -0.2163860779100627, 0.20129291197634877, -0.20654933682503995, 0.031525352219933474, -0.12747224073043592, 0.052834457697813475, 0.4577555017493632, 0.014707231534549862, -0.2746148573952867, 0.17357892381494494]}], "mae": 0.6045808144112423}