{"name": "ej1a_id7", "layers": [{"neuron_units": 20, "activation": "tanh", "W": [[-0.016692791171503248, 0.07510904409435845, -0.3539074686217535, -0.11809154507669893, 0.25891512258719096, 0.18871031267795474, -0.12942938438293866, 0.05912934722698817, 0.206726302046706, -0.02281303266470598, 0.0896107278524938, 0.22316609526323394, -0.037948400326865805, -0.05826566658592934, 0.17127157534243717, 0.19956536730076713, -0.19960886745279918, 0.05053307553453121, 0.3010441051629512, -0.019202200093655284], [-0.04836111553172528, 0.43490472838971755, -0.016595824036997563, -0.20706952072401197, 0.13169812819668103, -0.017605454029494594, 0.07594131009307907, 0.042455004601677705, -0.11539615254275148, -0.0038897546544333856, 0.09425614596729084, -0.18031186260003573, 0.295139524567439, -0.07870643290123913, -0.22598617107429278, 0.17640528638161262, -0.34829446393125585, 0.011904246836923657, 0.008827719680709284, 0.029142027400506778], [0.0946926624338329, -0.37971707803769345, -0.1955839719667317, 0.037855936215296815, -0.2250239396148958, 0.06749336651813959, 0.2328301647675457, -0.05942225443157901, 0.022031786254139905, 0.12214685155097568, -0.20472927006304356, 0.12336078948768686, 0.18128408924113043, -0.24970645078509962, -0.43611129375176655, -0.08246100528238379, -0.04307759624769125, -0.256548153710815, -0.08432881638281133, -0.3939024556973358], [0.37697083499690043, -0.045369058043497036, -0.1872895854720227, 0.10526935442974424, -0.18791514337315685, 0.3505362004099002, 0.4488400549947917, 0.09495324831363101, -0.13964990320636295, -0.3095551255054942, -0.21993936819463258, -0.08784037193753164, 0.11718065315416608, 0.1593814147644006, 0.06832553655877939, 0.3454164289194532, -0.15772661409917169, 0.1337659688707141, -0.010340185082175294, -0.2359763071261681], [0.08366609635469197, 0.1755621871200473, 0.11753515184175087, 0.19519300463561018, -0.21924374582434036, 0.013363354423162712, 0.06904877484278842, -0.25782636535205694, 0.11876373946727697, 0.27789279051599697, 0.05412879182551296, -0.075103451467919, 0.24292006286817242, 0.1922404441978693, 0.3073943758410164, 0.012980981065908167, 0.10382852736383594, -0.08300021573078042, 0.15646492100729442, 0.038367606479223486], [0.029000200919066917, 0.09824693655782929, 0.12161478309430679, 0.20591303904018415, 0.25530187049162967, 0.21426478317093167, 0.24062221009464252, 0.09671468085920905, 0.09625541485599182, -0.497155986931818, -0.18062399641548563, 0.16203393493458862, -0.28157541743627784, 0.20090316303942674, 0.048956553769894884, 0.22888497194134177, -0.1271767784361297, -0.3426667429811719, 0.2723266972298568, -0.46605109915694526], [0.2879687325008409, 0.059667347127919844, -0.10329949235955868, -0.15621547259462087, -0.2642511571328592, -0.28139265779385847, -0.10664908069723116, 0.49711039181786654, 0.08993937109043476, -0.03174040515806621, 0.11310188481761446, -0.3238889889375166, 0.04019160367691556, -0.03448124876036775, -0.01287977219639435, 0.17639749147905498, 0.3843219342518882, 0.20093115166669215, 0.06882668489377185, 0.17456781278801084], [-0.24617156534403659, 0.30174400469034873, -0.04039471006350365, -0.12599030551575344, -0.2131289219182249, -0.053196660818736086, -0.03425832141183244, 0.00572142504314627, -0.016994821526731586, 0.24436664111916598, 0.33913261351907065, 0.05756586435892762, -0.1439096676172847, -0.1766395028797012, -0.5364418503417888, -0.2885599495518489, -0.2509219725274142, 0.26666974935674453, 0.10862329005929967, -0.27201101610394723], [0.08799692312805771, 0.2367595109926874, -0.22389664043731752, -0.31875110623249064, -0.14828425434557369, 0.0291269719701309, 0.003845474269108984, -0.250453081282327, 0.1161704852035319, -0.021495427027641192, -0.12511528475300313, 0.11805068226650905, 0.14501888277817698, -0.21417687713378203, 0.08709689779289066, -0.1379342536131014, -0.19147442329778772, 0.14127928594430336, 0.10129689621419159, -0.2084530083627358], [-0.12357479409484556, -0.05242015908766615, 0.24544035325273747, -0.42876850261196925, -0.1375350915201055, 0.023005196024237062, -0.09162976460616361, 0.2489553546069761, 0.04528040803216102, -0.038637005591955126, -0.309468549064541, -0.21621302366791334, 0.19320720966212362, 0.17903411136563435, 0.3682160037204197, -0.41797474353019565, 0.34584897256464675, -0.05457016106886001, 0.16036454035982506, 0.11345168529408266], [-0.30067827863844476, 0.4061632529831824, -0.27505978978207524, -0.2197289685347399, -0.148034228066949, 0.310844005939079, -0.03559842417347708, -0.06975964044809448, 0.1204578493476332, 0.162871982548125, -0.24552077835528582, 0.16323415450051448, 0.049114553657666524, -0.32493927564369446, -0.09542716852306658, -0.11823305596520953, 0.10919172106761094, -0.1958038616625257, 0.11870155737917022, -0.2134683991522017], [0.2789671467992576, -0.1806589665661357, -0.12161453314663839, 0.08706261170270711, -0.054670721545341576, 0.5428364653020475, 0.11922299527084106, -0.28238707357187376, 0.06547281336438684, -0.08704728410484361, 0.02808313650250223, -0.1289125062653358, -0.12027915948354072, 0.40889049027064045, -0.05028763484355264, 0.1553647769723358, -0.4048923444256156, 0.1499845303751647, 0.2128659276633612, -0.11743840892255382], [-0.18627761653843358, 0.15983905469503698, -0.272051706232065, 0.12302632514069181, 0.4637038800416484, -0.3937552599370068, -0.06165067939793775, 0.34400092571810126, 0.17857533838052386, -0.06493762709063755, 0.2688917169634303, 0.2563510122608532, -0.19094682937947893, 0.19084609765117627, 0.04455564251872633, 0.45191753590612455, -0.0619005698345364, 0.18729667923657264, 0.13723037341994943, 0.38498375598012174], [0.3145260858530028, 0.18153281610209995, 0.13570759363007687, -0.13955439035360107, -0.018365536123163856, 0.1344686517863805, -0.3172569409848423, -0.2030302972470845, -0.14123325134038328, -0.14556695370472525, -0.10071791736468505, -0.08738889340735617, 0.32968904822355377, 0.14988646964556018, -0.14498580533023167, 0.5287414139099711, -0.17587111534418823, -0.04397474864628627, 0.1029670405285482, 0.15248115132328602], [0.05925699869978309, -0.08377553950963759, -0.2715702634431073, -0.18576661748018397, -0.24529002806667022, -0.0563866931776667, 0.10145801974801301, -0.253396569412062, -0.2791011902274681, -0.26904494511658966, 0.025292995917019362, 0.25393522722625517, 0.3273438362903465, -0.1186076326431553, 0.26435634707390315, -0.30838293715735027, 0.030002720005995846, -0.18883174413689804, -0.20118165458137838, 0.1375830635439134], [-0.17782474672367368, -0.12474921829516075, 0.22120742560741588, -0.1792962855778052, -0.09044950482464571, -0.03917160245666283, -0.038176985305258745, 0.47800445605474795, 0.2983203927455898, -0.14427017682048318, 0.3786369717473357, -0.023596448706995826, 0.03976005135398476, -0.08697990075668194, 0.06771296318248317, -0.0569858647002971, 0.2845375175845881, -0.11500883762289166, 0.2279693962634845, -0.06177718348324778], [0.2679280024637385, 0.04269151254963998, -0.1686673879956955, -0.3337969745328809, -0.4316340529546322, -0.3016648283875851, -0.07480539802136106, -0.049754259701435176, -0.3571598512098559, 0.2066814422231321, -0.2937772212040983, -0.15321353594565384, -0.11508993479949396, -0.06381954016017176, 0.1054961553222419, -0.08429202179512119, 0.01331543692965976, 0.09986373417458733, 0.15290148889976418, 0.10061880829927992], [-0.08183929585705782, -0.08028715455379193, 0.11765392548630813, -0.33180492011997603, -0.14370165366876952, 0.327112066699654, -0.25572803044474, -0.30297793428821784, 0.019827873874180554, 0.18633080086910467, 0.07275107736636008, 0.46414663878793194, 0.1440402520315554, -0.0116872546165904, -0.06740547946688773, -0.13115007326709618, -0.17381039524532618, -0.06406908340623696, -0.04159218769593752, 0.22780533832941022], [-0.1705328338221955, 0.16283614071175032, -0.1086120743775773, 0.3134745998279355, -0.1681450182471238, 0.19925783141316727, -0.11261511579870186, 0.39710452332578094, -0.17396070296749294, 0.266536848121599, 0.028318935522856525, 0.0700091564723716, -0.0809352683219031, 0.10497443058491829, -0.28897386961514054, -0.04772216331765599, -0.25857387300401335, -0.18722923989775977, 0.0730410188091876, -0.14199658845676624], [-0.4342771252252523, -0.10896304017486438, -0.14089421597901855, 0.05381218235854071, 0.19985601713139084, -0.16508718299938901, 0.17513389736279283, 0.12882228971860904, -0.10346258228256616, -0.08771306197765508, -0.04103746471748819, 0.5514536176257896, -0.04346672264896394, -0.15026643244303367, 0.2990129343905064, 0.38669033127173663, -0.20133408955254548, -0.01146021408749309, 0.06993561035064706, 0.07135254013756935], [0.1746811474514365, -0.1621099999546243, -0.2210033718014017, 0.21327705689551474, -0.1212833855854686, 0.09114902261990282, 0.0012607787432439357, 0.03332588127657691, -0.007787941401958025, -0.03313852532022275, -0.06552619789981208, -0.0766483069278702, -0.03443447447009168, -0.005375704457778686, -0.15461451769642767, 0.19751072118986113, -0.2032075874671254, -0.1256991242494386, 0.2647736535676507, -0.041205513905909215], [-0.03061263264504817, 0.11305283413966583, -0.39465732278929644, 0.08191816157880231, -0.11663423314954281, 0.11674005293259493, -0.26440108634437426, -0.08567204698910073, 0.14262661715396513, -0.16834611779578854, -0.08189081744336327, -0.2398693818390427, -0.11467124115148004, 0.30468919087806506, 0.039943509707431185, -0.4374614096800909, -0.2234937851615785, 0.43980124503288737, -0.11744725434525709, -0.0763735004727034], [-0.061326966400817175, 0.10666603126823274, -0.3789225643219829, 0.03639256566900173, 0.18223968059671275, 0.19021560562092799, -0.20029319524198158, 0.0975943288834245, -0.000632247433633849, 0.22582139241052426, -0.21658081730305137, -0.32172035427732293, 0.035643995563875416, 0.23602478458681775, 0.35107107526630493, 0.05928011467905273, 0.018903397673025873, 0.01877584803027049, 0.17101788273099472, 0.09422411495503112], [-0.03612310317889889, -0.1119464552088422, 0.12255848243182173, 0.30743043400258513, -0.19505318947659323, 0.18685697031584597, 0.07272822342594747, -0.15949827161838798, 0.00012984587931224318, -0.03628258115264382, -0.006643121273197476, -0.04643225750594614, 0.08220469923505257, -0.07675517920900612, -0.14038007881776185, 0.29378390359149936, -0.09471377122980348, 0.06676703539546511, -0.06341873764810298, 0.0003518979459516295], [-0.11282285286764188, -0.052876842175388246, 0.1710081527167522, 0.17730543140059846, 0.09538679234280857, 0.09984996551026765, 0.05890578352896991, -0.1771752771176479, 0.014012335789733288, -0.33238533908973694, 0.24593620598649485, 0.1329510425706052, 0.015285836693846002, -0.012611792043494175, -0.19862403564155354, -0.2990790675056178, -0.0853107468989224, -0.3755852080705961, 0.25827165777321737, 0.21281426288438895], [0.2323004437740848, 0.0536064103300351, 0.2646327815464069, -0.14320983989307745, -0.3823738543216155, -0.11975604827437239, 0.05879111049932069, 0.09240053413256309, -0.21103009991418226, 0.3499604860391144, -0.1816659147757623, -0.42973669427464356, 0.36369113863519426, 0.39249591274370205, -0.07748041311879893, -0.1153087688634774, 0.06113072989169546, -0.23004477170580048, 0.00019729777037712313, -0.14829397078139187], [-0.03017204845894629, 0.374954409495635, 0.10486463658405704, -0.3384506317445604, -0.05403893472932799, 0.08480461495748814, 0.09518766772699251, -0.21151890434936887, -0.1486252823920166, 0.060317644035492085, -0.12075416099904619, -0.05167431670040158, -0.2283196745365097, 0.09482819810742629, -0.08797222770626707, -0.02207900594043849, -0.047274163154592735, -0.2598362526056459, -0.17004597258831822, 0.20665893315644282], [-0.17740099959913394, -0.11758698755915123, -0.13702602619421841, 0.03291821320573354, 0.007328940006654439, 0.32370913159483594, 0.11406374145624872, -0.02559577932531586, 0.2603859239886553, -0.15611794773952084, 0.11197599229220725, 0.28194487346735, -0.001885179033916737, 0.11095259469996455, -0.08781125856516715, 0.09158860930357351, -0.07176430736200265, -0.1500702855706794, 0.3503949405172725, -0.13290688893999586], [-0.18224865981199398, -0.0891800723927747, 0.04308101490802377, -0.15158826252893548, -0.40192815433806284, -0.29165314530586894, 0.3396890529592939, 0.039249296434596743, -0.17596597593900376, -0.28738978661971254, -0.3450270160551604, 0.12038935635665676, 0.005523287128036496, -0.13902566168638691, -0.09958521971247351, -0.38710733535408354, 0.05221152791483871, -0.010647419488492042, -0.004155403091825057, 0.09071336212540636], [0.09032837469764224, -0.4601207044032915, 0.12061971391904709, 0.14494570992954853, -0.014752314683534948, 0.13340769592249113, -0.5139268014385913, -0.027279972669007866, 0.17845849917869494, -0.05777538636776512, -0.10883553794476791, -0.1844616371338451, 0.2801289939764266, -0.09017557752498609, -0.012308181579454312, 0.245325901227274, -0.3892764936253654, 0.2546688827059436, -0.021058656954012607, -6.117240781053849e-05], [-0.014271224260205386, 0.018449906294245224, -0.06296567475498427, 0.2260800525547827, 0.060658716814248045, 0.40392194496753675, -0.22225418134716074, -0.08329064636301349, 0.18646165338065568, -0.4412246029118047, 0.1884522795792787, -0.10841601293934078, -0.11905939132151623, 0.044288786562977536, 0.006506286466788692, -0.14163337793446823, -0.0038896020542532115, -0.07838447636070692, -0.2526715165706058, -0.19143942212750828], [0.1685201675136144, 0.06982519464197365, -0.15761561410432726, 0.17582946281027112, -0.5602984607336341, -0.031252832148867336, -0.011867853432827544, 0.48432708452411655, 0.22082464523028567, 0.056280895448408017, -0.5382591198299564, -0.3579645285068306, -0.06175651544136747, 0.13982251745286733, 0.1889137053564461, -0.08992508693758575, -0.170354495771969, 0.05708842855465569, -0.3512321681697268, 0.009156567566029606], [0.1252609920243743, 0.058200903345042555, 0.16975500460410795, -0.03694877894165796, -0.14112278498562186, -0.07546815127242654, -0.06422924263442424, 0.5148098371953683, 0.3996324059342126, -0.08671042475387061, 0.21959612363692574, 0.043562408320983195, 0.07817654740187129, -0.20821255131912436, -0.12370398624305316, -0.2639076682789408, 0.1347766224850517, -0.10850943172542929, 0.07109445981651634, -0.14897615670585093], [-0.40207437417510505, 0.21953834127829516, 0.16971479161173533, 0.20672093128569602, -0.12369966540049333, 0.05846322579260255, 0.037930224984625796, -0.29555794157701454, 0.005299693938771114, -0.20549075174855327, 0.06965341395297772, -0.37134719248282266, -0.14270523378069006, 0.28890352541967373, 0.038337179159235374, -0.3210688604879433, -0.0655200313183489, -0.022146072086483004, -0.04535062088968246, 0.024949673787228458], [-0.38421171688416467, 0.2515936686900888, -0.2586588189515539, -0.06572345427601868, 0.3201555094635984, -0.0702279308546842, 0.08302504349727781, -0.2939205941550015, 0.04647895801330769, 0.10203641718433942, 0.13759810354964017, 0.14100535518167512, 0.08368389025805502, 0.219765185246104, -0.1577367890385428, 0.31045543559354977, -0.02770400732103686, 0.059918093044827106, -0.060501190112222464, -0.1192150491229211]], "B": [-0.30906215347564503, -0.40893356042352086, 0.02908714060761962, 0.29371068009659046, 0.0005864570479914619, 0.22639318319150903, 0.08754718387751102, -0.014535757944824396, 0.06697432955261579, -0.2022217527552895, 0.004209132765920335, 0.1021331776267522, 0.10190274674038823, 0.09904002384087876, 0.13195173698981363, -0.39063191316488316, -0.2101495118327393, 0.028294116869356362, -0.003983257723816123, 0.038920984478046074]}, {"neuron_units": 15, "activation": "tanh", "W": [[-0.1855410907457216, 0.1868471056507506, -0.048851833463708534, 0.10244514450005839, 0.029021017348648325, -0.13581884537170408, -0.22598962665852024, -0.12321799096975068, -0.38556930603883416, -0.04784910435409597, -0.2808664195781765, -0.23763409488704543, 0.1319150064120735, 0.1876654348148984, 0.10423046327057395], [-0.1629873340279822, 0.14658554700019846, -0.38998291003237023, -0.30249616475491437, -0.3747329620598963, -0.20143054456185155, 0.32305913961097793, 0.5875121844293221, 0.27907905688539836, -0.22525721293876788, -0.25204139483471966, 0.11715385585639564, 0.33713537952570094, 0.2376298957020126, -0.1705333169388164], [0.1278121779395886, -0.3286644962734595, 0.14377868276394482, -0.016110740163190907, -0.200494962188691, -0.0392051359444413, 0.07155586888341224, -0.14454502722464588, -0.001344653147618668, -0.08923694598526521, -0.3331822917967015, 0.26891442755568246, 0.247717402947874, -0.1346431364127831, -0.09597378820031686], [-0.06186128391554937, -0.045094084274208114, 0.1514120465111694, -0.4779884784350746, 0.1679405373690217, 0.01977680812491276, 0.03549799256159434, -0.2138768806129743, 0.09661260070606069, -0.33711473174005535, 0.1317309387630168, -0.1509520454673975, -0.10939385063858577, 0.06943456318789322, 0.2803177926041244], [-0.17041810265069895, -0.20152275483833676, 0.2411426455965624, -0.5070527858694481, -0.2839997447810567, 0.21041545801055278, 0.04318791935405784, -0.14466655225255864, 0.1456060302623034, -0.1719601304613896, -0.17757854407487156, 0.12664020000712475, -0.03824773727838982, -0.12879574090019993, -0.008024760395079787], [0.2253522779812419, -0.07414607101840187, -0.5725229421684059, 0.17708913369461063, -0.29833922940277924, 0.08505759870716362, -0.1270628761417553, -0.05962698407597642, 0.1128801818141825, 0.3594859190379621, 0.3109138156546491, -0.13474525186753622, -0.32872093989800094, -0.4308346887303452, 0.1453672622278157], [0.1421187598563471, -0.047483852942214196, -0.5251363790791326, 0.0012123596215629824, 0.36317492044616445, 0.197388633041714, -0.38157337830499316, -0.29196781526567445, 0.37216608108648724, -0.28866451989145064, -0.43741417706770247, 0.29976014347020025, 0.017467502000968832, -0.15468089282681785, 0.036742701331207286], [-0.0728985827649927, 0.05627129543075045, 0.1657196034621736, 0.20257083211465163, -0.6019320629273041, 0.2781013869477065, 0.560101193420333, 0.30870458811741947, -0.07890687355921476, -0.18567640728836735, -0.3350594105368438, -0.1401287949278535, -0.2718367050057893, 0.6952233043043461, -0.3244634636491876], [-0.20593620443905122, -0.550496409449501, 0.282449904402686, 0.0014121356217428247, 0.35781907390450673, 0.15114380061285201, 0.22352386942115715, 0.04066369042674518, 0.09900757634371495, -0.055182710122516986, -0.22286843512802076, -0.022310439948905882, -0.42742504504987955, 0.26054992115839615, -0.20517732069673494], [-0.24322123032092133, -0.30537182982914673, -0.06427773087184016, -0.10762845398209257, -0.2254373411780562, -0.41165821035270794, 0.2557695652628953, 0.23107713987464223, -0.18300833012326348, -0.16588369833439173, 0.007429026147580112, -0.3069984127872134, 0.2429626915693987, 0.18917266139537692, 0.6956246443734541], [-0.47742369469621143, -0.2268154200454932, 0.305811824728169, 0.17350983045573312, 0.3022995400652037, 0.3352711262170003, 0.21442960152253313, 0.26754815105872276, -0.5837068863064842, -0.3496094129093786, 0.04841450999167415, -0.12524593608034765, 0.034695952770064285, -0.10497202936867484, -0.2066778049384471], [-0.011364884853010567, -0.15217847983986235, -0.11065678652268607, 0.16964701574754001, -0.09940780598455873, -0.397993924000859, -0.06901773412787073, 0.2624028477372065, -0.15203332238552944, 0.05596210863576704, -0.5303111291448074, -0.24564901203648648, -0.11998882557377587, 0.43633838836053823, -0.11936639512606863], [0.778935101163834, 0.09029648826871031, 0.1439306233336961, 0.03913503563365313, -0.12512325394210466, 0.22627218669316765, -0.09347911867712652, 0.04226666837714442, 0.036189383127617804, 0.3826877188036441, 0.1615134351313344, -0.2688738509745158, -0.06600526506661432, -0.3506811422411679, 0.3140228950085426], [0.08025176979365124, -0.40668689441192973, -0.1309537061824516, 0.2823962415621864, 0.14379935676776695, -0.1267950358820862, 0.25647633367072603, -0.025634919202616645, 0.10598715949420293, 0.1945403243529226, 0.42968671614491566, 0.1807281790758311, 0.05439917500393571, 0.5886896948585099, -0.2152238988298556], [0.26986853403443667, 0.11301947291486787, 0.28686174842641504, -0.18485393768186642, 0.0758681646586453, -0.2768545564954327, -0.39647345938421785, 0.024965833766858347, 0.4508750724637845, 0.19313377612066637, -0.3224166563869836, -0.08754853998100479, 0.22904840299146775, -0.08195062805162649, 0.1732465089107695], [-0.17947091657048872, 0.0584579047604723, 0.48782716466428144, 0.11224525868854406, 0.3013442487121895, -0.29119313161338484, -0.11880685539253914, -0.024984164993336017, -0.1404703117790799, 0.14455067304145366, 0.06095850477093936, 0.3870771810706782, 0.02103242954480152, -0.2533204589980422, 0.1346056934016535], [0.449634444522042, 0.27578675326805996, -0.03548612351068178, -0.16448268836881566, -0.25240579335253427, -0.29672494096189433, 0.19008001097229746, 0.21781383926904768, 0.33216361065858396, -0.1541602065436895, 0.06820022357034658, -0.01096424422037384, -0.1475388568778557, 0.06109226670989991, -0.24886725184635794], [-0.19924336002706228, -0.23664490432814278, -0.32834860696219476, -0.12296373645976914, -0.1082667742858, -0.24812665828007008, -0.03843331286830765, 0.46757852435884345, 0.07776237176336993, -0.10335635327528592, -0.2420619839887617, -0.23357278396071451, 0.25118531447542636, 0.13223013624950136, 0.07750738439774654], [0.3522188183545429, 0.0495023847797912, -0.10642821883193422, 0.19416485568026817, -0.024443615852716746, -0.013657446487821762, -0.22880752283281494, 0.16098616852403827, -0.019922527976430914, -0.20473983599441645, -0.2780444483046332, 0.5013564916507103, -0.45144972671287953, 0.16829983868158202, -0.14936778723731994], [0.2650893030812488, -0.19694317267942757, -0.1655866527212509, -0.08209906167465213, 0.2640389418892383, -0.5171039644216349, 0.5480455989025068, -0.21021944359696113, -0.15909988093522195, 0.08232384835312734, -0.10631397659508844, 0.16179107907035356, 0.08088374237465695, 0.23168353216829254, -0.3343837518670491]], "B": [-0.10244481535019134, -0.12364640176313886, -0.12608043600952767, 0.21426037770170148, -0.2184928044724071, 0.0030402246918087676, 0.00071020503749707, -0.13478789629215623, -0.2813658494316919, 0.06580632845123065, 0.09260026105359656, -0.04200369391270301, -0.6566254531231128, -0.433291204458188, -0.023807463235990978]}, {"neuron_units": 10, "activation": "tanh", "W": [[0.10481398095490743, -0.22540712925125697, -0.03063048872909885, -0.2814338465165702, 0.08710172551142409, -0.17951623936905658, -0.26646784782104255, -0.2300663728434093, -0.04584860500171951, -0.052935570391526916], [-0.3119003139190855, 0.3661561403413471, -0.1821507056292635, 0.42675740693193587, 0.20687410226649675, -0.07577197545757672, 0.12252618873209184, -0.08497034807382414, -0.29069615021215, 0.24524054284564173], [0.37236923506120617, -0.07575351601336386, 0.29221626396046874, -0.38758497889028787, -0.11069909941026065, -0.6116099594194628, 0.21413494408004488, -0.2402142123098395, 0.011388645979271096, -0.33153063975890074], [-0.18798554965830186, -0.348207927207457, 0.15619440452516356, -0.30577923234956766, 0.42072444290986644, -0.08731767145691796, -0.23153973810128345, -0.40300136747618454, -0.04607068549462468, 0.10652357710953218], [-0.10758875429030777, 0.01775415840843058, 0.04281588436666199, 0.4049186057266628, -0.0684420110366641, 0.3406148863615336, -0.3704671397944596, -0.1499153739299544, 0.03411588186131427, 0.1889731741213102], [-0.04896803936974976, -0.43319500308986714, -0.16775625717119877, 0.07585767050304729, 0.0951884654731752, -0.03841746304011328, -0.007601647064486483, 0.024287787194758964, -0.06617763102874394, -0.22401528683702346], [0.3315317492572207, 0.16562041654331316, -0.6134869023624077, -0.31485019721551055, -0.0699205687357205, -0.04999106035615888, 0.19643761071811622, 0.48423909909038754, -0.2393237482852229, -0.04738516493583751], [-0.36191190547094126, 0.2923682084157058, 0.0624933477304721, 0.13971687259480553, 0.21225722417865167, -0.23856557310033732, 0.11915342596410412, -0.5374953019179248, -0.5358304417559496, -0.09524838796029376], [-0.03248128415591816, 0.09185209970897713, -0.20484413814667493, -0.5088515550483694, 0.6175818875605912, 0.07435363208042214, -0.30658356156150207, 0.12773927383059838, 0.36200941747700754, 0.28457948951698314], [0.16481454706712487, 0.4664350809349503, 0.2245585950189666, 0.37209470977348585, 0.2450110840778763, -0.024587886841119122, 0.1966281826762914, 0.05168225605661432, 0.06658420157292114, 0.07234616145403236], [-0.1751724062383346, -0.6223504120135172, -0.20953612114465545, -0.2168163773865674, 0.5242403090505168, 0.47765218776764445, 0.01655539558874022, -0.11917511706320172, 0.4635542638611375, 0.04359702386287648], [-0.16415324945758505, -0.8830224827852223, 0.011927365055941294, -0.04251433007814828, 0.03710428878783446, 0.07055484785797134, -0.4728461690401202, -0.19682992940957064, 0.22719710553667072, -0.29012020547675615], [-0.0449553439332438, 0.44667350125230776, 0.09400047289261833, 0.18009716757167527, 0.29673690889676635, -0.23221667815159217, -0.1900204529211068, -0.1780742003797982, 0.20312548820408116, -0.021327552810046932], [0.23443153481956616, 0.05572960968456908, -0.31639547902019965, -0.0833097388272727, -0.08505744772516108, 0.6712298290607848, -0.14804512696047278, 0.10666416832597488, 0.3391001615278891, -0.20887954658086158], [0.5418821538466162, -0.34482120183401577, 0.3481408586628765, -0.00844911830379586, -0.13983106629417008, -0.3551518837651187, 0.5947527712354257, 0.301182398426475, -0.04903613098482614, 0.1856430827809567]], "B": [0.047077214044165, 0.3913790528684907, 0.10737231893469891, -0.19721542271668815, -0.1359610866239404, 0.03169173077504927, -0.21176232260668193, 0.0016428374296839476, -0.26433959333585133, 0.45636438764924725]}, {"neuron_units": 2, "activation": "tanh", "W": [[-0.10861580062738158, -0.5463617179114166], [-0.02871138239983492, 0.552129956247754], [-0.06367596962976729, 0.29267518604004605], [-0.11966453637278245, -0.011036209851284], [0.3103612160953851, -0.19691517038060227], [-0.9215550939643525, 0.1499245605747052], [-0.5732676112861083, -0.08116197200544943], [-0.11848589836911727, -0.22796453678984266], [-0.0912700265122529, 0.2359548732473899], [0.014463527003158807, 0.004597475650716557]], "B": [0.1528716115730299, 0.21880318056587852]}, {"neuron_units": 10, "activation": "tanh", "W": [[-0.332144709309686, -0.22145664745362553, -0.9835102579659414, 1.278577466772281, -0.11628493442239533, 0.3749098949079162, 0.24100632100686717, 0.29048973641479053, -1.4044242606548583, 1.1638541493467702], [0.6738703702269804, 1.192450142123504, -0.8851151761333855, -0.3452850470333223, -0.9298232069726431, -1.3924582049833725, -0.9269124262390461, 0.8026393909643419, -0.7488403452109911, -0.18080569493296683]], "B": [-0.3518167442089561, 0.7006813486116645, 0.28889918836369205, 0.5006133644759402, -0.43069467483702156, 0.0896588427496705, 0.840806282256707, -0.04103044969495497, 0.1959884667060945, -0.5112708716746017]}, {"neuron_units": 15, "activation": "tanh", "W": [[-0.3101783519236849, -0.3289467915364253, -0.12827872827385375, -0.17215161981041702, -0.369158183466763, 0.2526942755723377, -0.8114420557615507, 0.23612279122300522, 0.16238258627151858, 0.12481416476259974, 0.2473484228618652, -0.33437504810548935, 0.30289840434638454, -0.46334665018722715, -0.4191149587003978], [-0.15915806165550253, -0.5038581664279369, 0.2651343024825929, -0.3612915712203576, 0.6651816860963089, -0.4383762267295216, 0.12235446139431756, 0.5684952490596027, 0.5954911805964948, 0.5010606882344634, -0.90777266709273, -0.5308624739715102, -0.4016502770893084, -0.43411150507236634, 0.7575307145958196], [0.5175121968639669, -0.13646646595343556, 0.8633448037632189, -0.5661026395168204, -0.4883081991066677, 0.5995776112561993, 0.4741944127270332, 0.3645473564687469, 0.7812214105274365, -0.08856373648880157, -0.24405207294101142, -0.2995177759809927, -0.3429527302283897, 1.062073984968969, -0.34505018588089664], [-0.7749444806625791, 0.6289468899817252, 0.11852448323986575, -0.08018958195214598, 0.688149745127924, 0.9710730881972452, 0.7588661423707489, -0.8659234214761138, 0.3215024373842316, 0.2904103409355365, -0.26556783234858033, 0.664565514830517, -0.3897259112489804, -0.1263019164612176, 0.370299808493498], [0.454839977819762, 0.16003409596206467, 0.06709525304494725, 0.15462326217157388, 0.4348740745655224, -0.4876004725440797, -0.041455159795484, -0.389210824563105, -0.16664174300712922, -0.2697872934865687, 0.4805719159269171, 0.3101181196085907, -0.23418113043010738, 0.5845198497783631, -0.9237139570982037], [-0.16715134699981596, -0.124642828407652, 0.3675731163412015, 0.32898072487153435, 0.7164074165341788, -0.44593169696981727, 0.5730930862479389, -0.9018453542045106, -0.3300397695526812, 0.26103095395890197, 1.2422352609691847, 0.378886244159461, -0.7081770574295331, 1.0945478753719533, 0.1290181410739521], [-0.04242200914931357, -0.3545210171786241, 0.6147127210571252, -0.45186111866398954, 0.7268766666759271, -0.6149047723991357, 0.32316380238055153, 0.2624767104345036, 0.6396553212780561, 0.4303349249420176, -0.6509221165160585, -0.28560447823275664, -1.1256305124145, 0.3341154142045378, 0.2920534245487458], [-0.38509065228255346, -0.4871623685571426, -0.3181173614735841, 1.0054663784502125, -0.16390618093008, 0.08538669143189287, 0.03261095201471463, 0.5831889212834734, 0.6034537032148356, -0.17756339823553133, -0.26384013365981146, 0.3036242990659223, 0.6942428099432829, -0.780377430838119, 0.5984664886831833], [1.3826240874605051, -0.0887280066002232, 0.3419529644832092, -0.8406126180426021, -0.3269477418467931, 0.9719702978645778, -0.04710473353304305, 0.08764577514792102, 0.476495461143385, 0.3329000735596978, 0.007348514216918576, -0.5548851315161457, -0.5403725021616762, 0.024406215079227245, 0.442294829309811], [-0.09602334532245581, 0.3319562537195714, -0.10720590849948478, 0.546166194155938, -0.020773977972011946, -0.7249152969833573, -0.24178005715996348, -0.2502476516202548, -0.5390120018219768, 0.06670274430375332, -0.3047095167573946, 1.0437518103648926, 0.08764131705712391, -0.44762535465576336, -0.3564268034144713]], "B": [-0.3558949772000735, -0.30771720380353534, 0.23445808666215703, -0.3848264162314499, 0.01556209389987186, -0.5890710368201344, -0.2133956822116045, 0.26172653519561806, 0.2636671553654381, 0.6927633980390637, -0.17388451388800638, -0.4646594257476029, -0.4679820749223385, -0.07182416014281952, 0.24287797994298366]}, {"neuron_units": 20, "activation": "tanh", "W": [[0.9122912747948345, 1.1122351994495112, -0.26430396653976046, 0.6985628593177263, -1.3016273498681077, 0.5592685712449222, 0.11060545408391118, 0.10852744224698058, 0.8651909887334117, -0.004771822003884007, -0.7219586526343176, -0.25407359324891715, 0.3787698430591151, -0.39251030191452707, -0.3019713960775326, -0.9108764795696548, -0.31156221848465604, -0.42604928217020616, 0.5639600068681024, 0.22409202860372268], [-0.4397690307569153, -0.4313354952346347, 0.5367203641079146, -0.1642848070336851, 0.14910915387422863, -0.17521554387936136, -1.0172735056054525, 0.30633131705485234, 0.17883616063860772, 0.17271582747188252, 0.1728988287264436, 0.013460366400992612, -0.5012803253671017, 0.33759799319902767, -0.455669420684244, -0.3556070841841681, -0.06368213554353226, -0.3056569534382126, 0.29795905659003324, 0.4939280060726092], [-0.13994801438769428, -0.5075170284365423, 0.5475647731671898, 0.4688547636101765, -0.23926383677983207, 1.0801506269465369, 0.0676519628541629, 0.48074009856607114, 0.43636236987686405, -0.4479133980855487, -0.36181828285941575, 0.5803489997726554, 0.3040218381283353, -0.06881021809106476, 0.8866897699127554, -0.10289507190405668, -0.839789427735049, -0.1712110743874218, 0.026142751364404544, -0.09352999632762285], [-0.4638695463513253, -0.04142106429769574, 0.1809933429223791, 0.11530993209194518, 0.029797173317455784, -0.6331436980329727, -0.4001360400081496, -0.15989570954474497, 0.03407575000240581, -0.7133830706556725, 0.5893589079076659, 0.3428345284892676, -0.4343999492087726, -0.8512149668080965, -0.6494780203952668, 0.3080735754779374, -0.7482718460331085, -0.755583644910233, 0.4603613877719311, 0.4768577363365498], [0.02361696916072753, -0.06248562248660932, 0.29128562997087926, -0.30611721344885134, 0.08035475261901652, 0.2007497019096309, 0.2823931006512596, 0.47689547980288793, -0.17964692615070668, -0.4738889695737303, -0.3179518649929199, -0.6763281170444498, 0.11272699171525294, -0.4162525587183116, -0.20785307283781568, 0.19537567320272833, 0.31168441076409686, 0.1902778445790224, -1.20775384225661, -0.2611234681221708], [0.03713159395898098, -0.14857661717499623, 0.00828131227201682, 1.3984786913167633, -0.15677888494542364, 0.04826128565275834, -0.3892981947836399, -0.5095076208509673, 1.1181777256747223, 0.5208287127700398, 1.0099956432691715, -0.6083505752489017, 0.5301945254294796, 0.10910327554657127, 0.03444469326676453, 0.5891476402619715, -0.5808114304851096, -0.2784986399814128, 0.3207046875882054, 0.18719205311158038], [-0.3547150778640116, -0.22577434419264955, 0.3508828962959154, -0.09875293018412547, -0.24467779545670998, 0.5391863986833066, -0.6966308486751265, 0.4828206340131757, 0.24519994733460704, -0.4672228675290207, -0.5585273018312458, -0.5577691339041249, -0.30238172591847323, -0.5452587237482129, 0.41001712383952915, 0.2163581899229777, -0.26972446960337154, -0.13674537729025424, -0.6198689008178868, 0.2734095743342721], [-0.15744969076942894, -0.3483274577441906, -0.1119364962931424, 0.13998528808079175, 0.06042015067472135, -0.4349052324560993, -0.6456507154496338, 0.75143468202991, 0.21679242464246276, -0.24766182332121747, -0.9245141215168678, 1.016314069328143, 0.07222058181396289, -0.6483795303749136, 0.912440845942508, -0.09464629972084543, -1.1005305048786564, 0.2751774309739013, 0.38532359557038365, -0.24902706118959764], [0.0011255317798482035, 0.381319807616442, 0.21528044010099448, -0.4296312517723411, 0.08982864399370072, 0.14224993657244767, 0.41143748621723025, -0.38309270890812636, -0.61467016702576, -0.5807265326309162, 1.1009832198699585, 0.328278748112985, -0.20823064582638237, -0.1737372970870013, -0.16485647467421743, -0.2812012385360824, 0.9173911459758632, 0.6918627311282872, 0.00032146757368162334, -0.5677641787254236], [-0.7427687668258169, 0.12707770648021624, -0.2389511765086185, 0.07397687745653403, 0.5678797643895883, 0.2200909871731065, 0.002408386004637435, -0.13951690737786812, 0.5281011382998791, -0.5480864642262825, -0.26419881873201373, 0.34170529376951037, -0.2209201013780636, 0.45133262701675686, -0.5888239107792719, 0.24936091204693636, -0.10783814525015724, 0.1373884355104246, 0.12223843018123758, -0.3504545261132136], [1.0195515944893359, -0.73096944992198, 0.008480965310518717, -0.06426030416036123, -0.4026120594056538, 0.22196920535279047, 0.16689111736779583, -0.5735665863012336, 0.09919762060794338, -0.034645585750876014, -0.10069606458421738, -0.15318178819920356, 0.5369763659003429, 0.3970157439297342, -0.4949697676514817, 0.29071386381237374, 0.5911663832252513, -0.23023437773838973, -0.6290643116634353, 0.4294860348239951], [-0.10457963867761612, 0.7453742432829903, 0.6942775002711322, 0.10403369390941797, 0.22576239852586905, -0.019884631405804137, -0.047731705651213936, 0.8150065076586671, -0.3711171567137443, -0.2607862172627432, -0.08559899313178664, 0.5278199721985994, 0.47674692418789577, 0.1444038147948184, 0.17091714679804995, -0.7725766127681848, 0.6049818780336012, -0.4058615246941818, 0.5331081506437481, 0.0652571132102211], [-0.12264440888568531, -0.16995902521604844, -1.0107984787814575, -0.18489310364389758, 0.5402190528910173, -0.3621459817187348, 0.5543506957391421, -0.1129407635607424, 0.4938963721625951, 0.7610525268649738, -0.7193346851125548, -0.11185721372667808, 0.45289497476404467, -0.03770019645824805, -0.4337885360836621, 0.7351438531674456, 0.7397896603516787, 0.26674076150348935, 0.31274001495333886, -0.12442103815520776], [0.2374215515700895, -0.7113206284800834, -1.0783662653704835, -0.1334773041377059, 0.2423962241531941, 0.041417884085273006, 0.622534419744811, -0.4747847629270452, 0.6339372873521545, -0.2841748916581351, 0.37606846860902127, 1.0786756747080244, 0.893019419043364, -0.4994711810632487, 0.11294626664821976, 0.10982122661946615, 0.49199191377881024, 0.6916911835175562, 0.12374009112735612, 0.2838507512582085], [-0.7891177176116683, 0.14015598388716508, 0.6772450608794, 0.40735255810344434, 0.09166771185316852, 0.2811210023275903, -0.5295828121978826, -0.23742157564422992, 0.33003753560781274, -0.34304121815217875, 0.28670321721204656, -0.3698866617591474, -0.7967368132656069, -0.41762460062838225, 0.6734043329804087, -0.013377866964996132, -0.17280628396662248, 0.3579594067597898, 0.24944656902671616, -0.1289313531125316]], "B": [-0.1794490471834517, 0.532932824008472, 0.03565350727750005, -0.08932512665646491, -0.04635123318779825, -0.03163055669676222, 0.5735875679695817, -0.3403942916771377, 0.531524852178625, -0.17643498648873254, -0.49443417467178374, 0.1415039752474991, 0.36684656598742044, 0.5463924253929329, -0.6610755107356215, 0.6931807260968494, -0.13370569772633875, 0.020098315564162396, 0.1871729306882874, -0.5000207608783084]}, {"neuron_units": 35, "activation": "tanh", "W": [[0.3329513084049093, -0.1676437371732747, 0.6938033296406114, -0.19256207765029118, 0.31135192720251426, 0.259467862651739, 0.7654699146378912, 1.251082935739242, 0.2396440104051057, 0.38002273440676476, 0.21001559095849157, 0.17639195047557948, 0.8087330605593315, -0.2381395285095978, -0.4116867311301994, 0.11318925109655864, 0.47384918882177185, 0.13542664937234292, 0.13781836482386514, -0.3493162410932071, 0.3521596777447625, -0.5243807805342433, 0.8126788494928162, 0.421711597908408, -0.129082737149404, 0.2802436465119307, -0.13742963754615775, 0.14977605321994134, 0.19329767960035812, 0.09619366638363394, 0.3844318604927019, -0.16751760891795542, 0.5751653311560964, -0.1591342424803682, 0.16328511208616506], [-0.055143145809215886, -0.25878508844715253, -0.32703275238893104, -0.1252705014938376, -0.019085243361099017, -0.5828153863755697, 0.677442982958001, -0.6671337106688849, 0.05080797086086611, -0.48685218225040855, 0.05407540978486473, -0.44585721752371343, -0.12510562607846815, -0.31357870412203837, -0.2846506451112229, 0.2821597498699268, 0.4094189941210435, 0.019624871624973877, -0.179164458809602, -0.8343381013109595, -0.10951575695625651, 1.096417556831126, 0.62864822203321, -1.095136201171214, -0.31877926100146703, -0.20171467450760155, 0.7148369848030006, -0.16878699888756202, 0.21298596543571321, -0.6781909235950753, 0.6901351321782577, -0.4066906786062537, -0.3891756541248448, 0.43288544078554697, 0.41005767986201913], [-0.12606391973254916, 0.2725372927975127, 0.09200387664826419, 0.5474887540853876, -0.08696497699652428, 0.47706834328070963, -1.0722893496437353, 0.29304737474811343, -0.9381658849578431, 0.21051642573492185, 0.025676425344698436, -0.609292414196101, -1.0309269515654007, -0.3221885968283122, -0.12390356766225002, 0.8070064127600068, 0.8350992907588023, 0.3587604802170315, -0.042209650818951096, 0.13264621684957167, -0.6872142591334152, -0.10393780216013432, -1.067266691221565, -0.36632378285731704, -0.6359259083640123, -0.08798593116207469, -0.9974294718146133, -0.04263092001006224, -0.8682975486469673, 0.550116457210205, -0.14348368034796163, -0.11095151227187455, -0.5738679615792063, 0.36765425057279205, -0.16983305373584756], [-0.19095509885534354, -0.4900812108623404, -0.5951358076374826, -0.1733498648904316, -0.17263216290225486, 0.2962790994275037, -0.99798966181016, 0.23984988904256713, -0.49896114069592085, 0.18406609968300733, -0.29339178292978696, 0.3973604106168279, -0.6497227806852648, -0.07505477660613397, -0.019902112774082343, 0.5483777101708888, -0.18011268312435977, -1.1725212748008769, -0.8517728944063218, 1.2911198959781658, -0.28027340423052977, -0.33306426517208404, 0.5422592500014121, 0.5007374685168476, -0.5220887947137202, -0.6201121211461763, -0.4073274919417337, 0.4632300718926372, -0.4929251706338755, 0.07911574381889634, -0.40175689788361385, -0.2507511471947255, -0.8115486400304681, 0.018175043027806374, -0.08788065287258376], [-0.18788986985636805, 0.9612236427029949, -0.07947093884827508, 0.42467398900952147, 0.5377024480096487, 0.5741664502288246, -0.14271162609294602, 0.23944117636758208, 0.44970032497292656, 0.8136326251798218, 0.23027917431868827, -0.16951372733316752, -0.8264960161948097, 1.1776261306474929, 0.025466688320063637, 0.19956097511756435, -0.9824950454541496, -0.2205642377886938, 0.07154935180991462, 0.01604630366383919, 0.18266054215497962, 0.7243327950603018, 0.23601694280423044, 0.6114959105603243, 0.3260181350556768, 0.45717315186403834, -0.5245963888365264, -0.1844090334769091, 0.16724962161846532, -0.1566031127640455, 0.1894215888889095, 0.3385072351488662, -0.23537329643679672, 0.7535293598958687, 0.12165161170208881], [-0.21156332113795934, 0.03563550079946192, -0.4738494497028673, -0.8404570389856656, 0.14086378401420427, 0.12155140287648807, 0.11765177350148454, -0.6672765724987105, -0.634373342302773, -0.46704034628031277, -0.6058850107079037, 0.5826054531048189, 0.456641669188319, -0.10454047470530242, 0.5745421896711522, -0.5842122248501141, -0.7334980422290284, -0.9081330531355184, -0.8436744727736337, -0.11333342138769138, -0.30938990091701873, -0.6655706649750645, 0.36510889955053405, -0.0028339715263638247, -0.43957390198247775, 0.23530842690194043, -0.6870490139989025, 0.014298802485783357, -0.5451552030450175, 0.09128185185537666, 0.4651249342978163, 0.019214236763177954, 0.04784429937312002, -0.12282028399235712, 0.17213178090793838], [-1.047939813194914, 0.061387612042801375, -0.030418757789147665, -0.16581235602720565, -0.8347976551574446, -0.11702600996639925, -0.27037724682167713, 0.22516406643881293, -0.21202200860167106, -0.22139531265793153, 0.157554808056944, -1.0066926603237842, 0.17830517986341288, -0.18214398349327515, 0.05700460690182596, -0.18222793659120395, 0.2665244238712684, -0.0681299573769908, 1.0446645325938528, -0.07937320182957244, 0.5027620644050996, 0.5560067372489681, 0.8665300107683637, 0.646325476781142, 0.3721165193866055, 0.24947795703800602, -0.0022627988777579973, 0.4666329352292381, 0.021084353806708155, -0.37617846519983134, 0.39524453149084493, 0.3719486044806065, 1.0003525763720582, -0.22734443827993442, -0.27303839216384296], [0.25642334610704093, 0.17628418935079626, 0.22321861945268257, 0.8399669083177804, 0.6854871282424863, 0.4419445853391069, -0.4709127713061321, -0.8580054008806155, -0.5670708816649018, 0.7404669260410879, 0.21911296088348445, -0.5705618848045296, -0.9480578466033666, 0.1725326974638446, 0.4610408614749251, 0.08060217198903624, -0.6515213787059062, -0.05854750011140964, 0.35260480939830946, -0.40271950492857744, 0.22450381601057814, -0.5516599851265778, -0.48894355562969805, -0.23733633035908266, 0.22737710383533377, -0.3067005243657242, 0.6505588011155851, -0.4781628505473563, -0.2989930158036253, 0.5468423894882426, 0.5768547988341066, 1.060456116226524, 0.526142802747178, 0.49558836966676806, 0.47717228334755246], [-0.6747357400429641, -0.6306383418435894, -0.40449495829064896, 0.0032207122662610823, -0.6768608355278175, -0.966990026788711, -0.34910207934429116, 0.528642222810945, 0.2547332331574414, -1.1397470961191396, -0.23003387463520492, 0.5765351560319282, -0.5482660417029783, 0.18512553102971668, -0.8807484242273451, 0.8978684695924697, -0.40466552082416046, 0.029973819011207957, 0.5693034056176652, 0.3178404854633649, 0.26785542575800597, -0.5782651013380886, -1.1360557124352029, 0.6328915470591757, 0.2479579355451855, -0.5769503850385395, -0.6307454943276282, -0.14561769407546055, -0.19339513085485563, -0.39904584389212405, -0.8380004423312687, 0.6260387656571317, -0.3059099602422794, 0.02654117367508262, -0.40816054067700924], [0.1062878807522556, -0.1422679390757981, -0.7087782197536231, 0.0781631763635975, 0.4599474667874265, -0.28275377100054255, -0.2692987727474561, -0.8325969427350417, 0.2531664133491955, -0.4997866891796064, 0.0992823979398711, 0.15605734446472588, 0.1917575418284803, 1.1678459253850666, 0.8059233564277878, 0.098626350244191, -0.003194551178980792, -0.4770360190044048, -0.1605415153236962, -0.2185638710616637, 0.9321670263144362, -0.2663123115730048, 0.12551805306533872, 1.1578357263782717, 0.3722664683554475, -0.5940542179307459, 0.07741229430175832, -0.8204839517234142, -0.353291030283258, 0.21548011305039494, 0.4097775804202174, 0.005575374134457373, -0.6001163925018147, 0.40107146469982524, 0.12709423191210764], [0.3006205313681046, 0.17506221336969052, -0.4294983473994437, 0.3431698380448616, 0.26012113969749107, 0.7889589718344612, 0.39237793301037904, 0.3541156303580079, -0.010631452349986659, 0.09279028589936465, -0.08365747739935488, -0.15025062176349402, 0.38748016584355915, -0.32130893144345724, -0.25985303688432854, 0.6856332181396194, 0.7027977177588103, -0.33233459297480145, 1.2710310112851186, 0.7172819058015332, -0.47209403962374563, -0.4159906012838403, 0.5062002015767331, 0.4073239748445243, -0.42632506911496343, -0.4478609032468984, 1.3352659738505916, 1.2259257147666738, -0.14161186256161398, 0.26881598743426166, 0.38524294423513594, -0.9049535801415454, -0.6758188307285434, 0.8118229949158978, 0.7281677608230439], [0.3180962536026145, 0.03310798982111864, 0.5614079475715723, 0.7944672091079432, -0.7155831697843262, -0.222273539886019, 0.14060951102559222, -0.3354588975512587, -0.288576786407731, -1.120826849374645, 0.6788916226291014, 0.32805334776794465, -0.16017280423731775, 0.04103126073207677, 0.4690637876622638, -0.6464345646867015, -0.33571599840543803, -1.1353202447547606, -0.5604661111975172, -0.34664278461553, 0.11076365948106773, 0.07298509538283131, 0.3797268224091712, -0.07046391734723993, 0.3687290009235172, -0.8486174241694863, 0.5143154201820309, 0.7645342851348922, -0.6331515252512864, -0.18736270966375781, -0.8729481745768622, 1.5891642392274201, 0.5727064343294355, 0.37657736865100366, -0.2896415437227575], [-0.3036029080571589, -0.1631969536760759, 0.42765003559638476, -0.1833052411369849, -0.1916760832576164, 0.013530291450599618, 0.40717633482225907, -0.281264634466597, 0.2927484882548418, 0.30592076167424204, -0.03142674269206646, -0.49878928580843424, 0.5555743373586076, 0.03342193210390677, 0.30247080453434466, 0.6672485870547958, -0.2053147405388109, 1.1013204858852117, -0.2897286029514228, 0.10504690262556361, 0.48109024539565487, 0.4706869578490236, 0.8157544851558508, -0.46620846207883393, -0.10998084699604468, 0.15992108242914577, 0.020192798685834283, 0.45988125085800075, -0.20417428748436178, 0.5228604613486699, -0.07064010714056307, 0.23688279245554464, 0.2435158761664289, 0.022039237083153508, -0.2948664104450047], [-0.2585172730224689, -0.4698219862413213, -0.32136018356537055, 1.0891749732868665, -0.27927178222513427, 0.07889718369965804, -0.2985835041300665, -0.6848435264719417, 0.017497713913906764, -0.10917929281912508, -0.07397498307435041, 0.7092535393767763, -0.47240224052405483, 0.22411567892613196, 0.30212313520475065, 0.9161498218300963, 0.44444189304467896, 0.13101463446433823, 0.3916484493147562, 0.0416263803103519, 0.6663295952957662, 0.7453684047660815, -0.20990821017081052, 0.058742019075383116, 0.8563622528128914, 0.7338086681020838, -0.27922059930513876, -0.584357504478501, 0.19750993055739935, 0.3907405884248772, -0.26924940637293115, -0.6536946785827547, -0.12920352118420367, 1.4007385737820324, -0.1846732723398291], [-0.08620241941379052, -0.31985073153399096, -0.5771060415052258, 0.3232927329931885, -0.1460576396954905, -0.40346667969183947, -0.5264807051047168, 0.08041700117377082, -0.53108609034598, -0.3967703419322725, -1.2408611892276282, -0.6918511534512929, -0.0946326493347169, 0.49468901712457936, 0.4559282208335553, -0.2354685729663497, -1.4258616661812251, -0.6792883474413511, -0.48563317401926737, -0.3258031470958038, -0.4092172864426982, -0.19895945703058476, 0.6779995555933849, -0.3169794562305052, -0.5959400957781209, -1.0377146695389106, 0.10484853151907299, -0.7262816487960116, -0.9280725544440487, -0.4546526653366791, 0.5038570658704686, -0.6482503623489307, -0.7916445702211867, -0.18625369291912341, 0.20035902766821756], [-0.15557290625181516, 0.11307768534049635, 0.17604516516554244, -0.3099779235644234, -0.15134799542362176, 0.3989408698559889, -0.5710490917582504, -0.25211680197079683, -0.06734288275341489, 0.10753681786793227, -0.05558536317512681, 0.1356897844480346, 0.3050774880648035, 0.45777109628624746, 0.22066648648594753, 0.6779304270732069, -0.6478517925323662, -0.3519882395652094, -0.2454946695133277, 0.02235489607570269, -0.3002251031755276, 0.43840510104838804, 0.6553013539365952, 0.13438538267280006, -0.007135444259923333, -0.28008550847412994, -0.4763148952196057, -0.5840968834003711, 0.04022850295288212, -0.3399478523804447, -0.3268744694899613, -0.4799968215624113, -0.1974713636776705, -0.7528542443645734, -0.6817970518345701], [-0.3821437278685889, -0.05641423304777097, 1.092688050979267, 0.6911583948225049, -0.6938774494921832, 0.9167230612824933, -0.5163430151959548, -0.8805143442489914, 0.08688846410006633, 0.9003868439974902, 0.29467818514403, 0.01289657180372088, 0.07777957993479323, -0.9795769130856129, 1.0256672801104663, 0.8119781684148714, 0.470735297311148, 0.16200285431103106, 0.5409196855338073, 0.39143128846656045, 0.048039207418934256, -0.5267352938865064, 0.4576548986055086, -0.3606451409101456, 0.03422769437074764, -0.5572226774820137, -0.4435956764622558, -1.5473037706070172, -0.03539147596406368, 0.09789788788117142, -0.07138513947504713, 0.0010578974165338325, 0.9802872884880295, -0.13694994489159615, 0.29646721329007897], [-0.5790257305013355, 0.13924016658081267, 0.2800848033466188, 0.2722722038317096, -0.33013735980429, -0.5479767895072609, -0.9981240561760879, -0.1557970054464533, -0.2917968590706399, 0.5271186072914475, -0.505726193535863, 0.14288448345750407, -0.10564838831778257, -0.6328184071459514, 0.0695296810621072, -0.557139856893704, 0.2990577083351444, 0.34077208490795385, 0.4822408353812017, -0.7062356298680644, -0.31247167387612956, -0.5867610325625884, 0.37841978602164905, -0.12917544766771127, -0.09712508094539289, -0.5551277367867813, 0.4628874467967513, 0.1440680931468489, -0.575323206654462, -0.670007873152092, -0.30509512533500327, 0.008125025794381808, -0.20684468297293665, -0.6328616358525158, -0.5659704634655311], [-0.04933070026943254, -0.048848312220607974, -0.139017931794487, 0.7566697370439345, -0.11694690998825008, 0.2197907223511581, 0.6272921305458176, 1.1638631208915846, 0.06384059048077212, 0.11834858056120375, 0.7606566135189289, 1.0973802330450593, 0.6629463467236044, -0.5241106478581794, 0.6854371237099385, 0.3696779326877226, 0.35708192260537686, -0.37107336099966143, -0.19184040417990417, -0.6469427278356552, 0.4996529033669818, 1.2727610108662886, -0.019891668704244563, 0.07715244407356808, 0.38445495533512386, -0.4007705825517739, -0.6804848153155151, 0.17307356476967262, 0.5475663076086477, -0.23900052106242456, 0.07794804751372876, -0.43128703431741455, -0.4561775142334361, 0.1758885514935246, 0.13208384960645872], [0.13490351561575148, 0.06292510646169377, 0.10065864370937729, 0.32212758783843676, 0.21336098964855563, 0.18954967454461877, -0.13686457819817202, -0.08279643334114434, -0.04315236946158402, -0.3479636782601518, 0.5263499146182705, 0.21918017157041503, -0.22162681436221918, 0.4018553357760542, -0.25397172912663646, 0.4095629846021299, 0.2955090085942419, -0.42676912189334437, -0.3309632216641984, 0.9768636683114318, 0.5379007969703011, -0.013598834501964065, 0.2129854384662016, -0.09440539629842164, 0.22620597534561007, 0.0027315370522874847, 0.7788853468470953, 0.2902249497149668, -0.5235846049573707, 0.05249884117237811, 0.5177634533636705, 0.28832826028288644, -0.11537828621839517, 0.09164718510519952, -0.07765029774769516]], "B": [-0.431272013071368, -0.10346777477923844, 0.08553477560124, 0.38836941193754887, -0.38239980140850954, -0.3270820042867676, 0.40009614401203225, 0.017148413683183154, -0.2568189472759058, -0.3455622655970274, -0.20027939302292264, 0.3193346650477475, -0.1162403991727707, 0.041907825403760965, -0.6470507479781369, -0.06931497358983828, 0.32937007452234457, 0.06386845615471212, -0.3747463400417746, -0.14199348643646406, 0.27255206863924986, 0.01637345572620127, -0.248073450757896, -0.2470260422428857, 0.33598919321042786, -0.4955067799957618, -0.37481114098216173, -0.6021351459684239, -0.30584076375552743, 0.05155263466994744, -0.7366223586994826, -0.4759705035892084, -0.1843331193571437, 0.12026280435796466, -0.6901263757286605]}], "mae": 1.3952196650252242}