{"name": "mlp_gl15", "layers": [{"neuron_units": 15, "activation": "tanh", "W": [[0.16530334825020077, 0.2894893036519411, -0.4455738641319157, -0.2112667357259642, -0.05394683210801871, 0.061134806292300385, -0.16061340560503767, 0.15151627782218663, 0.5004671924335881, -0.2235869901344921, 0.2231196203470466, 0.0072349014522326395, 0.04421718812716037, 0.25587812678637023, 0.14232782249522824], [0.10160591633475446, -0.3594090058073031, 0.12671437814041736, -0.5752124102863121, 0.0013916529888361921, 0.09898182754357274, 0.5212817550443104, -0.03133728485893221, 0.4693982920122364, -0.047791150110936806, -0.3617129837334243, -0.05272717387611884, -0.5196499428334488, 0.12713165798649503, -0.5589904906777748], [-0.8608378554874265, 0.19172386502759217, -0.1645402653001318, 0.009793132790846683, 0.38914058974578497, -0.23476173777073414, 0.002407290462631187, 0.05445196556116784, -0.15751022519350996, 0.027523088291148187, -0.3738576050304128, -0.13962204531927466, -0.3183019870620848, 0.18603477550592015, -0.2169978686517785], [-0.051358134589317206, -0.1426895996787007, -0.02210343791438884, -0.1089829232663637, -0.11983729426287047, -0.2350362872443192, -0.08814109077562633, 0.39455034590950067, -0.0007215062441019574, 0.3542965748110511, 0.04754578918626224, -0.13095668001674654, 0.49478849756548016, -0.35061415956320646, 0.008330436836946993], [-0.30451910486068146, -0.5619744204970426, -0.15652052828752364, -0.13792571726505087, 0.20253439411379762, 0.21089341254461533, 0.377160756860235, 0.4539904492058415, -0.259135004541171, -0.21797229171173302, 0.02192658522509031, 0.0628723261571781, -0.020402823168531762, 0.5466804135107584, -0.23629517210041973], [-0.07244002287502559, -0.17163021260339326, -0.28704989471557263, -0.18118095523038863, -0.2079448881457154, 0.03843121234115221, -0.1970092028131954, 0.15909271864790595, -0.44641901268062795, 0.11816450722771843, -0.5289217193152189, -0.3509850747428067, 0.3845437354215138, -0.09955691458575451, -0.13136247838902063], [-0.06334680343207484, 0.023360260492400014, 0.2328153279264976, 0.010008291007797163, 0.2525350453281006, 0.12524173961525367, -0.010761974926519523, -0.11998492912420791, 0.2976232916036314, 0.08163230065739381, 0.11982935471317395, -0.40871789836958317, 0.263635720794874, 0.25196558123527796, -0.1504379523060183], [0.0866621587523039, -0.12319870507178728, 0.2660021959493393, -0.05941207677395188, 0.09743449655992051, 0.22552382031771354, 0.33060580120129057, -0.04996479556066255, -0.1840873761708961, -0.45872293527500824, 0.19367105759451914, -0.11309543547574305, 0.06171617036920817, -0.2086404165199746, 0.20973790243123425], [-0.15964635903774183, 0.09836442155675948, -0.014257608067612525, -0.034310826197491893, -0.023347597803055134, 0.0534257056697938, -0.02909790800741719, -0.3206430086595328, -0.28166146127787506, 0.2697245612171876, 0.026354196799198946, 0.2673032743458585, -0.16053548122651087, -0.2057838167883938, -0.09375321968944575], [0.04336128632507212, -0.0811382749626378, 0.15139001319224932, 0.15838804026839423, 0.3602778764996652, 0.09914137153830961, -0.14921127167292383, -0.5373852978406286, 0.253982512791277, -0.1774500817764603, 0.08020154489504003, 0.1902234023824664, 0.48168483890272895, -0.054500992784100796, -0.08052118554934476], [-0.07561720329720913, -0.052196993459414275, -0.11525159259591056, 0.3576875559865781, 0.19842530557882102, 0.0790234398630843, 0.25359555040510506, 0.1586703813077961, 0.023981419471144686, 0.203009422271109, 0.31734259007711263, -0.2579040990863588, -0.15228453170134867, -0.1969703356201038, -0.019599226219117152], [0.38032981068725646, -0.3059840829757501, 0.08856577497275282, 0.19506225309971956, -0.5503509904129701, 0.18182873095713115, -0.1752906071523208, -0.15591302910221833, 0.06672466904781503, 0.04939647142809227, -0.22761801412792418, 0.47734322924375494, -0.04279381122266607, -0.3687125939388281, 0.09345469640032227], [0.1690702751763196, -0.3136247398804271, 0.4847516417439768, -0.3468576887491111, -0.4935086428867489, -0.1720297796782148, -0.21239662880404486, -0.3788378348803627, 0.057970539136433824, 0.24720684577068333, 0.0757064313448286, -0.06510317817903062, 0.07804020411330116, 0.04715831046374314, 0.19880338117128352], [0.00041670623604991077, -0.7423727173173035, 0.21509120899322964, 0.2671025049153921, 0.31044191281007827, -0.22357323174044513, -0.053957152929881826, -0.12176667510478723, -0.27483597927305, 0.39734578535508186, 0.35116740684745795, -0.09872360214200879, -0.01911030485000401, -0.007933495924696334, -0.22927166147166123], [0.2927588312869834, 0.07573917853230394, 0.24177463778882943, 0.3610798550684964, -0.17000438230706322, -0.3267926896941717, 0.3296299878794892, -0.15596556316042104, 0.20748801951367052, 0.19759317256589068, 0.0946688951468157, -0.15929457993940088, 0.26591321969842985, -0.060106767537413265, 0.5193117525838626], [0.3767436701303068, -0.051728383545487894, 0.09450411966883883, -0.3464124840779378, 0.2556503847933701, -0.43494173796431673, -0.022700058017384863, -0.2998640057149769, 0.06018075581934696, -0.026292946779488804, -0.09185346098449787, 0.24499436062217514, 0.3908057224874344, -0.03832099281667019, -0.062426080644888485], [-0.187228881117226, -0.6312400591779104, 0.12263045893022914, 0.16136842274740215, 0.13105609825599893, -0.12047529065730764, 0.30548772905824234, -0.3827011646636043, -0.03884282796204718, 0.13763726217503033, 0.0820033210863015, -0.2963380124327783, 0.00426163609904138, 0.024429716069770402, -0.19891826040086086], [-0.1024273252888412, 0.2145326258187395, 0.03415595205593027, -0.038650245688347615, -0.22239435268961222, 0.1004226660410072, 0.13614190415479882, -0.2436339572402937, 0.018766852381314494, 0.23362095768246546, 0.25126044369603295, -0.15560872728065447, 0.3717549341944458, 0.5908271161503417, -0.4474350219598746], [0.115710906425979, 0.06480399536780103, -0.14321772977741795, 0.32228223066238326, 0.0843202871824144, -0.16762516589304763, 0.14819754823680695, -0.03196091385119113, -0.2972045629458092, 0.214286181032921, 0.11746464915704947, 0.07443169905595676, 0.09825364371996179, -0.18914951760404833, -0.6356602785912572], [-0.39167012729091677, 0.032741757101992404, 0.1981041818271227, 0.08159286381194865, -0.23919453794171608, -0.45840899987335526, 0.11037957149701494, -0.09117160451086125, -0.03359250153358158, -0.34345296984873164, 0.15899193051636706, -0.1521420501526505, 0.0006067623932076619, -0.4570571250748805, -0.3852603589420869]], "B": [0.5012800045851743, -0.05859921934528592, -0.3241300897545023, -0.010177210164339248, 0.020539766852977686, 0.23472368583337738, -0.17955043497883977, 0.41526185127731524, 0.014564414896188886, -0.13100131188379396, -0.33231594402672787, 0.10029100984859904, -0.24900103561184422, 0.41724036676664666, 0.008004916518118195]}, {"neuron_units": 20, "activation": "tanh", "W": [[0.21368937936372193, -0.1464627627445648, -0.8271348591328678, -0.32059356910962705, 0.1701501057212005, -0.07157697593060769, -0.16695525592535512, -0.07419626526859151, -0.4352760592191874, -0.26795225166702297, -0.25247070961408774, -0.2582671963690971, -0.08388869614107679, 0.12613459800652985, 0.06101818652202538, 0.4368266674571258, -0.20116992303787384, 0.1935492015189375, 0.4878003451877983, -0.4132420644082091], [0.1405210126625349, -0.12338139869809851, -0.24756555859312926, -0.004029824614303302, -0.5326723929855548, -0.2382787341228403, -0.18129749771869963, -0.3046435092469835, 0.3418664452354117, -0.21485134103240575, 0.01936718598868524, -0.3800220965951206, -0.003195959486874259, -0.36899256445007933, -0.03466315951375821, -0.08637416170886175, -0.19350535939155786, 0.3459144179630595, -0.23539783431196443, 0.24205727345767833], [-0.4899120178227085, 0.10791479431529162, 0.1940375444600259, -0.05997221467828022, -0.2074212833093638, -0.4440120997258271, 0.17275469235447152, 0.7071040215822861, -0.12756305990181246, -0.40557142688400344, -0.137264825723018, 0.08965970508389845, 0.5342948834355417, 0.31701891628047496, -0.2813836150453306, -0.16411290967557474, -0.28380163927740687, -0.11795052837730823, -0.5494441129142793, 0.30584147919418136], [-0.43633940817005723, -0.2791606751926119, -0.12777039541925417, -0.30749629464365924, 0.16813583695228576, -0.217132222298415, -0.20312628111356967, -0.42832239154369345, -0.5811087960055075, 0.09018214423238884, 0.18021552248016523, 0.5486462241759639, -0.7824185584394778, 0.47907614102427293, 0.1320495256883831, -0.32168249151066436, -0.2500716193978362, 0.09725500035526252, 0.2813984618781872, 0.34969968213318275], [0.21073185925106125, -0.21645761977189898, 0.22967983644633838, 0.15389768590071207, 0.326762603657116, -0.42409347773864836, 0.45041358374185975, 0.7864258473632083, 0.05713506461977989, 0.6779601078982869, -0.0887500572304767, -0.24267088291205025, -0.10142167178763306, 0.5356533432060192, -0.5130196481214386, 0.6859544123608948, -0.2672762772412657, -0.313142318700367, 0.4564968676203317, -0.3613791167930998], [-0.11312079032706938, -0.13935987862710744, -0.1231116067187055, -0.1764364572168467, 0.29219975572447177, -0.02194334189178545, 0.2452587243946572, 0.4243077712276171, 0.13663232606463255, 0.24386244950354272, 0.12765798493248054, -0.0036445069529715667, 0.16956893331758077, -0.26650989159947064, -0.3032632934617193, -0.6155867864443348, -0.02341094479042508, -0.026731952695850592, -0.3359700701490998, -0.16249876728903373], [0.05301446482426101, 0.09090836537486438, -0.4038490994988112, 0.1254055026479774, 0.17398491239804137, -0.1953092157089482, 0.01866644959180679, 0.40037144162603544, 0.20397150371671646, -0.13033041150234392, 0.16940219382478025, -0.3773442222905352, -0.14246367558876025, -0.24972895381706825, 0.6513535222277285, 0.3197548125328901, 0.6836149452379178, -0.09431014475784673, 0.27633275638412313, 0.08198444804191665], [-0.1411149682700167, -0.03241860944817813, -0.3021646661257006, 0.438842706562079, 0.6645076159278915, -0.14936084674131353, -0.02875377513748402, -0.3904887279645765, -0.28294123752674416, -0.7371532845288332, 0.04589701543951019, -0.08895311573018971, -0.0014634104690163013, 0.15123096583415963, 0.009886429983122681, -0.1611321565772079, -0.6817951800467601, -0.21671330773364478, 0.2163210189805868, 0.22142128206323664], [0.19799113412096875, 0.5397807709994541, 0.032553220601878735, 0.34847697344948064, -0.1922153356726006, -0.5928122547551867, 0.3931954134987116, -0.47097141348525834, -0.3548932165003694, 0.33048289813621834, -0.05349271069300594, 0.44517142958143535, 0.05044014173999816, -0.12951177328136226, 0.062377638970508145, -0.0767901395950267, -0.14653623574217653, 0.19112814164627584, -0.03145853626345332, 0.18070797914994033], [-0.17801795230611683, 0.20027286584852771, -0.12534093728340304, 0.7072039967660783, -0.3413983528688229, -0.22262039558051044, 0.32014705483759165, -0.40864214356862366, 0.4710622610868994, -0.4478449287216502, 0.24764041341683676, 0.08928154302963065, 0.2070534246682297, 0.11436892457791205, -0.2739315344720654, 0.07418124710946818, 0.057499098716871685, -0.07146485003535599, 0.22333779836425707, -0.458556066524937], [0.5785083937145646, -0.25567412917301413, -0.04025072634062858, 0.08616490576735918, -0.04080624393940769, -0.3306788880021275, 0.14694031702354923, 0.31910113738420043, 0.2534735503908426, -0.43199088954410475, 0.6855884931677414, 0.0951197809744014, 0.35754260024573536, 0.3404497843445523, -0.32537842365094133, 0.04258799319996534, -0.0880839724935748, 0.2980487626332727, -0.07877428794440866, -0.06475461498242371], [-0.38635275872068353, 0.10325461567776645, -0.133335021696451, 0.3562572359271132, -0.011591075887776487, -0.6039179218139292, -0.5420255176002798, -0.19290591017968864, 0.4954641927563112, 0.5968195005204288, 0.3572916720557138, 0.4454194517012549, -0.32237338586819253, -0.00996557326123378, -0.2665166480002043, 0.39859793188165865, -0.3217743981850705, -0.30169794982590253, -0.27176335029241055, -0.05631729172715335], [0.030004256092870756, -0.2979126968387141, -0.3313083091353988, 0.4421995969286442, 0.00478732450795562, 0.171045227639669, 0.3540176973159257, -0.12435726627795109, 0.09307526287971246, 0.3604174206398544, -0.41690745359150627, 0.36757378326351803, -0.374599105438841, -0.14998282894178483, 0.10040984747944746, 0.34991273294227726, 0.7034470899801895, 0.34213346178725995, -0.1313566853778499, -0.13948590758053583], [0.11186051037998129, -0.06551248478403209, 0.013800558971685608, -0.4137198738546822, 0.24293362167100369, -0.07812304895662828, -0.6206392746498662, 0.08321980610473813, -0.14695141859674543, 0.18323196148282922, -0.38378222843358883, -0.3070966387394846, 0.1496789549651758, 0.5595505888800744, 0.2133860157138243, 0.013333858450585472, -0.2505929764108917, 0.854663165165559, -0.4842160988631154, -0.018981666697158988], [0.02505871159353113, -0.2819292517026813, -0.0061588611652668886, 0.11237762747100227, -0.11440198818950789, 0.014604182953579837, -0.21883301693949475, 0.5465198184140075, 0.2939786654248892, 0.13727107834735613, 0.08691436681938107, -0.01197654862460803, 0.048667050693229484, -0.0009007973105493927, 0.6795002508512056, 0.15400340446540844, 0.23531454894583162, -0.223712948024812, -0.658363475264429, -0.14336651138056958]], "B": [-0.2932181869705521, -0.008459125018219589, 0.16181248534791487, 0.07880856133723527, 0.13772061095083335, -0.02624186876942319, 0.08607224779376252, 0.2848337987641464, 0.23101726977711848, -0.3028716534937116, -0.055767343826348764, -0.14634341708222892, 0.1367274553997175, -0.10056912859818187, 0.11287989340996074, 0.07007109964494193, 0.16913070148439963, -0.00765789506827763, -0.10685735650708797, 0.2921894145743688]}], "mae": 0.7655642361705935}