{"name": "ej1a_id18", "layers": [{"neuron_units": 30, "activation": "tanh", "W": [[-0.20547940331889705, 0.17414174534902008, -0.13717279204938376, -0.04939028230842159, -0.07978704927575041, -0.012552015828044745, -0.17153766783828078, 0.15176291078042747, -0.02550309498844208, -0.14651829849002035, 0.024650423400103778, 0.3952702632279641, -0.04650457733268762, 0.23136337646877106, -0.184361073255079, -0.16031403166892838, -0.04151042055104048, 0.20592593671845993, -0.10080221520719823, 0.14588656588727061, -0.07620275171779659, -6.388648636236074e-05, 0.10694534268052111, -0.05068904893016003, -0.22060066256717537, 0.12490592355517705, -0.296698250256411, -0.2399330252599729, 0.06684517614769066, -0.10266739144759013], [0.07482214661318434, -0.23877116220160946, 0.26748112296843146, 0.09427394077209461, 0.19791129933195376, 0.05489982659903072, 0.03496531004510706, -0.02457993122884909, 0.2985306428690196, -0.14671361253810122, -0.19599681785741066, -0.07054807393114354, -0.08272196669768583, 0.012527090661048809, 0.005562639752461844, 0.11873943602291852, -0.02159403210505161, 0.1678772874927315, 0.06093913963840746, -0.08874678683021343, 0.052185905825958626, 0.28357790472079825, 0.039773705656203646, -0.06950812233386305, -0.02537502100444651, 0.1989973086540866, 0.11907447654274785, 0.11265275912720586, 0.3186068293843587, -0.39696030691029255], [-0.08913460979204732, 0.007194040433241764, 0.2964284463185986, 0.17395273398716862, -0.20435324388292084, 0.12981565367322517, 0.3395157217691875, -0.06474842023825446, -0.04386447354488159, 0.17802581811059692, -0.35171316314303475, -0.09287593722494195, -0.11465238621283763, -0.07171131851526538, -0.15846872037138587, -0.2766062384874574, 0.0916912666001678, -0.024024579467568204, 0.11379869553733377, -0.26613216486390884, 0.07018196997284226, -0.2942776700181391, -0.12010150295728816, 0.32633593108407266, 0.34118196942707546, -0.06350452293073251, -0.007670384414289523, 0.07054449353980825, 0.23289960664903053, 0.23331500266073], [0.14110717824359284, -0.11813397519843863, 0.14966796272180755, 0.14747788890232014, 0.28941854113427645, -0.3490339000675529, -0.05115426000270897, -0.21688669309876474, 0.12457818604535756, -0.22396167190186334, 0.006200661201257912, 0.19751384495571178, 0.31405868868152736, 0.00216414285319826, -0.2841576758963076, -0.11110324615492918, -0.03876570908419591, -0.15763204425426247, -0.003417446566102605, -0.08996574053747468, 0.20035310519082558, 0.3908791248824016, 0.12946431647341858, 0.22770987469658932, 0.33718326572984825, 0.09026713880238026, -0.3231753255281296, 0.28064122731936425, 0.0638524776827195, -0.007902548241574783], [-0.15003829660088278, 0.016657119464522165, -0.13767140086647095, -0.13823671910091875, -0.013296549145307587, -0.06197094748020276, 0.1308522611736933, 0.0067900556639511715, -0.03492149148373384, -0.0870337026729646, -0.062430444108661214, -0.1648179405896144, -0.05944485666498804, 0.17213142850481197, 0.11648892204693978, 0.12774410001058012, 0.27831295351682817, -0.0005834154031126294, 0.21563607922380346, -0.16279809453366395, -0.01896451950200044, -0.1791462337304674, 0.18918306122438763, -0.1715142072834614, 0.056025973114076213, -0.029315106653876218, -0.15850859721852517, -0.13328740584088178, 0.22592257060726995, -0.38404744222351334], [0.0033664430092617964, -0.23811427532581017, -0.3966651373517331, -0.12431126748838009, -0.2168274750105781, -0.2780165141506597, 0.04479741611917209, -0.0953712257854999, -0.38151344678636384, 0.01309975864297889, 0.05097308796026154, -0.09568294944341149, -0.3944970238640722, -0.26146469962638313, 0.021784737555272056, -0.05051474126082113, 0.43870571762863064, 0.18614406693700725, 0.006519812452968421, -0.33458596372339716, -0.13750473354663748, 0.21074616325042422, 0.10039104497910031, 0.0036937009589478134, 0.07603238132928831, 0.24076059509358738, -0.2741003052317293, 0.02431198928927392, 0.028314834119589245, 0.26408332623228375], [0.05849859215131671, 0.08123839096517962, -0.24566800686169116, -0.04261502316523763, -0.3661362991019014, 0.07607579773908568, 0.13481494758032342, 0.10027097630759792, -0.1336689336670493, -0.1437403077888832, -0.35200282752599615, 0.18614727010620086, -0.11146498236862085, -0.1691410262774519, 0.1018970443453604, -0.4685384275116638, -0.25011908123423954, 0.11017390968240365, 0.04557723868068304, 0.1613461236363588, 0.09500455753151946, 0.20374792093280397, 0.2946576574966733, 0.1291016437662002, 0.21567627783504073, 0.13357619122356174, -0.27607668490224874, 0.09226367438509579, 0.26687272459072653, -0.15630607352487555], [0.14419380215741764, 0.03058935154130723, 0.0923633333474359, 0.16973274513711548, -0.17594854771439836, 0.3235498650807784, 0.2318222140153569, 0.06724988414254705, 0.1043880982293961, 0.09514970554033957, 0.07664558315282187, 0.3328204302863792, 0.23398903129423076, 0.12020596987029294, 0.06703891484112809, 0.3720008887857362, 0.14690880040903256, -0.1287835168393099, -0.07231991425423703, -0.2641923967124838, -0.10914800650045073, -0.15500525975764579, -0.11220284051944945, 0.18274530168179393, -0.1947794881410625, 0.04221389361906259, -0.10540853523656481, 0.0824149870148116, 0.07231462915277516, -0.15774966022547363], [0.13215868299052094, 0.060931762088715744, 0.20610090846880952, 0.1907911686148023, -0.20011151993689538, 0.003850294652729778, 0.10077977392936141, -0.2337768587358588, 0.15146554480547592, -0.059965914007321736, -0.018160864670275282, 0.06360538387186777, 0.18633344393743462, -0.06296476794685417, -0.13293607327571305, -0.18460866357737432, 0.30847495849390394, 0.04202474006890677, -0.19903253974965834, 0.19821418161239962, -0.13629997176936795, -0.0066220325391387, -0.10214130711042776, -0.15447266771974566, 0.12889436005017882, -0.0828586023482586, 0.07559330898253862, 0.1398661966706588, 0.10610642822420656, 0.12790882395002945], [0.004300083807407822, -0.017443359994084952, -0.019401891782848978, -0.07359528563432585, 0.05609208143820041, -0.01824116247034309, -0.2010549273720193, 0.07250346752045993, -0.02190023406257045, -0.4221003213409671, 0.28820053747677205, 0.2665591091497628, 0.16281378941044272, -0.019744073084304033, -0.25960675119653875, -0.17176400830479305, -0.024122130920786872, 0.16137114085275628, 0.22274114086543878, -0.04063815275134329, 0.07172313436434513, -0.18573235617666295, -0.13441179312754895, 0.06827015471702735, 0.06903630038477139, -0.1269599494611911, -0.2498586409488296, -0.09479334255396245, -0.21904447112721454, -0.13889598878289713], [0.4792537649306801, -0.007603976143466541, -0.003889120841528868, 0.09022378082444046, 0.02337888896214771, 0.07634045688287142, 0.22365608215479932, -0.047637294107051524, 0.06257237223478858, -0.6069846019948358, 0.17464948498304536, 0.0833563293055064, -0.09357905686771151, 0.08341261332870972, 0.04709457803487278, -0.292390917347165, 0.06140387567553317, -0.3236384011394078, -0.26205609778970906, -0.1330506441849696, 0.23917699540728185, 0.12778860418795024, -0.06622598202048363, 0.031656658183531035, -0.35501674441040043, 0.10413394374470676, -0.1276841555183787, -0.11678021742014823, -0.08042908142894266, 0.08597637335239161], [-0.5207024161540015, 0.25741709287977693, -0.1969855747298912, 0.03248358721736497, 0.08404850714551827, -0.35063829080496695, 0.16814168195513313, -0.061410580952659506, 0.13686679856516132, 0.147027316725321, -0.22247100679558904, -0.14481665483374728, -0.08914543573381925, 0.0020287205013407137, -0.27248579110315163, -0.17848197355896256, 0.16699207463219898, -0.1455609161646737, -0.11139237350086126, -0.19427808286053788, -0.08256146328999131, 0.12184176614390313, -0.1422081475644746, 0.06722499341660151, 0.03055663709488686, -0.13550716405018104, -0.010621422948025644, 0.24298058681846124, -0.2934358250413537, 0.0021245299063903152], [-0.07476539751553982, 0.25879890426657953, -0.020877302601121445, -0.20063694250840472, -0.08601338965242415, -0.17404387773699087, 0.022216782672671048, 0.005017909929021232, -0.0017691069582004715, 0.16346124828005315, -0.023663623365543656, 0.18877811173746212, -0.11087966486471187, -0.0637126811904215, 0.3900326766039859, 0.19714153963616055, -0.2747384366156598, 0.07286943214325639, -0.051316604917815624, 0.2581400402220554, -0.04466244685039006, -0.11490278766338707, -0.04035163286440562, 0.10814856228891861, -0.3277802406639123, -0.06723110837427664, 0.08090470462345976, -0.235449903941311, 0.03902577827510932, -0.060829041232561755], [0.23046718342933672, -0.052692800703296634, -0.1005200155942054, 0.16859475563546225, -0.13381606234009177, -0.01986004435670545, -0.2643422883953998, -0.025696693566879914, 0.09221639630492426, -0.2905648228857234, 0.10238072841006131, 0.19207836145839008, -0.17043946875986093, 0.09840729081693059, -0.10498618116276906, -0.039666751705618716, -0.20742770973612548, -0.17540383622374645, -0.007786645978694632, 0.19694983658043957, 0.27891639726952605, -0.13682169547619427, 0.1699108785509372, -0.19432283392119426, -0.08273380525883843, 0.07220001814828107, 0.09482391692368432, -0.21621195864347637, 0.11196429000186815, 0.19604468747847645], [0.22486728546965992, -0.058562067876774364, -0.14906889564210923, 0.0652120542799225, 0.10046066553911247, -0.011192998760167034, -0.14606749587040868, 0.039991661802735105, -0.038374274468562806, 0.4447420887414656, -0.009463745790064215, 0.30713942811649575, 0.15226639552723759, -0.1947519023619654, 0.3374016727975906, -0.06549588278689265, -0.06534682791917497, -0.26411303975590494, 0.036796006468289504, -0.09861256191326791, 0.12701633759425424, 0.034354906769631766, 0.11379445624794157, 0.22524000223203217, 0.0880703398525746, 0.11479247725973941, 0.031345739238127814, 0.05947776353533269, 0.10916267257259406, 0.09958518366784902], [-0.20935074081346852, -0.15657002343173745, 0.008866605413897796, -0.3088367193698746, 0.3551560906731549, 0.22624173112712942, -0.013503548999971951, -0.1477578428043606, 0.09395999581736428, -0.05663277461339246, -0.18135793546151, 0.2662260623734627, 0.17487758530967107, 0.40361150788306305, 0.25434160264007355, -0.1390280766922476, -0.053922611979310156, 0.026091113805688557, -0.17302340609483452, -0.027027722453885693, 0.5190528459940652, -0.1351344347572801, 0.014540179270514387, -0.14788902523318065, -0.006181316709229241, 0.30552644572740556, -0.1426141401208998, 0.2535323267441617, 0.054092265909447046, 0.012831059577534967], [0.23746101120197868, -0.14667996052866725, 0.08522013765132921, 0.206983585717792, -0.22408258089894986, -0.211283330917097, -0.024388545755537686, 0.21796455658378366, -0.020732633921752525, 0.22081341793835035, 0.11933456034337063, -0.07908970278158553, 0.15476927697592807, -0.013404791626611746, 0.05867318808163493, -0.2333541471030307, -0.24725308392487333, -0.10127928764949262, -0.10409225405210762, -0.02477509877657943, -0.14106039143238172, -0.12986312045258308, -0.2005782466903646, 0.09267224844655925, 0.0884686513651068, -0.08438330864773065, -0.25502546423690625, -0.036619232327379396, 0.022441766634982013, -0.0888314555476695], [-0.06834620322346144, -0.3154203888744764, -0.18621018069266376, 0.05799160913596224, -0.037761472472071664, 0.2869093047051218, 0.20117298510944315, 0.2529253513187728, -0.1678926079680017, -0.09826993879166336, -0.2864017767397687, -0.019644313302614194, 0.07607212599549859, 0.14842693224553552, 0.06861618493777022, 0.1877352847571897, -0.23805274086656872, -0.04323325397146833, 0.17722209829414853, 0.048219941749349994, 0.17902460138866846, 0.19722080455777063, 0.16980484426649897, 0.08928884269170875, -0.5641995120817138, -0.07782785205152994, -0.1768992479557338, -0.10007777987444154, -0.12903035449421427, 0.051994175806054914], [-0.18356568235454282, -0.0761737144101752, -0.0308111249316253, 0.09216386934727142, 0.2737191489975602, -0.04647803515851578, -0.18141252808150682, -0.2957503847021338, -0.17577199735660182, -0.2204019681698261, 0.12729922392795523, -0.191881853481568, 0.2946453998822423, 0.08795703395354876, -0.43180101079891375, -0.13818762611360474, -0.09193865703644707, 0.02538684898659343, 0.5041241911320097, -0.18100130627268662, 0.06891630381114727, -0.3833370457789821, 0.100563725344925, 0.15951160238015893, -0.004017528299734264, -0.1236479749516793, -0.1285868862905178, 0.30617000969265473, 0.24615079691031067, -0.18481778042922928], [-0.3935889162214041, -0.19538705640007578, -0.06959100973451046, 0.18934132862824657, -0.18219497929254755, 0.1440078364204831, 0.14788463560206722, 0.07198942695893219, -0.21522169936216906, -0.031860767259419165, 0.0024536704845430656, 0.09460742079098633, 0.12493892950678526, 0.13556222015362981, -0.1637558492963096, -0.5725659917267871, 0.1393883371991643, 0.20478999596199882, -0.30246614097446733, 0.05027529509234554, 0.012182465415657403, -0.2850563547260654, -0.06301994604677758, 0.05465669390487077, -0.05576872580463549, 0.019381178598740625, 0.2602848299032839, 0.03805901344068035, 0.02704527590796217, -0.26860786537602416], [-0.10786352818674291, 0.03573593935149754, 0.03641141095778266, 0.17106790695400384, 0.03915165929712007, -0.245561892381715, 0.1302048255923256, -0.04358342562852618, 0.0354140732725192, -0.08264538735203787, -0.19630464752074864, 0.1586669832773736, -0.13909727991751303, -0.25331074662522707, -0.11408240238601078, -0.06321880461469999, 0.09749961543986896, 0.15340511299275217, -0.3130557005433864, -0.2519968162969434, 0.04684929757616732, -0.1596128813739171, 0.10717231666326599, 0.16610058771213343, -0.10886760519587783, -0.03873936430812352, 0.07083940269055224, 0.03979334852367062, -0.025470482592688484, 0.018501208986575375], [0.20957183363436852, -0.01433540375880713, 0.07200644489946556, -0.055467231032358705, -0.004789894260973962, 0.21426991769968012, 0.016956326965934333, -0.07354532547019128, -0.053693355161995464, 0.13498436893394594, 0.08570828241500426, 0.12217253821932433, -0.1066717630800372, -0.3723903472170725, -0.13257381715826394, 0.029437959673225704, 0.19431863167009203, 0.07311165697487892, -0.30460077924503426, -0.08298886935024467, 0.13960447255372824, -0.10650987925247965, 0.02659070480070099, 0.10701090686350795, 0.0760963988249652, 0.1431927777677885, 0.4976273768117076, -0.06079250168873838, -0.22995739895158757, 0.04035477227024053], [-0.17165151768633188, 0.01028815443553695, 0.2252279918088675, -0.26048286055615605, -0.0726865005832003, 0.2081121763758214, 0.2552440859423137, -0.019992485774131857, 0.2536754777992866, 0.26634662143447185, -0.24494151904627462, -0.03831135860544607, -0.0889736848949928, 0.09922080394396826, 0.18838478345092158, 0.37077256808791254, 0.06403529865271183, 0.5947765102013634, -0.23946372191902382, -0.061737064809295104, -0.09860518282656308, 0.056131243314532744, 0.11401831747587568, 0.27115401391703897, -0.05219928672547085, -0.5100692793516455, -0.13960083845053778, -0.2359842080831197, 0.051769044392104266, -0.10811800717876649], [-0.12939225627426496, -0.16354188564380176, 0.06345561832890567, -0.019839451424635664, -0.12033670124322911, 0.10501779229096123, -0.03101886661259154, 0.14137207404467333, -0.3503023242670272, 0.14349692499004263, -0.059560528413960666, 0.13567504144385079, -0.0342918502003137, -0.010260306312705776, 0.06470348814710536, 0.1111161584622722, -0.013393044877270466, -0.6678960332542037, -0.10671020906740877, 0.31930147872416365, 0.039662109612475724, 0.28483176351758444, 0.0759613334536613, 0.1711528668991354, -0.02657836926242138, -0.661714482048398, -0.19305927860263883, 0.315423035752608, -0.15880916394910005, -0.03582548687580874], [-0.014902156993930974, -0.15122328509633418, -0.029428720849581744, -0.09343749179535113, -0.1308943452838239, 0.10391870145821241, -0.34015852345015724, 0.17481551347464208, -0.032661399576044865, -0.17438760359222966, 0.04259161934256771, -0.007085633191148536, 0.413550188698586, 0.04073181984658359, -0.0039958302421743905, 0.03935798315799524, -0.3264283305222979, -0.20590513352746093, 0.08921687677004517, -0.002702438796042994, 0.21769815957405406, -0.05548594208668413, 0.4575559022511897, 0.128877501509651, 0.2355217220795659, 0.17049487338202635, -0.04661626275708996, -0.20332977112913797, -0.2063075892897962, -0.008843037899686587], [-0.18998735876642384, -0.06005767033810394, -0.21262171989454748, 0.030281406051275755, -0.13609972661613814, 0.34487076738181405, 0.011872094906857348, -0.2922229613550832, -0.27404402876407535, -0.21765057825931378, 0.06426980434336263, 0.09968594665182007, 0.031135872662899362, -0.04844662949828878, -0.2705998697243811, 0.1727777184626625, 0.2277965168343066, -0.1446612763793229, 0.32871494899871934, 0.20517446362892217, 0.04092447073137495, -0.07116220982127958, -0.05217203479985213, 0.04213771338919875, -0.006028168731464956, 0.05220745461946443, 0.21717717355738358, -0.0462717454312341, -0.1901945103999652, -0.15055193450980156], [-0.17357567746544303, -0.04511147983906957, -0.1013506268612063, -0.023741063966769792, 0.18858458253500374, 0.07713900742772017, 0.023514510205282717, 0.17180122039551837, 0.09351750557183555, -0.09970504013598318, 0.03502571595898261, -0.010108331144477359, -0.19558997951064855, 0.33373868334108153, 0.1267061198248716, 0.16563476401110627, -0.12345591082445984, 0.5919415178004719, -0.28240644770567147, -0.003448643766391982, -0.06711449448932283, -0.06104709522313252, 0.11671120680633987, 0.20974536722517406, 0.08267852155499746, -0.22037134623035276, 0.15844019240976903, 0.12803370631657687, -0.3132427993012662, -0.15732495227503981], [0.14045335396117745, -0.22343202136662774, -0.18157593873651034, 0.26839792456943773, -0.28055064206042746, -0.12623145869433178, -0.030743602663593037, -0.24958659626363305, 0.40281021640878073, 0.06379909060535764, 0.14074967085896364, 0.015292705160626014, 0.4039745480040117, 0.23354588558959674, -0.021431441631559876, 0.0325276012648252, 0.07290136658191318, 0.04961801957639791, -0.15919135438019583, -0.2231803259074785, -0.0780286360897322, 0.006068013003902626, -0.1628588489965496, -0.21638118745963159, -0.23535338353966073, -0.15457198442017894, 0.03941365423186704, -0.13990969066477799, -0.3348164017956359, -0.1269966784482166], [-0.10301831680498583, -0.2463043354456532, 0.14617588756991817, 0.03979350184231882, -0.004082425028145495, -0.21830738037106695, 0.1144661980864208, -0.0052864943379094306, -0.0769332553204454, 0.2881114345818404, -0.00024644622825243225, 0.4120242689429583, -0.3541235420493383, -0.1579828724267017, 0.16694536456253523, -0.04523166131049962, 0.020488155910620056, 0.2344620825158958, 0.08099168056944125, -0.02731317361796903, -0.3639394416810669, -0.15721493548557125, -0.019952277320591155, 0.14335524437854053, -0.1921335064107318, -0.07411397317164652, -0.05996293819582565, -0.2130109625213466, 0.0192461097216617, 0.11283239086964528], [-0.23158949990765718, -0.47944625660267143, -0.20331500222461102, 0.25060008433396597, -0.12050862223156052, 0.40057720716742257, 0.07202376186378243, -0.0008509075147691822, 0.15292863488273162, 0.10398738200425613, 0.468175448878217, -0.10707970064105515, 0.028964578205494626, 0.16624619470184085, -0.14900692549064398, 0.0958221958059149, -0.04950562650506324, -0.233586801995958, 0.18558607087801182, 0.2519934060215499, -0.1282986002286006, 0.12680861348692252, 0.1797661270104737, 0.1570441076700677, 0.0050455781864242, 0.09527484782564351, 0.16061569700189687, 0.12237743469890673, 0.12295352724346913, 0.16836882559402963], [0.09559343809940998, 0.06914007292063573, -0.07913090926194694, -0.125114927210809, 0.05883508108701976, 0.30461004823124443, -0.07324309924090855, 0.07865289632600751, -0.1085127275576113, 0.02737324609319309, -0.3916897461352547, 0.4411052885771021, 0.09549056857926486, -0.3165166779321767, 0.11870043338607461, 0.18411660814790903, 0.3276881405875839, -0.04538296109161571, 0.1561770931069883, -0.0008247092826917906, -0.16006624127790034, -0.16873598144023383, -0.3390731268135895, 0.002937331993921945, -0.2698418824787038, -0.2741873206564634, -0.36713583982068737, -0.028501881600247084, -0.2877841763007829, -0.2736633687495121], [0.17620144819889957, 0.046110865791627535, -0.3503618164570171, 0.0027699603801756103, 0.021031366188295042, -0.05583452186112187, -0.1717339162441746, 0.040149932135632525, -0.11609697301751755, -0.3260295568181715, -0.33103034853025864, -0.4075790464096746, -0.007733999806326602, -0.011129429156362102, 0.24781532755529967, -0.04562657458722155, -0.1885867456590908, -0.07296134086842204, -0.15325420268030998, 0.20049021565174102, 0.0755095785321063, 0.1344815600318377, -0.0878201605738062, -0.15305152272891387, 0.044555648938817805, -0.22574323742325048, -0.014352131851900258, 0.1316483332332432, -0.06606682935316062, -0.07012412252494024], [0.23765133713213596, 0.1984886718776855, 0.13127728997167865, 0.18178155050824793, 0.15581124855838993, -0.0867648823614037, 0.09135271483276344, -0.18479770778752885, -0.19819259051529053, -0.028545522184847676, -0.06197338663975717, 0.18212679032766965, 0.3423253498596102, 0.12249602359158746, 0.2374832504289005, 0.15851979481960132, -0.021562686950513447, 0.32723370699809184, 0.22821144679654387, 0.060614854947400605, -0.09601083476453728, -0.010306958959208835, 0.05701013633461722, 0.2507763225997083, 0.04294256866977039, -0.13882538817008744, -0.2102519380136002, -0.11882693290293976, -0.12433304347518649, 0.010731746089499214], [-0.05366555312683957, -0.07791968681459291, 0.06107433440301153, 0.13490693206323492, 0.03759258880559997, 0.21027105443457345, -0.19662902933268778, -0.1750063150972609, 0.17522688492569877, 0.036204336769155396, 0.036157981124667005, -0.23179810915249122, -0.03160331876515876, -0.042312525154696905, 0.36508251387418755, 0.06316596034213938, 0.2754106449580902, 0.11246568848968375, -0.1129219903590267, -0.17603820821073107, -0.02112329520927611, 0.06562299800951106, -0.023901973264124625, -0.060258503993845414, 0.12728871091400804, -0.1098445262575554, -0.031988926070634416, 0.10452319346938758, 0.01774370749964886, -0.30152119378067915], [-0.19848792310127425, 0.10201182192315034, -0.09320594826280043, -0.007119082143895268, 0.029500079864341472, -0.04590696201845187, 0.15273257287030184, 0.12697441971770723, -0.013082639066342895, 0.27580886863906806, 0.16205975982265572, 0.005010331115192046, -0.3657916501475747, 0.017436125708301775, 0.09715974124390783, -0.1137487103821392, -0.025053013206513607, 0.13990199198422393, -0.39186074607205057, -0.43280125264257335, 0.050148142770423676, -0.036911728742712605, 0.1210024155343175, -0.24138533624977965, 0.2084289177990707, 0.23155289131479317, -0.050257500300763196, -0.027725654540424197, -0.23519680281048663, -0.7024852273872194]], "B": [-0.0795920719216884, 0.012077297038640121, -0.1674454680983813, -0.10645673441483403, 0.13727268980831106, -0.43677259150938, -0.0865454163771778, 0.09162559692102436, 0.07874267805916674, 0.10701036021777292, 0.13717811535602162, -0.024638345054672474, 0.14514060352345515, -0.010822723622614308, -0.18195625437551372, -0.04910792542688909, 0.08491010755070547, -0.03842473924573011, -0.007548749526743561, -0.29788144101372044, 0.0875039925460297, 0.030083146700904936, 0.06727135591559236, 0.09745574810918353, 0.08098526963789089, -0.15208835052669728, -0.028382197820787394, -0.2618623001900028, 0.0396305482452535, -0.13797885229417026]}, {"neuron_units": 15, "activation": "tanh", "W": [[0.19504091708830898, 0.2956148042639723, 0.09041640858215022, -0.3824046120209752, -0.2945608574660004, 0.2242063062703886, -0.3363498054050916, 0.23930549858966677, 0.0574670900884637, -0.23370732121281487, 0.3018111155365836, 0.1659854879471615, -0.05126890077317095, -0.4085080227814034, 0.15492984712232005], [0.20193514590264167, -0.060320969245529765, 0.41964693112232065, -0.04066490965381318, 0.4123558072895879, -0.1823441958585569, 0.2290292659339917, 0.37440993372739123, 0.21090893759122262, -0.22646284276304207, 0.018655119794178485, 0.22241485897866625, -0.1415211391028751, -0.1920077533325136, -0.16704763596313438], [-0.27438989605309033, -0.46217842963340483, -0.009384981208131202, 0.3318354019625266, -0.25662334632275036, 0.07005997651312525, 0.11915405396735114, -0.14072770349963842, 0.03996290929680799, 0.11546783844292506, 0.02197898371960507, -0.06306958532148656, -0.20715222889576618, -0.05632965105630955, -0.2769995615385727], [-0.06468064322993497, -0.272551293530298, -0.2069837018802231, -0.5231293857284212, -0.6266665866554111, -0.14742161201764103, -0.02717882264919468, 0.3875295386944604, -0.1857456641850542, -0.36136132536297294, 0.1533705984084721, -0.27880988569019216, 0.0011108766236061027, -0.3397887370307506, -0.3354814878138355], [-0.05756037109235366, 0.2947531817856071, -0.09085154027160967, -0.06413671301170655, 0.047314688745706206, -0.5337367888160209, -0.011783514115307479, 0.19162466081736165, 0.09598606018783454, -0.3392429166447212, 0.13165076407912207, 0.02215874118476321, -0.036799572986061346, -0.07568400596650468, 0.15812704654939258], [0.22070376200836633, -0.15820605180399305, -0.3012214230761316, -0.09875628910440644, -0.33502573648932304, 0.44333960997532224, -0.2149430741083416, -0.2284996532707086, 0.02635010356886607, -0.4107962339314104, -0.1243047078491388, 0.05833078270975372, 0.34333826479485274, 0.10197845615932646, 0.14277649956256938], [-0.056682693040465554, -0.24512617799897918, 0.35327505948517474, -0.03268316618791906, -0.03180060787279488, 0.1934700412177884, 0.21861493642443158, 0.13406360051284633, 0.25327398871779844, -0.15163768124555974, 0.39781734854300277, -0.2748754449182194, -0.2568037424566364, -0.07410096613585895, 0.03198887330132712], [0.05015863706013811, 0.21982579795017856, -0.20365621414705284, 0.11748646931522953, 0.15163232429977974, -0.027021287961539898, 0.10308449049814764, -0.00808896291019126, -0.16240639941647841, -0.2622227751963089, -0.232453102718252, 0.15982559322825204, -0.34195575305733683, 0.15817543541659465, -0.11605074834569126], [0.23761523553497454, -0.14759463106481654, -0.01329998148895967, 0.2962737974345312, 0.43556762344098454, -0.066270878933052, 0.0992414755304156, 0.1888760985448182, 0.28961265739520203, -0.198602372456737, 0.16514124666724295, 0.04965818028720628, -0.13659167897628105, -0.09129406435841686, -0.435220465363103], [0.1601251549276737, -0.03539775201267441, -0.0807200831592677, 0.02075940435932733, -0.007364018191449179, 0.08545291508524748, -0.013090221153919225, 0.08148986435273463, 0.16390862916395424, -0.049196349520013, 0.202554614729757, 0.1602997127857214, -0.019327680418151364, -0.3468811127205648, -0.18484820934210958], [-0.003995894927473996, -0.37759132498201287, -0.24173870915933035, 0.23073543434496072, -0.07440086839733707, -0.09524960790900533, -0.07788110492789609, 0.11748904672882862, -0.36726706389405744, 0.1273983150753025, 0.10197425191429936, -0.16628048476908372, 0.2048585579123566, 0.13564391755140606, -0.12005121670544917], [-0.3059537202159443, -0.37668470022726963, -0.13749579812913687, 0.11975948994622355, -0.5258243226786521, -0.014482510144604048, 0.10765219218053089, 0.11508226332610667, -0.18409693081742698, 0.17000236574611455, -0.19202056318358995, 0.07545812553080562, 0.00692641834283128, 0.18395282287207584, 0.11626452681610092], [0.26597260109463516, -0.07737908687659881, 0.22359530039902978, -0.0698046255650417, 0.038788937095231193, 0.1340504907057427, 0.3883046086170723, -0.23847817584479122, 0.03981006739054329, 0.25335094723486035, -0.10910852101212783, -0.2502449053583774, 0.22687310946373157, -0.24782228778325832, 0.20016851687588572], [-0.03359263549982969, -0.12316285020971769, 0.029248610669044068, -0.16298966437913034, 0.17104139682117, -0.056056365951299265, 0.04564583854169608, -0.1895716910787715, 0.36836735543394233, 0.28066487408331126, 0.10588666759945521, -0.04964704474424164, 0.14853134898984674, -0.1318931806901158, -0.41931183559739815], [0.47016851161127315, -0.26534160517333694, -0.11561451466187757, -0.1691825491443796, 0.20159304447609097, 0.2230425497886593, -0.052991306900817894, -0.17237560530768978, -0.06827373702789186, 0.012633594593961094, -0.11910939438817134, 0.2026363470288012, 0.030787161327295125, -0.36574736115131506, -0.09401923678951245], [0.4751706120218611, -0.2382499547913701, -0.30166973937763547, 0.498152791648687, -0.02715288647421428, -0.08465838321437175, -0.3626024812113097, -0.29316508244457506, -0.12552161047816957, 0.47917557091183616, -0.09403944943272458, 0.49646604025255464, 0.20450112681077914, -0.27417930136302915, 0.1542744916286389], [-0.11932860809389222, 0.06764595966213216, 0.1790826502358435, -0.25113762108107046, 0.05039672217785072, -0.1840720263313825, 0.043283207123941375, -0.1100284293415671, 0.6212014762227822, -0.04105489104232546, -0.28036162391687147, 0.0775871159370657, 0.24114668726507216, -0.09707714067354682, -0.14489787651976382], [-0.1094630396796909, 0.09946983995733698, 0.20549010010984858, 0.10615876885839182, -0.10076635821275993, 0.36845659245364, 0.12122770962031125, -0.05349024984166919, 0.062176294862091086, 0.3168399549436874, -0.08953947591391455, -0.23851574209707688, 0.0045163233606666025, 0.09203742771580305, -0.10028238970535883], [-0.1420344560745596, 0.4332993096894009, -0.24553756675395916, 0.032258412734935, -0.24211809461365585, 0.22515157579072778, 0.02401751998963093, -0.03402487622821824, 0.26230634241778283, 0.46438543421937006, 0.3129586988556902, -0.16001914387957436, -0.06503067088393875, 0.4229977909406033, 0.08166180712953366], [0.37108899325898065, 0.08485881470518516, 0.05286360080198135, 0.34576399282215664, -0.08068023833353767, 0.011583260143260157, -0.374364548973908, -0.38787145206167645, 0.4149251244769439, 0.117669081784723, -0.2164917177863395, 0.21803839065587155, -0.1180806104804904, -0.40022177616023913, -0.28445846454281765], [-0.21066605110956824, -0.32770145945869855, 0.500033563159669, -0.03262617085924129, 0.16817763479585887, -0.11672889926896553, 0.02226607990498197, 0.2002501224701599, -0.002303144631898482, -0.17449118590151697, -0.17053659735563081, -0.13670639268400647, -0.00867237212343217, -0.04744928889974581, -0.06568457448388754], [0.04031175676079842, -0.12141560786719181, -0.0005413858259016199, 0.05510564968547661, 0.0732456863153687, -0.3619086807789906, -0.17835349578164061, 0.08315071950997849, -0.27909850261637276, 0.01809150139216265, 0.08171904394161685, 0.1809008447192286, 0.10939747774056521, -0.14672583660267385, -0.05652301717941252], [-0.43796043619688024, -0.030167531902909106, -0.14352984717353923, -0.10490601669747547, -0.16599462779092294, 0.12316510630278482, 0.07856569313400576, 0.16700032933497802, -0.03023307351742953, -0.014610158387298467, 0.1295689236017703, -0.0780827037352813, 0.04695108209728292, 0.04842106109168423, 0.06746105339900307], [0.17641473431466903, 0.09313281048096718, -0.334959953476962, -0.26688912313326024, -0.18618369404436444, -0.03605586275869193, 0.5926500082983058, -0.15704897827100986, -0.021396309580679517, 0.4886235623831104, 0.016529436089154245, 0.026470358346259888, -0.10209547648427357, -0.42263292447713663, -0.1618841674961992], [-0.16223834818976407, 0.11118515939000222, -0.1513127684795372, -0.1437756583180629, -0.08698225774884787, -0.11687962896269269, -0.17149509465904816, 0.7137030846243351, 0.4499624804516249, 0.12448931554330644, 0.3653845511984906, 0.11775480058541682, 0.17268410829857278, -0.19307966157535264, 0.13081597300673678], [0.1521761445876573, -0.04580849593293444, -0.08255402506192905, 0.016019965569525986, 0.012445880495377948, 0.12270406305034197, -0.3441581416225713, 0.3208618197541602, 0.10833600721501577, 0.3054453270597637, -0.10492309158986775, 0.021415717246272174, 0.012568714905642018, 0.3089794132097775, 0.05254692385625245], [0.017625594425322636, 0.06908201192680444, 0.2390371431234381, -0.26389956661980984, -0.051148803366184666, -0.2711961326610657, 0.0370806161373932, 0.05410542148633791, 0.22809458373680996, -0.035891335799177276, -0.001414731062316412, 0.03911535636090716, 0.06097499480016256, -0.07740189689427245, -0.3673098963333737], [0.06752954138322978, -0.07774053418016126, -0.08029840351929624, -0.051224065865163974, 0.28958086506962216, -0.012754519814087031, 0.18702619775022553, 0.036080355529981685, 0.01195571650124972, 0.14040018105953425, -0.5652220181592766, -0.13892441902239872, -0.13577989428039658, -0.22196394310122658, -0.1135722309014339], [-0.42404680515304993, 0.17020749794188889, -0.04898810326774373, 0.06856732619065145, -0.00014861228907499564, 0.1284841136506297, 0.2802276866072921, 0.3404310510458763, -0.052034566217159156, 0.1473673447236843, -0.15356595773565584, 0.17963983065652067, -0.34800702982718423, -0.023737997362958712, -0.16417513713200338], [-0.169643282293929, -0.07665975821164137, 0.15551603108805212, 0.0556325030053531, 0.2873848580881091, -0.062083450955774284, 0.27471514147023013, -0.2687532258652508, 0.2953317292856877, 0.268189039098802, -0.04114095808591143, 0.05912426344617211, 0.2563204483480387, 0.20483807778875246, -0.36691694054604523]], "B": [-0.2402404213159041, 0.00618830122895139, 0.1441158615895282, -0.0682355943270956, 0.06741948479511893, -0.09224369027637956, 0.31214525229387174, -0.3358515199199058, 0.46927963260417827, 0.09848015328387276, 0.06714265281945085, -0.18694074841649272, -0.11566222606544807, 0.3019773760282444, 0.061533301494802836]}, {"neuron_units": 2, "activation": "tanh", "W": [[0.1429200035899675, -0.25083088052679825], [-0.298121338636808, 0.06402559300068053], [0.02304348229569584, -0.14734341344226487], [0.13722582588982965, 0.03313979900825278], [0.220429534785607, 0.3353563134596999], [-0.2312149646816084, -0.11829259029912523], [0.12229915420477955, -0.0005322713741104606], [-0.17228402676316545, 0.35854343416285933], [-0.5976535864047642, -0.04364070965292725], [-0.05237863232638908, 0.04223433989218273], [0.03882401625527004, -0.2715290619224371], [0.14459558127186778, 0.05292039872333153], [-0.09581702250774893, -0.06534728086348632], [0.00815741116548122, -0.5765435951660299], [-0.20413861687286197, 0.33926520918287434]], "B": [0.09670726013295658, 0.11868390848181179]}, {"neuron_units": 7, "activation": "tanh", "W": [[2.0677450986778925, 1.650522393719109, 0.973371008375169, 1.80590290218113, -1.4791213446044023, 0.5859479760140525, 1.121453769287791], [-0.006250290796132007, 0.5561442237533969, -0.7378864770956807, -0.5832592550274714, -1.4856654587848592, -1.6036888619390168, -1.6026357248246286]], "B": [-1.5208001741809503, 0.8514671669953587, 0.090791784527916, 1.0726714256968075, -0.06235191718958272, -0.8007319079955686, 0.5126122238515693]}, {"neuron_units": 21, "activation": "tanh", "W": [[0.5853337604109338, 1.006769414722978, 1.2241783452236297, -0.6868658182077672, 0.5526473371444285, 0.8020918165679786, 0.18519039455558914, 0.8925225226613351, -0.05326309034724984, -0.3855787216698833, 0.3830675731067152, -0.38231752581345135, 1.0203678497374962, -1.284754182242248, -0.15025133446183553, 0.2800366296765599, -0.34961097268529123, 0.0719612183232848, 1.2886679529593486, -0.45197403534349395, 0.4561195649850673], [-0.31524611283016674, -0.12110208643012599, 0.4445096126568663, 0.3561516213560278, -0.2405608656647503, 0.41418258691770743, 0.42975328352037895, 0.228582506761909, -1.0832885299314683, 0.32131146256543447, 0.20616082741893443, 0.5715256188165247, 0.37638880807067904, 1.0618112286353336, 0.6515284659817538, 0.019958389347957385, 0.22919907168495718, 1.0919012234879057, 0.5759965197591289, -0.10149879694080283, 0.539277930447692], [-0.24878678343813737, 0.2994094490150494, 0.37188870754505127, 0.020693095953285386, 0.001434012240342603, 0.5455716137084111, 0.001146378303360764, -0.12829535246978963, 0.12643783428545016, -0.9053540491477421, -0.18887702676751297, -0.156936607112023, 0.3248359686909596, -0.0323575372539435, -0.5492945713566793, 0.03460618190803441, -0.4442715452523091, -0.20087465212340885, -0.5351289040804239, 1.0145083140921434, 0.4064987748838994], [-1.2753872950670542, 0.37561264622435936, -0.08529691826887716, -0.03045700110762081, 0.9047104383549656, 0.7363228479528012, 0.6433751635983822, -0.8093815979671413, -0.28040396546110086, -0.2628083402959678, 0.25433180333453936, 0.6273078919394659, 0.2370085307245532, -1.6530725250130616, 0.5131229281941463, -0.6599025760738056, 0.02873602261180644, -0.07133975562694743, 0.593699253717878, 0.9097600133852959, 0.5925265010624235], [-0.2544344040054365, 0.8323028921633457, -1.316539880156099, 0.19978271147917334, 1.3665284246002123, -0.37900819111582074, -0.4633667552338546, 0.8386804789542933, 0.973172289510161, -0.098447070906163, -1.51319381522025, -1.5762781215331152, 0.4401879137811491, -1.0688558135185908, 1.1134330869400992, -0.6848913338147667, -1.0984764683296928, -0.1643274389071545, -0.5464660473522323, -0.35181185256780984, -0.5889119741519854], [-0.33686893615260355, -1.2649639590702837, 0.2747191630889186, -0.48446892921608037, 0.06825889971256248, 0.768125288299407, -1.0368998482837855, -1.2271370785482747, 0.12694960234387984, -1.388370194198959, 0.9878145429669815, -0.3690754581618439, 1.8676379290704346, 0.7671084097960931, 0.22831044816953816, -0.24614347656714355, -0.23007541200302842, 0.11135430936306447, -0.7111062920477819, 0.28356929203323056, 0.32838864094637576], [-0.4435332720131702, -0.15919470465024865, -0.687222625908443, 0.20929870955478064, 0.48057200289705504, 1.2427446380839111, 0.28290687378347507, 0.01309778767760942, -0.42920635106771904, -0.5775097411394976, -0.919895196708615, 0.1438548259928331, 0.28321055354427965, 0.7418673617971895, -0.7751638325740026, -1.235263553174398, -1.3571831234989302, -0.1492053838118175, -0.6485275243859192, 1.055307755519562, -0.21473122154187357]], "B": [-0.39170239749348756, 0.4183041926430491, -0.007070644550318223, 0.48322910195769997, -0.8927037592457462, -0.224868449516117, -0.00880495127060468, -0.051066283098543004, -0.36521346539306854, -0.39252633774217605, -0.8737070636112607, -0.21504785904691853, -0.3763218402371314, 0.08969799664724178, -0.8462336820276752, -0.33904131493618583, -0.518212284795166, 0.008012234183262345, -0.8944824661087846, 0.11410994121974283, -0.2285794090555407]}, {"neuron_units": 35, "activation": "tanh", "W": [[-0.3570770976391243, 0.20258210556382364, 0.3987711887489144, -0.1341706607185393, -0.31934726878779884, 0.3229406895919111, -0.6018164577575693, 0.013410816998873998, -0.23940913421690443, 0.07148291040931225, 0.04554582547083595, -0.44513714505605234, -0.23795964539416914, -0.7922288383275072, 0.6389617334825867, 0.3272349721941234, -0.6471853166063275, -0.23625349721559208, -0.0692836881360134, 0.3725927693570897, 0.046053492275780254, -0.5000679172861991, -0.24765244767982283, -0.5188917271580332, -0.155408257974757, 0.16939099435743815, 0.3283032057945139, 0.2488405884554112, -1.19690074218473, 0.5956529229503357, 0.418777529733962, 0.2534014155201719, 0.36438187056893473, 0.06374733226971199, -0.42795664248774745], [-0.21491429773452386, -0.2941549736470849, -0.515057578237648, 0.2757898687214718, -0.00019909237786489196, -0.0025908083122914934, -0.7023816578270982, 0.06173408014411877, -0.17971556126127786, -0.8623137113370963, 0.45623547673474324, 0.1431702060917545, -0.03603397969541595, 0.41159723731667636, -0.2664662397527293, 0.1632106603567216, 0.2956197815056051, -0.1241888203441882, -0.12170132236078063, -0.04166368715744964, 0.17957053736024187, 0.37329141259138526, -0.709688660726618, -0.08992207618994448, 0.7958166446343838, 0.022212112765349474, -1.0860434423807392, 0.18591021168042252, -0.01453788896374251, 0.24133080323067038, -0.12279566985123967, -0.3475079754681098, -0.9051763368912482, 0.5803061367628525, -0.05528292098488814], [0.16976268127535848, 0.2349905255585999, -0.5285413966475053, 0.3518261727250579, -0.08966839336814916, -0.1361854298713396, 0.4552692000616173, -0.08781675892246625, -0.050522286687634886, -0.5701133111697491, -0.42171531079468066, 0.15024479566741422, 0.0017173381443975938, 0.19890239743213067, 0.13633590324625813, 0.42614301235281277, 0.2453949515746232, -0.5437998889342742, -0.04532439177739502, 0.8195005395441955, 0.05867197279480532, 0.08160446123370876, 1.123919223982181, 0.2683981242985964, -0.5904292276627532, -0.22630241061740358, -0.29949182734501056, 1.0321383528940824, -0.10375710365648458, -0.27397991331155686, 0.5316683875666182, 1.0579371827954709, -0.2903477148014997, 0.7007148871489559, 0.030268484268334592], [-0.37860564733862734, -0.04024171731256939, 0.3892485262616572, 0.18941936615207203, -0.5533490437410677, -0.026887348993954896, -0.3797554217016836, 0.2321976599517157, -0.2413794599371101, -0.03467812961598841, 0.0384430740972778, -0.13228474499974494, 0.12630114429754086, -0.039320841939071725, -0.08800036074549693, 0.05243482559283356, 0.20304222349709236, -0.060790951256243245, 0.26745543413889633, -0.2870404487130519, -0.28627083160044103, 0.4397150407017892, 0.5452975647097357, 0.16120183849356057, 0.2881703059135434, 0.0037573179571394775, -0.5297993634075381, -0.0011851138868328266, -0.27381228136737323, -0.32687701027706756, -0.17798041031137385, 0.4324726952988778, 0.3320320889464658, 0.34457636911253664, -0.598657863400147], [0.3098144601943509, -0.2538874804197058, -0.6531122832535098, -0.5332914628253282, 0.392168452730977, -0.0865300889328445, 0.19613208420372177, 0.015695681863675936, 0.42134506404382516, 0.47024198268924294, -0.2933828894479376, -0.3273857133416, 0.03738171153850213, -0.22549395474080047, 0.1136884623982419, 0.34884248559343517, 0.6809953433166284, 0.007754039977343451, 1.3743494855200518, 0.13320239071849244, 0.13431158717591052, -0.5759570866446728, 0.3629082205291068, 0.07494182364845302, -0.40429606246307587, 0.12081686102067632, 0.07936436021335955, -0.34395059856000304, 0.43761784172016455, 0.3237033259573809, 0.9496123557302926, -1.039197099150162, -0.4593898568270997, 0.028879520287930623, 0.5377552722684914], [-0.24508443121680487, -0.21079115493612643, -0.25976421810057615, -0.272471693439403, -0.28724613559390494, -0.36207252703058457, -0.8356978270381163, 0.31879270133792786, -0.8045290679821796, -0.12239610658128619, -0.10213620777405988, 0.035156038621987525, -0.28594858863821065, -0.9709945296586137, -0.037563344225309256, 0.20536300612820685, 0.17292908730922163, 0.4380677156738875, -0.44137205518647793, 0.6275916154865814, -0.5926124530029286, -0.08870672048281567, -0.7073913606521939, -0.38283820254921463, -0.6470218488231572, 0.06618157862449346, 0.46288506797985335, 1.1116882199980656, -0.6830516361520361, -0.1550549343733789, 0.07153853297457827, -0.6066358346370236, -0.14548879369402418, 0.08223794327364825, -0.7315330768788527], [0.08945032232196347, 0.1126319643747839, -0.3114290857416689, -0.11752633961040812, 0.4511414866679252, -0.2225608845576552, 0.04042197621555022, -0.1659147980364055, -0.5762764912724135, 0.22396369143309064, 0.14065573212294646, -0.4040016244679703, 0.051670475175224835, -0.05756170711457492, 0.00985507335126604, -0.2485858393201003, -0.39195172229764247, 0.5406420497642648, -0.4376536738432056, -0.4168389218072394, -0.22212780411008465, 0.3538551631955477, 0.165500468684555, -0.4515517202695666, -0.6094301817827829, -0.56852585143031, -0.28241966071919516, -0.7154250888189847, 0.2177904329922513, -0.2927214352739151, 0.6706701213086029, -0.40142382229804174, -0.31794618002146896, -0.17794288597155158, -0.4002908009698798], [0.5225685577577024, 1.0989525328194307, -0.08562911559012362, 0.28551050316187, 0.3111956332204595, 0.19417551106031364, 0.10309770379909199, -0.21317006464978905, -0.558545485729221, 0.31812492969438116, -0.21030060694829536, -0.7808361827991888, -0.30310061988783765, -0.15700304109358565, 0.28775786806976195, -0.2896549809999424, -0.6136268146889359, 0.3273283104427892, -0.6265975173441336, 0.6279456205418963, -0.4689129286126853, -0.5410634338080157, -0.13717868453622095, -0.24368525344607664, -0.11929948537357975, 0.3494410257957343, -0.17495432553998172, -0.0632139368226306, -0.007566616900644959, 0.05230618769330097, 0.20932639188550198, 0.6327914642034498, -0.03345686334533436, 0.12298032442540935, 0.18922075416479364], [0.10851933660873996, -0.637535022087958, -0.11563814859511867, 0.2942817139510485, -0.020951322212171577, 0.27595476696601534, 0.10894491356472437, -0.04890560957898574, -0.09870920835923983, -0.5703487731098331, 0.2338171095767398, 0.36820551183996014, 0.44920037341123076, 0.2784210432316105, -0.1321673195884876, 0.6501351156838763, 0.19922782983201343, 0.13015772264247708, -0.14589999657828764, 0.2789005165439959, 0.5476849309106828, 0.04778885407176625, 0.05261854772690441, 0.1007103684994811, 0.30796382160793145, 0.6668168821100934, -0.17977716296067817, 0.2522959471607402, 0.35977060797724625, 0.4727792728165007, 0.10867766243106834, -0.06985197724026382, 0.6601666857879248, 0.9049045288468786, 0.12888203989593702], [0.342154173291413, 0.11965515436232377, 0.36902249243562596, 0.431594886534475, 0.3433499269954659, 0.3427277128956772, 0.775559889683557, 0.810839826686175, -0.05310388100604803, 0.30337507799568697, -0.14936993913761934, 0.9294842314132561, 0.1691192912834879, -0.06194871131011171, -0.13364739780437745, 0.1408098525563863, -0.08623262072992087, -0.45181168346566175, -0.1432326640077877, -0.013570205327344409, -0.3032573083116043, 0.0597474652084661, -0.2316849352938576, -0.7078689108952648, -0.4301431411973276, -0.20533341095035082, -0.17194617980194296, -0.42199922773430004, 0.029281959613288402, 0.5306253541809439, -0.04071268298425788, -0.4928618226668464, -0.47561183105850713, 1.11579285355443, 0.16059165288973465], [0.017051167675058588, -0.004048591681799992, -0.7850548486521624, 0.23816127842105442, 0.2648661516040053, -0.2355209221619183, 0.8208243937406674, -0.12597345792784712, 0.6171293242118415, 0.18318014247056766, -0.026217694134901732, 0.883425460226755, 0.3019177710201826, 0.3311735335842047, 0.39774961810200293, -0.07850863611215521, -0.6937511626441826, -0.7590906500886188, 0.2010609718037205, -0.22999358178530416, 0.28249033375095184, 1.2197943239374038, 0.5511883676463015, 0.11655926986496287, 0.24445801064260303, -0.3802697986321172, 0.9498369278222784, 0.034736230377646136, 0.2934852708626923, -0.05945179690899272, 0.41717377852175014, -0.5068558762227566, -0.5218994072811474, 0.4281381673830688, 0.29931261499525763], [-0.2380764529091821, 0.5308094035325324, -0.2742759671841541, 0.2570240723393345, -0.07972732422112229, -0.42856124703466936, 0.09234613400879585, -0.09604125537741345, -0.37782941442645424, 0.04287184609124612, -0.7661519664558959, -0.2973988932840128, -0.13053266784461812, -0.5210222790256549, 0.6461575000481089, -0.29512817665081004, -0.9075527576876213, -0.5604018308107201, -0.13961845013291052, -0.6759467001580008, -0.8608583487119779, -0.5129900026548816, -0.1107308273674674, 0.32040518405915175, -0.43708509439392357, -0.755220138434731, -0.31856087862136934, -0.6755275908126646, -0.1370284269728343, -0.47502814737254706, -0.12636833136788125, 0.1166583875291991, 0.059715619365567414, -0.7207130505448344, -0.4770891141817757], [0.11504783503190637, -0.389901538879423, 1.0236541481626966, -0.1946739251808724, -0.1269528886553302, 0.291615179590209, 0.4189780685804101, 1.1485922454203898, -0.19969141484214809, 0.5659774662909479, 0.6629980080656629, 0.2759439166552624, 1.1860118829513868, -0.12642988541459865, 0.4381364736088477, 0.5089931157871184, 0.38197244408588643, 1.2600612984545523, 0.31452088096084113, 0.34162943672841, -0.384635912724897, 0.7146798863706512, 0.9607265278109228, 0.1402517288118359, 0.49068000532954686, 0.04409284479522256, -1.1190794956777863, -0.257832189947264, -0.010394663255543585, 0.43173875927128597, -0.46453014796099296, -0.3681866816652062, 0.08350968050908408, -0.22067350049979806, -0.22108858371133677], [-0.2461775852939224, -0.38752423455504875, 0.20830583127184288, 0.10211152330565867, -0.4722265376887731, 0.4023204448551574, 0.8012803314044253, -0.4663469729606988, 0.21970896850282912, -1.000589546005108, 0.4476553344862562, 0.28901025759852716, -0.05395114473122322, -0.7376018783015227, -0.5259765341748428, -0.932583980494463, 1.1393640587914027, 0.0185339300957595, 0.6287514745535806, -0.96976450628979, 0.21924110494727445, -0.7853720953528125, 0.4470161085712621, -1.0509160011322407, 0.7245559267954349, -0.1222325138198814, 0.3639802458282396, 0.026404085874804986, 0.39184647689377944, -0.6818962879638519, -0.2135345332070688, 0.3149459393282595, 0.6410994720583371, -0.06954938472546056, 0.07019949892156897], [0.27285385802696044, 0.6629476649630267, -0.2356042917176968, -0.171397232340775, 0.5200942482149373, -0.3250291084649213, 0.7442088312570089, -0.30132098285930825, 0.6182573808683414, 0.5599685370536303, 0.6178640788644633, -0.4772246368373009, -0.13617708927016178, 0.12072123296423751, 0.6529670176769125, -0.28893450386018943, 0.49343371161817356, 0.954237467348813, 0.05076691608824999, -0.22812645367520704, 0.47533201323522034, 0.24508093111693002, -0.38530460478145806, 0.03732413715098427, 0.3616264676574268, 0.2248089244528434, 0.5597584144294371, -0.014583413372847229, 0.23752368563862775, 0.03664143553649286, 0.16453181700359445, -0.14318689267868537, 0.08720814228026369, -0.2323179551809864, 0.3240245683963403], [-0.875925642630243, -0.1982495578149591, 0.043740086695281816, 0.16570465836011877, -0.5526655208627385, 0.5979804582042902, -0.45863410605633753, -0.4850777650856643, 0.18196964436594695, 0.298557224730717, -0.05937734304190756, -0.8063138229659884, -0.20047903270236053, 0.04375538512220913, 0.7671180557777907, 0.8075919122807761, 0.3228218528495967, 0.5707520908344776, 0.8762990216886671, 0.25799863567850795, 0.3645627063721586, -0.3289928401358866, 0.1986607390719737, 0.42420125136148495, 0.4446761204378835, 0.17179685798040706, 0.0606197337602897, -0.019441579824115107, 0.5754742759016389, 0.306531506534913, -0.060893998506696904, -0.06383334723628373, 0.517773472923922, 0.3089437562348526, -0.05453984227594626], [-0.08640988346968238, -0.7921506065681438, 0.7950821856859007, 0.6300158886821613, -0.6706140970813099, -0.013391952075905681, -0.7243940009888894, 0.20747554744390884, 0.22362027213282393, 0.23237946604349885, -0.24702789017336144, 0.20263442786467278, -0.555231204095761, -1.0804115373071996, 0.23298644765308762, 0.643948288655623, 0.6949140793490131, 0.30390998466910174, 0.8766769722293752, -0.4815396626918201, 0.5905304448296865, 0.9452947616429547, -0.20962614558517031, -0.4518289900475243, -0.04055375424302164, 0.0016654291873007111, -0.3062531777604065, -0.2144395045361678, 0.004382798603456445, 0.4155567482242041, 0.06683642003744568, -0.4212674919228886, 0.1424945154937455, 0.30590590309963517, -0.09687394909700422], [0.02846170947582164, -0.0166757690263669, -0.1924186898441277, -0.1095705533139285, -0.1848310857257372, -0.4570817552042566, -0.3809852906369468, -0.06731427392666227, 0.017928171307057275, 0.3295650046062185, -0.16985967241324426, -0.59612025796757, 0.18885624972194276, -0.08878645191580106, 0.1419571757934608, -0.1838961788268792, 0.3118859476550704, 0.016681190826807447, 0.37302511601030763, -0.14937029478708858, -0.0765656054759173, -0.64540222912038, -0.029612738149142007, -0.11993400251945577, -0.09805950895314525, -0.29972532348917275, 0.32720217416452296, -0.057268976659586045, -0.35553188584306783, -0.2981909407891291, -0.22203241702634427, -0.1466339054879649, 0.008043625957663406, -0.33656076440329413, 0.0918954157443881], [0.22006595318943295, 0.3037909771331054, -0.4839415922908199, 0.28167679080982905, 0.1443450250201542, -0.1614575931568991, -0.3004905049821657, 0.7052124248569903, 0.11445996864768807, -0.41019600037265813, 0.9605805742920246, 0.46954835328020333, 0.07799466439353742, 0.6807635331075327, 0.2665983564958014, -0.2482285413913645, 0.5725176931016623, -0.6686867114700789, -0.1442122997689633, -0.1798921449893429, 0.3965285571334719, 0.11931917066243311, -0.11341381165227914, 1.012612239431734, 0.704719457299651, -0.3226833205651692, 0.253867830603782, 0.11952414351173297, 0.6643432076055574, -0.3021474330822909, 0.35316129372253424, -0.49730266323359695, -0.7273025346351147, 0.35483592401718866, 0.3852385508741356], [-0.747471269641198, -0.7271980364087681, -0.1855898337126983, -0.5206311617067232, -0.45166350837687563, -0.03112940731736729, 0.4890952069936212, 0.35090609520398386, 0.32707910299396986, -0.061742490806478506, -0.9798694488661308, 0.08032450564029878, -1.1420356916430594, -0.18732654048839134, -0.7552953331147607, 0.3034320467882304, -0.22121028606290155, -0.3916690539183717, 0.15275579430484987, -0.29429173778596607, 0.21100360063191864, 0.3598648118385765, -0.18104568934323367, -0.6135601962551582, -0.30482617648512494, -0.0373238313220079, -0.2300854431126621, 0.23615758465538245, 0.030736394027220178, -0.10735700276697814, 0.11613727011613673, -0.8655686281622745, -0.24774056278453385, 0.010521137883674264, 0.43490581350132207], [0.11451534255673824, -0.050632127914308704, -0.17221796361747468, -0.32431253794675446, -0.19769962509192932, -0.4734173592244648, -0.04018374189851075, 0.61852734202297, 0.3873175004351716, -0.7368111916900046, 0.5403602444527712, -0.07995542083896603, 0.5052277604273655, -0.2407162497375239, -0.36579136895708836, 0.5977653348702058, -0.19444692266180563, -0.13053575718306493, -0.22472224812615868, 0.47715425666560357, 0.4007854888038148, -0.4096946177979792, -0.2622170161425159, -0.04346500138415221, 0.596213580948951, -0.0880759070377522, 0.6126493069321449, 0.6854710876743869, -0.19938445197068258, 0.040870945356571, -0.700797731348295, -0.06809547780524754, -0.21897122191035018, 0.11036220372173029, -0.11110906789376565]], "B": [-0.5130221990176764, -0.16801456174023693, -0.0925718851428406, -0.41963388754587805, -0.49410461998225874, 0.2667040674430506, -0.2541170773093341, -0.14682987816423693, -0.09842288521658688, 0.1286312056857541, 0.33822534020648115, -0.05174010175165469, 0.3449600080807274, 0.10964808301784498, -0.3010952361079092, 0.5135716074415746, -0.3518841861475915, 0.1388669344675634, 0.28146184606603836, -0.01837836915411352, 0.12245791737734091, 0.3502718785081762, 0.4153728246064429, -0.08368302125244423, 0.3791250836115971, 0.32787377519141075, 0.0008408482945671, -0.14331866221691678, -0.40056929059774904, 0.09463107794179254, -0.24189459074561515, -0.2526790745256801, -0.24401338072633597, 0.05804115636174478, -0.6103117984281828]}], "mae": 2.0706315642972926}