{"name": "ej1a_id13", "layers": [{"neuron_units": 20, "activation": "tanh", "W": [[0.06304149700699276, 0.08496385503371479, -0.16227208776781518, -0.11002444513887209, -0.2844658372198886, -0.0970467911348968, -0.2120957565711293, -0.16836651475910736, 0.07859713450772815, -0.21440406186658634, 0.12501435580173575, 0.11851634994652571, 0.00397967501786919, -0.3600855057064178, -0.050997234827773796, 0.23737258397938665, -0.3097201164153988, -0.0856943374300748, 0.16801345700352596, -0.09390264396927944], [0.08146616593147275, 0.032908682841319266, 0.0034659935223402545, -0.010009672292398764, -0.17461018448811066, -0.1572142140944263, -0.14911863827221847, -0.024142315220638328, 0.20792693611654306, -0.0014291352980727232, 0.01737398368488862, 0.25661836078329403, -0.2994297440662105, -0.2761354236647268, -0.13151809376869747, -0.2867769599500899, 0.16551742100862044, -0.12649920297015504, 0.04339730246875109, 0.14213153588497796], [-0.07590070716460641, 0.14702652879656372, 0.18381595084911126, 0.003512872316359128, -0.12537774139568067, 0.4119813974791499, -0.02643934000175046, -0.216520461764442, -0.134982894927424, 0.13960799229485193, 0.09282747339411683, 0.014906983172553272, -0.2429150281887185, -0.3503899196168568, -0.5602759547450649, 0.06559638841416832, 0.16422133995798477, 0.5605113850013028, 0.044071504575265985, 0.18248617930828415], [0.020390613820579787, -0.37596335878451387, 0.10514875072505796, 0.021308502297376616, -0.15668433314374475, 0.17097264674501736, 0.2419176869488048, 0.051028755980518384, -0.09542621878144728, -0.14193514873345042, 0.39420890016988536, -0.3580435334509686, 0.07436941112590405, 0.3975990206385978, 0.2986385157116848, -0.24178964167966815, -0.10230853219208536, 0.37360952071414266, -0.043137346998405504, 0.17796893364346977], [-0.03662368141251397, -0.2223520346169813, -0.055067240753586856, 0.14591010634495022, -0.11464617524758527, 0.01470341935202807, -0.061803581386705685, 0.00434951459910193, 0.15392663033337495, -0.0782574820796529, 0.06592938042450168, 0.09814615105392052, 0.07357071139899142, -0.2910009965741101, -0.1857072535337038, -0.1857735537742859, -0.33276556129935914, 0.12186865101642416, -0.13026283676671038, 0.08340870018598487], [-0.2975212137162703, -0.5656393315969205, -0.09198685199124772, -0.03639793928578032, -0.1697740375047057, 0.15148047001751944, -0.001986360737348516, 0.18781960829144184, -0.13751491065858157, 0.2132254249614809, -0.12879371692587155, 0.3294722854410319, -0.2796903233736292, -0.08127885154691641, 0.11236330158798465, -0.025977361503435464, -0.020143419194781402, -0.08900695288769327, 0.032120850469027136, -0.31134694352529263], [-0.11912502824721642, -0.31209556455630166, 0.04641751674290288, -0.5969349559978667, 0.03981944931871837, 0.013123518811220996, 0.10719516091138949, -0.11875491347620346, 0.2351383302215948, 0.3398191993388917, 0.04460520530581116, -0.42683290470448876, -0.1342748368241635, -0.2524370648088054, 0.1655304951844774, -0.19765716167156067, 0.30278502489304543, -0.004423664123352619, -0.26256217606364257, -0.15548652369356813], [0.01002732746496926, 0.09222412641118208, -0.20376200955546295, -0.10222855022418419, 0.3662776452289157, 0.136829016926011, 0.1364962823364673, 0.1079994646344615, -0.15404429282998983, -0.14893607929162805, 0.022263176051123962, -0.1334683229247572, 0.17987964586753522, 0.048648208228059674, 0.004856998430256017, 0.494042413765146, 0.1165456375490076, 0.004190650395959084, -0.22305451192043527, -0.11224844592850364], [0.006110834417048884, 0.3193610106319534, -0.1852319651076694, 0.35564511740833515, -0.16032902996558646, 0.13966160772284839, -0.5012941838868603, 0.005044331078926699, 0.008951546708464845, 0.16126978934953023, -0.09314655818876509, 0.27199221446071353, -0.09874424944751216, -0.12891216931005267, 0.006276116442971188, -0.2853435991701003, 0.29898337422083837, -0.03342621539128339, 0.25170477995923074, -0.16527605172017978], [0.1588486147664655, 0.11677628598887146, -0.161724250874991, -0.19300510725592235, -0.04221561824170502, 0.10076914738600885, -0.4866610984701021, 0.09320347068097329, 0.2910630321401537, -0.25509406916375543, -0.13716235632847656, -0.11289779487940627, -0.2810286126333047, 0.2956074076943494, 0.16383831879200703, -0.13959858031855277, 0.09837930850485208, 0.4527474301322344, 8.436869383195079e-05, 0.15393860355330996], [0.45893741952651784, 0.04445116128249294, 0.0013638647068626192, 0.10001755456140789, -0.07570235654856478, -0.10163811874692345, -0.2750570221130806, -0.18647412803122881, 0.3014908812035114, 0.08016838345238352, 0.30957242435115634, 0.012972317344497566, 0.015690027467633084, -0.005823058076139382, 0.22729895302812023, -0.0878504084998851, 0.14889841631748113, -0.1356620739311, -0.26052360895483445, -0.06663266206531279], [-0.1630700337302391, 0.18926159433951759, -0.13497420631443738, -0.06317687509754545, 0.02057313198863012, 0.12239490841889773, -0.25211777338018126, 0.0013788721374983365, -0.09381106601208405, -0.1032737338540425, -0.2088318979492676, -0.03913343563215328, -0.033153892248113916, -0.22080499312292115, -0.1307004962825807, -0.11453084128790057, 0.11354885613744733, 0.10849764397104057, 0.03382858561126949, -0.057200650926426774], [-0.2802768566989781, -0.28016634378025557, 0.3002728097801063, 0.11482372643968088, -0.12892297632836372, 0.14635096106990444, 0.1521590436936681, -0.03096416087428643, -0.23221291326555055, -0.03762046155162248, -0.16855717882576982, 0.1513808944359904, 0.4207473839143884, -0.01259707158217923, 0.019919441121088753, -0.10476887286304046, -0.033946604331267886, -0.11962665185240197, -0.1414575193233121, 0.28561665435426326], [-0.4313087427285937, 0.10237160813185195, -0.13628470587585342, -0.33379415286156655, 0.02503007263353157, -0.05749258118493833, 0.18580787913782607, -0.11685003433802751, 0.21689947306234758, -0.2640818681478869, 0.008939995860969864, -0.2011904269863476, 0.10837883104685207, -0.16592624534741449, -0.01854169527586883, -0.047569145537601845, 0.3376244105594339, -0.005075841626910692, -0.20371219016652484, -0.08677394926875467], [0.2103913208094848, -0.23910534801929187, -0.023704485661313005, -0.13764341745076303, 0.04490077184916381, 0.06385496588201385, -0.037200026387956116, -0.009238659639594082, 0.11230221861726883, -0.0848616018080806, 0.036230174279296395, 0.025714735163263933, 0.3227963730554322, -0.3952645762587426, -0.12735077061942449, 0.17797234792770456, 0.045019961251533964, 0.2748731211432365, -0.03942214167712563, -0.04354444134091586], [-0.1561835172737011, 0.47958895803831064, -0.137071306143791, -0.14691418135476753, 0.08029465943879349, -0.07754317204086113, 0.08147620197033305, 0.09547029426647627, -0.04300038926244594, -0.05104197769101687, -0.049832433528129355, 0.06511357180804028, 0.05553997285983899, 0.009113955906129234, -0.307467936946248, 0.15213996987034795, -0.06571230350736906, 0.0066400023584989795, 0.26098559300261176, -0.008678750330172557], [-0.19396779752339927, 0.1086296896080142, 0.08259065896938804, 0.15196633877906712, -0.27933502802377264, 0.03305035147490989, -0.08803809277482098, -0.14909735591780854, 0.005228552201760811, -0.29141873326974566, -0.22961807704909437, 0.008139336268628297, 0.47447809104769234, -0.0849724203821996, -0.2201205844571197, -0.2604341531728719, 0.07482488466326614, -0.12109041405426198, 0.05598741259952976, -0.05447210519404088], [0.007902777220570659, -0.2610416500295278, -0.0006952152369320213, 0.08205483733263115, -0.09541789079094132, 0.019871851705065394, 0.10881289525459444, -0.12209985170193269, 0.04942325826056189, 0.024198756440917873, 0.263985502148316, -0.08159396283612799, -0.021441530297390498, -0.32732756649912614, -0.21895687735599437, -0.0638606772738458, -0.16268492872213125, 0.06613050317756715, -0.27889826812002955, 0.12617747454125205], [-0.056486233902277944, -0.11210234665448027, -0.3033559252710737, 0.2655925366600942, -0.14624048847721705, 0.02918795135928322, -0.036681160155185834, 0.3453028982387277, -0.061479513202267425, -0.15639959226810013, 0.033318985638028695, -0.2661274952327697, 0.012622202941739692, 0.04851592439785443, 0.5349438321536837, -0.04421722216894994, -0.08057218380967135, 0.3003473797202282, -0.08616546517997598, 0.11469795716645148], [-0.31280244512709504, 0.2387798914619577, -0.05143111076694815, -0.47168603855605984, 0.09633087140589414, -0.43709140819809716, 0.1298877728042201, -0.1703427489229692, 0.12112507495286004, -0.26671591361230684, 0.1673644060215423, 0.1664454346014817, -0.09891656590747312, 0.1097204562242664, 0.2135906337875694, -0.07889608413647295, 0.08648174331006145, -0.29479117369941177, -0.06419308105846971, 0.2686318750766617], [-0.12637191383001323, -0.21053112540465388, 0.027870691369717374, 0.10593335307181027, 0.054883000785302664, 0.2903856793203952, -0.3359819370638861, -0.07434759311723813, 0.17029479945789505, 0.04770284836472012, -0.07227573893575148, 0.5170284674887571, 0.08041033518851255, -0.30565523207917705, 0.10166042933616977, -0.18782150256890123, -0.25531679103658494, 0.12718245998800295, -0.07275888420713586, -0.08152795476406172], [0.1375445716784005, -0.016693306714429354, 0.2520683912627924, -0.1157824839962343, -0.0008970687908524574, 0.03985317887810551, -0.2197060788944453, 0.15762180914145796, 0.47043117124919465, 0.010201597802483364, -0.11723024847907774, -0.1629022015119721, 0.18598155012700676, 0.38990194566245745, 0.07535993866982942, -0.06852424554452138, -0.287702636254031, 0.007853643736031509, -0.15104230158187262, 0.4282652550168489], [0.02306784020916272, 0.08794922967110261, 0.12393186176240478, -0.14596413916949968, 0.04318867169082113, 0.23497296715429852, 0.13136549637460201, 0.2840150116310097, 0.042524380005767595, 0.2634478666655826, -0.04325155774905902, -0.14857374940069518, 0.3525566204062157, -0.1247407474840512, 0.03189743448330685, 0.30985050792832025, -0.2473474775538361, -0.14591921895970625, -0.06697541999832982, -0.19927445890740342], [-0.045798631391998454, 0.18918730333742498, -0.08060770933070151, 0.036981385569235276, -0.13793693861577316, 0.10439930798172924, -0.05490677787904951, 0.05241526040522222, -0.1860700571127391, 0.03676164394954254, 0.2872855001421392, 0.18594129487934946, 0.4466471800599491, -0.2585281536069119, 0.3644936022851674, -0.26512219563197126, -0.07842968561740715, 0.40204812346586494, -0.08451656765939017, 0.22394368514256724], [-0.15796258417132536, -0.30111952631570976, 0.1833218516143668, 0.07889094076493423, 0.08394566740936621, 0.29129577070913165, -0.1249541030364924, 0.2620077543476093, 0.13178840916365558, 0.018492172933096667, -0.19292869241477872, -0.15265095120898275, -0.07889945389794205, 0.046442986031912145, -0.2439890898578467, 0.19036541576559313, 0.1487460557496323, 0.18792651084160736, -0.20846788262989138, -0.09762389093378002], [-0.09026146785607349, -0.02745947326019152, -0.06777429618830602, 0.1288535468118206, 0.2885642023907522, 0.05703591518146911, 0.07795049797052316, -0.17779369628634795, -0.27604160521353316, -0.12182568961690395, 0.161651809132987, 0.12604148718282698, 0.06794299308076061, 0.2219386277585004, 0.02248162699243373, -0.2501515499036393, -0.09003852590456651, -0.02793582425337707, -0.3496195034888174, 0.0752040944169351], [-0.08339599324451717, 0.3800119241346424, 0.17218438171531816, -0.028123735855958544, 0.2264421566465658, -0.2858309236212893, -0.03234678613864377, -0.2669774404107422, 0.265380839850456, 0.04772689290023857, 0.05584067586130648, 0.12001441929325316, 0.1106559927385269, 0.14731623717208317, -0.06559973227194398, 0.07266254399673797, 0.37887582762891997, 0.33616694088034094, -0.42050143024109715, 0.13664870794547884], [0.27907859382826156, -0.07626817435570177, 0.04367409432526368, -0.08937021305052602, -0.03896914146052773, -0.45291717250620617, 0.17210035143269434, -0.22082520723859111, -0.1368409556662044, -0.03238569377656719, 0.016501730098965987, 0.10591310028475004, 0.13424702554606108, 0.026843551385824404, 0.3944825608754205, 0.22323484398776733, -0.05049007621773844, 0.0023189998465527038, 0.10591060072551656, 0.08380687940294931], [0.06603037661279955, -0.19321616145281054, 0.08224352232817554, -0.06486580560340822, 0.007129974991680577, 0.08331739364653278, -0.3174855019278344, -0.6248158460148163, -0.049202934182137184, -0.11665677949310795, -0.12499344037845787, -0.2056178695635214, 0.10181646756305092, -0.1028340530217135, -0.24853913461961863, -0.09511446861310166, -0.3449048511137995, -0.040641152089534754, -0.14230519269855738, 0.11475397934894704], [-0.09136066770065919, 0.2212760394913245, 0.2548675565031673, -0.07970786049749891, -0.445538040526654, 0.1228801742603299, -0.037852504688618345, -0.10716475892764385, -0.18185542429019302, 0.0381606928180941, 0.08016158575616424, 0.02065816150817302, -0.14328025829090316, 0.21433989232927722, -0.0641032013717447, 0.07005845312936765, 0.02821156439015063, 0.06872968981671575, -0.341168898817195, -0.03986924423327103], [-0.14691527081625982, 0.0033451474817988683, -0.1442050908326927, -0.1598094494772303, 0.017293252102631565, 0.058014814899025824, 0.2852788556915268, 0.25259665124607006, -0.08749234822407592, 0.16020793371260927, -0.5353752372706602, -0.07253898959940938, 0.15889036753894, -0.09673812242216337, -0.01539198216741836, -0.09129753698628171, -0.09576042502259285, -0.008259285369387704, -0.08035581634976788, 0.04189866700729764], [0.08834991848451147, 0.10560513787139753, 0.06883604789905022, -0.20031010063796206, -0.18825547672551324, -0.4506974211386214, 0.04801326632221894, -0.3969185751367839, -0.2805034070575765, -0.04754550956345395, 0.30002422190457684, -0.04107044517096932, 0.00025146602402149627, -0.11151681381993989, -0.036741663748812034, -0.1312706365176608, 0.18752123797360865, 0.09640170639946934, 0.05470144752206098, 0.021544901498114576], [0.22808059264335506, -0.0398690162005348, 0.12005874883340037, 0.21059181951785683, 0.008960448057933716, 0.057497069039189025, 0.05796583844840215, -0.1243588426954085, -0.19913980602763937, -0.11983595053305494, 0.07219764892081974, -0.6221424328857881, 0.2465123956839599, -0.0559189346085234, -0.033435360476958886, 0.1536546097141709, -0.032623907040692575, 0.050459695240256563, -0.24566610251223872, -0.16458832015386926], [-0.0447052197561283, 0.06871974464547953, 0.02295546634695678, 0.17071278139830082, -0.0777796706669085, 0.04071103377192174, 0.03664899527282069, 0.07066105038994142, 0.1379196865716854, 0.10291214673259282, -0.19144830233215837, 0.13524490849275544, 0.14014020110775025, -0.1662193860943533, -0.17084193711948073, 0.06766115690441848, 0.21867246781025512, 0.08122171289110604, -0.08406762191785666, 0.2902842807610588], [0.12578333050057716, 0.024428376677118564, 0.14571291772393982, -0.11345681798548683, 0.3362774928405605, -0.12795520414334707, 0.14481687897902037, 0.014547809324794327, 0.07241526677237875, -0.25678259784987767, -0.009591082871646287, -0.08093339851884584, -0.0878369440213279, -0.1453182862465998, 0.23620925847769367, 0.2709151379885213, 0.2670508535678439, -0.15039606629503652, 0.1339751005210507, -0.1786840455995402]], "B": [-0.038192977522445964, -0.11332940004688882, 0.09870850298809249, 0.11081516357457301, 0.1602368011305783, -0.022413543354361628, -0.18835685557509893, -0.015983292099743144, -0.2476963172744008, -0.049439460981225467, -0.05290485621142639, 0.42023432063898225, -0.3086850479865977, -0.13232965588853265, 0.040743134950749646, 0.1832235794826797, 0.06940123140535756, -0.06652799506422673, 0.1777598899332201, -0.21053385918302936]}, {"neuron_units": 15, "activation": "tanh", "W": [[0.08914597840106804, -0.10005748073022959, -0.1983844037321294, -0.28455890174974247, -0.031869780936673114, -0.00895024353809432, 0.18025975181421178, -0.0012416781410957902, 0.1820847030520999, -0.12956220217361197, 0.37501552077173883, -0.41006149503586625, 0.1961269725727766, 0.06253307522505101, 0.08083285347675506], [0.16221068203427452, -0.1869533330781399, 0.20489526592271218, -0.3654876486004555, 0.10445082619205802, -0.5184171756796656, 0.09012510143835338, 0.16976138796575155, -0.40391270984016797, 0.03126001173416182, 0.03541837253682088, -0.22026022057808273, 0.21295958887354163, 0.05974542083669707, 0.2551308732907296], [-0.018441599993722354, 0.42820598214267547, -0.14679229069687058, 0.04368030232113465, 0.3085959166329386, 0.11950350268796639, -0.16025772457670676, 0.225255423659717, 0.2960811544752065, -0.1918625592047536, 0.07155409151814594, -0.2044392807498165, -0.013207460646007096, -0.12636938008748622, 0.16430378260375128], [0.07704267429598351, 0.10410299957430101, 0.11677817528184399, -0.18329619198680883, 0.23709321040551243, 0.1146344582997658, -0.4611154678762944, -0.029845552743259292, -0.23734803769239826, -0.1540977556834318, 0.08379292344919642, 0.2684890180889507, -0.14461768380019438, 0.4930019180752259, -0.25626723281241703], [-0.24809182827309742, -0.18632721020843135, 0.12214820302982118, -0.4185854419354266, 0.5215077085984429, 0.10964191855100562, -0.06800589902682817, -0.24155239115945312, -0.06868100316069718, 0.05343915076358982, -0.5443996119644589, -0.4629901334420364, -0.26833250882186194, 0.5963859353961337, -0.4180406791774098], [-0.12781493185435225, -0.16242377737755512, -0.015393583177669862, -0.16962390025822877, 0.1976157294271088, -0.18544980017201132, -0.27538177672964553, -0.3057678404579343, 0.15498126755762345, -0.5124475391611841, -0.08991201802807751, -0.225321297874154, 0.021849868476540125, 0.2621338062635815, -0.13105946807343402], [0.09953640352387635, 0.008424637207374087, -0.04766586371694127, 0.37364051097549095, 0.03871663981771636, 0.12697246488017755, -0.21224275700596135, 0.481131990349702, -0.356428521081532, -0.07906008259242965, 0.083433569609061, -0.09789120763425373, 0.09183081521822208, 0.0610821502036936, 0.0035290686962235916], [-0.06425887962473058, 0.017288152571199533, -0.6991540463900706, -0.08312099587761884, 0.12580270322036377, 0.2519799236160618, -0.12007763865734718, -0.06343629130330865, 0.2264705194606662, 0.4147499681609931, -0.11510724090498035, -0.48198154750700983, 0.08859460225930117, 0.026939749491906275, 0.12488445199248546], [0.28868724704618715, -0.3772329647948023, -0.15803957475759053, -0.1942723875038009, 0.2938138033952732, 0.16073383046508197, -0.1934844803396009, 0.04883189188492366, -0.034494190174066214, 0.2722884346390355, 0.04956563672930385, 0.04447715599478673, 0.18207644825322525, -0.1570292880362461, 0.13904815624737857], [0.18740361721954257, 0.40123838068986245, -0.2808172612226472, 0.23143421045359214, 0.628684002380994, 0.15665302748598434, 0.21671944754419523, 0.33526100379256474, -0.24292620474369983, -0.3542622804609695, -0.1519019293713595, -0.3427167163666175, -0.06871623441729373, 0.21401630277852127, -0.44355148440611447], [0.07714565444779962, -0.04171631769697916, -0.06067143120947074, 0.5421042986253115, -0.33302766844206466, 0.08009479413962604, 0.4387755041908886, -0.04376260757468918, 0.30378149069664306, -0.35596961734793425, 0.0944527807893694, 0.09706406748423436, 0.029331296241869774, 0.27351920981083844, 0.03939359434612567], [0.3781735673575957, -0.25150157208986335, -0.0518929045581169, 0.2162660774189041, -0.17351817357455293, -0.21237985003885465, -0.042088748314076434, 0.23107885053075763, -0.005994688214424468, 0.13724949879280718, 0.040743873998477, 0.15546631709753533, 0.09928213648132615, -0.2452796831318137, 0.18964984826085066], [0.23397509647174206, 0.06371217136063505, 0.14230791481817368, 0.15723722661704856, 0.07676705505684829, 0.3421669575750686, 0.14492134570680149, -0.0015973723684696427, -0.08075251614000693, 0.14586138051209985, 0.0997582105502069, -0.1171331987586434, 0.11473341226418182, -0.0787860991813723, 0.08539446449580687], [-0.15854886623408787, -0.667431961605123, -0.14750851356511133, -0.2482412106275332, -0.2912116707502367, 0.38539139429823444, 0.2471756072142528, 0.2638119696443607, 0.2037500553100954, 0.09026600778780547, -0.19998810940278058, 0.26859795290868727, 0.1675691492315603, -0.04649912452305003, 0.3818695934325301], [-0.313309280575465, -0.190712564731469, -0.3703687888256891, 0.09924499907407024, -0.15296917717567335, -0.09839706910222525, -0.3501171469206265, -0.23367218374785875, -0.3691687070048416, 0.5526528522986983, -0.16339481469956885, 0.1367182902365264, -0.45106540375470716, 0.12271601511456762, 0.10112369239603546], [-0.24727732646789963, -0.31411047261773395, 0.38551315420048354, 0.011370357374512623, 0.2387986097208752, -0.2738966037020188, -0.2796147652133647, -0.2536001924549942, 0.0681922720024616, -0.29335171453179915, -0.5466905752480896, -0.4576325501996315, -0.06047561262996922, -0.135035631419249, -0.13156206376223242], [-0.11417793314056517, 0.27907393792054774, -0.011153209064486238, 0.2748969677942395, -0.08471671424941336, -0.11805253581045785, 0.091606216928972, -0.09319455117261849, 0.022246408387683114, -0.30556911955271093, 0.22505580385882226, 0.3722919504468305, -0.40413201718895486, 0.0014395361102966298, 0.44552035253415884], [-0.049350560792369824, 0.11912135781332861, 0.11896004552160062, -0.15432897539373042, -0.24869267417482321, 0.0844298135940688, 0.3361903153575208, -0.6000437376372325, -0.26303692111963073, -0.43894790164021724, 0.16654090365380192, -0.46406034713169886, 0.08371570085101782, 0.09930451959840753, -0.024921470987870013], [-0.39702792061296255, -0.0001952655987760635, 0.16986155181391327, -0.4521674743875252, -0.11531917528253995, -0.03333886731759458, 0.1172284530134997, 0.1849246238407843, 0.4553363747688782, 0.18648657497071655, -0.22311637497199946, 0.1080699747020443, -0.4011868435832583, 0.11703795828988142, 0.1237963726470758], [0.11951158999987765, -0.3562513618578001, -0.06885927885610774, 0.11065746153262554, 0.23890777217055256, 0.24731114820588943, 0.02092837978611069, 0.15200768105927634, -0.4892746342323953, 0.18116997693013875, 0.5439263463354481, -0.05945121079197324, 0.18363796875616847, 0.03018759663080933, 0.19091054139156843]], "B": [0.21853803616653794, -0.3042704014439031, 0.005113644078111741, -0.012801660261198555, -0.1122723120462407, 0.20143242541044878, -0.45881033746427935, -0.4099561277899096, 0.42515688653211986, 0.04366109994331706, -0.04525497474811109, 0.14628295511139733, -0.31294310229232536, 0.29242283531432134, -0.044606428427782285]}, {"neuron_units": 2, "activation": "tanh", "W": [[-0.30891540031475184, 0.04774859746471775], [0.34755870582693454, 0.016195150824880482], [-0.09644355815432229, 0.49057543480865484], [0.27674305358697054, -0.2566855680600747], [-0.2872605282588915, -0.2332015978493941], [0.07717212039791346, 0.23689157645378553], [-0.019478210407111618, -0.247694782357513], [-0.2709238718341713, 0.18639021147661322], [-0.1288198900085122, -0.7790060861283216], [-0.3929349820224373, 0.215376765319575], [-0.5301098898556353, -0.3038792640455843], [-0.6495181662673805, -0.09664921971571651], [0.040774252809517506, 0.017774447826869818], [0.005611357735221677, 0.27088939452887145], [0.31743911122184676, 0.11001004696852189]], "B": [0.07692053451560375, 0.10448307227717772]}, {"neuron_units": 15, "activation": "tanh", "W": [[0.07148966968753316, 1.0658225280802256, -1.0705457775570482, -1.7053874103684803, -0.2756833433305078, -0.2771961747365637, 0.39175030420306645, 1.468543758725406, 0.6156164554129805, 0.6030150412440702, -0.0405859481454348, 0.6382557953062046, 1.309618659555736, -1.9499240008541423, -0.25086807263163924], [-1.1720405907840656, -0.6562933405596305, -0.3078075947914006, 0.1192939471884347, -0.12898023693346583, 1.0867297982769415, -1.1461909471203329, -1.2141359513121093, 0.9213892901907158, 1.5669592416495777, 1.4233962583280884, 1.4584788875087882, 1.2021945781723695, 0.8747321513323101, 0.6430563187796348]], "B": [-0.5705157048714421, 0.9719139251001765, 0.4756458447913444, -0.8847604568157864, -1.0441785803774326, -0.25087625407925995, -0.6956451757366564, 0.34841119543826926, -0.8077131495329338, 0.953828719498042, -0.9341303232293665, -0.28708892127597313, -0.013178165065941872, 0.6433863556308564, 0.35033607681019663]}, {"neuron_units": 20, "activation": "tanh", "W": [[0.6578274760328398, -0.3749272789908667, 0.11985272610672561, -0.9414330251225626, -0.3175610201591089, -0.023901288677653437, 0.48786770284956416, -0.043976058769547674, -0.10577677735672403, -0.7204746379171152, -0.2655257550706304, 0.25213809594448555, 0.2371454492801154, 0.11033537716081102, 0.02549359365555786, -0.22293157736866648, -0.2590099308371684, 0.23617404337620093, -0.5095163899429861, -0.6840033415356399], [-0.3855320034029811, -0.1643709814560447, -0.46986326792016486, 0.48365955795813637, -0.04096535646717021, -0.5155011653792021, -0.23513233064449426, -0.19546941864391534, -0.8121854795462274, -0.03139364613086941, -0.5320542870970809, 0.2409619735594037, 0.7480865194253469, 0.6358072798551766, -0.49706939753647167, 0.6642337378379355, -0.30990010845578003, 0.506915594568682, -0.279764566384008, 0.061798377217262127], [0.4158549827411889, 0.2963946256894071, -0.3208741955210749, 0.252265092191783, 0.7377118552617118, 0.07931200422274988, 0.3523157173609671, 0.27672029447980906, 0.3281380583588741, -0.11393527446710404, -0.7458501290304556, -0.18874621417556334, 0.01828307200763101, 0.28665226897109886, 0.8648757085741873, -0.42661900015852916, -0.09343334531597633, -0.053030328998767126, 0.16050672984067366, 0.35053104662785217], [0.8214822437718111, -0.30310269155750635, 1.4358766634172864, -0.36412925553273706, -0.015412161896669142, 0.3479468664138133, 0.5952096705314859, 0.29462303444080146, 1.3984239690085822, -0.4791197877338087, 0.8469574478340431, -0.6883746806509703, 0.3852328604335547, 0.2455506130517753, -0.33342614563574385, -0.3169957698607951, -0.36934476651639686, -0.9202183457768923, -0.41438615527507705, 0.35084975919421374], [-1.2640328785289132, -0.3923456630399979, 0.8247927446964323, -0.21531717624824612, -0.3842974686915843, -0.20753552129166852, 0.33388323445932916, -0.15649894224570984, -0.1851906623174931, 0.23702874339792582, 0.16184596600288612, 0.23671613248347512, -0.31143110434825666, 0.412410535206103, -0.027323167951901164, 0.22774949731306235, 0.25005288171465356, -0.30577255122621366, 0.25458413732380736, 0.027486142945745817], [0.5008994672510256, 0.0753690798845142, 0.19548926752847504, 0.16357167292024605, -0.060036278541799055, -0.22194978011682132, -0.23037612205246455, 0.22998209633719593, 0.21109613684081188, 0.5573784674295548, 0.22333291408922684, 0.33793193728544896, -0.7656104486352232, 0.3036353684554039, 0.16043901530083376, 0.2482611010001973, 0.19317490547936153, -0.5359344081391714, 0.2389195428643468, -0.178477426492226], [0.4039243396159975, 0.2671574302438882, 0.011570035040545946, -0.5816560530022774, -0.5704505266680004, 0.05592572394125903, 0.1013257934341652, -0.04132388199131304, -0.26084816053437015, -0.7929751480733658, -0.13188601103573763, 0.10913160441585826, 0.3765025133799707, -0.3173587399458582, -0.3152228136567061, -0.32201924480631067, 0.07857133460886183, -0.18003826676002088, -0.6152012898844031, -1.3289380779857594], [0.3064393250925422, -0.31170214793275336, -0.5528124383207326, -0.6385590650618943, -0.11318920617816207, -1.0628056130177344, 0.19819233584863877, -0.6730439559623648, -0.1324631808206981, 0.010938696891594296, 0.8279885089179313, -0.7629165392016386, 0.7769707288046247, -0.13643368456485638, -0.14151885728709282, -0.3353106960068876, -0.39759714936173035, 0.34713492726568895, -1.090505994018185, -0.09235918464755453], [0.0893148852159996, -0.1282899811712132, -0.3230153629506527, -0.1342018462031225, -0.19799474652005644, -0.5026942733897745, -0.4908574996422053, -0.024605182646537622, -0.24153445308483143, 0.013671496322967762, 0.6483679967782486, 0.9311476030258143, -0.49747234524354633, -0.17911269259875048, -0.7569266368158957, 0.7671223178852645, 0.18874641229147085, 0.509698985207557, -0.3280123227210046, -0.20462769400683994], [-0.8579610702037749, -1.0724951202900395, -0.43661423227591245, 1.086639857704829, -0.10376129857715988, 0.602185113307618, -0.7859771415514704, 0.23093905679731697, -0.4240457083942641, 0.7392741053048776, -0.15013375496298964, -0.29068894024536035, 0.2209420637045221, -0.49277872857702654, 0.7118996729387836, -0.14833647536493255, -0.4845204250692943, -0.22267281203670317, 0.3141387356772762, 0.12164329597589828], [0.9573311305785855, -0.3333696176800624, -0.27359783766748913, -0.24707986203169627, 0.20799865524716304, -0.21713540315265187, 0.3075050946376557, -0.2986826842141733, -0.36990892211074694, 0.28103156324358014, 0.513920031138675, 0.4593524657422179, -0.6120875663706011, -0.38254457444040396, 0.04328135403457807, 0.18179496608207532, 0.7795552691143585, -0.1487246302601457, 0.015311696099162102, -0.3966384469915658], [0.22454973196208688, 0.9352010655180436, -0.4672925653565237, -0.04961800065809079, -0.3629255809714407, -0.051539094613050056, -0.7809040604501195, -0.2848816865212782, -0.11374496564231294, 0.5886170035465429, 0.3157919619617747, 0.27015609750965697, -0.9597565930623604, -0.8644409213837139, -0.35912146763152886, 0.9625942171515992, -0.020874363520541644, 0.19312206662104284, -0.190054234578804, 0.3710328420907703], [-0.2197565455513026, 0.723696641444677, -0.6059047479782975, 0.12336434676989638, -0.39268848933932654, 0.6514616252820284, -1.0694473311901587, -0.5465257304058198, 0.09663886253826552, 0.5945022314027552, 0.15135677956675755, -0.1428387948183971, -0.43385445191457356, -0.6213294909274484, -0.19064806656617797, 0.7849577338253269, 0.3527547565317562, 0.19376837172574518, -0.032489133119628345, -0.07248767179012415], [-0.7063711288991065, -0.2513626516550282, -0.2236226566902805, -0.1251835163613125, 0.5344091089860702, -0.8524175888767497, -0.34991533183859236, -1.8435591688743047, 0.47905711765916625, 0.08184275452966717, 0.0687329032814527, 0.456818813320047, 0.292800559775649, 0.8124417813360476, -0.36924845693527, 0.5812477226140212, 0.5817632596391187, 0.5961951027638319, 0.6882847771171409, 0.13207399026435393], [0.19963953918976432, 0.31416720310263024, -0.2093453833417851, 0.39335564086198904, 0.46017561968191567, -0.16649966361293161, 0.025890442507450553, 0.11898235514128737, -0.10761752075701937, 0.22340422566864593, 0.5566115511993617, 0.0015869445083592504, -0.3307869111242411, 0.3154504919865499, 0.32503351086687043, -0.1243342950879954, -0.278438426000204, 0.08007964957880474, 0.2820411492331269, 0.6907354281307404]], "B": [0.8425270679651544, 0.5833205612434323, -0.5387563867166976, 0.24345040712918137, 0.28880403832879875, 0.3917065432176034, -0.3129569927369426, 0.4620560959640218, 0.022931477075838657, 0.08792544112361092, -0.1264079403413186, -0.24190042436505826, -0.08183030716305008, -0.007966608643991376, -0.3004590299022709, -0.4958589032473687, -0.6467306477790247, 0.32591219034171737, -0.5017175170795323, -0.01090292226106555]}, {"neuron_units": 35, "activation": "tanh", "W": [[0.24073693510846855, -0.5950831564881405, 0.041036577978239376, 0.38157789885074683, 0.11587485390775792, 0.5277052882227978, -1.1259669620989154, -0.14576384445433502, -0.8364585701437232, 0.1375679730176586, -0.10067822309207125, -0.6430055134977885, 0.37700625154827705, -0.1851272839519139, -0.22986668209622071, 1.1290695805112674, 0.030564494215504102, 1.1024891885834176, -0.5396146570724567, 0.5435059304934291, -0.49377914337119927, 0.6215613249007442, -0.5051439152916254, -0.37395468377613267, -0.5409012524839842, 0.25034788594704754, -0.21106662208706992, -0.5367258249647588, -0.8663391957143862, 0.6535173997824737, 0.39041457606714797, 0.030282683611107843, 0.33218880799025435, 0.07750988532004383, -0.31053810950462984], [0.10057198521055723, 0.11999577630376211, -0.03557506262027842, 0.395088166755889, -0.30760926257348575, 0.04088293402598876, -0.14290165011358005, 0.22809616336052055, -0.3735792371031156, -0.23443088842729773, -0.6419969405515177, -0.39044335464015767, -0.799497030433341, -0.24328481368674845, -0.6866136059220931, 0.20137976536409413, 0.06802405965651392, 0.486831313139002, 0.24883839549203046, -0.3341403386256697, -0.2565500422511312, 0.02159274937002905, -0.9959760212535381, -0.3861010621986647, -0.34295507795077657, -0.4601227189377108, -0.188168421082577, -0.1680961216262723, -0.5467960229375954, -0.15365199072418448, -0.44675640416634377, 0.031477318118579754, 0.08063863887420052, 0.06229164876789494, -0.7208524647755923], [0.6129140921360768, -0.014962274903582111, -0.7289380563123807, -0.577518315299796, 0.8948396516616915, -0.31805589996387534, 0.6728303635950498, -0.012569819852245145, -0.3094883924347125, 0.9768264835569935, -0.5322132941182666, -0.07857674160368158, -0.5258346363848536, 0.3120376285393768, -0.5861072062321767, -0.4442841498520949, -0.6676924353168107, 0.28397996924338165, -0.7910466069503245, -0.8452857505460692, -0.3304582586119315, 1.023905466462828, -0.8927669507095239, -0.21518939422052896, -0.6923825577571009, 0.4426578098870808, 0.668175627322076, -0.4378463356501086, 0.8788394616772587, 0.13259785202171398, 0.7965012830813614, -1.2560051460692379, -0.9102419847650595, -0.3668641941588778, 0.779975422366602], [-0.051036297553264845, -0.06865033976668398, -0.254594910642713, 0.20722889256115573, -0.270731712972385, -0.4446747172448648, -0.35071190009963293, -0.05208195112106951, 0.2697625301395822, 0.14777973842086012, -0.13563135312159122, 0.3780285928374945, 0.42159859580008197, 0.5894292624291256, 0.15240887869535466, -0.25499260470890384, 0.38239257510104835, -0.3439242836882207, 0.4065041297063375, 0.750943652362315, -0.5404025028313567, 0.29418342263683267, 0.5315070042688215, 0.42168939071589895, -0.47623635111123586, -0.9069826334039759, 0.8628548089980265, 0.3044801819918186, 0.2933650179917588, -0.6818773154911553, -0.5184822492457296, -0.0586998555742088, -0.27886457850762114, -0.5489695484072972, -0.05316516674173325], [-0.6739685124926801, -0.5649041313504967, -0.31718316878482733, -0.15803674287363942, 0.033894624237685404, 0.01856469310335552, 0.4256927448295836, 0.35002229448327743, -0.050036027024838066, -0.40293414874337696, 0.08129097625133774, 0.14638329914852008, -0.8364962678039758, 0.07558224357782624, -0.6144260524286493, 0.5662693964143319, -0.19080084957027735, 0.030673034945895097, -0.2194155701403677, 0.08090296428647589, -0.11652395195116576, 0.19537265754274424, -0.6637159836666348, -0.15178073170570358, -0.26192656282817894, 0.17547117156939968, -0.596243870302883, -0.09961908357408905, 0.40192934435510136, -0.12969988540238123, -0.31290962580236975, -0.15316297934979714, -0.1910288285904642, -0.4232101089986785, -0.2578344651630943], [-0.10148002940240151, 0.8324372190652076, -0.0875115158064476, 0.10638945803063198, 0.024547835762825477, -0.22616014156711056, -0.6808815496844965, 0.17163859552050356, -0.22890506653604917, 0.5327833886273496, -0.060981275485021566, -0.2801581707653398, -0.5974296536339592, -0.8462723323588408, -0.06434947040550074, -0.6455770678231277, -0.008773739721515671, -0.1767179321906912, 0.03334389992553944, -0.01625445041518992, -0.9268795319228481, -0.5355257591067737, -0.5935132198708771, -1.1129368913539903, -0.19749858941984816, -0.4350984335656319, -0.24483583300519196, 0.4249460676290627, 0.15029385499732553, -0.3356887823693179, -0.1980856347409741, 0.05322167893994477, -0.27172846695106584, -0.45645580009156717, -0.49240309314483843], [0.3329043207454317, 0.3995054262420429, 0.2693693017268692, 0.35402143165250527, 0.7090109228377873, -0.1681904542098916, 0.6718113292751028, -0.10893891683700825, 0.4709385630521227, 0.39987011916003684, 1.0541809429538256, -0.09513001011640457, 0.11049874461073625, 0.6200292484065331, 0.07390847142873316, -0.03504492005796147, 0.7280971100650955, 0.6996750028729851, 0.24967526403533546, 0.10068703594293868, 0.2572739900816316, 0.30420914226634765, -0.4092898728726655, -0.21399321750011593, 0.9255005577176213, 0.0921404102233263, 0.0926662734586635, -0.23987143216370843, 0.9690835576483081, 0.09986153034619072, 0.23727772403979358, 0.23800384916828313, 0.27016128099664927, -0.21735636988434479, -0.6225484018219718], [-0.5783822368254137, -0.6621580230240282, 0.3631471469898685, -0.37410172508672523, -0.1625914584774631, 0.13846077849992014, 0.6765373122048983, -0.41747946857729606, 0.0796530517854785, -0.6240230668090564, -0.7008160908626039, -1.39767482031478, -0.7148863573693854, -0.513129214723441, -0.6982649470015193, 0.03924958159646411, 0.5693559279518751, 0.6022369107470518, 0.5885420207323198, -0.5574597232935457, 0.053967292424514396, -0.7839046525537691, -0.18709547094574677, -0.21118711509146607, -0.12975173152293165, 0.4124465531214741, -0.4811120020019287, -0.1334325405974447, -0.11085160075088563, 0.03364422165801074, 0.21857997878891205, 0.7553312807265039, 0.6691588795475301, -0.7622689487373089, 0.3010626737494469], [0.7832696466465981, 0.8647573598431976, -0.47584242462104587, -0.23802481535226488, 0.6186479875936374, 0.11420408718900567, -0.31117105482191737, -0.07956496275007734, -0.21467937308414642, 0.009191571524948343, -0.2510258012559636, -0.2046924295331756, 0.27750140728412537, 0.4554660825160778, -0.22909490348296518, -0.33453753154632593, -1.1586448441446742, -0.040704948284106514, -0.49012488598088433, 0.6930731731634708, -1.1692122299728949, -1.0313045060041173, 0.0500166279905892, 0.388997873399907, -0.900731875071195, -0.5247523529109407, 0.10352963881351858, 0.653269557026758, -0.4488656485131821, -0.06333398896065014, 0.29335008627998, 0.3447589967867006, -0.5595573631487438, 0.36477735397078054, 0.0449711833979201], [-0.3314396467309684, -1.4597207768076954, 0.07068130451602882, -1.1816332821836655, 0.19719911732242573, -0.5990620872999155, -0.11043424498527801, 0.6045436753154529, -0.6583814773470105, -0.20124773895897305, 0.015747315821441985, -0.13538952457203077, 0.3709423620321784, -0.4478810964413249, -0.32485687528409707, 0.09155934925781914, -0.5822705351832314, 0.29729959784451376, -0.9826419062003034, -0.4877804527861811, -0.07989998448910363, 0.14262870298980007, -0.14265773882288071, -0.026455033388507177, -0.1873889050802525, 0.0722575802298856, -1.1696920575718759, -0.07648913979984215, -0.4744446017773949, -0.24565864331590084, 0.20965357947884455, -0.9411997078352444, -0.4260461071613373, -1.0373935684876145, -0.7387160537796296], [0.3301859530713272, -0.6042692539076621, 0.016204157504579753, -0.03587413130840644, 0.12429352402931354, -0.1305600148218976, -0.10791572467140415, -0.18821917956524528, 0.5673564148280715, -0.45388721188966824, 0.01658854302580415, 0.28901223959625516, 0.20697721031645583, -0.21625695524829486, 0.16408772107919486, 0.7509769592761477, 0.484457231915396, 0.03571434216700071, 1.0153104175293342, 0.4230024872468835, 0.333088152535693, -0.29217975158832443, 0.8542127833823645, -0.020126829286514828, 0.6979190721227556, 0.11813626493017143, 0.24426601988021976, 0.17431374071972294, 0.6689874349456993, 0.15224463378183245, 0.06014569978754605, -0.35794306852404234, 0.05957274997989164, -0.3528205328803073, 0.13786806117225273], [0.04913479893079307, -0.43683395572715655, 0.2022568883145595, 0.5330299005220677, -0.1487495086935692, 0.3541925510361154, -0.7070182112560215, 0.4452776582059921, -0.24920073169725176, 0.0707357752062841, 0.3163381955566814, 0.8570625778723177, -0.9620123549449108, 0.30478489201485254, -0.11146055994681753, 0.18482675083482267, 0.06320314398474419, -0.42010647884063423, -0.04706542653222958, 0.021014685997375715, 0.3665116408556063, 0.3555320711470629, -0.4756667608826555, 0.3098186953986431, -0.46958297950118527, -0.03399043266811302, -1.0728980894006739, 0.6060795043106292, -0.06148039211889186, 0.17342327591952186, 0.27952337654998943, -0.3383249474639432, -0.08109703024315372, 0.5980532569932238, 0.32285351513392596], [0.09046098658905387, -0.641984475326194, 0.6230134738675508, 0.19303145480004594, 0.15080276183991756, -0.1225197930785838, -0.023264947984877042, -0.4088752043132084, -0.4593495414903891, 0.14315734043959286, 0.5259097769621252, 0.007667014002177479, 0.656875413418777, -1.0579346935668468, 0.6413998868584552, -0.3618566649484919, -0.8573369612702413, -0.0625146069524262, -1.1326484983422422, -0.5644803898506021, -0.12601511823970302, -0.17121341300577553, 0.37736425131702117, -1.0598969543220003, -0.5380404635705988, -0.6419583133962716, -0.56941379719895, -0.09369290777964333, -0.4451856444811158, -0.42692289919672416, -0.40925977743183234, 0.4645151841072585, -0.10021060595766784, -0.05086091435081148, 0.07725170697037977], [0.045198605710651575, -0.2129334202445246, -0.3747235850224298, -0.6111324380225553, -0.24634638398856162, -0.4888954560954662, 0.26663635203849867, -0.5016430371771328, 0.09731570972058765, -0.39222663601768903, 0.6238924165541944, -0.08300279692978194, -0.3609395200212499, 0.9152134399025786, -0.4653792579509582, 0.13808197308248474, 0.4143056023529017, -0.2837294687121082, 0.1922798325010468, 0.30695889202577736, 0.589047332631745, 0.09056774351045466, -0.12883364444186104, 0.9184413392061345, 0.5829238606550166, 0.38291048968679164, -0.46437738398654266, 0.17452787598571334, -0.11686808533693849, 0.0425616409136975, 0.07928006041739559, 0.7417194649025176, -0.1520169626457414, -0.3386988843850608, 0.040006664155935394], [-0.20717628498238674, -0.004360488493031852, -0.0792056846463549, 0.08696309253850464, 0.2086222038791762, -0.4607319852757866, -0.049189361142900186, -0.2539842881083899, -0.33029386822350226, -0.027380694813992367, 0.12621703596162265, 0.3060726800800734, -0.13575961675216638, -0.5182692217066371, -0.11975447880669533, -0.07275658402131013, 1.070442580100749, -0.4311420016094847, 0.0741403056484289, -0.0013213734288844725, 0.11546416608028914, -0.381164087934337, -0.4051450481907466, -0.44963257162448955, -0.07569877191793911, -0.6043767916137108, -0.0663034102950401, -0.27493498012810536, -0.20137609026914874, -0.2885300571233562, -0.21352804909398476, -0.21181010699773298, -0.2986480289125256, 0.06168592130333749, -0.0986168012497916], [-0.019377519900974905, 0.10241218933275711, 0.08905633519537619, -0.4752310638956838, 0.21011141004287967, -0.4064544201716717, 1.4022619070643307, 1.1634692117677934, 0.020043506751851157, -0.4403576528546935, -0.12319670255207214, -0.22263613951414113, 0.894687940022821, -0.04519116010600606, -0.38694211171224724, 0.1593551152001912, 0.05438464664723116, 0.190905412221073, -0.6194884050962495, 0.4101195956043495, -0.2330761186396741, 0.10029384390958715, 0.5147618638216204, 0.19594857120905032, -0.2945225612188184, -0.10734412231896236, 0.49623564345662097, 1.027144516565869, 0.03625915264521098, -0.01509427701168942, -0.13303863520550746, 1.1808671871800192, 0.11555710299936552, -0.17869919738288773, -0.1812117931452441], [0.1827362344914132, -0.31243711701226184, 0.014424634060358304, 0.23952543537525847, 0.1059506526771508, -0.19471390298424351, 0.007749175181103975, -0.222214866359484, 0.49736961905444427, -0.15364610509624496, 0.33220954243576933, 0.4991485687224629, -0.042432041646142636, -0.3331486385412117, 0.010681394936252657, 0.3138470595171405, 0.3757100432302017, -0.03576545221726516, -0.2582589132746844, -0.5293439651745593, 0.38763391444999273, -0.03309559129446699, 0.25263759407151315, -0.16395141838854624, 0.5214881626341387, -0.4055900829003923, -0.2406209717351966, 0.2557987468985998, 0.4116372664632929, 0.1445074050006278, 0.29652212625438107, 0.2714941319882818, -0.2197987953861764, 0.4768171582993826, 0.3955692114261467], [0.2557620051984596, -0.029245821134692637, 0.24787282114805825, 0.33219544922099403, 0.112678153171513, -0.13101382948683746, -0.042541795049289496, 0.31351720879359146, -0.12756286724524407, -0.3316143657309456, -0.6055472338376217, 0.1123589016808848, -0.5303363848743572, 0.12330689717884312, -0.4132041978983167, -0.3849807712630254, -0.550734433611108, -0.1297119264130756, -0.29558093343939496, -0.7162242708397666, -0.5373933818659122, -0.15609004257746853, -0.25525131131142087, -0.06486528055490667, 0.12588575907927188, -0.3908709454530787, 0.22795367190528684, 0.5860220755655349, 0.9682625632680327, -0.09057627554321399, -0.3655436981871223, 0.5124660508970077, 0.1298776781474105, 0.42981967493702095, -0.05738271204613076], [0.06971883467257477, 0.036158397287856685, -0.9182312503838437, 0.7237704430171629, -0.3500122153855137, -0.4383506388011635, -0.2824472064542356, -0.14159171729953354, -0.10630119710877912, -0.07331372206069454, 0.6039993069956902, -0.5005449857037926, -0.24571266914706758, -0.25301497770704034, 0.5598287822530437, 0.3374001722721702, -0.5020103961394773, -0.6683483410058744, 0.2767096860092484, -0.7393460182843928, 0.21040968055452045, 0.6994729708997038, 0.2034175873186868, 0.2522127086257317, 0.034614454032560096, -0.7485826940163184, 0.4525745630303476, 0.5115412815352518, -0.6826972959938267, -0.493243937426423, -0.3428133739544844, 0.5748333694707497, -0.5053120899371568, 0.2506877706361002, -0.7027123769987675], [0.27451874767087253, -0.3543197746558945, -0.6715970747059326, -0.5818650791488679, 0.37881358693269485, -0.5200901602293572, 0.12739584777189975, 0.10132189983558265, 0.3358868095453457, -0.7940056547566282, -0.8286955418850556, 0.7204961013108414, 0.5300096440566657, 0.7374288991536206, -0.9725608821502972, -0.3892867893702748, 0.6005064307581591, 0.4239471207625374, -0.30383135078061363, -0.6067345923380099, -0.21230817121121037, 0.12869304068661486, -0.011097948989018053, 0.05424464151066391, 0.12371733185644082, 0.5699998416911591, -0.12883125913928473, -0.044385417745224504, 0.14372967274860493, 0.03704974371192717, 0.1952085874537928, -0.18480034872441298, -0.55839393709104, -0.3164236112476021, 0.12451104944113589]], "B": [-0.12324644297485149, -0.017824900769543583, 0.03326494311648776, -0.040921929804174216, -0.26251997151363804, 0.12059802361063925, -0.32931434765321455, -0.08622787384167534, -0.41525701353192157, 0.1937096960348038, -0.10211372968222301, 0.02323358091866105, -0.4029656634646696, 0.05518520541697233, -0.1850314648148067, -0.4554762298160743, -0.6845698670039947, 0.3184604937858539, -0.044586964043828954, -0.54005523616194, 0.08137721127909059, 0.34579775512174293, 0.4971994458314781, -0.6046244197107168, 0.13635735262126117, 0.38255751389731185, -0.6435035948636288, -0.16709665796120068, -0.3426481023050844, 0.15154581944191245, -0.04943428936727347, -0.9228422169199669, -0.28930485892233176, 0.4600136877364218, 0.02223994543335336]}], "mae": 1.779350946827188}