{"name": "ej1a_no_gl", "layers": [{"neuron_units": 20, "activation": "tanh", "W": [[-0.24379209717837447, 0.42437461556467404, 0.18835102558185682, -0.2709007567860514, -0.18895255294040253, 0.26362295759078963, 0.47811610677569905, -0.08523085026633923, 0.037336430242316865, 0.06935577718501808, -0.30700892461442764, 0.13063969613586224, -0.11283776759436732, -0.5748896796477617, 0.10984947697238583, -0.21892085281830007, -0.1999972234853019, 0.4159121565840808, 0.45533341951894796, -0.21708446541555165], [-0.023994238687639193, 0.15733119748032326, 0.33305582687135504, 0.005454923100639506, 0.04785271746349649, 0.03362221153789262, 0.24320639678851616, 0.4510241975427656, 0.2210760303523207, -0.27777598422864014, 0.041451289732087906, -0.14447983580977233, -0.10463776096995646, 0.11743680656782662, -0.1312944354463068, -0.19095612560884637, 0.1645552963924997, 0.007755942702599386, -0.1838028650416476, 0.004877535263664942], [-0.20529471403826174, -0.20198846789040487, -0.1056421523153269, 0.10514136996004012, -0.06191375129315663, -0.07964173827361436, -0.1183923469024195, -0.1638133849086659, 0.09184781237686508, 0.10634723676151606, -0.02529111218241471, -0.009986224500273954, -0.20028905689853624, -0.19117346680104608, -0.23812628929473978, -0.2018949563063022, -0.17148597646169805, 0.038028390619517544, -0.28130514151595704, 0.04073732342327716], [-0.019601612887852345, -0.026802889798941455, -0.20255762148256676, 0.004533139981510124, -0.17596809121794157, -0.2155082898888049, 0.12469988865379945, -0.2588171589692806, 0.236196836684413, -0.13141747448203198, -0.28990601555003487, 0.12484564708052413, 0.004422831016253585, -0.14184622392885085, 0.393423374961853, -0.20101966714326683, -0.4367935071214918, -0.2217017776692198, -0.08908988217231624, 0.2573463594646871], [0.18189671051615494, 0.004099917723429445, -0.06104194489370712, -0.08344136510759535, -0.4411941052951487, -0.21320185503839637, 0.3782502810850652, 0.16254451381615714, -0.35830301856427144, 0.2152700482116432, -0.24909964626762138, 0.255808787241951, 0.1315979851379908, -0.1832687315527268, -0.2559257903897684, 0.2212748832082988, -0.049720475495508475, 0.45886752459140207, 0.47799130546024504, -0.0024809179131680165], [0.10081638780888894, 0.08783244124707357, 0.11824401627026551, -0.23888259955848423, 0.3706601966197774, -0.05773673619916618, -0.04113020609506835, -0.25675654248375224, 0.5480645122167038, 0.1077223334174629, -0.10694085211294276, -0.16871702539799924, -0.20722674769610022, 0.13291153512332038, 0.3130552249480195, -0.1272382264552584, -0.733562717603264, 0.19467643652754538, 0.06687052571141384, -0.029554068233825254], [0.4472210364652285, 0.05973698019650801, -0.017058710894442625, -0.30462289080286936, 0.14606579210639595, 0.35476176739903853, -0.035727357209545174, 0.05088153637619072, -0.10593921293621998, -0.26208588715412884, 0.03662698874790528, 0.1006225676466696, 0.20998130378903673, -0.4732814497347049, -0.11283329637592318, -0.25596011705781824, -0.08843522095502382, 0.15977313124996367, 0.08936144902404293, 0.04675414945433527], [-0.18355634403984875, 0.36795191163787844, -0.46777859576361136, 0.017974874136872956, -0.02339065129130057, -0.048121463949049, -0.12553592578787243, -0.19239326461153555, 0.1474502754096531, 0.009799737000077823, -0.012260188227362157, 0.10241135726990072, -0.4541047237711834, -0.3436805444559312, 0.28099923219495115, -0.14985024492506177, 0.18376648795607378, 0.17108006848147556, -0.10809454647211351, 0.10140705000458146], [-0.04253288709352933, 0.6172686374225725, 0.4362253536562301, -0.25264767740960603, 0.07246602127796127, -0.044397022267256434, 0.21861894313051658, 0.038377244790891225, 0.20077049675650144, -0.34754518924009953, -0.13172274801652778, -0.4429705639777711, 0.2194759373501211, 0.03729526188786262, 0.11920881896797134, -0.23198230210939436, -0.09844694607736346, 0.28309152541925686, -0.09826114349551997, -0.4570878122459691], [0.02148719442983004, 0.07407139495867114, 0.25048874541317107, -0.29822052395637944, 0.28506952193716917, -0.26029299986055554, -0.14779358661705372, 0.039211381475144844, 0.28371134808917164, -0.07031538038485799, -0.1230677878875636, -0.18851947587267706, 0.0367234010922201, 0.5213957138914428, -0.6725502527591791, 0.04871893617086969, -0.017539069378622575, 0.0544680479282987, -0.07731389714021067, 0.18839205187670818], [-0.3298024695915964, 0.20945365545159883, 0.003590459005206052, 0.1778505985251631, 0.00973613508881501, -0.39070547387094295, -0.018911089490485974, -0.04677779343008975, 0.023302871822680968, 0.10246864259412326, 0.14081728228530332, -0.3066792586110643, 0.5436525196697077, -0.19082581856669625, 0.07134487938376174, -0.2013691214594186, 0.2790860341411711, -0.22196968244076096, 0.2739170669631875, -0.2139575131813157], [-0.5736471019913321, -0.022256808505530936, -0.3443868062043435, -0.30899712720957717, 0.0748982030170019, -0.4265901282468571, -0.24597348429168372, 0.11300189857775747, 0.008058653510280763, -0.1525898744473172, 0.12954631864881347, -0.019185714601122505, -0.1959069183570758, 0.11672296155767903, -0.2405792225743082, 0.40917296034548195, 0.041262771655021784, 0.47945554622166625, -0.040833546925415534, -0.1616658598507498], [0.14701528790727084, 0.047304124284441834, 0.06123430778418679, 0.006202049891216912, 0.5190396075470868, -0.2498968564880255, -0.40893887741609003, -0.32721736822420167, 0.1107625833396456, 0.6426538306307262, 0.10137758567595964, 0.22329404871330638, -0.16317154802643277, -0.32418783344104674, 0.11824847289140243, -0.08255997847074557, -0.34528595758503905, 0.12414947891178371, 0.2595398041704105, 0.14317421027641883], [-0.27298685802882955, 0.24265833672962242, 0.3422293523839274, 0.03479365843446276, -0.25968127492991927, -0.458579657370809, 0.013496501958579201, 0.21994867505724353, 0.10421264044147606, 0.2301826372149731, -0.10656659599328454, -0.13317858994341636, 0.10483714141968621, 0.16691742541185045, -0.2915905326871875, 0.3039206354389137, -0.18849180943338223, 0.11600700361046817, 0.6100888889975078, 0.21424757282055806], [0.005941842055507968, 0.14810331421112105, 0.2507695632140481, -0.29793180539649056, 0.47615521329664967, 0.07058927412120047, -0.2588292113097213, -0.004179001299635149, 0.1387223279977926, 0.15964693406794692, -0.058107079006693, -0.39265006563557536, -0.046732651636781565, 0.09903282984025058, 0.15444091838582152, -0.1476341810577058, -0.10674170599346483, 0.16605333195351743, -0.11768049880497786, -0.09088925813557358], [-0.19141829609346886, 0.1081258614549549, -0.2732002489810177, 0.14328107380631347, 0.023628764597088247, -0.29543902233943414, 0.0686671081517497, -0.21411941121372222, -0.1261923848911311, 0.21983301342376138, -0.11835605069040415, 0.2568152291592741, -0.03420064660412189, -0.05242966415438479, 0.07555974951775027, -0.13300362768586224, 0.10863000532272857, -0.11981607361114546, 0.3593070781626349, -0.3503671504806265], [-0.12370566114840774, -0.13631109759011004, -0.5060812834258911, -0.07795688469126899, -0.11623127337862629, -0.23457069572675135, -0.056383416360850355, 0.6902183363989041, -0.4349294133450424, -0.27709823724202864, 0.19002506495839547, 0.03046643741570717, -0.49324100719627056, 0.40586162306050366, -0.022170959631938082, 0.26252570996266356, 0.21731841459958762, 0.34612714998259575, 0.18166468365372396, -0.2654876435049113], [-0.20248946149054128, -0.05701609526063939, -0.012179566457068912, 0.05371551755236016, -0.062447077642513976, 0.1106227843251795, -0.16871623169309038, 0.04418420858000851, 0.04615846169184705, 0.16558055919396084, -0.04537999736721381, 0.13930553806076637, -0.1590417549494107, 0.0446050381782167, -0.07292127100182175, -0.11879081719117611, -0.231666909621298, -0.24269931976501577, 0.38638027229343896, 0.2756592591912342], [-0.06633433189893118, -0.08136909293580911, 0.07438326099989548, -0.0028460030167876843, 0.0748117305592536, 0.17301905922605124, -0.47233128762563115, 0.11967141355187122, 0.21129051252309242, -0.33394874352708775, 0.16147942955614408, -0.07229596632455978, -0.14467626670022887, 0.037561527499565914, 0.1916531014363486, -0.06708385132732773, 0.0008295519534892649, 0.20071173476592177, 0.23619611577332952, -0.4090849870073962], [-0.17472208201880496, 0.018756467482325515, 0.011986412610115266, -0.1399071704538461, 0.13736666813421347, -0.083318745986597, 0.23054251781020899, -0.07482045575116841, 0.16856825368237552, -0.07230383358574995, -0.5547644951975421, 0.022591128201060778, 0.07821158986732456, 0.18481947373281604, -0.4043691974650764, 0.29433828435254006, 0.15928660450488424, -0.12581199143023702, -0.06709507592711617, -0.4529701732767563], [0.18568079757915004, -0.056698340428847346, 0.2197949213774962, 0.1085204994059585, -0.09771590638733793, -0.11594794683010913, -0.3303765037159871, 0.19856557085274212, -0.013649151523464458, 0.1582727342080389, -0.08504312657413096, -0.3607853744338638, 0.5037559939743791, -0.19930748969178483, 0.05210454147978631, -0.2102456873110955, 0.18587809652981746, 0.032108462479141564, -0.2742068541300497, -0.0840059836523072], [-0.2073264653271331, -0.11354966172574561, 0.2471332298133935, 0.6564179494179749, 0.2018455370205843, -0.4589925327812272, 0.024101062153024416, 0.20551799455176611, 0.20014626574793568, 0.07371163501903832, -0.0277013935068003, -0.21974239992921005, 0.07444290786595234, -0.2512309709710603, 0.10424074002295816, -0.21195209521730024, 0.07365949914103866, -0.26438335515539496, 0.1049893869279939, 0.10098653236456849], [0.5405990944143457, -0.14550593642095513, 0.08402789550021873, 0.19752792298818372, 0.16556207438360038, 0.1228297043524791, 0.27424287264398844, -0.11837915644676467, 0.14233642590775827, 0.18697830371703267, 0.14781544986020145, -0.05948823923687863, -0.13322280913148082, -0.48309181210469326, -0.016627513419934653, 0.4427986730353115, -0.23724116491258687, 0.09667267907771325, -0.08985075534619905, 0.07621353796274764], [-0.410665293429056, 0.07444397885163044, 0.3672351784795453, -0.09106335409779297, 0.12688712333259275, -0.31040456389829113, -0.265666199768759, 0.3582364792926759, 0.19397311489211702, 0.22632704397248574, -0.04365739914288115, 0.06374322069857545, 0.17732777082549628, -0.28869330191053033, -0.303253277810648, 0.0886057595454903, -0.5973258915540517, 0.4879758269559641, 0.22099707753752823, 0.047119809423367125], [0.04023037473717165, -0.030187725068236974, -0.29479947811044127, -0.358536160964507, 0.04678780801383895, 0.26234068970555074, -0.3499653122154522, -0.052228725004572936, 0.07821686258814561, -0.05190736412285461, -0.23281645403235984, -0.047362602226944994, 0.032562683920067906, -0.3045289419525173, -0.09555457135148336, -0.017425988456861156, -0.0957845209125055, 0.21374372645879972, -0.1525379834018882, -0.11402329292087059], [0.20281657190686903, 0.11935145421876177, 0.07968586453316605, -0.35861308449503904, -0.10547148368334251, -0.3685569494385603, -0.09425298254253454, -0.0542203907897616, -0.054712200827289934, 0.14707836854985218, -0.0020318809437976436, 0.14898238033718633, 0.15159149077243808, 0.09224456921189798, -0.08659896702248619, -0.3661123054116717, 0.1439682030864412, 0.3200151877781969, 0.47344064605166225, 0.1582983213860219], [-0.11425675134409241, -0.4596804322608909, 0.14475083789674212, -0.04825325335037148, 0.06781591727888271, 0.15560839367559284, 0.062298303635701345, -0.2497225540317806, -0.10178903592843508, 0.021174429108697896, -0.41469155109044936, -0.12255811343789558, -0.1659273482358474, 0.029552042119482126, -0.1484189334320108, -0.117699113256153, -0.007341295747912236, 0.2574576383606425, -0.3382419443168989, -0.13396053448093284], [0.26531044955491434, -0.14739514331528933, 0.28627525168451085, -0.14552773503107988, 0.011772758377587098, -0.10989473155942062, 0.3245252439650123, -0.1917529479925009, -0.10482331601071508, -0.1558078691692566, 0.10266785434836478, 0.03270935611779449, -0.581403962455794, 0.1449065722454632, -0.19435469378955209, 0.22586767831800275, 0.27617022626936233, 0.17945083690259428, -0.06642424720108592, 0.0544933021425692], [-0.09825135567390474, 0.14173899386384092, -0.19807507865065146, 0.032070367018207965, 0.11125257340455597, 0.13846258474172216, -0.37115312192974614, -0.03918567699748952, 0.32611695101920496, -0.11141019844603048, 0.08280624720460458, -0.6338766444099311, -0.05428309622579733, 0.1966188381391783, -0.16488295349462673, -0.16361967870691113, -0.35492809180559953, -0.05668801141319838, -0.15803241395191414, -0.6152442366177092], [0.39988803284292346, 0.3357560823457061, -0.3450445571034796, -0.029140257319944553, -0.2815297746111123, 0.4047152880642031, -0.5911847689563465, -0.0721653905872778, 0.3322175950975175, -0.3759905914997821, -0.22498474633935928, 0.1901729887136357, 0.0838331177615862, -0.19299190965351848, 0.051388339721511626, -0.35125146783908684, -0.17893193076377958, 0.007047451223705187, 0.2011686014127042, 0.1568765392013429], [0.3016800094781382, -0.1175149050784386, 0.2088829594650793, 0.26639384866072024, 0.3250514458357162, -0.020033446006672426, -0.0064656789155783, 0.12825389230785786, 0.07216439758834739, 0.6290499930055339, 0.32782070548281855, -0.0072036880088180025, 0.060194478486821835, 0.0003108803483773467, -0.21909299584937744, 0.12586325073287558, 0.349114303286479, -0.013391186697834841, -0.18779549690833072, -0.28076125103141863], [-0.020751943824534293, -0.20018450228123258, 0.09567983093401994, -0.13089042746509105, -0.3995144588500791, 0.2818017980970474, -0.010932975149200863, -0.06723689000660452, 0.17726096257521992, 0.07445257585315182, 0.08090422437967146, 0.06735193939419212, -0.1507120015896491, -0.07559597053497034, 0.07864845577339014, 0.4965680373982948, 0.13938529720297563, 0.13651229170932788, 0.024010910799034144, -0.05505111784823944], [0.06010788153313309, -0.12440891623746564, 0.0019626790729213544, -0.20957076187354892, 0.15685981793052894, -0.08095481580916702, 0.10678855517346128, -0.5496321486556873, 0.2522533857568426, 0.6913424613640548, 0.07353249266930245, -0.2993852473337154, -0.0973172553749475, -0.2525418905612311, 0.06865137112928393, 0.003184538413841728, 0.38060224321639474, 0.24040284206706752, -0.013742766062579088, 0.020530433130577563], [-0.1128108047316207, 0.10156905988080833, -0.11796715859910815, -0.012028329537106029, -0.4504924518833416, -0.25011300294792177, -0.023069229200650552, 0.1640612264159946, 0.33304139942063155, 0.23252932704168494, 0.14996713077344032, 0.04142684316270939, 0.05744706986264598, -0.12765074857461878, 0.2308921511666875, -0.1226476755835308, 0.24458212491364947, -0.10783723056574203, -0.3132298130371399, 0.13300036541839375], [-0.19116668793042677, 0.20809175911443567, 0.04363773878173729, -0.1491063601359763, -0.14207664843889375, 0.15074228296465367, -0.04741175873776373, 0.08899848730036192, -0.05558107191152685, 0.0528380795448069, -0.4042430534794074, -0.0326454037593937, 0.011797591822718785, 0.022252760883668832, 0.0036061801733959114, -0.22014118416837772, 0.2548891917437012, 0.11715166185004172, -0.10821507293188021, 0.19690697244859673]], "B": [0.021153520691291065, -0.01536911801321855, -0.003812153013671993, 0.48352636855197445, -0.021019389089614336, 0.08229319611281406, 0.0690919386559187, -0.21969446812749716, 0.32983437518550257, -0.18625840753924558, 0.19605282417979789, 0.10387879838109255, -0.32804131576001666, 0.09809237014408835, 0.16792729837519352, 0.618428391285895, -0.0827405472505588, 0.2687368537913351, 0.2820160698380069, 0.0007837757495988629]}, {"neuron_units": 10, "activation": "tanh", "W": [[-0.09265934051241259, -0.03930595872797751, 0.47098518751866914, -0.19038607178643502, 0.25214417892683044, 0.2610090974054746, -0.3681910451638944, 0.3570895775651629, -0.5889051721722928, -0.18281332344416254], [0.535132195707467, 0.16790703563126125, -0.1566052966004191, 0.26421907208286394, -0.137439915632041, 0.037411670160458016, -0.511271771492292, 0.16768822063262165, 0.043013416849489165, -0.1000009011541052], [-0.07218549017146635, -0.46722104949515025, -0.09493289151801688, 0.4931469675628542, -0.1283892206999837, 0.020992036437152067, 0.17179551335972537, -0.046554985493401146, -0.4541607531503234, -0.009339157732460109], [-0.748072648003382, 0.11895103603610545, 0.13214427341144241, 0.1581376816378161, -0.8932847610406486, -0.09707698810874649, -0.2851365277007449, 0.30384458923291335, -0.2513205282814138, 0.6610897426696865], [0.171958951294907, -0.05747332579834999, 0.07859453077882483, -0.29325306925960204, -0.34978772566463795, 0.5213404050966396, 0.4495299273699006, -0.07057432753172597, -0.41519799869076657, -0.4371806631771771], [-0.13155490329946423, 0.18327227532267898, -0.6253642639133599, -0.9507776294212007, -0.11291928379608263, 0.3834348574554257, -0.4169592960414556, 0.24995396049664292, -0.6350126918928283, 0.09194152294788292], [0.14431699304300794, 0.4302025801976459, 0.09558428778605971, 0.1669141269331294, -0.32861034076112927, -0.057872184778233596, -0.255907431971064, 0.2416365444495496, -0.4440300863593243, 0.268012479037658], [-0.10061496796343239, -0.33284173084590196, 0.16284657015464296, 0.11601207402945866, -0.21584135520644723, -0.13049409436225815, 0.1298815322538072, 0.4372346311519046, -0.17975524618324643, -0.6100573355218004], [-0.11931380879416953, 0.31123838907064694, 0.23410049176678313, 0.49276893156130136, 0.0031898539781981196, 0.741512047010518, -0.10564920330801952, -0.2982289948968324, 0.2749423531903949, 0.7584965983215353], [0.12070761207997871, -0.21664553501042533, 0.13174420899934738, -0.30167739229791546, 0.00029069485035745956, 0.3324307075754605, -0.832271304473418, 0.3700115600392368, -0.4146994696449174, -0.5865486152181572], [-0.5308734236833863, 0.029507254897801007, 0.1374893842806235, 0.11206616177565644, -0.26740857947216345, -0.03605680119024251, 0.5250737209147613, 0.3381472999949627, -0.054606249543660015, 0.2166334465892878], [0.02842758495193193, 0.2815867284592948, 0.016016339085224228, 0.12197255910250075, -0.2206250248140377, -0.3657735700049601, -0.21874112614150007, -0.02560614924930633, -0.010068668933616864, 0.3286231167335464], [-0.22523197027418612, -0.21279526327124293, 0.3266425517865606, 0.1569620769050162, 0.32608627280406377, -0.24850906527672897, -0.39818001759755606, 0.1883978556702827, -0.42386306351731023, -0.42244765105888493], [-0.43118586356454636, 0.11891921468878934, -0.6800091681389201, 0.7325049826242908, -0.388243694518164, 0.6309472931637752, 0.5469882059237393, 0.34461266493931075, 0.20609960438478478, 0.10159464257073238], [-0.409463646175243, 0.20524055671973115, 0.7409400316179867, -0.005840208170325233, 0.021875725921267707, -0.3348316630378272, -0.25960453937828293, 0.20279444971852, 0.0532140677213513, 0.5282448299964169], [-0.01512227400135326, 0.16477255338693209, -0.2607315381700269, 0.021312627743505955, -0.4482211565109552, -0.6714046594348608, 0.7102448021391051, -0.20547929434735385, 0.1996691914537083, -0.10559717173188218], [-0.19624228971533994, -0.3744349593776737, -0.052293428730777955, -0.24165967475181535, 0.40172953447587595, -0.20391012596826466, -0.09564570682278567, 0.8681559495002376, -0.0699977539046501, -0.47837294019581017], [0.2036218066450732, -0.25297133770851193, -0.21791471478168745, 0.17106175280111738, 0.16130211602294683, 0.10027119406576229, -0.10232553373776382, -0.009676965937285516, 0.268773024087372, -0.05084749263321226], [-0.12077255910326722, -0.285655856464533, -0.5379919290405132, -0.33877034194623784, 0.17494873307335834, 0.06097164238659064, -0.15610307797880757, -0.08961830569928672, -0.5816300144029338, -0.26070771687668215], [-0.06045222181542825, 0.5286130533007384, 0.2881525700621288, 1.0089156262802248, 0.01990856940866279, 0.22660842097562595, 0.19528956327171934, 0.09326570879438795, -0.4444312098837324, 0.23314448839192925]], "B": [-0.5349347053518128, 0.29950636993653806, -0.10187943873171992, 0.4790537539653716, 0.16651516586091206, -0.3192209190077848, 0.20791411424856754, -0.2731228302411147, 0.31201194744302957, 0.0038902272990330045]}, {"neuron_units": 2, "activation": "tanh", "W": [[-0.585759066415075, -0.7985950163011776], [-0.6439686727736087, -0.19125892400222766], [-0.26453205057753787, 0.11651112661826547], [0.44109472703948144, 0.2184243973887302], [-0.2355598288645572, 0.4944807376093502], [-0.3517466447900529, 0.8894427981857171], [1.0307613287084043, -0.40020696275520945], [-0.21414129153007266, -0.13637378317152904], [0.141986861901218, 0.6409559867108027], [-0.9824630125089834, -0.5368069579078486]], "B": [-0.2585638419351988, 0.461546302848638]}, {"neuron_units": 10, "activation": "tanh", "W": [[2.9820063534077117, 0.11699798955810785, 2.9170265723628823, 0.3970690570291469, 0.019876780722744385, -2.5345381838915855, -0.7673693789711088, 1.1756209157829016, -2.6491660034092592, -1.5273201824665426], [-0.248539298134148, 3.1195210278127, -0.023265888180057967, -1.4175921162647473, -1.4833093962611814, 2.4963454721361322, -0.9980548206097765, 1.1249763175831446, -2.83169607926038, 0.13118299347547507]], "B": [-2.7711674971283418, -2.8697748527408584, 2.680430730189528, -0.9563981369097789, 1.0973652172773372, -0.02579430033691154, 0.4558773104570122, 1.58840545889453, -0.16489903887084706, 0.06724474281220938]}, {"neuron_units": 20, "activation": "tanh", "W": [[1.2820049760529946, -1.0721490149852992, -0.37636329551949527, 0.26461502505155965, -0.25427584825339955, 0.6168944457604819, 0.5035989809481073, -0.21682216441238555, 2.2373959196179594, 0.009764614386489016, -0.40127354265256154, -0.3962542057780561, 0.6523929030909293, 0.9663139308334372, -1.65874400822113, -1.0782843086189882, 0.6100121805760683, -1.328406235816932, 0.028674178814136708, 1.4931053730451596], [-0.2113345680178051, -1.0365302578658495, -0.4933232043370569, -0.5824342255320379, -0.9789003333244066, -2.06807555204503, 0.9271979540925662, 0.40214398435568244, 0.2070278565368651, 0.18223145358028212, -1.2265001507171858, -0.8549526530409621, -0.7324762963153952, -0.7065308360885771, -0.15571717710728267, 1.3784226725604052, -0.9325178112511007, -0.015286411903814424, 0.38412687412688257, -0.23302752796349274], [-0.05872282015644307, 0.09137780046046605, -0.32208215533111995, -0.29145968442735476, -0.2499691146027756, 0.41531191498796427, -0.5522931266650645, 1.0045065246231013, -0.6099193475386565, 1.6054821124364946, 1.4934298950077636, 1.2903891196848192, 0.4958178231971381, 0.8338077274012066, 0.7687488637650981, 0.37438327489377216, -1.2659822960534188, 0.6180203938735174, 0.6092823012360074, -0.21473331092114345], [0.38684480267073695, -0.04434455801862132, 1.038988781636212, 0.08721016833270175, 0.47721584556557306, -0.38394990794856726, -0.19299387892640893, -0.049618656954784124, 0.7814159535447007, 0.8617165157055006, 0.6049357206801068, -0.005113196870238092, 0.3925212848504723, 0.09025375551920237, -0.5401982283230626, 0.20721453856345512, 0.18552310070795935, -0.7545672315253279, -0.448104356942254, 0.9677249619013294], [-0.03236470983940318, 0.6690210519139843, 0.5969794883017138, 0.713438412125415, 0.749800424674112, 0.14915152209862614, -0.6241419853825801, 0.17987979783353553, -0.836572130809567, 0.08997237794415451, 0.19820995652829698, 0.23338807649036752, 0.8079912002282235, 0.43871699546321763, 0.4423648124519191, -0.13273690051664702, 0.8467074609408258, 0.3089041039565533, -0.37551206057085584, 0.6902272027051864], [-0.09814926428163288, -0.0756887189763651, -0.4922394461094845, -0.48961813845872815, 0.13313491262669158, -0.6298056024121419, 0.05838507421374145, -1.0813334412122142, -0.43172923484991815, -1.8892040603835594, -1.6006843669297164, -0.004695124009668288, -0.5522567851365102, -1.2365675012899429, -0.15898783130386848, -0.1467868418846905, -0.1838433884664904, -0.5006805934171237, -0.6273825698821369, -0.9729671307215786], [-0.6719390926327671, 0.4076763537510343, 0.3359776070744933, 0.3847860000231534, 0.8116579682115336, 0.3906207647966007, -0.5653478164497792, 0.0417534063387589, -0.703687369184089, -0.40416254560205056, 0.160962289446695, -0.35070857178873366, 0.25604302270723933, -0.3488764846639548, -0.12347524523219183, 0.15157000904713602, 0.17334778013526161, -0.8869469185110813, -0.08242734402775333, -0.22585360809427632], [-0.4316874463938533, -0.20281157858481919, -0.9317101958658981, 0.04691653667610249, -0.07553862460956218, 1.007113534822632, 0.05892635039846971, 1.0552378899752834, 0.37889604084504075, -0.16726785424561483, 0.8037058453554414, 0.0017520312259648747, 0.03364629693771853, 0.06669105036153933, -0.3047217970398987, -0.29507389291190983, 0.7413157513760187, -1.0387082132374366, -0.04329147706531383, -0.48676528642541533], [-2.1914219682632097, 1.1586863072197375, -0.05100269734450722, 0.0518274637329372, 0.691264019428565, -0.44347149020178883, -0.730484914612144, -0.7520235737115214, -0.9489457585416338, 0.3583801465572284, -0.31855709429869666, 0.0003532170308919129, 0.44624408590848014, 0.6802227854945131, -1.6277490950770748, 0.1248416056885675, 0.3724402026144005, -1.063835536127091, 1.5399255621914094, 0.13446559466958896], [-0.3904633976755313, -0.04435344568970256, -0.5409957461849196, -1.440063104967702, 0.05556759101514962, 0.45859216108770273, -1.03335603089841, -0.6410143338306142, -0.16546105490221752, -1.0877482043485542, -0.2685786188222863, -0.23517850756924782, 0.24199594114952847, -0.05807879508865487, 1.357458343816679, -1.1102631221087453, -1.2632684017175857, -0.24014807744425384, -1.2739270723388245, 0.3568733798634652]], "B": [-0.9570065277802569, -0.08988472033712686, 0.30868560589150684, -0.6746499290148892, 0.48532679405515633, -0.5184669883866985, 0.5072931232613201, 0.5678631319366715, -0.31175123887819295, 0.6044981850992079, 0.31838158083098944, 0.7633417094452682, 0.41468123562289494, 0.9477351448035971, 0.7232139965565927, -0.014751999326297786, -0.6488443374241328, -0.18725394865019482, -0.25042316172283197, -0.006439918760257109]}, {"neuron_units": 35, "activation": "tanh", "W": [[-0.7146744345711342, -0.813521411199088, -0.13630349680572804, -0.8634639998040852, 0.176541359229045, 0.04506734516299694, 0.8396323293342786, 0.46966289238710296, 0.6745901498183133, -0.3575141826003199, 0.6266643942066037, 0.5880389779224359, 0.21191084608800737, 0.37073822214000507, -0.012553759611007758, 0.8023242268483255, -0.1278468581578464, -0.801460532968138, 0.64889079539534, -0.11248326503193469, 0.775733987373756, -0.9853505346247895, 0.8489787544994746, 0.28088135108042345, 0.3684162731059256, 0.5459189329829662, -0.8482701948829651, -0.322338130795676, 0.801521517792993, -0.3039999718046947, 1.100564181457059, -1.3914109625392135, 0.23748210873059925, 0.2851085829842123, 0.16023454341626747], [0.047831028342708616, 0.1462068942146729, -0.19296779991498253, 0.5241426469358867, 0.27749164186769476, -0.11743179984121088, 0.045925833820093194, 0.2224154503655913, 0.336502755406052, -0.004813487254532453, -0.6044471650577201, -0.6597356473573316, -0.5061062318599505, -0.4423713853964019, -0.25393974541233033, 0.4707375932864179, -0.6448795971464721, -0.5364027326683708, 0.12208074914779272, -0.7093000695419263, -0.3963280896790608, 0.1726534602752186, 0.44190214221044555, -0.851977359182124, -0.5802541385547758, -0.04278837209478386, 0.2607221960363452, 0.04506290585757251, -0.12049783080988721, -0.11844914380364432, 0.08042412050684139, -0.7652722697905565, -0.050052551663759375, -0.013319055706150983, -0.19243366620680027], [-0.5959744476880651, -1.0326065754653013, -0.3939263242354503, -0.10977413524717632, -0.5988241013798777, -0.8607768020849805, 0.47866439643708214, 0.2898345146663845, -0.012010908523946815, -0.6671369142957596, 0.21489819523172282, -0.36046604847303515, -0.6469854727746989, -0.6795134251410215, -1.0764239713565587, 0.8758537087160079, 0.028145981956462528, 0.9402020159570081, -0.8815481479496186, -0.048446334908466344, 0.6500268475309856, 0.2663218761580189, -0.5288991340622452, 0.2715657984763221, -0.10258293364152729, -0.12604647821214637, -0.8129029320872051, 0.7967467915069193, -0.17430133328543573, -0.08627345961372791, -0.687382358276974, 0.07178195967111353, -0.330232170598516, -0.18803473890909458, -0.590125955061808], [0.3893301013705078, 0.5108889022276929, -0.5017390863961814, 0.3212497939045168, 0.4277978707211724, 0.016630212351117998, -0.29732654920623325, 0.31927072711286963, 0.1514886444578629, -0.06218106125207559, -0.7419211407920757, 0.6577471221274522, -0.5505929166208617, 0.4261392651701232, 0.18070049576936603, -0.17366330498357274, 0.1781964642143092, 0.32780253075643506, -0.2762369796347195, 0.2270294884464322, -0.01920588591028551, 0.9668132212701238, -0.5969426651841235, 0.7698553125570595, 0.2506189578754457, -0.19581219988478954, 0.07735296925276999, -0.9876489462454988, 0.4598637815392496, -0.19210389913330284, 0.38272120671177096, -0.49342669143532686, -0.7766090247843533, 0.2548094769413688, 0.18225857191774408], [0.08676976267198507, -0.31546710646191783, -0.12371013994131365, -0.4760050826420915, 0.2723530796964189, 0.3300477544938602, -0.9722721967230216, 0.13172919974909905, -0.5120005645356638, -0.116089011109801, -0.5730914042600755, -0.45382191659908083, -0.46776889854532633, 0.38839955076837135, -0.09704857499483661, -0.01660288052085365, -0.751502949679942, -0.02209866472294898, -0.5608876705643482, -0.08285265140476042, -0.721845700667763, 0.26562181506563387, -0.04214814817860399, -0.5348353338991365, -0.8955694844958609, 0.1375206229823155, -0.5273287025504189, 0.1690662689159818, -0.35507827820966015, -0.13447664314451063, 0.7765567162962029, -1.2199448980881071, -0.11841948975455176, -0.11670782409431635, 0.4630793636741902], [-0.04065507620707036, 0.28826057328745736, -0.09370442861654715, -0.17321562542946842, -0.17083883480233372, 0.10609619232261319, 0.501942910239166, -1.1974128335955585, 0.37822126734315814, -0.757745933164641, -0.5337242888606714, 0.5426269778560342, -0.7346023454750493, 0.6328802168161121, -0.011940623054418259, -0.5184168747139947, 0.7298854456715014, -1.2335637567159008, 0.37215490181367633, 0.21311642943023829, 0.7076576779397467, -0.1552404170874442, -0.49254548289525335, -0.16870366646683455, 0.09579372519620215, -0.8207712835261969, -0.8985439152331708, -0.8041236877556877, 1.344146987699809, -0.8446538121355459, 0.007618311850886116, 1.0215810199394637, -0.16949139763632148, -0.3412218448868261, 0.7617934196680627], [-0.4862109609757713, 0.1460950152808501, 0.2691036340844391, 0.1761405007733472, -0.30671747886869927, -0.12259995386163977, -0.5109497585099387, 0.02104607715884433, 0.5497190487409122, 0.08611377969416796, -0.15946738725027051, -0.0797116275086023, -0.4646236573915521, 0.9601023993578888, -0.036255831265490764, 0.36605266253349994, -1.0865198949316384, 0.07057340741007159, -0.06121576943102493, -0.11699277269988118, 0.7011637584790168, 0.9119274692192835, -0.1283585450655389, 0.9621622070523765, 0.37088659902281507, 0.40724795239395384, -0.3205727518392004, -0.05836096232905769, -0.05582843552256576, 0.20014971350127755, -0.01291481129741208, 0.4709953249362903, 0.20092648469664404, 0.1338638814878427, -0.23091354380175277], [-0.4804373226563305, 0.29363451848655386, 0.14728488720754362, 0.7495036449001731, -0.18204484180539227, 0.5499925474762785, -1.3616432745100775, -1.251685485441696, -0.36739315410017775, 0.42378931669216574, -0.05668470719997456, -1.5034792286773508, -1.5834191078866626, -0.246457670508294, 0.48498115442215517, 0.4302802938795118, 0.6356906522167228, 0.744083206720659, 0.5895040245487324, 0.6658027753638988, -0.08105786893699471, -1.0095630769748223, -1.1369944632973104, -0.2823502348652892, -0.16480196822027693, 0.047295540750182136, -0.7280887909329203, -0.5443636084837968, -0.661069107795194, -0.5596859326624475, -0.48597649649348673, -0.27363751302792194, -0.38103062370551505, -0.6453188224535703, -0.5991255477452637], [0.9402168134048594, 0.6038978745258097, -0.021392413563775397, 0.9517047666376757, 1.076480870575934, -0.46633377916210633, 0.8129530593720331, -0.7807259016000173, 0.15904912370117302, -0.1191668932759509, 0.8359169119431228, -0.8551378495736714, 0.06476958469461863, -0.028859056641613735, 0.5266559886029237, -0.9027293185690276, 0.14270735863299683, 1.1173401354506025, -0.6230832976436733, -0.8515345164060409, 0.14895491104621802, 0.6449022779087135, 0.22208506143427661, -0.8364578368612079, 0.4173849485923269, 0.7185027969753313, 0.7434859924393793, -0.554182045495877, 0.3786838318582575, -0.38905769492927755, 0.3229601192243424, 0.32813540104323896, -0.13989188076778358, -0.1113636719827261, 0.30382007592578336], [-0.21518059062312725, -0.5308894048717178, -0.924840477982277, -0.7715878557541453, -0.14333075209975568, -0.34603043952979506, 0.4502005348645858, 0.4210801916941189, 0.04020777851696577, -0.3432633224379942, -0.8124581302390842, 1.3267451652695288, 0.6476903815482555, 0.9920974220908617, -1.2103911929464763, 0.5720178377503838, 0.8824939412146667, -0.9201627126090827, -0.4659106701669372, 0.5754969786128002, -0.38811856453916593, 1.656797966951913, -0.039230628435763026, 0.4870025293300235, -0.6015908338275108, -0.18889951535039815, 0.555066286099425, 0.6105037837937337, 0.21481925087054035, -0.35342940118302724, -0.27617787767003404, 0.27949270714607616, -1.0223693186439449, -0.7551923205301425, -0.4189975722812426], [-0.640206853318892, 0.07274440585126432, -0.2148063502273353, -0.03317778526592106, -0.631329187378673, 0.24198329759059103, -1.0355666991721266, 0.791506619110462, -0.19879702045743444, 0.5757673296874891, -0.5918044761835192, -0.19277183466479947, -0.024793525533916335, -0.4433453977964216, 0.9060446567898023, -0.9191213870722004, -0.7635484325562123, -0.861091246303049, 0.7060453237656618, 0.5147774870941276, -1.3152473973611212, 0.4920253013582066, 1.0206513893525178, 0.14348978957184538, -0.9714766813722197, -1.106251000649396, 0.7049161398191054, 0.08084899367739336, 0.12406178307126957, -0.9092270622848239, 0.46344404254378824, -0.6356119636764049, 0.02220365812207505, -1.0282438415540354, 0.06525454609625243], [0.21097251881222395, 0.20678430149368615, 0.27934996062799766, -0.3383996442165395, 0.18332412306692217, -0.28631992153662666, 0.1630755241963473, 0.1789407097283684, -0.5148704818135572, -0.10380414222093141, 0.4294939564312397, -0.15852744881887404, 0.4268157549328402, -0.1582078091120407, -0.7440717744036073, -1.179346120207148, -0.5864925336192014, 0.5964298592483658, 0.33921883877237513, -1.2936217814405544, -0.5268536365905382, -0.7505179649496196, -0.2693810423018016, -0.34875394941441673, -0.10711510676042978, 0.32344488458593634, -0.46704740685719315, -0.19322414246799388, -0.24994546415117774, 0.2749152421762896, -0.676539826787287, 0.27736169611078, 0.1958400113239759, 0.11783538784502688, -0.5507017309975201], [-0.31116865105054475, 0.021748954827929063, -0.3690947091872605, 0.7425032455377686, -0.3557584953959288, -0.26466508577060893, -0.1982180562079987, 0.0861774682675095, -0.1305282003938977, -0.24696827013790704, 0.19200964186192435, 0.30983840181865574, 0.5637418540032212, 0.21793066305380715, 0.24458914859990752, 0.8172988336340113, -0.17759036024488078, -0.2889516552635814, 0.01696632383754343, -0.22363715996760325, 0.5761245229005102, -0.3866759983604161, -0.04891568670289465, 0.1979834148513242, 0.6165293899306212, -0.5226180504078018, 0.7298968253629073, -0.015333699416479727, -0.8062851166812024, 0.038261477237690675, -0.2903147797058324, 1.0983300253643355, -0.46180279518669753, 0.5665474752450376, -0.4861696619350239], [-0.4580696578375123, -0.44153383725023326, -0.0927759826408301, 0.03257526978361841, -0.33203315871607714, -0.6233517563196087, 0.5068038446101162, 0.6521284945439635, 0.5305805560648292, -0.1714814967668224, -0.16613497603772676, -0.2786106413721046, -0.2248500622118873, -1.0280283246043151, -0.07894629867424437, -0.4345209530603239, 0.13433976945856285, -0.4363534353849048, 0.3471770209353328, -0.60364238446356, 0.23351579247978885, -1.2709691139241748, 0.5966275153445919, -0.5952934096574014, 0.2704471537461038, -0.15516998648717378, 0.43623651205305913, 0.8165316015488014, -0.036315569265725677, -0.5056268408697612, 0.06577463482037785, 0.3955908522716003, 0.10509657851490764, 0.27211831692187616, 0.607015868263488], [-0.5475371190865511, -1.1548266674753624, 0.6493466846071702, -0.633151896630458, -0.3407320275317428, -0.2895601378037057, -0.35894447455979445, -0.9402335826504343, -0.10239571405853805, -0.3298651064658119, -0.6390789989572992, 0.7217370266788972, 0.7275275713920786, -0.9478109867481395, 0.03985893287691059, 0.5100119630451393, 0.260815142772246, 0.6884931988831674, -0.4826497049424297, -0.2949689409717138, 0.24978222984121978, 0.31917788027867017, 0.4990943280458295, -1.0035668296825135, 0.32825279095342214, 0.6992222217983073, -0.40730934913737965, -1.0285032746488711, -0.3155735907268114, 0.08255055569481619, 0.429467471162849, -0.9363358315256542, 0.18782530839858258, 0.3718568917413687, -0.5890328109354519], [0.08353779682628684, -0.3297655396311349, -0.03589238974456659, 0.001757118602383254, -0.5739307553220386, -0.05283620892107031, -0.5299359639000828, 0.3387042553087932, 0.257655335833919, -0.3341410806473626, -1.6896325423937681, 0.13574299828057398, -0.45804317691317237, -0.6108307435032383, -0.6486087841304078, -0.1807520746290897, 0.2572078170717538, -0.18783373772219242, 0.6137364414868784, -0.644714080346987, -0.2050435430423816, -0.7945800473706417, -0.4185930928739082, 0.20791145208964207, -0.3056572382446456, 0.047256778939623864, -0.35547766872892744, 0.684788520508692, 0.06925774405264781, 0.3047380281918477, -0.14854541119300224, 0.37392459898385055, -0.31342530183332257, 0.43861049812642666, 0.2290310732220007], [0.34352325992193083, 0.2479798950925372, -0.2767828049832225, 0.5983788056536895, 0.2570168255541506, -0.28457985435225136, -0.9695777335638995, -0.2113534885449968, -0.1423961810415457, -0.5345560317517616, 0.6105527655578661, 0.6923084285824586, 0.30979943256987297, 0.012269318624640445, 0.21022045270802528, -0.8459164060239165, -0.8376095095430188, -1.260859098212932, -1.0850973869701606, -0.8622492480894393, -0.0653842198717007, 0.1338513149839188, -0.3491459582969374, 0.5628007138714203, 0.37566498609605986, -0.15392754880009046, -0.09827255576598336, 0.1517155743021119, -0.15453557858425573, 0.12234609381964491, -0.5298881014746133, -0.14906632754672922, -0.21383270802874996, 0.8802284536461461, -0.6371262626995247], [-0.28720795742199884, -0.2872207751438834, -0.45799852689685444, 0.3552933155808509, -0.5847938434035528, -0.29043514899949885, -0.06548756589826178, 1.008762383762663, -0.049983722203696235, -0.20043556236337787, 0.32557650851731634, 0.7043381806348015, 0.8068879817433956, -0.869737032578302, 0.6515143178340657, 0.18169661108597487, 0.781715348033426, -0.5101509933430315, 0.13352695577524726, -0.09215369797575934, 0.36630541516322473, 0.15829962446305926, 0.8311350140636711, 0.26599709948876293, 0.44881688186510643, -0.9680178389536287, 0.08880147333663674, 0.4858082303199732, -0.006969319624967635, -0.13993571641602984, -0.5861368380666152, -0.5518117972521517, -0.09111242445271511, 0.0929070970366051, -0.15442129137638635], [0.5395712596570427, -0.08308350485435674, -0.05464092208815427, -0.6369144036415406, 0.08522682766728579, -0.24910007592752487, 0.7605294559318527, -0.27156474229569416, 0.22816571985216402, -0.35968437446350754, 0.6348544916295571, -0.41160137191662144, 0.18936729610226993, 0.578903151962136, -0.5413716795108015, 0.6243537090943474, 0.5219454287978198, 0.26773216223781093, 0.397828194398561, 0.5382767028221909, -0.10635244543962977, -0.23084338380882394, 0.4053239750869215, 0.3366797051955534, -0.3358654740715195, 0.08639533220694207, 0.26648186893080256, 0.35343383298485376, -0.15851659335758636, 0.5494317697109052, -0.40667105674020326, -0.18173230655948427, 0.019642703393835517, -0.33166424950219237, 0.2684246204084983], [-0.2034348121155782, -0.21256811540979845, -0.02745341810326711, -1.4684699175113614, 0.22214167406552615, -0.033394619635352125, -0.3695719941123678, 0.11676667366008465, -0.6011541834257162, -0.061912778798244396, -0.550513003668495, -0.3428022925527153, 1.0899550869779124, -0.40859043149179947, 0.3248814831701474, -0.4909453928387009, -0.05766495541226208, 1.015350883282322, 0.3326481429545129, 0.6825354059009472, -0.4970035065075283, -0.6830370790773187, -0.12490602588987702, 0.5919832235502893, -0.6338360043671285, 0.08301427327844788, -0.48190654314667203, -0.5703811209896646, -1.1543616597405637, -0.09928575416183001, 0.11367455973283581, -0.39096233091250077, -0.7484614921868596, -1.0569697955750905, -0.3090237723383131]], "B": [-0.6071547886952127, 0.3601802872926972, 0.2055015520511686, -0.019652144682004404, -0.3431909559590003, -0.36284835735010895, 0.4782884194852738, -0.0001343827133732758, -0.8455457697109316, -0.45428856020113306, 0.0878120906154595, -0.49712361383679354, -0.3666197644889241, 0.7025527070073987, -0.6695526925036576, -0.6110253750794955, -0.9479393442057678, 0.6564210719434517, -0.5727635945501911, -0.8368247786223441, -0.3273672497674088, 0.4092705301933117, -0.5662335350877381, -0.23479136910700493, 0.19887239680471935, 0.7311899071423119, -0.4876225953256874, -0.40770554908507267, -0.5744502076202649, -0.4043543161437722, -0.928962036918714, 0.11708193256076178, 0.11252410324682104, 0.33581546428021863, -0.5872961607854508]}], "mae": 2.267059165012124}