{"name": "ej1a_id1", "layers": [{"neuron_units": 20, "activation": "tanh", "W": [[-0.07357198526148882, 0.07525668140705537, 0.1950764495709565, 0.08720017771704909, -0.22275950796479874, -0.27393330453928216, 0.2520074482320362, 0.08975458296593467, 0.2765113871435217, -0.05309917245354909, -0.19610837408419848, -0.15651052493515744, 0.1479967217197182, -0.0694123647182467, 0.16260725697883624, 0.17225234325631633, -0.1702146047644046, 0.03321642870984607, -0.22206553504929477, 0.02007960621295697], [-0.012015515241376392, -0.15378173180016685, -0.03356730748578632, -0.04128863363526946, -0.09212232105348765, 0.15720911581110467, -0.14344309594147628, -0.275547166583467, 0.06426745371195906, -0.6521523899095051, -0.05925860142448656, -0.3555455189543046, -0.06925311530682471, 0.05711687383580505, 0.24616759870589736, 0.05192936779793754, 0.17914667215148966, -0.1545972871837467, 0.09649774337173701, 0.07184352570593769], [0.05827457499486663, -0.0865955769860308, -0.24317814553218126, 0.11735184812056497, -0.5259639323362832, -0.12846127986559294, 0.03538588867049626, -0.11161200289910178, 0.19983213214955417, -0.05501931134304708, 0.016567679566289847, 0.11948223835515258, -0.23435283165126933, 0.2601083018908997, -0.29699233848220324, -0.3234431055303561, -0.20547022602900894, -0.27732745083027377, 0.0006869926077944803, 0.15358260667011908], [-0.028266704587833067, 0.10055667739859526, -0.046496866150158314, -0.0434799195309593, -0.20701206315765378, 0.1105289558367742, -0.03595948949484869, 0.01990445179678428, 0.09972230510426712, 0.19149163196247918, 0.1584697182729272, -0.06947084958063195, 0.26871693684897424, 0.010876755433990911, 0.012059488595452734, -0.0250175041215152, -0.0013259632920756856, 0.21408174982132677, 0.0018866832891111201, 0.20343227054464474], [0.18145945287212578, -0.2915412696600804, 0.024990415136682535, 0.059392913609667856, -0.18065779363887383, 0.24617490286243285, 0.09562503507518857, 0.3148356453924853, 0.04218764121625093, 0.23755420016566278, -0.02923210295346199, -0.017250829074399593, -0.1983710578582533, -0.042719961631334985, -0.03293883411315333, -0.37500927657243394, 0.13320041476793748, -0.3846249883026954, -0.22715666908689297, -0.1692998230775351], [0.12954826124366692, -0.10303418739685131, 0.3606664691137878, 0.36889034840385393, 0.088369654888019, 0.0977925040735355, 0.23514563886397707, 0.019220795851225783, -0.011439114471549796, -0.005260991523756716, -0.0013285380178576882, -0.6405866834309376, 0.08542227865612423, -0.08475249849063217, 0.23687771398848315, -0.3478609633423488, 0.021183455706217907, 0.032195741839255214, 0.1383453593889502, -0.05587206926789315], [-0.6986476044303316, -0.13151463721499052, 0.277416509147611, 0.10352432542658764, -0.10868466938468906, -0.059967038445411215, -0.03664691172402494, 0.26586126863668025, -0.3963766300497075, 0.1598411406614694, 0.2043761705231303, -0.10576800227795154, 0.019073574208237083, -0.1612509702072126, -0.06055384367203056, -0.13911282261746533, 0.14557997529853517, -0.10353991966117138, -0.18201105169823922, 0.13657108745338348], [-0.006009296991581181, 0.2666699272447116, -0.05479036416887961, 0.11531039200957223, -0.41442366799944824, -0.5015615511562398, -0.08981649000841302, 0.12116656217239075, 0.011526920893981402, 0.05088436945576015, 0.21823760201693085, 0.06722197327172354, 0.14241181446314408, 0.14122113258932265, -0.026377830844278912, -0.16711941022160992, 0.050168130587539314, -0.06946741079974816, -0.30508827793420384, 0.00565880667617571], [0.03139753727478731, -0.12980986448020798, 0.3521654020872555, 0.13904496358854182, -0.08942070409865398, 0.1496700602031719, 0.3709711688617429, -0.09745590993199318, 0.09510237678849391, 0.004096616995221018, -0.07873593764623514, -0.09239295735955384, -0.040287998958657104, -0.09794613107696294, -0.18414802333462718, -0.2861405067360136, 0.056525160051645235, -0.16598170869520995, 0.5272720022195392, 0.10175502712313261], [-0.17246164148787463, -0.3020108157979221, -0.2548272191637431, 0.026212880811034765, -0.1323972616364308, 0.17315121425559485, 0.20786635255645733, 0.18730169121236107, -0.1749969166744458, -0.23516279333213427, 0.05519324617237797, -0.10426362811950503, 0.1612684458625275, 0.10534064634307534, 0.060260027594503884, -0.32597374731480827, 0.2845143666761076, 0.1551661358996882, 0.14920188529878198, -0.06344932879635079], [0.22999218166460134, 0.18723965099371603, 0.29220730885022167, -0.34857171233572226, 0.11394291640541453, -0.31240138679499435, 0.060634243269290594, 0.09226428758401489, -0.1371789466096047, 0.13530659821580412, 0.02947487097795912, 0.001502432067632581, -0.13531614061499717, -0.06663022680957321, 0.0012984057269941243, -0.04960607137715391, -0.19884139767119663, 0.22072054593032758, -0.12019976594075042, -0.15001667537945385], [-0.23177157183395852, -0.1810092544831639, -0.3617749139115613, 0.15980009841709172, 0.1159669062691182, -0.025466323252542594, 0.1998570659256125, -0.24275403715265315, 0.21538506785622683, -0.45975349048579284, -0.10902180561953494, 0.4079023396101014, -0.12649666932273482, -0.13619125191451056, 0.2592232537604196, -0.040677400320125276, 0.020788927631047664, -0.3265939440447806, 0.024194781129523328, 0.08307760855212315], [-0.1884129363439923, -0.03496883304009654, 0.3169270560020972, -0.17983124369082573, 0.141294473699592, 0.016903868499494806, 0.1068620809757782, -0.006959481226404351, 0.18995131409079805, 0.19258855888399976, -0.03402484097993747, -0.12591170836851462, 0.20302846371242092, 0.22478276886743828, -0.45869747703752234, -0.1646024755223554, -0.21399003134183398, -0.05537317647935303, 0.2761173345282231, 0.2572328525595755], [-0.26787180458001286, -0.11940539845855076, -0.3612299228896762, 0.28857626733926633, -0.13796331877257742, -0.103571108782584, 0.14576150891715636, 0.0025596949838838905, 0.07374712687057218, 0.0883530611824159, 0.12605648167056235, -0.08162752534416655, -0.16028100124314112, -0.3511212402457908, -0.03441651835613955, 0.1618741852945625, 0.1181932937593596, -0.10759880336804578, -0.15957437784820644, 0.018222232385605837], [0.20687059657702417, 0.04193643841490714, 0.0365342181610224, -0.1973304628223488, 0.06729570791173071, 0.004836898463531843, 0.03380223334149296, -0.15218175060937067, -0.13668428280680014, 0.23290771151802261, 0.29376462563715017, 0.1408381660592437, -0.12058908490539699, -0.3812973101002342, -0.10110656464242399, 0.067581704751254, 0.281308010098062, -0.20058571407117448, 0.06992385399399247, -0.4378702498706216], [0.13966258132665105, -0.02215551025732313, 0.022385756541067607, 0.12086239967247657, -0.14303311942983668, 0.01956226256172827, -0.02495600812680231, 0.006076864462051092, 0.25601454733542445, 0.39557956622061197, -0.046185755698776886, -0.17674555691380084, -0.011964956218373717, 0.22949401980258402, -0.12471876932055188, 0.06742895663016252, -0.28147234147935524, 0.27362654959897026, -0.3045128489731909, -0.12785408237466833], [-0.007209207978730586, -0.06172704840986533, -0.3665383472409403, 0.12971277999658645, 0.11498089622273401, 0.12938802582153577, 0.23655058498857276, 0.013613722042267223, 0.15509096336129588, 0.278467231418579, -0.49435976804415555, -0.006315991892749016, -0.21839132389427537, -0.08765992233220697, 0.23763898715386497, 0.015537888048284466, -0.12846405606508832, -0.053700986525797946, -0.15677593334450018, 0.07006780326324971], [-0.009134413768901412, 0.20439036354343676, -0.5332264900379885, -0.09260061953553857, 0.1638349338602165, 0.1691987510284104, 0.06601911336365812, -0.03673701018717793, -0.21459545926734927, -0.009189359374197043, 0.05853154208000768, -0.23057041018278934, -0.013105882491545661, -0.19211652590384612, -0.12024746344328033, -0.01276689943080749, 0.07588487769756834, -0.4274952397850824, -0.04700613534912488, -0.16607923781710116], [0.11495095935190354, 0.13375056729742374, -0.129740325145496, -0.2654133798264128, -0.3446873602948774, -0.10625973898716694, 0.010093954247758743, -0.02432113806504583, 0.16095074487314928, 0.12279279587628072, 0.20935440545106745, -0.09997648323625914, -0.008154207674008032, -0.026526778527274572, 0.08984034990344617, -0.23343058512964693, -0.019445127461000945, -0.17271014206786184, 0.19534164536885612, 0.3111376536613686], [0.004605743544655852, 0.2716979527654705, 0.04979437229558488, 0.08554227030843455, 0.07064761951453578, -0.07550249350690678, -0.24201506622052357, -0.005368445900787133, -0.08131112127328712, 0.28550874859959874, 0.13848620320872104, -0.24055117003899534, 0.06436220453002603, 0.10941591769785346, 0.042942805741655925, 0.08205958217201453, 0.3437382363579505, -0.0479607758444612, -0.1767375532765424, -0.23765916975303975], [-0.0029363684498044484, 0.3367750227413121, 0.09258689317727956, 0.04154378926791518, 0.33384001408243497, -0.1568165612711442, 0.32736445789008256, 0.31203130040130533, -0.18193556370018257, -0.215092615580849, -0.2311166675745012, -0.1411798470242316, 0.36747705662561825, -0.0715797049009372, 0.3358753544730236, 0.09217422621611554, 0.17112547767698266, -0.27459983318745207, -0.003163611447216213, 0.12424088440729927], [-0.246315880537348, 0.12977857703476575, -0.020535895120426757, 0.3555248709757697, 0.02329801134763009, 0.10719193343238141, 0.20939256939709464, 0.43939871649908513, 0.12247593973074646, -0.28073573265905305, 0.3373115830963655, 0.09578770924828113, -0.35312132535473306, -0.2872146975084891, 0.28360535570037554, 0.27862788520072296, -0.16526687047381794, -0.0037834251602500563, 0.07161414505763948, 0.003475311093558084], [-0.07829036926014389, -0.0702328755286137, -0.35326711967072916, 0.081216457804646, 0.20981689211972535, 0.21757280631147222, -0.18441947242785786, 0.2047603971806813, -0.3454585325548574, 0.3235458611521558, -0.0769865342147698, 0.13551818544526018, -0.060465769656566554, -0.15033969390344307, -0.16288481561498938, 0.17807491778425277, -0.028833992889196733, -0.4188494188802713, -0.05770966016973953, 0.15830292220705727], [-0.12583074450320075, -0.012469112664233634, -0.03257061989295147, 0.20287784860945027, -0.5874588664812044, -0.025900154566831615, -0.05269590082393588, -0.12509173634474724, 0.06688406374545076, 0.11930743105962344, -0.15743188284467327, 0.22054175278662952, 0.11587451356399761, -0.08154011995152892, 0.1850483452980751, -0.212977116634186, 0.2216693005089963, 0.27459946897258036, 0.033915691551090706, -0.40002659446350397], [-0.25705162595969305, -0.1317278835875072, 0.002982748989390411, -0.05822691221035952, 0.01588291330034292, -0.35926677058873674, -0.06648519389977575, 0.0010031960703352552, -0.16141665757132148, -0.21355156727159072, -0.05633447662804058, 0.17389544848885014, -0.3207400518514786, -0.017104795609254868, 0.30554149055952246, -0.315974931743395, -0.06959003579481711, -0.03329135978998616, -0.06642394481382353, 0.04586518391874579], [-0.18582174254647837, 0.08311192993969564, 0.009060063875649503, 0.13950269432611215, 0.09541297110116197, -0.2742164178859849, 0.1309767088355333, -0.3243912100504698, -0.09199811041903484, 0.17884375839908426, 0.20314335425516974, -0.04643521345857076, 0.19545406057211953, 0.18684576649027304, 0.4131674981078925, 0.0176153840658247, 0.2708056403502918, 0.043657829595115764, -0.0967090557524476, -0.004738351718435684], [-0.13837571952466982, -0.041102000100782535, -0.09957596582890374, 0.030253074876247572, 0.10014317247843567, 0.22359156389682414, 0.01488888151401099, -0.1508656526794649, -0.06021851354865562, 0.022696023186535456, 0.10413415184033721, 0.04786724203276999, -0.11730658990317083, -0.19136734625597415, -0.07920366597794765, -0.15348136373878618, 0.13651618868324505, -0.20902815107593997, 0.1088554853189282, -0.04200404890859899], [0.016201147758157716, 0.44208124503647517, 0.04046572793217221, -0.11411148518630031, -0.24307829612777818, 0.07921267648877504, -0.08932902534305076, 0.059245984088203925, -0.2796692843519996, -0.14983456559613847, 0.09262889584020596, 0.25830580287616794, 0.29126184945013545, -0.030447328967494292, 0.04341238546404986, -0.2049688656080954, 0.37302819111156177, 0.05893955008182209, -0.2701395043005423, -0.16991850277373893], [-0.0827597216317308, -0.16250685396027698, 0.23447353016562184, -0.1796980440751121, 0.1669724601965004, 0.039206747812995955, -0.05043660175821858, -0.06901759389550527, 0.04278032760469394, 0.18221873062437918, -0.13781184411683653, 0.18141906035206767, -0.14058215884287648, -0.2618753645022786, -0.030241753448259853, 0.02593762106606123, 0.09683339528811195, 0.1536736857798185, 0.07261075483455472, 0.24687059382354815], [-0.15567777926329468, -0.018656905776678168, 0.13109257432051452, -0.25366547709689147, 0.0397433113240673, 0.1372777037691271, 0.10150920335043576, -0.2669505334720568, 0.08592298009014622, -0.1544971515473089, -0.23243439857929923, 0.11474380813105726, 0.32393211242390996, -0.40447648824153365, -0.5736923984542485, 0.3355973030297083, -0.15214406819504345, 0.12585826197292532, -0.05751748142875309, -0.0313297196108167], [0.1064508519681268, 0.13583056297919482, 0.02410438748550603, -0.22473100619122924, 0.12550074935284108, 0.2576710310180918, -0.2088182869486739, -0.1270540646592837, 0.019504419258743654, -0.05824319366750087, -0.02178044632815491, 0.005649031155600428, 0.09159016393758565, -0.09697715013725132, 0.03646565629015674, -0.19889923607412968, -0.011503608699781865, 0.07684791368906022, 0.1576800452208204, 0.06534928091802261], [-0.015818950296834396, -0.1545349683151705, -0.27563393902631833, -0.005472702546375547, -0.20048178123089264, -0.0401842539804984, -0.1737242143473068, 0.08033040509781691, -0.11536194072234322, -0.03416071957735854, 0.05482177111399677, 0.016979916858877994, 0.14385888482870815, -0.031232250631939188, 0.17717462311353824, 0.5199378507121635, -0.18805582653771713, -0.11205288784733686, -0.1820471450046648, 0.27166114200483593], [-0.01785756272527345, 0.07092223802919546, -0.01056655775702505, -0.12696445945414953, 0.04698989021193118, 0.05137391405492591, 0.19293682430728878, 0.12375704710834626, 0.05401888469028726, 0.08459918683502257, 0.24077543025712275, 0.11595379646859154, -0.27792330827053013, 0.3013206319958402, 0.2510321610401075, -0.06415466879805534, 0.14322861158078443, 0.2634492347328411, 0.09604642209943552, 0.21553766697093135], [0.17421235642856464, -0.3599363000798471, 0.10254429305916207, -0.3208029236441948, 0.13096343930888985, -0.291305397844208, 0.06749109210625218, 0.30690680223630873, 0.18112419993392917, -0.1994044316318699, -0.2847399237361374, -0.1931071627509004, -0.0568519773076929, 0.01793243043254312, -0.24210771275693257, -0.1724328501839768, -0.0351237627026004, 0.22944814074472114, 0.03641452007899552, -0.10023122468529261], [0.003942927726237925, 0.02765174117124959, 0.5055518763024438, 0.09956866951889722, -0.09064657003046654, 0.22266598719510802, -0.29017687431750167, 0.004410594028458145, 0.11251807020424028, 0.053852419615455435, -0.08842929449159452, 0.01338750484273742, -0.1496297003684929, -0.08791645205046021, -0.18809894230807186, -0.13965305891181828, -0.31217955844836404, -0.12392738630575593, -0.07393960501491202, 0.004214814695064474]], "B": [-0.07696721158032317, 0.003261176701065657, 0.14995218370246377, 0.29241679225046324, -0.09140150665773382, 0.15062430235632004, 0.22403565936030087, 0.18941881549791684, -0.25584551046796983, 0.1335296057078972, -0.28347199607795764, 0.056584046179046714, 0.07070836981794762, 0.10663591893686374, -0.08558915571235784, 0.14383224025425106, 0.013535381669461515, -0.13928739589688816, 0.2862743647495149, 0.16373663499672736]}, {"neuron_units": 15, "activation": "tanh", "W": [[0.19120396557732225, 0.3464767332925175, -0.18168552331126647, -0.4055265313358377, 0.15718992809636573, -0.21790962741160097, -0.00141149181533399, -0.47155220764635164, 0.012609148219685262, -0.1190021607872591, 0.19317458592901823, 0.1589685874286289, -0.05289302322176077, -0.022688806784115854, -0.3195011505049495], [-0.0587152400886272, -0.031984860556462984, 0.5028501562246102, -0.190977092226983, 0.059428764900234195, 0.28902260759712317, -0.07259926574356537, 0.11022258913346542, 0.4326494403210735, -0.3428895976164281, -0.22306374057292339, -0.2954139474039678, -0.23900051464222394, 0.25837540059134356, -0.39668674289973865], [-0.1742980451838539, -0.17438410340350627, -0.05022341911850159, -0.07535498887198258, -0.2205768276473187, -0.026304151401907526, 0.13395193665095292, 0.31160129946815845, -0.09562375031953128, 0.30671007650052157, -0.3741998900612631, -0.05414412734198875, 0.1358785057179779, -0.29753598106733137, -0.32131075857949043], [0.13084412522175543, -0.1287022102674159, -0.08228389490852307, -0.01986005642986046, -0.02971085686902779, 0.06840896465235571, 0.6380094377610392, 0.40440085454148506, 0.27069520205845593, -0.157081729627757, -0.45687820262079093, 0.14172710563683003, -0.05770787930375308, 0.2200750893959003, 0.38563821438371404], [-0.2486658076409609, 0.05171048276208142, 0.17293011172650524, -0.05488399830766542, 0.1738465514589977, -0.06974712559248156, 0.19660016647447454, -0.24936611229672526, -0.07755378583527629, 0.1560550225906245, 0.08304639683726892, 0.09063616767277984, -0.06196125193485905, 0.013914006446881715, -0.10487327560153865], [0.1075875499610592, -0.5044756140312959, -0.18239986192421467, 0.3247940056815897, -0.28327807194049964, -0.3831181640572837, 0.02114917921120895, 0.24265326749095703, 0.1734479416292838, 0.3262224850621483, 0.05493630911924016, 0.08275298357097317, -0.120511889899311, -0.12997578439779778, -0.017184648641302935], [-0.3506298296623619, 0.00593688438770557, 0.29284138193586934, 0.3423009428016964, 0.49894682982942007, 0.10600995638710826, 0.480595758587376, 0.03607348249310949, -0.03257753867140385, 0.07615083866113108, -0.4477473683438967, 0.11105476801419469, -0.054521735437650466, -0.5131231447513533, 0.09046854331001558], [-0.30466591726265946, -0.3063943039529949, -0.1930166489181443, 0.1871435445429005, 0.3599096253312351, 0.10358072956900248, 0.4648662526146943, 0.17111096401045064, 0.27511304164154365, 0.02734727575836156, 0.12276348094280932, -0.43905684127945865, 0.07872883832179958, -0.23502521664129367, -0.19075460868898494], [-0.23010889849769775, 0.0432589344151114, 0.13622056337458763, -0.3724213439519851, 0.24523718984828696, -0.09175116300710535, 0.13740743171488295, -0.21766510885828033, 0.18014557420345245, -0.10211949590241945, 0.26556317313185107, 0.2238177206378996, -0.0020199841869960006, -0.30046325071687163, -0.22417657042528621], [0.12847043639173514, 0.1821269418290053, -0.00043476979721306243, -0.33684579727155034, 0.2326574001134626, 0.1612500753883692, -0.0826621824639318, 0.19214701117327726, -0.18957752295816882, -0.15879151923538437, -0.3559215826619229, -0.3272454268678028, 0.32500088579915504, -0.2701910024529091, -0.07641151079737789], [-0.1813055727600031, 0.49974238326414094, -0.16926634308226718, -0.24140935865526914, -0.2659279967420012, 0.10719862675350855, -0.10812956361645934, -0.12295105427471115, 0.01822942770113414, -0.1098945878455591, 0.14267570997773357, 0.21879505023410903, -0.08782497848201122, -0.008630965818526282, -0.3369880131357105], [-0.20972191706718238, 0.35190784333454816, 0.4043546249518292, 0.11513642589285855, -0.21912968147684808, 0.13825284080981648, 0.10899405845176734, -0.5118833418349864, 0.03173848852220309, 0.15375983333043455, -0.10563338151133783, -0.09791834219554134, -0.14632975315481464, -0.02896109507456073, 0.0006031093261080773], [7.040759721848685e-05, -0.5321904500024266, 0.035299674217732425, 0.2579373401211451, -0.3980324526033102, 0.07448315985904681, -0.035549300237529204, 0.06984834181171166, 0.29167767248027965, 0.6808944066484297, 0.17769867693710134, 0.02951261401586298, 0.29664918593697903, 0.29590015555484656, 0.2688544452949196], [-0.5825822009326928, 0.11342806402173446, -0.21721754914045582, -0.16795831480496387, -0.166505436489536, 0.1094068311579261, -0.38834934431442925, -0.06276452478420476, 0.4162601838789979, 0.045582412663300174, -0.4089012173800406, -0.12440850979906205, 0.12478404246767343, 0.27752901084847037, -0.12517977599928254], [0.385317532269876, -0.31757466184349636, 0.052495348783069315, -0.28909170017452446, 0.1797838061803599, -0.13718009836652506, 0.4405422726468402, 0.5178578947573396, 0.12970267039908717, 0.15116076707633921, 0.2542747506743642, 0.24393664898936182, -0.29446081199044455, 0.062923257981319, 0.6383721989220033], [0.007379997085393168, -0.45619298401905783, 0.10510264300810587, 0.3500276263990045, -0.05957073422899669, 0.37239357148272817, -0.13111030732053053, -0.28814087028895335, 0.382594066534992, 0.05793711932114507, -0.1448832328163438, 0.2837302777657085, 0.10817851601396489, 0.0047019979583299435, -0.30005711129473217], [-0.4536895522527242, -0.33313890201533697, -0.19297282445885286, -0.015019689851203586, 0.037316867084272023, -0.05718525320605726, -0.33000110544412353, 0.5616464286473583, -0.0030918515361216628, -0.39714839041390804, -0.2832660688482867, 0.5509887963688237, -0.13886161392813784, 0.12134467371094096, 0.11271506557924568], [-0.05573538354110301, 0.1830001217590966, 0.41497888674678035, -0.26580815716421996, 0.21043124106391134, 0.037463022499713707, -0.154525408453284, 0.014778654045698445, -0.33201761168470917, -0.05031727230031958, -0.2853333315567011, 0.3184739956619593, 0.030555432217322626, 0.22797946555644702, 0.08761670608609512], [-0.23174295843677004, 0.1005826668195185, 0.22116354006200428, 0.1550486064495805, 0.12551746315384665, -0.028451633129642728, 0.15500635994216347, 0.057472843934473695, 0.08011909735180604, 0.3845490295340153, -0.44737223990478076, -0.43061059221411596, 0.009176881169601891, -0.2681694988116893, -0.023561126144796087], [0.21262230511437502, -0.20678426933584082, 0.056525169048186795, -0.2681333812069056, -0.4119338843961566, 0.002913806591535284, -0.23637480519645396, -0.37997482369342184, -0.1715593783041042, 0.28574584511111817, -0.09108053675636628, 0.23725214216262266, -0.25302428842352787, 0.05888102520848265, 0.06206459995226278]], "B": [0.12511251218703404, -0.21123602586004556, -0.07657411886888686, 0.35320519997498084, 0.0029944386671809553, 0.01866108037100865, 0.23615763302258974, -0.4589690690382923, -0.2458505938941528, 0.35360486226293225, -0.08068784579791478, -0.17289558106496886, 0.01950742884945649, -0.07926299842388884, 0.09311285924318041]}, {"neuron_units": 10, "activation": "tanh", "W": [[-0.05560579957246633, 0.4117530040887972, -0.2679900233825692, 0.2888877526739982, -0.28536733014985216, -0.15989536734526244, 0.15236777404010604, -0.17817255738009805, 0.08392416430788067, -0.0616680990278385], [0.2677870026740916, 0.13489674158901097, -0.09528167523925028, 0.5033597031791548, -0.7023492441895399, 0.319170326940506, -0.08975523444190699, -0.5021295569044674, 0.22337877299091574, 0.224044508620675], [-0.20365180977997466, -0.2016390159635591, -0.2079366527992223, 0.07789048805489139, 0.08300578734833097, 0.161089620633352, -0.44729581280005637, 0.16929472625909164, 0.03215617566378234, 0.13383483672732585], [0.03711931462497516, 0.3710095650220312, 0.028666230787838795, 0.7448592977601419, -0.6554161270401533, 0.4276766190463218, 0.019595928965411392, 0.006610489138393826, -0.04388384970973151, 0.7556482361830964], [-0.23906362477922863, 0.5933047586140645, -0.07460510458470489, 0.21310692125321826, -0.09667433092273384, -0.16978885462243895, -0.31598346242131775, -0.14053949493054732, 0.2520791707302917, 0.014560321064333068], [-0.11919339291525026, 0.49780496261788176, 0.10610345179052826, -0.19758562046538963, -0.050000163359302935, -0.2850651076953629, 0.18499006674736998, 0.1286907498470391, -0.13280721972729903, 0.1102572341697877], [-0.4390735303253681, 0.3747768143090614, -0.06525544383664621, 0.08574069885111504, -0.17855732787725132, 0.2745829010603584, -0.3963479867504715, 0.32947451427988456, 0.2505740353497838, -0.47087680558744094], [-0.13849109660463418, 0.17691414097071226, 0.22937327108705544, 0.07732719926264263, -0.10281749082928388, 0.14335612245541815, -0.05419379113602178, -0.0876219260022173, -0.08936516264627979, 0.10496316292538725], [-0.303412159569057, 0.2108247468319474, 0.049747594902529446, 0.21112351075538754, 0.31043296867119, 0.5666557727638747, -0.25503888458071755, 0.33295996168272474, -0.09639718581827605, -0.09314807977744699], [-0.19531126525200268, -0.46080641494318336, 0.2030473138718166, 0.12439304646585356, -0.20643105472816478, -0.1360953148372813, 0.4853689029051798, 0.05728402474308818, 0.10226361436895996, 0.02600553858235003], [-0.4279589185268028, 0.07237777854142098, 0.3347897436423201, 0.27594512803417715, -0.4502568134450058, -0.026343479021280668, 0.02632318226364093, 0.16638560812625877, -0.08065564847566715, -0.46793249859556607], [0.1948398967244116, -0.09247322128148634, -0.376095853082714, -0.5006829629747368, -0.08698059163431181, -0.06770646934379304, 0.13649244770342459, 0.1315608622773264, 0.057736281149718495, -0.17167909073724325], [0.04750367111416368, -0.5638226872013673, 0.28026432935157497, -0.32369243592650443, 0.3841882226525856, 0.22285914648638822, 0.3542115586565122, 0.47682259669963717, 0.17579851575475436, -0.35352791229904573], [-0.1317191327492063, -0.5133381108862742, -0.2706345000956283, -0.6198486003998485, -0.10762120319845374, 0.10828175649478664, -0.2071748660381984, -0.4233235885366089, -0.16933768961174817, 0.4910718499887269], [0.09308036718462324, -0.17987100362448252, 0.2703170403205901, 0.320484049935112, 0.29908228573686707, -0.441469887295872, -0.1992117620172121, -0.23813504493471654, 0.20787475031613442, 0.5369218836622731]], "B": [0.15600090352059182, -0.4272084643368971, 0.7026980622860668, -0.023456034617139358, -0.11276396569087511, -0.030387519201803753, 0.006713101371351445, 0.5646349067609063, -0.18591506481208386, 0.09300707461136012]}, {"neuron_units": 2, "activation": "tanh", "W": [[0.015935155489170096, -0.13327853408166032], [-0.012285242642994123, 0.3712830528897781], [0.15466475122757012, -0.13017029926407353], [0.13227337553570123, -0.6963227905641891], [0.033363912814972085, -0.49287509045388916], [0.4855072577550354, -0.016353596256137557], [-0.46411132493342827, -0.39788134172525647], [-0.24350389603015588, 0.3295196972188609], [-0.5504589268600033, -0.3167347597073911], [-0.9865355449847463, 0.0615174609106365]], "B": [0.5547270869658207, -0.49805441510773285]}, {"neuron_units": 10, "activation": "tanh", "W": [[-0.9386140853256265, -0.5413568243271479, 0.009740078624616986, -1.0415568277546152, 0.03233422066534858, 0.8220111310054798, -0.1031899367590046, -0.013682561728546263, -0.48514926231922567, 0.35724120917046076], [0.46357848656845463, -0.08842979870494239, -0.18219099942151276, -0.5051007084967265, 1.022971309120699, 0.21326215589784106, -0.13355234176991387, 1.0448963892624303, -0.07960019279687014, -0.6351354544067369]], "B": [-0.2151079609263452, 0.039683213423939684, -0.39153230942677997, 0.6148778172398837, -0.26845449528664833, 0.17459557181593752, 0.1574436903992516, 0.6803222639357933, 0.4531362355797348, 0.250848254304974]}, {"neuron_units": 15, "activation": "tanh", "W": [[0.34012203929568774, 0.20306397957992936, 0.4133952998776389, 0.05911552599409877, 0.26949103917181483, 0.38509157195754934, 0.030333904338922104, -0.4553309571458851, 0.17131162415661835, -0.5259091628216064, 0.21901045996986004, -0.44645618092624756, 0.10488213223259422, 0.09601428328898413, -0.1182813506314263], [0.03661842858483503, 0.6971614696842047, -0.06262780432551808, 0.6138338690551889, 0.35926458828089436, 0.04109762790637273, 0.18963892397731824, 0.13690308909666501, 0.06008009770291261, 0.008606122825884967, 0.18400924546229433, -0.4176412335351471, 0.6850414728011025, -0.34172611448077267, -0.36589571608878213], [0.21701631333101296, 0.5791084075306642, -0.10345535343643739, -0.16516950431213598, 0.2755315491802197, 0.009865543038670196, 0.36000992922676683, -0.12356754974156818, 0.34197874149209817, 0.551866963143759, -0.34923574097349547, 0.33078243690384995, 0.0019107844925314967, -0.287184272187618, 0.022956134151914914], [0.08372652561635316, -0.03559946712070672, -0.037423173606001434, -0.07581779840313507, 0.5925690857052832, 0.0070624579641316, -0.29303781227004416, 0.1673308150494746, -0.27241421085961576, -0.0233720984888412, 0.2220536921277351, 0.1711112980127197, -0.352960438343846, -0.2791748283975145, -0.6118201790180761], [0.48394421319081926, -0.3534279993835605, -0.08344552280383905, 0.18254077958313494, -0.3798027092303318, -0.14095565736430768, -0.532178102707112, -0.3133187988261905, -0.06740078766008313, -0.5845353713571106, 0.8654313662424671, 0.1619687869462853, -0.017789196839163357, -0.1457633266173132, -0.40384969227564466], [-0.17147037884837585, -0.30617757012408026, 0.5902569329811418, 0.32014601126632247, -0.10563411233458038, 0.4698849635189303, -0.49934965091133077, -0.045448588881566464, -0.3267608008151526, 0.09882825351670371, 0.1801748672091948, 0.4105806988063561, 0.37332107161974826, 0.3373680261830381, -0.3195829401669791], [-0.2836711254043426, -0.4437923239782212, 0.10723696616419066, -0.034169433858209274, 0.25433527847350756, -0.17303742002515957, 0.3589145088980288, -0.006107323841811538, 0.03993998272547735, 0.12328495370318938, -0.36649142864142376, -0.47634575886044195, -0.09669715026292075, -0.04172259794913618, -0.029887354918573816], [-0.080939921015966, 0.13940022397805707, 0.5462944633757454, -0.4461618956722498, -0.03126789444253698, -1.002763753505146, 0.35954537625439625, 0.4145508789350212, -0.30715712427422653, 0.4535493860985955, 0.6403582295786369, 0.10812765952960726, 0.2281318756419574, 0.3040411678749324, -0.10114635152758916], [-0.11083348504276899, 0.30527459901529946, 0.19288732559118846, -0.21825616868142475, 0.22103222601056915, 0.08223682836066758, -0.06937271860618564, 0.06387395887812528, -0.1605605255852882, -0.17773966734217472, -0.023743618170129023, -0.07563301078804893, 0.09183759778073447, -0.14676882135673752, -0.6232227782705286], [-0.35643380675844427, -0.01976631100813316, -0.006763470649450346, 0.6895995040233515, 0.31987066150780935, -0.019163386932054577, -0.3933219585028749, -0.16955065469453787, 0.33850704676031385, 0.2763256678946373, -0.23687960906614966, -0.3984144766948175, -0.34560625971731396, 0.019930636918690355, 0.013680650607645414]], "B": [-0.48662532662222097, -0.03908365558443838, 0.23095412459868797, 0.5184832907653513, 0.44195958284862724, -0.03624320073636575, -0.5050673185084646, 0.4468961718777685, 0.3078039371908586, -0.01550746343688433, -0.13904859597214209, 0.3563939693078627, -0.3085456497582358, -0.058920832836006375, -0.13794715844495004]}, {"neuron_units": 20, "activation": "tanh", "W": [[-0.15958586398611418, -0.18181661158091827, -0.18489900349008398, 0.04159409039532563, 0.18349500559401788, -0.19933488484696632, 0.31522883358375736, -0.2676068511549599, 0.3082990641262033, 0.152153122411645, -0.08225371091033654, 0.6858887367531593, -0.4840097432464634, -0.18631528400342362, 0.19768019808976098, -0.3710378500150532, -0.09231085827140632, -0.21570373332002382, -0.17069193747237393, -0.08461621556452337], [-0.05533592792100106, 0.202097196081543, 0.15451788071323275, 0.4157905354897155, -0.03595283894272222, 0.24481185912120976, -0.17049338893807134, 0.005363022907389041, 0.11129968290696725, -0.08280141153201227, -0.5334500500193415, -0.22756539317417934, -0.2534189454820762, -0.4298969152318355, 0.712248632423602, -0.33151097539259083, 0.2638074957792785, -0.16719248172839826, -0.29442993231370085, -0.6987149863757893], [-0.00569333622630022, 0.6227904770981041, 0.24485371725646626, -0.4953301801091211, 0.08447842903564436, -0.022522999096576884, 0.24375675505817562, -0.02587078320934602, -0.32614046063272295, -0.4075504749673878, -0.45069529606460645, 0.3399080289182364, -0.030593360113790883, 0.3252096541382778, -0.13582350354266007, -0.12293586670384365, 0.11124146707897707, 0.07343138196996571, 0.29371812976494055, 0.07102566106072326], [-0.15663840291247214, -0.4668645848288582, -0.03694074538033036, -0.43273551372974345, 0.10290124314562031, -0.38807294024680544, -0.011944806374647267, 0.10990197007062913, -0.09965618215054384, 0.22846510798065744, -0.1274565945336157, 0.36334106813980827, 0.14791280285938194, 0.014048075456056464, -0.16067035506500443, -0.05747921852155395, -0.364904812139099, 0.4442560815096585, 0.07134388660466817, -0.0691688900805422], [-0.18769798721539271, 0.5217712258255501, -0.27872010709508027, -0.556047747760032, 0.05795571375196707, -0.1717154878957237, 0.2577534211354015, -0.04908226963421538, -0.13507052013797308, 0.21070401290586627, 0.42327792181111434, 0.2474695856580695, 0.08114380622782513, -0.33235716757838796, -0.29729280053608986, -0.3301064645214359, -0.1549767455639258, -0.5819461510827744, -0.08420110649050583, 0.23644179325117806], [0.2856330844800893, 0.19912848827244162, 0.30805708657698466, 0.05607822141970712, -0.28775119985583547, -0.07556518486318672, 0.01892916083902878, -0.0322267961871378, -0.4435552766968481, -0.043167145650638554, 0.6699332471662399, -0.24790010461256104, 0.09578878422812015, 0.46238954260816517, 0.08472302283096804, 0.5483702692409865, -0.01470933273407177, 0.49964947431801193, -0.1286777351621477, 0.14994092977102533], [0.03175137922601471, 0.21344567878010964, 0.14534287898626594, -0.16553443648304103, 0.25089456700296897, 0.2740994900970893, -0.14405600854952727, 0.6358259739928708, -0.09059847864646349, -0.06741547881990537, -0.07905532935130753, 0.49898567889766765, 0.07075693889576261, 0.2640849353977823, 0.05334547754946392, 0.39860037048549324, 0.10617719086052109, -0.08285238101358365, -0.12112692312270586, 0.11712951931231652], [0.79443443347861, -0.22581495568528231, 0.13853720800447583, 0.3052683019664421, -0.07360834137730973, -0.07617153602064718, 0.3146860783984659, -0.26501218552907047, -0.49503867852654415, -0.03399510254084145, 0.30263722769335727, -0.02892103134732848, 0.10889548054733719, 0.2818196569457091, -0.022942015277289805, 0.22500718102303852, 0.3646225361420846, -0.022367940064129017, 0.2545876095326087, -0.34964293901625026], [0.04295671512066385, -0.09929222256798984, -0.25283899784949554, 0.148215280864749, 0.04924933721781342, 0.42646655702715686, 0.015803869676249922, 0.25593252720580245, -0.4307149871653105, 0.5414405339725317, -0.3110768517336323, -0.3579770797230064, -0.0007755391518458562, 0.16669006942544082, -0.4579532426871403, 0.1795034709720122, 0.11765642400506492, 0.14076111013632436, -0.09132680023374357, -0.06339396642581281], [0.09710232923401954, -0.17857504750104508, -0.1004229125908618, -0.03232471369249946, 0.6662683552465216, -0.2818159151229449, 0.2627576505652885, -0.43918712619250166, -0.5470414975325588, -0.11016985097035828, -0.45087995222065835, 0.003810918584363211, 0.09992816789927393, -0.786291517516642, -0.03740444521493454, -0.45985509830993854, -0.2673982130511551, 0.044738409988056754, -0.0652454291821343, 0.7065522498256939], [0.23257508256680362, -0.14235741446625508, -0.6980213241546994, -0.07306838269530663, -0.17607083073559116, 0.2108806089760076, -0.011629724974607222, -0.0012841612354344222, -0.041585916774203056, -0.8993735519129545, -0.10797250726062894, -0.44820958215920825, -0.10279413679780038, -0.19397700719488745, 0.02597266651448281, -0.17370778079117238, 0.30245032603597927, -0.15651923415854851, -0.4307013029370305, -0.6250917128929984], [-0.4689768072234892, 0.188665518422575, -0.12817168808073856, -0.18590399350369444, -0.05952866719910625, -0.23671468517802685, 0.29099118268989527, 0.10337668947034126, -0.013000032413576558, -0.2865145980868657, 0.4154891476516266, 0.7206021811174108, -0.17725337657842266, 0.38524791994396745, 0.2179667281731065, -0.04718018304226242, 0.06712054257042814, 0.3478629649958344, 0.07816335847522224, -0.23476033096999016], [0.16236068748115198, -0.3579207843452581, 0.07284183921217752, -0.284784845137899, 0.22832356196833006, -0.07679231744420469, -0.45576978448069044, 0.038599615335116556, -0.08790082924176221, 0.28538265298868326, 0.1355987061787705, -0.22569316748691096, -0.3226495578920217, -0.4967236691389668, 0.16615230773915715, -0.007270516999665116, 0.2288425657350822, 0.07151790742514046, 0.24586680021554583, -0.050393211954720185], [-0.5305609043975098, 0.2537282261404663, 0.09478305180029052, -0.15869094134653125, -0.019347163209420627, -0.38348252893452633, -0.14623324501317178, -0.06995175461292526, 0.2218812868455889, -0.03885227091512978, -0.23772342640975716, -0.06728902297645681, -0.2411604329669091, -0.031437269633405825, 0.09227567821227764, 0.04505400215925924, 0.341873864576443, 0.03244574920561672, 0.07205562030728778, 0.6697274473029501], [-0.49528956939302143, 0.1753247163595282, 0.12870972481776455, 0.10149678191219515, 0.24943163077156777, 0.033733505596015144, 0.1761121335181715, 0.039643127978550755, 0.0414228487978657, 0.5187418521906286, -0.1876555321443019, -0.01862439857377073, -0.3003381634861731, 0.3586206449632861, -0.07111893087075669, -0.18120320714141377, -0.08258088132918007, -0.3563226817607903, -0.24093533382093105, 0.8878207380732973]], "B": [0.2166576997672761, -0.11334831988572526, -0.11069161776916839, -0.09505696277358207, -0.04518534930983524, -0.07715391968440367, -0.06091375945661766, -0.04845102445802636, -0.053091140573004396, -0.013162235312724613, -0.06791488018056853, -0.04731353681867537, 0.02112159543180012, 0.5630030659123798, 0.0044844256457208295, 0.03883988414668466, -0.31021698118473234, -0.1986780376639543, -0.18726067709001284, -0.28663747495327074]}, {"neuron_units": 35, "activation": "tanh", "W": [[-0.23980046266248536, -0.017740643013972907, 0.2864368686682982, -0.18540019121323204, -0.2909067191577726, -0.07553733685141331, -0.04889812352737164, 0.15381597230565502, 0.10742676334713896, 0.1879352215974824, 0.011370361257834046, -0.12854569195737053, 0.03263685099908783, 0.06445543424207065, 0.23859213411105062, -0.1380452131022072, -0.15911360860296142, 0.020464854414242936, -0.5300965530834394, -0.19681685675764937, 0.10469770064272549, -0.02450145336840201, 0.36754463401548665, -0.013703435347021922, 0.03290794334450575, -0.05262026827158916, -0.3035740025206976, -0.07075025766454407, -0.09502495163788974, 0.2852261132877908, -0.1560635975799243, -0.07497336024845104, 0.30253192651073135, 0.06804758393461688, -0.1688801801276116], [-0.06933054666277814, 0.20442538908826507, -0.2400965514403421, 0.17336672267685624, -0.34551602390665676, -0.044848104920433264, 0.331512927402676, -0.08605451685086384, 0.019213037038712705, -0.22533975221851874, -0.3741177118435037, -0.03872124413651535, -0.059795305141942645, -0.3950460949233315, -0.25374064669866536, -0.04630849198405237, -0.009304474063984193, 0.03720690876773935, 0.22502269480261886, -0.3199855056029834, 0.3902878153158023, 0.05194117128776901, 0.37071477226503646, 0.1634291832857712, 0.057718630237192516, -0.28721095581172024, 0.3925861540628863, -0.08778561378913118, 0.11778144705248977, -0.2654420178110767, -0.08235333334134168, 0.25450160422156076, 0.08188337121635988, -0.09482296200899379, -0.08223878408945832], [0.1895874819927633, 0.026486232384107838, 0.09255931350744671, 0.35513057330180375, -0.25342019762358, 0.051794463481712086, -0.2713203510996432, -0.18978246847247116, 0.08574164803720864, 0.14272816313577055, -0.054419925768070344, -0.8544932027358185, -0.11897185576287722, 0.0885546498535096, 0.013350775583905416, 0.19608673782996694, 0.007044933329663235, 0.05043162164461279, -0.06774646035250445, 0.015959607679670935, -0.12651575513164987, -0.6444022411233838, -0.1645452805767357, 0.08143393200332855, 0.05550792601647414, -0.15691457549769416, 0.035699173699248, 0.16757506684951076, 0.2090312141876075, -0.1421447570149444, 0.19910705853334595, 0.11714069805863571, 0.22679420274663928, 0.13319724955925516, -0.02135581839090849], [0.39258216147081315, -0.09804077465080134, -0.01464304461147034, 0.07350675176332559, -0.2294060579447719, -0.1019643958237096, 0.10923265525749704, 0.019006124137219464, -0.34834897256059283, 0.30048592775288574, -0.1344489974683558, 0.25011717563487834, 0.2474832043894726, -0.02141977039940893, 0.23750803943873292, -0.18940804170549663, -0.15486385215837, 0.040114614173916145, -0.12725816334961634, 0.2915828114669557, 0.17893773907842073, -0.043281263514789385, -0.2342644192038323, 0.09397024740922004, 0.2212135630797036, 0.43359712036306586, -0.15855437794269112, 0.19083938864165453, 0.023042601986396658, 0.4015785895473285, -0.07456074179000156, -0.17030142510083146, -0.034438003403985874, 0.019743702468996083, 0.20981247804981307], [0.15193181200841122, 0.2778273207121552, -0.008135837367973053, -0.3126350826779251, 0.3684369717623978, 0.10209329689323143, -0.07643320278989528, 0.1528073109484587, 0.13592734318730135, 0.2326115248674179, -0.18269895181186135, -0.012627203877352876, 0.015818356406635904, 0.003354135048593998, -0.0774262075367457, 0.18675316104345233, 0.09751018740274393, 0.06860122364905587, 0.3312275925780171, 0.17291393130631483, 0.022858961433327704, 0.015804509514771223, 0.36538840514180343, -0.03802886169404395, -0.3162977520306325, -0.08152066428724966, -0.24077019692226867, -0.13647237829233091, -0.043057290712117814, -0.33683176465357517, -0.11984938424238241, 0.02900384369042362, -0.28332631570638694, -0.38012641092708593, -0.07296801507902363], [0.16970179258895077, -0.30254182731513857, 0.40913746706623194, -0.14024008440655553, 0.32266657211869876, 0.16320098137405728, 0.3117890055377242, -0.16302841070550086, 0.39174401592902824, 0.03838068941785756, 0.3306687467453979, 0.17737542193400022, 0.2434598305081598, 0.09836764531338292, 0.22590371231734335, 0.25065378928732335, 0.1395497245221779, 0.2538811171038346, 0.09569556919952137, 0.09780079402969628, 0.37030993954392194, 0.39022278418498396, 0.23084065373556514, 0.004770358324155173, 0.16806538535148094, 0.19234876241701584, -0.31878812384374955, -0.2930576411345485, -0.016661906445959752, 0.25602755223435353, -0.18469740406281535, -0.10461940610023784, 0.2488189875865114, -0.15492461997915272, 0.5232891988622513], [-0.1468531207785921, -0.47719786197813097, -0.17488140833859256, 0.041343183756183434, 0.0010410906385915275, -0.18883370315303935, -0.12586527935719, 0.07220527806616732, -0.10149885632827646, 0.16160063454333481, -0.12996678014016633, -0.1143819577341081, 0.11501880009975421, -0.25706964790387865, -0.4072016385027362, -0.06335027738202875, 0.01567679798734944, -0.12065125479985393, 0.0092969279138112, -0.026478100052484726, 0.12258942940463147, 0.09463090369522804, -0.24050560283698272, 0.08863501718078078, -0.2090467752350097, -0.07592901848414034, -0.03274958635439141, 0.42484039967785536, -0.09615311220575062, -0.26041113020613377, -0.2673046862272179, 0.0857883394766183, 0.23716769834377555, -0.33847876491174056, 0.16813250299208432], [-0.4790092425764347, -0.11348836240846924, -0.022944674111456072, 0.28742755051068947, -0.01751687330399207, 0.03807499817542354, 0.21746104111257814, 0.23211157901855498, 0.11928512900143429, 0.014683651872707653, -0.13079957025689118, 0.1755526238984191, -0.2291345224889368, -0.12322550944118213, -0.021609028199389185, 0.2758214824178225, 0.0849921412329086, 0.08293595753786082, 0.2603079920375412, -0.12143124831960991, -0.031331258809568455, 0.03925831975359293, 0.036003775834635515, 0.013202776310194602, -0.0034467797508623945, -0.10186858846222124, 0.17603330453986968, 0.01976495723906195, 0.31269718400397156, 0.042339620931656274, 0.11597835592614936, -0.15765877488076208, 0.11713893289592955, -0.0885124537024634, 0.0804318690872498], [-0.13466062146716423, 0.18022721759961988, 0.049038259494227444, -0.20362455432580256, 0.08904527143884723, 0.11565162549392832, -0.1366673355214467, -0.38651741566032866, -0.03307808378147458, -0.11162331117715057, 0.019965431083252723, -0.3313209241779891, -0.0425194137341439, 0.07733479998172238, 0.12224503799697868, 0.2638616537304802, 0.031003566519203555, -0.055584696889831274, -0.05918347554597653, 0.04803933493650072, 0.28962066715371965, 0.35173019297020874, -0.11529483890652607, 0.12058026361038371, -0.1388200672186385, -0.26781092569689197, 0.12984874538877708, 0.29247997398763653, -0.00853775557188237, 0.044864773388654036, 0.10498440907116115, -0.012244556615376144, 0.21287330683891803, -0.08861325213362993, 0.061784449886335746], [0.1351182301387677, 0.3836479573558603, 0.16928900291754212, 0.20362711287500243, 0.4897629604969127, 0.15392428829352042, -0.3737513685338391, -0.5572082831383226, 0.07504930842051208, 0.14328572466002176, 0.03210647896684003, -0.11436746009228473, -0.33520544691670595, -0.24768276898933916, 0.14422928205699503, -0.3463356779451792, -0.23586276362050215, 0.12365048402192408, 0.0183707084387499, -0.0360931491220894, -0.005022173396434554, -0.08765873181431495, -0.4945813457548774, -0.3549287483542877, -0.21906157125080336, -0.07925388706623658, -0.01883371657927204, -0.6742551677286402, -0.10134281682783908, 0.15985396408844188, 0.1308967293243131, -0.001924602473439003, 0.19675196244236032, -0.08669346324714552, 0.17950781995221285], [0.07126452121972757, 0.05835605469575694, 0.22495119136757197, 0.11468295782618733, 0.3424432257331492, 0.34306357952246397, 0.3043016350166485, -0.011762925390074525, 0.01739545418340574, 0.05499389288024208, 0.41552995330407194, -0.026002630790723243, 0.32063537967732353, -0.004995166432441118, -0.25334328063375555, -0.20099407152085755, -0.26107899709235316, 0.03014374718249442, -0.1681523547856538, -0.49470676266790353, -0.05380151248294088, -0.15482140633847988, 0.03374969295569003, -0.14018987022332866, 0.17681782705777568, 0.26029821085629123, 0.3977931340727522, 0.13177659446682918, -0.23375549230749768, 0.21387977140615427, 0.15957480787033368, 0.2752153088974173, 0.42075694151442833, 0.17382528078025472, 0.4331373445129331], [0.003878371602057498, -0.2541168281383541, 0.0963846669665313, -0.30294638377996846, -0.08198608886682356, -0.18628674023501987, -0.06229398967280578, 0.06727446885701102, 0.0037780747434685348, -0.08144280901941416, -0.511715626509457, -0.21413320621750637, -0.12145230840968967, -0.26134420012600074, -0.1552239086884333, 0.18632740746007304, -0.2364548186782708, 0.1554768019322663, -0.18879080668977055, -0.056585288592472735, -0.18433395394961657, 0.1660890175463279, 0.019227506592143652, -0.09602635639970632, -0.02730331320864394, -0.09834772967416369, 0.03680466369405511, -0.09374351114033955, -0.1335405408389252, 0.129360953508907, -0.18789520884035574, 0.11631888800536448, 0.06543491299683322, -0.32236419065432353, 0.25989797817456933], [-0.27361695647606094, 0.08358121884120874, 0.0594303383626655, -0.2167251465642048, 0.0487746935021257, 0.42421452817744365, -0.46635785390161555, -0.10585434639679168, -0.058791892918525906, 0.23356426287241216, -0.07080718745684025, 0.14519953398033908, 0.33382965636976186, 0.15565003402311442, -0.5442942357188861, -0.08687547094082085, -0.3725866596070834, 0.012799575855243247, 0.11562434769819355, 0.08760383329080174, -0.0891646232920588, 0.1406538365575263, 0.301581624268788, -0.030319823285250562, 0.24484665787068688, -0.05685854039486403, 0.04047504429881582, -0.07450051215492964, -0.21753427429098326, 0.07966211922071509, -0.17055708247855472, -0.03670061671524647, -0.03268451635272733, -0.08277896139242379, -0.11438325779547667], [-0.1095293686785249, -0.048751435033223295, 0.5492594005463424, 0.04265234257346262, -0.15416675606914976, 0.20702784913287137, -0.19294317693992857, -0.00865076867323406, -0.34257379964958806, 0.29090151124834684, -0.22552115062051575, -0.1093001864607289, -0.12773733899342135, -0.3375776052168175, 0.148936195449758, 0.2776460536689364, 0.5409063881444742, 0.33945818139837713, 0.036559470187745045, -0.11088705053622754, -0.19227183890131672, -0.021759774299613184, 0.3051615176675321, -0.4085404505016783, -0.1873494334806742, 0.26783310768614266, 0.10581683754910351, -0.2972196344418375, 0.11334462023994032, -0.08155255285253193, -0.12851917370919022, -0.1124676339884658, 0.1697037061449091, 0.06547722070473379, 0.23746168379450294], [-0.14906121954586316, 0.048115947946800845, -0.17765621793820358, -0.302843669749243, 0.2886625462460809, 0.13204228157288772, -0.3179777884113607, 0.16113120704531553, 0.4552257193867204, 0.2595290338178537, 0.4310092516250649, -0.1896101219430307, -0.2356629566819751, -0.039974961602069814, 0.12242235681748569, 0.15334607017230645, -0.08069287332241186, 0.1530692682864578, 0.02256389701581344, 0.25820537753784034, 0.0662817176444147, 0.10390655563156212, 0.19841182021884265, -0.04529389496944919, 0.2949755874459023, -0.04400386667596581, 0.35195650277345686, -0.17694414355139018, 0.13322760986829427, 0.21023509309171193, 0.03351642220483974, 0.07851276304189218, -0.13843544610032277, 0.21808442400195596, 0.3624400227219302], [0.22696028387506836, 0.12625754879630222, 0.14676359956129936, 0.06982826781169402, -0.06661735635057225, 0.4351788721986488, -0.03791340612984487, 0.07681713099796321, -0.07524694844065895, 0.3386685832500291, -0.1627534446513232, -0.25951248558781165, -0.2197894102438293, -0.07631638550633071, 0.054138056662563466, 0.17273720300375317, 0.17865801222149924, 0.18224271603765907, 0.3728445226709539, 0.12993457195552874, 0.08993605018829352, -0.0630495607640122, 0.22255253846116538, -0.14596714722252518, 0.316341077991255, 0.11190986456780976, -0.08119569718864429, -0.2793780216284405, 0.09184478259920119, 0.09395469028727232, 0.6170944895997171, 0.5407895554249104, 0.13507670871672853, 0.26075815783553663, 0.09279027981213794], [0.05761685374736644, -0.14695985047715582, -0.1363530331381518, 0.5247787686086101, -0.23101096475657024, -0.0824287101166814, -0.41820699957347934, -0.1518161421062286, 0.05143839263794679, 0.2016948830416694, -0.4262214728357343, 0.07074680601638408, 0.19595543739769397, 0.06499304923942466, 0.21454204113309988, 0.0944139247538198, -0.2443612279375573, -0.08462918135135315, -0.09425200625180598, -0.43191746398744746, 0.12747027577564424, 0.05698675117465732, -0.07420440583130827, 0.04430724549705166, -0.02223162206667984, 0.006151238139002146, -0.02010217497550665, 0.0069593643053147735, 0.23327083153752967, -0.1577247532519245, 0.017531366073287594, 0.019213298315407693, 0.09509085657555512, -0.05346606946889943, -0.002959739926153632], [0.07831713225356236, 0.09854360153682162, 0.08269383294183819, 0.31723667654371973, -0.04305020856862372, 0.21374577352355936, 0.28623954926448714, 0.0054980001076133265, 0.16012443401279694, 0.09251650612940794, 0.1595963776967251, 0.14728464429373947, -0.07077539718489124, -0.06499126663263936, -0.2658468733328026, 0.17504517961583543, -0.39030539765389666, 0.5442963833961554, -0.2614238846568167, 0.062042987286946905, -0.0420971041562195, 0.23015997931809443, -0.1426491835480653, -3.0983116544543437e-05, 0.1020147518969053, 0.09657467302874023, -0.33477310775205693, -0.1911220135676752, -0.3489032201013715, 0.43475718094544, -0.0832492129444791, -0.3171760284816415, 0.035669547702418494, 0.14889687233040488, 0.24306569407202885], [-0.2650438862606807, -0.11530364017430166, -0.14034785184304233, -0.13792958198567093, -0.03793713240329205, 0.015062133102962085, -0.17450004104157196, -0.01627493070873592, -0.21204238848629095, 0.15570076019191106, -0.024599393151819287, -0.08969247695512554, -0.5048799116609242, -0.16508196032998432, 0.061292188235228126, -0.06106418476220406, -0.10985790917161857, -0.10949624865281654, -0.02702616021848174, -0.1855522076817383, -0.08188299556863234, -0.012186649394416837, -0.09621560027226722, -0.2971549567312852, 0.11980819648041104, -0.16467456439082842, -0.40374357528109994, -0.3048965097795323, 0.23221217621080123, 0.007749070092850849, -0.177711032877458, 0.10373739851332608, -0.008776878795182743, -0.08746052642380567, -0.037698348695693704], [0.07728506508337801, -0.3525071706666523, 0.12083565709884438, -0.1133025910995512, -0.0687587595784177, -0.2994864290588408, 0.11593045630079396, 0.25120048288548646, -0.12916696054712123, 0.05185243167562379, -0.1504382234796559, 0.11692190849368388, 0.5911189321091204, -0.04406822681277075, 0.04332425556331262, 0.17454374341173173, 0.3174622356730007, 0.1937925247552658, 0.2104625601040788, 0.265964656866401, -0.16250851177450987, 0.12094236514529759, 0.5076403979331487, -0.22331027135099904, -0.3307354689899226, 0.023696061150123977, 0.2543614143133297, 0.44494432595658, 0.07018453368979714, -0.036847533626174954, 0.48353838722766845, -0.3137368960485282, 0.01548725440791865, 0.19871207864497098, 0.17727314597325522]], "B": [-0.08920881229358193, 0.10317131839446425, -0.00369665074999269, 0.15668455091128392, 0.06311154027185993, -0.42566964365106813, 0.082562189002622, -0.3727830228050529, -0.24647721533041683, -0.10542701130789743, 0.04159458658002278, -0.173491925013641, -0.0731306538238023, 0.02008022108373857, 0.11763420504830914, -0.010813131132162302, -0.08103341009087964, 0.1197703766350912, 0.3730157472790409, -0.012994416989538442, -0.1951235256638904, -0.0321491009256259, -0.4067485015379938, -0.41446626146004417, -0.328518558578595, 0.010656070271296928, 0.10663909327673778, -0.14160861968485325, -0.413878559022326, -0.1907106039299329, 0.014943623434984865, -0.11487393852294472, -0.07323194108242907, 0.16844357898150558, -0.1621768880760176]}], "mae": 12.850716006999217}