{"name": "ej1b_id4", "layers": [{"neuron_units": 20, "activation": "tanh", "W": [[-0.08797321124713037, 0.02554510872085624, -0.1911999200363701, 0.043677566357903444, 0.31972469916596624, 0.06066266265965053, -0.05754033725366991, 0.22189085502630868, 0.17288956332272254, -0.27300918823373993, -0.41347392980469194, 0.2719676236240165, -0.09381977142887994, -0.10040461579762854, -0.06973883350941647, 0.006361143402084735, 0.37775729754469917, -0.1043605651438027, -0.4376649450342928, 0.45674862127329896], [-0.0745824772524707, 0.13787769641765787, -0.10445629452822079, 0.06926077271328522, 0.11828734807931318, 0.03933198643906335, -0.07853311799965894, -0.12943337262667395, -0.17308776283291494, -0.09062506483645265, 0.0574112221607865, -0.09504508930583482, 0.19168818477528538, 0.19145304721274536, 0.005265948081865977, 0.3170005545706592, -0.2562417896530431, -0.08588531753121875, -0.25243008353764584, 0.5751434732230309], [0.06456083256340105, -0.14281498915612797, -0.2534870965589797, 0.03710677945944869, 0.14300798086873204, -0.03924965315505932, -0.30472248248307715, -0.3452972613423159, 0.4535137832595298, -0.110025857059176, -0.12392504368034206, -0.1200922476594993, -0.004443427005494953, 0.09795472146652096, -0.4785532026738347, 0.3048596173367226, 0.07020284194226195, 0.03150615204624088, 0.10515101614678822, 0.10085384556180209], [-0.09177828860049206, -0.11755182475328127, -0.2792299650378744, 0.04478936100789796, -0.04926805645180602, 0.04281916664987582, 0.174967352255402, -0.4978197376348908, -0.04018933301149242, -0.08357176795634053, -0.14519620853491297, 0.12309081420133501, 0.39714510649264434, -0.37498126780417695, 0.2384823837809998, -0.07524807703832265, 0.33209888592671327, -0.25703383668629737, -0.30766160742583953, 0.203331871714398], [0.0759732871978496, -0.2121108783604552, -0.19576721847355882, 0.0035978356358102397, 0.3340210557947543, -0.04145538134687454, -0.22262812893073197, 0.057786842947723537, 0.009214837607002355, -0.12131298868391528, 0.030877620942363293, 0.3778412256139009, 0.11906684024739947, 0.1714430384443407, 0.3668373234227348, 0.3012544910917086, 0.16063628317115702, -0.03701648118831029, -0.16763662756993108, 0.24559485024600453], [-0.14606328135974167, -0.21342210281421894, 0.00024802280158719585, -0.04723555429307974, 0.2154611878455365, -0.4917151641612803, 0.3789193020602828, 0.1758138356577776, 0.19440757877366124, 0.21997857972930265, 0.37923654277493934, -0.3040780169186353, 0.15283805438822526, 0.26594104122960255, -0.02123364570225767, -0.20703335227151626, 0.0663715089712561, -0.5010269717318593, -0.10307837940098688, -0.08309251063204232], [-0.08066051213039398, 0.10565622476695985, 0.020484600870900475, -0.21490654489240835, -0.18555714795032477, -0.06873902393380801, 0.04003140644945626, 0.247064720137723, 0.4400126765639671, 0.12567273729517706, 0.03706632079480028, 0.13918310785757096, 0.03979351502712287, 0.009025989969958872, -0.0006620600207994725, 0.06328911966508373, 0.210094118147061, 0.20701263720530255, 0.4046132146065751, -0.11937260002608954], [-0.1537508152606977, -0.13764079815405214, -0.23397458722859382, 0.006571875773159179, -0.6280535073115239, 0.25263539876146296, 0.22641011712251996, -0.22326731902274558, -0.2232641659383376, 0.2821591260424759, 0.1517531301670314, 0.08220647164120931, -0.2678575933060503, -0.1630238313357592, 0.0044188768943612886, -0.22826195133851548, 0.29978398722254324, -0.23971571763079344, 0.26166056366883234, 0.2363349935422506], [0.08125812034499398, 0.3662097289744136, 0.2045548414749664, 0.2909420369698141, 0.056416283200539756, -0.32317407526289615, 0.027274948051798593, -0.291553119925854, -0.13488814674352495, 0.13013980659623628, 0.044286654966288364, -0.13406576339170656, 0.05995751647098718, -0.6021009369010333, -0.18671293798431554, 0.025830079283756423, 0.2209701346231574, -0.0604826494697387, -0.2992383052439209, -0.18011024623843286], [-0.13197157775595295, -0.0943303878309922, 0.22808900694498738, -0.35924614894319673, 0.13586758360880496, 0.23525287760305383, 0.021090567320882485, 0.12764832496680287, -0.03919756075990094, -0.19537000923445735, -0.06205846404339616, 0.49197057883969364, 0.18953210744653168, -0.16322822386001876, -0.25085975843574176, 0.33277191532490996, 0.20952404915196457, 0.27394808085900063, 0.3836826119960602, 0.08837033743516619], [0.0222322208539224, 0.09119346526745273, -0.4275882548296988, -0.1502565865044103, -0.256057835591402, -0.20110120774006873, -0.4511139255946411, 0.19507306629075644, -0.10607662766729448, -0.22911709301015012, 0.4789417811714684, -0.11635273547564702, 0.2585076650342485, -0.09717203062506691, 0.19571311903928232, 0.3122092568900923, -0.36499958616419215, -0.2595862055117669, 0.283816649897588, -0.35647773304387387], [0.09149844869879678, 0.05984268267615386, -0.006295610666938975, -0.37770541064877283, 0.06746371539675214, -0.21404821289752138, -0.14130736117669845, -0.17465228054438708, -0.07200538718611735, -0.27686469699349897, -0.4019704599754426, 0.004489865967045762, -0.001794022727278677, -0.362530591802466, 0.33458398535569756, -0.05552667959516185, 0.31093780178105684, -0.21142662783773503, 0.32161780749962077, 0.10111977384647047], [-0.061617741796307766, 0.09781388469870766, -0.10513600872527365, -0.10619662452422027, -0.29764380870106094, -0.17039526980901012, -0.09318658741746665, 0.28428826885903175, -0.23722895201425304, -0.08251916096357717, 0.04348341792887945, -0.12491282874918969, -0.613059954690961, -0.07106404827406437, 0.01693333919412121, -0.23330567840698554, 0.3865144756012239, 0.05973511046426097, 0.15597951326791126, 0.04619594952608059], [0.23446195602098, 0.4006654362670264, 0.3402503428644501, 0.32901888674981783, 0.009555691673484286, -0.008820292889959261, 0.09890017297963433, 0.0012907235340719296, -0.152606945293082, 0.03405274981129298, 0.2799023767623241, 0.2663182484625518, -0.016852652874646327, 0.010055463722624221, -0.32235330286663544, 0.14717745394260778, 0.14854076186520546, -0.15709622510570223, 0.29044605133691104, 0.2724909351406054], [0.06664381384857984, -0.5321169980805319, 0.20390088939576773, 0.05516565524166394, 0.21895068320096914, 0.09349155545610018, 0.09332830504031549, -0.4441418043970833, -0.14998070119569648, -0.12139188457838543, 0.1490877468237503, -0.29711113907656966, -0.32468074037108496, 0.37732276570947376, -0.026069922771807495, 0.38584717752056313, -0.2994681179304177, -0.10201358916616264, -0.08398664213469362, 0.0003562881437853662], [0.14121924823594217, -0.028024014731693473, 0.0195187083499542, 0.13706536980269035, -0.050969039531829234, 0.10075910908913381, 0.06373367836032216, -0.22547846873148922, -0.06804478770477314, 0.5113300796383551, 0.09922934353401815, 0.2156795351150808, -0.23186530590478385, -0.16678314756210486, 0.006012373562358311, -0.10447236291897262, -0.6872932389526307, -0.4300440861645239, 0.07576089599525547, -0.07634923592444308], [0.24686068662309107, -0.2119134925631999, 0.08958818723895043, 0.11384741030517118, 0.03087888814069128, -0.26750054541356205, -0.08481869499519684, -0.25308916254721986, 0.029032853436182532, 0.2188060545718054, 0.16351972165321565, 0.027982616725146604, 0.014136366690692915, 0.01530101904737645, 0.09940470698838523, 0.08761459956602893, -0.11535169062402836, 0.28480015478326887, -0.5198755295167629, -0.02064982611515203], [-0.31244938680859896, -0.04559112727915355, 0.2977749882688397, 0.13958770433715673, 0.3326753585677254, -0.24581597517885367, -0.0718953491299275, -0.1635763784079908, -0.0717537520248043, 0.3228778574903913, 0.2651250205595629, 0.41059153143486027, -0.44911400448476607, 0.3037198619460916, -0.24935676652261318, 0.12927663843649048, 0.2756095451602258, 0.010972389504987587, 0.25330822312252915, -0.29863097191513793], [0.025938399329629064, -0.22130520313512336, -0.1974806532997955, -0.1332687064888415, 0.17333036495416462, -0.19712490384869114, -0.17194524452647003, -0.12270645813313284, 0.22754110677957726, -0.19506790378001357, 0.5558148738314327, -0.012680118760601282, 0.1914882564191542, -0.304942647160729, -0.11754411403260331, -0.07991691282457399, 0.017890782763637893, 0.20027798254930368, 0.15408123132235385, 0.2085433985573753], [0.06879345894444923, -0.23416083247926203, 0.2423031345718849, -0.08479220176945623, -0.049217862584281166, 0.21844214126836953, 0.20080182908958097, -0.026907715156658078, 0.1905180392901633, -0.14116849054149716, 0.04389606913381458, -0.2593266270434136, -0.30073786784380946, 0.1284521335418214, 0.0882275114371108, 0.14378335175031634, -0.39480181244212137, -0.15474086295886225, -0.3247766480853716, -0.13455615053817457], [-0.4255633888170304, 0.2501899952002165, 0.3501305601427526, -0.07384128484767853, -0.1845121402474547, 0.18303603325765772, -0.3985739807566792, -0.07613046593005289, 0.0944859379716239, -0.21145702232516056, 0.43773599739356783, -0.10518702704822418, 0.021862441670135017, 0.3152996234323659, 0.05319904624122986, -0.32776257191234137, -0.09969564456140557, -0.17718003366244464, 0.376146471001392, -0.13477791203388473], [-0.020635655632657523, 0.18870878367216265, 0.2507799296609389, 0.1471837271945833, -0.19661101819277682, 0.04764349544615622, -0.22790436639476053, -0.03640271785317091, -0.3176771201594451, -0.02953048993420811, -0.020042843502209848, 0.06366398692212327, 0.2405577234939642, -0.052631597707354524, 0.2506594413739581, 0.24677394835229588, 0.06605060979428837, -0.3905673241107121, -0.14277894912176223, -0.26105124684929415], [0.0917979178157225, -0.29569077037579006, -0.09714991276511474, -0.4144379279927766, -0.4362226126285707, 0.11258771257812424, -0.005617001687109487, 0.2760665294005592, 0.02560971787051053, -0.1781630361191177, 0.09151239277016018, -0.26169921035275917, -0.029834144767203623, -0.07908985995944726, 0.21047407290712755, 0.16661994904904698, 0.2629987971513883, -0.12210272358825654, 0.02288796439379667, -0.13927869183740665], [0.2650380681806746, -0.21449504256459234, 0.46130002668001385, -0.06048451462315145, 0.07620638801230722, -0.025911147891798336, -0.015208178423747016, -0.2950927258633966, 0.19426429479858953, 0.02876056206216277, 0.11817633515279138, 0.07160656187206377, -0.01822043322862206, -0.02351894913055766, -0.24140905921270694, -0.12470223181908319, 0.02214745881073345, -0.2365823830144668, 0.013865183862914304, 0.13386610457527498], [-0.15376537639249369, -0.35873696099820923, 0.06222311650757906, 0.01601134009390829, 0.01110039583871094, -0.09740769044462565, -0.14105050651585144, 0.36501129302154733, 0.23774329557976548, -0.005539985038050829, 0.1678666614310217, -0.2985976694871254, 0.2238368738904082, -0.029604134269104777, 0.15458467806139986, -0.1157159975773144, -0.07097379274107608, -0.022595386750554506, 0.19851257229892183, -0.08324114566570756], [-0.0864479123282372, -0.1394184646724851, 0.007975184529377694, 0.3032207742259054, 0.27094565325534886, 0.009179173184203433, 0.12578044460079624, 0.06439186391982293, 0.04662199708110827, 0.10111879935824557, -0.3236195757009991, 0.007634494667379836, 0.24969403558532896, -0.03354388341046339, -0.06399262149753747, -0.15062848694389022, 0.40456105070683024, -0.3251678889205354, 0.24052976712909713, -0.3006208512343323], [0.03460760083409423, -0.4364331157722622, -0.38001255136823053, -0.4603653068258093, -0.027992046376412925, -0.1256232840542855, -0.41575141738012067, 0.09815777253793218, -0.2822591796780884, 0.1817397564815077, -0.19717228089896563, 0.07740839600026121, 0.13027262084658284, 0.2795048808244353, -0.051681684442283805, 0.2652971550771536, -0.1074303252405363, -0.18196448817302785, -0.34409346393213697, 0.4183942825499543], [0.09383843468677427, -0.1382465772138409, -0.058853634978722494, 0.2813434178386062, -0.32596811177273405, -0.14453703129780693, 0.07028765224559684, 0.21899608021448438, -0.5049793148076909, 0.1003936600681679, 0.29235530498522433, -0.12335382739329102, -0.3030784357540705, -0.3178581742148854, -0.12336653193585036, 0.0034807394118633295, -0.13238743539315873, 0.07642653632577029, -0.09226191628063833, -0.24811478665624126], [0.18833236861163727, 0.12589173937836093, 0.2741930486603265, -0.7080707609691932, 0.16595922239470473, -0.05398832301012291, -0.14374271487075255, 0.07090930762826976, 0.25905613798370186, -0.27311924251911396, 0.11335058646392046, 0.0710670602589356, -0.14085401360451533, -0.3075570469555751, -0.010805898226502597, 0.24085872267794997, 0.18803553863953312, 0.01626150735581764, -0.23505477083292986, -0.28505681877537636], [-0.33740600748880856, 0.10228653509962357, 0.16602216617193458, -0.23602870560577852, 0.03590443229913443, -0.04258759926015885, -0.28465961584936267, 0.27115579363271314, 0.2911122069166096, 0.27139659409424366, 0.06869654402657785, 0.30097907647972183, -0.13698728771751986, -0.11244977383545197, -0.036558060740756924, -0.25547790953820826, -0.21756920998735232, -0.12950915770028967, 0.03536608134163026, 0.23031267583909246], [-0.36018057864540504, 0.2587545748089409, -0.07790229710864022, -0.3715395855227521, 0.1098360439041042, -0.13134985685617673, 0.211232000657881, -0.07758452226616301, -0.09516415004148866, 0.0214786093856956, 0.05667703940535436, 0.1929660580246736, 0.05364598339283672, 0.03391906888977971, -0.02372120120942917, 0.07574838183808338, 0.0309100444946346, 0.10885085746648342, 0.1945112793791264, -0.1332473679383476], [-0.020400436506181067, 0.47837074537270247, 0.10978501752025775, 0.051739554393775984, -0.040152411747991536, -0.3985867655327575, -0.3085411386353075, -0.21088293473678935, -0.27165628544159587, -0.5336074209401465, -0.06891463287590092, 0.07668449711062504, 0.05156671776834203, -0.2122607066177927, -0.272066105266162, -0.08447276075239274, -0.1113191523024134, 0.0928824047407572, -0.057944078480566166, 0.1160761715051629], [-0.1861509986654368, -0.06955961867127414, -0.08426377219399166, 0.3869528473300414, -0.06658856325507509, -0.7450695463577696, -0.016619592728893778, -0.0398163636671125, -0.24586082309917756, 0.04910749891209207, -0.0735084902087654, 0.23483591471895435, -0.011906529875621824, 0.10376032222586334, -0.17790684090704537, 0.22779311270798736, 0.004207429560173372, 0.41642136015858555, 0.1096842231891388, -0.18321405324072176], [-0.31472506723456656, 0.3521214867601244, -0.05822989884187145, -0.22455804749720687, 0.3819557262484254, 0.04838424380278076, 0.14305571084115218, -0.16295805877508804, -0.10107009330903893, 0.11206484355238548, -0.019871611923385858, -0.22867080015338398, 0.21477472802585731, -0.04922546675101312, 0.1096503096040405, -0.10815936657965507, 0.21427118192155586, -0.010287587654424241, 0.08247752152011019, 0.14191730766876515], [-0.18765859354758688, -0.30534203999288057, 0.13762686153025397, -0.09626587165186444, 0.005734682904479635, 0.24740798665395058, 0.06177736422147877, 0.16443364664310375, -0.24829621535241386, -0.17808288310518897, -0.16135696785433215, -0.08299718431830021, -0.46227738866890083, -0.02013638237853545, 0.011598779176115825, -0.020047165824859946, -0.05486234358001126, 0.1396083852438499, -0.12119720513814375, -0.13200053808802115]], "B": [0.23395916017894966, -0.023059912568477576, 0.1344136209874099, -0.06302027313633167, -0.2958446005794649, -0.4385557640426181, 0.13119242551575983, -0.23061326949640087, -0.01983690372424184, -0.20194365338593426, 0.18574499288556762, -0.3916288180484815, 0.18831448650620797, 0.04726927613183781, 0.043271018367770746, 0.013778364164770202, 0.2945114696630337, -0.25407788882044763, -0.2606431678000332, -0.19685914973055077]}, {"neuron_units": 35, "activation": "tanh", "W": [[-0.3779772603871083, -0.3260116477078364, -0.10362306810907417, -0.3581459442109013, 0.03538829686063837, -0.2784674423096333, -0.3016302078205062, 0.0700443608035536, 0.12923688155236496, 0.1715993805188168, -0.04979251361159355, 0.241742653434177, 0.05659103670013984, 0.3028712289809963, -0.08230067992282131, -0.17327093297064802, 0.06229564448850997, -0.2376311244597576, 0.2854140753459524, 0.2653562148436377, -0.27974185329280815, -0.018857846828391193, 0.1318360840660575, 0.24810737795698973, -0.4251157611496248, -0.6845770065848494, 0.35323030025413055, 0.06487134524510453, 0.11927260604573732, -0.7292056685567514, -0.5475805603880284, -0.3121252530077684, -0.35708290691999617, -1.1784537006763895, -0.4395398004769946], [0.0297246358464357, 0.15710754232256438, -0.37503827101707427, -0.23439397865797468, 0.11796843933890498, -0.7115722764516056, 0.45930642559919266, -0.16039433240209805, 0.20282745610463485, -0.33577610491183546, 0.18247035985668067, 0.24194544875750876, -0.3584689015185126, 0.7055638861845986, -0.7464479491681827, -0.02697578240645424, -0.47830634858752014, -0.33960776906523027, -0.6858749937567473, -0.2858133834685422, 0.35770609871216436, 0.35776782634456744, -0.30048864075037096, 0.19916121707421713, 0.0422760051275507, -0.36135085522052335, -0.23776756126066018, -0.08935394823028535, -0.018754602613164344, -0.15406401654614, -0.16939621538248578, 0.6603365135233983, -0.5177709745725873, 0.37268715709665123, -0.29091749482718976], [-0.1107388325684885, 0.37414274576685785, -0.3940628628774483, -0.40009226241990997, 0.24764712729437888, 0.191353788349187, -0.22180384222489727, -0.44222205449466684, 0.10036266451961316, 0.20560928320640398, -0.4514086987882719, 0.17441293753310264, -0.16652317555376114, 0.5781412644332249, 0.29661909090413174, 0.16161874869436585, 0.23133894604099156, 0.0031981198596920295, 0.02744696749742379, 0.49484586410496134, 0.3802034368543744, 0.3389688813350397, 0.06407053493928994, 0.4841424999857668, -0.028115463636710154, 0.4324965791220588, -0.3671278353229155, -0.1359516420382357, 0.44275018641090697, 0.27156041488180227, 0.15444694791885585, 0.012546875925916835, -0.23374568279944533, -0.04578966284782099, 0.14280122406802598], [-0.020414120474974345, -0.007353743202099615, 0.2584854540952821, 0.15976554802266857, 0.31005216271080616, -0.011436683207981059, -0.7709637313919865, -0.22945445461144767, -0.23729232280272528, 0.02993318556856423, -0.09946799119606091, -0.16203650054692934, -0.1769969333774065, 0.38263766509005964, -0.2511439596967431, 0.05616669203790964, 0.13408585662044004, 0.5043038251316341, -0.20565248641316528, -0.25403181489540594, -0.08030201668267889, -0.28008252823521357, -0.19807469423949528, -0.27097111360900045, 0.06266367423384363, 0.3384578647203753, -0.8276818148724859, -0.08094452584061887, -0.3919325132892914, 0.13747862808829267, -0.42950500920642515, -0.12679938278587052, 0.3443534343471536, -0.07563792920102605, -0.6968974047167632], [0.35177426892396524, 0.25974553590648575, 0.3948880302875356, 0.21232397710436113, 0.5931505921577459, 0.43571391337353305, -0.5979647455696816, -0.3863530570718564, 0.017617986449208606, 0.4995104997082919, 0.02911364386125953, -0.15403694995265022, -0.07966188877546428, 0.17542672351090485, 0.07176494344677334, 0.06193587135606426, 0.10452932771390172, 0.5101163875107365, 0.2674222640031408, 0.27836558715277193, -0.09729370089324071, 0.17877553450755584, -0.45617508075348057, -0.31124540858673144, 0.11435464841427695, 0.13487966776864488, -0.16674069646112838, -0.29980072817002285, 0.2549107849162316, 0.4113852412482642, 0.2445119310699648, 0.42532268072454343, -0.12506649550833246, 0.12145923416854199, 0.1133069757774514], [0.2847448785143835, -0.03886155216605991, -0.36231838662517535, -0.026848715726556123, -0.059092202562468076, -0.3275746313749803, -0.5665714027197187, 0.4497093221969689, -0.004229910561222734, -0.22468951563966463, -0.44740513814962984, -0.00872690762140079, -0.42160429808887834, 0.016905998975775022, -0.15070499345885294, -0.012113814314853743, -0.4172092044653902, -0.03409344827199198, -0.325587344689441, 4.305393631557576e-05, -0.03931137044112059, 0.4563002294879167, -0.10140706363694259, 0.12653883407023078, -0.2497281025991497, -0.4542394528840673, -0.49297506808093294, -0.1270044906672193, -0.15717188055257858, -0.3392765743817702, -0.01502868591013182, -0.5927768396693448, -0.9827478534199916, -0.34232188075797343, 0.0019576161041477643], [-0.526598948329041, 0.10052870883214289, -0.1691558850040219, -0.11729720715894601, -0.07451226828508596, 0.426240631311233, -0.3152856243246196, 0.25232226164582056, -0.35976221089563737, 0.2524372400000539, -0.3942122873494157, 0.17210200989805644, -0.3444765046671219, -0.0567186776537218, -0.2200205912508686, 0.08609403438397949, -0.7948590162141846, -0.328195384204883, -0.09134138780735576, 0.030547907360763644, -0.6592491675289263, -0.016941012769719706, -0.16448159052922937, -0.21908416894742147, -0.4543618676271424, -0.17198625294375092, -0.4355852488388502, 0.15266140497679234, -0.2406345607299994, 0.013030987884428163, 0.41455878595715745, -0.19690843559695959, -0.01003858342634559, 0.005769413208083377, 0.08811884183719874], [0.22345059039885298, -0.17888843330570173, -0.4808612236377894, -0.7724298428957681, 0.29848924698781076, 0.11941270592179475, 0.44235992660683715, -0.19606106490486225, 0.018797747577055574, 0.16523666410754653, 0.34274077873281034, -0.3167225931916356, 0.5214165569244581, 0.15795088700205331, -0.4486653757549556, -0.22642573682617417, -0.13561850589582647, -0.1527357412166253, -0.3395728239220519, -0.3247301000994829, -0.42502582811757583, -0.27659983222986856, 0.6410365614243196, -0.045410660417645445, 0.08314336589159191, 0.42996701098080653, 0.14191337482490923, 0.29320200455845075, 0.18404467505529024, 0.13935428998918567, 0.2231052733621759, -0.19900659641612556, 0.11674140400025274, -0.4558504026580835, 0.3456396390807026], [0.29745294321914256, 0.3116421718755898, 0.4293806902093961, 0.0639616682444388, 0.11176611299142725, 0.3675414541327218, 0.15054924648371584, -0.30134285094932534, 0.3353688936941567, -0.023278823857140384, 0.2162042842259347, 0.3427604305007631, -0.24633265810007676, 0.03652785192941989, 0.05065230595724641, 0.4061582849535469, 0.0414187691934492, 0.06095383395008583, 0.3640067257943533, -0.017987897304075528, 0.3477069119827444, -0.4584690861001525, -0.18181820635566845, -0.053496361616481726, 0.43822775517240015, 0.4439991786426969, -0.7553364180714582, -0.9340333450424029, 0.49926030548025524, 0.37511849580584555, -0.2416617694898301, -0.38443886722761655, 0.09175207765905734, -0.12778251942989502, -0.15607447883006137], [0.08208285386127867, -0.4263148371040626, -0.37618845984651195, -0.05526361306257759, -0.07641547361032185, -0.11711347978788055, -0.005001967377218274, 0.5835319023998266, -0.09248638813286446, -0.017451507629776635, -0.21302935043573618, -0.13649012717332726, 0.15083046667019095, -0.3331060130823198, -0.6609916797872489, 0.8629896259896493, 0.44695453533614, 0.7603073427209218, -0.12841563087168284, 0.5444620194356413, -0.13626567391578748, 0.10996279125835164, -0.47384549895577854, -0.07133781012530069, -0.3115601170473926, 0.17451488862083378, 0.24903371939045385, 0.3099226250681758, -0.0652177675616598, 0.3469589659665459, 0.23357841688141295, -0.8055856888462688, -0.13010445905443488, 0.41082305668255475, -0.17792725123204078], [-0.34218733096320986, 0.2170468252654795, 0.025755389295655674, 0.12031092823144234, -0.382876415337141, -0.009701226243890193, 0.10466634642566557, 0.30995107256565624, 0.4097298794037619, 0.3148885238574875, 0.5245472727308214, -0.015949880974166025, 0.13937588813903062, 0.2620365344892681, 0.22281505491318102, 0.33802473152806967, 0.34777256883306334, 0.32247555363152247, 0.8549572260273212, 0.234423986830687, 0.2269416641861059, 0.007304447084019496, 0.32634971765352405, 0.6321344894428433, 0.6569571179410816, 0.21787785321639758, -0.3314207583947054, 0.08627460326080896, 0.43744959995732896, 0.036721376335448364, -0.14423873818406416, -0.05524113395864039, -0.09832204284194791, 0.07051242194261653, -0.14995286037777528], [0.2265272605953933, -0.19922222787169117, -0.17622074275972005, 0.05411761998634953, 0.5903247298473648, 0.057958798160249736, 0.563032156244887, 0.20573016751115267, 0.03109627703521766, 0.30829796009741073, 0.022230277955839428, -0.054601055023943836, -0.18118248533299056, 0.49020098342949314, -0.18599431004528258, 0.17752886729548475, 0.09770547699243284, 0.5475205180487062, -0.12020082158453627, -0.007565941971159924, 0.14543900107841365, 0.4802795705598097, -0.0070813754429541265, 0.22614602391449917, -0.346708178718957, 0.6425632012071644, 0.3665509921299169, 0.14849603476390907, -0.030633579219125403, 0.17096524779495242, 0.5194729894215308, -0.20678121413439446, -0.28997817103489615, -0.13131479179599267, 0.36181369848498507], [-0.25330347796427877, -0.11914956830394742, -0.37514605492789543, 0.8125307642792411, -0.15777737576800738, 0.24522073733731692, -0.21275623687361106, -0.5323522698747256, 0.09664351397431606, 0.1343857653024631, -0.07655996136321062, -0.07918142215978917, -0.770887281414676, -0.004551429731186473, 0.07650564120869718, -0.35254406087630263, -0.002098492119670438, -0.4042591091455256, 0.03643396569379153, -0.7310501031459936, 0.03928778714855737, -0.06802807452697314, -0.523964780915202, -0.4007186928107659, 0.35393559063804436, 0.45367756503943, -0.06610740070976417, -0.14311128773449286, 0.20930382639523204, 0.15793814987227534, 0.03918045867960474, -0.363427345229667, -0.01521163543379424, 0.25489781101540626, -0.29493542007306517], [-0.04063032962277112, 0.12310589213584394, 0.1584788189974856, -0.34909890797964077, -0.1194525456119803, 0.12147161169239108, -0.26710612284824414, -0.386558856484018, -0.7850466335002392, 0.20402981013306645, 0.15333867899377257, -0.6337076745320572, 0.18666772111079402, -0.08545637232620559, 0.3070559006075115, -0.44918940186432516, -0.6788134180744001, 0.1185086226166714, -0.6872273568576206, 0.10365409165560871, -0.2683859029817753, -0.3138610765097075, -0.42333847534324137, -0.07894625392961052, -0.3261696928328598, -0.1514160664326469, -0.026681265474916397, -0.693252848709899, -0.6959562445904218, -0.03216658885334988, -0.11766477562726464, -0.33676177475941743, 0.19445231489992743, -0.25882409108146454, 0.04462118639803955], [0.02017509895092909, -0.24304349574374312, -0.5463039402069008, 0.3191279631592764, 0.37030045159280756, -0.37063412520852174, 0.3052478419994252, -0.33078967814616966, -0.04466477516125479, -0.4964693139404821, 0.48671726463563253, 0.6095358585860109, 0.5869705610266266, -0.43428460777380196, 0.138718051954089, 0.17210111598310507, 0.029427924582394394, -0.43375325804535264, -0.0676739883268187, -0.1839224295093883, 0.2613011072766976, 0.24053550035836038, 0.012672625459871644, -0.07097738530712666, 0.21460552383426235, -0.05855231782401511, -0.029717106277344515, -0.2712229336704468, 0.27499445849855897, -0.3462125182930404, 0.02133405195850331, -0.4397267477819409, -0.37371208005958656, 0.35465088770523673, -0.24754159984196053], [0.07478317498381916, 0.5570684822818158, 0.0751402721534767, 0.1518649132574103, 0.28626166705755196, -0.014741872115985852, 0.30288614676489617, -0.39094755483750826, 0.2317882830804574, 0.9675915323786821, 0.6312741214223705, -0.2956141202122503, -0.03923260269823308, 0.1573778495878774, 0.29555088976685906, -0.13477845407196326, -0.17289021039591937, 0.13952674407334772, -0.22671123428292458, 0.3173399880883254, -0.011528548045103101, 0.2486122320530568, -0.09134864358526931, -0.1771257921175048, -0.015297700066270885, 0.1511407122601172, 0.2182188211636596, -0.3232269840911545, 0.5481475157408473, -0.238076299783197, 0.38616882705211675, -0.2922664873742045, 0.2455871078196535, -0.1486379181926113, 0.18478436710230428], [0.158071490000983, -0.13366783662517884, 0.4787779389228251, 0.0950219205684189, -0.03399808970269449, -0.05410028896594354, 0.009393807838988626, 0.32032009111284176, 0.38790227784081527, -0.06350249848616123, -0.39335651346523415, 0.4858347539620501, 0.30067040035689174, 0.19034166709899547, -0.4761166293185537, -0.5543366571769754, 0.1977025989321855, 0.21583968195880301, 0.024693041677623716, -0.6643389437381314, -0.20590710468115747, 0.41752091129992214, 0.3144933082103176, -0.015196157930027624, 0.03437681355355407, 0.4794913892428695, -0.039573950108696264, -0.5115727078549013, 0.4213766124103523, -0.15882383830717525, 0.043049333471900035, -0.2372728918015934, 0.11703872227362085, 0.1777134993571848, -0.28906449956164276], [-0.41611763511061, 0.07281513757246318, -0.028116351646413983, -0.4639480032826359, -0.08341379976271751, -0.5680854329646585, 0.4815848453947351, -0.17630885746539904, -0.10070846592434447, -0.09262114568072531, -0.4349996977928105, -0.6519385011926626, -0.3635590876817693, -0.6257223102670464, -0.3671573853174888, -0.5682536659162959, 0.4903426929607661, 0.10736717544240026, 0.4759004772533063, -0.23095616377270994, -0.16432472939515588, -0.7444642414887561, -0.25152471568921636, -0.407462693217514, -0.1257120406306555, -0.1011009506226281, 0.06028812720322107, 0.10873063766881241, 0.13961542315904396, -0.751599107275337, 0.15311443462507196, 0.2652465201737374, 0.06130776939558128, -0.25562162284002976, -0.2991593973171615], [-0.2938553548141993, -0.0028226596496454333, 0.5193449277761354, -0.18602339266781173, 0.011345025830288022, 0.048949899213197944, 0.3612035225741256, 0.38650874146284864, -0.0028702699333782045, 0.27649144769044903, 0.28694251335654714, 0.43896713413472344, 0.11555461692775357, 0.18728648512795948, 0.1764366604185253, -0.02270964023427974, -0.6840367318492985, -0.07349653303035786, -0.07098776970702655, -0.3079004729067741, 0.491204590844646, 0.12584913321466673, 0.2178420747816053, 0.023946921063751715, 0.2567181871653436, 0.3236445085676711, -0.2596330994885021, -0.05620291251988616, -0.3525231865103486, 0.07940551601542215, -0.18148789218690217, -0.040947482901967924, 0.1056912402251771, -0.02113883251733581, -0.15912406891384764], [0.21366020452495493, 1.0050974923066995, 0.01772093927122097, 0.1311932003364286, 0.3464618000094791, 0.3468454454931028, -0.03825640405754952, 0.4168099086856628, -0.01021346299878515, 0.030184083045612643, -0.06282791121356547, 0.1715568568189393, 0.18867805760055747, 0.4361109503126022, 0.1902967179940644, -0.1580702509169383, -0.5645033258976302, -0.40769084893536056, 0.3220597379208496, -0.1253506290563078, -0.13184271788494353, -0.39563799246486975, -0.5368422803285657, 0.6252279692216995, -0.09217253996804455, -0.06149906051275403, 0.5283491093495678, -0.006817618767525523, -0.1123122059117872, -0.13380322780439122, 0.007397437127229591, 0.11326746441683005, -0.10777809519419827, 0.13232371664421547, 0.25517442914633787]], "B": [-0.2535010364374795, -0.00224391201073295, -0.043568512952713856, -0.19128734404513306, -0.2573421351272714, -0.15557465996719064, 0.09270162459629723, -0.11780589367294123, -0.7823061131994625, 0.0682655003549546, -0.09616344986974003, -0.22203504444120045, 0.24775386096707389, 0.026539652861677816, -0.4300973407401253, -0.32542351516694085, -0.0637708066570819, 0.3877824768336555, 0.20532809099114968, -0.29002152945381543, -0.4284347004911041, 0.4063003655682219, 0.20115772868647952, -0.292411805490532, -0.25903968609474426, -0.21536385412567816, -0.24547495726027455, -0.4174554400309037, -0.23979524317053943, -0.4440257358588098, -0.47026301993765535, 0.13444419217165457, -0.20990810863101733, 0.22294816917504154, -0.22655055319306333]}], "mae": 0.9070121070409555}