{"name": "ej1b_id1", "layers": [{"neuron_units": 20, "activation": "tanh", "W": [[-0.08394134663785398, -0.01911133302127965, 0.01974226629208809, 0.06355422247605014, -0.054941908611716536, 0.03327704031115773, -0.29143547910189144, -0.021442534599402683, -0.18914339351791853, 0.14869855245218988, 0.039145795986810936, 0.23553605278657908, -0.23331167880394152, 0.06789892370540009, 0.06918913330883986, 0.18587446705353136, -0.024234303229358968, 0.338208055134709, -0.2602807034337218, -0.07372688911441277], [0.11477050935152358, 0.29063238305930955, 0.1717599849421723, -0.1671868818116478, 0.31705201003201905, 0.07561815171034376, -0.2620218697800788, 0.10467958083570175, 0.19339874628200623, -0.10449371171776657, 0.14907615121255524, -0.2842460358139492, -0.009558729665859815, -0.03371102439965257, 0.004632546772125884, -0.035284573365384694, -0.16088796074778453, 0.14508329053641852, -0.0757638988891714, -0.33404317667390643], [0.42390674740575096, 0.015637703382814703, 0.13474461240259533, 0.07248550001329818, -0.35979669438340867, 0.09834985375130019, -0.15647794294653997, 0.03315866913405235, 0.12025614950873843, 0.040070150942815796, 0.08403908423844036, -0.284854399730886, -0.09963435502362084, -0.2493124284205757, 0.11601788518319164, 0.2654097510053494, 0.12997548162313963, 0.0774915224670469, 0.0963833166215527, -0.1595302830619321], [-0.06622258434977599, 0.23162042517609224, -0.08355829528840644, 0.04660655254840808, -0.22123816611443176, 0.02890748762849228, 0.42434022021644524, -0.05250577781744119, -0.31911356720751566, -0.1119979658579491, 0.3634133577446883, -0.1260985594550029, -0.08416557601346607, 0.024217425834874406, 0.06606637262756211, 0.2347886730940782, -0.2339766706978628, -0.1508776519087735, -0.06915334669034309, -0.08063330546141248], [-0.20290053808834108, -0.2509728669412943, -0.11364415723321576, -0.15798871495528619, -0.06311714054208575, -0.2177850570349061, -0.12406760545322772, -0.303440047515376, 0.05682022630953804, -0.06745652147866853, -0.17273756503830015, -0.23453828843652766, 0.10472990801405763, 0.06773616807741059, 0.16450063811904408, -0.3278800636844992, 0.22333694422960798, 0.2053744775029684, -0.1798268360890703, 0.18343705774516256], [-0.015331593631442271, -0.09023320339133031, 0.16595100210797584, 0.06488244556197405, 0.11854108045517685, -0.2132135480134476, 0.007051735970772948, 0.21344854904181515, 0.11784088724468075, -0.12326178636491142, 0.007562956958024666, 0.07947095687529314, -0.18622735166554405, -0.29862177198680895, 0.1715566413855761, 0.06459928907699665, 0.030418791692249366, 0.1627169833026903, 0.10393851605029975, 0.209610336950207], [0.6957557573717623, -0.0475831885086198, -0.5363543812033152, 0.19161891343325968, 0.2909473177060772, -0.1961931540069695, -0.22507655215719422, -0.026053301845463877, 0.12645863287399742, -0.14864360667557822, 0.06384703523969171, 0.39329170467354646, -0.11711806736130043, 0.03623502563857417, 0.010652139739688026, 0.2096920062135613, 0.15975226418283633, 0.41188230354098804, 0.11881354084564608, -0.05474590436777712], [0.10361535184635293, -0.16008811204417064, -0.034642051362599194, -0.12840396313514685, -0.44971574325566466, 0.3059070040278577, -0.36988978566470193, 0.026502149365934806, -0.24851685046082028, -0.20305609541122108, 0.13820798987944943, -0.011254302401219208, 0.6965246064277827, -0.09540211269592665, -0.3514694239546295, -0.039519651021067935, 0.273631900215106, -0.060629546411029384, 0.03490666417191292, -0.08291093895745331], [-0.21070174673268885, 0.09837846648198163, 0.00596596682133496, 0.04436573172133715, 0.05506881899576061, 0.02823435315085073, -0.02961115170693006, -0.015352791622789805, -0.058757539780651374, 0.0653209849104779, 0.03606292108865828, -0.010105836824965807, -0.1869355505959495, -0.20262755807530083, -0.32122888767615765, -0.08081671024423191, 0.4723894056689628, -0.07573007252171077, 0.14322472877816508, 0.02905040303775835], [0.15631100282378244, 0.029877244955794243, -0.04208925880457548, -0.09313700990756511, 0.0029997208057511407, 0.04185606256579729, 0.20799709538502198, -0.24120683923670366, -0.06807390953605166, -0.4243112194897223, -0.05558015568599808, 0.013794358563675481, -0.07381771520766278, -0.07347654688552552, 0.24883698300140733, 0.5961564095506608, -0.15129082769843674, 0.16770203424600985, -0.03959820658107136, 0.33632812744382606], [0.2045269452080743, -0.16527008576056904, 0.12557986144612687, -0.1688393785739691, 0.08251614964030901, 0.08418637976465967, -0.1266238587418087, -0.21395823610760456, 0.03900487102512481, -0.15960792746086755, 0.04598382924863028, -0.07029000389909143, 0.009348141063121438, -0.05873091836458256, -0.38040696328666757, -0.05933078783282729, -0.11805560404920178, 0.37738949679486705, -0.0006439704106679926, -0.008836934815682833], [-0.10539319868764604, 0.052859597935131876, 0.3586709867840585, 0.17110622787522872, 0.18920427430381237, -0.1139612346393196, -0.09133350934857776, 0.13503357967514035, 0.3334849537849299, 0.22547457563321863, -0.04661532383439801, -0.0837385580133356, 0.019290640928997453, 0.12023294386781903, -0.40630676985217223, -0.03012241014723537, 0.20198931812684484, -0.05272458765061609, -0.07157316382725026, 0.026391484337561104], [0.09913755615495613, 0.20013670289429314, -0.28818332607339575, -0.05343637604782961, 0.015939893817489368, 0.24021285963844005, -0.15862551262412394, -0.022559796385966228, -0.035581560228559274, 0.30987552381128164, 0.11874310432274292, -0.1972437629169452, 0.09667054471709031, 0.10474411370567209, 0.19532820234968715, 0.0808899804787318, -0.04078151707339307, -0.1958997500592459, 0.06653346569391576, -0.5774849898385863], [-0.08933881320870307, -0.2015430050002381, 0.2216414660256986, -0.2098752634217824, 0.003523096489105285, 0.0010561863610013848, -0.005621839158821043, -0.011371193347031558, -0.10326951409791986, 0.04900378525873301, 0.11977913846903189, -0.11734372111976914, 0.14256148691120793, 0.15432803173626886, 0.24054124020728923, 0.30103598055712505, 0.017364564060843676, -0.10675621924091104, 0.15356065821850093, 0.2859709562112476], [0.06062508037542805, 0.10303093131293681, -0.013203539869370434, 0.12203358553923799, -0.2846033479597351, 0.19626828230243398, 0.2539158756257517, -0.08231088094312648, -0.013829747787171604, 0.3792673760563231, -0.20890949413234294, -0.36476978532416754, -0.027298452378460018, -0.0786866868035355, -0.07312363604491115, -0.1551214682050672, 0.005744700678815461, -0.330745020841675, 0.11914637349193191, 0.24489894667129689], [-0.1058260865030703, 0.22398357990275566, -0.2084248125619102, 0.30775449415768746, -0.2137012566734036, 0.16351894130715983, -0.024862713524351356, -0.05421505820916148, 0.09442952741742128, 0.13346771581144773, -0.07973055250913885, -0.49832168960835604, -0.03700747237542248, -0.011207887928577062, 0.13111136745927351, -0.11254440400086563, -0.06711250005596986, 0.08745265890626194, 0.16304599425171631, -0.03648086337380659], [0.20075354443528742, -0.0858392463887763, 0.003445605911357686, -0.35884125308144504, 0.19298639219915456, -0.0018453202814611798, -0.14334645519674916, 0.15727089139025016, -0.34985663558675334, 0.22149879467617692, 0.39819161010411597, -0.23963288705534164, 0.1438963007909207, -0.36004937129733044, -0.13961673490932272, -0.12369731434895902, 0.020376198311822736, -0.0038545935846867312, 0.028699296359799547, 0.209768843088829], [-0.056533449725616476, -0.14529995724516157, 0.13727592924260232, -0.18553511427000688, -0.2991520554557784, 0.1941831639258307, 0.1430502156914739, 0.034162830775096964, -0.20504478607543267, 0.027994748798959083, -0.10643637077292353, 0.039749822611918256, -0.02251013471467527, 0.10550457710271441, 0.1118679878103095, 0.002022734823333158, 0.24485370186904284, -0.06394167956828961, -0.12538713369211799, -0.05191625036693691], [0.12661494264797013, -0.1291906933431435, -0.4263819682733896, -0.07885021639627324, 0.2040956380240357, 0.05656189825530967, 0.06862643848384312, 0.351308160559879, 0.17833483267362696, 0.0749691796708517, 0.2610192351013074, -0.026688069067184187, -0.0581367276778537, -0.11990114736056667, -0.06713452085940291, -0.11996334763278824, 0.18228944896383045, 0.11877385619509553, 0.04964061860893861, 0.2765622778269759], [-0.16378639386607358, 0.25703906109419117, 0.09550323736900135, -0.16381112306598847, 0.24397977096256607, 0.029676611522436024, 0.16194218757349496, -0.17148201417794426, 0.17955420519014703, -0.0021442000489164128, -0.11814007739563147, 0.1339549503732486, 0.3436752922955053, -0.49510570468397086, -0.18690138485004462, 0.06909817744763318, -0.09944459452544673, 0.47585847149823834, -0.3969982830850487, 0.06502021304970033], [-0.0050998819864479334, 0.3230657969408669, -0.11304754558092477, 0.31442364625970054, -0.12036025829275943, 0.14355996511878102, -0.13463190066750372, -0.016131178071085793, 0.08134403564013554, -0.08152065769950949, 0.005588785894786645, 0.1883322075472725, 0.3542924994624575, -0.007353708017370983, 0.0486039208940333, -0.21139892081196404, 0.11177723553256802, -0.30096018981151385, -0.013416605403132668, -0.0005184225130360768], [0.03093245885596406, -0.1334462744408016, -0.359445394858949, -0.13655083592655531, -0.20924930763343738, -0.12679660352272662, -0.1444276373770805, -0.20224280148642806, -0.23045001182886646, 0.09122801046648793, -0.025410843064588632, -0.009174682180502882, 0.039752366404725, -0.23299811515378163, -0.0006291122415371898, -0.23777720820179304, 0.13126480405475122, 0.09561423101713888, -0.4269784936884766, -0.21915103285086557], [0.3105905275162018, -0.296489195597283, 0.14300794889928328, 0.09685665989584122, -0.08882055768162375, 0.1541240631643985, -0.07120819003419118, 0.09920541956789969, -0.2728679514533151, 0.21349085648625965, 0.05452499726249966, 0.088211183708211, 0.19287629678550308, 0.06349506310897188, 0.06176178695519294, -0.06609631413729711, 0.3220194724087316, -0.2013341373217436, 0.41089195405756185, 0.11871483473314218], [-0.02730053032751743, 0.14261282610944995, -0.2780309240672193, -0.04270109669821796, -0.040458870710245134, 0.5596031679349213, 0.04167543642753467, -0.28402067702403333, -0.017695592390725337, -0.22029902857381076, 0.11204335274045787, 0.004648794788555729, -0.27693080947901993, -0.11038497857165266, 0.0976913857254721, -0.04418006861066224, -0.14378360377871305, 0.31218318255654054, 0.11422113137749822, 0.03465841987065329], [-0.07904626515951078, 0.3747029548922433, -0.2135108426049929, -0.14749992219612396, -0.0357815103534414, -0.10864020401456999, 0.1087903816723529, 0.2872272791148612, 0.10025625896440687, 0.39398832506762904, 0.058614148850725044, 0.47094589376489276, 0.02335786400765849, -0.09709445291355398, -0.32810321003242604, 0.2521869320166583, 0.260257567939864, 0.029068354006800457, 0.2670989155748231, -0.02131650290407499], [-0.02504798442408331, 0.24115780945474197, 0.4501044380950173, -0.08976390574756499, -0.31838787299516463, 0.1759938140157177, -0.21736847338532206, -0.08289968899871286, -0.053666801663499034, 0.15745909188458906, 0.046312182876099346, 0.30242876044757777, 0.14397666926855954, 0.14519091360483988, 0.026625178627680355, 0.14793313288082358, 0.12905533191026589, -0.19768680293889462, 0.1403824895574113, -0.0037232688380364216], [0.15221426623800993, 0.034499092259027676, 0.09027570626731277, 0.20119549976988205, -0.11798557069706507, -0.11969103890366115, -0.24758305852072376, -0.3242774643517096, 0.06235457670524816, -0.11409952103563559, -0.13550371571633815, 0.05761396738168715, -0.17193084327017286, 0.04337144177577163, 0.08205031934082403, 0.14209515876813728, -0.23191941977564967, -0.15243375527630582, -0.013472771061926889, 0.04098894400715633], [0.03987717735124404, 0.08511000340243993, -0.19992872589884772, 0.23706723793958667, 0.022516988454011594, 0.290633866990112, 0.01949510214443569, 0.2342644461450237, 0.26038630845529404, -0.315517233235587, 0.07677159759731617, -0.17114030844109018, 0.11751865274079927, 0.2197497038678002, 0.40371949780377975, -0.005110661766267923, -0.020350270854617308, 0.026880546737395813, -0.16198355100048722, -0.13159410526899407], [-0.21290014459180348, -0.1907605251313346, 0.25568938767284993, -0.11075759446796289, -0.1774593151658305, 0.1564140295471522, 0.048852208190630575, 0.2511345209747506, -0.009775108246124129, -0.07347987186205165, 0.0037503829931526426, -0.21670362092517031, -0.051499514426362365, 0.22571694169746193, 0.0728318144643246, -0.24403654923797424, 0.3644178038353295, 0.3921148232041329, -0.04073198694142728, 0.1860621991868391], [0.23691842675781816, 0.22954771028261006, -0.021824523412781977, 0.05332558591012973, -0.2382569526729357, 0.10930610680483964, -0.08275816878729933, 0.054352561782584144, -0.09434615013253866, 0.5491069592082506, -0.09373927702514162, 0.17196026570932624, 0.0019971253040593946, -0.18192032969013222, 0.08638119496383838, -0.1562863364505288, -0.19530052747267673, 0.18449152413851386, -0.008513431418858053, -0.20370799514791918], [-0.15120250343146557, 0.06100339110643658, 0.2066451395343763, -0.2658785756197613, 0.2598203611901736, 0.06363490021998386, -0.3531256588068825, -0.3890482026074692, -0.19926840621729777, 0.1891281103377111, 0.26956349096977716, 0.10807508443759686, -0.19170076708838224, -0.09862831951019735, -0.017246379842479946, 0.11079122631185727, 0.14629869553196329, 0.0886852490302476, 0.05309210245810801, 0.45933771126691525], [-0.1619039041986173, -0.08301618745555467, -0.26995311479968886, -0.09593140911461738, 0.1452292862668782, -0.24315507927299482, -0.009700617531726496, 0.20765143226058658, -0.07663457281702805, -0.2017201189698869, -0.2867488341447668, -0.062057988199706975, -0.18392436750428265, 0.3448840057904256, 0.15204283352514503, -0.025705031026224553, -0.15638387652696173, -0.02366755927075333, -0.05886986084569413, -0.09273870526227423], [0.09289292552566998, -0.25056408580847783, 0.14261003278982815, 0.21702076155143857, 0.12030798650594081, 0.11575144597630621, -0.1466204683455362, -0.2648920706121865, -0.07633931944541275, 0.19275554426213654, 0.2959703632973344, -0.16774754417107898, -0.04913625566230407, 0.18984579866091164, -0.021206200267096572, 0.31476271659868593, 0.00830631798081192, 0.19425444107891304, 0.04920561598673356, -0.0008276168344571111], [0.22115826138026454, 0.1554152659953579, -0.04517403957433868, 0.07566628650015825, -0.08735418001490597, -0.1381227576296012, 0.19645923924193762, -0.1251042519882715, -0.2716119493727636, -0.09470709732923088, -0.2946514459442819, 0.06352491957471598, -0.14035623208006728, -0.08508730488396175, -0.09366248061447792, 0.10672597052685183, 0.020601031300120504, 0.17675862144319682, -0.12629655615538668, -0.03797691471117756], [-0.3194211704130487, 0.40855491423064494, 0.2917132746818594, 0.013414234671946346, 0.41417555348055113, 0.08275369906519663, 0.03154266340457086, 0.029036378948900994, -0.08700929983623465, 0.30770033901217014, -0.12824443002715472, 0.0371830748688712, 0.1341259567044004, 0.1839349151727894, 0.02965359880569664, 0.17743505824359093, -0.14592755356926898, 0.002905003011088149, 0.10533107750564243, 0.10244080429207912]], "B": [-0.17755513425359942, -0.3833305192901885, -0.14336265111318322, -0.07813340944729247, 0.07352541235310822, -0.3284963728810442, 0.14170323015494268, 0.18152972803292175, 0.19662938417846326, -0.11887157060772459, -0.21813367499874553, 0.21424156839131886, 0.03835461027028757, 0.13907177519143135, -0.18819900779535131, 0.34326851259732566, 0.08972136054783605, -0.25180144459826376, -0.41062598105476705, 0.0952740275960452]}, {"neuron_units": 15, "activation": "tanh", "W": [[0.045343331822514786, -0.36259623484748266, 0.29805578371494457, -0.2113579754627349, 0.2000134589905799, -0.136055288707908, 0.0586721843355292, 0.11309979672284771, -0.49405505097326, 0.3975067968325528, 0.10496931854902009, -0.22914316378631017, -0.03721397265805059, -0.04073522424963076, -0.2466960536629233], [0.06968816717488774, -0.007462853815331837, 0.05971740083076604, 0.3607235008694796, -0.2673870346414059, -0.37260450250866256, -0.36529096052910326, 0.29500125726470333, 0.6307727164967829, -0.01796355189438481, -0.20591256827555982, 0.12174721265751094, -0.11110459446110636, -0.13179583535075456, 0.06607776097323745], [-0.28332187972581524, 0.5020175627755933, 0.22235825844359172, -0.0736831448490858, 0.5634630338347254, -0.3694859191542275, -0.06931999126857386, -0.12347184615914093, 0.46498544091334815, 0.45374103301507446, 0.07367630534075811, -0.18492359000793193, -0.0495163217645016, -4.5267842075656714e-05, 0.03211027618174377], [-0.5198605756789655, 0.036027687317489336, 0.5566659275213545, -0.264354275283366, -0.1304828276903138, -0.08605632211868802, 0.1831629942307697, -0.5096630794952507, -0.05923730515311128, 0.1380460462484386, 0.14909782920141046, -0.18625822423411623, 0.29664510450189135, -0.18618390934269483, -0.04430362383025985], [-0.0735513750688288, 0.13636800907338165, -0.01170565361909349, 0.03391472977486166, -0.088705243966734, -0.11779912495823552, -0.279660978975543, 0.4607702274393923, 0.11360230459188876, -0.18939398918509406, 0.26385753326252404, 0.013086754021072924, 0.6981445443417732, -0.15517232410001966, 0.21570025468999096], [-0.16144446109089683, -0.16884447760791685, -0.267982949914197, 0.25131090335911993, 0.9234893689870662, 0.02736080388963992, 0.032971266475178, -0.056218782325173, -0.09062128352074181, -0.2668196736189592, -0.3890034801559945, 0.13906995309280717, -0.024365083295544557, 0.36002756959862703, 0.12874052020554988], [-0.07694523205968924, 0.35114807259755576, -0.20872744703691715, 0.28092434549342693, -0.4585186274844255, 0.4158397810411891, -0.11761143459034444, -0.18954345779521126, 0.1571252879085615, -0.19265819509995896, 0.24591170176470356, 0.1541675974132354, -0.2354058566396454, -0.19158630152736453, 0.0038366765435777508], [-0.14635519450311935, -0.029275802087613007, 0.2713919075317072, -0.04781782108413013, 0.02121178537540156, -0.09556815535167709, 0.01544438327180476, 0.12748745806953474, -0.3023764781716086, -0.4026072608148192, 0.3839146429015765, 0.13781215895583518, 0.5929862080582585, -0.6113702531808745, 0.10871736659317069], [-0.028786292588273435, -0.2465011266156642, -0.21873440390642862, -0.030176709715876746, 0.157903441876113, 0.2696075501113024, -0.019597428099970667, 0.23448757318462093, -0.02232628526162957, -0.028117315488726438, -0.004818756890605998, 0.2488207066204833, -0.1118621377311045, 0.04552977702422582, -0.099020843583089], [0.43519188364422023, -0.06213981704726449, -0.25909638022840425, 0.08640039562367306, 0.19963501191360017, -0.2445437569380644, 0.3279223398957932, -0.3419578925886322, 0.13272562110205127, -0.3434116586154991, -0.199960293072605, 0.32982045522872905, -0.09028374445417184, -0.2547507978903275, -0.18847993975031246], [0.2821565216441502, -0.14574040771138397, -0.2153567787566526, 0.06563103227137365, 0.5477940977448162, 0.25169656573715654, 0.36743548065759796, -0.15807566235580126, -0.028181144836291076, -0.33033844218339636, -0.08981373355573778, 0.3941690932966163, -0.30982240958933166, 0.06663435173068111, 0.1260295813263136], [-0.24361871138713434, -0.07649149244565351, -0.18810958801718036, -0.1062008062765533, 0.11658780105825678, -0.4317290385316763, -0.11490027207364482, 0.2585503064111793, -0.1358831152682553, -0.19481869177641106, 0.05801888609047504, 0.08872299250854153, 0.4760844429561522, -0.6230018196416645, -0.1868954558688748], [0.4780003625433468, -0.00024314642787388646, 0.47962191285736444, 0.033374604723684996, -0.3628670606162446, 0.16337799354787969, -0.44332476103593116, -0.3787209199432845, -0.06691551947998753, 0.04185161945057211, -0.1235683633346801, -0.2879797173407909, 0.2683383933047616, 0.17858623623499595, 0.1506779249476875], [0.11160358991192705, -0.09744793031089964, 0.08939171214887386, -0.22575576526981028, 0.06454168760742159, 0.2538194760440111, 0.03845345041339187, 0.16130640192295426, -0.220772925594402, 0.25771742834816586, 0.6768551486853551, 0.6711842545391484, -0.000321392962537615, 0.3039361530149414, 0.5074267695380731], [-0.03727596972883814, 0.4806381232643324, -0.024275701566755098, -0.4054403485861188, 0.34305731406558104, 0.17328365310633773, -0.2386904726487378, -0.03795527934905029, -0.38860756236821603, -0.342692934745872, -0.011770611957804492, -0.2607488418103214, 0.050439673988845794, -0.14069011765127556, 0.20437239025355716], [0.057708359900955374, 0.13609862990052973, 0.2674102703403705, -0.16065766731578265, -0.19742551039000036, 0.12966269702156236, 0.30213116313278277, 0.19260937120535748, 0.48638734049020005, 0.573107422269353, -0.05517271841156111, -0.13067980105793423, 0.38874510658313244, -0.033242493518329266, 0.37294068572354927], [0.5276742788455349, -0.31146084972069266, 0.2995707999466027, -0.0758266484528276, -0.0899490486330468, -0.21819845463296164, 0.12994763786734576, -0.1982096011534153, -0.08185572291473613, -0.023985864537264125, 0.23929668472129464, -0.001001884464845156, 0.35089618679790324, -0.015263979439951425, 0.06981814446326091], [-0.1459689752953143, -0.4503317055427681, 0.1702303705026083, 0.053201491240825585, -0.14713198498121666, 0.213832678493112, 0.30676410579829433, -0.008965180614579208, 0.20021887661834525, 0.05945229867909243, -0.396769093116433, -0.06511828608222728, -0.23070891509993027, 0.2954062908342072, 0.47521351265944095], [0.006998966264504508, -0.40876671602962694, -0.06953317136465817, 0.06947668457540336, 0.4936647284562821, 0.25577888509054947, 0.16178012257633012, 0.1113800002075425, 0.4542935984523795, -0.03201533762457417, 0.442568395855969, 0.145802308418745, 0.18665360207605153, 0.1673638801085345, 0.11060771905139473], [-0.07321220814751667, 0.110786702604488, 0.03743231787178971, 0.5132616206808838, 0.20719764467974977, -0.18902786489709433, 0.03262540108194696, 0.2193030782473472, 0.4806749029475475, 0.08068205932908971, 0.023416951772710543, -0.028985267680288574, -0.10846811552851508, -0.2995917179739397, 0.40850820681157307]], "B": [-0.3456794897132881, -0.37249890738506086, -0.18227698811596837, -0.2251683982035946, 0.2772851458473683, 0.2662245252906369, -0.05783644942843516, 0.27573242507697493, 0.03818417890351816, 0.1048786828040375, 0.025739384852310223, -0.5047849994716129, 0.0705644077777421, -0.07956198083910174, 0.30149066875298636]}, {"neuron_units": 10, "activation": "tanh", "W": [[-0.04450741858132439, -0.0361217228064634, 0.046098201826390704, -0.27630124793736155, 0.09433319492054716, -0.197390901305221, -0.3790520693532978, -0.08631834290240269, -0.003966713159630434, -0.26702683110128655], [0.31989440170427497, 0.2346060482700552, -0.08452329135928661, 0.5006396987511779, -0.12448224110108308, 0.19956602359699296, 0.14689843573162237, -0.8761137979980617, -0.6514695332021426, -0.3226294892145018], [0.06408288629639901, 0.3996736290037188, 0.05099917131060887, -0.26766159253004396, -0.4702229119522883, -0.20619869595649493, -0.09470748683852671, 0.32543795828065847, -0.2788599682914203, 0.13596208871837484], [-0.3831285206325559, -0.143275106534064, 0.42679408782013073, 0.23892359889479042, -0.4419134874466836, -0.01363701114638397, 0.005385334815277075, 0.20773248613150694, -0.19022329053870562, -0.00845645737568412], [-0.8149540802199895, 0.15550658533872996, -0.38687926372495673, -0.560428777138155, 0.2581904767158556, -0.2755564386345824, -0.14783147608917954, 0.07612249532517977, -0.014579890132707198, -0.05349339458156782], [-0.3655439851360597, 0.4497705032334546, -0.09333105920937239, 0.2540961297866609, 0.001916902816344757, -0.05441595673574214, -0.07429605125111735, -0.13681855442021873, 0.22553178575948765, -0.3816965793477953], [0.25284459402728166, 0.04893706169227601, 0.690014245462915, -0.30504529354213517, -0.2591195978449995, -0.31345060930034224, 0.08870248792232063, 0.2783298528281088, 0.4808388699142617, 0.1827390330628497], [0.21389846467839344, -0.25522385787859647, -0.211161890613762, -0.18668061487234883, 0.1314410333850261, -0.26319932101177707, 0.3864991514107251, -0.025070057604412825, -0.15787454708075938, 0.07373296003366014], [0.15722746391604225, -0.3740503233635167, 0.6147602441735356, -0.12276199847241483, -0.460739385605297, -0.16956643811807598, 0.1567522694918476, 0.35350465624986976, 0.031862582211631005, 0.9499079741366214], [-0.22539043483884239, 0.04570402485848586, -0.24301821591460995, -0.3417864789424097, 0.0028143477363408824, 0.023706594796311316, 0.44469935011759626, 0.383663716149325, 0.13797560551314206, 0.5144909560480839], [-0.5049516271471212, 0.34968763871881964, -0.05975554537883188, 0.3538160116484428, 0.40439912877253453, 0.6118431148735575, -0.1559849256075738, 0.29807497853771653, 0.008767892663936632, 0.10415348109744012], [0.3061856457117056, -0.18238234954494503, 0.7173898367728483, 0.3159839411892443, -0.097346277269437, -0.28514525553354486, -0.4419971614848058, -0.31538371554995065, -0.08940525011624532, -0.009546635387255992], [-0.02572301541385937, 0.0053825354716266465, 0.06815682207316157, 0.07541851742477426, 0.4539146403902084, 0.33447820995114647, -0.16839825120873375, 0.030296573513943156, 0.033030755753461566, 0.11944491119706781], [0.2298198425048683, 0.00018837860706592008, -0.41389000025647504, -0.20134776154237363, -0.1937815154554472, -0.26385576659262455, 0.2529259539803052, -0.14345727121581042, 0.12228464189336864, 0.1153422147459146], [0.251648900841538, -0.5289057876160632, -0.18213188547412668, 0.09870656459441397, 0.14289127358541784, -0.03830273583587642, 0.25489309337034394, 0.26106366526997343, 0.524879404443817, 0.18126586525215335]], "B": [-0.39058556813593615, 0.18631441732781484, -0.08285350225082433, -0.7351672849453939, 0.03581309427425484, -0.10174783248276244, -0.6079434562116451, 0.12619330539780177, 0.5151040404132683, -0.19208667236352053]}, {"neuron_units": 2, "activation": "tanh", "W": [[0.21929080833348716, 0.36678337314634946], [-0.5406019339274817, -0.40039931501152715], [-0.7096960426231423, 0.360548444434456], [0.37147792729421525, -0.2263479123968306], [0.4228821433834744, 0.7536585293253798], [-0.013461679230144782, 0.3997000075782909], [-0.040692802148162156, 0.5749672876349862], [0.5155025033878109, 0.09901761022966896], [0.12055078621267032, -0.5226729560381084], [-0.175816182671496, -0.15271530872891598]], "B": [-0.428841777080807, 0.2474486209088348]}, {"neuron_units": 10, "activation": "tanh", "W": [[0.35284231830061863, -0.9271819548240262, -0.5752543456482746, -0.010994692004525047, -1.3287102949160534, -0.0379759738505727, -0.9903134005352825, -0.902386019180301, -0.2624665698263805, 1.499739911855944], [-0.8414125891490039, -0.2760638090221836, -0.5871213186736806, -1.1421826274105278, 0.40515334638694245, -1.0572687399718073, -1.0584585780079236, 1.060682578533301, 0.8764821343778559, 0.7201840223931758]], "B": [0.14796244261180783, -0.3888532304546547, -0.7324897492659269, 0.7654292771497503, 0.7566494686379155, 0.7153033702537173, -0.2680314709243495, -0.5215284159553663, 0.7120301964944455, -0.4783799312003373]}, {"neuron_units": 15, "activation": "tanh", "W": [[0.14440254397276156, 0.32913102562491364, -0.31563557694503214, -0.4360222525472895, -0.036712506096151246, -0.05519384142832198, -0.43099076781472634, -0.3234231978872248, 0.9330118297135421, -0.009447437051600503, 0.2907624312383454, 0.36831483682203475, 0.4786609887273172, 0.3294646992649989, -0.7023086423648266], [-0.057551299897558555, 0.19478314457873983, -0.07104223916753634, 0.26416464131123224, -0.29333154008166734, -0.16031362672799288, 0.2585446395236276, 0.06321361022428856, -6.868613871553807e-05, -0.740673626244401, -0.08710314421975181, 0.33251150962671056, 0.7288015477160315, -0.18720965708186102, 0.17029193106525736], [0.46269432811614064, 0.4145571440475007, -0.25695779161272614, 0.23829479408479598, 0.0034811285813939412, 0.10051464427915965, 0.47872936357590273, -0.5488128125000079, 0.04929146811726429, -0.08706290682528997, 0.021373261184088166, 0.4330247968065461, 0.012701098513973183, -0.27842771949806727, 0.07985900121843], [-0.052333596681072306, -0.2240516441454803, 0.07323280349456014, -0.4606111939395366, -0.016346512700743457, -0.7896678652723746, -0.45103971070764043, -0.23923148994004553, 0.08078809711831145, 0.5915659036247587, 0.157279246617727, -0.16561443248269545, 0.5544175002484832, -0.025567221429662442, -0.7757860364500232], [0.7008493368180059, -0.2823960340202484, -0.8962396399983624, 0.44097651062194543, -0.42413088682715433, -0.6589738665164795, -0.18092671204203617, -0.4149498601164179, -0.5178889324239313, -0.1988927011765907, 0.6173496457201377, -0.25979819151704875, -0.7117156963585451, 0.3099670321470395, -0.4909062377686477], [-0.12888443231294652, 0.2218293564301749, -0.007971674115211241, -0.09667672962926918, 0.11353833941982569, -0.15475281357313295, -0.8978105016118434, -0.0634820386712643, 0.037701534349123156, 0.7386144319245092, 0.25726112965149994, -0.03210922948836562, 0.48375289250290443, -0.23013179346964477, -0.5694856313859331], [0.26173806775820635, 0.9044387143293512, -0.41129150242833734, 0.53773073153242, -0.35817286376708357, -0.5126248096365658, 0.041667776236188295, 0.661970394187531, 0.3762917601087265, -0.7549180826741512, -0.36725741259898237, 0.09140760045776276, 0.7765024449676016, -0.2972801293507746, 0.00532812789018664], [-0.2540485181681531, 0.11848066220800299, 0.49099822741600857, 1.0088895640338778, -0.9765308276370157, -0.12736278279605237, -0.4111314131638925, -0.10520479072737672, 0.12741484952112297, -0.4980622005522022, -0.08698775635143231, -0.7523235523101507, -0.057095067354218106, -0.8071471001688071, 0.9700223820153779], [0.14237932958643176, -0.37150118257133324, -0.21938907814222527, 0.5385731210718108, -0.4466843541429508, -0.4942238326837319, -0.16269841845876365, 0.2567210257951248, -0.710066086836144, 0.13175621424669107, 0.5552213198601473, 0.22173235861583354, 0.08683024397280531, -0.09891419048324654, -0.08204510499658908], [0.6384852616656498, -0.1626615874106266, -0.7811213988911683, -0.4745387278385682, 0.4730020004956697, 0.5970191241089157, 0.3244322259433892, 0.9025334137699844, -0.18370340958950407, -0.4680392436447108, 0.22993784067488277, 0.453503097159445, -0.07223512404176821, 0.5413060991207, -0.005669247011640448]], "B": [-0.03368449048937974, -0.1228869666453735, 0.17494357242415237, -0.20875459259251045, -0.08130415792080228, 0.1338463286004485, 0.14936621434126213, 0.5876699699418916, -0.15414274848869372, -0.44736786236702747, -0.3085794177742371, 0.009119376444113822, 0.43404796799495915, 0.33434776209031924, 0.00471888864180861]}, {"neuron_units": 20, "activation": "tanh", "W": [[0.02704433760267057, 0.3768255506678116, -0.20566912544564772, -0.33830727088885376, 0.2732375180018493, 0.2528949311616309, 0.5631297887636093, -0.13415539782003252, -0.6939173940978947, -0.7934414507915388, 0.029798169288562257, 0.4801060818565292, -0.26013642509465096, -0.4453025199401217, 0.019575232391093125, 0.03406471363922756, 0.44492753964159654, 0.5460967571726847, -0.07627983372344327, 0.4857904202813154], [-0.1780882671937567, -0.5767620980582716, -0.7085948658552729, -0.4405610743474402, 0.2811487963431054, 0.16144324485545047, 0.4620605589989104, 0.16815800439106995, -0.32870623258110865, -0.24111537320291357, 0.11805250125389638, -0.33240251394457965, 0.41627089164120895, 0.3180185639303463, -0.20259463873261996, -0.097828786997182, -0.3963635046664703, 0.23098014840815448, 0.4170362241254863, -0.1270281938518977], [-0.4010125625378343, -0.6506685018558624, 0.9959425208787477, 0.03921516961313113, -0.42102702248903995, 0.5046659939413306, -0.26892357098138414, -0.45851244042055, 0.5754652436253231, 0.5295647909476889, 0.0792740490546843, -0.2772044542228254, 0.569900080861677, 0.5894105087138395, 0.26291801554296707, -0.48503905257196445, -0.4783878612285922, -0.13056297056668478, -0.05580229924884913, -0.7370480341951945], [0.4854065886893008, -0.581315495989624, -0.13768045851703561, 0.0986122934030988, 0.624080410750611, -0.8477881720243988, -0.2397560516884814, -0.8298362605775942, -0.4585237980024533, 0.04364699356995273, 0.833742324950865, -0.06819453532634602, -0.5304250722807557, 0.24825264734188268, 0.06271653326220616, -0.2090520516472527, -0.2547073236202265, -0.38252461985213637, 0.1611563351988118, -0.1680504936195518], [-0.060797708485402446, 0.415076902854593, -0.4894190472955518, 0.1729006329898369, -0.8100549929268417, 0.28298750016056967, 0.6696737732476855, 0.34275611096030395, 0.8862256052333672, -0.6244298094381273, -0.19807582952889738, -0.40766006944937655, -0.40464115886160296, -0.010933206165015818, -0.3777641695836739, -0.11790787443057371, 0.31556116148574465, -0.08988316514431183, 0.024027365179478816, 0.07508192526224149], [-0.2405778630181151, 0.631799800434761, -0.20368751548073533, -0.08372073520339157, -0.47303170008301504, 0.12471356100493527, 0.5895954241708177, -0.9100821102484702, -0.5443871504500133, 0.3124389910464454, 0.844639599892378, 0.04792380202196747, -0.2237180909883665, -0.40999302730656256, -0.029405155312882653, -0.09087771315472859, 0.39009372585675156, 0.05056676640618254, -0.18707673191628474, 0.04372975118478838], [-0.30595956079504366, 0.4319770885816669, 0.43207966445102325, -0.09587137340927608, 0.21361206222577653, -0.12340352341771295, 0.021585482623285406, 0.2328644442636092, -0.7059805722284789, -0.6294248324338807, -0.17791990948443684, -0.254373396165596, -0.412773668670191, 0.24591596516064052, -0.8382292527477704, 0.2527417662893484, -0.32062458612016265, -0.6502400686159225, -1.1223468454410044, -0.20249706417800964], [0.08240683978385686, 0.18157756943421632, 0.26573052692261073, 0.32308918977243334, 0.13132846772696963, -0.6344673287302608, 0.49919080670846067, 0.21916713673207053, -0.08274842192499691, 0.012365591674738274, 0.21471182163844113, 0.5313864575075613, -0.5481601190836638, 0.6206586285324278, -0.08889691830186816, -0.7982383659859692, 0.2917844488619713, -0.053551098334990006, 0.3573824560355594, 0.0570228593967234], [-0.07468996109092538, -0.8114483290742573, 0.30474307024902, -0.5093723293886041, -0.1409986357464057, -0.35073001307686896, -0.8096986573792542, 0.4584320399896038, -0.14501788197275617, -0.38616503070336533, 0.31634705527629825, 0.5897685713201055, 0.5101791466716383, 0.23561727150449033, -0.5857327708452074, -0.324837431353041, -0.18424239061382972, -0.057013585274686446, -0.18869969276278156, 0.34429113028686115], [0.031770953174586204, 0.2441876291376544, -0.29665036741452544, 0.4404630446356263, 0.2692919749334886, 0.34619244432276397, -0.00877614872142503, -0.09044243223299858, 0.6588896039429636, -0.0586328704486484, -0.2966366143142026, -0.5027001110886283, -0.3921284002015417, -0.7958976737530256, -0.15767350872016775, -0.19316258896078065, -0.8797485106902105, 1.0524660649839357, 0.24360596885773877, -0.40983157943491433], [0.8927387828598908, 0.034301741291206334, -0.23011338681608012, -0.022709542831385, -0.3819295971213041, -0.14554577036434896, -0.20516786333784276, -0.5265650214009922, -0.779854551855182, 0.22648971891583508, -0.20048844607732938, 0.22688812069980724, -0.6022583492656549, -0.18827675847896883, 0.1800593398277654, 0.31518404272188427, -0.5454803275783117, 0.012019048183605024, 0.34754649155898265, 0.3411167124175949], [-0.3220678035298654, 0.16741824802449443, -0.7466728391850695, -0.4284425890559838, -0.05401479326730966, 0.00553298875509092, -0.3597748356111689, -0.4779089251019131, -0.01994266949168191, -0.4970762089997989, -0.07988192345646043, 0.10078263645164999, -0.29105339629516297, 0.0044331080974028495, -0.5476902757223987, -0.05700668009914035, -0.24658408822979075, -0.5255133057074333, -0.3457613092311679, -0.33068662260047826], [0.048531772541136636, -0.3639195785803214, -0.5939018851750945, 0.0017871308231023912, 0.5749563533947677, -0.168945210627229, 0.1785000233532509, 0.6533935786399098, 0.4412384537951448, 0.06767491610151012, 1.1007775220055804, 0.812788328703334, 0.24823320481706088, 0.23668485488653268, -0.7548746952274215, 1.2454986413721614, -0.24708786074112277, 0.15551409208351713, -0.09154094465731928, 0.6868548856132425], [0.09242085713175009, 0.5447594649471889, 0.3683645986184931, 0.31317219340796115, -0.4930183580003084, 0.719199790076564, -0.4542423069018741, 0.12196230669523006, -0.3191273701759937, 0.24205480245829658, -0.2016388310793398, 0.41518061916906956, -0.5783638016908297, -0.2407924930291901, -0.5891537297184607, -0.04522531876053078, -0.45361499900329477, 0.38129180111600297, 0.1507765683024775, 0.31079033169498216], [-0.5213073585562101, 0.14024169487408317, 0.14755488644801024, 0.026163438411438006, -0.38898362749742194, -0.8552302462052069, -0.7894198286687264, -0.265815131435528, -0.4646530645598309, 0.46154981819480695, 0.06547951514299583, 1.110685247736287, 0.42159349325991713, 0.8093251013184787, -0.35718113217976805, -0.40085017200685163, 0.19780753545771573, -0.65669975970412, -0.10453068439461452, -0.4934174567226179]], "B": [0.009244410285863548, -0.013703311856426951, 0.5697704157903838, 0.13081150015103707, 0.13301402733653886, -0.249910166501598, -0.08935739053953788, -0.2427167337720908, -0.37699359652430736, 0.19997648366890314, 0.42299164084237173, -0.11525378257525608, -0.14280606364795517, 0.5684139187839926, -0.046383732951403626, -0.36210761790957374, -0.10806836227090535, 0.15560671041935822, 0.028367387893202253, 0.4008804940801972]}, {"neuron_units": 35, "activation": "tanh", "W": [[-0.5961305192830748, -0.13525468618716707, 0.3323612406322142, 0.1778034980499261, -0.06574068968390161, -0.0669569831090013, -0.5601623055239472, -0.2098824610510998, -0.7491236032796073, -0.2590715215631889, -0.027454186085780673, 0.39312409536051857, 0.03290337536950588, 0.006090979998292309, -0.007553978584657372, -0.2037203809168658, -0.5576980432226486, -0.3071686165673848, 0.1727184059937408, 0.43235315881172687, -0.26889907040961647, 0.02659740399523116, -0.44051099989408027, 0.009274436822280994, 0.06389024124014332, -0.3327015732684166, -0.2812742310457546, -0.18442359766815122, -0.887647474311345, 0.038859456626619326, -0.5545359429119255, 0.5932059122539988, -0.056396965890427406, -0.3739405826515918, -0.275568341173983], [0.5862030445381141, 0.5576981680169821, -0.17466659431725606, 0.2188340276021498, 0.5759513983891843, 0.3529707284489075, 0.508206056842254, 0.1486022747929499, -0.2164426335280642, -0.3548729218034944, 0.3948360549796421, 0.5781207550588476, 0.1386497975980258, -0.44117361606652805, -0.2096656605534492, -0.6274564562641493, -0.8327925516596052, -1.2777633143748748, -0.7294802197785569, -0.13337797434916773, -0.5704588126731123, -0.051592509459652915, -0.1648584248226931, 0.05826324010920928, -0.5222067299194675, -0.07677460862563128, 0.15217240280053407, 0.5578105602931717, -0.5354755724542174, -0.25285961607343305, 0.7457254083758474, 0.45258944516770794, -0.05417163159999053, 0.654844665797174, 0.6066722754723434], [-0.4037156782919477, -0.8921471349226262, 0.924052219863535, -0.3492296005806443, 0.1489603450429414, 0.30174754499247813, 0.11673110418637257, -1.112339815141209, -0.2665361309364691, 0.33721073447554895, 0.2534536841524726, -0.2670839155525909, -0.35305858769337367, -0.3650903330417835, -0.11112771798568363, -0.8494039354954638, 0.36943670704337317, 0.5364431249163935, -0.9248234256685011, -0.1985350527089845, -0.11304614250410815, -0.22329121884425457, 0.05842455851831657, -0.20124561946044645, -0.08088817504459722, 0.29589180086209355, 0.10254001968651479, -0.6165971790525582, -0.15923583631059757, 0.05136636338321877, 0.0654273456729633, -0.02981132991742468, 0.39361383783748205, 0.03484346957795607, -0.3662672994281716], [-0.18631500411057084, -0.15188302768835593, -0.2079092474077733, 0.5552373994766262, -0.29411370566703887, -0.4180943801357996, 0.369503099405989, 0.25599615651554775, 0.37324535136216697, -0.4638705286840902, -0.2166825934510002, -0.32118910769159653, -0.5212865540793292, -0.08223846396278053, -0.4468418240199461, 0.2974316802235738, -0.14988640034193046, 0.26114711436502924, 0.04690873775212447, -0.19068070332666753, 0.4200266176809191, 0.30788472194573885, 0.03678931039960865, -0.21466222305648525, -0.08981847130024684, -0.08580862438318408, -0.15698400668461518, -0.42873096994992055, 0.5600384917242993, -0.15443082747830655, -0.046650180661351646, -0.3614327650881569, 0.13396587001363264, 0.5672123193339882, -0.19626696336537022], [-0.4495935268418419, -0.44792045364303484, -0.7508677279944569, 0.5014111416225929, -0.4788622899139565, 0.43555117116452996, -0.3653714244376881, -0.14816796054189255, 0.311282741718357, 0.02438051225276685, 0.07911146903620384, 0.2761126700847012, -0.6574811241661779, 0.2517618788305181, 0.2094221909087505, 0.867896509202646, 0.7595368674795883, -0.32623768448876284, 0.16150042132235015, 0.7572182175857705, 0.3168900220200711, 0.476192345285818, -0.3362010373136797, 0.4372715536610205, -0.2838340516834986, -0.22257609297640543, -0.61701848145554, 0.28194491057317683, 0.2960340934781719, 0.388905902974479, 0.040956432492441165, -0.658048137985153, -0.3126465442572387, 0.551529990310152, 0.004313852574515944], [-0.3553171768867268, -0.2552272996634089, -0.4657930526094247, -0.08539664056877572, 0.15249022692981176, -0.25891246845664884, -0.24219594224912117, 0.3584916635480026, -0.09750086405276488, -0.053664907900337344, -0.29185011408447104, -0.07147969608217776, -0.42908988212527, -0.2448456790173595, -0.8145220232655914, 0.45537012724410403, 0.31615058985227656, 0.3375890616003444, -0.42629894558402204, 0.4344830318064787, -0.2951900745891798, 0.026477377336845586, -0.8260343203480076, -0.06215035242860587, -0.24696370800785128, 0.3841993451491155, -0.5525807773914249, 0.4676082371195494, -0.4859817607982284, 0.0242059981744148, 0.18803152959944647, -0.3325405111199087, -0.2757331481785492, 0.24333172266540648, 0.14697040184157925], [0.14857550326717994, 0.2642434379259866, -1.0713942748797436, -0.14458535181184884, 0.3211898787747603, -0.5493877249922621, 0.617012473455044, -0.4364336028697969, 0.21140658242378507, 0.19985107653904388, 0.5310180097459326, -0.1454469144964497, 0.11132869180981356, 0.7377665939914338, -0.026331923869246467, -0.4240051136656721, -0.33957058514196753, -0.043843075607136905, 0.1846992476981338, -0.02182769450372857, 0.39837230314205596, 0.5783422019619558, 0.08616618169417192, 0.2708618685912791, 0.21304368287891845, -0.1890638150944237, 0.8258058581504498, 0.6962121051004316, 0.8161878200005557, -0.32013755694124585, -0.159332704189531, 0.7627440414571871, -1.1335142422156623, -0.15075261179493807, -0.11491772527132832], [-0.16068568316864126, -0.2691741723155755, 0.3935170915974663, 0.5220834514812371, -0.09440513118026213, 0.22613591838563574, -0.3079470743959947, 0.5432444568297022, 0.20207419113412542, 0.23696211040861492, -0.034247233697137655, 0.34345323828124574, 0.7416553748946536, -0.8116259059922787, 0.3446558616463221, -0.019587829803587215, 0.42586915845749396, 0.0019219461357816929, -1.1498513569564697, -0.03470925818099968, -0.30376658047498317, 0.4277672249950966, 0.5236869931763934, 0.2627344979867197, -0.2258619961633249, -0.387193512284304, 1.2012273897421568, 0.6525663593588772, 0.1896647242285221, 0.05109849070746446, -0.11159896656137197, -0.5995525459485034, 0.09368618776459375, 0.7299826421621811, -0.03894432651042872], [0.045986926564355615, -0.40771904947582344, -0.19370530098299402, -0.3515681897629227, -0.6958383099354742, -0.6805199534601873, 0.4891077485135556, 0.6582391024697621, 0.195549783391861, -0.9012553272884269, -0.48573450889297354, -0.3951158912188785, -0.08155495367478499, -0.5903221541402832, -0.5758623103784922, 0.4882462697787034, 0.12957260298390746, -0.06113204264320735, -0.04022746363602716, 0.7801529394423868, -0.3376412623044202, -0.6381117013216565, -0.07346070745045942, -0.627884543708021, 0.03309072506461259, -0.8060986916482925, -0.3152723531566043, 0.7147063319088102, 0.28531022057244726, -0.507916879174782, -0.20354427625011043, 1.0634660433344993, -0.24117887911723745, -0.7202295831715213, -0.34184959106125773], [0.2040313688542225, 0.07506748685369866, 0.15256871897784444, 0.35559889322703864, -0.06237464425505888, -0.4355745461389263, 0.33573566433681507, -0.10181439182543951, 0.359493894004628, -0.3149565009922711, -0.49975953620411373, 0.04260943819755364, -0.4138336131737076, -0.6275395140518835, -0.09681973566527281, 0.007594665704552134, -0.016811393897388883, 0.2371471688319182, 0.027807054184769302, -1.0438232953013244, 0.11953000106939232, 0.30465201991131, -0.04724262013260593, -0.5768652302902137, 0.11323359321983606, -0.21548581860520208, 0.09853104300290948, -0.20064250205531423, 0.3877319129329898, 0.05882133955289589, -0.26695519239429677, 0.6696609972134785, -0.02038375342944089, 0.9450958462400285, 0.03351011811935373], [-0.06788368465329847, 0.022427228303068588, 0.5369270681996444, -0.16939585408545293, -0.17105243572193374, 0.10255555903394475, 0.7221360643293087, -0.06609809263768958, 0.6274196012068997, -0.6461801352566706, 0.6336469118990222, 0.430001798811292, 0.441745016752847, 0.9495786565026837, 0.10016835179458855, 0.16766289630496686, -0.5566028266492886, -0.13829108651961947, 0.24600018753921254, 0.05480898278216861, 0.507963970538097, -0.21917850386043417, 0.42999270104940407, 0.49734231301044146, 0.9773264141459537, 0.39021577329081464, -0.6063958886187956, -0.3520161522182737, 0.33107159006719483, -0.05243906550674341, -0.3137764762979885, 0.9050671766717326, 0.9693201119793807, 0.6851318330774955, -0.1796549310267542], [0.6421607868231936, 0.014193697787620054, 0.4572673464647333, 0.7296902268491364, 0.17336919402979356, 0.3229051665281154, -0.21040997047824245, -0.06179752321268498, -0.7970137661900373, 0.12669772982423605, -0.6724808838442361, -0.16416163963572153, 0.36981650890066975, 0.07703292687052392, -0.4415057814601695, 0.5821323180682584, -0.8171075103313108, 0.7161447133064625, -0.1776978191088039, 0.15058043702843543, -0.09562846417215966, 0.5686843132687605, -0.16335454364328172, 0.12028573891570861, -0.3706408549126721, 0.2633045964283847, 0.4457125446605083, 0.17716239813343865, -0.7187048143248503, 0.644025154605686, 0.366311404312062, 0.4425326043274947, 0.34634160113650375, 0.4614128478000867, 0.4231888411213703], [0.08285337601884873, 0.036106704536820654, 0.11579189497810582, -0.18135154535683445, 0.11392005306245812, -0.029018539039678746, 0.491305228935181, 0.0008699011668743005, -0.23386670022151418, 0.5496220195438857, 1.147576351223573, -1.1151476133906422, -0.03845557304996855, -0.23485347840293855, -0.00791464333110749, -0.18444440201411638, 0.7795393971241876, 0.7719758151771821, 0.6689078874214155, 0.18325894475264387, 0.4159590117680809, -0.667077739224754, -0.35440435802190573, -0.10694503246249988, 0.28052556541844453, 0.6393555689443479, 0.37763092785223457, 0.48638652414844924, -0.19917747724167867, 0.05250762165597806, 0.11439428547077184, 0.2547963756270255, 0.17960901088709672, -0.08452512557153302, 0.10975841629569864], [-0.04319247151207383, 1.0445016967358312, 0.17102371584221315, 0.6643880241895257, 0.019536165018885675, 0.3552060752939398, 0.26227005952749854, -0.25747823238013384, 0.2468468005546706, 0.20373311490882817, 0.5184824571597503, 0.09873946778526817, 0.7761687305515754, -0.8620560885425805, 0.44893782504979046, -0.2332382062013928, 0.48465326555576027, -0.5103403102817117, 0.3439859357688533, -0.08505059961622721, 0.06231146581574268, -0.13188153920366694, 0.47626274086765796, -0.022719429463150875, 0.4569056278967065, 0.3402244986689353, 0.8376461252180492, -0.14608342023934912, 0.18426479043057994, -0.03484753493300717, 0.20846219193777593, 0.46936153896317906, 0.21135639047925162, 0.3732985997991795, 0.3198208371562349], [0.1524205690360017, 0.5226699843669023, -0.18368453925939793, 0.6844599601219689, -0.2435667203158465, -0.4133936553015505, -0.5206854105301154, -0.4352657019164656, -0.052970835910303514, -0.29670572807660767, 0.2695645815175386, 0.20515118042323718, -0.5938522890130581, 0.30436179018306797, 0.05164692405205868, -0.1724193121377454, 0.10299833847293986, -0.481776247463703, -0.13074048488814607, -0.0451417653725443, 0.06556477657190413, -0.12520861018727789, -0.8467955333697326, 0.43748569896884115, 0.28124538307158287, -0.5899044048042428, 0.3567365641655687, 0.039482963515843475, -0.19151658134000654, -0.276913421987154, -0.26263404625512365, 0.5937304613805812, -0.24010033877913592, 0.151271925031794, 0.12446702216597332], [-0.02031430625563404, -0.634427253441238, 0.15744228922333053, 0.14743424674746355, -0.04006667156683449, -0.7399239993911212, 0.9263434635952328, 0.6351325289984107, 0.20495486777457966, -0.928718988996299, -0.23940438578490925, 1.2285869513941539, 0.09911779186857797, -0.2807669784318118, -0.3761432792990129, 0.009616241497150704, 0.7217591698613209, -0.45938586668162895, -0.3587902528228627, -0.7356490378825797, 0.8257784309885652, 0.9825882943630686, -0.5623842766681472, 0.24832188992269116, 0.21561233188976314, -0.051619462618926075, 0.1529492427219398, -0.3997651046015534, -0.048074347975887305, 0.2730776461930849, 0.07366699885506145, -0.29277882012177864, -0.10525791060850284, 0.32475134529858496, 0.05319837022513142], [0.6212718701041645, 0.30665186477597256, 0.3816761411188569, 0.4451998514802256, 0.3712545215112308, -0.4871735627191061, -0.3268135193275842, 0.00748440776730639, 0.10565288195040531, 0.1433038061726224, 0.27241918125846104, 0.1069082025393226, 0.013683186938279749, 0.5807240096963657, -0.17801872737089117, 0.4609074253476159, -0.485655931448958, 0.32924968889042555, -0.5785578030420541, 0.10967675993123954, 0.6374079572835235, 0.31092497367748745, -1.1308147240228017, -0.09871404187937091, 0.3733712486907623, 0.0860395584094637, 0.07774757457095557, -0.525792648949366, -0.5408360596524916, 0.3644994432626157, -0.08405713005123235, 0.2749513908800366, -0.23966351391458363, -0.11058443058361009, -0.21206274506043082], [-0.22548320542804678, 0.03648137153996376, -0.4380069320837815, -0.3716653652546424, -0.30896348001171625, -0.27070211498418123, -0.17995169809435205, 0.1797565832980112, 0.031907370990581295, 0.26064074099440865, -0.20488665183276325, -0.23009909824907396, 0.02656803345859171, 0.24263858212426473, 0.2687729281581072, -0.21336364603043675, -0.12519725593691342, 0.03136921676807565, 0.24181627793676774, -0.09318463848560728, 0.027725790171656772, 0.2599009692631532, 0.8243079304225004, 0.2623526676874025, -0.2550741325109485, -0.7098438220636879, 0.7382131974227517, -0.08874570802418279, -0.29444893950614953, -0.8684072428645926, 0.0810925307045873, -0.48857053421559293, -0.3777431522017008, -0.7490551465785874, 0.16281500413396413], [-0.08600217000808963, 0.3782222058718224, 0.3873955982795795, 0.29818163095499184, -0.6224188888566046, -0.15282437916207575, -0.47505571733948515, 0.1859447390684945, -0.07865011525267959, 0.16433010678162904, 0.3427893879823025, -0.21026850426715032, 0.1511748572220266, -0.2804532924925825, -0.15542129262757307, -0.43639579069786555, -0.2644368729894092, -0.05312095314003438, 0.12507694106943418, -0.07613310650153819, -0.11973076764078207, -0.6363025620981919, 0.2835676382559929, -0.31999027780539674, 0.18914680420460458, -0.15748822845229282, 0.1019020991568868, -0.13470536479569994, -0.6939098827435355, -0.5771207391830131, -0.5146640108702011, 0.13631393116432794, 0.2559284307205796, -0.2569775788244163, -0.5596365921064322], [-0.13284807072103486, -0.7337285988112242, 0.17292665813086783, -0.2958241707939351, -0.003855255397810335, -0.5999630773304414, -0.08100664915969748, -0.0988504923615537, -0.005145971090382905, -0.3950660002941869, 0.1503966519394849, 0.12710019226904404, 0.5395568664398428, 0.08306862143386817, -0.8175030841793516, -0.4326108054875243, -0.13164473153292391, -0.016063527248577226, -0.1552645369220725, -0.719149318570359, -0.20167767104169576, -0.08413466030033202, 0.6191133522519513, -0.16592026521262987, 0.05397770784907774, 0.26868561090346815, -0.13590381416493313, 0.17938853698944277, -0.283816676100844, -0.14932362018368875, -0.6133043121152563, -0.13712219508275036, -0.22294885183816787, -0.20145378521384372, -0.5920961968846034]], "B": [-0.7513795235954852, 0.05509364409219602, 0.33871880778732333, -0.23097527737633824, -0.32948609590395095, 0.09780585148417725, 0.10511693383388707, -0.43197770693363713, -0.8926218436501275, 0.18919598538069865, 0.009177561938627884, -0.38393086600891313, 0.34333206131105426, 0.3270212952264315, -0.25848558581216036, -0.00294630514196086, -0.49513379114697675, 0.19711711122340958, 0.11063742554388598, -0.30317475191278964, -0.4492833081529998, -0.272622828054377, -0.5494344133609851, -0.4280280156048834, 0.12717067153666475, 0.35247587111711914, -0.5381258398081993, -0.2748527484578735, -0.23550887248998528, 0.15671126473066585, 0.08315247068062341, -0.13068487728229017, 0.04962714018686586, 0.061430587054339236, -0.43078212445100666]}], "mae": 1.5438379703599698}