{"name": "ej1b_id8", "layers": [{"neuron_units": 20, "activation": "tanh", "W": [[0.10172454672425903, -0.0667801997362965, 0.2181979879709662, 0.02503070806907433, 0.0023525879948130437, -0.29610176190146265, -0.2717692937970423, 0.1187534958943412, 0.058168218596216736, 0.2828521313009937, -0.07440024000233222, 0.19305114056298175, 0.1268699574169695, -0.13741159625054228, 0.01159846764309906, 0.16403483041520628, 0.07833669402338728, 0.1792519953300926, -0.15789118031877, 0.310854361747504], [-0.2597350884600474, -0.042146437019445704, 0.22959491593977313, 0.1577202252140155, -0.4524671517500166, 0.11337588903268067, 0.03690284721072492, 0.08639994007659063, -0.2002949060264999, 0.29731497714233973, 0.2574259047048138, -0.19135375908610164, 0.11245074149179157, -0.20630831114946255, -0.055938736008260125, -0.005068847369893574, 0.0005405062774667078, -0.2470782381196124, 0.25951666363690784, 0.0224404794737271], [-0.08152388822034502, -0.07713148679113768, -0.25660633000345734, 0.02378489217329199, -0.10375181715619163, 0.07237190393990049, -0.1411423352703457, 0.3414582900944934, -0.12961993614429734, 0.09170880188949274, 0.026507240006659126, -0.01194097768853968, -0.06440827086902733, -0.042271913069440205, 0.07409893775961103, 0.4359075809246115, -0.08856700901885504, -0.03514151956454239, -0.35718123740015073, -0.07459080091803869], [-0.42295744764535376, 0.005177089699403008, 0.0018276334836103438, -0.18807190247051295, 0.033240638389683316, -0.14323900256861463, -0.16623919222212194, -0.04061941457526786, -0.17276362949087204, -0.003523991658020324, -0.18975066733063609, -0.03118628098773719, -0.0022026141139477647, -0.09650436537012855, -0.09131889445638565, -0.2208246646555207, 0.4513034579373988, 0.372981020713363, 0.17253794903631448, -0.02182165102814595], [-0.001447210115198867, 0.07305764380447564, 0.26113847071389623, -0.0348435307263076, -0.08711439693628009, -0.005586464118585734, -0.04096796885369589, -0.30880476884794533, 0.14466836256777366, 0.3028078887469988, 0.015946440183300003, 0.03664231547321084, 0.29969168771963983, 0.28095387856314025, 0.30164229146047894, 0.0784930626853017, 0.08617087313602344, 0.010665698944247601, -0.04721516085948025, 0.0655585852519291], [-0.4136842373355266, 0.054250783602783924, -0.08494854620522435, 0.39694529789107375, -0.526595285183792, 0.22852844070594927, 0.05376935200406539, 0.27715606798854314, 0.09141761700844592, 0.0049545055883889475, -0.0007520728048394899, 0.0852363866064864, -0.3111153384651046, 0.14061846440768602, -0.04663864421988602, -0.09750649186514498, -0.146449082835146, -0.31081949475677045, -0.13036718698064617, 0.049498650958360244], [0.1362091262073943, 0.35544562560257126, -0.16230810456774125, -0.10994083631583387, 0.4927007931247266, -0.1285306530263234, 0.17646639405919326, -0.45246635955633385, 0.05525535858726564, -0.0011758041198781358, 0.2129574067332763, 0.012324662321999611, -0.13776702045752273, -0.4606261941717535, 0.13838688732383253, 0.26124673996989967, 0.16074775733222207, -0.1641650033156857, -0.22295501119319505, 0.12089225483061679], [-0.056663969756342344, 0.18542004712306437, 0.17823473124827746, -0.16631330578042225, -0.03212015103611751, -0.08071948827070616, 0.5401619380026058, 0.04991391285267942, -0.12881191737329845, 0.05296383009649732, 0.05896462124231563, 0.18306282805577528, -0.2133676614665504, -0.035388127213031036, 0.37868762192089206, -0.039593625906005445, -0.08561901724275095, -0.0509327195176751, 0.14308000209876262, -0.007250734865876388], [0.033018566687178966, 0.21856601291201833, -0.4404312442406463, 0.22488190918223866, -0.09198910033484493, -0.06641898626083301, -0.24032514970888588, 0.2409407202567008, -0.07755365210659075, 0.10764986753821737, 0.017853896058279074, 0.14811605283823515, -0.07862320089963154, 0.10745514659829845, -0.008680395448245498, -0.009613978619445419, 0.08968614358853214, 0.28515704428061434, 0.10055403379446344, 0.26853545883236785], [0.09842101990228258, 0.04836313971481426, 0.02130373816043824, 0.06584365880091075, -0.11412939418188316, 0.10149575642405073, -0.1800844295179543, -0.3696387712816991, -0.26723005374100645, -0.3395647116998514, -0.021724164727636816, 0.013131160191223804, 0.08823242138994689, 0.17755198065138394, 0.2063928054949046, 0.10243121120824371, 0.0362012199648216, -0.05688195185035925, 0.3392122544475998, -0.035413816158910705], [-0.1481048208221556, -0.3145168154395179, -0.005594494521320752, -0.004865398170598761, -0.07988017936841359, 0.06684406701766413, 0.10214620233177041, -0.10991799602559171, -0.12941955578182868, 0.18803784005522314, -0.07328938076664888, 0.3882770366262324, 0.07173440503106143, -0.1645230725292518, -0.23571557013862848, -0.4250294315969894, -0.12852122545807582, -0.11459532244231863, -0.11351163125114155, 0.04436518750357414], [0.15207386313799187, 0.013643036827118394, -0.10765034300523386, -0.4463183845916548, 0.014356271488173731, -0.0701962488889826, 0.03383612827529113, 0.11444425704967824, -0.07712513643215603, 0.020318646059902044, -0.07324047555719687, -0.0595646710353526, -0.1256704738367716, -0.32230911687154323, -0.22452898516288972, -0.10876040381140194, 0.2992618152881777, 0.2465626773282661, -0.016728385838764973, 0.3440920382643938], [0.034097564334106496, -0.4172846386698416, 0.07944281060996385, -0.08606934658992517, 0.1481897448037468, -0.5048767951560599, 0.18885835347127308, 0.0366086960558701, -0.010173582156436446, 0.34152888282776545, -0.1454552787774775, 0.1871966314530805, -0.10222448865927965, 0.3974836316238435, 0.04655468208247767, -0.05838493963378341, -0.005790134351745344, -0.19876558069833228, 0.2038364810728423, -0.4339349605783575], [-0.24617742539081988, 0.1656920880752563, 0.027524794064812654, 0.1234022635277019, 0.2773054997523204, 0.0026327042505116353, -0.22495095104469603, -0.2922603755833875, 0.11043535347533562, 0.010616065085383156, -0.07037580439362925, 0.2815257961996848, 0.09148922048454872, -0.12364595984041538, 0.005261303452773607, -0.25566888400201804, -0.06144094285309897, 0.14694027178723207, 0.0152667987259721, 0.12241679279114998], [0.10486106091524929, -0.18917758498853682, 0.14600641487088345, 0.00808152550040668, 0.029116753346380878, 0.020676607786529983, -0.19290655582545044, -0.07855064545503301, 0.034926975771317, -0.21214969158241742, 0.20953406595750199, 0.02342088939563082, 0.0005686386034358339, -0.2846217716792052, 0.08606685143367089, 0.29256644543478255, -0.009559602840806163, 0.1880928099336058, -0.14589302139147575, -0.30329794217394546], [0.279361110188599, 0.0983198303071357, 0.3628732975657953, -0.1370856368503796, -0.35032881987724235, 0.07198546599416332, -0.03923253344171978, -0.0582377404431525, 0.22131264788112173, -0.007881306801366712, 0.1559312647961847, 0.07831806477806166, 0.22850348299059084, 0.10527826830296963, 0.22210094734475236, -0.09561027256026398, -0.06832254971295447, 0.03767836738888025, 0.21005363158201087, -0.18923813913559023], [-0.0832687405444152, 0.17549815911551075, 0.127617830746918, -0.1361689720747291, 0.05601414056680268, -0.12766625508441448, -0.25506334187078555, -0.06846150343611519, 0.1155954112305953, -0.10897566223489019, -0.20039910109170567, 0.25058227380995934, 0.09155073335235146, 0.0195304704091782, -0.4217260761864968, 0.2625360294893661, 0.1024202901257161, 0.14017865146763672, 0.047973634121995984, -0.10000461778473817], [-0.2669567673902888, -0.3498107597871755, -0.21957769749330058, -0.1508238187737519, -0.22103978122759335, 0.11675241462815827, 0.04370618600155542, -0.06450652320911403, -0.05236368955954705, 0.3338287817112382, -0.03486985456151184, 0.14304646930051673, -0.06083502198562275, -0.09719399349575017, -0.04193392416803114, -0.016840599097118845, -0.12546092502066922, 0.20459458736361782, 0.09814463056677618, -0.2626174072111486], [-0.10222903228891572, 0.2563915746373437, -0.3392661878952454, 0.269216012481109, 0.14261745787080193, -0.2259110993974894, 0.14812693450212824, 0.11802654303265364, 0.25098212286784294, 0.3421119979915507, -0.14963146501103847, 0.1305685031026629, -0.08037742835401912, -0.06924193424169789, -0.49125816822995366, 0.15380003823852137, -0.17928795618515414, 0.1301923493754615, -0.30430273217016546, 0.010149979380214405], [-0.20131794345210002, 0.08959662033474776, 0.13152946956770017, -0.2032785612606985, 0.000376346679608128, 0.2547962210175383, 0.11313121706897396, 0.05499061747567584, 0.020973425759127397, -0.16671408279804484, 0.07315594744752286, 0.19505300411455959, 0.006463630586754813, 0.2445170284733031, 0.15007870885355795, 0.09935849344463085, -0.09907857351889685, -0.09097273482730675, -0.19130928184804205, -0.1935825006503752], [0.15228583233856552, -0.2703054383831163, 0.029471656927528723, -0.1688649256431967, 0.11010042231051628, -0.20632328489374516, 0.12459855989019636, -0.17188348586046376, -0.17395697931638318, 0.2763549584565083, 0.14727182726508248, 0.08535204333442843, -0.07025278736073735, -0.03190373377997481, 0.19335471482155783, 0.07501188067621492, -0.1669314649841539, 0.18486223048392753, -0.561514542573089, 0.32715348550785006], [0.1929753903047034, 0.024591326260703986, -0.3408118604821639, -0.36659272372139895, -0.5071317485368618, -0.32340081429689227, 0.2809554470197168, -0.29387940437516774, -0.11022529260491132, 0.14622229818161253, 0.04198719464072788, -0.3035170532711089, 0.11909225418949328, -0.2300131321282207, -0.07116239230207051, -0.030448109020964065, -0.048547591302033996, -0.1011018551267787, 0.09083834737926923, 0.09694353150116425], [0.06903319048853969, -0.045389146165085756, 0.033909025623866856, -0.24497878646994556, 0.373435599164575, -0.09840366087654084, -0.42212433043834746, -0.46156979436620343, 0.10092273218396816, -0.10051981623993547, 0.1577747173750859, -0.12233181222698349, -0.15933713700036442, 0.5658342619787344, -0.30231049789303316, -0.10000421689985979, 0.0896514923250405, -0.1137887900774344, -0.01946122694171625, -0.1592990186145419], [-0.49153112232333424, 0.3823451848828991, -0.017813173509791436, 0.2259015209489215, 0.15335095520067057, -0.23768003002088825, 0.17921012913757092, -0.16313726353576305, -0.16084514681687104, 0.24371419531407573, 0.01432037651247796, -0.14280486647889484, -0.06751674925857741, -0.18462271674719807, -0.009411103086143251, -0.09614535769400488, -0.14182391766665828, -0.050302731586001494, -0.07299364375196053, -0.1114431988051078], [0.12571245400343334, 0.15395937626939388, -0.04323099261889923, 0.18861136245679228, -0.015218450719895703, 0.022445202066867904, 0.296498693327339, 0.1245274658232102, 0.24315543024856717, 0.06299606549090671, -0.2117337927307744, 0.1434243234658517, 0.05956862715818336, -0.5091756225711402, -0.09298588629712735, 0.026862424361277663, -0.3621301166026951, -0.11790682854710054, -0.1657360524300548, 0.1575920666710321], [-0.07253531149647065, -0.18249914234453143, -0.506127173377562, -0.0295193100900654, 0.41785476700913254, -0.06305145171265772, 0.3310542467084614, -0.13965852728907097, 0.13632050536135057, 0.22394428977389844, 0.15996074334939503, -0.1089548755625441, -0.06219741734006228, 0.17555213844700415, 0.13076764053484566, -0.29981968305843676, -0.16846591011123524, 0.2667554167371696, -0.007523284031397818, 0.15072992538422733], [-0.03504468269009053, -0.45693899390260495, 0.18806338350769183, 0.07621341297089361, 0.562302172447046, 0.28360733725324094, -0.09045085719083043, 0.39546538766105893, 0.2317986714489585, 0.1776140010176335, 0.028852940937714226, -0.2451054172667672, 0.06723708949780245, 0.12912533739651058, 0.17626140655130024, 0.04738644601096552, 0.02424314881337133, 0.27589045308073107, 0.3760639527849682, -0.12743589972178873], [0.05836682687796183, 0.05833650888087779, 0.21381018620527542, 0.012213368242445984, 0.1850000485098353, -0.3701634652259344, 0.04737597795545654, 0.2510365560400262, 0.2268753112525691, 0.08940993954482569, -0.1358023531112313, -0.16619264738573858, 0.06890490144768945, -0.021370899787853104, 0.1470189716864397, 0.1388183079854666, -0.2966171346157459, 0.04640898158316671, -0.07908993487888615, 0.03394339481156177], [0.16585570989610365, -0.08147132639104651, -0.055554240257824294, -0.6605953483409692, -0.09217857239724939, 0.22294088813952018, -0.24220842911340743, 0.0017232369557515371, 0.12291099445803101, -0.056840901474343834, 0.018787775540607485, -0.2454788905116739, 0.07105395842570898, -0.17197479634384466, -0.66506532290797, -0.3449163834212592, -0.24685748728463033, 0.08245093168158812, 0.13554240300730885, 0.2753657577216703], [-0.04772808936353639, 0.012846703932131052, -0.029777582031009796, 0.23229872536848112, -0.15520644327346123, 0.05698654223330428, -0.08411862486040496, -0.2501073756085353, 0.33265637236285117, -0.1347616534728512, -0.0054267736349032265, -0.0026170159616042436, -0.02733800237646827, -0.05395929576543335, 0.29399818800072725, -0.21310939675951296, 0.21750942147316804, 0.017903168279656836, -0.0333354981864743, 0.3560422503500827], [-0.0934514038787007, -0.20889428190380133, -0.018287778486543355, -0.10466957478310406, -0.09339085155192807, -0.051599536740300864, -0.39145197311284163, 0.19858615874501367, -0.019896353622198593, 0.14547892459780648, -0.024196436552253835, 0.1743593066764904, -0.25721742391879343, -0.12816166082839345, -0.21068302326915966, -0.08144245647825875, 0.08432636186083804, -0.008991853106777858, -0.006352661322001632, -0.08589758203696865], [-0.11498250028452052, -0.3492111111838165, 0.04806197918037334, -0.08791218965689274, 0.10797604769743589, -0.0303137281401589, 0.1712630727014126, -0.2511372550063558, -0.38317055490720203, 0.3174679182689515, 0.2765161270276235, -0.08383113260195463, 0.11609407727052583, -0.2704957707396581, 0.11114630492337113, 0.05619444028616644, -0.2231846886363653, -0.0869443834011406, -0.20135273662025713, 0.013560044347311003], [0.05326187545459405, 0.1312498415759202, -0.06297864455766579, 0.03588499043610594, -0.17328585846685918, 0.030843941105751758, -0.05943672470638683, -0.022582499396184664, 0.36582232184681773, 0.19036204326769995, 0.17358193665968716, -0.16845385389662001, -0.34404444074045354, -0.07800676835684889, -0.45691595552957365, 0.2324843078418952, -0.2372293856036688, 0.004360201127963702, 0.025523802541740217, 0.25387191991360913], [-0.019000824408847795, 0.1755647347442891, -0.07773272658251146, 0.09320220551360597, -0.05242966676061498, -0.045704780878486076, 0.07107507577466951, -0.1376047742481089, 0.23414958019113635, 0.004720607874598775, -0.2841647695096944, 0.08714885524625042, -0.20058357284313788, -0.024872940733616077, 0.024615333530714538, 0.4100864291070506, 0.1508964030231548, 0.263880843997802, 0.1224524878883653, -0.2684280419718531], [-0.044940501704358926, 0.2927868373566022, -0.04902166522869962, 0.10811544333673995, 0.12415402872431393, -0.09824093246041378, -0.18121419166827066, 0.10265441598399119, -0.14043636568739076, 0.02037423799326822, -0.24338571143293386, -0.003373143159409135, -0.31067093732367773, 0.19763201981593545, -0.45811376778508334, 0.11757917328976217, 0.30519161937172234, -0.11242231530176466, 0.28590609910380155, 0.25342952290244336]], "B": [-0.007324522121361545, 0.062228292031805243, -0.038827381850008426, 0.26152150334463586, 0.14465806417711805, 0.2822509597940284, -0.2331667755943482, 0.19632746809387616, 0.26458118319194107, -0.2850366654546015, -0.31487267293072335, -0.11022127307056634, 0.04763073735853397, -0.30717525191556233, -0.034196653184221645, -0.36276077834596926, 0.08859292823245077, 0.15245358009969162, -0.16967772064469744, -0.07901494277906787]}, {"neuron_units": 15, "activation": "tanh", "W": [[0.09540004948405444, -0.03044083105585204, 0.09586832287409168, 0.3117929944891177, -0.30053876641433336, 0.012909068844306081, 0.09203169405744797, 0.20993175870716252, 0.5226517658255834, -0.37807357702969824, 0.19221609349371066, 0.28152162423974436, -0.3720532582570188, 0.06143193162771973, -0.21856374191864608], [0.4434354826837688, 0.21881045448630926, 0.16933001881765603, 0.0634704351247268, 0.3999350684611606, 0.14656843654786236, 0.19280569514342738, 0.042050913095486316, -0.2534005547882303, 0.573795671760299, 0.12724806332864635, -0.10434732980082213, -0.18900091186779183, -0.193313987445214, -0.11174526352422791], [-0.016204665587842546, -0.2156351636237421, 0.06379094419413613, 0.043289016566310776, -0.2423850708481822, -0.25742321769318716, 0.383405941782004, -0.10650105700235164, 0.0731361415163575, -0.2856761328695477, -0.29993441306535046, 0.1424557730684578, 0.21661400404169714, -0.1648067611242134, -0.17557255025537746], [0.09373821253922181, -0.08669198976637464, 0.2425237689007078, 0.29576551903656484, 0.21597097103687943, 0.009562237394987813, -0.621159806890046, 0.0670890620945267, 0.041346283078112, -0.09976122183527372, 0.02480090537584363, -0.3233061677991445, 0.31922209297271104, -0.15959395630252626, -0.18159394736351403], [-0.20347400716608685, -0.1728593415650682, 0.20587951592832948, 0.016885116857591878, 0.6632581376401959, 0.3570912521625788, 0.17336161961758859, -0.08968964899416178, -0.42623077082507427, -0.21656758547770155, -0.3750430942148299, 0.010845094505227384, -0.49888842618077706, 0.005274768484086621, -0.28905884633305745], [0.009054107259859605, -0.10673803069670107, -0.10136228900786952, -0.06771965397783003, 0.06407959087033495, -0.033811581710380394, -0.4635997765966127, -0.1658886771137486, -0.023616876565700363, 0.3444741686231622, 0.05008166599143788, 0.22253549537909026, -0.03514190959279747, -0.11084423608186672, -0.1567236684054895], [0.24080318519484556, 0.1553000918887473, -0.2403461203325946, -0.3955820854258996, -0.01520293410125076, -0.1654346196672193, 0.591915326716329, 0.1154667231341976, -0.0025802312200630625, -0.4299263704799574, 0.02621458934308592, 0.19260550588617695, -0.2437541910759789, -0.13439391105112927, -0.1970847414002095], [0.20394048454804897, -0.09754084104046461, 0.22124568082425397, 0.1608452644577045, 0.15426594473014477, -0.2660504143441934, -0.3882101643157827, -0.25941887331841185, 0.37176324627421037, -0.05919194938498805, 0.3345582724204981, 0.18501605826263973, -0.5186099736961838, -0.3018315283363507, -0.133892282596052], [-0.08003839847130188, 0.19229344331206982, 0.19150571843193887, -0.1485386697260292, -0.12331486087841496, 0.21585336438036826, 0.003866730843037988, 0.21308772131904546, -0.615615272708712, -0.5428816764317609, 0.30584881378878126, -0.02871056938602096, 0.15063733270532909, 0.033433861361696696, -0.08072912247392197], [0.11183566489924904, -0.19397915492925616, -0.5666336676362685, -0.32831788229510184, -0.040444860682673965, -0.08051196245677814, 0.03631615555279873, -0.3785722073523245, -0.161024316419765, -0.346479145894117, -0.04063658920984108, 0.262711479796473, -0.28162726330843385, 0.036054679567142464, -0.1420943675924059], [-0.003754344105116389, -0.15109722128861272, -0.021809011515317684, 0.014725249281441184, 0.3122661651683821, -0.342094280988563, 0.12445068676615952, 0.2362665130862119, 0.4093632043088393, -0.051769079335238624, 0.06617135789389217, 0.12234884495249293, 0.46398138280852164, 0.31165270947044316, -0.025772757424030575], [0.018617897651204068, -0.28536230618155456, -0.1023627955606369, 0.21861164704857558, 0.4903698922468058, 0.6025143711494206, -0.16173343656547154, -0.07715649216034316, -0.07133296592324838, -0.17882481241802567, 0.33960139289013686, -0.1511447674726222, 0.2399982918686981, -0.039415716690838064, 0.2158069569019364], [0.23675258331671412, -0.5882992738436523, -0.1646941149553402, -0.10533444223440766, -0.05277099059681523, 0.19272491669853156, 0.32440573465137706, 0.31282641404512435, 0.00070982487790546, -0.041514221487053, 0.019498428720479685, -0.40931929214576945, -0.12971369609806496, -0.3074397560016466, 0.3172041816949251], [0.30252807660743464, 0.5444716899734916, -0.27679826364659904, 0.4144746968133934, 0.27840892463896383, -0.36444017635767506, 0.00034903514908375975, 0.14651547037244744, -0.5311103366004076, -0.1692139132020615, 0.0077212621767202404, 0.23494280205170642, 0.0016537389173554512, 0.23826480594789884, 0.4707628281515579], [0.005213064200339865, -0.021657172255974022, 0.5082228839728676, -0.2800770336424208, -0.24565874328520942, 0.27845491373621684, -0.1997825966584522, 0.46988236067741596, 0.060955432483430355, 0.2740492353485181, -0.18266101220336264, 0.3057430791557774, -0.09793152846063614, -0.0650333826601073, 0.13937161410663448], [-0.17815201140427603, 0.3856036595038478, -0.24447736554436245, -0.2623455978272002, 0.24920711425483585, -0.12767924035860048, -0.14691408092591846, -0.027443670730692635, 0.36780445636485354, -0.09228438136555923, -0.0798624400936909, -0.1609016981329246, 0.37750977131812735, -0.6123071930647938, -0.21286854372874375], [0.45983901252862286, -0.01093007113835235, -0.2745519439147936, -0.13077366151321096, -0.3279840061575996, 0.026127739562507486, -0.05249564420807361, 0.13945105912862893, 0.3998429361744791, -0.021590749835682217, -0.05664516719646991, 0.14883047887580284, 0.08430956475959331, 0.054547957529010364, -0.27918172841572586], [-0.3156264730128134, 0.0721156115743086, -0.33533246834251657, -0.2486702451659367, -0.22565246998591085, -0.1226247261598038, -0.13120673070912584, 0.019925569068877082, 0.059123919757976935, 0.23030122983418636, 0.34937507537021084, -0.11571379417830718, -0.0550902286198999, 0.12671519851603416, -0.33568501617049784], [-0.08784382563006896, 0.3793866370284516, -0.16882565004176142, 0.24488655246763893, -0.1886954675057594, -0.2343254995424003, 0.2805128872496837, 0.24869134796296002, 0.0519160867617128, -0.10562497892738544, -0.33742683211476404, -0.43904576848377497, 0.05279228029090067, 0.11653700384293574, -0.4066984235592377], [0.30242133639170876, -0.017278970384873166, 0.056885875225461006, 0.21048079943377965, -0.5003154028712156, 0.5841481376192812, -0.19204491630834175, -0.05052142543568473, -0.5292502922277585, -0.03529906617957833, -0.2886862625194392, 0.47182077436529474, -0.03251797426481629, -0.02219051281643873, -0.1555092286321065]], "B": [-0.4888066452445135, -0.1156452945925416, 0.45444691260949993, -0.039359720491242436, 0.31301269681635385, -0.10044574132089093, 0.1801728807340423, -0.2600782277005361, -0.09435880026038747, -0.18645077242710786, 0.1163895998248822, -0.009147030986998211, 0.11978745247681755, -0.26533381291803393, -0.05492588289223804]}, {"neuron_units": 20, "activation": "tanh", "W": [[0.10416907789712128, -0.22008686709111358, 0.10401224887161883, 0.32483139014372997, 0.11011986537440573, -0.13320581829186964, -0.10621288115235196, 0.45375782096135864, 0.3815982242236144, -0.006176805512785046, 0.37393418461587874, -0.20860031127522818, -0.01327311586861356, 0.7304416978628467, -0.2585756286504275, -0.22566043679698938, -0.16959588404564133, -0.31396366198234865, -0.10812527673100625, 0.21802814993481526], [0.0810132301820877, -0.1277990202404535, -0.3057505979836429, -0.21077952705715056, -0.15198633018071075, 0.0340191147092982, -0.13044277871781348, -0.04681227903918672, -0.23864701709819083, -0.03455135420734912, 0.0954312891418819, -0.07173120357238377, 0.5168800627054853, -0.5689609699343423, 0.7610672693178283, -0.07476937586387303, 0.8741836065656665, -0.2712315196253764, 0.4739187869575582, 0.3505971629279876], [-0.09746904981688273, -0.37195340540940564, 0.20346967176740166, 0.05780967573469336, -0.0016124699494128067, -0.1811356022407391, 0.25261264696773095, 0.1361300792631159, -0.14674305939363463, 0.08979409711031376, -0.039978124537151154, -0.2533803114319345, 0.17533085900670306, -0.5002841945478428, -0.11691887178125303, -0.2634675983119814, -0.03839930117603472, -0.049836504447579755, -0.03682642428274806, -0.2746599301011077], [0.41175108818144907, 0.6270278113454175, -0.27119194927048007, -0.01701562851342153, 0.46063448610855984, 0.0033591894920801057, 0.41140226237321104, 0.21243938619504119, -0.14187667578963986, -0.38226527193028287, 0.49942028857857146, 0.021085930506691414, 0.4807551681923938, 0.3928800938833419, 0.05461203850805844, -0.5063737003640103, -0.020523651904137748, -0.0747660732601474, -0.36870088502201054, -0.11141633184559252], [-0.40443521098767465, 0.5744247276407658, -0.24155430614939274, -0.6260514872197951, 0.06851552405187003, -0.1929633985954673, 0.030347585614413, -0.09692969622398015, -0.16275215020633732, 0.5010925579242421, 0.05931975758362726, -0.04487572067757319, -0.2071201331941711, 0.2549435580810682, 0.2835440034672689, 0.334098356518603, 0.5574385902974652, -0.24659716364831044, -0.5689987294142601, 0.053601785733418505], [0.16589484040358757, 0.0020064055957044464, -0.0021955416695015693, -0.020048012808414648, -0.39761955844438757, -0.0358074561437522, -0.3691456292194043, 0.4014030961749214, 0.37288255352540817, 0.1067849124218325, 0.49497404635752573, 0.3681140216908565, -0.5165577055372107, -0.22600528995987085, 0.030717454876201315, 0.39959181911853087, 0.4682036276339443, 0.07670528593409667, 0.4900205634853342, -0.2884430544605887], [-0.35420514362450617, 0.5456323898899929, 0.23880351525219815, 0.1978215739298159, -0.1725070161626505, -0.38952368131036924, 0.05195503338396883, 0.028744326351047064, 0.3199463096919317, 0.7723460706620134, 0.26106554467173015, 0.5017279104550736, 0.2755077392782684, 0.401818388969134, 0.3449888447814609, 0.027451132335066634, -0.041643289803873246, -0.7135241675640723, 0.1550984504024878, -0.19126398803505607], [-0.4723029347126848, -0.2694221940126477, -0.4372057225390055, 0.5218631882159561, 0.19014425837228063, 0.5427494855624151, 0.6403140884331348, -0.041944339873701546, 0.2164688684065829, 0.20826964172207463, 0.17058681484131485, -0.08167344414656467, 0.31299893785025223, -0.10822732902424193, -0.08995401656628942, -0.0976883760159705, 0.017253026984945536, 0.21329810159029616, 0.14201594386633548, -0.17862030546741062], [0.0748229127331468, -0.12117614365167445, 0.9220476541849069, -0.003365575278566302, -0.25593693405734236, -0.11232585664026969, -0.02191869037278678, -0.4772770490676158, 0.26596524269486044, 0.0028610157593017514, 0.5570134144896413, -0.035721618410482076, 0.1789490220540147, 0.01234722737429552, -0.06582399559608373, -0.31105072016128554, 0.29508780558147196, 0.142387571398356, 0.008542495786361168, -0.1848254696584686], [-0.053692544731871274, -0.017622780945870477, -0.20479777192003532, 0.48326520596076045, 0.5841317777387737, -0.41965905817144733, 0.31033042081717027, 0.103204217000394, -0.42793549205661896, 0.07529498018883408, 0.28691019052837285, -0.12807723974806268, -0.3077193468556525, -0.0348072489719667, -0.16017559186141966, 0.344046412630681, 0.03544281184602283, -0.1848851165078015, 0.061902545006180164, 0.0010506480183066864], [0.15872633706250056, 0.17013029853030145, -0.1667448433923645, 0.027066447166056565, -0.20177581441761686, 0.21576466879936473, -0.21239251069511209, -0.08924701612598675, -0.31503059439013015, 0.36688756413318857, -0.40142244060291504, 0.17526127431947167, 0.29808879053411724, 0.32645575318914716, -0.7409481109686054, -0.09302043630765668, 0.5603106498051971, -0.39594310749443545, 0.05428677285539021, 0.2946824079527675], [-0.001439940774146945, -0.16001586033998985, 0.4756576672553206, 0.0912122464949632, -0.7003216689125666, -0.22398806993008918, 0.4324132705926562, -0.041416540135350115, -0.13327277607728832, -0.33871220892962123, 0.2853060118716639, 0.03721915986193706, 0.23135111114622153, -0.30524592159959135, -0.2781803927694185, 0.43859656822486814, -0.06826914052519352, -0.179854520705451, -0.22991658940296344, -7.633346714243105e-05], [0.016035563123520533, -0.32684514094105116, 0.44482716057647587, -0.25844964398838993, 0.30568369544727875, -0.20433739307201967, 0.03437438432971641, 0.264523522442431, 0.1587304246803602, 0.04266733658084679, -0.20684511325152527, -0.04931595175279189, 0.10868721965236917, -0.14919310582183506, -0.19175206040067033, -0.21794703257605003, 0.12423631006262544, 0.4618324575052798, 0.1714702536569834, 0.9737947400339793], [-0.02206468813460759, -0.14250481258140868, -0.2847619123373757, -0.18217650247937603, 0.031020003307185795, -0.3419057572112439, 0.6029490473586826, -0.12572632185424218, 0.5664977603618974, -0.10532455460351817, 0.25921606936014563, 0.6274080098445618, 0.08733131370195459, -0.28506304032793883, 0.07683017100362056, -0.08656263700855202, 0.26557512107008263, 0.016098065886172217, 0.466253603149496, 0.5139534360278781], [0.42054191187630724, 0.10419762230724317, 0.006774894451306882, 0.2368951095218112, 0.4760827098868248, 0.7336461009590828, 0.3477101760520269, -0.19795690859720183, 0.11837040581346604, 0.4840112708083471, -0.25843651972197573, -0.07628902190914946, 0.07907361008118094, 0.2586447605422986, 0.22825806868292847, 0.663117487420398, -0.11477569643409373, -0.18303559418685386, 0.24080796126396609, 0.13239578002981475]], "B": [0.36205100617218955, 0.5557347160848825, 0.3431141849002885, 0.009709840331823408, -0.28184601240954144, -0.1587906336923556, -0.1771514633886376, -0.2814883378558527, -0.20053560656587177, 0.29818213838385765, 0.6241434659675217, -0.5071193190626823, -0.05152175909333608, 0.14461158900717358, -0.24083613848964866, -0.000694736174665283, 0.2532983190206333, 0.1739963792097373, -0.03875386269095473, 0.018976429065983725]}, {"neuron_units": 35, "activation": "tanh", "W": [[0.29545849140527647, -0.05254729493073703, 0.2930661093572033, -0.0817064142964557, 0.07675560864350349, 0.09801191683904575, -0.35938572620302833, -0.44219049175325015, 0.10256830806064211, 0.3500989037866522, 0.3951552064447508, -0.02682798852356171, 0.045374137267646324, -0.027321117305800426, 0.025862386339629433, -0.5104769365793992, -0.06920848417793031, 0.009284909503463556, 0.029468321890684008, 0.07200715745483093, 0.29892077308767534, -0.44041251633132233, 0.22293106006423288, -0.1671837905909597, 0.33539064177071964, 0.12589008344921165, -0.2568950275133654, -1.0249894033271647, 0.27823103565836216, -0.19261794149892275, 0.4931348667591536, -0.49649494236084024, -0.07880664976259805, -0.430998356349802, -0.15834539965084968], [-0.37394729606108995, -0.5457479388159624, -0.27037442958204344, -0.38820058498504034, -0.7107061457513243, -0.35523805774616674, -0.1360398529957843, -0.35498107277420066, 0.07042617028995662, -0.19604697588487727, 0.14799764350289474, -0.3522481033942113, -0.2406854050932578, -0.030509154936054175, 0.019255365418194444, -0.31045496100500314, 0.4679931477069494, -0.5768513098503536, 0.404665182513617, -0.19506892757067895, 0.01039265079998331, -0.2929687839968945, 0.7121238529135786, 0.3051847622353224, -0.19529944834881663, -0.28440598795969796, 0.2873794646814014, -0.08252399864914842, -0.2411664101313878, -0.5484856088702557, -0.07387653131235847, 0.08587615001257, 0.21227910925743704, -0.3320208420193668, -0.08737892018693674], [-0.04922927847792407, 0.22790425887045665, 0.5192347630907946, 0.6930186596424727, -0.3619675427447707, 0.12802458847889253, -0.5512156462985647, 0.07801466176452485, -0.28399575996331294, -0.38600782098392655, 0.13173374514092773, 0.07796432779282517, 0.1453819188347619, -0.2624936217878171, 0.46906745198594557, -0.44205651678637564, -0.5584565429012874, -0.3719958348246098, -0.5689230634684092, -0.5104581395674522, -0.14003915685475185, 0.004863864281336106, -0.014855240024108585, -0.18559309809782315, -0.21811252058007755, -0.8176353678816969, -0.2201131348841884, -0.2750063845709322, -0.5263616104220196, -0.10716476097505649, -0.2700930067420041, 0.2829831873379686, 0.25569946566296337, 0.39909067379289137, -0.24994249798286733], [0.28062748767327883, -0.28809683560688326, -0.41889990899175067, -0.23058042160353415, 0.15244804058295663, -0.13346297489800815, -0.25898688038495543, 0.3061969037650743, -0.38458304193872656, 0.20782496744865356, -0.20485315958506065, 0.6768101916695358, -0.4535331986763824, 0.3458692987154816, -0.49288793148745047, 0.2602694291834175, -0.73619773075165, -0.3350460507682682, -0.6197190043569522, 0.085796575593641, 0.2816651910381379, 0.4923418393070316, -0.4579658757558077, 0.2776211931098399, -0.2799989072064338, -0.283907157688143, -0.11302354408490634, 0.11977088747579318, 0.08702992518536133, -0.3250110727186484, -0.12425273379386696, -0.3837530602006182, -0.8701569612612274, -0.1043541110691469, -0.15055113895398808], [-0.019584138707728904, 0.6743653176261037, -0.07274163091210895, 0.1666747483619542, 0.21993741138245063, 0.3653528653083983, -0.57152120182141, -0.43494093996750033, -0.22546214440000795, 0.5166065990045013, -0.2399066946457285, -0.7141880699627947, -0.757328386600014, 0.6184895786991059, 0.37383192174415875, -0.15791269746579312, 0.00016875865375003176, 0.26057594079327445, 0.5148642384720831, 0.3285759326649218, -0.43040208783746425, 0.18301939400160874, -0.07168700204122927, 0.19293639165863263, -0.6077932867505791, -0.47830712520852875, -0.0814478544482663, -0.18695220585807035, -0.07854305944396757, -0.24194114698921904, 0.33929853458503706, 0.08257935719612218, -0.4320943879234577, -0.503048143039097, 0.2867413834391071], [0.24670939418477364, -0.5330560029099723, -0.21542142607741127, -0.24318217195442565, 0.06117247582215652, -0.15123536349670147, -0.7730013327479022, -0.4896304075245754, -0.2968630470506335, -0.6584034358359763, 0.2482244903681112, -0.07950832130969468, 0.5699680535352961, -0.10530184620055161, 0.17005788769573602, 0.30650076252316655, 0.19487636618601187, 0.5323600610303495, -0.29644173917220706, 0.5432606259246961, 0.22286670177951803, 0.23797238109653535, -0.2141204469776565, -0.26954377549593045, -0.09055411483246534, 0.3299354423593418, -0.21455702486863767, -0.22245755265518363, -0.39287227435046834, 0.22153077949065586, 0.1295337960462912, -0.2767947828086854, 0.20528083763532926, -0.34639989947634825, -0.06661302922949151], [0.044717193040524385, -0.40033831849234686, 0.10488693192613206, -0.91785183229924, -0.01855237487597001, -0.20472002720359744, 0.5017352523488608, 0.1724564253710642, -0.12080286035175529, 0.13100442276479174, 0.12053556106431437, -0.34172996808193024, -0.0818365491815199, 0.12528756243592992, -0.563025298280481, 0.26478800839500877, -0.3426178902386426, 0.7156175497600593, -0.7710260473868321, 0.26835241791266806, -0.5849972785815382, 0.06474108271600004, 0.09564539387821021, 0.04392655664861542, -0.49501304534910573, 0.12749746007614512, -0.34523697871122294, 0.020000778559933846, -0.2833379451687055, 0.2932078013990683, 0.04561618071565587, -0.12886274282615715, 0.05878170539036928, -0.6100682114930456, 0.01185580166240132], [0.4076811916393284, 0.06751421059372952, -0.45233687991102367, 0.09427200896047888, 0.2397161430623781, 0.036256426717951595, 0.4421977357892777, -0.2259134704979604, 0.12765374488465647, -0.2663019078502564, 0.3569447299914101, 0.06928920148511324, 0.21979687914834029, 0.31075238522013987, -0.4198496845015034, 0.28788572634758314, -0.08827541992307444, -0.18025173503919906, 0.15098454597292044, 0.023696238615157645, -0.031191453100100196, -0.21388423437481324, -0.12622058864305655, -0.07186066797379399, -0.15929492516419108, 0.05782333167597068, -0.38681625216523813, -0.19530931705976393, 0.2747543064460368, 0.4170312405876948, 0.14727914303580805, -0.35648227156220935, 0.08468237564372165, 0.27463401077623406, 0.7208297827493546], [0.08270825688315774, -0.06326902098701721, -0.4663515823931587, -0.24174017674619055, 0.4421968618743143, -0.05916557144180891, 0.6517363276610901, -0.409690653798433, -0.11147825156232707, 0.02789255492918124, 0.706312701541511, 0.46924611003621186, 0.23418256674892887, -0.07064756510731873, 0.5307952671179071, 0.09830222485528291, 0.05331412341170646, -0.35844960718917795, -0.034695513094798264, -0.06370043167819632, 0.19910413833599344, 0.1700006403023776, 0.5828131447680649, 0.13625589909472183, 0.29345632530406535, 0.12354197177371347, 0.32468906748169835, -0.18203329070878158, 0.14357714776849598, 0.10979937097556178, 0.13118177983396176, -0.1809038789258663, -0.49698390898273753, -0.06954763770244311, -0.07988034842328084], [-0.5627800528177145, -0.04702131756744189, -0.6486088388915832, 0.055151163419600926, -0.5033164039958148, -0.2636314911711027, -0.20909778414214705, 0.0957389933242653, -0.6125810695383063, -0.04086458024245637, 0.2901867497857138, -0.35742045043270193, -0.007056908592498755, -0.31295060231701116, 0.06533302147343983, 0.6758820058417595, 0.08338483500685198, 0.571426624508939, 0.27365469486553257, 0.22515374853722223, -0.18418237928863232, -0.11406089477693378, -0.011023637141349983, 0.10981313859194061, 0.14622333802557916, -0.041397252858403434, -1.1509551365091393, 0.23030125138264454, -0.32168744952852363, 0.10040618981786192, -0.5970148217782658, -0.3355066008126328, 0.08727186179606845, 0.04146611562742775, -0.7965103248715814], [-0.4188634155273158, 0.1968418196539852, -0.8205185236218264, -0.42182218286862677, -0.149069533306714, -0.2645526111691549, -0.2204538715766247, -0.09392292773401806, -0.1673954906564458, -0.06970389945255906, -0.5340343983392573, 0.21958878445275093, -0.20544384616442238, 0.24637495333434836, 0.06100153916930331, -0.3773451993835738, -0.6918509302020655, -0.5774392956977091, -0.09545450350355132, -0.7049358587599703, -0.1979192745906995, 0.20957696901870326, 0.5237148688117667, -0.0857103799256989, -0.44030679766239744, -0.3022485739864675, -0.5939159337096461, -0.16736521951381464, 0.029458279549817033, -0.6503984005438389, 0.11523307516237241, -0.2865646361367243, -0.15275988266429136, 0.04454676213648196, 0.29450547632274343], [0.21912241506925562, 0.0909082058034936, 0.0148264946503863, 0.20371936572298566, 0.11393951872850462, 0.032271892238104935, -0.006862712591078622, -0.09700060468463266, 0.6827926020350568, 0.19359281599417288, -0.023560255278631113, 0.2418991961351522, 0.06585342662127804, 0.24431985029380818, 0.5478309795109, 0.1644830371367656, 0.5158837167011846, 0.043305588282996244, 0.317672690679503, 0.055758887954982905, 0.023453435980690857, 0.5749647967556577, 0.5244516729373001, 0.5193773176028803, 0.3979468611857747, -0.25550272137762825, 0.31517431342004787, -0.04522958415918076, 0.7144392583267974, -0.10468634066998367, 0.1346221678334306, -0.13612052733600252, -0.13994417000594636, -0.07375677320625637, 0.2474215167142781], [-0.32916333107440043, -0.7186952924227348, 0.04682033540382569, 0.01010879354218389, 0.3221329285917446, 0.1292471924487559, -0.033798462751933, 0.15965784593297513, -0.08945915933270834, 0.003825638955266324, -0.47708086269298966, -0.0660172446569482, 0.35008568218424285, -0.7221596169462805, -0.1675914924490466, -0.02947426164013215, 0.15285350612504398, -0.1501269654877972, -0.20471549832340846, -0.13486406726337583, -0.33354908274205003, -0.01919627318152085, 0.5600697077428082, -0.5843428583225402, -0.5247491386874583, -0.03806110644623924, 0.2057988358754894, 0.4744441944930063, -0.2841357360229567, -0.19998382665794429, 0.0005952355784033786, -0.4955828072464605, 0.027958565895254032, -0.012123537816328559, -0.2959369288578632], [-0.15356296875644915, 0.4351498429044481, -0.20313339333374705, -0.355876777932572, 0.09764218434392065, 0.42466207554801494, -0.04606861063784342, 0.1522318898644326, -0.09389341992993055, -0.01214949814906069, 0.3087942847015761, -0.1357859039797739, -0.010838536914473607, -0.1187589829469174, 0.3137295012627749, 0.21496070733332337, 0.1922965532094143, -0.47289567423207957, -0.03898162345968431, 0.7259412537221338, -0.23867465692102355, -0.8907374899477309, -0.17812869863171082, 0.37713258087120366, 0.03917683821849559, -0.7562537714983617, 0.0010267664263533063, 0.04060784998686052, -0.3313116068613369, -0.39568616740370843, 0.04632595819218575, -0.13074926428234415, -0.28894774674130563, -0.4105670587990255, -0.0011777877264016012], [0.2634122070867934, 0.19565523153036424, 0.09166533154348777, -0.45271925408072133, -0.253703427811142, 0.12900267651048677, 0.2522201543985231, 0.5723338367045104, -0.10397382780247674, 0.09432292415160402, -0.1690778731315615, -0.13628071037790443, 1.1161651296506896, -0.12800863443649887, 0.0315396786656872, -0.38155977328739255, 0.00332055193659795, 0.025579605930412613, -0.05465814269808591, 0.23453669918876596, -0.22640304970451963, -0.0951506555961343, 0.46913582849191116, 0.19289487839975336, -0.07290118220063686, -0.3329785776392688, 0.23168444027131552, 0.6006124229153861, 0.08647994759378058, -0.03393216891724276, 0.581145881852245, 0.1063076502291899, -0.19604385683518646, 0.09214151572817816, 0.534525889845958], [-0.11000989072131216, 0.08344822677368312, 0.4237712798397746, 0.017756592709293584, -0.10621374701875777, 0.49791878986721977, -0.10812390626965557, -0.03231877986602747, -0.051540487302238404, -0.4878184036836083, 0.348343019783411, 0.4550949031509558, 0.3418467491759817, 0.4441985746146936, -0.11453799947407595, 0.3202922790308914, 0.701602614195444, -0.31407693647162627, -0.12415993006384637, 0.6110078884886206, 0.8298662133442101, -0.13529553614754186, 0.3253588708402786, 0.23880931107261452, 0.40056727320419167, 0.09893528675717315, -0.48841283116811096, -0.16669597799843922, -0.10728874439591375, 0.26797624337864, -0.19186274400844705, 0.7050221291225387, 0.14004337884370385, -0.11100073508855048, 0.04258602068288451], [-0.3630916764676579, -0.31146762490215485, 0.5781208488152578, 0.004486441535427495, -0.46546710675450576, 0.35039592612447085, 0.1252149614314136, 0.2609315956514153, -0.19381069406192855, 0.15971405924364887, -0.11850030593520519, 0.15462982015443957, -0.13437571142011562, -0.30388123747974843, 0.33997022609538774, 0.835151482442908, 0.09971465513657508, 0.5062155604733634, 0.27938723927109194, -0.2160423494855114, 0.06350723088612413, -0.1609976353032797, 0.38830234202320013, -0.17249899674751884, 0.23249544305234715, 0.20265596133372918, -0.6265070966133897, -0.5116116347786416, 0.1790686785149749, 0.23949947224165516, 0.17672365524337422, -0.2486315226290225, 0.03795730366825079, 0.483821121396259, 0.32551879148504903], [0.006110297403259575, 0.3140922591756718, -0.004212574218467982, 0.05464048085967999, 0.40488706220873283, 0.274762874058776, 0.4879088925201344, -0.7888665577264689, -0.5152735968648615, 0.6460544805129156, 0.5324279462860946, -0.416720850176402, -0.27982947594619123, -0.19680508055718038, 0.24436288594051486, -0.42513581846110376, -0.11073730991616754, 0.043507926425251156, -0.351908720383433, -0.24856146856083344, -0.03210260808547226, -0.40900254034980593, -0.18449776143890842, -0.5878889605111369, 0.13783364863970576, 0.1251635491111615, 0.24932490041170682, -0.12488718960673173, -0.44670378752416223, 0.11425738551014841, 0.4414378346097559, 0.716853116321172, 0.21150906836207778, 0.6167651932768696, 0.28686272863746165], [-0.2217750348303033, 0.13996581808587594, -0.36789509934534614, 0.33592524922995726, 0.1600995464944425, 0.22782849717702341, -0.04743869112773246, 0.2844712642447822, 0.2693467141635474, 0.10037844721112275, 0.2605634173521227, -0.08902573005833354, 0.38989579303844335, 0.7916693342452791, 0.25054703974308057, 0.32581970564313834, -0.3333912457246693, -0.11330629888451806, -0.1004117009967984, -0.005668975510162222, 0.30455703852856253, 0.8323170216338476, -0.10877811907567544, 0.5816699810142425, -0.056785562092999876, 0.13633634562289218, -0.1353706115895739, -0.06002190098960636, 0.1221776656733249, 0.41332238971916413, 0.42820623787490203, -0.3811006099441807, -0.33319776580466476, 0.7684682812662018, -0.00794187143891228], [0.2583458535484998, 0.40993214968689523, 0.20498357483749494, 0.2786972612796888, 0.08971673592011303, 0.7608061267430387, -0.3027876188844496, -0.10436598240441497, -0.11424676825785911, 0.9710714825878948, -0.060403144447254725, -0.2249121738286085, 0.11476829452542602, 0.07330482266615014, 0.39749573573404573, -0.05380924408203931, -0.05180448506888483, 0.06659247609988514, -0.02314829261992048, 0.6043357194256956, -0.03243416955252952, 0.11157787685789498, 0.08644958127042456, 0.2126581330123514, 0.060581227484791014, 0.6351213209406094, -0.11309443474381657, 0.11192069834410308, 0.04729018884013382, 0.5050229687961539, 0.027903115298225773, -0.3228906134578804, 0.889990659579467, 0.2560104766845171, 0.07108511234857819]], "B": [-0.3304381008063971, 0.1909431780739099, -0.13610395427533875, -0.13903979692065632, -0.20220495295292795, 0.011261854569997058, 0.12405060368259282, -0.43335277430455776, -0.3323272010802596, 0.26248530619840715, -0.23694332885399988, -0.26141127348245313, 0.22441095205920353, 0.5815760863006934, -0.198777281745247, -0.49299516930714704, -0.287093004849151, -0.2659699504547666, -0.06403969798119467, -0.12325891822576204, -0.4003407950138943, 0.18399286889369518, -0.023441911501744166, -0.30235959833643467, 0.3289188568623305, -0.3103435571075404, -0.23248925993035724, -0.3797470391192257, -0.18504343627953107, -0.2250416101490935, -0.6082438446798345, -0.22018694011903123, -0.3076119808519198, -0.38972373098318774, -0.32209046569284944]}], "mae": 0.9814280435573816}