{"name": "ej1b_id3", "layers": [{"neuron_units": 20, "activation": "tanh", "W": [[-0.10345354039533235, -0.4554997613997163, 0.12421066794069867, -0.10938515053540582, 0.3596036634861655, -0.015089990201811088, -0.23676855187450369, -0.28551282746463874, 0.12146029535915587, 0.3697914434578615, -0.3740828237562246, -0.1336928856450286, -0.02759491233368625, -0.06495312289208005, 0.16566060481543515, 0.2834129658755371, -0.526711481507385, 0.6226339496855289, -0.31660534933514173, 0.060084306923163466], [0.037823215901497634, 0.12195213617057561, -0.4166541896849157, -0.04250270383259922, -0.14442874961580304, 0.05327002348511448, -0.03649302656632203, 0.20233624076432805, -0.19807503132401655, -0.06460803045890948, -0.3184930486265035, 0.11343041723441212, -0.29869980453342304, 0.41802980673534496, -0.33023039187342657, 0.2793198572638272, 0.125159882742811, 0.24282673604111848, -0.23605154032829864, 0.08471714079030686], [-0.374716831608226, -0.043642755786177975, 0.4060231701800694, -0.12135748495283355, -0.1453395984089505, -0.040283366593305704, -0.0391631334573225, -0.04796711809013105, -0.10848296516136922, 0.21562095318384003, -0.3001760670978311, 0.17346811307220927, 0.1999909668556064, -0.15704209555855103, 0.07440381915340108, -0.10468322726566075, 0.0817178042720553, 0.2953865836409268, -0.19259965544464322, -0.13558711654472622], [0.13569308654098852, 0.1828486742278427, -0.05512945539738383, -0.014996024665201375, 0.14860973333880226, -0.07092051772713506, -0.0978725052479332, 0.27380733047294653, -0.08141698271734554, 0.14800421981503883, 0.35856080537847257, 0.03554232717811398, -0.07716229731953335, 0.1707388629410501, -0.05448349388050292, 0.3413231864537201, -0.022888425480712134, 0.20740849663664776, -0.04756424570346906, 0.22248522181737204], [0.1304141619564548, 0.06458567095398128, -0.03129313399416049, -0.02114434659369888, -0.12990623254215636, 0.0943038416872686, -0.08832937497410677, -0.22686729011785528, 0.3591604511272085, 0.13984189422571566, 0.23128537849071948, -0.14601092683661737, -0.1594184705718634, -0.30208896235447846, -0.399441195340961, -0.05317827058470838, -0.14613724773975179, 0.0153061759439607, -0.050131519470887675, 0.041200255117113456], [0.051408023586818674, -0.15045703851486192, 0.205662797139543, 0.14356264659811468, 0.0021350265886469423, -0.5166785568750664, 0.061022029760227206, 0.24631128483772197, -0.18604580905560508, -0.13080905525988767, 0.47740958423496155, -0.07539824043118451, 0.03590776727365206, 0.09526312944028284, 0.1332612939362429, 0.03693304863250938, -0.23477661104810837, -0.3172615491914948, 0.16724355520611114, 0.010121793099651114], [0.22777158928623056, 0.23016791473868015, -0.22003350260428078, -0.2597356822656043, -0.14780788702031733, -0.0009551387822379794, 0.3901223403530306, 0.14679024783578828, -0.18707275266593734, 0.07130063515709888, 0.09170802501129484, 0.24111375843333, -0.3234878548398669, -0.2282493758958292, 0.4657713174355481, -0.2694564945981014, 0.02204575622231892, 0.038566011401243216, 0.028974726027479383, -0.26437672725897327], [-0.10601093892374498, -0.2472477984515758, 0.012545588606841438, 0.11792291276140031, -0.07844190824824655, 0.05789807046245514, 0.10634748192997062, 0.09348067213605402, 0.11464746216332465, 0.005803676949702282, -0.31861580807245576, -4.3929311289876206e-05, -0.20792908425104514, -0.041748601341123195, 0.5308014075530362, -0.18946072877598977, 0.10051462542079202, -0.028506246485392094, 0.28978549165713813, 0.0943809210971998], [0.04126372682614821, -0.27430127910025265, 0.05230804273292161, -0.012583049051405601, -0.03556502593445968, -0.17442234397576892, 0.08433039556756675, -0.0007839300737665941, -0.1257658566745074, -0.25593071122214106, 0.4381090482869367, 0.15864991720929691, -0.16273806726157533, -0.3837670905663028, 0.1606718773898755, 0.24679389150692485, 0.12926272102667122, 0.0773916269765938, 0.2241428760969297, 0.2250897501459673], [0.08080836515427603, 0.17254084701644265, 0.059112466088045205, 0.22056626613057964, -0.02000281731584495, -0.5683962923087612, -0.21836562970285509, 0.09318600826978041, 0.07876624326515601, -0.08879714597027923, -0.27604005505224666, -0.2573300196067556, -0.037812589835930756, 0.20141878956833129, -0.010540714694513793, -0.029373442332278454, -0.2029537049343668, -0.03238049646102186, -0.11851797212091589, 0.004055716305566693], [0.3564177138708958, 0.24758466373463406, -0.2717393360016302, -0.028795914886000577, 0.34454081369281486, -0.26747575542067153, -0.1015291081048252, -0.15610534461538178, -0.02396728025577353, -0.14802140683732415, -0.20206423751055388, -0.007588392280265678, -0.23104212903977134, 0.1205455407165695, -0.21532333223933403, -0.25189354927835444, -0.18171163354540104, 0.18153612913905787, 0.1321441134088083, -0.06959057918202445], [0.2205502764907005, 0.27221895299614196, -0.09859897054201282, 0.01350437065100418, -0.1767382305308651, -0.05805963654609898, 0.18837575065891463, -0.22075119247582775, -0.11122389286435716, 0.15179114853527606, 0.23855410799518442, 0.016301239819570747, -0.29669497968625186, 0.17181081846812757, 0.19765879906656514, -0.13113154986555148, -0.19368073461496038, 0.06973224479127677, 0.013270938126905277, 0.4243770483111341], [-0.17643928389452304, 0.2845647428837502, -0.054180466694729874, -0.006358050189161494, -0.49664338730992086, 0.008411521902789938, -0.011474046027312348, -0.06517193842522147, 0.2546530023445078, -0.06107016457215435, 0.006737725114177771, -0.017734253228357772, 0.017560878840715277, 0.2507281948450234, 0.35429019156968733, 0.0028581765913579488, -0.10929042388903021, 0.12266945157233236, 0.02866371459749691, -0.538060678618746], [0.05925806459123845, -0.1514769216448671, -0.04068398814533514, -0.054593960888949425, -0.037056490252315145, -0.08408155070326381, -0.5463548901948904, 0.16297027481025522, 0.13057676926728395, -0.09864581080611912, -0.20537071210989083, -0.10695402434372366, -0.05004517767348029, -0.26370776337884266, 0.03305503383914972, -0.24133767523588562, -0.1273141470730218, -0.1089749684178345, 0.45739811587984247, 0.31883835363063856], [0.15820878229390495, -0.13211792103443135, 0.43506978973246774, -0.06133493664704693, 0.20837194570979758, -0.013813673632913186, -0.38131920662259966, -0.11964559630933601, 0.4618711628093464, -0.31795027393449776, -0.32435660016671414, -0.11802074394772272, 0.22188690055112426, -0.2046236600606922, 0.006548169899813628, 0.18016670480941147, 0.06834570111405294, -0.4030714710824157, 0.10486756951026249, -0.22085985114471574], [-0.34785175136980734, 0.11159751464968101, 0.1881043669644237, 0.28004279903776313, -0.31078485590959826, 0.11636437074608401, -0.13862268072721018, -0.13753022961912953, -0.11939417034280735, 0.011672221701840504, 0.11991155785986454, 0.32369257886355074, -0.12197090317853096, 0.39892841973686055, 0.323319621794389, -0.18671643224434342, -0.12355375616149894, 0.0396043554119697, 0.09864533310104959, -0.2906286086937918], [-0.039059867294592196, -0.21828929723705354, 0.3105853444965489, 0.07811678297888612, 0.08020965820054028, -0.07321127762746489, 0.012267301163483308, -0.06263212566959935, 0.14680956455902203, 0.09408980836042799, 0.2501807085810761, -0.10657618048310613, -0.08587295440446038, -0.06385291841079152, -0.11914598106137599, 0.17216329815887568, 0.11072483919185783, -0.07499503846162812, 0.06530801483171997, -0.21146421967922469], [0.05324032030285608, -0.058473685791619705, 0.0637027694107564, -0.22355452837383696, 0.1253860825883159, 0.03815079779405665, 0.02691203109945525, -0.1183329344689881, 0.1954729225611132, -0.10723657326924577, 0.04530438281454038, -0.25101235152996637, 0.004720214339184046, 0.21551540872597205, 0.14194677056103025, -0.24999635327094705, 0.015092765002501323, -0.1500701997453411, 0.03173712665120147, 0.27989228122643917], [-0.3268404434094901, -0.012979638864079057, 0.13613424458785897, 0.1829145367841067, 0.07254863527175011, -0.24363746761034, -0.08856614037577147, 0.1445838251619872, 0.40300711222997276, -0.16530360395881216, -0.06059478097348613, -0.13383876027697678, -0.1709089759170342, 0.3300052565362, 0.09944450523498083, 0.023963943578276234, 0.1604356488849817, -0.09026775822724034, 0.0923088613964205, -0.28194670540546074], [-0.003214712877208168, 0.08625221844022256, 0.0009833864477037364, -0.14728824453899542, -0.31008441201361614, 0.04734109463111734, -0.1147235466349687, 0.27826199353207937, 0.1650932900146627, 0.1047914336436729, -0.07067583475368705, 0.10458233800936569, 0.15887612993389308, 0.07627690654000403, -0.021798126027673722, -0.00388493304045311, 0.1152281669838768, 0.05211974272232855, 0.1431718633195158, -0.08223100405096127], [0.07291228398067341, -0.3360653158901374, 0.2921934549127828, 0.05385699082920092, 0.1601186304454265, -0.04076769300315057, -0.19154726155240853, 0.14044765662316877, -0.1965041688989896, 0.029093881084749734, 0.246232167828135, -0.12494529627549184, -0.15168112762534988, -0.07261903471731374, 0.31041226782803977, -0.15262030569714802, -0.23859860807782496, 0.1774361956329007, -0.15136104994347188, -0.209156794560297], [-0.26748260748043506, 0.04363690553610203, -0.0004194950321548233, -0.12364749083876618, 0.14430404555409648, -0.28168391501460427, -0.27344798884578975, -0.09188578881587182, 0.09303539820057492, 0.020718576303306323, 0.1083958744547138, -0.0959132899635829, 0.08893158653944344, 0.10120631329878019, 0.24566306082199862, 0.004856762189136295, -0.07690420073641079, 0.2220256942647393, 0.49074435014044543, -0.064856849509207], [0.09769547098139962, 0.09256911806896165, 0.314520792165708, 0.18669676701779414, 0.20000812774484836, -0.2603447972578623, 0.03800331630305352, 0.14590395002707704, 0.2690514282569243, -0.12933251765166626, 0.12515358915025618, 0.27005352362817114, -0.29403980685057884, -0.12413709873484025, 0.15462465482530063, -0.09873683900745343, -0.21931320400709933, 0.08227502610025979, 0.022170733343881206, 0.178070603307437], [-0.3275612850784894, -0.13206600793849885, -0.13571768448448646, 0.1556568323234763, 0.33493034678330535, 0.03700537060855069, -0.2672822865102678, 0.2669930078025832, 0.12133851581156374, 0.2303820895942244, 0.05185954126350336, -0.21512267618869035, 0.23637097751588465, -0.293481830025509, 0.045644122938290274, 0.12833382195054915, -0.12967463280152133, -0.2606831462388371, -0.0378613267574218, 0.07518950301645047], [0.02442379954371716, 0.17737429427176593, -0.11397665383050247, 0.1698859310586431, -0.10514157076778177, 0.45013643758087024, -0.1302975215929665, -0.21636397056503973, 0.01399004628059113, 0.11180950706158821, -0.018087787031834508, 0.3903674089554453, -0.08202933276083763, 0.22741012891151846, 0.18520184906372475, 0.2172663256455925, 0.046913747801679284, -0.06608773047578473, -0.09679611064066211, -0.0032492528650418903], [0.27410266556660595, -0.33788703821711424, -0.22596210649863419, 0.010055002921383628, 0.24569932365356847, -0.09987352323436147, -0.2243043748143637, -0.08872828859982883, -0.23981081878302613, -0.08441606600936383, -0.23883692686374175, 0.1134880251740768, -0.24994662877915852, -0.059045096534213436, 0.11815421601444183, 0.14521751080949802, -0.14059375367468235, -0.08452111660323551, -0.08843051139189201, -0.25672150871566735], [-0.1393160888023346, -0.334465504624651, 0.04358964201919374, 0.04882569458941502, -0.21183003945707676, -0.09091214376337742, 0.31882456164035944, -0.3397378880629352, 0.5432494578007068, -0.020747156908494133, -0.1759430090300751, 0.202281329228497, 0.029351816653504354, -0.21590446403828747, -0.038392768620245876, 0.03288604492511897, 0.24913648411103276, -0.250486844877382, 0.08345309508929992, 0.1541489531926837], [0.05117375314903863, -0.020978949907315993, -0.27082270023211225, -0.38576858574980255, -0.11075164464260055, -0.1589351836620956, -0.1120677069487688, -0.15184295831681954, 0.0512846647270271, -0.18975525797209156, 0.04519266844449798, -0.3199945882453222, -0.034336423756354144, -0.0027149938062125995, 0.2129251365777928, 0.10712792854065818, -0.1107253093782581, 0.17117378788695853, -0.06516386633550705, -0.3134521633275811], [-0.25448878497127375, -0.2704620575242112, 0.022303644302501754, 0.09802617261676336, -0.21151023010346895, -0.12642712055357608, -0.5151818797419111, 0.17804770083585936, 0.008351269736154328, 0.2056785895897755, 0.011163040635464704, -0.16502323927663592, 0.023448923830084734, -0.15605143506789837, -0.43064878429629255, -0.013710898538752273, 0.3063955406899832, -0.06287356683851571, -0.19333698596813614, -0.008935436892271649], [-0.0036587277512121546, 0.03681348890612479, -0.3029345984369774, 0.40203965015753684, 0.15713273662105692, -0.43367896844259485, -0.08728238510196284, 0.047430349077549824, 0.12604102703606748, 0.09779061943928406, 0.040281670919394455, -0.1856183162798839, 0.027826122133437638, 0.05536045812176514, 0.3265416479388405, -0.20948079274272602, -0.12182303448071946, 0.17366029598856106, 0.004060782648754864, 0.07800551564893891], [0.1073265429892158, 0.3625705310969935, 0.04770092471856534, 0.043423300902973055, 0.14469658007362374, -0.029813040266306365, 0.04860613713741894, 0.20474597661191057, 0.0017082543168746517, 0.25686515241257696, -0.33916937623022464, -0.2828049802687741, -0.053019139778916965, 0.2721090791478707, -0.17673266959713105, -0.026163866488697236, -0.11367153727851875, 0.15084625418679357, -0.26738786833633543, 0.18156040548558675], [0.19595834965453143, -0.0598666003026588, 0.09025353785710528, 0.11861076419866981, -0.2883408298288346, -0.11806368022090159, -0.03961737050457271, -0.1319284008792434, -0.18465126544941712, -0.4534332501004029, 0.21103774960939306, -0.12619444735843838, -0.1326361265837908, -0.1028988538639054, -0.06484167839044777, 0.13402096877264205, -0.09547942580887259, -0.041750735803941424, -0.2626639252492411, -0.05730602476991821], [0.18600179155317195, -0.030204706570674148, 0.2434783174973369, 0.22505422378550363, -0.06965552202154694, -0.04138140054632749, 0.043945426579232734, -0.2745029476711295, 0.14878037641775882, -0.13046959097322722, -0.15441403026154335, 0.13875193246401885, 0.06072432331348925, 0.27384950637844796, -0.2698872880634132, 0.013558318914903073, -0.09822243984842036, 0.21808839910809127, -0.44432426666249464, -0.07927830365665903], [0.20686646868520664, -0.11589215139471588, 0.07975921599458619, 0.10132374855198144, 0.19861331961361517, 0.026789960843151286, 0.20116617331288855, 0.07760713099386098, 0.03871921378463601, -0.29553848441192776, -0.1208390129469325, -0.3172673504478421, 0.09801954239157751, -0.11334196995908007, -0.022903642709450747, 0.10605942573642427, 0.11819196879055868, 0.34400266403772906, -0.06262763874406546, 0.22172504098001428], [0.05112000760749835, -0.23769572366989714, 0.16176603507511217, -0.20969449158870837, -0.030185028895164542, 0.0919383415503142, -0.1074776794601318, -0.049456594110649094, 0.043533417201175935, 0.31567120797109793, 0.019092830897467532, -0.10104355505082979, 0.1695557662300129, -0.0435234516519056, -0.3421265933923979, -0.15854659733337934, 0.2821256486487879, -0.15256996951524257, 0.09328192611977028, -0.28112350032047323]], "B": [-0.1813043871518594, 0.5347770090807569, -0.08448423032542834, 0.4370523473561735, -0.02638812821709255, 0.4624145756666302, -0.20875384554313534, 0.2317399727841951, 0.02254833124049252, -0.051217548358282815, 0.08824554965751888, -0.10085440762933215, -0.1977242409360412, -0.023398937354768123, 0.3816245664321647, -0.005909225533178085, -0.1876899889327364, -0.07420858498845999, -0.22323688424641677, 0.021594448667302465]}, {"neuron_units": 15, "activation": "tanh", "W": [[0.00564802211859777, 0.13695616199115357, 0.1306534395846923, 0.34371183735676425, -0.22686253774594262, 0.06442669605832588, 0.5309194836616032, 0.14819973917568596, -0.1483122643321578, -0.31731719576855105, -0.1944643221685658, 0.3283252337745834, 0.13061792470854797, -0.10100904251299585, -0.24192268986162468], [0.07993453334768925, -0.18248741589320738, -0.14137581985183298, 0.19401640806218748, 0.06752449665626667, -0.0029411987028932583, 0.1168026346491, -0.5144394401479986, -0.09688919980140294, -0.0362539047269283, -0.043867854038913946, 0.6726522840787805, -0.37470926030592255, -0.06274968309438135, 0.34764908019780033], [0.23420683586815655, 0.012746109658176122, 0.440410551066952, -0.3614399083489171, 0.3526307773273112, 0.016779623771083316, 0.2369272347970659, -0.1397341976752648, -0.10336104028729302, -0.12165269101616275, 0.00910676630552357, 0.3197911302108598, -0.2250917672403534, 0.008689603820919963, -0.09193003502214254], [0.38072192037971414, 0.020916361041029084, -0.046229209707072456, 0.20880488771698086, -0.0048766903523467615, 0.03793225366374017, -0.0746014385194997, 0.11738801523842361, -0.39705447939374117, 0.08963342027065489, -0.27993763630311386, 0.10040731498271947, -0.15447946549138844, -0.22201871788058314, 0.23534320141384488], [0.3249108695736574, -0.27220808986589695, 0.11616857706872315, 0.38040122032041723, -0.6584111763361736, -0.0551027277150941, -0.2525825413856908, -0.3051036455638631, 0.25953583856854406, 0.23867343640420166, 0.04213713651878348, -0.38752681201956835, -0.08542740555003979, 0.5534162188311904, 0.24613610946301887], [0.16404926137696088, -0.13766734873466105, -0.04317082629538528, 0.29318281343281183, 0.0027777929953495843, -0.03717575492835566, 0.31892152858092937, -0.4156228293506573, 0.3566167094466149, 0.1153440491208264, 0.2150561642624481, -0.0645814981320878, 0.19964349573255694, 0.27395652281416144, 0.10929616946015114], [-0.014295343890341098, -0.04686906108272595, 0.07270095165512724, 0.28660967310115804, 0.37637720853376, -0.3541323664652718, 0.013272988767414347, 0.633180706565844, 0.2890665277076585, 0.1199469500105308, 0.36626258050136, 0.39176526176372567, 0.1471167432583369, 0.07487906149001568, -0.10320238658739954], [0.16903322131867213, -0.21889769878953297, 0.04568153377314394, -0.19965931759320718, -0.09433581972272832, -0.2421183588963768, -0.21477130717207008, 0.12486271796067212, -0.6537405222884851, 0.3332870140915398, 0.3504139418555236, 0.06678121214291839, -0.3254374134073804, 0.10950048465730161, 0.2758862656617621], [0.32693495476872275, -0.37847245716438155, -0.059043689295243965, 0.010197957453890046, 0.15652206879644417, -0.29353724022256517, -0.19757085767028612, 0.02872940478508342, -0.024132568128957844, -0.09088729521127156, 0.22199680052478346, 0.2738825239216419, 0.49334937288500297, -0.14023750099576515, 0.22111687974934335], [0.09664938682592426, 0.41164882932976116, 0.1684339978248123, -0.2148150858864046, -0.10474626136659959, -0.3900298087029323, 0.530306141434001, 0.19771934475008107, 0.04484943521037839, 0.5104508452789218, -0.18856208696958432, -0.09815911324655613, 0.5683291543848542, -0.2048104531732017, -0.1720488748670603], [0.30518143883478005, -0.12273255613781064, -0.27761762898574516, -0.1689869097974496, 0.1670859900647536, 0.042018757835032026, -0.2451582414768067, -0.13554271928390754, -0.11074711282768722, -0.2970087226455279, 0.0034798119884410384, 0.25530126037861645, 0.28634005551092917, 0.4913487682454116, -0.6023691273552564], [-0.1596339277738826, -0.26233772008387035, 0.27516693711592716, 0.23850158993207698, 0.13437415647224987, 0.5113517405393928, -0.08799228925332779, -0.14097187611094383, -0.3114613318063326, -0.06276367803050308, -0.2439161473812419, 0.26092962549868043, -0.19788267348465594, 0.08140083931230552, -0.018769999580583376], [-0.16071205664490362, 0.4460609659006945, 0.44611245983964043, -0.17617371019615194, -0.029784832410930412, -0.028940920090470043, -0.2692631290193955, 0.19287339743740622, 0.30097569920707246, 0.12056849999756707, 0.6026516284983617, 0.23999156020291915, -0.08607600950909734, 0.06510619267688773, 0.03416771530967617], [0.18049301243941462, 0.2643938974066011, 0.13045956914739976, 0.08227470790219378, -0.4123859818054603, -0.38373492726766506, 0.16079384506420585, -0.16929416138111955, -0.16441861565900845, -0.000986641834630424, -0.40388435853745286, 0.17361423390844835, -0.30599515134106786, 0.1548823672899959, 0.33610056775706115], [-0.0033146504304406793, -0.32694308674978695, 0.23403480087694342, 0.13515480486763795, 0.02131466423734154, 0.10984824973563558, -0.19751133223951345, 0.44096493318833035, 0.40813969359304264, 0.19851002891526154, 0.06466782024609653, -0.2982161552037618, -0.3951441343880464, 0.03127368377209403, -0.22175987628546942], [0.13742774915216135, 0.5115442077058996, 0.08338151974074262, 0.41971716671054843, 0.3757235356410383, 0.06698138300235938, -0.19801654274742975, -0.20140118631971987, -0.17883638637673896, 0.16638333279003933, 0.1458990537476053, 0.02585574868080204, -0.010360287246569675, -0.24049269876516585, -0.30214123672737697], [0.547922941118581, 0.14762091146907416, -0.059526875118367885, -0.1709738030872186, 0.6459600305243753, 0.06126829862321269, 0.12125294538638519, 0.31937302503004705, 0.046295249244830486, -0.35121632330923286, -0.046455367279347924, -0.2342024756569244, -0.24560933947828206, -0.09638836032071722, 0.22560218201861548], [-0.016962965489250706, 0.07296538482373989, 0.2988636265410481, 0.1911964394911761, -0.22365120070639685, -0.2850962099044654, 0.029239155820858384, -0.1695809707758711, -0.2329269812088761, -0.08830016153522258, -0.3556802566975395, -0.23754207449554987, -0.3013598746443227, -0.06965939046173221, 0.04638294599622515], [-0.47125389223187186, 0.2216791107699283, -0.10017717348356354, -0.15312529518072646, 0.020052361507068444, -0.2355221610021931, -0.010534214843537627, -0.3669439962809583, -0.23856911151696747, 0.2596734248603505, -0.05411911290247502, 0.04941270840246197, -0.40739007295682217, 0.0068079811367486595, -0.2635289513455032], [-0.19015283567189417, 0.2677740472466763, 0.28604187963083827, -0.01657203944862817, 0.3993481021022741, -0.09370613242613537, -0.08824516230541853, 0.07233491275883096, -0.22991906143295135, 0.46931301600585495, 0.07939781371153234, 0.23663024301635552, 0.10578776137535692, -0.001279938922690056, -0.4216652652493502]], "B": [-0.3621199162121357, 0.21729432770342405, -0.0639588480718647, 0.05671906855732512, -0.05989670843852301, -0.016538645191857625, 0.3285264955528481, 0.28180058568747307, -0.3288388443667932, -0.03950091829104325, 0.341681936552755, -0.4101945681091813, -0.20041213413183379, -0.06906883898121294, -0.048277004237814475]}, {"neuron_units": 20, "activation": "tanh", "W": [[-0.04013845111991366, -0.1471525824433407, 0.23443734106770303, -0.27981071677219355, -0.49889825942690363, -0.20155189597157613, 0.6800171234596603, 0.8041069545377019, -0.13372219677923144, -0.04924039655255987, 0.388547976046442, -0.30237532228623004, 0.05472195455444991, -0.24987386414544677, 0.09933325898497836, 0.4246885154602916, 0.5063923748951041, 0.2558867835373908, -0.27537826139170296, -0.3518392282999359], [0.7141211200189886, 0.1574243802266415, -0.26382571280531175, 0.25832410838454506, -0.42261234741755943, 0.16247280113192206, -0.06555501526599619, 0.1624726635265047, -0.35724333463879987, 0.41395574407527497, 0.3403206562703237, -0.27326446346792943, -0.21332707139252588, -0.5199953798961251, -0.3983432156878306, -0.2070586600357974, -0.12447851274460554, 0.3758996646421092, 0.33970020183269933, 0.18917523464431668], [0.191060667264906, -0.48722592085412186, -0.3070985270884504, 0.6479565031638291, -0.23004278239405782, 0.12042407753751697, 0.06284381771660648, 0.37204097721770124, 0.00274821013994029, -0.6727763038725596, 0.04733853184247146, 0.3791222200984341, -0.47072805431562764, -0.43605134162737663, -0.07618338124279973, -0.523450633783757, -0.04034937342600101, 0.30586296424291687, -0.23789490582540543, -0.48255883782901654], [-0.25031737200168197, -0.4567167551758861, -0.037536238379469934, 0.4580159594145192, -0.125090194906888, 0.11820162003992268, -0.1877226470251708, 0.22599935170488386, -0.2411910002473312, 0.5637469636967434, -0.17169411725505151, -0.19339858921866362, -0.17948639859085452, -0.06089299692241901, -0.41684115027779267, 0.28940824478831995, 0.3287987675093967, 0.21904712867542614, -0.33792746584299044, 0.2713519389436257], [-0.03293220691238166, 0.5676971636776236, -0.07861983971035577, -0.2386767868305535, -0.12053944835550118, 0.6158106784651791, -0.20964010619237222, 0.1292372059942104, 0.04757785806987395, 0.21167989788944283, -0.2015381087435719, 0.7992702533175025, -0.008331699587736318, -0.13095517750426264, 0.09492943623941655, 0.03683448065238266, 0.6162763532446027, 0.020756016942144295, 0.11434104959504827, -0.5484681071231077], [-0.22312629812568185, 0.37756974188101344, 0.3885541461764335, 0.006650750323215814, -0.1626892967584158, 0.20980124428995542, -0.43273800240590615, 0.09341487688314791, -0.33563266344073567, -0.34569465071199684, 0.16371525679018992, -0.46197901016988396, -0.25289511560439043, -0.24054287619814893, -0.5618517946075137, -0.18717092187319692, 0.011843244532595788, -0.12970632356008588, -0.160797224956219, -0.10798363815331047], [-0.29362579069794065, -0.28722501333493045, 0.3450627673437124, 0.013087878764837352, -0.1870124962413741, 0.4042613297157822, -0.5162604652720258, -0.4611036777713447, 0.2964121317785516, 0.29701866217289663, -0.27684823194517183, -0.09769352263712074, -0.5678565410604346, -0.010015952147451601, -0.3091828605825669, -0.18972013513071495, 0.3051740250725922, 0.8693150626539196, 0.017878904231286623, -0.032128562228881545], [0.07872670048152082, -0.008310401866342848, -0.2976390305629814, 0.8345495999182773, 0.35164549636538206, 0.10078730810374834, -0.12001538003074434, -0.5433498304475742, 0.02189773163034738, 0.5447186868237487, -0.1223443929879249, -0.05807654882925947, -0.2484497425852373, 0.22830369633192743, -0.36392544562940543, 0.583586973533433, 0.3651971732069361, -0.28405530964361225, 0.30434395087006916, -0.3893250532499781], [0.43354877428103783, -0.33516818617556815, -0.16164968538300817, -0.4179796646902803, -0.025604264078210034, -0.14476477534893611, -0.3186768470547945, -0.1569166103116413, -0.012830697368340142, 0.1595789679928375, -0.02755666364810181, 0.6220898997015921, -0.30026553250221244, 0.3674283313139091, 0.047342962462496994, 0.5841279769753557, -0.11312895281037764, -0.077868237489332, -0.7770509459540996, 0.15971555023700224], [-0.2860189513632772, 0.11442847566185449, -0.6737412510826073, -0.2989223678437556, 0.05720854245724229, 0.2152441983021973, 0.5649060475767792, 0.1968749498260478, 0.45996260148612256, -0.38026986311933725, -0.3267571681765499, 0.10339548332889949, -0.09862396180996098, -0.4294581344303897, -0.16708344075357556, -0.5725348353570265, -0.08142877510298345, 0.13243129549512775, 0.40076500709715934, 0.0954427546362474], [-0.27225270281954145, 0.3273244981517712, -0.39824363393802314, -0.16087395793729573, 0.41053904352889864, 0.48646616681168, 0.4156604592404745, -0.26685270848556725, -0.24574778622358615, 0.1575801428538458, -0.142552401310756, -0.05729311723976394, 0.0339998395605327, -0.21204795368383422, 0.26970467877504384, -0.04916248559571066, -0.1910743970581204, 0.3625284743330992, -0.46768449684067864, -0.01556177478622456], [0.566155777741218, 0.39089234009824536, -0.16760247246752305, 0.13351799679793855, -0.5110218136661986, 0.4067028307896575, -0.0829621880086987, -0.40576909093139635, 0.13106209965157364, -0.23298128045097335, -0.19373700883504236, -0.05262117405674057, 0.7594659203287155, 0.08907827310471415, -0.1939757903225307, 0.0015722522836739492, 0.24986575817013632, 0.05859441501688857, -0.5245624490924141, 0.10152183885126591], [-0.3785285789169808, 0.2530476976592689, -0.6118794051611287, 0.24336113658693645, -0.41450977862486976, -0.12291225123269509, 0.5602421471193475, -0.07521587839787673, 0.09703716799001978, -0.05897769786719121, 0.23113194453883282, -0.22487468238981254, 0.3180461400760321, 0.21329145866338656, 0.09618314402164854, -0.4442303297527938, 0.07016054395598847, 0.1842380008171706, 0.017583683113118514, -0.15351998974923228], [0.32391498953326897, 0.3820611257874734, -0.050142879678484145, 0.1424980927973982, 0.22435233121576653, 0.5236310104526385, -0.13154607480917158, 0.3396399805223455, 0.7756285645939882, 0.17383011304183843, -0.45975632849525844, -0.08224198210960983, -0.8208505343011362, -0.5732472572399246, 0.6990030866907646, -0.11832349781226124, 0.3168202676988242, -0.09845667872677501, -0.2081148875429801, 0.48194476509806666], [0.42791899769603087, -0.12042724262460737, 0.5056813217336243, -0.00708400526859016, 0.1559139067052166, -0.4496119115529921, 0.45768221893202576, -0.15028398801131107, 0.528792932536269, 0.4065481369065406, 0.05317421725208939, -0.3526542179325399, 0.25092134908954083, -0.21813336121801372, -0.5658610991177043, -0.18290720823807433, -0.2748724896283667, -0.2688251388137378, -0.5833215944557656, -0.1870725779537543]], "B": [0.33784510236517723, -0.16351895295025418, -0.3696062423031531, -0.3979165614384708, -0.22000992578141174, 0.07016043971896296, -0.08529796131016264, 0.07966849768695165, -0.3162245141530091, -0.34118207342374546, -0.5100278814345734, -0.2050195190800267, 0.029703971100850095, -0.3757088288148956, 0.13237030796370217, 0.234735738434137, 0.35434049292178543, -0.3412422901542352, -0.006549699912281409, 0.2236839413903916]}, {"neuron_units": 35, "activation": "tanh", "W": [[-0.34073069115778876, -0.1606530031661321, 0.17288804762525603, 0.22340265718613864, -0.555825869053388, 0.3002027740621607, -0.5654921855191803, 0.2833491702672915, -0.8027271182192691, -0.2585726082033746, -0.7452055717522661, -0.20796068335650864, -0.2890665797547779, -0.7800122592955556, -0.23453765058293438, 0.487362084702884, 0.2920152383128942, 0.3834433064785355, -0.04762404665570672, 0.5695408769375337, -0.6714709552060684, -0.21730562526360536, -0.4883617189338549, -0.28518000238984087, -0.45579599516299923, 0.3029672669784878, -0.4636182286834037, 0.21793500809211155, -0.5710112745727745, 0.15207368315775405, 0.004469368336725002, -0.3500448967619391, 0.2241646345511842, -0.0660003745679391, -0.48243493363149675], [-0.480325506285755, -0.16551524443437807, -0.46839827752837965, -0.4316912153474729, -0.4498306644787199, -0.06929578133373576, -0.40632815155627533, 0.3778303058130178, -0.3044573500323001, -0.5192015554761498, -0.5928200155993322, 0.17443907037443504, -0.04771298544550898, -0.03780819603095339, -0.1440444035094517, 0.15929779296067242, 0.0555365748320824, -0.8272469947320039, 0.14536548954778294, 0.18772777595131812, -0.23432998051359644, -0.4386168020894744, -0.16834228236230855, 0.09287696167147257, -0.41318812989274, -0.8791323131770077, -0.35015737854007134, 0.27640217746243384, 0.05772802218444105, -0.5648594824143417, -0.41369411971325515, -0.4186355051283098, -0.17503935632762718, -0.8149982335125145, -0.14199130028400722], [-0.011417447100076101, 0.03133068956588559, 0.5478706849105528, 0.00887028434619359, -0.381106839295354, 0.08293361520433519, 0.18906835022306, 0.22064806120255542, 0.15615844253323302, 0.14188067156326123, -0.017024921257222336, 0.07488719182391321, 0.3117961143838861, 0.001848206113290471, 0.07217329937932845, 0.4986445594883484, 0.4485596534468104, 0.7488614569772931, 0.716237158404914, 0.6796325672463186, 0.14986444094981627, -0.20331589613055315, 0.13876652141556492, 0.01370138673622759, 0.5273766528454303, 0.41278687599215863, -0.7872420124345401, -0.269236695518159, 0.35206513866379907, 0.4437665494284233, -0.37769986629910357, 0.6926324762313433, 0.5701261856496337, 0.474850501205406, -0.11961969643220872], [0.1834178692504643, 0.2426548046792384, -0.18941678059353315, -0.1731474831196834, 0.10265780657409429, 0.576787011150473, 0.051828745347162586, -0.19177147304397954, 0.11810151240425448, 0.08989871828094645, -0.28443692485247174, -0.23170617135613816, 0.10397313726715131, -0.41130329850140995, 0.5093901489906368, -0.08408238550248144, -0.7331678344968627, -0.5942287877053237, -0.519454364280483, -0.1103176133314411, 0.2768799449003982, -0.22548310610872127, 0.37708745820633843, -0.34450246367105963, 0.08905104052012666, -0.18354259947208587, -0.1157978981567497, 0.24591953234662764, -0.37637729846526785, 0.4235070125915765, 0.31834118103745745, -0.09424574608863114, 0.5261834731007292, 0.5901553056038655, 0.44324858913141496], [-0.10502775560250659, -0.1498405901849939, -0.3679522934130158, -0.5892464909536314, -0.10490184111078771, -0.10431863659411894, 0.584297731905859, 0.74095307356577, 0.12199884356933492, -0.06078813979480849, 0.17803150813102953, -0.1224304108889797, 0.39436659831464854, -0.17191037723677655, 0.0236107952726449, 0.07147363929827061, -0.06739326238586435, 0.15170004450553423, 0.15707553610346933, -0.2722190859129708, -0.26693856250159215, 0.1594777748426577, 0.22087362531079477, 0.30241910110216963, 0.254041194205848, 0.08536221132083863, -0.4461746318951294, 0.440492114417335, 0.010037310193975128, -0.17342950011952893, 0.055314998590006985, -0.7323117009091255, -0.27923405444424215, 0.38053833471534254, -0.00427691678777112], [-0.22387005595821782, 0.008488776165612244, -0.16190385595601053, -0.10550878358422713, -0.15365022452671884, -0.36854934950358426, -0.27788355082188737, -0.2110411351409765, -0.24414743617155002, -0.2738251290617876, -0.17068676856350307, 0.07418788359548575, 0.11367773194103444, 0.0910995372607435, 0.1033488991688703, -0.5151260277300111, -0.4869761492856693, -0.11874666470469472, -0.26331881716705496, -0.10466367235586999, -0.43102453992204165, -0.004008791474507925, 0.20272172159809537, -0.05180291518334652, -0.19477194463297015, -0.6991823157139354, -0.012898985330125836, -0.17633539566454207, -0.20158398010787182, -0.4625837425414595, -0.145937076241983, 0.09024949401478015, -0.4510377571861101, 0.07553266506273777, -0.2674904592900215], [0.3206261492368483, 0.566731871766111, -0.23950151210552922, 0.3004976907651485, -0.06285756234012006, 0.24770149308474698, -0.4946176695286849, 0.02578241781649341, -0.005325030918003736, 0.4839034547539438, -0.7464893786510522, -0.3256518317126258, 0.24403104862836283, -0.06062824052158301, 0.10665971716283949, -0.022203495637261927, -0.4146084662210926, 0.17337598143240904, 0.5960571567174489, -0.11436266970750182, -0.13074049085107345, 0.18648485512071686, 0.34671606897762847, 0.32144050174825517, -0.642313449554432, 0.0677681367766085, 0.16034208627385937, 0.09469254377213414, 0.40528976695629615, 0.08562151155346713, 0.44074309925279553, -0.41289172580828054, -0.029856858432712446, 0.3128387071817832, 0.348550112199178], [-0.18413194059550017, 0.36253564494014895, 0.19957205530271505, 1.0455463792362774, -0.34153496308942755, 0.08960619910627793, -0.3652055737141322, -0.2801636085959074, 0.5685193277283892, -0.2797232109985966, 0.39187502889486175, -0.1121338978554697, -0.10948530698027333, -0.014617316961322192, 0.7968249391172406, 0.22769629124506688, 0.6576600646859428, -0.17928620976125448, 0.6475043738141667, -0.34758206308604206, 0.4922570761592246, 0.22175854093233324, 0.08364387011816819, 0.21641879341976342, 0.7013334422693875, 0.06888801584039914, -0.005957637093087954, 0.061422160118401486, 0.5608332012585725, 0.11419821791742557, 0.12796645130881676, -0.07078189771825606, 0.060631250559866616, 0.6808596226650386, 0.09928215099567242], [-0.11926883084678211, -0.16730613666563865, -0.364119351118646, -0.155866596435709, 0.35605750968980043, 0.01322634393863543, 0.2821376333136414, -0.12959040844877667, -0.011585159781583915, -0.14972877898820938, 0.3023466906252385, -0.25324680007620326, 0.027390409576916755, 0.17646056384693742, -0.06588836353908674, 0.8773464864003526, 0.18828453029893485, 0.5789225008822287, -0.2958054125198873, 0.37254937754513795, 0.0743131134902782, -0.15181118987492517, -0.28788292696606155, -0.2677610447929977, -0.3498343543496892, -0.009422895996725383, -0.16099110675027012, -0.2678929199197971, 0.3466601462939631, 0.20698146056482847, 0.4126612710957168, -1.0686261022232242, -0.08180986547651667, -0.047899202264379784, 0.108987054178737], [-0.12157936894804534, -0.03334918320058944, -0.06985877741880975, -0.1966946482550647, 0.19580750086587775, -0.6378507982988776, 0.4742086235328198, -0.05309490768480636, -0.43065042858292796, -0.18744830428257356, -0.3492582493883146, -1.068060402398777, -0.3164705275689456, -0.28247351408580695, -0.28644006845882886, -0.273939858732413, 0.24413186427129618, 0.07286676033874741, 0.3936213834577601, -0.22347206874208905, -0.3510983445051121, -0.5891763871646398, -0.37267993911534597, -0.28136641534126544, -0.3671132754309267, 0.045937480606216316, 0.321449461317951, 0.6766985823454802, -0.2847573306188936, -0.37258713062388543, 0.4107120880211178, 0.5852922726850994, -0.2622985591577717, -0.11778313716373956, 0.30029240491259074], [0.27209732792075014, 0.12703443737026227, 0.22155895902271933, -0.048918009632030114, 0.4072755169250329, 0.08319200452707688, 0.18924606301652938, 0.28745885014045625, 0.07481340413590541, 0.15774998930267714, 0.4288938161629506, -0.03614306372624864, 0.11697656139199938, -0.5679848239557518, 0.5236265659318349, -0.04809586242946098, 0.145168063559611, 0.0274309504964019, 0.1454480273947341, 0.21282701649674987, 0.4649922718079966, -0.14257114596127568, -0.25625509481293324, 0.46169408488825425, 0.4075302198446666, 0.05446910909571331, 0.5229664599602585, -0.12534631631497734, 0.15090302592831614, 0.25437964189908313, 0.13517302603167147, -0.0007325744857274847, -0.10920133198790302, -0.08580709309404051, 0.2839341310345889], [0.4531002579016176, -0.17366104271305546, 0.1844139456643391, 0.43602194232046837, -0.07724379996371124, -0.7108473177570702, -0.4448816020937765, 0.8231137091069803, 0.18418642582254, -0.40338988105385404, -0.2557725275734134, 0.19356069700287992, 0.38953728919957403, -0.4646004920979075, -0.17711414685036234, 0.09075075108425704, -0.15359332916898089, -0.04755440088489963, -0.5696119999164452, 0.1534855392289879, -0.3241371114552772, 0.2349202805173246, 0.1699068899954241, 0.08591631953986607, -0.591224339534758, -0.42076241593435965, 0.3547553279958562, 0.5480820622929916, -0.3682924136551164, -0.13131393625083865, -0.24972185610366432, -0.12773772560417304, -0.43469142395537197, 0.25344272493242664, -0.2325378026108477], [0.20629733414263554, 0.914753345938607, -0.2267955006378802, 0.24189849841778102, 0.10544549677281503, 0.2578059960330508, -0.43056433439015146, -0.2076060204107575, 0.31824040621910327, 0.6723778328055708, 0.7825071873780828, -0.2267413292523222, 0.05392107672084102, 0.05539275813132416, 0.1900105389497783, -0.0380107773555013, 0.6147855235998384, -0.29181215260758125, 0.431509146866036, 0.679722841858812, -0.44033164397853847, -0.543625891177879, 0.3338655139960472, 0.25992175049541705, 0.003915258329514955, -0.05707966741868504, 0.3705809682107857, 0.2998364915448027, -0.011041086343432564, 0.1630765513192177, 0.10127411541304453, 0.34623264573940926, -0.004005742920740983, 0.03536486081734044, -0.126921325015406], [0.22391009202969928, -0.5862422038394445, -0.13118763190860216, -0.036701856474168716, 0.06443992335030332, -0.005697312000664646, 0.8002336184646431, 0.2009243451717133, 0.39046549231086, 0.23714575772436194, -0.17338163761448128, 0.17918440575141661, 0.31230222677402375, -0.19786265160768332, -0.05848011279149729, 0.3328030118440655, 0.050987110256435826, 0.01182714939891431, -0.12949551124797157, -0.18351624605668732, -0.2333210041306878, 0.08747004483022013, 0.1366063843361646, -0.16476926812567985, 0.06467264780696365, 0.3053705405437291, 0.7001150612460041, 0.7824236052825532, -0.2932461677432638, 0.03209263661757462, 0.1831148108782222, 0.0028542798833858115, 0.4728552646341639, -0.22977066043513503, -0.117682980163123], [0.017045351212159984, -0.7836263122097649, -0.4462933428597718, -0.016623013291566967, 0.08889566468990893, -0.3342025392113712, -0.014509187506284143, -0.1293064007944754, 0.04656854821803046, -0.5797339309040741, -0.292091356988431, 0.6966985927010362, 0.2538998963195667, -0.018014574498435465, 0.28489414226074383, 0.4425105580189349, 0.39555715637519495, -0.06980983262638019, 0.15768644874179108, 0.1469035889546084, 0.43684749778865317, 1.0025091150270693, 0.5222822815959987, 0.1990706397578028, 0.09529398334674416, 0.058421923198792795, -0.1760424741306985, 0.1797519863354873, 0.28867609305355246, -0.16721315112282187, 0.3170543957852951, -0.3205628497535217, -0.6582660164967142, 0.02480674292507615, 0.3110524142539027], [-0.35138577331363247, -0.11873030689467323, -0.34325069467772384, -0.3512226097391226, -0.35494029349770456, 0.09769541526480215, -0.18085770105314403, -0.026362455161239414, 0.3928988542609978, -0.6217042432724079, 0.01127979181596151, 0.32917359969285437, 0.43111300124238255, -0.20758360946313, -0.11185774323708025, -0.7009949407817556, 0.474701125958166, -0.3780201584166066, -0.17988169058210932, -0.45115423622331785, 0.2539370645984111, -0.5174216762035971, 0.44835116415264376, -0.12684889989533432, -0.1749363346363378, -0.49027061922228904, 0.31769610357106365, 0.16053592340476153, 0.07489572236143674, -0.20316202919446474, 0.2298073999072858, 0.2424421894340838, 0.6029234793477242, 0.315711802377109, 0.4638079174597901], [-0.12935610456750143, -0.058696421497002944, 0.22938782423452825, 0.468985226479019, -0.3308252833538372, -0.33488289164382534, 0.4283984107047967, -0.058509692117301976, 0.2108953062884641, -0.1845681835339816, 0.04987034540257366, -0.11812983517597098, -0.4865790440040336, -0.8999794593895077, -0.29797761343023854, 0.5388572954729777, 0.02495872805309984, -0.2111671815006906, 0.382941216559569, -0.34865812292371745, 0.059141443632737406, -0.4291680119315522, 0.1805554847504312, -0.5220233881783402, 0.1609902643794095, -0.030969935559666897, -0.16563324381839717, -0.26460842405584983, -0.06710595247752228, -0.142453437586973, -0.1838803051559982, -0.35346129307739027, -0.11760406469327347, 0.36199330873543445, -0.1502216257897585], [0.40715388016872245, 0.24170396059944776, 0.22930748119595823, 0.08836069870808679, 0.5397810873383382, 0.3969201624105096, 0.035412901692036536, -0.37493008123082566, -0.17252105912011362, 0.4797379174071407, -0.07238878314155359, 0.24287428801588928, -0.39185296558891713, -0.1317854058560293, 0.031215327920296437, -0.30183092071321854, 0.30714311563575475, 0.21416911033041744, -0.02667588473389642, -0.1844043280869121, -0.5383435136492971, -0.23614901013749684, -0.7169286574765743, -0.6550685241861489, -0.023657491264045604, 0.021924847281325422, 0.043680490831036096, -0.4437468701992045, 0.7889621314769956, -0.14952416770111782, 0.4548836187867347, -0.38186146730482334, 0.15949654985888853, 0.30467785714783174, 0.4330467047708798], [0.444466895049359, 0.31428402060592964, -0.066415684153281, 0.09730227027427274, 0.22080470283337347, 0.1873287102519008, 0.44602616129993045, 0.5436881385477292, 0.5948164743556238, -0.4511348818717208, -0.2779606398125938, 0.6852903632546178, -0.7604507375320658, 0.4419627526874499, -0.816910602087237, 0.33048312404696045, 0.2826774484230268, -0.4443234796581136, -0.02932311761274688, 0.4353918634076812, 0.0826974226590206, -0.22741720020871353, -0.42306835753462324, 0.37060509412459913, 0.14032027183038268, 0.06345322642623218, -0.27150630673085285, 0.22460531266759903, 0.6034171659606283, 0.32058325402763177, 0.06493281447330249, 0.30211236396807034, -0.1541242082606034, 0.37758856275438846, 0.34943135770390943], [0.09382466902792326, 0.06554794270707483, -0.8336887374840766, 0.33630201278853783, -0.08864901423047743, -0.16909938795159543, -0.028198622972121636, -0.05704451451460331, -0.42465656684299025, 0.08378410455745972, 0.026421594099661674, 0.3470681065690456, -0.29641212827578667, -0.10103732698103046, -0.36000065055653413, 0.06453454297088193, -0.08474787419119637, -0.5014871191675322, -0.43817411199513345, -0.0911903260090242, -0.10560891178507308, 0.18866994320580366, -0.54148452778332, -0.07413089717114439, -0.08026074471939632, 0.35138468255307004, -0.09477220191601209, 0.315389474347102, -0.5755539758203558, 0.6220791457385855, -0.2471867139998479, 0.0676400047520566, -0.4171615268379468, 0.611424585832666, -0.63363824649992]], "B": [-0.13408153708496837, -0.005481053441206093, 0.20950432921180975, 0.021793462671617855, 0.07652242467704039, -0.14537367798585837, -0.3567686527149621, -0.10674436323591031, -0.10540422461816654, 0.1881014856831119, -0.14706758259383237, -0.22733730117040524, -0.2222998760856962, -0.15255948388603333, 0.005549305859322095, -0.3640746920284383, -0.35866335514662945, 0.08169763785855075, -0.07971380183003579, -0.37524680715561276, -0.11976303528771585, 0.12512364400389042, -0.024125005214507958, -0.4051927960866131, -0.0012954067972574253, -0.19240064187033898, -0.10708551629242573, -0.261103304575392, -0.332774474949412, 0.0022692326714186, -0.40299625889989366, 0.07165222809278708, 0.28399215066735845, -0.09849212503816097, -0.07758939747753227]}], "mae": 1.176079225669603}